9 50
Freezer 0.475306 0.033891 -0.477090 0.043075 0.275142 0.105225 -0.229303 -0.052713 0.360884 -0.114200 0.548133 0.220196 0.099145 -0.234770 -0.105135 -0.219472 0.375935 0.051032 -0.137018 -0.166600 0.041514 -0.044077 0.128860 0.055134 0.070920 0.081249 -0.100168 0.240127 0.038464 -0.029474 -0.198607 0.327423 0.167951 0.058461 -0.335247 -0.380515 0.248638 -0.191080 -0.241286 0.271149 -0.783241 -0.157887 -0.068596 -0.001438 -0.067555 0.348070 0.307527 0.232721 -0.306159 -0.235948
PlatesCupboard 0.462679 0.047461 -0.449787 0.045127 0.284331 0.107660 -0.216725 -0.063195 0.341383 -0.114503 0.543682 0.204254 0.083417 -0.217323 -0.121370 -0.211307 0.358909 0.039029 -0.142376 -0.177406 0.029328 -0.058414 0.125931 0.054087 0.063493 0.067403 -0.097126 0.230210 0.043471 -0.033622 -0.191208 0.305906 0.145332 0.052994 -0.308295 -0.371782 0.250004 -0.178842 -0.226073 0.266717 -0.753361 -0.149123 -0.079791 0.000304 -0.082269 0.326328 0.291129 0.235622 -0.303671 -0.221321
HallBathroomDoor 0.391486 -0.362550 -0.317558 0.043111 0.505261 -0.025010 -0.676612 -0.578554 0.070783 0.225317 -0.075497 0.664521 -0.256509 0.197265 -0.219473 -0.072342 -0.121683 -0.232238 -0.144477 0.219397 0.054628 -0.171311 -0.517300 -0.316125 -0.165591 0.093652 0.225579 0.084060 -0.675538 -0.232776 0.148021 0.771482 -0.135455 0.010247 -0.316825 -0.375450 0.534882 -0.236778 0.289696 0.327507 0.365220 0.204792 -0.444096 0.721176 0.147985 -0.312581 -0.400259 0.108248 -0.035945 0.161297
ToiletFlush 0.421083 -0.360888 -0.334182 0.057692 0.531688 -0.019183 -0.705781 -0.606188 0.079367 0.220235 -0.076413 0.701215 -0.271055 0.198773 -0.214942 -0.091256 -0.123853 -0.236658 -0.153371 0.211376 0.072051 -0.163138 -0.529549 -0.322118 -0.170235 0.084050 0.223855 0.091327 -0.698922 -0.236277 0.157367 0.800773 -0.132204 0.027110 -0.339407 -0.401850 0.557933 -0.254835 0.293371 0.333109 0.351837 0.206794 -0.456390 0.741049 0.147184 -0.313126 -0.399714 0.126920 -0.054541 0.153012
Fridge 0.505325 0.032818 -0.490090 0.047962 0.308036 0.108897 -0.258688 -0.084085 0.365629 -0.111574 0.575764 0.240481 0.089880 -0.233091 -0.122728 -0.218723 0.387290 0.037287 -0.151105 -0.166939 0.035412 -0.061649 0.126586 0.050673 0.079762 0.085695 -0.090758 0.245236 0.018398 -0.042844 -0.194150 0.355306 0.166700 0.055139 -0.347279 -0.399673 0.274249 -0.206673 -0.239380 0.286059 -0.790152 -0.144791 -0.087406 0.020313 -0.072028 0.340714 0.285053 0.239105 -0.325985 -0.231415
PansCupboard 0.481402 0.047317 -0.474907 0.057857 0.297792 0.103095 -0.233519 -0.067466 0.348644 -0.103513 0.573711 0.209682 0.083053 -0.231014 -0.117465 -0.217702 0.378466 0.044610 -0.152029 -0.188436 0.043844 -0.056933 0.138805 0.056539 0.081792 0.077821 -0.100099 0.246535 0.055312 -0.028996 -0.202492 0.322426 0.162586 0.038039 -0.330062 -0.384170 0.263447 -0.197811 -0.231628 0.274970 -0.795544 -0.167052 -0.085456 0.002645 -0.083470 0.359347 0.297231 0.248492 -0.324620 -0.225334
CupsCupboard 0.460474 0.067714 -0.447137 0.042587 0.278527 0.099944 -0.193812 -0.046774 0.349852 -0.114161 0.559017 0.175279 0.099731 -0.226752 -0.116382 -0.196459 0.376272 0.057938 -0.142474 -0.176864 0.029745 -0.045564 0.150477 0.076005 0.072362 0.074129 -0.115938 0.241692 0.056175 -0.017933 -0.205033 0.292408 0.165271 0.042198 -0.315181 -0.349451 0.244947 -0.190795 -0.236895 0.267666 -0.779967 -0.155200 -0.070534 -0.029766 -0.087023 0.350475 0.305471 0.239093 -0.302456 -0.226257
HallToiletDoor 0.414471 -0.366962 -0.338020 0.054439 0.507748 -0.032658 -0.692133 -0.600171 0.064177 0.235519 -0.089115 0.691693 -0.270361 0.191982 -0.227519 -0.071955 -0.131071 -0.248181 -0.144510 0.220800 0.061430 -0.174561 -0.532686 -0.321071 -0.166199 0.087546 0.215376 0.086932 -0.687866 -0.227359 0.148729 0.784949 -0.139365 0.022715 -0.339790 -0.375917 0.552874 -0.252507 0.286210 0.328731 0.365720 0.204752 -0.459119 0.733482 0.133573 -0.313647 -0.398128 0.105518 -0.056852 0.167651
GroceriesCupboard 0.454549 0.032847 -0.444582 0.050375 0.287012 0.093279 -0.235231 -0.079890 0.333188 -0.082370 0.509551 0.224595 0.069832 -0.211357 -0.122562 -0.197429 0.341557 0.037877 -0.142984 -0.161339 0.033228 -0.062570 0.112238 0.054001 0.058732 0.078489 -0.087605 0.217994 0.017315 -0.033573 -0.169839 0.324608 0.136783 0.034473 -0.305580 -0.364862 0.249562 -0.189479 -0.204231 0.265711 -0.708655 -0.130747 -0.092065 0.023722 -0.061214 0.305821 0.261820 0.229278 -0.297972 -0.197135
