11 50
PlatesCupboard 0.174359 -0.014878 -0.065805 -0.184602 0.088464 0.015555 0.032258 -0.060736 0.260654 -0.256337 0.282219 -0.050089 0.054687 0.071254 -0.296981 0.034499 0.207267 0.359676 -0.074263 -0.091090 -0.002328 0.014674 0.053597 0.054225 -0.269279 0.138232 0.012583 0.230138 -0.317294 0.077962 -0.223561 -0.088058 0.087152 -0.189027 -0.279454 -0.286522 0.131795 -0.393807 -0.204927 0.263778 -0.276037 0.153818 -0.308788 -0.138525 -0.260965 0.114509 0.130923 0.218765 -0.000473 -0.321007
CupsCupboard 0.190135 -0.016678 -0.078353 -0.222451 0.085247 0.008271 0.048070 -0.047217 0.303614 -0.283379 0.334140 -0.078341 0.086756 0.065568 -0.328876 0.058878 0.256780 0.420972 -0.079817 -0.082648 -0.012086 0.021193 0.080009 0.073727 -0.289499 0.175297 0.007660 0.267034 -0.354256 0.094166 -0.264255 -0.097891 0.121943 -0.223773 -0.323094 -0.301907 0.136469 -0.450434 -0.244887 0.299170 -0.324227 0.175282 -0.333122 -0.175201 -0.282140 0.143092 0.150059 0.233414 0.012358 -0.362744
WashingMachine 0.178703 -0.023208 -0.085731 -0.248379 0.064459 0.010091 0.055715 -0.022452 0.310351 -0.305639 0.370606 -0.087564 0.093966 0.045560 -0.348363 0.056651 0.277886 0.446601 -0.086190 -0.094302 -0.032224 0.002416 0.097985 0.067555 -0.302694 0.180220 0.010023 0.274723 -0.347184 0.092163 -0.286308 -0.119897 0.128510 -0.227793 -0.329354 -0.328376 0.110098 -0.456134 -0.276743 0.297617 -0.353317 0.180607 -0.339081 -0.196225 -0.297569 0.148313 0.174973 0.239258 0.022437 -0.383417
HallToiletDoor 0.519848 -0.087724 0.064319 0.280341 0.568290 -0.053015 -0.477513 -0.989518 -0.045256 -0.032385 -0.636624 0.625178 -0.567274 0.578704 -0.193241 -0.042238 -0.417902 0.122847 -0.131550 -0.088218 0.556117 0.329653 -0.583191 -0.149335 -0.523014 -0.113655 0.078380 0.211985 -1.142628 0.170557 0.261805 0.345303 -0.115263 -0.037365 -0.530461 -0.388155 0.738017 -0.832564 0.339201 0.235063 0.584385 0.408499 -0.813742 0.554885 -0.275871 -0.325635 -0.427490 0.407931 -0.230838 -0.137183
ToiletFlush 0.495719 -0.076845 0.072782 0.254576 0.553961 -0.037569 -0.450165 -0.937258 -0.020020 -0.060374 -0.577201 0.581818 -0.531392 0.559017 -0.188364 -0.048861 -0.377127 0.151829 -0.133746 -0.098804 0.532387 0.322577 -0.537992 -0.135371 -0.512046 -0.100415 0.085211 0.213460 -1.101451 0.160970 0.242760 0.319324 -0.098623 -0.049953 -0.506083 -0.399193 0.699072 -0.808142 0.313846 0.235524 0.531965 0.399463 -0.780931 0.514881 -0.264268 -0.302538 -0.401812 0.411703 -0.212020 -0.160959
Dishwasher 0.197010 -0.029857 -0.081354 -0.244053 0.066460 0.020093 0.064372 -0.032135 0.325595 -0.314582 0.363852 -0.099092 0.105594 0.059592 -0.354536 0.060186 0.288054 0.453020 -0.076212 -0.098120 -0.019927 0.014759 0.102741 0.081963 -0.300980 0.199072 0.021002 0.276332 -0.356040 0.101666 -0.285349 -0.128118 0.127279 -0.246262 -0.325319 -0.330077 0.123069 -0.466760 -0.282570 0.314543 -0.355205 0.186526 -0.342420 -0.199689 -0.298214 0.155853 0.164741 0.230481 0.006332 -0.400609
Fridge 0.186886 -0.027960 -0.086725 -0.237097 0.063383 0.015932 0.048269 -0.026518 0.311801 -0.301516 0.362676 -0.080749 0.103319 0.047437 -0.329254 0.052933 0.277346 0.423084 -0.074381 -0.081791 -0.027020 0.007754 0.097074 0.070364 -0.275545 0.184377 0.020755 0.260963 -0.337879 0.083220 -0.272541 -0.110168 0.128979 -0.220358 -0.322327 -0.316106 0.112826 -0.440680 -0.272290 0.293300 -0.351357 0.175818 -0.316245 -0.189441 -0.283578 0.150937 0.158912 0.217930 0.008827 -0.378222
GroceriesCupboard 0.189807 -0.020096 -0.090349 -0.221863 0.079524 0.011164 0.042638 -0.037324 0.312083 -0.280150 0.342920 -0.065897 0.085322 0.047942 -0.335120 0.048073 0.262832 0.424162 -0.083138 -0.095805 -0.017774 0.007537 0.089647 0.077739 -0.291219 0.177971 0.008868 0.259399 -0.339743 0.091163 -0.262561 -0.098763 0.115077 -0.227713 -0.316696 -0.320156 0.121474 -0.444755 -0.254017 0.298633 -0.344173 0.172371 -0.330796 -0.178179 -0.277629 0.147771 0.165318 0.237654 0.002445 -0.364016
PansCupboard 0.194005 -0.028643 -0.091144 -0.234277 0.082676 0.009256 0.044740 -0.040882 0.317403 -0.299446 0.372816 -0.083030 0.087369 0.062019 -0.350821 0.051430 0.277024 0.448771 -0.087464 -0.102595 -0.010643 0.010774 0.091397 0.068816 -0.300298 0.190003 0.019679 0.283026 -0.353901 0.095784 -0.288041 -0.113567 0.127129 -0.250931 -0.340866 -0.338119 0.135169 -0.473870 -0.265156 0.314192 -0.362544 0.172175 -0.355689 -0.185344 -0.304712 0.166828 0.164795 0.250869 0.006006 -0.388475
Freezer 0.180720 -0.030726 -0.084548 -0.213270 0.072464 0.011005 0.036549 -0.040861 0.294378 -0.276493 0.309348 -0.057276 0.082044 0.061372 -0.306013 0.040800 0.239942 0.403030 -0.070649 -0.078664 -0.003096 0.024905 0.065204 0.059547 -0.282608 0.166344 0.014067 0.253103 -0.341077 0.086419 -0.251765 -0.088692 0.115404 -0.204753 -0.316149 -0.303743 0.126337 -0.426943 -0.236619 0.283811 -0.313194 0.161483 -0.315313 -0.160526 -0.265613 0.138930 0.152773 0.222688 0.013567 -0.355882
Microwave 0.179051 -0.024084 -0.074675 -0.218859 0.075973 0.004422 0.038411 -0.046491 0.305367 -0.284677 0.330135 -0.061185 0.079169 0.071592 -0.323724 0.047792 0.243345 0.418997 -0.073901 -0.084485 -0.005970 0.016954 0.075162 0.069660 -0.286498 0.174165 0.024594 0.251593 -0.350661 0.083553 -0.256919 -0.111169 0.112375 -0.233431 -0.326701 -0.312807 0.125862 -0.450654 -0.240256 0.292734 -0.329427 0.173439 -0.332131 -0.176714 -0.292001 0.151239 0.147458 0.234598 0.004667 -0.364329
