13 50
Fridge 0.396089 -0.150061 -0.197464 0.048426 0.093098 0.064592 -0.192845 -0.256866 0.167960 -0.131017 0.149318 0.357513 -0.036985 0.051870 -0.087320 -0.141780 0.052257 -0.061576 -0.045270 -0.059373 0.188556 0.025819 -0.163905 0.035370 -0.060817 0.138599 0.082930 0.058819 -0.297865 -0.067059 0.023490 0.209365 -0.029955 0.069509 -0.382391 -0.311991 0.227175 -0.185929 -0.124633 0.240879 -0.171264 0.052043 -0.207002 0.192252 -0.028723 0.051288 0.012067 0.093627 -0.257366 -0.144971
Freezer 0.410754 -0.139088 -0.211171 0.054777 0.108252 0.074989 -0.185422 -0.249999 0.194513 -0.141468 0.156760 0.363741 -0.038881 0.056187 -0.100316 -0.167078 0.055155 -0.047340 -0.048009 -0.088442 0.197711 0.028362 -0.163895 0.043917 -0.086737 0.137062 0.073191 0.066991 -0.285932 -0.062389 0.010221 0.201027 -0.043967 0.061808 -0.382938 -0.334628 0.239855 -0.189661 -0.126038 0.266340 -0.207698 0.034254 -0.217047 0.182850 -0.042193 0.071812 0.046129 0.123329 -0.265001 -0.164962
PlatesCupboard 0.424484 -0.119677 -0.206931 0.060711 0.127953 0.090374 -0.178494 -0.257756 0.201805 -0.159040 0.184619 0.359048 -0.047662 0.059905 -0.123208 -0.179964 0.060002 -0.052529 -0.058426 -0.120790 0.189322 0.012080 -0.152816 0.052094 -0.093330 0.125790 0.072730 0.064845 -0.269339 -0.067929 0.007709 0.183097 -0.063016 0.058896 -0.367454 -0.355862 0.247203 -0.183757 -0.130580 0.276271 -0.233927 0.032377 -0.227920 0.174487 -0.065898 0.074122 0.056835 0.142384 -0.287032 -0.173304
GroceriesCupboard 0.402837 -0.117210 -0.202491 0.063561 0.119771 0.073869 -0.179316 -0.247723 0.197223 -0.129420 0.156945 0.349441 -0.044675 0.049127 -0.111829 -0.160534 0.058699 -0.038772 -0.052685 -0.104722 0.186246 0.017318 -0.138860 0.058769 -0.083382 0.130898 0.067478 0.059258 -0.265590 -0.054755 0.014921 0.184204 -0.050996 0.038903 -0.353851 -0.329730 0.231532 -0.193196 -0.119925 0.260089 -0.218755 0.037747 -0.215959 0.165357 -0.050932 0.075989 0.046182 0.130709 -0.276493 -0.158128
PansCupboard 0.411073 -0.128506 -0.209947 0.070491 0.122563 0.074955 -0.191860 -0.255999 0.188947 -0.133861 0.169447 0.359023 -0.051299 0.057749 -0.103621 -0.173252 0.056320 -0.048068 -0.054063 -0.108978 0.202222 0.019952 -0.150494 0.043880 -0.075363 0.133430 0.078323 0.066149 -0.264386 -0.062273 0.009246 0.188954 -0.048583 0.040717 -0.372310 -0.340601 0.244317 -0.195755 -0.118465 0.264097 -0.224528 0.023905 -0.222116 0.179870 -0.056455 0.087177 0.039591 0.133900 -0.282364 -0.162973
CupsCupboard 0.410698 -0.135739 -0.199073 0.047709 0.111537 0.065647 -0.177785 -0.262418 0.182610 -0.135241 0.159337 0.348346 -0.037652 0.063378 -0.107265 -0.140604 0.054369 -0.051446 -0.053251 -0.072040 0.191909 0.029957 -0.168364 0.048917 -0.083843 0.140060 0.067104 0.073882 -0.305830 -0.058159 0.010744 0.208043 -0.037393 0.061517 -0.391008 -0.313803 0.249384 -0.196573 -0.121608 0.267326 -0.183011 0.048363 -0.227789 0.187123 -0.041720 0.058834 0.028437 0.117490 -0.257476 -0.150169
Microwave 0.371533 -0.122117 -0.182143 0.052875 0.099339 0.063865 -0.172246 -0.234650 0.180462 -0.130710 0.147847 0.338571 -0.040119 0.061032 -0.093468 -0.151503 0.042963 -0.045766 -0.041804 -0.080037 0.180962 0.020788 -0.147772 0.046412 -0.073361 0.126621 0.078129 0.048882 -0.263699 -0.065786 0.016290 0.169645 -0.047482 0.043332 -0.353243 -0.305211 0.216177 -0.179785 -0.110541 0.242875 -0.192568 0.037807 -0.200489 0.160650 -0.051769 0.070395 0.031118 0.114203 -0.251497 -0.148643
Dishwasher 0.407892 -0.146845 -0.193110 0.056489 0.101472 0.072154 -0.181539 -0.265105 0.175349 -0.135450 0.139297 0.350552 -0.042470 0.065397 -0.102631 -0.146558 0.050902 -0.051037 -0.044996 -0.081255 0.200204 0.030756 -0.163929 0.045111 -0.079039 0.144449 0.082300 0.063306 -0.299857 -0.054780 0.020660 0.194612 -0.043389 0.052401 -0.374474 -0.320836 0.239982 -0.195902 -0.123463 0.258139 -0.171032 0.051240 -0.223554 0.190463 -0.038159 0.054692 0.016083 0.104894 -0.267557 -0.156884
HallToiletDoor 0.419161 -0.165812 -0.212499 0.052538 0.090918 0.053666 -0.196136 -0.279816 0.158713 -0.118608 0.134547 0.378898 -0.049553 0.061077 -0.102435 -0.135289 0.037001 -0.075737 -0.047733 -0.054546 0.203626 0.027100 -0.196979 0.033269 -0.077820 0.147236 0.072818 0.068896 -0.325459 -0.059882 0.019154 0.226296 -0.040687 0.076479 -0.417350 -0.308597 0.254220 -0.199737 -0.123647 0.261192 -0.148481 0.051601 -0.237878 0.216896 -0.033880 0.044432 0.012088 0.094910 -0.264035 -0.133914
HallBathroomDoor 0.380844 -0.167955 -0.189164 0.035993 0.088094 0.052966 -0.189118 -0.258477 0.151581 -0.111520 0.141992 0.349144 -0.037942 0.061794 -0.092820 -0.121746 0.041909 -0.067524 -0.049802 -0.038632 0.183959 0.021246 -0.185060 0.028345 -0.069214 0.150863 0.085679 0.062358 -0.315651 -0.069506 0.024135 0.226343 -0.034068 0.063801 -0.384840 -0.296191 0.230682 -0.176319 -0.109207 0.248237 -0.125079 0.058019 -0.220062 0.215099 -0.007668 0.030870 -0.005886 0.086736 -0.230036 -0.120242
ToiletFlush 0.398278 -0.156930 -0.187751 0.051165 0.099704 0.060590 -0.195023 -0.274693 0.156309 -0.126087 0.132328 0.368603 -0.050246 0.070663 -0.084777 -0.140508 0.033313 -0.065759 -0.051780 -0.055860 0.205037 0.036394 -0.190469 0.031618 -0.078081 0.139347 0.082226 0.063202 -0.326295 -0.067013 0.032531 0.224492 -0.036762 0.076456 -0.396854 -0.311730 0.241674 -0.188757 -0.108488 0.249084 -0.135282 0.057224 -0.225941 0.217083 -0.017072 0.033924 0.000536 0.103883 -0.246143 -0.134598
Frontdoor 0.401494 -0.139570 -0.189982 0.052666 0.089257 0.063320 -0.173190 -0.252946 0.151246 -0.124945 0.146979 0.355841 -0.044752 0.058150 -0.089314 -0.143037 0.043848 -0.069101 -0.052526 -0.070530 0.193573 0.022614 -0.172418 0.042433 -0.077617 0.146809 0.066485 0.061019 -0.294479 -0.066769 0.019738 0.201626 -0.044211 0.078109 -0.387095 -0.294097 0.230551 -0.177738 -0.123939 0.257757 -0.144334 0.045971 -0.214185 0.200507 -0.018096 0.037580 0.012795 0.099784 -0.242151 -0.132909
HallBedroomDoor 0.389485 -0.161063 -0.182428 0.044095 0.083087 0.057030 -0.178189 -0.269115 0.146798 -0.127039 0.147387 0.350300 -0.045853 0.060704 -0.087750 -0.127612 0.035977 -0.067110 -0.058170 -0.058610 0.204680 0.037739 -0.187293 0.041128 -0.072660 0.138963 0.075566 0.066936 -0.318991 -0.059115 0.030784 0.222106 -0.031898 0.080237 -0.400102 -0.309933 0.230772 -0.176602 -0.116836 0.239636 -0.139285 0.054607 -0.229716 0.212849 -0.013442 0.036897 0.012580 0.102990 -0.250861 -0.125607
