9 50
Fridge 0.510057 -0.111638 -0.456433 -0.032257 0.282518 0.248921 -0.358918 -0.146934 0.393905 -0.294825 0.332264 0.504345 0.045446 -0.134764 -0.122565 -0.384258 0.222196 -0.082252 -0.080936 -0.100354 -0.017370 -0.082702 -0.123308 -0.114109 -0.118948 -0.032851 0.029192 0.112508 -0.195082 -0.190202 -0.051734 0.438974 -0.001838 0.346939 -0.271384 -0.587377 0.245909 -0.033574 -0.215565 0.262526 -0.522559 -0.011000 -0.062807 0.194964 -0.001501 0.024233 0.272144 0.177404 -0.223126 -0.302951
Freezer 0.510589 -0.117631 -0.466037 -0.031510 0.286968 0.249139 -0.361719 -0.144882 0.400794 -0.293825 0.320488 0.514193 0.042147 -0.129586 -0.120170 -0.396364 0.213924 -0.076943 -0.080729 -0.102663 -0.006807 -0.073369 -0.139617 -0.121183 -0.136598 -0.036728 0.023924 0.120370 -0.200528 -0.187105 -0.056642 0.449833 -0.004828 0.352028 -0.279238 -0.596380 0.255261 -0.032988 -0.207589 0.270936 -0.523724 -0.022117 -0.069325 0.203317 0.001553 0.028306 0.287683 0.190575 -0.214078 -0.307379
PansCupboard 0.466612 -0.114032 -0.421866 -0.017218 0.281053 0.216430 -0.348438 -0.158742 0.343902 -0.242327 0.291776 0.473562 0.016483 -0.104676 -0.121445 -0.350375 0.182840 -0.084705 -0.083581 -0.093364 -0.003176 -0.081386 -0.139259 -0.121672 -0.117849 -0.030652 0.032548 0.110704 -0.190800 -0.174572 -0.046008 0.421319 -0.014425 0.299089 -0.254290 -0.540824 0.252455 -0.039743 -0.166541 0.250736 -0.449979 -0.017518 -0.087622 0.211533 -0.003141 0.017807 0.229161 0.176173 -0.201614 -0.256274
PlatesCupboard 0.509434 -0.112085 -0.453423 -0.028045 0.302837 0.247048 -0.362288 -0.163526 0.385247 -0.284705 0.320274 0.509949 0.025173 -0.115328 -0.141397 -0.386478 0.200900 -0.091494 -0.088641 -0.108026 -0.017144 -0.091307 -0.148010 -0.125031 -0.142068 -0.043400 0.027325 0.115992 -0.204298 -0.191862 -0.051968 0.445139 -0.024599 0.342445 -0.265548 -0.591922 0.267754 -0.030595 -0.192112 0.275103 -0.497783 -0.013631 -0.088848 0.215228 -0.011357 0.010306 0.268145 0.193869 -0.216744 -0.289525
GroceriesCupboard 0.463192 -0.090046 -0.418888 -0.020839 0.262775 0.225553 -0.320247 -0.128358 0.367473 -0.258535 0.298652 0.461112 0.034589 -0.129605 -0.118240 -0.356593 0.199862 -0.064126 -0.079980 -0.111338 -0.011505 -0.076224 -0.104850 -0.089579 -0.121088 -0.032448 0.014277 0.101374 -0.165159 -0.163938 -0.045850 0.395297 -0.010942 0.304795 -0.238671 -0.541454 0.220288 -0.031589 -0.191944 0.244093 -0.490810 -0.017438 -0.063022 0.170453 -0.000485 0.031100 0.267731 0.180598 -0.210436 -0.273189
HallBathroomDoor 0.185871 -0.407089 -0.134977 -0.009248 0.355414 -0.124201 -0.548554 -0.555191 -0.129008 0.310702 -0.292156 0.500147 -0.270597 0.317216 -0.203814 0.108368 -0.276357 -0.282986 -0.065425 0.372375 0.013900 -0.158834 -0.606981 -0.369379 -0.165747 0.089678 0.247985 0.031661 -0.703156 -0.199542 0.158554 0.629263 -0.175085 -0.035608 -0.237052 -0.107253 0.483303 -0.182246 0.386440 0.234700 0.742875 0.252849 -0.442131 0.718847 0.125012 -0.437330 -0.563546 -0.051953 0.132375 0.296574
HallToiletDoor 0.175435 -0.394432 -0.124159 0.004629 0.331208 -0.141718 -0.530030 -0.556236 -0.154450 0.326228 -0.328093 0.491950 -0.281719 0.313561 -0.195824 0.125095 -0.296852 -0.287087 -0.056971 0.371733 0.024231 -0.148060 -0.604971 -0.359323 -0.160432 0.078648 0.228114 0.025412 -0.693117 -0.177551 0.162268 0.602710 -0.175289 -0.033657 -0.240081 -0.071998 0.474447 -0.191477 0.386202 0.212198 0.759902 0.249795 -0.440999 0.702825 0.108541 -0.433840 -0.560697 -0.063323 0.122653 0.310472
ToiletFlush 0.154616 -0.389108 -0.091322 0.008462 0.340232 -0.138523 -0.532262 -0.562363 -0.164859 0.321483 -0.345284 0.485100 -0.288709 0.334858 -0.172184 0.123249 -0.309978 -0.277703 -0.058624 0.374759 0.037029 -0.130176 -0.606681 -0.363451 -0.160884 0.072473 0.242517 0.019096 -0.707236 -0.182431 0.181839 0.600467 -0.170869 -0.036863 -0.225538 -0.069940 0.467741 -0.189353 0.408957 0.198207 0.791760 0.260013 -0.434527 0.710456 0.125534 -0.448680 -0.587024 -0.056612 0.141268 0.311586
CupsCupboard 0.482847 -0.095712 -0.429032 -0.031624 0.282427 0.226983 -0.331270 -0.144582 0.374799 -0.268501 0.312047 0.466271 0.039720 -0.116294 -0.127411 -0.352026 0.205438 -0.071014 -0.082517 -0.092507 -0.016147 -0.074479 -0.123947 -0.102458 -0.126878 -0.031291 0.014594 0.118367 -0.194702 -0.171785 -0.056904 0.419947 -0.003786 0.317342 -0.261671 -0.543272 0.250287 -0.041823 -0.190335 0.262557 -0.486427 -0.011387 -0.075670 0.184822 -0.007510 0.024308 0.258998 0.182091 -0.200784 -0.278265
