14 50
Fridge 0.161850 -0.157376 -0.088952 -0.018490 0.186757 0.045098 -0.270979 -0.245460 0.106240 -0.076910 0.177847 0.369560 -0.161733 0.061789 -0.125153 -0.157502 -0.044029 0.008968 -0.171435 -0.097102 0.102746 -0.068600 -0.202720 -0.057710 -0.180929 0.022364 0.137799 0.026866 -0.333275 -0.140571 0.103581 0.279894 -0.090834 0.026396 -0.236934 -0.464350 0.119918 -0.094099 0.043080 0.146124 -0.037712 0.111606 -0.292708 0.289809 0.053624 -0.095262 -0.006922 0.262269 -0.098343 -0.026846
Freezer 0.145199 -0.145254 -0.097399 -0.023403 0.171142 0.035530 -0.247032 -0.211025 0.131157 -0.076217 0.155544 0.345538 -0.142290 0.058460 -0.121508 -0.154719 -0.037880 0.042448 -0.150775 -0.091729 0.103118 -0.049105 -0.187814 -0.050293 -0.191599 0.022199 0.122145 0.036779 -0.316207 -0.117661 0.078760 0.253665 -0.078373 0.006433 -0.234073 -0.441110 0.113710 -0.110308 0.036758 0.144091 -0.069362 0.093558 -0.273192 0.243887 0.030875 -0.057366 0.025912 0.256146 -0.084095 -0.048901
WashingMachine 0.148581 -0.140752 -0.095381 -0.029296 0.185008 0.033696 -0.260066 -0.229745 0.133269 -0.086042 0.182413 0.359681 -0.165286 0.053524 -0.153213 -0.155405 -0.035737 0.060829 -0.174204 -0.116863 0.096539 -0.069232 -0.181899 -0.049521 -0.212684 0.014542 0.126678 0.040973 -0.338194 -0.119567 0.081027 0.249954 -0.085839 -0.006379 -0.244236 -0.484157 0.110022 -0.134851 0.029029 0.142249 -0.084203 0.114135 -0.308391 0.243235 0.007758 -0.064356 0.031290 0.284101 -0.098353 -0.053603
Microwave 0.136495 -0.134243 -0.082164 -0.019803 0.174570 0.028846 -0.244258 -0.218062 0.138602 -0.076433 0.162267 0.341500 -0.148480 0.068063 -0.132693 -0.148030 -0.044166 0.048683 -0.150739 -0.098220 0.101835 -0.054810 -0.177695 -0.036679 -0.186711 0.020156 0.132224 0.025150 -0.314655 -0.118750 0.084817 0.230587 -0.086582 -0.020845 -0.229847 -0.445314 0.110168 -0.123222 0.043133 0.140815 -0.082683 0.101785 -0.281746 0.227042 0.006629 -0.045039 0.019777 0.264350 -0.101923 -0.047971
GroceriesCupboard 0.158093 -0.130041 -0.093613 -0.012273 0.185621 0.036635 -0.246199 -0.226668 0.132655 -0.066350 0.167022 0.350467 -0.154548 0.050957 -0.140886 -0.149208 -0.034794 0.039282 -0.166279 -0.112364 0.099942 -0.063183 -0.175415 -0.028973 -0.192075 0.022859 0.116249 0.030563 -0.316281 -0.114344 0.091980 0.255996 -0.090474 -0.005237 -0.224734 -0.452350 0.115584 -0.115688 0.037232 0.149029 -0.075690 0.105408 -0.290158 0.246629 0.030968 -0.064077 0.023365 0.270848 -0.110575 -0.036806
CupsCupboard 0.160474 -0.130426 -0.092295 -0.022952 0.188131 0.033170 -0.242866 -0.227781 0.136740 -0.076781 0.174810 0.343075 -0.146428 0.061858 -0.139452 -0.142564 -0.031793 0.044652 -0.164156 -0.097474 0.100524 -0.053307 -0.183106 -0.033339 -0.195774 0.025068 0.114490 0.042848 -0.332855 -0.115285 0.080577 0.258936 -0.079276 -0.000844 -0.243355 -0.442212 0.126581 -0.124744 0.035546 0.154496 -0.074230 0.106864 -0.292585 0.242986 0.023091 -0.060306 0.021592 0.270762 -0.096161 -0.043924
Dishwasher 0.165437 -0.149409 -0.084359 -0.017583 0.187131 0.044716 -0.251634 -0.246021 0.132355 -0.085507 0.162774 0.352679 -0.158721 0.071508 -0.147948 -0.151140 -0.038506 0.045154 -0.164727 -0.114437 0.112601 -0.054714 -0.190000 -0.037676 -0.203736 0.028392 0.135797 0.035491 -0.344982 -0.114540 0.094892 0.254137 -0.093286 -0.008785 -0.233572 -0.472947 0.126002 -0.125875 0.035862 0.154278 -0.059395 0.117576 -0.307357 0.258897 0.024886 -0.073064 0.009582 0.269757 -0.112332 -0.052541
PlatesCupboard 0.158777 -0.142705 -0.086447 -0.018442 0.194856 0.046284 -0.255268 -0.240876 0.122975 -0.084717 0.176266 0.357893 -0.166070 0.069615 -0.146067 -0.161921 -0.046721 0.029371 -0.172086 -0.118063 0.102492 -0.067441 -0.197617 -0.048685 -0.205179 0.013902 0.130132 0.032887 -0.328598 -0.128640 0.092200 0.257840 -0.102314 0.007855 -0.228946 -0.473288 0.125011 -0.104816 0.044108 0.153280 -0.059840 0.106021 -0.304636 0.266749 0.024741 -0.079426 0.017162 0.280181 -0.102421 -0.040655
PansCupboard 0.139568 -0.138987 -0.086555 -0.008243 0.180835 0.033381 -0.249447 -0.222449 0.104539 -0.060301 0.165303 0.331924 -0.158789 0.059311 -0.123422 -0.149005 -0.041816 0.029722 -0.162046 -0.108153 0.105257 -0.060826 -0.179132 -0.052605 -0.174250 0.017887 0.125843 0.034583 -0.295152 -0.116715 0.084483 0.246842 -0.084002 -0.007679 -0.217296 -0.439275 0.116175 -0.105308 0.048818 0.135272 -0.059590 0.087550 -0.281462 0.253929 0.028884 -0.058104 0.006486 0.259591 -0.097141 -0.030018
HallBathroomDoor 0.153970 -0.176675 -0.070543 -0.014900 0.192795 0.049828 -0.271116 -0.254672 0.057139 -0.053201 0.160423 0.364948 -0.173902 0.083963 -0.107761 -0.156134 -0.068230 -0.031220 -0.178914 -0.085900 0.106628 -0.074943 -0.238422 -0.078805 -0.184492 0.032077 0.141176 0.022869 -0.331368 -0.158280 0.115916 0.303514 -0.111379 0.048520 -0.219474 -0.431795 0.129192 -0.046074 0.074889 0.158868 0.053531 0.103137 -0.295311 0.348826 0.107714 -0.145855 -0.047164 0.252350 -0.056185 0.014723
HallToiletDoor 0.167971 -0.164054 -0.088567 -0.008758 0.183861 0.039643 -0.267410 -0.255070 0.075062 -0.054784 0.149978 0.377167 -0.174397 0.070874 -0.119130 -0.153534 -0.065531 -0.018122 -0.171756 -0.090751 0.110671 -0.069263 -0.229780 -0.065789 -0.189227 0.025711 0.124804 0.026802 -0.336226 -0.140323 0.107431 0.292156 -0.105605 0.044581 -0.240721 -0.432904 0.132586 -0.077662 0.056760 0.154124 0.016082 0.103174 -0.299038 0.319732 0.073187 -0.120593 -0.021073 0.251601 -0.081700 0.000175
HallBedroomDoor 0.156656 -0.167960 -0.069191 -0.011902 0.186432 0.047295 -0.264076 -0.261350 0.066932 -0.067092 0.172298 0.366922 -0.179399 0.073243 -0.112621 -0.155885 -0.066542 -0.014910 -0.188268 -0.104589 0.120651 -0.062377 -0.229294 -0.061048 -0.187239 0.019596 0.133187 0.028020 -0.338997 -0.143246 0.120430 0.298163 -0.102249 0.049182 -0.236510 -0.457031 0.122579 -0.062160 0.062044 0.143980 0.016425 0.106581 -0.307698 0.331124 0.089590 -0.127030 -0.020664 0.271820 -0.085506 0.003825
Frontdoor 0.178951 -0.157870 -0.085836 -0.006342 0.191237 0.049878 -0.270265 -0.252180 0.081547 -0.066950 0.170792 0.393780 -0.177382 0.073261 -0.111856 -0.174444 -0.059109 -0.012962 -0.182605 -0.107099 0.119677 -0.070961 -0.226954 -0.060198 -0.199010 0.036989 0.128876 0.025361 -0.340371 -0.154743 0.111804 0.294913 -0.110331 0.050084 -0.250053 -0.451530 0.128613 -0.076035 0.051865 0.170521 0.010837 0.103869 -0.299785 0.328621 0.090470 -0.125036 -0.021083 0.270388 -0.076627 -0.008540
ToiletFlush 0.163542 -0.162930 -0.070535 -0.003543 0.200540 0.051358 -0.277069 -0.264526 0.069669 -0.063971 0.153220 0.381919 -0.182552 0.084174 -0.101896 -0.167991 -0.071137 -0.017702 -0.181351 -0.099343 0.122981 -0.060325 -0.233906 -0.070539 -0.190603 0.021031 0.137292 0.023655 -0.343732 -0.151622 0.124153 0.301857 -0.106369 0.051394 -0.231678 -0.449977 0.132022 -0.067424 0.072695 0.152727 0.030945 0.107327 -0.299506 0.339629 0.095422 -0.135119 -0.036382 0.269953 -0.074406 -0.000650
