12 50
Dishwasher 0.389232 -0.048633 -0.272456 -0.077393 0.087856 0.127152 -0.158328 -0.068797 0.532540 -0.261388 0.224622 0.271210 0.192659 -0.047707 -0.005095 -0.148862 0.347521 0.167298 0.015128 0.187909 0.143133 0.059214 -0.000926 0.192980 0.004150 0.215016 0.027216 0.124209 -0.282657 -0.003615 -0.012647 0.181785 0.196148 -0.033811 -0.430650 -0.340632 0.166353 -0.386743 -0.268596 0.408543 -0.612109 0.137083 0.014895 -0.150709 -0.037211 0.248139 0.135348 0.224692 -0.209935 -0.325219
PansCupboard 0.380586 -0.047739 -0.280652 -0.071669 0.093029 0.118456 -0.171195 -0.065529 0.523113 -0.249750 0.239887 0.277252 0.184941 -0.051833 0.005981 -0.155432 0.343533 0.159629 0.008764 0.189052 0.146577 0.054438 -0.003951 0.181176 0.016934 0.208389 0.027230 0.127476 -0.267619 -0.011723 -0.017224 0.190508 0.201515 -0.034456 -0.440411 -0.340337 0.168006 -0.383375 -0.258574 0.402197 -0.624440 0.119718 0.016860 -0.144621 -0.039223 0.262166 0.136136 0.233487 -0.207834 -0.313829
GroceriesCupboard 0.393834 -0.032796 -0.285820 -0.078563 0.094767 0.130638 -0.160916 -0.052400 0.561933 -0.266744 0.251177 0.281482 0.202317 -0.066981 -0.000159 -0.163465 0.365235 0.181578 0.007959 0.180239 0.140206 0.057503 0.018041 0.210673 0.005537 0.215786 0.017721 0.123806 -0.269939 -0.008005 -0.013848 0.188043 0.204194 -0.034117 -0.437134 -0.356907 0.155173 -0.388904 -0.278256 0.415762 -0.662726 0.131389 0.027581 -0.169427 -0.031606 0.269225 0.163055 0.246370 -0.216902 -0.334090
HallToiletDoor 0.558352 -0.440557 -0.507870 0.075214 0.195630 -0.226846 -0.618150 -0.686689 0.026256 0.410417 -0.354488 0.817966 -0.289834 0.079458 -0.417385 0.168493 -0.189498 -0.390875 -0.001345 0.434469 0.045140 -0.298608 -0.624602 -0.172853 -0.110070 0.186726 0.062369 0.021083 -0.744244 -0.045857 0.118444 0.622800 -0.200368 -0.042139 -0.604447 -0.117050 0.587004 -0.511865 0.085800 0.401030 0.371415 0.305069 -0.559054 0.576621 -0.151142 -0.250075 -0.364033 -0.102957 -0.319793 0.293443
HallBathroomDoor 0.603594 -0.482168 -0.547842 0.068798 0.226059 -0.235884 -0.674182 -0.737345 0.052303 0.434433 -0.360190 0.879973 -0.300442 0.093356 -0.452958 0.177241 -0.186469 -0.408540 -0.006189 0.478264 0.045776 -0.325349 -0.672300 -0.184001 -0.121866 0.217891 0.082332 0.027984 -0.814856 -0.060325 0.127231 0.685510 -0.210915 -0.061646 -0.652102 -0.144771 0.637715 -0.555616 0.095355 0.455427 0.389078 0.336727 -0.602910 0.624954 -0.148621 -0.267258 -0.400466 -0.098317 -0.333249 0.307382
CupsCupboard 0.389526 -0.028647 -0.279185 -0.091925 0.092883 0.128163 -0.152037 -0.047385 0.565012 -0.280550 0.259556 0.266367 0.215200 -0.055700 0.009141 -0.154759 0.370610 0.184071 0.012181 0.205320 0.139121 0.067959 0.011122 0.207321 0.009290 0.215459 0.014519 0.135211 -0.280979 -0.009813 -0.024068 0.186725 0.220454 -0.026288 -0.454369 -0.341086 0.163137 -0.395107 -0.279807 0.422046 -0.664070 0.133068 0.034603 -0.180127 -0.039136 0.273636 0.159406 0.246706 -0.198069 -0.339480
Fridge 0.407273 -0.052857 -0.296544 -0.087284 0.087468 0.129200 -0.180726 -0.067243 0.558898 -0.275432 0.249019 0.301599 0.206496 -0.062275 0.005185 -0.158972 0.367013 0.162846 0.016503 0.214738 0.139451 0.054237 -0.003050 0.193573 0.018863 0.220284 0.029576 0.125054 -0.296116 -0.019218 -0.012200 0.204147 0.214363 -0.016390 -0.465641 -0.355798 0.167211 -0.399873 -0.287277 0.419352 -0.652358 0.144060 0.029591 -0.157088 -0.036992 0.259884 0.142419 0.227943 -0.217196 -0.335733
Microwave 0.375869 -0.034882 -0.272809 -0.086818 0.079908 0.127088 -0.158284 -0.041887 0.565259 -0.282520 0.253285 0.279488 0.210579 -0.053376 0.019577 -0.166979 0.358761 0.182579 0.019683 0.200202 0.145173 0.066561 0.012214 0.205323 0.015746 0.214082 0.031407 0.116902 -0.270878 -0.019320 -0.014234 0.171271 0.212180 -0.033326 -0.450062 -0.349937 0.145881 -0.388768 -0.276890 0.409706 -0.668525 0.129776 0.043006 -0.183602 -0.042391 0.280922 0.157872 0.243226 -0.205820 -0.342102
PlatesCupboard 0.408578 -0.041511 -0.294013 -0.087835 0.096219 0.139365 -0.167425 -0.062997 0.567467 -0.288483 0.258292 0.290514 0.204171 -0.055387 -0.002351 -0.169812 0.370711 0.167895 0.010911 0.202866 0.142933 0.052562 -0.005328 0.198332 0.005773 0.213285 0.021578 0.133665 -0.285425 -0.014745 -0.019080 0.192632 0.207936 -0.018284 -0.461389 -0.366771 0.175169 -0.398507 -0.287407 0.435670 -0.671374 0.136226 0.024423 -0.167278 -0.048917 0.267085 0.159088 0.252500 -0.216886 -0.343568
ToiletFlush 0.617229 -0.475827 -0.549307 0.080402 0.231082 -0.231759 -0.685157 -0.752097 0.056392 0.424409 -0.373213 0.902088 -0.309531 0.095229 -0.440098 0.164620 -0.191554 -0.408700 -0.006273 0.475834 0.063671 -0.312742 -0.677615 -0.181346 -0.122181 0.208079 0.079414 0.026973 -0.828240 -0.057601 0.139578 0.689536 -0.206215 -0.047542 -0.667413 -0.156271 0.643345 -0.570824 0.093368 0.452044 0.379583 0.341490 -0.602400 0.625360 -0.153274 -0.265907 -0.398677 -0.087118 -0.348191 0.298172
Freezer 0.397668 -0.056245 -0.298480 -0.085201 0.085534 0.125478 -0.175082 -0.059395 0.557711 -0.266790 0.235873 0.297829 0.203449 -0.059001 0.008213 -0.163163 0.358688 0.170606 0.016912 0.209940 0.148367 0.062069 -0.010883 0.190803 0.006455 0.219320 0.023676 0.130529 -0.290875 -0.011456 -0.017233 0.204738 0.211495 -0.021632 -0.463690 -0.354322 0.168604 -0.396513 -0.277686 0.422038 -0.647626 0.131425 0.025491 -0.154173 -0.032078 0.265668 0.153921 0.236649 -0.206493 -0.333768
Washingmachine 0.382505 -0.043011 -0.276840 -0.077847 0.081465 0.134305 -0.158975 -0.059381 0.527646 -0.263645 0.233777 0.271650 0.188203 -0.061654 0.007196 -0.157778 0.360042 0.158468 0.006584 0.201204 0.145085 0.043746 -0.002497 0.193110 0.016620 0.208719 0.018061 0.127313 -0.262376 -0.003103 -0.006502 0.181208 0.204133 -0.025219 -0.433270 -0.347121 0.158342 -0.385351 -0.276295 0.415604 -0.632658 0.134230 0.029036 -0.159946 -0.033225 0.250038 0.140049 0.244565 -0.209243 -0.315553
