9 50
HallToiletDoor -0.043467 -0.504339 -0.096715 -0.150318 0.182152 -0.206529 -0.349099 -0.335691 -0.210007 0.511137 -0.125889 0.177491 -0.181078 0.259770 -0.467842 0.326609 -0.210870 -0.325796 -0.045630 0.399850 -0.263790 -0.469664 -0.497109 -0.331734 -0.111203 0.272372 0.313266 -0.040861 -0.403588 -0.214865 0.017457 0.414650 -0.329737 -0.370972 0.026745 0.072796 0.333863 0.009320 0.372409 0.310222 0.841074 0.213023 -0.464675 0.630390 0.101602 -0.425169 -0.611715 -0.226022 0.227037 0.493230
PlatesCupboard 0.422288 -0.287335 -0.534763 -0.132607 0.233862 0.023596 -0.387618 -0.103622 0.402544 0.004729 0.274696 0.393217 0.166326 -0.105337 -0.111796 -0.110120 0.274657 0.029078 -0.045281 0.227375 -0.001469 -0.024392 -0.194490 -0.115422 -0.070779 0.233316 0.030107 0.239699 -0.367447 -0.113040 -0.161693 0.636343 0.163681 0.075212 -0.455874 -0.324462 0.334214 -0.204899 -0.112200 0.389700 -0.328808 -0.004185 -0.130503 0.266568 0.156730 0.113323 0.106290 0.066995 -0.000705 -0.150508
Fridge 0.428811 -0.292938 -0.538563 -0.134179 0.224042 0.021433 -0.397289 -0.104843 0.405759 0.002316 0.274274 0.401508 0.176564 -0.115094 -0.096932 -0.104497 0.285415 0.030830 -0.039643 0.243281 0.001181 -0.016803 -0.186047 -0.112302 -0.053190 0.242343 0.035045 0.236864 -0.378717 -0.114158 -0.155151 0.644798 0.181793 0.081433 -0.468942 -0.320223 0.326286 -0.215370 -0.124301 0.380865 -0.332234 0.006281 -0.117035 0.263785 0.167153 0.114647 0.095694 0.051107 -0.005554 -0.155688
Freezer 0.447471 -0.317020 -0.578636 -0.142102 0.235375 0.019605 -0.418241 -0.101351 0.434902 0.008715 0.279946 0.426690 0.186695 -0.119530 -0.098928 -0.118937 0.296001 0.041520 -0.040527 0.255381 0.011328 -0.008956 -0.207969 -0.123280 -0.070412 0.257224 0.031672 0.258333 -0.397953 -0.114906 -0.172027 0.688057 0.191282 0.083033 -0.501012 -0.342386 0.348968 -0.225823 -0.124071 0.410211 -0.354441 -0.008270 -0.127532 0.282772 0.182119 0.131193 0.117924 0.064744 0.005460 -0.166809
HallBathroomDoor -0.078769 -0.543445 -0.070168 -0.167990 0.200361 -0.220769 -0.366361 -0.357127 -0.241400 0.557088 -0.134861 0.164900 -0.199887 0.298672 -0.508692 0.361802 -0.236266 -0.350223 -0.052887 0.429610 -0.296263 -0.518489 -0.531923 -0.360769 -0.120563 0.296619 0.357626 -0.056438 -0.427002 -0.241718 0.028331 0.430003 -0.370018 -0.424696 0.066148 0.085527 0.347137 0.029329 0.423450 0.330114 0.943321 0.238047 -0.501436 0.684367 0.119565 -0.476838 -0.687901 -0.245181 0.265644 0.546905
PansCupboard 0.402855 -0.299952 -0.522480 -0.122719 0.230598 0.009138 -0.396802 -0.113079 0.373791 0.034177 0.261801 0.387207 0.150610 -0.096216 -0.108568 -0.096110 0.259928 0.020732 -0.046653 0.231939 0.004755 -0.032647 -0.199011 -0.125240 -0.056287 0.240955 0.045561 0.232611 -0.362283 -0.113173 -0.153188 0.633075 0.158428 0.047638 -0.446119 -0.310432 0.332358 -0.206294 -0.091205 0.379209 -0.293483 -0.005212 -0.139568 0.283663 0.162319 0.109164 0.072309 0.057031 0.001248 -0.125460
GroceriesCupboard 0.453314 -0.309372 -0.577496 -0.135270 0.247635 0.015729 -0.422965 -0.114516 0.434515 0.026608 0.281068 0.433967 0.174424 -0.124072 -0.120864 -0.110007 0.293887 0.036514 -0.049869 0.245655 0.000709 -0.029308 -0.201294 -0.110451 -0.073191 0.260148 0.029879 0.248608 -0.398650 -0.114939 -0.161678 0.689173 0.174791 0.066034 -0.488600 -0.344369 0.350156 -0.230867 -0.118252 0.416023 -0.348193 0.004217 -0.142014 0.287010 0.180326 0.121131 0.108950 0.069635 -0.009943 -0.149813
ToiletFlush -0.050943 -0.469226 -0.069733 -0.137979 0.187227 -0.185668 -0.334753 -0.322498 -0.199113 0.472659 -0.121459 0.166659 -0.177186 0.259810 -0.427111 0.297908 -0.204515 -0.299886 -0.048586 0.370699 -0.240438 -0.433252 -0.467889 -0.315741 -0.107991 0.250231 0.308023 -0.042822 -0.388935 -0.210572 0.031579 0.392636 -0.310864 -0.350687 0.039089 0.057036 0.311891 0.013006 0.367168 0.286548 0.805944 0.207486 -0.434786 0.601989 0.108590 -0.411440 -0.591901 -0.200099 0.223594 0.461211
CupsCupboard 0.436964 -0.285532 -0.549806 -0.137545 0.239610 0.017807 -0.392101 -0.101832 0.422702 0.005496 0.284505 0.395361 0.182156 -0.112592 -0.104232 -0.103690 0.292801 0.044845 -0.045703 0.242619 0.004752 -0.008585 -0.188958 -0.105666 -0.067518 0.245998 0.019939 0.255323 -0.384755 -0.106334 -0.170126 0.657311 0.187822 0.074777 -0.482414 -0.320135 0.343831 -0.226159 -0.120102 0.401135 -0.349971 -0.002731 -0.127644 0.260369 0.165415 0.129145 0.113214 0.070899 0.002671 -0.159744
