12 50
PansCupboard 0.409773 -0.026780 -0.228132 -0.015791 0.378376 0.037771 -0.301222 -0.329626 0.427193 -0.096044 0.164107 0.383126 -0.025913 0.166271 -0.161028 -0.099829 0.130435 0.055010 -0.089685 0.186202 0.136771 -0.018163 -0.229470 0.080186 -0.135841 0.126956 0.043903 0.152486 -0.483488 -0.074535 0.021957 0.342544 0.032029 -0.108905 -0.456345 -0.330439 0.430099 -0.442260 0.024505 0.496587 -0.323732 0.169923 -0.264858 0.102887 -0.125247 0.105364 -0.046663 0.362820 -0.159240 -0.130745
CupsCupboard 0.410853 -0.015256 -0.223058 -0.029783 0.376313 0.033704 -0.283372 -0.321487 0.443737 -0.102309 0.163963 0.370454 -0.009274 0.167677 -0.168489 -0.084333 0.136523 0.067385 -0.085238 0.199206 0.124854 -0.010413 -0.224120 0.096101 -0.146436 0.131522 0.031263 0.155721 -0.497763 -0.069430 0.015032 0.339217 0.037438 -0.107270 -0.461001 -0.312858 0.429778 -0.448078 0.018498 0.504693 -0.324495 0.181169 -0.262029 0.084945 -0.127578 0.103785 -0.037517 0.359704 -0.146851 -0.135515
Freezer 0.433526 -0.030778 -0.251706 -0.028085 0.382619 0.042857 -0.305861 -0.327973 0.471542 -0.113096 0.163881 0.408311 -0.010527 0.165769 -0.166640 -0.111547 0.142511 0.069419 -0.084599 0.202953 0.142138 -0.008634 -0.243509 0.091698 -0.157365 0.135719 0.035072 0.162048 -0.512095 -0.073331 0.015791 0.360647 0.037832 -0.099970 -0.488956 -0.349394 0.444176 -0.462479 0.010951 0.528678 -0.357219 0.176699 -0.267402 0.093673 -0.127749 0.116726 -0.019432 0.380387 -0.159233 -0.153091
ToiletFlush -0.059706 -0.433467 0.094865 -0.043275 0.415148 -0.107799 -0.522204 -0.508215 -0.299454 0.343083 -0.394609 0.350795 -0.297787 0.451125 -0.103532 0.124595 -0.416332 -0.254852 -0.082157 0.333762 -0.030649 -0.081246 -0.632578 -0.514100 -0.232645 0.025654 0.356278 -0.009603 -0.720734 -0.277028 0.217087 0.660562 -0.215037 -0.015052 0.031908 -0.039082 0.399933 0.049489 0.606124 0.065065 1.150511 0.249823 -0.404299 0.880252 0.331980 -0.644519 -0.724756 -0.120150 0.418053 0.368117
Microwave 0.408972 -0.021576 -0.225046 -0.022662 0.369909 0.032055 -0.300828 -0.325857 0.456994 -0.106773 0.161501 0.402798 -0.017607 0.172217 -0.163011 -0.102316 0.124812 0.063429 -0.078547 0.198470 0.134568 -0.016556 -0.229641 0.097949 -0.141255 0.131510 0.050614 0.135409 -0.498020 -0.083562 0.028344 0.328645 0.026089 -0.117026 -0.472265 -0.333095 0.420952 -0.454981 0.020020 0.503937 -0.344219 0.182742 -0.259996 0.081182 -0.140610 0.116876 -0.037948 0.366151 -0.166845 -0.140754
HallToiletDoor -0.108495 -0.435155 0.107341 -0.041856 0.347290 -0.124520 -0.474866 -0.459228 -0.361578 0.369566 -0.417595 0.298550 -0.292127 0.415222 -0.096659 0.149898 -0.433036 -0.271676 -0.064537 0.312460 -0.056610 -0.090042 -0.602608 -0.522030 -0.210213 0.013500 0.337980 -0.028367 -0.643764 -0.257910 0.200433 0.607999 -0.222789 -0.002975 0.082489 0.020384 0.343763 0.105426 0.589968 0.000891 1.185961 0.219263 -0.373948 0.859064 0.333217 -0.648477 -0.705936 -0.182783 0.428091 0.393924
GroceriesCupboard 0.365777 -0.030134 -0.205529 -0.017307 0.348075 0.032254 -0.279963 -0.302196 0.383639 -0.072546 0.131557 0.360048 -0.030080 0.148807 -0.155971 -0.087028 0.105764 0.044890 -0.084097 0.169396 0.110564 -0.026064 -0.216327 0.068616 -0.138066 0.112928 0.040529 0.127808 -0.449410 -0.073502 0.030451 0.325849 0.013624 -0.094232 -0.397071 -0.299932 0.384990 -0.387573 0.034244 0.446421 -0.261818 0.164401 -0.245781 0.111170 -0.096394 0.069353 -0.047492 0.322660 -0.133263 -0.103724
Washingmachine 0.426039 -0.031534 -0.233280 -0.024664 0.386057 0.049710 -0.310000 -0.344785 0.440130 -0.106146 0.155710 0.400836 -0.028485 0.169904 -0.169491 -0.101476 0.140018 0.047415 -0.094389 0.212734 0.135580 -0.031397 -0.250142 0.083033 -0.145867 0.129908 0.041382 0.156123 -0.510473 -0.075737 0.034954 0.358644 0.030303 -0.098747 -0.467924 -0.345435 0.443707 -0.457002 0.018335 0.525429 -0.319867 0.194342 -0.270084 0.108292 -0.121412 0.084041 -0.055663 0.378823 -0.158241 -0.129088
HallBathroomDoor -0.051942 -0.432979 0.076088 -0.054975 0.402842 -0.108905 -0.507761 -0.488634 -0.276802 0.340623 -0.365576 0.338459 -0.278745 0.435131 -0.121782 0.130145 -0.391872 -0.248700 -0.079310 0.336951 -0.043628 -0.096127 -0.618210 -0.497517 -0.227932 0.042300 0.348312 -0.004110 -0.701550 -0.272536 0.197103 0.648677 -0.212354 -0.030674 0.023024 -0.038577 0.396541 0.044664 0.582663 0.086456 1.107217 0.243322 -0.401280 0.854650 0.318594 -0.619411 -0.701461 -0.119808 0.408255 0.361067
Dishwasher 0.379630 -0.039272 -0.200133 -0.019950 0.347423 0.038557 -0.276207 -0.315267 0.393492 -0.088482 0.121033 0.356262 -0.024319 0.167343 -0.159921 -0.083891 0.109650 0.052488 -0.075553 0.176446 0.123737 -0.013058 -0.224518 0.071874 -0.143991 0.124246 0.050154 0.134188 -0.472980 -0.066344 0.029678 0.319090 0.016599 -0.102067 -0.408210 -0.304439 0.399895 -0.406522 0.028388 0.461661 -0.256495 0.175683 -0.254568 0.109750 -0.105104 0.070138 -0.058399 0.319968 -0.138347 -0.121982
PlatesCupboard 0.415403 -0.015438 -0.230278 -0.025291 0.374758 0.047298 -0.283395 -0.318376 0.442384 -0.114428 0.169264 0.378579 -0.017012 0.161390 -0.173732 -0.104984 0.135131 0.057179 -0.087454 0.179426 0.123745 -0.021411 -0.226452 0.089512 -0.151437 0.119184 0.030981 0.151980 -0.478161 -0.073182 0.014705 0.331171 0.023992 -0.093691 -0.450829 -0.333943 0.426425 -0.432797 0.010730 0.504052 -0.340396 0.171167 -0.260841 0.085868 -0.135799 0.102809 -0.020306 0.367283 -0.158802 -0.142129
Fridge 0.377932 -0.023133 -0.206802 -0.021510 0.333730 0.038524 -0.271545 -0.295465 0.394941 -0.098541 0.150114 0.351684 -0.011803 0.141260 -0.144772 -0.086946 0.126300 0.049261 -0.075400 0.175540 0.113269 -0.016086 -0.198569 0.078992 -0.118236 0.117003 0.040455 0.130476 -0.445306 -0.071325 0.024241 0.309767 0.033855 -0.084834 -0.413428 -0.297621 0.378601 -0.398710 0.006714 0.443105 -0.296229 0.167181 -0.227719 0.084945 -0.109826 0.087454 -0.041300 0.313060 -0.147726 -0.126389
