21 50
Couch 0.053322 -0.059731 -0.363467 -0.071130 0.117859 0.208530 -0.132003 -0.053130 -0.072919 -0.215685 0.055451 -0.005172 0.102083 0.222186 0.360171 -0.007022 0.160786 0.191755 -0.059418 -0.040455 0.096148 0.160717 -0.216333 0.175838 -0.355981 -0.010442 0.195510 -0.022533 0.009076 -0.009255 -0.290946 0.234279 -0.082843 0.112352 -0.271629 -0.022695 -0.097795 -0.159856 -0.027253 0.123687 0.253365 -0.124561 0.060851 -0.129695 -0.040645 -0.361646 -0.151875 -0.338444 -0.310979 0.249735
BathroomDoor 0.064558 -0.044456 -0.318869 -0.061858 0.121606 0.188389 -0.120791 -0.050824 -0.065680 -0.215005 0.052751 0.003607 0.107166 0.209271 0.329606 -0.013127 0.135277 0.180623 -0.045006 -0.032352 0.101441 0.160449 -0.200092 0.152559 -0.325032 -0.019614 0.168257 -0.026212 0.019446 -0.003441 -0.266470 0.212242 -0.061413 0.100827 -0.264009 -0.035246 -0.095582 -0.146949 -0.016331 0.104302 0.224408 -0.110814 0.052046 -0.103560 -0.030873 -0.330982 -0.133510 -0.319809 -0.271247 0.230027
BedroomDoor 0.057234 -0.040480 -0.315378 -0.076045 0.099553 0.175967 -0.097982 -0.038716 -0.041740 -0.207609 0.046307 -0.004558 0.107212 0.213397 0.303386 -0.005198 0.151804 0.163219 -0.049501 -0.033497 0.083774 0.163593 -0.205029 0.140328 -0.318992 -0.007575 0.158656 -0.030270 0.013245 -0.010618 -0.270590 0.203649 -0.075902 0.087982 -0.261524 -0.042034 -0.094634 -0.138640 -0.020005 0.107306 0.234125 -0.110609 0.048711 -0.118447 -0.040644 -0.313420 -0.139817 -0.298795 -0.268739 0.211054
ToiletFlushDownstairs 0.053508 -0.044155 -0.328526 -0.081491 0.132914 0.191265 -0.117870 -0.052045 -0.053670 -0.216960 0.060229 0.005258 0.103803 0.214210 0.337266 -0.005161 0.155887 0.167599 -0.054214 -0.017389 0.101551 0.154382 -0.204183 0.162895 -0.341282 -0.022715 0.166359 -0.030452 0.020125 -0.001973 -0.278937 0.217920 -0.064878 0.105483 -0.261271 -0.039350 -0.086858 -0.155357 -0.028797 0.116091 0.229997 -0.112904 0.048589 -0.102492 -0.040034 -0.325393 -0.135005 -0.320908 -0.274628 0.232249
ToiletDoorDownstairs 0.052551 -0.045043 -0.322807 -0.069391 0.120480 0.185796 -0.105702 -0.042722 -0.051405 -0.192847 0.044817 0.009882 0.085730 0.203072 0.318193 -0.010756 0.137618 0.159425 -0.041953 -0.020174 0.100744 0.149401 -0.184064 0.152256 -0.313571 -0.007107 0.166373 -0.025907 0.006568 0.007342 -0.254315 0.204343 -0.074670 0.094037 -0.255041 -0.026058 -0.084035 -0.149434 -0.014305 0.103651 0.230780 -0.102097 0.037769 -0.100163 -0.038952 -0.305207 -0.141496 -0.295992 -0.264099 0.221186
Fridge 0.066804 -0.055527 -0.338468 -0.077511 0.113207 0.187337 -0.120320 -0.051228 -0.052010 -0.215358 0.057257 0.009734 0.104951 0.203206 0.326195 -0.008519 0.158363 0.173963 -0.051971 -0.017034 0.090576 0.156686 -0.199861 0.148725 -0.316996 -0.012330 0.178100 -0.025204 0.002570 -0.007936 -0.268554 0.220503 -0.064765 0.108352 -0.261206 -0.039058 -0.090492 -0.144403 -0.037103 0.115762 0.228737 -0.103911 0.058374 -0.114081 -0.036208 -0.333755 -0.140787 -0.318568 -0.285069 0.214168
Microwave 0.046749 -0.052092 -0.324463 -0.071985 0.110377 0.176840 -0.118585 -0.047251 -0.047538 -0.205988 0.047776 0.012615 0.100875 0.216074 0.330660 -0.008670 0.138794 0.177577 -0.047232 -0.018271 0.097047 0.156699 -0.203716 0.156019 -0.325126 -0.012039 0.184116 -0.031374 0.003386 -0.011364 -0.269799 0.205795 -0.073998 0.090025 -0.267852 -0.032499 -0.097041 -0.152759 -0.018644 0.116096 0.233622 -0.110108 0.054421 -0.121243 -0.048784 -0.321411 -0.139634 -0.313139 -0.285849 0.225979
Cutlery 0.052518 -0.050254 -0.325562 -0.080062 0.114315 0.178103 -0.107965 -0.037652 -0.040806 -0.202081 0.046846 0.000595 0.102511 0.220134 0.327807 -0.014338 0.153995 0.171790 -0.061205 -0.034428 0.084658 0.164722 -0.191938 0.155017 -0.327923 -0.008356 0.161124 -0.030762 0.017981 -0.001405 -0.275115 0.214467 -0.073822 0.083692 -0.258653 -0.030687 -0.087453 -0.135964 -0.018217 0.110635 0.247164 -0.117923 0.042826 -0.110366 -0.031409 -0.331579 -0.133576 -0.313582 -0.276845 0.214315
PlatesCupboard 0.055929 -0.044543 -0.321105 -0.072634 0.123538 0.190275 -0.107823 -0.049180 -0.051880 -0.211738 0.057799 0.000256 0.094236 0.209451 0.310308 -0.011072 0.146751 0.168824 -0.053696 -0.031998 0.089140 0.147679 -0.198475 0.149759 -0.330453 -0.024202 0.170447 -0.023264 0.012032 -0.006215 -0.268543 0.202840 -0.078878 0.102956 -0.246531 -0.038859 -0.083829 -0.137068 -0.024586 0.114245 0.226909 -0.108393 0.043005 -0.111532 -0.049256 -0.324731 -0.127557 -0.295065 -0.272718 0.213458
CupboardCups 0.049129 -0.045032 -0.326795 -0.080388 0.130541 0.190984 -0.107993 -0.054605 -0.046929 -0.211825 0.057477 0.010534 0.099276 0.211838 0.320383 -0.016964 0.145759 0.174830 -0.050497 -0.026912 0.092992 0.152065 -0.211730 0.153313 -0.342067 -0.021448 0.182758 -0.022816 0.002640 -0.009253 -0.284522 0.216414 -0.072592 0.093439 -0.265120 -0.030614 -0.084329 -0.157510 -0.023824 0.117395 0.243901 -0.103766 0.044479 -0.122074 -0.041354 -0.337554 -0.138103 -0.325822 -0.286631 0.223351
Freezer 0.060976 -0.054663 -0.344803 -0.079857 0.116099 0.189914 -0.114642 -0.043325 -0.050311 -0.219503 0.049623 0.007471 0.107174 0.215167 0.337087 -0.016491 0.154728 0.186277 -0.052875 -0.025125 0.100584 0.170109 -0.214191 0.151854 -0.343201 -0.015671 0.173115 -0.022476 0.010212 -0.001327 -0.283189 0.226957 -0.069527 0.106368 -0.272912 -0.038120 -0.090272 -0.146359 -0.027320 0.123667 0.240111 -0.119528 0.052453 -0.114464 -0.031739 -0.335166 -0.128594 -0.320432 -0.277669 0.218928
ToiletFlushUpstairs 0.063636 -0.040628 -0.338005 -0.072459 0.122804 0.175970 -0.105885 -0.047996 -0.065056 -0.213382 0.054446 -0.000751 0.085442 0.207235 0.321368 -0.009739 0.138896 0.183481 -0.063143 -0.028150 0.093345 0.154741 -0.196574 0.153908 -0.333509 -0.019462 0.178232 -0.033802 0.021137 0.006949 -0.277533 0.216831 -0.074939 0.091114 -0.252447 -0.038436 -0.079832 -0.142986 -0.025385 0.127510 0.227905 -0.116202 0.051204 -0.123948 -0.036969 -0.335347 -0.135401 -0.313049 -0.283092 0.225353
Bathtub 0.062640 -0.039904 -0.352498 -0.087835 0.123687 0.197053 -0.112247 -0.059477 -0.052571 -0.228739 0.062365 0.004039 0.113200 0.223530 0.348845 0.003236 0.164311 0.177920 -0.059467 -0.015901 0.109749 0.167556 -0.208440 0.152193 -0.348565 -0.015241 0.182799 -0.017969 0.005907 0.005459 -0.299430 0.232355 -0.069830 0.097591 -0.266055 -0.032525 -0.096994 -0.158389 -0.021137 0.131415 0.256740 -0.105671 0.045593 -0.113511 -0.042334 -0.341218 -0.148445 -0.336493 -0.291891 0.230671
SinkTop 0.062693 -0.059020 -0.336221 -0.068140 0.126839 0.182650 -0.111245 -0.045624 -0.047307 -0.213660 0.047897 -0.000074 0.100803 0.214784 0.329994 -0.011522 0.153168 0.178019 -0.061421 -0.021088 0.101173 0.156947 -0.201913 0.145944 -0.326353 -0.011792 0.181397 -0.017853 0.005595 -0.007650 -0.280107 0.215197 -0.070537 0.093983 -0.270041 -0.031990 -0.097728 -0.155986 -0.025688 0.121402 0.242852 -0.112009 0.055090 -0.127454 -0.037330 -0.332183 -0.141985 -0.317058 -0.277410 0.227748
Frontdoor 0.066427 -0.036969 -0.331770 -0.073286 0.115059 0.186972 -0.102729 -0.041652 -0.059394 -0.213351 0.056042 0.011184 0.099961 0.211612 0.331506 -0.017020 0.151479 0.167424 -0.057009 -0.031642 0.099244 0.155524 -0.201525 0.155968 -0.335209 -0.005648 0.166364 -0.029895 0.017802 -0.007211 -0.278039 0.208930 -0.077787 0.105409 -0.268345 -0.026374 -0.095008 -0.143521 -0.031481 0.129288 0.249148 -0.113371 0.056330 -0.113589 -0.029085 -0.337940 -0.142121 -0.317458 -0.276189 0.225143
Keys 0.051519 -0.047398 -0.332553 -0.074599 0.127725 0.188707 -0.110302 -0.047878 -0.050873 -0.201774 0.045412 -0.004493 0.090334 0.212966 0.319161 -0.000426 0.157053 0.184152 -0.060135 -0.017404 0.105234 0.161950 -0.199758 0.150295 -0.341222 -0.019393 0.179273 -0.033904 0.003234 0.002040 -0.277515 0.204625 -0.078135 0.107579 -0.253300 -0.042947 -0.091026 -0.141128 -0.029524 0.123371 0.249579 -0.119244 0.040599 -0.115114 -0.049975 -0.334650 -0.130968 -0.301280 -0.281935 0.214402
GarbageBin 0.049936 -0.040754 -0.322325 -0.083376 0.119569 0.180180 -0.102415 -0.058256 -0.059699 -0.201663 0.041987 -0.004031 0.106830 0.220327 0.327113 -0.017348 0.153597 0.185111 -0.048861 -0.025206 0.093999 0.170485 -0.216325 0.154238 -0.330565 -0.020125 0.167724 -0.020381 0.016087 0.006359 -0.278475 0.221902 -0.071777 0.103121 -0.252558 -0.039613 -0.103582 -0.138255 -0.027741 0.126484 0.254213 -0.110979 0.060076 -0.110231 -0.049563 -0.337710 -0.142873 -0.308187 -0.289264 0.230459
Saucepan 0.064611 -0.058116 -0.338372 -0.073413 0.118126 0.193220 -0.116151 -0.048361 -0.045260 -0.219900 0.057939 0.004727 0.104295 0.220037 0.333477 0.000460 0.165934 0.189340 -0.045904 -0.015692 0.098330 0.165123 -0.208422 0.152328 -0.337134 -0.021612 0.181646 -0.023691 -0.001532 -0.008021 -0.273615 0.217330 -0.072645 0.095066 -0.269792 -0.034953 -0.091823 -0.157107 -0.035049 0.117549 0.240762 -0.108466 0.046919 -0.123601 -0.048249 -0.341978 -0.150221 -0.313051 -0.280657 0.234732
BedLeft 0.049933 -0.052227 -0.364667 -0.081247 0.122290 0.193639 -0.133959 -0.040668 -0.056857 -0.228648 0.047113 -0.003307 0.116674 0.235153 0.361058 -0.019210 0.151715 0.194863 -0.057659 -0.041939 0.105669 0.179361 -0.229432 0.175366 -0.368926 -0.011451 0.188748 -0.034338 0.010644 -0.000514 -0.291167 0.233948 -0.075220 0.096815 -0.290674 -0.027786 -0.098229 -0.163159 -0.021894 0.129694 0.245957 -0.118116 0.059517 -0.130030 -0.039927 -0.360283 -0.152712 -0.338484 -0.310895 0.243939
BedRight 0.061107 -0.053437 -0.340828 -0.070681 0.124180 0.189502 -0.122532 -0.050415 -0.068669 -0.220036 0.061949 0.013761 0.106223 0.207463 0.337943 0.000313 0.151647 0.179906 -0.058067 -0.026542 0.105021 0.155483 -0.202064 0.166653 -0.339952 -0.014847 0.182730 -0.016091 0.015543 0.001312 -0.278535 0.223060 -0.071200 0.098106 -0.268242 -0.027072 -0.092219 -0.153197 -0.015457 0.109947 0.240768 -0.104125 0.051614 -0.112304 -0.024763 -0.335954 -0.140095 -0.324732 -0.289751 0.231369
Dresser 0.040368 -0.046837 -0.310101 -0.067866 0.108821 0.168159 -0.111978 -0.042884 -0.049951 -0.193048 0.038305 0.010417 0.102352 0.192616 0.316233 0.001007 0.129297 0.171271 -0.055275 -0.022739 0.085892 0.146281 -0.189952 0.159679 -0.326956 -0.008939 0.173731 -0.019427 0.003591 0.001259 -0.273251 0.200234 -0.066167 0.084314 -0.245758 -0.039195 -0.092658 -0.133468 -0.014380 0.115851 0.229656 -0.102573 0.058951 -0.108287 -0.041651 -0.310052 -0.122859 -0.302598 -0.281422 0.217930
