24 50
BathroomDoor 0.130189 0.098563 -0.160395 -0.035774 0.243186 0.089705 -0.002106 0.065731 0.075670 -0.275867 -0.011448 0.112139 -0.124084 0.274263 0.274260 -0.178532 -0.056697 0.127793 -0.189993 -0.010291 0.214474 0.184390 -0.101361 0.025363 -0.398074 -0.005513 0.251156 -0.175851 -0.086151 -0.097070 -0.313328 0.010921 -0.077926 0.037241 -0.308635 -0.166853 -0.021831 -0.112402 -0.070482 0.279300 0.141465 -0.118675 0.002186 -0.165931 -0.197438 -0.247812 -0.097410 -0.179013 -0.150052 0.132713
Couch 0.113176 0.089149 -0.173120 -0.040493 0.222692 0.092539 0.000443 0.065767 0.067665 -0.252378 -0.014195 0.106315 -0.132931 0.258282 0.272516 -0.169726 -0.045468 0.112131 -0.197642 -0.019598 0.194812 0.166031 -0.093105 0.031382 -0.384212 0.013620 0.256121 -0.157769 -0.097322 -0.097209 -0.312019 0.021380 -0.089500 0.041854 -0.291516 -0.146948 -0.016690 -0.113565 -0.073402 0.283259 0.160937 -0.116332 0.006711 -0.176348 -0.194533 -0.242894 -0.104729 -0.174084 -0.170755 0.129030
Fridge 0.133489 0.093581 -0.174204 -0.048078 0.236408 0.088065 -0.001162 0.068110 0.087525 -0.279884 -0.009116 0.127472 -0.124313 0.270514 0.279323 -0.179202 -0.043688 0.117350 -0.193832 0.000125 0.208778 0.182664 -0.098912 0.024044 -0.389334 0.008727 0.259479 -0.173710 -0.101448 -0.098252 -0.314914 0.021326 -0.079575 0.039528 -0.318046 -0.165690 -0.020035 -0.117160 -0.080959 0.285583 0.150521 -0.105346 0.008622 -0.167295 -0.191087 -0.238163 -0.107326 -0.179378 -0.159588 0.120318
BedroomDoor 0.127449 0.101481 -0.166313 -0.048796 0.227577 0.088452 0.014801 0.073162 0.088185 -0.274590 -0.012070 0.110474 -0.121064 0.276784 0.262815 -0.168966 -0.040650 0.110061 -0.195553 -0.017613 0.196690 0.185536 -0.102492 0.021963 -0.395298 0.010899 0.245980 -0.172708 -0.089834 -0.100736 -0.326194 0.015325 -0.090742 0.025523 -0.315408 -0.169309 -0.020864 -0.113349 -0.067807 0.274889 0.161748 -0.115250 -0.001230 -0.177499 -0.200151 -0.243270 -0.111361 -0.178726 -0.161248 0.126274
ToiletDoorDownstairs 0.120028 0.094951 -0.170791 -0.043639 0.234717 0.088786 0.009932 0.072267 0.082134 -0.256435 -0.018904 0.122362 -0.133493 0.264309 0.270293 -0.171293 -0.053036 0.106648 -0.184492 -0.003231 0.209299 0.175545 -0.088317 0.030795 -0.387229 0.013397 0.248276 -0.167303 -0.095083 -0.082258 -0.307675 0.016062 -0.090046 0.029721 -0.309934 -0.156531 -0.016193 -0.119477 -0.061492 0.274410 0.159671 -0.108871 -0.004950 -0.160679 -0.194298 -0.225064 -0.108982 -0.168128 -0.152574 0.130266
ToiletFlushDownstairs 0.117586 0.094180 -0.161434 -0.050372 0.243973 0.088987 -0.003893 0.066072 0.086187 -0.272053 -0.006298 0.115285 -0.122421 0.274014 0.280664 -0.170182 -0.039132 0.113459 -0.192695 0.002597 0.210096 0.177348 -0.102400 0.036265 -0.402297 -0.005223 0.244649 -0.177484 -0.086317 -0.098038 -0.315137 0.014582 -0.076976 0.041169 -0.305038 -0.167774 -0.016742 -0.118765 -0.081822 0.282313 0.142680 -0.119001 0.003456 -0.161873 -0.204670 -0.241087 -0.099958 -0.178206 -0.151566 0.135624
Microwave 0.119079 0.093979 -0.161045 -0.044668 0.235097 0.077763 -0.000150 0.070899 0.091111 -0.271990 -0.012810 0.127673 -0.128855 0.279890 0.275280 -0.174321 -0.055916 0.122456 -0.192024 0.001765 0.213579 0.184449 -0.100312 0.029925 -0.395845 0.003616 0.263224 -0.182629 -0.097596 -0.101211 -0.311961 0.005727 -0.086606 0.021641 -0.318362 -0.165393 -0.020140 -0.118201 -0.066843 0.274601 0.144327 -0.108435 0.000626 -0.171557 -0.203080 -0.227895 -0.103249 -0.169880 -0.157457 0.125013
Freezer 0.123805 0.087958 -0.174127 -0.049298 0.227872 0.079093 0.004164 0.076056 0.090358 -0.273114 -0.018592 0.126068 -0.122697 0.269003 0.276037 -0.180575 -0.053760 0.125955 -0.190466 -0.000299 0.210184 0.188866 -0.105421 0.023753 -0.400670 0.005069 0.255590 -0.167063 -0.098307 -0.091728 -0.320446 0.022876 -0.079521 0.030751 -0.316492 -0.167878 -0.015809 -0.112261 -0.072067 0.282951 0.143681 -0.113229 0.006065 -0.170342 -0.190128 -0.229295 -0.090157 -0.169332 -0.150215 0.117415
Cutlery 0.117719 0.089332 -0.166258 -0.051633 0.232932 0.085024 0.004456 0.076324 0.090390 -0.257469 -0.016568 0.113416 -0.126470 0.281766 0.281808 -0.185771 -0.038749 0.116980 -0.202599 -0.021954 0.193709 0.188351 -0.091887 0.035579 -0.394913 0.012910 0.240889 -0.178806 -0.082666 -0.095353 -0.317961 0.022701 -0.089174 0.026069 -0.310205 -0.154022 -0.015102 -0.105177 -0.070045 0.275733 0.170176 -0.125386 -0.002243 -0.164086 -0.185059 -0.249295 -0.100685 -0.177456 -0.156714 0.121241
SinkTop 0.128134 0.087410 -0.159406 -0.035647 0.240809 0.074378 0.007621 0.071389 0.080923 -0.268663 -0.015286 0.106711 -0.129181 0.263462 0.261499 -0.176944 -0.049338 0.115477 -0.208546 -0.016091 0.202724 0.173370 -0.091327 0.017522 -0.383565 0.005783 0.250213 -0.159238 -0.087707 -0.095483 -0.316600 0.018774 -0.080412 0.024878 -0.305460 -0.157328 -0.017976 -0.114355 -0.068404 0.279355 0.151725 -0.112403 0.006656 -0.176871 -0.184275 -0.239168 -0.102202 -0.175878 -0.152820 0.126267
CupboardCups 0.106107 0.094828 -0.148311 -0.049029 0.232260 0.081614 0.011606 0.063973 0.089080 -0.252622 -0.010044 0.120978 -0.122838 0.259144 0.252568 -0.178930 -0.053039 0.107977 -0.182347 -0.009564 0.194410 0.167113 -0.103114 0.027651 -0.387126 0.001455 0.245098 -0.162897 -0.093400 -0.098158 -0.308942 0.012928 -0.080912 0.021906 -0.299604 -0.148902 -0.011821 -0.119760 -0.066575 0.267136 0.154768 -0.102643 -0.003121 -0.167469 -0.186039 -0.228606 -0.094855 -0.174231 -0.148458 0.117527
PlatesCupboard 0.127375 0.103149 -0.166210 -0.045901 0.241447 0.090238 0.010611 0.071485 0.086292 -0.281239 -0.005675 0.116292 -0.132551 0.279589 0.265866 -0.182376 -0.051990 0.116542 -0.198100 -0.016099 0.202232 0.176761 -0.100402 0.027953 -0.408832 -0.003676 0.255218 -0.177253 -0.089054 -0.099641 -0.321332 0.005475 -0.096293 0.034083 -0.305456 -0.170327 -0.013830 -0.106984 -0.074047 0.289070 0.148201 -0.116025 -0.002364 -0.175497 -0.210346 -0.247447 -0.096347 -0.164731 -0.156964 0.122276
Keys 0.117125 0.090724 -0.172008 -0.043452 0.238453 0.087294 0.004387 0.072600 0.082635 -0.256288 -0.021446 0.108392 -0.133703 0.269772 0.266783 -0.165364 -0.040333 0.127265 -0.198759 -0.001821 0.212186 0.183983 -0.094702 0.028808 -0.403471 0.003834 0.254670 -0.179189 -0.096948 -0.087296 -0.314468 0.006227 -0.091232 0.040507 -0.304915 -0.171413 -0.018997 -0.108109 -0.077697 0.289034 0.166140 -0.125091 -0.004826 -0.172470 -0.202735 -0.248471 -0.095880 -0.162799 -0.159895 0.117703
GarbageBin 0.118783 0.102842 -0.160430 -0.050931 0.245584 0.080126 0.011558 0.062028 0.076969 -0.263812 -0.025920 0.113877 -0.127962 0.281658 0.279101 -0.187352 -0.050307 0.129291 -0.197950 -0.008890 0.212083 0.195245 -0.109409 0.029078 -0.401894 0.001835 0.252228 -0.170686 -0.088904 -0.084527 -0.324870 0.024291 -0.084102 0.035905 -0.308823 -0.170651 -0.027461 -0.108271 -0.072564 0.294815 0.170298 -0.115783 0.010608 -0.167129 -0.205487 -0.249798 -0.107900 -0.172549 -0.167508 0.134072
Saucepan 0.127523 0.087248 -0.162603 -0.040112 0.230124 0.084366 0.003258 0.070846 0.092462 -0.274559 -0.005542 0.121164 -0.126737 0.271272 0.268175 -0.165263 -0.041786 0.127725 -0.183831 0.001728 0.204586 0.179066 -0.099447 0.026187 -0.395114 -0.003483 0.257861 -0.169650 -0.104135 -0.099564 -0.306646 0.010579 -0.083861 0.019670 -0.310302 -0.159767 -0.014086 -0.122414 -0.081066 0.280271 0.144497 -0.104605 -0.001603 -0.177782 -0.202922 -0.238223 -0.109303 -0.161153 -0.145515 0.131758
Bathtub 0.125685 0.106412 -0.174037 -0.053529 0.234884 0.084058 0.012783 0.065208 0.085553 -0.275134 -0.009269 0.115234 -0.124947 0.269950 0.274288 -0.166219 -0.045595 0.112220 -0.204029 -0.004539 0.214249 0.181846 -0.092021 0.017129 -0.393418 0.009041 0.251778 -0.160075 -0.098149 -0.082550 -0.323739 0.022137 -0.081364 0.022161 -0.298889 -0.156355 -0.016566 -0.115611 -0.065761 0.297051 0.162563 -0.104317 -0.004610 -0.170095 -0.198761 -0.237683 -0.106614 -0.179361 -0.159127 0.122459
Frontdoor 0.126558 0.100629 -0.159512 -0.039096 0.218492 0.084177 0.011782 0.073264 0.070447 -0.259075 -0.008479 0.121028 -0.124069 0.259193 0.269141 -0.173917 -0.046458 0.108827 -0.190246 -0.017069 0.199248 0.170958 -0.092480 0.033218 -0.386530 0.014854 0.239744 -0.168220 -0.084478 -0.096784 -0.308083 0.010310 -0.088534 0.036284 -0.302104 -0.147401 -0.019869 -0.103978 -0.075291 0.286193 0.160964 -0.113230 0.008171 -0.166173 -0.184299 -0.244023 -0.105296 -0.171250 -0.149640 0.126246
ToiletFlushUpstairs 0.131033 0.101924 -0.173399 -0.043469 0.234823 0.068276 0.011248 0.068787 0.070149 -0.275620 -0.009122 0.113461 -0.137454 0.259087 0.262664 -0.165282 -0.061545 0.124431 -0.206811 -0.008829 0.198655 0.174268 -0.087086 0.026046 -0.390500 0.001130 0.256521 -0.171057 -0.081801 -0.078644 -0.319935 0.022148 -0.082518 0.016820 -0.290383 -0.167690 -0.005300 -0.106219 -0.065922 0.283297 0.135805 -0.110085 0.003537 -0.175287 -0.188318 -0.235596 -0.095048 -0.171746 -0.163682 0.124200
BedLeft 0.119422 0.096017 -0.175130 -0.045108 0.233158 0.077417 -0.005102 0.081369 0.081832 -0.274653 -0.020654 0.111482 -0.124651 0.275789 0.279190 -0.183067 -0.055821 0.126258 -0.202036 -0.021547 0.211866 0.191452 -0.105684 0.033804 -0.407916 0.008672 0.254520 -0.178295 -0.093507 -0.089511 -0.313987 0.019399 -0.083389 0.026652 -0.319490 -0.160241 -0.016863 -0.117674 -0.072149 0.296629 0.150155 -0.116682 0.007639 -0.180268 -0.197583 -0.257525 -0.109428 -0.178740 -0.171006 0.131749
BedRight 0.127798 0.088394 -0.173068 -0.042562 0.236694 0.084820 -0.001630 0.066703 0.066515 -0.276914 -0.001941 0.122027 -0.118992 0.259476 0.270217 -0.157903 -0.044336 0.123327 -0.201814 -0.012219 0.209737 0.177383 -0.094084 0.034173 -0.400851 0.001878 0.257374 -0.155143 -0.087178 -0.084867 -0.319061 0.026180 -0.083824 0.029642 -0.307145 -0.159138 -0.016021 -0.114030 -0.061557 0.274001 0.158718 -0.105113 -0.000284 -0.168415 -0.184478 -0.249161 -0.100500 -0.182068 -0.171161 0.130285
Dresser 0.116221 0.093984 -0.164344 -0.043136 0.239184 0.078345 0.001135 0.074033 0.085839 -0.269729 -0.022462 0.127131 -0.123056 0.263087 0.276779 -0.165360 -0.060711 0.124614 -0.207583 -0.008417 0.203949 0.180147 -0.092729 0.037529 -0.411960 0.008914 0.263989 -0.163693 -0.102157 -0.089058 -0.333347 0.013813 -0.082537 0.021118 -0.308955 -0.175000 -0.020133 -0.105496 -0.063111 0.290754 0.160929 -0.109329 0.009453 -0.172008 -0.205183 -0.243965 -0.095133 -0.179054 -0.176417 0.130245
ToiletFlush 0.122410 0.094238 -0.154152 -0.035682 0.236933 0.084815 -0.005804 0.059370 0.070170 -0.265882 -0.018465 0.120830 -0.130362 0.264344 0.270237 -0.172130 -0.054702 0.116057 -0.200782 -0.018910 0.209561 0.182072 -0.097157 0.022754 -0.391125 0.001164 0.251558 -0.163243 -0.099460 -0.093039 -0.301686 0.026028 -0.081176 0.035602 -0.299176 -0.164529 -0.011447 -0.110814 -0.058595 0.276604 0.161005 -0.106423 0.001110 -0.159551 -0.183283 -0.250278 -0.109151 -0.169079 -0.160988 0.124667
ToiletDoor 0.127805 0.096664 -0.155119 -0.047095 0.238313 0.083422 0.003134 0.074452 0.081938 -0.278268 -0.008222 0.126226 -0.125557 0.264190 0.267578 -0.168584 -0.040010 0.121985 -0.210427 -0.023780 0.213535 0.188892 -0.094619 0.019150 -0.400462 0.013427 0.242419 -0.175104 -0.086737 -0.088209 -0.321374 0.025879 -0.085992 0.036686 -0.308869 -0.158326 -0.011917 -0.101169 -0.066585 0.284505 0.147543 -0.109849 -0.000179 -0.158144 -0.183871 -0.245855 -0.103217 -0.182311 -0.169143 0.127093
BathTub 0.131295 0.099023 -0.157929 -0.047084 0.232046 0.086281 0.000455 0.077679 0.065983 -0.271922 -0.006033 0.120457 -0.128790 0.257059 0.268831 -0.178709 -0.054392 0.109250 -0.210856 -0.025622 0.207445 0.184449 -0.083402 0.028983 -0.398552 0.009561 0.254600 -0.158629 -0.093631 -0.096545 -0.320361 0.022315 -0.071462 0.039122 -0.303614 -0.166841 -0.009662 -0.105705 -0.074189 0.270749 0.148372 -0.103519 -0.000873 -0.159565 -0.188687 -0.241129 -0.095314 -0.178270 -0.164860 0.118456
