20 50
Cutlery -0.247286 -0.166424 -0.047224 -0.428748 0.383237 0.240325 0.074613 -0.148457 0.727518 -0.003840 -0.004740 0.315859 -0.262482 0.661107 0.154298 -0.732915 0.166432 0.345162 0.174779 0.284689 -0.075842 0.229617 -0.380896 -0.077759 -0.446558 -0.355040 0.416096 -0.379727 -0.355996 -0.328472 -0.231622 -0.032408 -0.314921 0.163943 -0.157940 -0.170568 0.124923 0.035626 -0.360163 0.359902 0.317235 -0.300450 -0.241262 -0.270676 -0.718539 -0.388176 0.219097 0.107275 -0.118418 -0.303827
Microwave -0.250398 -0.155280 -0.047454 -0.401722 0.350569 0.226467 0.054256 -0.134397 0.682483 -0.007470 -0.009621 0.319278 -0.239512 0.624034 0.159299 -0.668325 0.139755 0.306922 0.182204 0.281201 -0.058003 0.209166 -0.364035 -0.048376 -0.418750 -0.316592 0.400116 -0.367256 -0.338564 -0.312154 -0.209347 -0.045708 -0.302823 0.151170 -0.178333 -0.166455 0.101801 0.010652 -0.316532 0.323196 0.284592 -0.269207 -0.217480 -0.249766 -0.693810 -0.333460 0.186507 0.099770 -0.129771 -0.261697
PlatesCupboard -0.244081 -0.154434 -0.039931 -0.409183 0.370345 0.242373 0.072548 -0.143572 0.694326 -0.002726 -0.000988 0.310227 -0.261254 0.625551 0.136256 -0.700205 0.154436 0.312373 0.181215 0.278860 -0.068300 0.202415 -0.366865 -0.070200 -0.428651 -0.344657 0.398503 -0.362086 -0.347512 -0.316485 -0.209930 -0.045910 -0.312797 0.178595 -0.146342 -0.171383 0.121871 0.030342 -0.348837 0.345576 0.291970 -0.281777 -0.234652 -0.251959 -0.714758 -0.355984 0.210154 0.123928 -0.114006 -0.287485
Saucepan -0.232419 -0.145860 -0.058913 -0.400704 0.382341 0.244094 0.065168 -0.140745 0.678605 -0.011708 -0.002045 0.318734 -0.259334 0.624835 0.172361 -0.666948 0.147725 0.303871 0.193167 0.304332 -0.036181 0.207445 -0.353510 -0.047098 -0.428714 -0.332263 0.391780 -0.367193 -0.335171 -0.288140 -0.209041 -0.034696 -0.298480 0.160075 -0.175249 -0.168171 0.113141 -0.010432 -0.327511 0.332770 0.284093 -0.270824 -0.232608 -0.231354 -0.699217 -0.333879 0.170227 0.096545 -0.103986 -0.232321
GarbageBin -0.277082 -0.155573 -0.027244 -0.413048 0.358737 0.236930 0.069113 -0.139539 0.682993 0.040310 -0.027732 0.318434 -0.259700 0.618062 0.147817 -0.688799 0.153617 0.294147 0.204546 0.289768 -0.068288 0.203562 -0.365478 -0.036571 -0.416468 -0.325109 0.381996 -0.362412 -0.345644 -0.299171 -0.192787 -0.045209 -0.317155 0.184733 -0.148465 -0.169575 0.108579 0.025560 -0.339809 0.326323 0.311142 -0.276642 -0.226456 -0.224864 -0.725293 -0.331015 0.190186 0.137864 -0.127395 -0.265702
Freezer -0.247636 -0.177851 -0.047047 -0.405386 0.330633 0.225527 0.061885 -0.122645 0.703398 -0.002721 -0.017817 0.316771 -0.227081 0.614556 0.137408 -0.681161 0.158781 0.325625 0.181311 0.270139 -0.080135 0.221848 -0.381238 -0.068611 -0.430220 -0.320747 0.399801 -0.349529 -0.359712 -0.326624 -0.218643 -0.035770 -0.299458 0.155130 -0.171302 -0.166873 0.108362 0.033558 -0.333799 0.322174 0.293600 -0.273026 -0.213142 -0.264719 -0.673540 -0.348764 0.209618 0.111971 -0.122925 -0.297537
Fridge -0.242744 -0.155370 -0.058124 -0.413002 0.348850 0.244211 0.050680 -0.128939 0.685131 -0.022566 0.002123 0.327585 -0.217367 0.617312 0.153196 -0.648468 0.161967 0.283727 0.185123 0.270857 -0.078626 0.207983 -0.366776 -0.031475 -0.426751 -0.306285 0.392117 -0.362995 -0.338711 -0.317493 -0.220137 -0.037033 -0.309202 0.156115 -0.198311 -0.182687 0.100630 0.008737 -0.316613 0.303236 0.302772 -0.260223 -0.218219 -0.246829 -0.693298 -0.344913 0.168996 0.080456 -0.154552 -0.260075
Bathtub 0.694071 0.501970 -0.485415 -0.096774 0.825499 0.066351 0.127683 -0.494826 -0.260164 -0.782397 0.157960 -0.231142 0.005465 0.495172 0.682333 -0.203302 -0.177328 0.636681 -0.325801 0.352134 0.702995 0.514077 -0.121532 -0.313041 -0.430098 -0.461722 0.166225 -0.204134 0.486374 0.509728 -0.802476 0.507782 0.350845 0.019358 -0.119565 -0.425390 -0.147939 -0.153572 0.025635 0.733392 -0.007416 -0.344137 0.012466 0.054853 -0.097761 -0.542461 0.049508 -0.844223 0.135748 0.439921
Dresser -0.028782 0.219195 -0.319527 -0.301174 0.049773 0.166115 -0.058777 0.162855 0.285170 -0.771504 0.096528 0.220183 0.721228 0.691310 0.272357 0.389179 0.088050 0.007644 -0.077690 -0.362455 -0.261698 0.460946 -0.534196 0.585142 -0.879216 0.123249 0.115292 -0.279957 0.269842 -0.175056 -0.906477 0.031845 -0.382573 -0.561560 -0.989344 -0.631185 -0.354558 -0.129213 0.615952 -0.288838 0.553537 -0.042295 0.028506 -0.291076 -0.292814 -0.371886 -0.376607 -0.768691 -0.925953 0.426818
CupboardCups -0.268307 -0.158889 -0.032604 -0.425144 0.374119 0.244584 0.075693 -0.143546 0.721961 0.001115 -0.003563 0.331299 -0.252123 0.637081 0.132638 -0.706744 0.153999 0.311846 0.190472 0.280907 -0.077912 0.205859 -0.388630 -0.061340 -0.449078 -0.341706 0.414689 -0.365951 -0.366147 -0.335140 -0.227694 -0.048995 -0.320358 0.158945 -0.172293 -0.169873 0.120453 0.015107 -0.340378 0.338331 0.315952 -0.274791 -0.239602 -0.269181 -0.722902 -0.357193 0.205742 0.109548 -0.129644 -0.291668
SinkTop 0.608174 0.454684 -0.481095 -0.147764 0.852189 0.108558 0.121957 -0.462892 -0.153429 -0.743381 0.139121 -0.154230 -0.027059 0.568726 0.691832 -0.265842 -0.153399 0.597963 -0.271395 0.371199 0.661178 0.507012 -0.160491 -0.243397 -0.482412 -0.454990 0.197284 -0.262088 0.440137 0.448847 -0.795139 0.467843 0.262930 0.034982 -0.199180 -0.444423 -0.137956 -0.180341 0.014942 0.700301 0.049250 -0.366756 -0.018380 0.034255 -0.200704 -0.532174 0.031544 -0.801174 0.082616 0.434779
BedroomDoor -0.001530 0.216962 -0.319043 -0.310155 0.085237 0.175807 -0.034152 0.127790 0.298220 -0.751846 0.101520 0.199662 0.655351 0.707846 0.271566 0.306805 0.100108 0.042170 -0.067724 -0.318486 -0.224090 0.469812 -0.532810 0.507782 -0.843907 0.080118 0.124779 -0.295710 0.254929 -0.174828 -0.877366 0.048252 -0.368916 -0.509736 -0.945037 -0.611085 -0.329134 -0.129706 0.550879 -0.229549 0.532510 -0.075494 0.004896 -0.294520 -0.314771 -0.391044 -0.350432 -0.736830 -0.851509 0.390561
ToiletFlushUpstairs 0.610126 0.463466 -0.474308 -0.126351 0.816177 0.094954 0.115748 -0.450492 -0.201268 -0.724389 0.138425 -0.165984 -0.032146 0.521316 0.673286 -0.232276 -0.169772 0.580679 -0.270202 0.350965 0.650209 0.487060 -0.135727 -0.229959 -0.456194 -0.437718 0.173664 -0.256959 0.457685 0.466544 -0.762258 0.464619 0.271694 0.039091 -0.171023 -0.430533 -0.124354 -0.166270 0.022876 0.673535 0.013472 -0.353442 -0.008112 0.055073 -0.158296 -0.504321 0.028888 -0.782985 0.087547 0.440024
ToiletFlushDownstairs -0.271094 0.342435 -0.483392 -0.503072 1.003161 0.632658 -0.039499 -0.106285 0.239242 -0.099283 0.001478 0.611255 -0.431900 0.730257 1.012520 -0.259717 -0.128960 -0.560451 0.472050 0.680720 0.603561 0.055338 0.045727 0.829898 -0.564768 -0.042803 -0.071965 -0.681709 0.320060 0.465147 -0.220869 0.103633 -0.403091 0.361967 -0.727039 -0.354763 0.035526 -0.737474 0.264763 0.045324 0.246386 -0.294677 -0.398073 0.702056 -0.834705 0.312035 -0.502921 -0.437209 -0.147212 0.936670
ToiletDoorDownstairs -0.259019 0.335792 -0.476904 -0.469060 0.949066 0.609876 -0.033971 -0.085255 0.211168 -0.085165 -0.011034 0.594285 -0.415887 0.688346 0.971671 -0.230378 -0.142250 -0.560951 0.460583 0.638613 0.583974 0.048908 0.062781 0.813375 -0.530299 -0.009096 -0.075858 -0.647349 0.311321 0.466389 -0.202705 0.094900 -0.401575 0.333583 -0.718882 -0.330872 0.026749 -0.716019 0.290697 0.019451 0.250225 -0.270020 -0.386665 0.684904 -0.786633 0.322044 -0.507684 -0.422027 -0.153874 0.914173
BedLeft -0.034796 0.209404 -0.328060 -0.319988 0.108416 0.182168 -0.053570 0.134746 0.308205 -0.728703 0.088191 0.217879 0.633196 0.711692 0.300339 0.282284 0.085447 0.031838 -0.052121 -0.299873 -0.205687 0.459424 -0.527352 0.539875 -0.855735 0.079981 0.128795 -0.309614 0.242823 -0.157614 -0.851509 0.045716 -0.370445 -0.491035 -0.944951 -0.593291 -0.316704 -0.148942 0.540053 -0.216311 0.523812 -0.075643 0.001782 -0.275029 -0.333599 -0.380902 -0.353467 -0.726375 -0.859297 0.407428
Keys -0.246896 -0.149120 -0.066109 -0.417562 0.389025 0.254358 0.063127 -0.139602 0.698456 -0.012590 -0.008520 0.319412 -0.254984 0.648755 0.167811 -0.675325 0.161615 0.314937 0.180370 0.296248 -0.046880 0.222044 -0.368672 -0.044249 -0.453644 -0.333588 0.404161 -0.384169 -0.342246 -0.302130 -0.230075 -0.045462 -0.320150 0.172923 -0.181130 -0.190342 0.107723 0.012318 -0.329601 0.335982 0.314963 -0.289082 -0.238668 -0.243398 -0.719968 -0.356636 0.187956 0.098866 -0.135886 -0.261630
BedRight -0.004482 0.199296 -0.320537 -0.298742 0.073666 0.170398 -0.053092 0.129001 0.275855 -0.757423 0.114563 0.209958 0.674153 0.686778 0.267772 0.335890 0.106505 0.048225 -0.080163 -0.331203 -0.228767 0.456825 -0.528398 0.525341 -0.845902 0.084294 0.136144 -0.267446 0.251657 -0.176455 -0.871771 0.050123 -0.364103 -0.513668 -0.936845 -0.593433 -0.331072 -0.122578 0.559681 -0.248710 0.538713 -0.053324 0.013657 -0.296166 -0.285128 -0.395811 -0.346063 -0.738591 -0.873496 0.384643
BathroomDoor 0.635426 0.472312 -0.475014 -0.128266 0.850642 0.111237 0.112160 -0.475750 -0.195807 -0.756705 0.145511 -0.173422 -0.016465 0.552317 0.693119 -0.259996 -0.168594 0.619102 -0.270457 0.358361 0.677113 0.516950 -0.158588 -0.256227 -0.474979 -0.468781 0.182281 -0.259265 0.462704 0.462230 -0.788146 0.476178 0.289186 0.052843 -0.181093 -0.444174 -0.139989 -0.165375 0.014939 0.694027 0.020465 -0.366890 -0.010479 0.056201 -0.168883 -0.538067 0.043869 -0.810334 0.101837 0.439133
Couch -0.251170 -0.171401 -0.027623 -0.365019 0.290506 0.218153 0.050671 -0.118790 0.636694 0.027868 -0.012425 0.280472 -0.224728 0.554461 0.113012 -0.620515 0.155068 0.285811 0.169518 0.234293 -0.095358 0.175795 -0.342122 -0.053322 -0.379414 -0.289512 0.375556 -0.316769 -0.345041 -0.320253 -0.177625 -0.049334 -0.292736 0.156151 -0.132832 -0.134213 0.102899 0.033286 -0.320787 0.290527 0.278079 -0.248800 -0.197991 -0.252333 -0.638049 -0.321736 0.185764 0.128605 -0.125388 -0.273367
