16 50
Couch 0.161560 -0.691004 -0.322945 -0.213530 -0.277402 0.549344 -0.185286 0.088674 0.721260 -0.103615 0.315809 0.352355 0.034785 0.119507 0.259093 -0.443319 0.652431 -0.013050 0.316369 0.021061 -0.578423 -0.064755 -0.119385 -0.118180 -0.037991 0.039777 0.253917 0.136240 -0.620524 -0.711688 -0.011039 0.450579 -0.058551 0.201392 -0.374021 0.295501 0.327818 -0.269706 -0.642554 -0.113057 0.092662 -0.054068 -0.088685 -0.290175 0.020629 -0.430359 -0.094177 -0.236543 0.153011 -0.174431
ToiletFlushUpstairs 0.260233 0.101206 -0.434210 -0.356087 0.608601 0.299556 -0.203744 -0.318316 0.263633 -0.713970 0.435468 0.180361 0.293286 0.254002 0.913221 -0.025542 0.190001 0.142555 -0.066096 0.491366 0.397606 0.131397 -0.157621 0.075010 -0.638134 -0.390606 0.054002 0.092815 0.073376 0.169095 -0.678430 0.650870 0.537740 -0.075460 -0.233320 -0.046260 0.157002 -0.597578 -0.199168 0.499747 -0.129914 -0.030392 -0.057315 0.204154 0.001037 -0.326827 0.002241 -1.019452 0.267747 0.553775
Saucepan 0.133867 -0.672106 -0.303521 -0.205458 -0.249346 0.515446 -0.199729 0.104707 0.702556 -0.106401 0.300945 0.354553 0.041293 0.116754 0.251071 -0.405725 0.623659 -0.009813 0.312124 0.032536 -0.546518 -0.063688 -0.123302 -0.072542 -0.065334 0.026592 0.242235 0.117038 -0.595770 -0.674887 0.005835 0.412194 -0.056381 0.179092 -0.379670 0.269891 0.316921 -0.273258 -0.616421 -0.116289 0.074208 -0.041241 -0.083002 -0.276593 0.002028 -0.412798 -0.100115 -0.214208 0.130764 -0.141082
Freezer 0.107586 -0.676069 -0.308018 -0.237568 -0.240361 0.534758 -0.209397 0.106510 0.716514 -0.088763 0.297307 0.372478 0.039909 0.115518 0.280492 -0.422270 0.638780 -0.056898 0.328694 0.057777 -0.541497 -0.071032 -0.126921 -0.051891 -0.068191 0.033955 0.209389 0.102676 -0.582355 -0.675915 0.007546 0.430010 -0.049067 0.228526 -0.385106 0.260547 0.326725 -0.285336 -0.629114 -0.127550 0.062851 -0.062151 -0.083376 -0.230854 0.003216 -0.380684 -0.085054 -0.222313 0.148653 -0.142657
BedLeft -0.740860 -0.587367 -0.355456 -0.217960 0.130507 -0.065203 -1.004174 0.435879 0.429770 -0.200546 -0.158032 0.467560 0.622800 -0.039223 0.747058 0.083614 -0.018557 0.245423 -0.008206 0.024706 -0.081104 0.031969 -0.451724 1.121107 -1.090659 -0.011352 0.347420 -0.029720 -0.421159 -0.049158 -0.142877 0.162757 0.281838 -0.150356 -0.711342 -0.045403 0.029563 -0.404163 -0.129268 0.139127 -0.112457 0.166243 0.440886 -0.109347 -0.107702 -0.497572 0.034924 -0.520455 -0.895027 0.461583
BedRight -0.697616 -0.557460 -0.332564 -0.182940 0.114837 -0.080161 -0.946645 0.410411 0.372140 -0.187697 -0.155743 0.452135 0.596356 -0.053888 0.683913 0.107516 -0.039540 0.258321 -0.026296 0.006455 -0.071285 0.030268 -0.418551 1.063077 -1.029894 -0.003020 0.354331 -0.003707 -0.398053 -0.031250 -0.141582 0.137059 0.252819 -0.162140 -0.670165 -0.043640 0.009149 -0.347866 -0.079017 0.116310 -0.077160 0.176101 0.420901 -0.115824 -0.082032 -0.468470 0.043961 -0.477098 -0.881975 0.418516
Bathtub 0.273961 0.153891 -0.402695 -0.337621 0.601739 0.275757 -0.161820 -0.337283 0.226535 -0.703139 0.420057 0.145089 0.296586 0.247351 0.867980 -0.001374 0.160114 0.137891 -0.081450 0.482302 0.438332 0.143447 -0.140607 0.019517 -0.589549 -0.381879 0.032758 0.117136 0.093023 0.205959 -0.672562 0.618341 0.540829 -0.095929 -0.190873 -0.040543 0.122333 -0.565648 -0.147989 0.503014 -0.111632 -0.009642 -0.071193 0.220106 0.011348 -0.286298 0.005906 -0.990306 0.294213 0.524368
Fridge 0.135582 -0.636310 -0.298453 -0.230884 -0.216856 0.525899 -0.195670 0.077538 0.685246 -0.109053 0.314224 0.356004 0.036245 0.113866 0.272558 -0.403284 0.626886 -0.060185 0.311713 0.067539 -0.519441 -0.074555 -0.109876 -0.069888 -0.046810 0.023500 0.208290 0.097926 -0.556559 -0.654022 -0.001319 0.424821 -0.036483 0.221436 -0.363287 0.247502 0.313584 -0.280437 -0.613971 -0.115555 0.057267 -0.049001 -0.085296 -0.219678 0.001253 -0.371996 -0.098146 -0.235612 0.152438 -0.133741
ToiletFlushDownstairs -0.649294 -0.271176 -0.045156 -0.588672 0.618909 0.616323 -0.529972 0.020950 0.402096 0.145048 0.342784 0.470619 -0.121033 0.190760 0.851786 0.052761 0.622843 -0.870940 0.447769 0.679276 0.042150 -0.424312 -0.057255 1.054220 -0.482530 -0.212576 -0.451748 -0.448638 0.197829 -0.176103 0.194516 0.191282 0.065611 0.722333 -0.292394 -0.100511 0.374707 -0.802923 -0.532777 -0.291053 -0.305428 -0.257349 -0.151382 0.783625 -0.442132 0.284738 -0.218329 -0.295641 0.154662 0.833063
ToiletDoorDownstairs -0.654296 -0.270810 -0.062768 -0.596973 0.638004 0.643518 -0.527570 0.025118 0.406079 0.158984 0.341455 0.492458 -0.145414 0.197669 0.873059 0.043149 0.622605 -0.900376 0.469226 0.694410 0.056397 -0.432029 -0.041394 1.073528 -0.480280 -0.200507 -0.458643 -0.459836 0.199036 -0.162048 0.206324 0.194954 0.048721 0.740454 -0.312595 -0.093952 0.383129 -0.826205 -0.525732 -0.304046 -0.293676 -0.261497 -0.171329 0.809730 -0.450987 0.302786 -0.237923 -0.297846 0.161101 0.853616
BathroomDoor 0.273263 0.142535 -0.422145 -0.358351 0.668599 0.308909 -0.209872 -0.349686 0.244296 -0.750398 0.446490 0.168517 0.322087 0.269106 0.951049 -0.017000 0.170860 0.145698 -0.070203 0.515024 0.463814 0.147314 -0.167228 0.069664 -0.658382 -0.421642 0.027494 0.099956 0.112645 0.202525 -0.706394 0.656666 0.581732 -0.073471 -0.235124 -0.059663 0.133737 -0.623048 -0.177130 0.520504 -0.139671 -0.029817 -0.062318 0.249592 0.003668 -0.321453 0.010656 -1.074519 0.305316 0.596732
Dresser -0.757274 -0.540127 -0.301524 -0.160048 0.102749 -0.143968 -0.968285 0.442138 0.351835 -0.156784 -0.218055 0.440976 0.615198 -0.083726 0.657774 0.141177 -0.109251 0.272805 -0.049109 -0.013396 -0.070733 0.029095 -0.420663 1.111263 -1.054707 0.014671 0.359327 -0.016708 -0.397980 0.003910 -0.133291 0.080049 0.256658 -0.196521 -0.660546 -0.076349 -0.018542 -0.314331 -0.040217 0.127632 -0.092447 0.191695 0.463326 -0.119997 -0.101978 -0.449740 0.063890 -0.444687 -0.946970 0.421838
PlatesCupboard 0.103028 -0.658262 -0.299693 -0.223750 -0.225731 0.522822 -0.212682 0.106065 0.693320 -0.100338 0.298556 0.355440 0.040874 0.117661 0.265271 -0.409158 0.616503 -0.045998 0.305826 0.031520 -0.541071 -0.078116 -0.124702 -0.036352 -0.084144 0.023505 0.217098 0.100842 -0.565317 -0.662845 0.004517 0.405506 -0.060823 0.212807 -0.370636 0.251759 0.319539 -0.271231 -0.611965 -0.117489 0.062348 -0.055410 -0.078482 -0.240969 -0.010931 -0.396065 -0.084234 -0.217072 0.115971 -0.129744
SinkTop 0.295814 0.143487 -0.431342 -0.367444 0.678598 0.316784 -0.178523 -0.362344 0.258364 -0.753316 0.462334 0.159564 0.301676 0.277627 0.949884 -0.022111 0.197952 0.123983 -0.079293 0.534179 0.467104 0.137469 -0.152133 0.036075 -0.632160 -0.419475 0.022685 0.111867 0.114854 0.198357 -0.717384 0.671701 0.577804 -0.074332 -0.227321 -0.046085 0.141473 -0.639680 -0.188974 0.533281 -0.126850 -0.034529 -0.078022 0.244486 0.005350 -0.307199 -0.001781 -1.080237 0.340890 0.596573
CupboardCups 0.143438 -0.718496 -0.338713 -0.253802 -0.244888 0.572937 -0.216031 0.096771 0.786239 -0.137895 0.343355 0.401712 0.061928 0.131746 0.301026 -0.467034 0.678090 -0.024545 0.335311 0.046324 -0.589474 -0.069141 -0.147855 -0.083482 -0.097550 0.019286 0.260121 0.135242 -0.645678 -0.735803 -0.035948 0.484014 -0.034634 0.196236 -0.424096 0.295497 0.356845 -0.319608 -0.671978 -0.107215 0.083740 -0.044759 -0.093890 -0.286689 0.014838 -0.454376 -0.092504 -0.291325 0.154400 -0.153890
Cutlery 0.104411 -0.669873 -0.330209 -0.256634 -0.195462 0.533169 -0.238013 0.101231 0.725004 -0.125611 0.316231 0.373827 0.064758 0.141254 0.343703 -0.411895 0.642372 -0.040745 0.301409 0.065519 -0.524360 -0.058777 -0.124812 -0.011117 -0.120354 0.013447 0.208098 0.095672 -0.557851 -0.650687 -0.028975 0.456133 -0.020932 0.195098 -0.400630 0.259972 0.332755 -0.311058 -0.620999 -0.102558 0.066528 -0.065525 -0.085792 -0.216002 0.004433 -0.418056 -0.089558 -0.290291 0.132921 -0.093767
