15 50
Cutlery -0.075434 -0.527544 -0.156841 -0.309722 -0.028247 0.327309 0.119923 0.221764 0.830778 -0.072542 0.214696 0.443614 -0.009693 0.203550 0.006029 -0.677266 0.294537 0.002221 0.134063 -0.266290 -0.596925 -0.046902 -0.226051 -0.050987 -0.383742 -0.036357 0.157475 0.198909 -0.375160 -0.555276 -0.284395 0.335535 -0.212660 -0.201136 -0.433404 0.311523 0.453485 -0.153802 -0.222990 -0.097775 0.319190 -0.102695 -0.269292 -0.376894 0.163286 -0.377538 0.225389 -0.223054 0.128507 -0.309470
PlatesCupboard -0.076068 -0.521717 -0.149712 -0.313244 -0.024505 0.349944 0.128207 0.212645 0.827991 -0.079165 0.235760 0.452464 -0.024499 0.196684 -0.015779 -0.665744 0.306763 -0.023218 0.149914 -0.255851 -0.601024 -0.073324 -0.229020 -0.050674 -0.383199 -0.049361 0.157863 0.201241 -0.380904 -0.566979 -0.272226 0.319161 -0.232867 -0.170642 -0.422436 0.301258 0.465851 -0.161410 -0.239882 -0.099494 0.304262 -0.095598 -0.278203 -0.372948 0.134633 -0.359511 0.224724 -0.204559 0.131827 -0.307593
Bathtub 0.707752 0.124561 -0.044799 -0.186652 0.846934 0.359995 0.273777 -0.524758 0.214734 -0.686741 0.590639 0.136820 0.139335 0.298242 0.391288 -0.364987 0.290680 -0.040944 -0.125073 0.373912 0.381852 0.057579 -0.025175 -0.539251 -0.053234 -0.434632 -0.086674 0.280921 0.331709 -0.114368 -0.699010 0.591707 0.449145 0.017080 -0.324204 0.013466 0.065209 -0.516306 -0.088310 0.152549 0.180457 -0.089549 -0.266663 0.191241 0.338826 -0.193924 0.111752 -1.011693 0.812681 0.188096
BathroomDoor 0.768264 0.146896 -0.024569 -0.133627 0.878654 0.351788 0.278325 -0.550544 0.151085 -0.707653 0.579296 0.105507 0.144950 0.299784 0.380662 -0.386380 0.251552 0.008642 -0.132557 0.356983 0.423694 0.085425 -0.032393 -0.581800 -0.029687 -0.454153 -0.082721 0.282210 0.370984 -0.112048 -0.714815 0.596901 0.479950 0.028587 -0.356084 -0.002255 0.033642 -0.517449 -0.073278 0.151049 0.176841 -0.109154 -0.253990 0.189931 0.372571 -0.226951 0.123990 -1.056981 0.845326 0.202808
Freezer -0.081398 -0.573145 -0.169485 -0.316067 -0.067432 0.349914 0.132561 0.241879 0.871814 -0.060200 0.216587 0.481919 -0.021535 0.192005 -0.022306 -0.705060 0.311822 0.003399 0.163807 -0.275271 -0.637375 -0.057694 -0.245022 -0.066992 -0.388126 -0.024838 0.183271 0.221238 -0.428063 -0.597365 -0.278192 0.341660 -0.244297 -0.189861 -0.453313 0.327656 0.477308 -0.150229 -0.243470 -0.113803 0.331595 -0.098358 -0.277602 -0.412724 0.166026 -0.375657 0.237730 -0.190517 0.130421 -0.349727
Fridge -0.079763 -0.562898 -0.165861 -0.325904 -0.044465 0.354642 0.116378 0.230047 0.873887 -0.077907 0.235068 0.481166 -0.012256 0.196529 -0.007032 -0.699683 0.320493 -0.010603 0.158239 -0.265528 -0.636283 -0.066020 -0.241625 -0.051757 -0.392744 -0.035533 0.180014 0.208867 -0.418876 -0.598601 -0.281431 0.345515 -0.228893 -0.186726 -0.454376 0.319521 0.478714 -0.165668 -0.255064 -0.108455 0.319778 -0.090797 -0.273256 -0.401136 0.155508 -0.386606 0.225119 -0.218801 0.121783 -0.330921
BedLeft -0.425579 0.022835 -0.213260 -0.401936 0.485111 -0.191093 -0.516380 0.258095 0.670337 -0.519940 -0.133979 -0.085643 0.637182 0.350922 0.753265 -0.535150 -0.294796 0.311620 -0.310101 -0.251390 0.000191 0.336849 -0.527804 0.480283 -1.172945 -0.282219 -0.084436 -0.142750 0.045406 0.085097 -0.656372 0.389114 0.606294 -0.528536 -0.437765 -0.053157 0.120018 -0.342249 -0.054317 0.681044 -0.249638 -0.145646 0.272301 -0.123207 -0.031568 -0.699041 0.303431 -0.969864 -0.281225 0.388848
ToiletDoorDownstairs -0.480947 -0.250891 -0.065846 -0.795574 0.653962 0.626576 -0.443080 0.008723 0.723244 -0.220309 0.590878 0.518837 0.093737 0.345101 0.793844 -0.131670 0.754669 -0.798210 0.331920 0.551912 -0.112316 -0.311033 -0.163503 0.844666 -0.658909 -0.392530 -0.507631 -0.344702 0.209295 -0.284597 -0.038076 0.342090 0.149383 0.507297 -0.288267 -0.102697 0.520455 -0.701208 -0.574555 -0.179439 -0.302387 -0.210709 -0.277500 0.683816 -0.352527 0.043346 -0.027593 -0.472324 0.264272 0.578243
ToiletFlushDownstairs -0.512501 -0.264166 -0.053770 -0.823162 0.659751 0.619543 -0.474459 0.015817 0.758477 -0.241151 0.604745 0.515283 0.128720 0.354420 0.813074 -0.138040 0.772607 -0.793246 0.319578 0.545369 -0.140332 -0.311951 -0.194846 0.873980 -0.708892 -0.419212 -0.519703 -0.353139 0.213126 -0.309658 -0.057491 0.351842 0.175456 0.501283 -0.283922 -0.114437 0.535545 -0.703633 -0.604468 -0.163383 -0.331161 -0.220205 -0.260152 0.679116 -0.362258 0.014738 -0.001127 -0.496583 0.252928 0.585418
Dresser -0.437054 0.018547 -0.208264 -0.407837 0.506358 -0.198506 -0.522915 0.258385 0.699691 -0.533437 -0.140230 -0.069654 0.659527 0.349003 0.772999 -0.541612 -0.312988 0.325917 -0.325660 -0.248466 -0.010952 0.335982 -0.533616 0.492656 -1.215874 -0.291638 -0.072430 -0.129038 0.035305 0.082370 -0.704881 0.399547 0.629001 -0.559553 -0.449607 -0.065299 0.121140 -0.344011 -0.045965 0.700982 -0.242932 -0.143746 0.283011 -0.127836 -0.031634 -0.711979 0.330812 -1.007141 -0.287731 0.394259
CupboardCups -0.129317 -0.528008 -0.145447 -0.301946 -0.071511 0.305724 0.108383 0.246770 0.832560 -0.042674 0.182885 0.443350 -0.009428 0.177107 -0.030387 -0.665657 0.260724 0.008415 0.145700 -0.291603 -0.621486 -0.060183 -0.248658 -0.026022 -0.404630 -0.020346 0.180282 0.196238 -0.416777 -0.559683 -0.261778 0.299683 -0.231428 -0.214980 -0.418826 0.314463 0.453853 -0.140150 -0.219359 -0.089040 0.305125 -0.079925 -0.246954 -0.410281 0.135868 -0.369430 0.224023 -0.176593 0.074093 -0.320007
Saucepan -0.083426 -0.536997 -0.156518 -0.292699 -0.060691 0.323266 0.120577 0.232205 0.827497 -0.061543 0.205673 0.443237 -0.019885 0.188102 -0.021088 -0.655311 0.290636 0.015455 0.149979 -0.267072 -0.605461 -0.055484 -0.232444 -0.052778 -0.380440 -0.030834 0.179741 0.204772 -0.409584 -0.561964 -0.260340 0.311914 -0.231507 -0.205039 -0.423004 0.314493 0.452612 -0.149123 -0.231608 -0.095902 0.309725 -0.086274 -0.262689 -0.405319 0.141036 -0.370240 0.211903 -0.178327 0.113022 -0.311362
SinkTop 0.714999 0.116197 -0.036063 -0.161622 0.859293 0.346900 0.270417 -0.517072 0.193830 -0.677085 0.572868 0.120296 0.127988 0.294987 0.378137 -0.371902 0.282215 -0.037061 -0.133680 0.367803 0.387583 0.054701 -0.024136 -0.537514 -0.038667 -0.432250 -0.085493 0.272576 0.346669 -0.119988 -0.689764 0.580164 0.447603 0.029226 -0.344809 0.003361 0.053661 -0.520368 -0.093109 0.148334 0.176664 -0.105000 -0.252357 0.181408 0.341738 -0.199180 0.109676 -1.009309 0.814947 0.200055
ToiletFlushUpstairs 0.651284 0.115205 -0.042428 -0.147222 0.766451 0.305028 0.246957 -0.467702 0.166127 -0.621417 0.517892 0.108601 0.113446 0.266748 0.343880 -0.341715 0.235225 -0.003863 -0.125879 0.317373 0.339012 0.061345 -0.028181 -0.484440 -0.055559 -0.397388 -0.065839 0.236623 0.317468 -0.099867 -0.638564 0.533830 0.403800 0.011006 -0.301168 -0.003368 0.058931 -0.451918 -0.078992 0.145864 0.150515 -0.100751 -0.225484 0.150949 0.313441 -0.202366 0.110750 -0.920525 0.720200 0.177019
Couch -0.089738 -0.467555 -0.139070 -0.264310 -0.044872 0.296597 0.091623 0.193902 0.711344 -0.043810 0.182848 0.380318 -0.018382 0.165796 0.005092 -0.573569 0.261248 -0.003877 0.125579 -0.235182 -0.531835 -0.059594 -0.201093 -0.025657 -0.338068 -0.025826 0.148496 0.173594 -0.343958 -0.493447 -0.232499 0.280791 -0.200713 -0.153210 -0.359383 0.276376 0.395370 -0.133913 -0.207445 -0.083937 0.270750 -0.089215 -0.224045 -0.334929 0.120333 -0.323516 0.189691 -0.172328 0.090274 -0.258497
