18 50
CupboardCups 0.392429 -0.079896 0.235392 -0.471133 0.498094 0.267921 0.240982 0.030900 0.741149 -0.432291 0.249959 0.577637 -0.185556 0.330511 -0.094280 -0.586235 0.462281 0.236998 -0.067556 0.242655 0.281793 0.490101 -0.150516 -0.630214 -0.282199 -0.163802 0.142466 -0.214552 -0.361242 -0.309324 -0.380243 0.210656 0.046363 0.329193 -0.370907 -0.257383 0.231518 0.107891 -0.519251 0.243086 0.027574 -0.017314 -0.349915 0.034910 -0.316841 -0.218334 0.132304 -0.108261 0.181303 -0.410985
BedRight 0.005966 -0.128759 0.017132 -0.161165 0.208093 -0.090904 -0.472603 0.368066 0.268648 -0.762146 -0.037889 0.569537 0.666752 0.018773 0.319634 0.113155 0.025686 0.319811 -0.506009 -0.388169 0.203390 0.507641 -0.334545 0.265886 -0.939837 0.229471 0.364729 0.196023 -0.382802 -0.089032 -0.725127 0.321116 0.295727 -0.232939 -0.902014 -0.331405 -0.174535 -0.007195 0.171304 0.143966 0.169434 0.466652 0.304968 -0.068487 0.104864 -0.529866 -0.142835 -0.773775 -0.976632 0.167430
GarbageBin 0.397965 -0.072228 0.238009 -0.452687 0.490045 0.256450 0.229207 0.026057 0.695945 -0.424315 0.231077 0.553595 -0.178267 0.331762 -0.074842 -0.575543 0.452246 0.248295 -0.076913 0.227945 0.293817 0.506546 -0.146316 -0.619034 -0.270506 -0.159564 0.129831 -0.206887 -0.338670 -0.287740 -0.368143 0.218127 0.053154 0.338356 -0.356986 -0.263122 0.207019 0.124171 -0.504203 0.240265 0.027396 -0.018207 -0.325445 0.061353 -0.306424 -0.222451 0.119143 -0.101941 0.166547 -0.383643
Keys 0.415188 -0.067359 0.244562 -0.438874 0.516945 0.265302 0.195833 0.049659 0.689048 -0.473381 0.234851 0.579966 -0.171389 0.324990 -0.057853 -0.561707 0.442494 0.250345 -0.127656 0.189242 0.328981 0.524416 -0.135094 -0.619013 -0.311873 -0.139406 0.142863 -0.208355 -0.350731 -0.295243 -0.394374 0.226127 0.066066 0.345775 -0.400233 -0.278969 0.213497 0.125125 -0.481870 0.236974 0.023645 -0.008691 -0.328482 0.066086 -0.282512 -0.238803 0.115101 -0.131851 0.138675 -0.380642
SinkTop 0.576311 0.341908 0.621626 0.196775 0.558059 0.115135 -0.191943 0.058238 -0.488026 -0.605189 0.048040 0.360632 -0.131876 0.010611 0.274467 -0.403421 -0.288746 -0.015796 -0.741293 -0.771925 0.772289 0.552263 0.192117 -0.462793 -0.153185 0.193334 -0.186786 0.066329 0.239380 -0.034294 -0.229015 0.420707 0.329042 0.477094 -0.365550 -0.139879 0.036079 0.238932 0.361076 -0.090302 -0.224224 0.115805 -0.003442 0.676757 0.534189 -0.123510 -0.063537 -0.448326 -0.039862 0.117647
Dresser 0.052662 -0.106332 0.086124 -0.169167 0.262591 -0.077486 -0.459476 0.371766 0.289644 -0.793468 -0.039936 0.614342 0.634248 0.027783 0.317301 0.055914 0.016593 0.322499 -0.540211 -0.403338 0.246221 0.548350 -0.310935 0.202505 -0.930417 0.231662 0.348984 0.179551 -0.386189 -0.101540 -0.742066 0.330246 0.313772 -0.195616 -0.897758 -0.355265 -0.159848 0.027770 0.161020 0.155323 0.146775 0.460305 0.289009 -0.021465 0.100944 -0.518688 -0.122756 -0.768301 -0.943740 0.147880
Cutlery 0.364834 -0.076496 0.210587 -0.419917 0.449502 0.235042 0.195608 0.043860 0.655177 -0.403637 0.216862 0.524520 -0.156033 0.307095 -0.054904 -0.529970 0.412587 0.221541 -0.090456 0.188409 0.262973 0.467133 -0.122543 -0.554628 -0.263142 -0.130638 0.119920 -0.195585 -0.308764 -0.269664 -0.347714 0.205569 0.049969 0.293838 -0.350320 -0.233791 0.199866 0.112684 -0.445763 0.209498 0.027052 -0.020898 -0.303652 0.049982 -0.261115 -0.211331 0.114467 -0.115050 0.140928 -0.358843
ToiletFlush 0.575617 0.348912 0.635260 0.192804 0.568621 0.124966 -0.205762 0.049910 -0.484311 -0.623390 0.045258 0.385462 -0.134889 0.022497 0.283606 -0.412741 -0.292492 -0.011485 -0.743152 -0.781126 0.782928 0.570399 0.180035 -0.467600 -0.171287 0.186808 -0.183809 0.055878 0.223252 -0.039585 -0.223990 0.431946 0.328479 0.489245 -0.374227 -0.155572 0.045792 0.246046 0.370440 -0.094096 -0.221316 0.125687 -0.009995 0.699454 0.539177 -0.139233 -0.072376 -0.449892 -0.051082 0.113618
Fridge 0.387420 -0.072706 0.219750 -0.421952 0.461397 0.248000 0.193015 0.034126 0.658188 -0.428082 0.233802 0.544921 -0.158962 0.296465 -0.063333 -0.535854 0.425292 0.216289 -0.088990 0.202340 0.279388 0.468863 -0.124285 -0.583853 -0.253394 -0.132950 0.130120 -0.196128 -0.327391 -0.284445 -0.350028 0.213514 0.060256 0.323368 -0.362627 -0.248642 0.206315 0.109533 -0.471449 0.216691 0.009774 -0.004018 -0.307770 0.058796 -0.268080 -0.213222 0.108331 -0.130476 0.146174 -0.374132
BathTub 0.579604 0.365178 0.631356 0.200486 0.541935 0.125943 -0.185844 0.050591 -0.525724 -0.587364 0.055595 0.350039 -0.157543 0.001919 0.271334 -0.411949 -0.307152 -0.036239 -0.729177 -0.781256 0.770380 0.542893 0.214308 -0.463477 -0.130211 0.190559 -0.202332 0.059528 0.255496 -0.031781 -0.203690 0.413445 0.326821 0.500456 -0.330529 -0.135602 0.049718 0.251569 0.359369 -0.107528 -0.245012 0.107782 -0.016011 0.705017 0.537964 -0.103540 -0.055037 -0.426978 -0.015733 0.112282
ToiletDoor 0.626416 0.390154 0.696810 0.217615 0.604752 0.127700 -0.219070 0.063052 -0.554128 -0.672050 0.054742 0.403356 -0.141726 0.005556 0.301216 -0.429086 -0.318565 -0.021018 -0.816394 -0.866885 0.850961 0.610595 0.212628 -0.505487 -0.169832 0.222301 -0.223942 0.059999 0.273770 -0.026686 -0.243952 0.467536 0.354501 0.529377 -0.394270 -0.147574 0.046030 0.277426 0.412866 -0.105404 -0.259775 0.131348 -0.007819 0.771315 0.601098 -0.133117 -0.075101 -0.499981 -0.058710 0.135174
BedLeft -0.018408 -0.131198 0.008345 -0.162275 0.189207 -0.115171 -0.503382 0.398956 0.279796 -0.776678 -0.064645 0.562895 0.710012 0.014465 0.332324 0.121010 0.007380 0.327068 -0.519614 -0.418539 0.191998 0.523811 -0.358043 0.296285 -0.975425 0.252080 0.369550 0.197242 -0.396759 -0.084678 -0.742220 0.326183 0.313386 -0.263557 -0.939801 -0.340054 -0.190866 -0.012002 0.184627 0.157935 0.163881 0.484990 0.340158 -0.085608 0.108761 -0.551511 -0.157389 -0.804368 -1.031490 0.184845
BathroomDoor 0.621987 0.374554 0.673649 0.204916 0.598431 0.139743 -0.204669 0.051579 -0.521891 -0.646898 0.060480 0.387361 -0.143141 0.017599 0.289162 -0.441500 -0.306571 -0.007615 -0.764311 -0.815312 0.825498 0.597337 0.198397 -0.500467 -0.164792 0.189280 -0.208630 0.053276 0.260407 -0.040668 -0.236688 0.446162 0.350901 0.528424 -0.386811 -0.158410 0.043976 0.263085 0.368269 -0.100466 -0.252769 0.113854 -0.015197 0.736459 0.558999 -0.138232 -0.056865 -0.475042 -0.025784 0.120998
Microwave 0.387555 -0.078713 0.233602 -0.450134 0.476603 0.251506 0.217579 0.035710 0.714892 -0.431877 0.238838 0.574102 -0.178643 0.329640 -0.072461 -0.566658 0.437758 0.235477 -0.071304 0.233314 0.289288 0.489992 -0.141606 -0.610649 -0.268278 -0.149569 0.142866 -0.218784 -0.349384 -0.304213 -0.365061 0.205715 0.048780 0.321870 -0.375820 -0.252002 0.214456 0.107382 -0.494787 0.232772 0.010391 -0.017959 -0.330198 0.040780 -0.308425 -0.200611 0.121487 -0.100723 0.171714 -0.391671
Freezer 0.396882 -0.088392 0.215653 -0.454433 0.475411 0.262117 0.225679 0.037346 0.715991 -0.426591 0.236104 0.565242 -0.181014 0.320915 -0.075191 -0.575494 0.451797 0.236978 -0.066770 0.242220 0.290025 0.490818 -0.142034 -0.622253 -0.269530 -0.153236 0.133397 -0.208318 -0.349399 -0.295923 -0.364897 0.216376 0.051477 0.341219 -0.366002 -0.256230 0.220901 0.112455 -0.510609 0.238575 0.011212 -0.027723 -0.332232 0.047220 -0.298034 -0.203394 0.136427 -0.097719 0.187809 -0.401930
Saucepan 0.397833 -0.083356 0.220134 -0.436751 0.474110 0.261833 0.224690 0.032635 0.696654 -0.421595 0.243518 0.543784 -0.185936 0.318130 -0.081756 -0.548759 0.449279 0.233304 -0.063117 0.234184 0.278145 0.470767 -0.132044 -0.606195 -0.258927 -0.159562 0.133021 -0.204738 -0.342714 -0.293883 -0.345585 0.201559 0.043540 0.320166 -0.350552 -0.245045 0.221363 0.102310 -0.507044 0.230757 0.012286 -0.019333 -0.338948 0.037333 -0.305255 -0.213344 0.115600 -0.090491 0.188502 -0.382498
PlatesCupboard 0.366031 -0.056750 0.214063 -0.389455 0.449675 0.238749 0.182496 0.040982 0.606788 -0.421115 0.219430 0.507829 -0.150961 0.282827 -0.063720 -0.503218 0.383668 0.205354 -0.103614 0.158893 0.270962 0.441977 -0.121613 -0.543368 -0.272910 -0.131360 0.120380 -0.173676 -0.299610 -0.265063 -0.345591 0.195625 0.047362 0.304662 -0.341084 -0.241205 0.195299 0.111526 -0.428942 0.211068 0.008574 -0.005992 -0.291071 0.053416 -0.255324 -0.210183 0.110579 -0.118667 0.124325 -0.336275
BedroomDoor 0.047746 -0.105257 0.047738 -0.175646 0.216793 -0.076056 -0.449593 0.372771 0.285534 -0.781074 -0.034214 0.564293 0.652148 0.043125 0.304240 0.074238 0.035898 0.303481 -0.509157 -0.410342 0.211183 0.541625 -0.339569 0.207860 -0.922258 0.238036 0.336162 0.168506 -0.373153 -0.113723 -0.732405 0.334475 0.298277 -0.207723 -0.921930 -0.349620 -0.166969 0.006181 0.160149 0.140298 0.152347 0.450937 0.292813 -0.058678 0.105596 -0.523138 -0.150972 -0.769163 -0.936734 0.147404
