18 50
Keys 0.016895 -0.140019 -0.065262 -0.201208 0.057245 -0.215287 0.238693 0.091448 0.749581 -0.430035 -0.048182 0.314381 0.164906 0.335272 -0.193643 -0.352579 -0.109193 0.405906 -0.064142 0.093334 -0.158909 0.238369 -0.484021 -0.305477 -0.482915 -0.163750 0.491384 0.029728 -0.398222 -0.317618 -0.583955 -0.016960 -0.116710 -0.520412 -0.470608 -0.254383 0.004497 -0.019452 -0.013069 0.379266 0.156868 0.035787 0.036516 -0.693405 -0.301838 -0.203139 0.214064 -0.083751 -0.134237 -0.334930
BedroomDoor -0.033873 0.117505 -0.419608 -0.051438 -0.067109 -0.259547 -0.158987 0.207048 -0.012207 -0.494198 -0.098425 -0.290029 0.738851 0.058353 0.286482 0.743542 0.106188 -0.015621 -0.618896 -0.331632 -0.105639 0.191426 -0.089090 0.417308 -0.532262 0.345814 0.057875 0.227691 0.126323 0.241395 -0.750968 0.175382 0.105623 -0.721126 -0.405325 -0.228991 -0.382545 -0.131905 0.480659 0.132825 0.457397 0.203621 0.324781 -0.301184 0.184638 -0.279425 -0.349625 -0.713620 -0.823455 0.413534
BedLeft -0.037561 0.107648 -0.444917 -0.080286 -0.030182 -0.280560 -0.145035 0.213636 0.047123 -0.528599 -0.103811 -0.263204 0.732764 0.087915 0.301985 0.688817 0.089988 0.009159 -0.625947 -0.302983 -0.089951 0.206410 -0.125093 0.402987 -0.577509 0.325311 0.090144 0.224665 0.106235 0.242118 -0.789807 0.194910 0.109724 -0.744861 -0.442879 -0.235446 -0.367622 -0.159460 0.466675 0.190540 0.453390 0.199339 0.329476 -0.342947 0.161149 -0.292416 -0.335784 -0.730962 -0.820166 0.408806
PlatesCupboard 0.035449 -0.135866 -0.065326 -0.201180 0.049084 -0.238733 0.264955 0.090481 0.766291 -0.465381 -0.042312 0.315924 0.181714 0.343360 -0.218527 -0.375559 -0.128502 0.423369 -0.081169 0.070503 -0.182365 0.241316 -0.507535 -0.333967 -0.493940 -0.170107 0.514901 0.055852 -0.404269 -0.331820 -0.622054 -0.008760 -0.122561 -0.560309 -0.481497 -0.259146 0.001255 -0.009822 -0.001755 0.404149 0.155732 0.050106 0.052420 -0.743980 -0.305649 -0.215872 0.225184 -0.093193 -0.145952 -0.354485
Freezer 0.031974 -0.143981 -0.075348 -0.210762 0.058885 -0.225339 0.253381 0.089854 0.758580 -0.442391 -0.045638 0.329976 0.165450 0.335575 -0.181401 -0.382194 -0.119025 0.400807 -0.054404 0.108583 -0.154324 0.240270 -0.495199 -0.321567 -0.476115 -0.165087 0.489038 0.044360 -0.393766 -0.315327 -0.596000 0.012773 -0.104052 -0.523636 -0.488874 -0.249169 0.012033 -0.037703 -0.016497 0.400876 0.141909 0.037516 0.048410 -0.704230 -0.291969 -0.186691 0.216635 -0.098580 -0.106712 -0.331505
Saucepan 0.030475 -0.161540 -0.056722 -0.199511 0.033061 -0.243325 0.258746 0.100241 0.801584 -0.459085 -0.047900 0.340796 0.181551 0.352443 -0.222645 -0.386339 -0.125208 0.451280 -0.053715 0.088722 -0.187144 0.255210 -0.522453 -0.342499 -0.495333 -0.174950 0.535858 0.047027 -0.440971 -0.355824 -0.607079 -0.017309 -0.121415 -0.578805 -0.505403 -0.253661 0.005796 -0.020210 -0.016325 0.403523 0.155879 0.055050 0.047859 -0.766751 -0.314233 -0.218865 0.220393 -0.077216 -0.131906 -0.362702
GarbageBin 0.022945 -0.136311 -0.039814 -0.180597 0.024088 -0.232735 0.245921 0.078761 0.707001 -0.401599 -0.058234 0.295642 0.167062 0.316557 -0.213945 -0.361499 -0.123121 0.421345 -0.056247 0.066361 -0.173892 0.240036 -0.479022 -0.319499 -0.435595 -0.157023 0.482744 0.051422 -0.390031 -0.311855 -0.550552 -0.013148 -0.110534 -0.515889 -0.435102 -0.230579 -0.008378 0.009882 -0.007103 0.370272 0.156357 0.049099 0.055216 -0.691401 -0.281084 -0.203655 0.210282 -0.062092 -0.133993 -0.343751
ToiletFlushUpstairs 0.839428 0.255147 -0.674574 0.110298 0.481386 -0.579672 0.724109 -0.227183 -0.207825 -0.538840 0.100752 -0.603516 -0.372125 -0.008586 0.059259 0.177081 0.004233 0.340020 -1.089946 0.224552 0.306761 0.004549 0.371832 -0.730498 0.081634 0.017575 0.395941 0.356389 0.305024 0.562843 -0.975584 0.550321 0.167970 -0.736452 0.184450 0.006897 0.029557 -0.193477 0.043899 1.015036 0.277785 -0.093043 0.129003 -0.779940 0.343722 -0.210267 -0.172079 -0.495701 0.137011 0.175699
SinkTop 0.842895 0.242799 -0.670837 0.114719 0.504644 -0.562003 0.719730 -0.228149 -0.206909 -0.527949 0.101771 -0.613627 -0.373126 -0.007357 0.072693 0.175424 0.029502 0.303430 -1.088617 0.238265 0.329508 -0.007017 0.386120 -0.733589 0.109585 0.026448 0.371277 0.370771 0.315091 0.561448 -0.958898 0.553602 0.175148 -0.708882 0.171852 0.023568 0.016583 -0.220836 0.038798 1.000144 0.289760 -0.095342 0.124487 -0.753973 0.349846 -0.186746 -0.188108 -0.496986 0.169245 0.192033
ToiletFlushDownstairs 0.100503 0.222946 -0.621867 -0.696645 0.996601 0.052025 0.295737 -0.073743 0.629406 -0.806664 0.234772 0.250233 0.090278 0.510831 0.739128 -0.084129 0.237178 -0.430989 -0.268300 0.714497 0.410061 0.050753 -0.281738 0.235595 -0.825931 -0.224311 -0.077117 -0.047006 0.345325 0.353318 -1.064732 0.600163 0.138797 -0.210143 -0.658809 -0.451934 0.123081 -0.843824 -0.034874 0.690991 0.117439 -0.139429 -0.017620 -0.004900 -0.358465 0.143060 -0.237397 -0.868145 0.090821 0.749608
ToiletDoorDownstairs 0.080297 0.222814 -0.593836 -0.682405 0.990220 0.104045 0.277826 -0.078005 0.586139 -0.728825 0.229267 0.270952 0.034532 0.488222 0.741629 -0.115414 0.225998 -0.474451 -0.193599 0.720979 0.430152 0.026993 -0.245241 0.255642 -0.765468 -0.217767 -0.120275 -0.072429 0.352554 0.362559 -0.957325 0.579409 0.123382 -0.117699 -0.626427 -0.415338 0.143279 -0.839982 -0.045777 0.630374 0.090815 -0.149741 -0.051571 0.083654 -0.356589 0.185827 -0.240417 -0.811952 0.138970 0.750298
Bathtub 0.820789 0.252949 -0.675438 0.066164 0.504443 -0.554587 0.727832 -0.232743 -0.141395 -0.559520 0.110876 -0.562458 -0.347866 0.022653 0.082378 0.156023 0.025433 0.309725 -1.058498 0.266433 0.326947 0.013398 0.343574 -0.734801 0.057451 0.006696 0.388409 0.366057 0.279130 0.551708 -0.992966 0.558678 0.173500 -0.735322 0.149395 0.002984 0.027347 -0.228502 0.041386 1.024761 0.294449 -0.077927 0.110832 -0.761133 0.309249 -0.185699 -0.173436 -0.511845 0.158715 0.172310
Cutlery 0.036898 -0.141273 -0.064555 -0.188001 0.039213 -0.235009 0.249003 0.090710 0.726137 -0.417204 -0.046530 0.297221 0.156159 0.326534 -0.194921 -0.366010 -0.116667 0.408950 -0.080253 0.069468 -0.174545 0.236443 -0.458831 -0.319762 -0.443704 -0.150242 0.483030 0.041788 -0.378718 -0.309995 -0.572966 0.001400 -0.110272 -0.542601 -0.455945 -0.226567 0.009537 -0.007823 -0.007166 0.376108 0.154975 0.035489 0.040906 -0.703851 -0.265865 -0.207560 0.209999 -0.088402 -0.121713 -0.341309
BedRight -0.044340 0.111279 -0.476523 -0.083243 -0.027407 -0.275820 -0.177378 0.218216 0.017702 -0.565199 -0.092203 -0.267508 0.801144 0.081594 0.342034 0.780611 0.116507 -0.009159 -0.664490 -0.320815 -0.088768 0.208045 -0.120977 0.468068 -0.620883 0.351664 0.085497 0.253578 0.129018 0.265676 -0.839159 0.211766 0.116947 -0.776363 -0.473099 -0.251447 -0.402974 -0.173689 0.515656 0.164812 0.499900 0.224335 0.348594 -0.327333 0.188720 -0.306487 -0.368848 -0.799111 -0.898071 0.461420
Microwave 0.019711 -0.145207 -0.029564 -0.181310 0.020547 -0.229884 0.243295 0.083218 0.736204 -0.406351 -0.046313 0.327632 0.150742 0.325142 -0.222332 -0.386584 -0.139224 0.416824 -0.034844 0.081430 -0.175600 0.229188 -0.485010 -0.331672 -0.434345 -0.164929 0.503549 0.033204 -0.410537 -0.344363 -0.541769 -0.030642 -0.119986 -0.521135 -0.454740 -0.227088 0.008287 -0.003457 -0.013928 0.366744 0.127939 0.048492 0.042546 -0.709688 -0.298527 -0.186458 0.224122 -0.051473 -0.113164 -0.366160
CupboardCups 0.036080 -0.128607 -0.061950 -0.206874 0.075304 -0.234977 0.276642 0.076066 0.757046 -0.444242 -0.034124 0.319834 0.149316 0.333067 -0.206850 -0.387638 -0.128466 0.403723 -0.076174 0.097377 -0.162448 0.224957 -0.488943 -0.338793 -0.475545 -0.173757 0.504688 0.051210 -0.392756 -0.318422 -0.613948 0.007241 -0.108871 -0.551140 -0.471579 -0.238353 0.020471 -0.038100 -0.012381 0.413110 0.153846 0.046055 0.039118 -0.728428 -0.289798 -0.196301 0.217863 -0.104029 -0.108558 -0.338225
Fridge 0.057499 -0.148430 -0.079074 -0.193745 0.041335 -0.254607 0.262983 0.086163 0.763308 -0.461460 -0.043083 0.315600 0.174405 0.332111 -0.211286 -0.372295 -0.121552 0.437883 -0.091857 0.089391 -0.177658 0.246003 -0.490556 -0.353548 -0.465402 -0.157627 0.533616 0.055825 -0.417117 -0.329594 -0.620339 0.007938 -0.105265 -0.571734 -0.487223 -0.249168 0.000174 -0.019291 -0.012147 0.421771 0.163196 0.055788 0.062785 -0.765002 -0.282037 -0.221527 0.210783 -0.107662 -0.139750 -0.360640
Dresser -0.056811 0.125738 -0.456321 -0.031238 -0.088018 -0.299044 -0.205849 0.232428 -0.055129 -0.514175 -0.125037 -0.333380 0.823930 0.026761 0.328049 0.858693 0.100684 -0.014971 -0.700937 -0.381764 -0.119392 0.194233 -0.064114 0.494761 -0.576245 0.401327 0.061164 0.266305 0.141037 0.290609 -0.807975 0.183467 0.131384 -0.796210 -0.414652 -0.237382 -0.432937 -0.125734 0.547297 0.133809 0.505501 0.238652 0.377335 -0.306655 0.226878 -0.307370 -0.383160 -0.786449 -0.937991 0.468490
