16 50
SinkTop 0.485870 0.346077 -0.619847 -0.200056 0.729889 0.017916 0.019285 -0.237040 0.023532 -0.774495 0.210860 0.161884 0.168060 0.218157 0.740156 -0.095972 -0.252728 0.242804 -0.306988 0.338747 0.621070 0.268427 0.050151 -0.057447 -0.515820 -0.187964 0.185871 0.085416 0.209062 0.596015 -0.759741 0.579729 0.407995 -0.352022 -0.379040 -0.111865 0.023099 -0.437409 0.243385 0.614914 0.068103 0.071225 -0.059307 0.107026 0.157482 -0.302379 -0.060781 -1.011032 0.041360 0.410376
Bathtub 0.503331 0.377552 -0.603579 -0.205303 0.704089 0.021345 0.049248 -0.255585 0.014068 -0.768449 0.224136 0.147002 0.159766 0.218822 0.714448 -0.085955 -0.245780 0.230675 -0.296998 0.339301 0.620131 0.272865 0.063584 -0.097314 -0.477743 -0.188045 0.166168 0.084908 0.213966 0.600197 -0.746185 0.574000 0.405703 -0.353407 -0.338958 -0.103876 0.027471 -0.420005 0.246573 0.610031 0.066146 0.079038 -0.082332 0.121241 0.157581 -0.284340 -0.064598 -0.993359 0.070553 0.384999
Saucepan -0.079887 -0.352429 -0.336891 -0.406054 0.090991 0.625038 -0.063971 0.008590 0.676948 -0.255781 0.350403 0.474578 0.055046 0.141599 0.277678 -0.663969 0.257087 -0.150823 0.205216 -0.163362 -0.459057 -0.167003 -0.308123 0.060120 -0.581751 -0.105176 0.242148 0.214897 -0.430360 -0.506160 -0.435702 0.497931 -0.103575 0.185745 -0.411755 0.238305 0.471565 -0.354994 -0.316980 0.122271 0.181569 -0.043596 -0.187099 -0.170728 -0.008932 -0.451165 0.219033 -0.616333 -0.049854 -0.101363
PlatesCupboard -0.099214 -0.326487 -0.322914 -0.409026 0.114173 0.619783 -0.067599 0.009564 0.651779 -0.248230 0.341725 0.467805 0.049504 0.139447 0.274448 -0.652176 0.240966 -0.182141 0.199491 -0.161353 -0.440123 -0.177152 -0.298923 0.084388 -0.578069 -0.106909 0.213027 0.195496 -0.392578 -0.481812 -0.420122 0.471366 -0.112611 0.212427 -0.389684 0.212213 0.456821 -0.333092 -0.299438 0.112597 0.165780 -0.051204 -0.183707 -0.134472 -0.024400 -0.418041 0.224575 -0.589653 -0.056663 -0.093271
Freezer -0.073898 -0.312100 -0.290649 -0.370430 0.070334 0.567740 -0.044981 0.010512 0.604622 -0.212211 0.305724 0.420237 0.039412 0.124889 0.233005 -0.615892 0.232366 -0.157327 0.195429 -0.151054 -0.416325 -0.149096 -0.278707 0.037135 -0.498547 -0.089814 0.188910 0.183193 -0.369849 -0.461794 -0.375804 0.441552 -0.100820 0.204632 -0.356180 0.203961 0.423880 -0.297163 -0.290304 0.096727 0.151507 -0.059654 -0.170687 -0.133057 -0.004379 -0.381460 0.215954 -0.532903 -0.021413 -0.113696
Dresser -0.597950 -0.494213 -0.507104 -0.089624 0.068794 -0.194600 -0.869627 0.355321 0.205147 -0.259478 -0.232712 0.487978 0.688559 -0.157104 0.705338 0.326326 -0.191404 0.394953 -0.283544 -0.024714 0.032655 0.055691 -0.242632 0.991165 -1.045094 0.137168 0.571738 0.283365 -0.469659 0.219432 -0.395510 0.160877 0.198971 -0.369881 -0.522117 -0.041078 -0.162806 -0.118075 0.243126 0.230542 0.203593 0.330031 0.460332 -0.160513 0.032914 -0.435446 0.133069 -0.500595 -1.106181 0.258607
Cutlery -0.093889 -0.330768 -0.321157 -0.396679 0.099111 0.587227 -0.070153 0.016674 0.638314 -0.228797 0.321638 0.450099 0.054209 0.142660 0.283192 -0.638420 0.238906 -0.159021 0.182809 -0.163430 -0.434079 -0.153424 -0.281256 0.083454 -0.555125 -0.089549 0.208916 0.188895 -0.381174 -0.464920 -0.413623 0.475848 -0.099181 0.178783 -0.389696 0.224017 0.443188 -0.323863 -0.284205 0.104814 0.181526 -0.056243 -0.178622 -0.136762 0.002815 -0.423467 0.214295 -0.593821 -0.056635 -0.094889
BedLeft -0.563538 -0.466109 -0.534238 -0.095166 0.086722 -0.199610 -0.858827 0.348280 0.186460 -0.287129 -0.222984 0.458220 0.680353 -0.132478 0.719701 0.307867 -0.191711 0.403724 -0.291766 -0.026983 0.071393 0.083759 -0.246833 0.964545 -1.033893 0.129617 0.556186 0.265933 -0.438195 0.247026 -0.390792 0.183145 0.209882 -0.374077 -0.531209 -0.029615 -0.161936 -0.137447 0.243492 0.253352 0.192882 0.319835 0.449017 -0.162184 0.046819 -0.453147 0.108051 -0.523565 -1.086677 0.273673
CupboardCups -0.115988 -0.349726 -0.320749 -0.430396 0.100894 0.644090 -0.060073 0.007424 0.694324 -0.237584 0.355063 0.496708 0.048937 0.135162 0.265650 -0.699210 0.251985 -0.194088 0.217903 -0.176919 -0.482003 -0.192302 -0.323973 0.076949 -0.595742 -0.102294 0.234272 0.211662 -0.432211 -0.528882 -0.442253 0.500433 -0.115721 0.211330 -0.413314 0.242934 0.486823 -0.359213 -0.318762 0.108973 0.186986 -0.045142 -0.192484 -0.159311 -0.009791 -0.439066 0.234983 -0.628607 -0.058320 -0.115119
ToiletFlushDownstairs -0.697627 -0.077686 -0.281392 -0.545868 0.921876 0.456092 -0.539766 0.125303 0.372562 -0.006997 0.088355 0.654921 0.059055 0.201494 1.032379 -0.040336 0.104494 -0.752636 0.275407 0.562887 0.436644 -0.245005 -0.021534 1.164481 -0.769598 -0.047544 -0.287182 -0.273854 0.174377 0.302136 -0.079243 0.208293 0.109719 0.322674 -0.622638 -0.053755 0.159693 -0.816159 0.061544 -0.141927 0.016248 -0.039904 -0.155663 0.804951 -0.271057 0.306006 -0.219085 -0.535640 -0.114963 0.835789
ToiletDoorDownstairs -0.699083 -0.056899 -0.296398 -0.544931 0.953422 0.461266 -0.532297 0.130706 0.360688 0.006406 0.072005 0.666510 0.035779 0.209424 1.054342 -0.041009 0.081920 -0.774877 0.288371 0.581964 0.478057 -0.240234 0.001066 1.182336 -0.761756 -0.031846 -0.299935 -0.291237 0.190337 0.344443 -0.065417 0.203473 0.101120 0.321022 -0.643448 -0.051373 0.152512 -0.837308 0.091192 -0.150178 0.027719 -0.039647 -0.173296 0.836145 -0.274706 0.336084 -0.247773 -0.533114 -0.105623 0.863376
BedRight -0.527549 -0.465265 -0.522195 -0.080672 0.078366 -0.189984 -0.831445 0.323040 0.166217 -0.293398 -0.198618 0.459002 0.668618 -0.139512 0.691185 0.318995 -0.178493 0.414887 -0.294936 -0.027462 0.061398 0.075119 -0.235670 0.928547 -1.007260 0.120170 0.569188 0.286530 -0.435514 0.231042 -0.400560 0.185079 0.198845 -0.369145 -0.509892 -0.028196 -0.160617 -0.121436 0.244078 0.240226 0.208068 0.323352 0.437009 -0.171575 0.059563 -0.454791 0.116391 -0.516752 -1.069800 0.253457
ToiletFlushUpstairs 0.508130 0.370737 -0.599698 -0.195041 0.696365 0.015263 0.053864 -0.250989 0.001904 -0.761955 0.221354 0.140282 0.139767 0.214805 0.697417 -0.097481 -0.252318 0.245692 -0.298330 0.325487 0.597750 0.268750 0.058760 -0.096301 -0.476299 -0.193311 0.173545 0.068187 0.223331 0.586688 -0.742339 0.570210 0.392464 -0.343421 -0.333958 -0.116120 0.037169 -0.404040 0.232082 0.606414 0.050230 0.060095 -0.072796 0.101529 0.155635 -0.296635 -0.056809 -0.977534 0.063966 0.382815
Fridge -0.100015 -0.344767 -0.311550 -0.395398 0.078906 0.600844 -0.080131 0.013097 0.642130 -0.223000 0.328804 0.462680 0.055857 0.123120 0.262467 -0.636594 0.251389 -0.174144 0.201582 -0.158918 -0.452845 -0.172974 -0.291671 0.080688 -0.541456 -0.086149 0.221662 0.193200 -0.408336 -0.494431 -0.396378 0.467726 -0.104123 0.210382 -0.388529 0.219981 0.443475 -0.323496 -0.307991 0.093173 0.168857 -0.042627 -0.166465 -0.143336 -0.008416 -0.415355 0.211280 -0.578651 -0.067229 -0.109527
Couch -0.127692 -0.350995 -0.299545 -0.403838 0.077726 0.638244 -0.067212 0.010620 0.652701 -0.192371 0.334731 0.461149 0.028337 0.130364 0.258229 -0.659974 0.264492 -0.203741 0.223563 -0.172693 -0.475065 -0.198000 -0.299168 0.087361 -0.546530 -0.089010 0.209095 0.193264 -0.411276 -0.522877 -0.388541 0.463508 -0.131440 0.240384 -0.375655 0.239662 0.462470 -0.334586 -0.321512 0.080382 0.176233 -0.063065 -0.185492 -0.137745 -0.025626 -0.404454 0.216591 -0.561947 -0.049342 -0.101795
BathroomDoor 0.491648 0.357561 -0.620338 -0.205907 0.731958 0.035352 0.010316 -0.247409 0.019651 -0.789842 0.223357 0.171591 0.180412 0.222396 0.751729 -0.104194 -0.259764 0.251613 -0.294382 0.331866 0.622564 0.276953 0.041169 -0.054902 -0.532704 -0.200064 0.184333 0.082741 0.210913 0.595502 -0.767403 0.589827 0.416434 -0.344460 -0.380626 -0.114412 0.028915 -0.436671 0.245875 0.612783 0.062331 0.072975 -0.066272 0.121919 0.159760 -0.320293 -0.051514 -1.036064 0.040380 0.411759
