22 50
KitchenPIR -0.84782845 -0.42111173 0.07602534 0.035788283 -0.51908237 -0.14091153 -0.093225904 0.68036646 -0.2651702 -0.0350314 0.21656422 -0.33925596 0.7056149 -0.04454426 1.1830504 -0.0011021127 0.22806229 0.52691835 0.3098393 -0.6325942 0.4308408 -0.18206485 0.0020699343 0.100804776 -0.33200702 0.415601 0.47234514 0.15036593 -0.3456896 -0.6327797 -0.5089643 -0.10035872 -0.123975344 -0.34804353 0.069217555 -0.065445215 0.48408192 0.30180272 -0.7576546 0.81796336 1.0074692 0.40456775 0.41234052 0.7549701 -0.40889645 0.1366555 -0.48954615 0.3679222 0.07986509 0.09000306
BedLeft -0.44971764 -0.5795405 0.419251 1.0490079 -0.20480159 -0.48149386 0.043371625 0.5314256 1.0098624 0.58767915 0.27912214 0.55099475 1.4246259 0.51240724 0.138796 -1.1867175 0.52715933 0.15535259 0.20470531 -0.7384621 -0.89943874 0.88846964 0.27737275 0.3612207 -0.09258814 -0.07538211 1.0781438 -0.60004544 -0.62934756 0.7984972 -0.24310668 -0.08975445 0.3398548 0.17409009 -0.38490394 -0.4025902 0.30931297 -1.1466132 -0.20834097 -0.62992233 -0.46598664 0.16009936 0.6397772 0.536223 -0.5815917 -0.56766015 -0.88428396 0.26325437 -0.63517576 -0.10379626
BathroomPIR 0.15209603 -0.60190773 0.341912 -0.46738493 0.5887036 -1.2191333 0.61243564 -0.6354363 0.5145405 0.42634332 -0.854863 0.021317923 -0.9793203 -0.22491845 1.6469531 0.6804365 0.4735843 -0.22063956 0.22855349 -0.19049211 0.2823191 -0.31002825 0.0018433542 -0.6664719 -0.5741053 1.0206913 -0.40993544 -0.3970299 -0.3045836 0.8058586 -0.09229229 0.7992409 0.3301402 0.015129336 -0.5234842 0.22075175 1.1376436 0.46343422 0.019295601 1.0064377 0.09724947 0.81203055 -0.15822135 0.7801561 -0.13240097 0.44012642 -0.69547606 -0.65480435 0.598553 -0.7746109
BedRight -0.16098943 -0.38555297 -0.666013 1.0192026 0.8603539 -0.37354544 -0.049381353 0.22224997 0.39396366 0.13626754 -0.76198006 0.7320867 0.26381356 0.89690167 -0.21029252 -0.12720084 0.40011132 0.20360361 0.6006337 0.05094968 0.23970759 0.9230644 -0.9238665 -0.031098401 -0.47637844 -0.6513169 -0.1924579 -0.45982355 0.21196327 0.8001328 -0.046812516 -0.4964328 0.9524805 -0.7716134 -0.54516906 0.13085417 0.5472452 -0.7983367 0.449048 -0.6128751 0.45226377 0.5091553 0.9443609 -0.36187786 0.5618673 -0.37836865 -0.35725036 0.15350811 0.77964824 0.27792618
BedroomPIR 0.1495365 -0.993995 0.507064 -0.34255046 0.34103733 -0.51042837 0.7596356 0.21923834 0.2342386 0.11114975 -0.74722314 0.72513485 0.12922266 0.49203613 0.3659501 -0.28914934 0.41606376 -0.1314122 -0.11256908 0.14401779 -0.39648288 0.16660917 -0.033221506 -0.18377 0.34671032 -0.04808568 0.7171123 0.158087 -0.13524973 0.040740993 -0.5292864 0.42494443 0.7043983 -0.32090244 -0.38594243 0.61227226 0.21306816 -0.31091258 -0.08462658 -0.06309463 -0.024735346 -0.043745108 -0.07092685 -0.4031552 0.06273379 -0.7510102 -0.07830356 0.47748685 0.030564388 -0.15949082
Dresser -0.67845595 -0.6527857 -0.49751258 0.27724528 0.47702128 0.23772563 0.22281758 0.52158946 0.26205182 -0.51047003 -0.052632075 0.7714718 0.07468464 0.6839655 0.6438939 -0.11823153 0.4331465 -0.111334994 -0.21705933 -0.26115966 0.5233531 0.0477602 -0.23320508 0.1185674 -0.64909136 -0.47319567 0.7517253 -0.012562977 0.24525878 0.10600175 -0.50083643 -0.42966506 0.7191757 -0.048596926 0.08487469 -0.12884802 0.7526936 -0.12710527 -0.6156008 -0.43150687 0.23019904 -0.07076247 0.60495913 0.0064332215 0.31841284 0.27779624 0.049832188 0.7828848 -0.33702707 -0.4768551
Piano -0.28310394 -0.29608247 -0.3813767 0.020356653 0.132742 -0.32691503 0.033749267 0.4266931 -0.27456665 -0.16676301 -0.2944228 0.16754651 0.27321002 -0.08115362 0.6734432 0.0059805126 0.057612337 0.2983789 -0.068597354 -0.41481626 0.31153917 0.056933045 -0.08262807 -0.17932321 -0.3059009 0.09638405 0.2786788 -0.14901188 -0.06175508 -0.07198549 -0.51864505 -0.14266424 0.31420463 -0.49641576 -0.24822459 0.28758925 0.41182688 -0.006867575 -0.14856003 0.4388766 0.77284944 0.29496485 0.16245428 0.16245143 0.06597492 0.2751692 -0.2737666 0.05336898 0.15736863 -0.3112813
CutlaryDrawer 0.25976366 -0.50266504 -0.10531945 0.07616999 0.20382331 -0.4793922 0.27080208 -0.14057502 0.35811275 0.04355759 -0.51294595 0.020865744 -0.0017929137 0.2110372 0.18603987 -0.13014339 0.22205321 -0.09442451 -0.010310322 -0.30574694 -0.10253227 0.4162176 -0.28863835 -0.1629077 -0.112283915 0.11354078 0.033566654 -0.13987203 -0.1643022 0.33176047 -0.18017909 0.13144669 0.49419442 -0.2684769 0.111102246 0.4107143 0.30610016 -0.26411778 0.015540456 0.07504499 0.006131895 0.1097536 0.21477212 0.19579332 0.18560386 -0.3361264 -0.39766636 -0.19441196 0.20315662 -0.14200649
Chair -0.14935565 -0.45947927 -0.008342568 -0.00015063555 0.09029036 -0.34231043 0.26667967 0.14488347 0.05430495 0.04790031 -0.3462337 0.20332575 0.036494937 0.115057595 0.5807595 -0.016839296 0.18239774 0.077279 0.04961588 -0.19008923 0.085521676 0.0460118 -0.13629612 -0.1668192 -0.18900256 0.13964185 0.21371098 -0.059973076 -0.15507245 0.068433225 -0.30448103 0.07860159 0.32234165 -0.20746912 -0.21060136 0.16542934 0.42638162 -0.03880472 -0.16823591 0.16694793 0.26646087 0.22718486 0.14819674 0.15328199 -0.008142831 -0.037793685 -0.29563755 0.15322787 0.118313536 -0.17477195
ToiletDoor -0.17814466 -0.36113593 0.009245946 -0.0064367475 0.13388087 -0.37185276 0.18329017 0.07682381 0.11663941 0.066677295 -0.2682361 0.08329828 -0.019426994 0.057129875 0.6730336 0.08410744 0.2269661 0.07796394 0.11890092 -0.21953586 0.17616192 -0.009616311 -0.08577045 -0.17309365 -0.2614992 0.23480101 0.09133455 -0.11598419 -0.13831833 0.1350219 -0.21742216 0.11852438 0.21850872 -0.19607192 -0.19541067 0.10093904 0.47121957 0.0646171 -0.16892834 0.32394645 0.31486514 0.31365567 0.16365667 0.3051148 -0.038025714 0.07655273 -0.30605438 -0.0030744046 0.17243332 -0.196857
BedroomDoor -0.15882418 -0.33157974 -0.017030675 0.21406537 0.12941173 -0.2576101 0.113502994 0.1412462 0.22422956 0.096763484 -0.16069968 0.23724778 0.22920771 0.19680378 0.3066792 -0.1428366 0.21215998 0.063338675 0.09695175 -0.19796841 -0.014158069 0.20608883 -0.07520362 -0.031719014 -0.17593828 0.008170988 0.21059905 -0.1598477 -0.11758294 0.23414217 -0.15801181 -0.021857783 0.26000974 -0.13713795 -0.188824 0.01725029 0.3168014 -0.21815416 -0.08922961 -0.011958764 0.10515192 0.19122432 0.26435477 0.14937867 -0.039842963 -0.08321075 -0.28607982 0.09062371 0.033887893 -0.09046847
Fridge -0.4317428 -0.4309312 -0.07670862 0.08328103 -0.051067032 -0.23259437 0.08125347 0.36424255 -0.042208083 -0.04178279 -0.1269372 0.04885367 0.2998176 0.1166975 0.7514702 0.0130186705 0.22979444 0.24511583 0.16300435 -0.3368148 0.28061873 0.01418789 -0.14379181 -0.04340377 -0.2786393 0.15656285 0.29444182 0.00658649 -0.1474881 -0.14404 -0.36983824 -0.07048449 0.19793531 -0.33567807 -0.08800414 0.09490097 0.461872 0.06343257 -0.3552252 0.37042096 0.6123634 0.27590388 0.32153592 0.35057506 -0.07505772 0.043285277 -0.3294502 0.22666137 0.15635362 -0.07558272
StoveLid -0.423609 -0.41683292 -0.07389533 0.09469014 -0.031802364 -0.23441215 0.07762265 0.35480207 -0.031010384 -0.03996501 -0.14220974 0.055884082 0.2687381 0.11192294 0.72885 0.028970074 0.23334429 0.22452126 0.16148484 -0.3370792 0.28655815 0.017009329 -0.14408433 -0.05824687 -0.2820362 0.16426374 0.25374982 -0.016925372 -0.1334205 -0.123999074 -0.34567 -0.055348482 0.21294807 -0.33584645 -0.08653782 0.078788295 0.4639197 0.04600889 -0.3380313 0.35011208 0.58929455 0.2861168 0.31247815 0.3388759 -0.07684347 0.038678583 -0.32936168 0.21775582 0.16410406 -0.07255284
Frontdoor -0.30397752 -0.37115014 -0.063831285 0.011260678 0.027031358 -0.2724654 0.098035686 0.26245812 -0.02847714 -0.015107832 -0.20106764 0.070162274 0.19114305 0.08128532 0.6792286 0.024981292 0.18971014 0.1833085 0.12515883 -0.29110232 0.23514064 0.003799534 -0.10507003 -0.08287442 -0.23943095 0.17894268 0.2053273 -0.008613022 -0.12262017 -0.08459461 -0.3249478 0.0040579354 0.210812 -0.29264918 -0.12990585 0.14264777 0.40753573 0.060780417 -0.27542654 0.35896888 0.5101384 0.2531885 0.22685489 0.26497018 -0.054238964 0.04493056 -0.2748304 0.14744982 0.15531728 -0.091752745
Sink -0.23164827 -0.48504817 -0.030107647 0.17543446 0.16059726 -0.42130148 0.17878142 0.16095223 0.20990796 0.044390045 -0.32587752 0.23452727 0.16113475 0.16536066 0.6095115 -0.012221031 0.25267333 0.046126507 0.13109688 -0.25761795 0.119600594 0.17543878 -0.2025811 -0.11067953 -0.25209716 0.13331658 0.13879706 -0.2004284 -0.112213664 0.27040443 -0.26045197 0.006014898 0.3688554 -0.28560376 -0.20392957 0.11546361 0.533567 -0.10926044 -0.123779766 0.15389112 0.31733188 0.29163384 0.3137239 0.28070816 -0.03587111 -0.011341519 -0.41481927 0.087431476 0.18206328 -0.1504167
ToiletFlush -0.19730245 -0.35052767 -0.029406616 0.046870973 0.10837667 -0.31339917 0.13326763 0.12430469 0.092280485 0.05208952 -0.23516983 0.09837475 0.04761004 0.076048665 0.59191155 0.06468931 0.21023352 0.10673253 0.115671165 -0.20189972 0.17814171 0.019883037 -0.09568045 -0.12534097 -0.24117258 0.17814922 0.11350111 -0.09004125 -0.11394975 0.1142445 -0.21775754 0.050232857 0.21975423 -0.21828729 -0.17769903 0.08571803 0.43377265 0.028499776 -0.14642324 0.26392248 0.31730548 0.28319034 0.20187089 0.26008698 -0.03150936 0.044410698 -0.29201296 0.030999904 0.16836517 -0.15196064
BalconyDoor -0.34593502 -0.37892777 -0.07799504 0.05626468 0.005520278 -0.21402696 0.09221656 0.30348876 -0.042640667 -0.05137282 -0.14580727 0.064765796 0.2398084 0.10316545 0.62340015 0.0038174873 0.20015542 0.19113295 0.11621281 -0.28910118 0.2368498 0.033867646 -0.12634444 -0.056337766 -0.23283875 0.12411977 0.24350591 0.001951668 -0.11684605 -0.09379923 -0.32117486 -0.044018395 0.21646908 -0.29868317 -0.08360198 0.10866099 0.39620963 0.020217504 -0.27377677 0.30324507 0.50183004 0.24369605 0.2761974 0.2433253 -0.056226846 0.02032892 -0.27426597 0.20354313 0.13009779 -0.07069287
Toaster -0.366051 -0.41634846 -0.06783868 0.13278814 0.01336289 -0.26598734 0.0804854 0.28619617 0.02804017 0.012001611 -0.16392627 0.09604639 0.24708413 0.15346862 0.6543749 -0.024322134 0.23460245 0.18999942 0.15235704 -0.29949456 0.2337732 0.072357655 -0.15873843 -0.0404999 -0.27266607 0.12822314 0.22616518 -0.044703476 -0.12066358 -0.026548557 -0.3010583 -0.0445339 0.25338492 -0.30608743 -0.11050124 0.070289284 0.4352907 -0.027367996 -0.2816295 0.28907952 0.48965815 0.28178728 0.32326296 0.2886898 -0.043193985 0.012876339 -0.33014408 0.18718924 0.14696594 -0.077171795
Microwave -0.3251603 -0.39297938 -0.08192205 0.1428628 0.07675458 -0.28586522 0.10439342 0.24720857 0.07286111 0.0035696656 -0.20825978 0.13698918 0.21192119 0.15273069 0.60997355 -0.004403702 0.2438485 0.16342653 0.16006665 -0.2731576 0.1986351 0.104557574 -0.15994728 -0.07123681 -0.2729876 0.099895425 0.2108481 -0.081742845 -0.1268868 0.05158918 -0.29128334 -0.04548134 0.2816434 -0.2853658 -0.13183549 0.08958015 0.45536628 -0.053661812 -0.22973454 0.22261874 0.4449961 0.2739966 0.31663287 0.2848515 -0.034088563 0.0022202753 -0.31793824 0.14622548 0.15307535 -0.09628792
Window -0.21980108 -0.40957484 -0.045285825 0.121845104 0.14329137 -0.30406877 0.1438917 0.1747835 0.13064764 0.04211869 -0.26498762 0.19189629 0.12851667 0.18041517 0.5341077 -0.0416805 0.2488604 0.09693935 0.10357707 -0.22711504 0.118569575 0.133275 -0.13185735 -0.09767995 -0.24494775 0.097156994 0.19985569 -0.12419898 -0.11634471 0.14324597 -0.24232799 0.019750824 0.31521255 -0.21543312 -0.18396299 0.104807265 0.4288759 -0.09874651 -0.15368219 0.15912165 0.29511502 0.25481206 0.25829685 0.20122315 -0.013223338 -0.0219564 -0.3153102 0.108344644 0.12423453 -0.1504045
CupboardPlates -0.30333388 -0.28803143 -0.07591519 0.095119506 -0.0046609575 -0.15458263 0.037870716 0.25461844 -0.010297668 -0.02569548 -0.10197755 0.054276995 0.20335789 0.10189104 0.47877973 -0.011648961 0.16817969 0.1629359 0.12380759 -0.23930708 0.19950815 0.03884206 -0.11912377 -0.014664285 -0.20855927 0.07131386 0.18347633 -0.016180167 -0.082857154 -0.059646063 -0.2339429 -0.060972795 0.1617246 -0.21930811 -0.061946243 0.052889172 0.31253436 0.010345211 -0.24133904 0.22756389 0.4090665 0.20778522 0.24530827 0.22911088 -0.036387913 0.028212482 -0.23755196 0.15548241 0.10545307 -0.03311317
CupboardGroceries -0.07402757 -0.113656364 -0.011291778 0.040936425 0.03290186 -0.08770372 0.035720605 0.059314515 0.043153964 0.009908984 -0.06572062 0.05674631 0.06916333 0.059530564 0.14951621 -0.018054986 0.07739349 0.034381717 0.026794098 -0.06535286 0.039348565 0.043684587 -0.047590528 -0.01313331 -0.077233866 0.019857984 0.073125154 -0.03446958 -0.037218433 0.04423669 -0.07623116 -0.01369017 0.102193795 -0.06709558 -0.040611275 0.032573074 0.118162744 -0.044311143 -0.049951937 0.020614522 0.081823304 0.06223992 0.08313159 0.05255653 4.639561e-05 -0.023488237 -0.08783611 0.042603455 0.028304527 -0.04065607
