22 50
KitchenPIR -0.12611963 0.124191776 -0.6713688 0.21096939 -0.27674425 -0.5517521 -0.3377174 0.4821648 -0.76770663 -0.224242 0.6629251 -0.42220113 0.24257222 0.19889311 -0.09780327 -0.7892077 0.51387614 -0.5039469 -0.16693196 0.12706482 -0.9395403 -0.11298196 -0.10504205 -0.057662696 -0.4638904 0.30526996 -0.33139718 0.33805925 0.5760484 -0.33580467 0.0040835934 -0.062635355 -0.19005968 -0.29366428 -0.39887112 1.1190788 0.20317727 0.8903784 0.5137344 -0.019886013 -0.10880442 -0.202426 0.7904157 -0.24955359 -0.37555808 -0.1973905 -0.13378398 -0.32301182 0.14192273 -0.6439846
BedLeft 0.5889177 0.5104151 0.5664973 -0.9941731 -1.5889897 0.27783805 0.17293775 0.44199374 0.07761941 -0.4470149 -0.06990907 -0.7067277 1.0280569 0.89743054 0.4266334 -0.2609761 -0.25631464 0.85635537 0.2658103 -0.3902719 0.60985565 -0.1580906 -0.8099295 -0.21057893 -0.20958564 0.2149535 -0.4881632 -0.0840725 -0.6833275 -0.24303183 -0.4057407 0.17966212 -0.26532298 0.91389644 0.39772895 0.0005937682 0.4219448 -0.2864858 0.3668186 -1.2922992 -0.01792408 1.5244104 0.20906967 -0.21513736 -0.725956 -0.32144243 0.5038523 0.19376963 0.8320173 -1.1631126
BathroomPIR 0.7471195 0.343094 -0.46890533 0.017657515 0.09507847 -1.2812402 0.110204175 -0.3303234 -0.086966336 0.6695125 -0.43031433 -1.3528893 -0.85284084 0.3087301 -0.4244032 -0.36162823 0.18210414 -0.57473403 -0.29177842 -0.0764734 0.32270405 0.5050254 -0.6674802 -0.31846088 -0.70706433 -0.5194449 -0.11068125 0.9092946 -0.9880154 -0.25357482 -0.6581413 0.21019168 -0.93365556 0.13681369 -0.29573056 0.28225613 1.2732741 0.19601609 0.70999825 -0.33079797 -0.010879938 0.14684457 0.31312114 1.0104421 0.31514066 0.40734586 0.22103754 1.2260752 -0.5470278 0.35255095
BedRight 0.1692485 -0.17598066 0.031005878 -1.2460914 -0.6118646 0.34725276 0.6095933 0.0910932 0.08038924 0.24480656 -0.46051228 -0.22591385 0.7868209 1.2601329 -0.43243045 -0.13769574 0.36498338 -0.2521756 0.24271336 0.5064546 0.74394214 0.21507424 0.26757315 -0.39934656 0.15117116 0.25023925 0.80512744 0.45538354 -0.09248132 -0.07139276 0.18270898 -0.2903487 1.0080444 1.0347687 -0.6224084 -0.18179743 1.1120808 1.0540863 -0.7663317 -0.4053907 -0.12346013 0.30411464 0.10872784 -0.98191 -0.40892732 -0.34121063 0.60995257 0.38785735 0.14318477 -0.5788305
BedroomPIR 0.22397566 0.097210854 0.067578934 -0.7253424 0.20313482 -0.04356262 -0.4107146 0.51567227 0.4761976 0.6648246 0.14791258 -0.5082406 -0.44934446 0.47810304 0.12722255 -0.44079307 -0.35097542 0.20269294 -0.75020534 0.119132735 0.08619563 0.088623896 0.18267047 -0.2934085 0.3621974 0.4518017 0.58500046 -0.23213291 -0.06329641 -0.07874293 0.107938476 0.25921574 0.6077956 0.20749773 0.0291014 0.13760754 0.5420262 0.18534914 -0.32065254 -0.831534 -0.16645107 0.38829246 0.3938405 0.24791749 -0.4119687 0.5506593 0.13628681 0.03507161 -0.5143677 -0.59415823
Piano 0.18545622 0.02743232 -0.28152645 -0.13902639 -0.24312636 -0.3162831 -0.2277072 0.17443255 -0.3545637 0.2307464 0.20055237 -0.40327626 -0.050320365 0.39772865 0.104535 -0.4555758 0.17773241 -0.07799491 -0.1564888 0.01975894 -0.07351926 -0.09784281 0.102313966 -0.15378304 -0.2341416 0.021610126 -0.026690006 0.19209231 0.075569026 -0.023467114 -0.18755352 -0.3525885 -0.04312554 -0.13999373 -0.0864423 0.41486022 0.31646767 0.5589977 0.2723427 -0.29625842 -0.34075305 -0.03055486 0.59329224 0.101350136 -0.29452676 0.08669869 0.04743226 0.19199233 0.04509531 -0.3336992
CutlaryDrawer -0.2703127 -0.40705347 -0.00010003924 -0.33822933 0.0025255512 -0.075994015 -0.054905515 0.18644355 -0.026300255 0.33063433 -0.06311642 -0.40401796 -0.09446077 0.50549215 -0.3033705 -0.2765198 -0.06991304 -0.021909736 -0.3019628 0.093561076 0.05375335 -0.15473627 0.051468603 -0.15097918 -0.16084231 0.09352799 0.10673203 0.27628285 -0.19944258 -0.18124709 0.31509382 0.069306046 0.028395312 0.16548476 -0.3878605 0.2141549 0.5316098 0.23341052 -0.083268695 -0.14953578 -0.40720123 0.2278576 0.53306586 -0.10045701 -0.26405382 0.15418246 0.32021332 0.146071 -0.4102945 -0.19377798
Chair 0.20680995 0.13074188 -0.25739446 -0.19591722 -0.049116705 -0.37530875 -0.17318866 0.19546382 -0.14685744 0.21456943 0.11812389 -0.4762369 -0.1276266 0.29328048 -0.041903943 -0.4207775 0.10067362 -0.16096297 -0.2450407 0.017267771 -0.12025906 0.0801088 -0.06888177 -0.18732288 -0.14949496 0.07011366 0.059148584 0.19288127 -0.08204392 -0.13193259 -0.07786137 0.009192838 -0.06921661 0.04315319 -0.1203685 0.3780915 0.44069344 0.3628382 0.1817487 -0.3267385 -0.108699985 0.13634813 0.39859328 0.10761557 -0.16351187 0.16456936 0.059578888 0.16753013 -0.116550215 -0.3170498
ToiletDoor 0.17805658 0.08030707 -0.32033738 -0.041947916 -0.055627145 -0.49353358 -0.08957524 0.10110935 -0.21508041 0.19348434 0.072780244 -0.508891 -0.17154415 0.23640385 -0.13292794 -0.37339312 0.16329233 -0.2966991 -0.18361086 0.033813577 -0.13569959 0.11461485 -0.14868984 -0.14333306 -0.28515422 -0.024625765 -0.029900933 0.32959554 -0.10312311 -0.15928108 -0.15526845 0.0041908533 -0.2100058 -0.016851733 -0.21667317 0.39826307 0.4692555 0.3824131 0.2668714 -0.18068895 -0.09294885 0.0137489 0.3712814 0.16643582 -0.079657696 0.10760569 0.057264682 0.27288646 -0.14504898 -0.15882681
Dresser 0.15532619 0.08717487 -0.179759 -0.2524007 -0.20129113 -0.27645478 -0.104273304 0.2109606 -0.14758888 0.154367 0.10946556 -0.44527036 -0.012100527 0.35326123 -0.04564061 -0.379346 0.093482725 -0.11111461 -0.19035324 0.04460297 -0.068457216 0.05755811 -0.09306224 -0.15921944 -0.15239438 0.091909535 0.02577886 0.1859753 -0.047848146 -0.15889421 -0.095351204 -0.0036345974 -0.016263096 0.104542665 -0.14112237 0.3319353 0.42386094 0.37668842 0.15333195 -0.34708637 -0.13053088 0.18776548 0.3776273 0.020368753 -0.21709493 0.06930365 0.12633981 0.17132613 -0.055506222 -0.3711067
StoveLid 0.041034743 0.054829597 -0.3477727 -0.13572137 -0.22497027 -0.3276571 -0.15913941 0.29476297 -0.3542308 0.035965852 0.28776845 -0.40435964 0.1352226 0.3615484 -0.08494495 -0.5043699 0.2471976 -0.26331925 -0.17361964 0.120197676 -0.33254537 -0.0018518748 -0.031966053 -0.14151399 -0.2206027 0.17339908 -0.04354601 0.25889722 0.18364581 -0.2089166 -0.024509178 -0.075360395 0.001459844 -0.010895146 -0.2823966 0.58182806 0.3855453 0.617049 0.18958901 -0.20607105 -0.1441704 0.014695399 0.5144122 -0.12729694 -0.29536492 -0.051456597 0.06312576 0.0018595015 0.017519653 -0.45325258
BedroomDoor 0.15042257 0.08808232 -0.13547626 -0.31419224 -0.3008482 -0.17850344 -0.023198022 0.2176931 -0.14643343 0.08222822 0.07662065 -0.4089458 0.14168376 0.4168238 -0.050363887 -0.34628713 0.09692718 -0.086349346 -0.11866211 0.037203122 -0.0033197068 0.03222373 -0.10589447 -0.16364744 -0.14599971 0.13263975 0.037682317 0.1949171 -0.03845748 -0.15642603 -0.08088275 -0.028102702 0.044748098 0.20127136 -0.15101638 0.29535362 0.430381 0.38358644 0.09460345 -0.35833642 -0.11169786 0.2375282 0.340886 -0.09396811 -0.2550688 -0.011145633 0.15543732 0.1457876 0.03584035 -0.4228395
Fridge 0.026338568 0.05319411 -0.30707288 -0.119898476 -0.1857746 -0.3213214 -0.15690215 0.27400342 -0.32436195 0.06237865 0.2622999 -0.3920818 0.09024185 0.3275655 -0.084767856 -0.46698996 0.20851308 -0.23430122 -0.18431456 0.091855064 -0.28771156 -0.0019187566 -0.025557762 -0.13233152 -0.19850822 0.15255718 -0.032960452 0.2246178 0.16663826 -0.19055612 -0.024132667 -0.071550645 0.001374171 -0.013330726 -0.25592664 0.54173243 0.36864758 0.5629408 0.17745778 -0.20895584 -0.14107677 0.019714119 0.48300785 -0.089807816 -0.27220494 -0.022101313 0.054649275 0.013302716 -0.021768913 -0.41399813
Sink 0.12785079 0.09399436 -0.2491876 -0.2476679 -0.25305408 -0.35907823 -0.047191985 0.20831078 -0.24184908 0.16809033 0.09936211 -0.5098398 0.05393385 0.46854365 -0.08371591 -0.42660275 0.17181855 -0.20116778 -0.13030118 0.089259215 -0.096884646 0.08406536 -0.1135181 -0.16185892 -0.22473004 0.120491125 0.018212808 0.27520943 -0.05102874 -0.18080829 -0.107901245 -0.06933665 0.029491069 0.13155888 -0.24842066 0.39344785 0.55030054 0.5478416 0.13565545 -0.32090452 -0.17076874 0.16830459 0.44739547 -0.023102423 -0.2671153 -0.011586045 0.17720835 0.20329684 -0.0043566 -0.40949264
Frontdoor 0.04558472 0.04627338 -0.2745603 -0.09628233 -0.14317158 -0.31001922 -0.12815715 0.21416454 -0.261577 0.08730722 0.21077514 -0.355892 0.03249552 0.26530635 -0.05719346 -0.4039899 0.19613296 -0.20926954 -0.17251307 0.06507806 -0.26234776 0.0032225894 -0.03495937 -0.12068896 -0.20688584 0.11383565 -0.041080505 0.21878386 0.11829677 -0.14799705 -0.036040686 -0.04759878 -0.040391818 -0.02587705 -0.20891888 0.44934914 0.3208051 0.46152857 0.17850846 -0.18541574 -0.12509316 0.005564276 0.4075766 -0.022716235 -0.19471571 0.01709838 0.037708927 0.044596672 -0.02471557 -0.3381616
ToiletFlush 0.14342856 0.085071824 -0.30722117 -0.052877232 -0.08488509 -0.43639776 -0.08840167 0.13463698 -0.23055431 0.14324926 0.08913625 -0.4743832 -0.111630514 0.24605604 -0.13146749 -0.38843074 0.17127499 -0.27061787 -0.17551042 0.051500347 -0.15336405 0.07118863 -0.13922578 -0.123061195 -0.26026613 0.025134016 -0.031867452 0.31577474 -0.048096597 -0.15443595 -0.118993595 -0.0117184725 -0.18067923 0.003315948 -0.20576282 0.40308115 0.44700676 0.38458735 0.2599206 -0.19001046 -0.09807033 0.020707691 0.38067737 0.10709147 -0.12082568 0.07832715 0.05960954 0.21550317 -0.10857364 -0.21233912
BalconyDoor 0.05877303 0.049293015 -0.30753544 -0.17919534 -0.21119563 -0.33981267 -0.13021332 0.26386595 -0.30045426 0.10974849 0.19926554 -0.4285893 0.06164948 0.38372824 -0.09134762 -0.4655773 0.20542881 -0.2179881 -0.17530629 0.103551015 -0.22412993 0.012105634 -0.03815451 -0.15817697 -0.21839646 0.15022469 -0.02059014 0.26260343 0.10029448 -0.1817762 -0.029213844 -0.07313911 -0.0015569025 0.032330323 -0.25270215 0.5019113 0.42712247 0.547208 0.1955239 -0.22952943 -0.15333249 0.055198662 0.5003399 -0.06569658 -0.25885653 0.010483824 0.079918355 0.06787361 -0.026577309 -0.41331944
Microwave 0.114043504 0.062295757 -0.24580279 -0.23466587 -0.26174438 -0.29413083 -0.070007406 0.22439015 -0.24140447 0.11242302 0.12924345 -0.44018993 0.10901943 0.41970333 -0.099623024 -0.42885318 0.18917058 -0.19455193 -0.14859979 0.098954946 -0.12408074 0.022879465 -0.08632405 -0.15404075 -0.20132144 0.12366337 0.0019825872 0.2646021 0.0074550426 -0.18365742 -0.051669937 -0.047262765 0.012282878 0.1072634 -0.23176026 0.4184956 0.47049317 0.5058436 0.13811441 -0.28742877 -0.12747684 0.13878451 0.4246238 -0.08915453 -0.24651955 -0.022487955 0.12392006 0.12132432 -0.021076664 -0.39961118
Toaster 0.09953782 0.07091121 -0.26800463 -0.16720814 -0.2113685 -0.31874374 -0.09591145 0.21703587 -0.24043275 0.092542775 0.17276968 -0.4355988 0.07045275 0.35413143 -0.079068296 -0.42991984 0.18374774 -0.19820476 -0.14340177 0.08512034 -0.1636674 0.018635904 -0.068246275 -0.13370486 -0.20913506 0.1384407 0.002366869 0.25357616 0.051857475 -0.17040709 -0.068692304 -0.036065876 -0.012023644 0.06854137 -0.21547544 0.44683832 0.42203766 0.48541 0.17769733 -0.23306917 -0.113342844 0.08739846 0.43213624 -0.046076585 -0.23160395 -0.0067293276 0.10185382 0.10581371 -0.03656756 -0.3773213
Window 0.16659954 0.078781225 -0.14131975 -0.2764809 -0.25818345 -0.25704682 -0.029345322 0.1747156 -0.1452501 0.13725643 0.054255277 -0.44591722 0.06477043 0.40728202 -0.07126244 -0.34475714 0.11200163 -0.10568621 -0.12794282 0.04216183 0.008277858 0.03866738 -0.11002834 -0.1658716 -0.15951239 0.08839713 0.03151599 0.21999422 -0.09327476 -0.13379972 -0.08344002 -0.025176119 -0.013215639 0.1671717 -0.15148944 0.29579535 0.46458277 0.36627218 0.13840033 -0.3353568 -0.12324304 0.19391266 0.3463029 -0.020341491 -0.22298667 0.028729845 0.1371787 0.19791788 -0.010497403 -0.33223242
CupboardPlates 0.05336961 0.042759135 -0.18571748 -0.14649169 -0.17423442 -0.22696699 -0.068797246 0.17254029 -0.20559964 0.06688229 0.121003665 -0.32437858 0.0678225 0.29928285 -0.07337219 -0.32167533 0.14459568 -0.15379143 -0.11138775 0.06168206 -0.13272922 0.008700508 -0.059654396 -0.110463284 -0.16263817 0.112972595 -0.016446002 0.19798355 0.033298355 -0.12541562 -0.025099766 -0.035382587 -0.0107068885 0.07029107 -0.1879068 0.3510521 0.32679835 0.39032444 0.12947735 -0.1883539 -0.104692064 0.08396653 0.334665 -0.057271194 -0.19933008 -0.012977362 0.075533085 0.062050175 -0.0020694104 -0.30929282
CupboardGroceries 0.053893454 0.016271524 -0.048200596 -0.10384457 -0.075156555 -0.073626705 -0.0014318328 0.060650945 -0.02977046 0.056355145 0.013806553 -0.15040082 0.008855238 0.1431736 -0.03551005 -0.116079815 0.02408897 -0.042715978 -0.044475153 0.010130575 0.012217911 0.019930111 -0.039498046 -0.048214994 -0.042569205 0.019718459 0.011077763 0.06361982 -0.03751535 -0.044838637 -0.030146347 0.00021262001 0.0054379245 0.053804267 -0.05601251 0.09132772 0.15481448 0.11479083 0.029358873 -0.10599582 -0.044364214 0.066466376 0.101222105 -0.007769343 -0.06367754 0.004476118 0.054817274 0.07258133 -0.013195795 -0.116997264
