22 50
KitchenPIR -0.52377886 -0.055611346 -0.39499363 -0.21619363 0.074389406 0.41077518 0.7581796 0.5024926 0.28115153 -0.65962064 -0.9320146 0.30151212 0.07670602 0.53552854 -0.20737408 0.3356491 0.3162926 -0.75167733 -0.70311385 -0.60283405 0.7512885 -0.21407925 0.451294 0.1955711 0.13395283 -0.09327746 0.53218806 0.07475622 -0.28050542 0.35732636 0.18322767 0.46258944 -0.7094665 0.106451 0.5603569 0.027515423 0.24789225 -0.11547772 -0.26354116 0.24764758 -0.62237406 0.58525056 -0.07907288 0.10571397 0.3051041 0.6142539 -0.57619655 -0.21998231 0.7793627 -0.2102869
BathroomPIR 0.69442177 -0.47307667 0.35255367 0.017635012 -0.14298391 0.7645069 -0.2721823 -0.07453995 -0.3972298 -0.47742617 -0.7791245 0.3462848 -0.58211863 -0.7082079 -0.6657694 0.44520158 0.7739278 0.4460814 -0.89778394 0.12188559 0.39130506 -0.48779637 0.0806947 -0.30533665 -1.0739723 0.17771582 0.6076391 0.65837175 -0.46852028 -0.120557226 1.2725466 -0.81960124 -1.2897294 0.045043822 1.3203425 0.06704915 0.99350125 -1.1935029 -0.4681848 -0.3744347 0.8309324 -0.16903287 0.52367365 0.23989223 -0.04772151 0.18384066 -0.10302946 0.6728286 -0.10685444 -0.5563331
BedLeft 0.12660031 -0.8460089 -1.0088843 0.3351381 0.7018438 0.082206525 -0.25464475 0.4617827 0.46820077 -0.89135194 0.26088232 0.10540951 -0.029431874 -0.21277764 -0.9626597 -0.56970215 -0.60372466 -0.39159402 0.2032557 -0.4908623 0.4947032 1.1893387 0.5024113 -0.13984703 1.0510783 0.9298836 -0.076351754 0.034656655 0.47089848 -0.10008547 0.07975382 0.5128326 -0.08241841 0.65638554 1.0295631 0.5809769 -0.58603173 -0.32104516 -0.44831014 0.53653884 -0.9969915 -0.16970941 -0.6983943 -0.2312049 0.50412273 0.29072437 0.8633126 0.22372454 0.20879485 1.4035195
BedRight 0.23987937 -1.0363183 0.35260436 -0.057740375 0.006579299 -0.25636226 -0.58363444 0.91629577 0.91099954 0.15075417 0.18796046 -0.26755008 -0.6111616 -0.21067971 -0.5512209 -1.1266475 -0.3165043 -0.03292971 0.30486387 -0.03499881 -0.6072176 -0.2780938 -0.28327075 0.012258129 -0.33317187 0.62977207 -0.7622802 0.91780394 -0.24497803 0.68081665 -0.038575146 -0.42006502 0.01901769 1.17348 1.1826464 0.23945132 -0.15998971 -0.060468744 0.123102285 0.05328094 -0.2179209 0.4477196 -0.22243206 -0.012379426 0.10870402 -0.47361383 0.6719844 -0.29334712 1.0894083 0.6200804
BedroomPIR -0.34437925 0.32165822 -0.5926699 -0.75671303 0.2214193 -0.070562296 0.5444639 -0.2630537 0.31072384 -0.13979137 -0.6507791 0.049278643 -0.21861775 -0.043855015 -0.4570534 -0.7457992 -0.31871647 0.37841254 0.08156584 0.23139782 0.31654915 0.3642329 -0.5514471 0.48446086 -0.017211434 -0.05103754 -0.40652642 0.8556712 0.46595323 0.32237285 0.4181487 -0.79266596 -0.56443393 0.45061007 0.8127799 -0.262404 0.21574903 0.12212339 -0.5437281 -0.0878298 -0.30726045 0.1455736 -0.050330535 0.34047484 -0.079821065 -0.58463985 -0.21016668 0.38076872 -0.3798116 0.6102718
Dresser 0.45602873 -0.19889322 -0.13111657 -0.21496972 0.08349804 0.26697293 -0.6771013 0.011657418 0.19378111 -0.51850456 -0.2526789 0.44343 -0.58685565 -0.543875 -0.7523564 -0.49310923 0.12785864 -0.03664543 -0.33249813 -0.3754668 -0.25528333 0.28215212 -0.22814219 -0.07017189 -0.19568531 0.88557786 -0.577681 0.8017555 0.3071834 -0.59301466 -0.033977024 -0.4087525 -0.060482264 -0.078229815 0.4603006 -0.093553856 0.7034231 -0.32874423 -0.18248783 -0.38143724 -0.06409539 -0.19437505 -0.41346183 0.5530994 0.15598373 -0.07441892 -0.009982618 0.15822022 0.26828066 0.66934365
Piano -0.11383115 -0.2598039 -0.2937774 -0.36988398 -0.060022954 -0.042290237 0.18919855 0.16401161 0.24547718 -0.3700975 -0.7541149 0.3140185 -0.34735322 0.13325444 -0.13236478 -0.2559509 0.086321235 -0.24982 -0.1636716 -0.23365372 0.16302529 -0.093818955 -0.008794258 0.17004205 -0.23264055 -0.008936924 0.08225737 0.20626615 -0.045832284 0.20434113 -0.008713843 0.033425305 -0.51978034 0.26341176 0.54314196 0.1489301 0.33652848 0.010511994 -0.097493365 0.11917382 -0.29547486 0.2258125 -0.20518336 0.22203045 0.11702935 -0.020748362 -0.2378973 0.101292275 0.29286417 -0.027740294
CutlaryDrawer 0.0081441505 -0.37881178 -0.113654956 -0.17026745 0.2294169 -0.041599054 0.14142483 0.26023182 0.18375923 -0.2646059 -0.36833006 0.1493276 -0.26995754 -0.097725585 -0.22792742 -0.25078854 0.069090076 -0.22969358 -0.24130517 -0.18712759 0.1684657 0.048570536 0.08355474 0.029567631 -0.040288292 0.11932432 0.047549225 0.3620714 0.10844973 0.12880085 0.32586044 -0.17955083 -0.39488557 0.39782858 0.5511919 0.28308696 0.22555241 -0.19875531 -0.28966802 0.07126406 -0.09208059 0.15595737 -0.07862549 0.14500457 -0.15433973 -0.024333948 0.09803606 0.14123511 0.31126523 0.17525251
Chair -0.026690006 -0.19397753 -0.18555558 -0.2360183 0.052435923 0.09019771 0.13092172 0.1453408 0.17732835 -0.27955493 -0.44514045 0.12931189 -0.26564267 -0.060101315 -0.35189873 -0.28382525 0.052263394 0.008698337 -0.17433587 -0.12616228 0.15570278 0.025723124 -0.07717457 0.089223444 -0.18922551 0.1740982 -0.06827222 0.44132432 0.0009825237 0.15508965 0.29650894 -0.28674433 -0.4335897 0.30151376 0.7019048 0.015103749 0.27105117 -0.17044418 -0.27844346 -0.033248324 -0.16464655 0.17322987 -0.026610171 0.17075492 0.06479338 -0.03862816 -0.032398544 0.13207722 0.16162303 0.20602778
ToiletDoor 0.0060536573 -0.17344865 -0.059090517 -0.1296241 0.007661894 0.18436942 0.08841636 0.14583462 0.1091317 -0.2761255 -0.41177726 0.15981665 -0.1999421 -0.032085143 -0.25031608 -0.02460175 0.1736681 -0.084608875 -0.29382488 -0.14964834 0.20986219 -0.10187002 0.06749018 0.029013459 -0.20180644 0.10154291 0.1298203 0.2888342 -0.10368165 0.08749736 0.26820672 -0.14025424 -0.43189445 0.15707964 0.52960443 0.040376324 0.26801553 -0.23421592 -0.18950197 -0.0024504117 -0.04841634 0.14083323 0.016822968 0.11849798 0.073222734 0.09820363 -0.122805156 0.09387941 0.22430173 -0.026649639
StoveLid -0.21809077 -0.18221681 -0.26336828 -0.2268579 0.07006596 0.20092463 0.3584205 0.32836106 0.28112602 -0.42790174 -0.646396 0.20915692 -0.13339627 0.18645868 -0.29327372 -0.07449442 0.14042166 -0.34596226 -0.3975114 -0.3419686 0.38848674 -0.07509675 0.15327609 0.1448534 -0.049719997 0.06546657 0.16461727 0.32419094 -0.10293387 0.24839094 0.21766081 0.056985162 -0.5344182 0.27119234 0.63564444 0.066249974 0.26354092 -0.12031734 -0.24609354 0.097272225 -0.3793614 0.35611436 -0.09926809 0.1498937 0.15924609 0.21550825 -0.25474936 -0.028212354 0.48664308 0.060965426
BedroomDoor 0.01155737 -0.2797659 -0.1593061 -0.09989327 0.09877266 0.070582315 -0.036807187 0.23609626 0.24205558 -0.23780937 -0.20334111 0.07483925 -0.20326495 -0.04318849 -0.32460105 -0.2560248 -0.038308155 -0.09983767 -0.110159345 -0.16998458 0.0993347 0.08508866 0.02280955 0.022953028 -0.0027436628 0.25228092 -0.088722646 0.3067529 0.006504737 0.10019742 0.11896371 -0.068660215 -0.23739432 0.28100988 0.52515745 0.10310505 0.09012496 -0.1296397 -0.13993077 0.054837827 -0.19804049 0.12556767 -0.14249498 0.08842801 0.11456906 0.013741793 0.08092997 0.027663294 0.28799218 0.27600294
Fridge -0.21530813 -0.1982062 -0.27273974 -0.22878881 0.089502364 0.17738606 0.3518632 0.3303679 0.2832609 -0.42590252 -0.65435535 0.21370089 -0.14233907 0.17406912 -0.28966653 -0.083526656 0.12114378 -0.3629196 -0.3726875 -0.3358447 0.37576383 -0.060303003 0.14818409 0.13185276 -0.034310617 0.070903406 0.15553401 0.31174326 -0.097761445 0.25238398 0.21769121 0.05949236 -0.5348737 0.29061708 0.64103705 0.059905615 0.25727636 -0.123124756 -0.24913484 0.104195885 -0.38698176 0.354854 -0.093871355 0.16404389 0.16051023 0.2098003 -0.23133425 -0.036185306 0.5007398 0.07074348
Frontdoor -0.17598484 -0.15407014 -0.21529144 -0.25053295 0.041894477 0.17579055 0.28919408 0.2601935 0.2535078 -0.34446597 -0.5618386 0.16590331 -0.15905413 0.16023925 -0.2565037 -0.09518406 0.12302671 -0.279359 -0.33676612 -0.26748523 0.3173556 -0.0951091 0.09588359 0.13228711 -0.07796953 0.063100114 0.112659104 0.30101174 -0.095844075 0.22657634 0.17731081 -0.0078994045 -0.4746962 0.21938063 0.5794187 0.02991217 0.2271141 -0.09764949 -0.22418973 0.07363332 -0.29595277 0.31123397 -0.066550896 0.15238534 0.13077764 0.15092734 -0.23371999 0.007637364 0.40959427 0.037082247
Sink -0.054693952 -0.30488527 -0.19776362 -0.1822273 0.06869082 0.14552957 0.12418534 0.24568233 0.2759248 -0.32202673 -0.39185926 0.13487594 -0.23017831 -0.012503311 -0.35398185 -0.20448957 0.066575624 -0.17070225 -0.22202417 -0.22323132 0.23142467 -0.027872795 0.06622717 0.037305895 -0.108705364 0.19700228 -0.011227517 0.3731421 -0.06764524 0.18412845 0.22914279 -0.07685183 -0.4287925 0.3187587 0.6827195 0.09626624 0.18283224 -0.2014058 -0.1871949 0.02408695 -0.21503031 0.18172447 -0.098245084 0.083838254 0.103718124 0.07666504 -0.04140616 0.06868373 0.37111446 0.17519513
ToiletFlush 0.021301698 -0.21095537 -0.06008064 -0.10581931 0.013931811 0.14998361 0.038956143 0.16607876 0.13150735 -0.251335 -0.34113225 0.14345197 -0.1973557 -0.040767945 -0.26154044 -0.054400545 0.14021978 -0.09024531 -0.25508288 -0.1328751 0.16906154 -0.06688021 0.04749248 0.0022564083 -0.17242788 0.1176233 0.07993122 0.27429795 -0.094826385 0.08524713 0.22720248 -0.120064974 -0.38771567 0.19031823 0.5156482 0.067024976 0.21599048 -0.22050579 -0.1504416 0.011337378 -0.07003391 0.12826738 -0.017764054 0.098160386 0.07569588 0.07499762 -0.05652562 0.068851784 0.24916391 0.024740048
BalconyDoor -0.07453172 -0.21093313 -0.19704743 -0.17799121 0.05757868 0.12737979 0.16815072 0.23236547 0.21878016 -0.32581112 -0.4703105 0.14897262 -0.20079982 0.031029684 -0.29579145 -0.13222976 0.07900856 -0.19363318 -0.27551594 -0.21963671 0.24787478 -0.029596195 0.07033766 0.09061814 -0.08145882 0.12551677 0.05345891 0.32737884 -0.04463035 0.16520675 0.22732934 -0.07370273 -0.43841964 0.26208892 0.5977145 0.06973948 0.22350568 -0.15151446 -0.21348915 0.044798512 -0.23055424 0.20998135 -0.08475709 0.14539842 0.096794315 0.0806839 -0.11869473 0.0545001 0.33196613 0.109396935
Toaster -0.10239273 -0.24131368 -0.21148531 -0.16667485 0.0741453 0.16805516 0.20363447 0.2691759 0.23415796 -0.35979825 -0.49278107 0.17087111 -0.1769673 0.05074305 -0.32883108 -0.12805037 0.09977429 -0.22858897 -0.30408058 -0.23342383 0.27569953 -0.021446992 0.088193394 0.081415765 -0.076843016 0.14635187 0.091004916 0.335655 -0.059335098 0.18796802 0.21185993 -0.042573225 -0.448189 0.26952186 0.62351626 0.06268651 0.21361428 -0.17112237 -0.21206589 0.055180524 -0.27107325 0.24566348 -0.074157864 0.124364525 0.1214197 0.12872805 -0.11173077 0.033612337 0.37919995 0.11920909
Window 0.017330656 -0.261983 -0.12430645 -0.14754194 0.070383504 0.10095896 0.029336788 0.20838317 0.19718724 -0.26737702 -0.33895823 0.12196515 -0.22525388 -0.0558265 -0.3091029 -0.21817294 0.036247626 -0.086399175 -0.19265041 -0.15496473 0.12648648 -0.0019854214 0.0022518714 0.033810515 -0.1263905 0.20178398 -0.019459717 0.3481167 -0.0140762525 0.11239952 0.22047523 -0.14496076 -0.35355458 0.2812354 0.5996409 0.08973627 0.19679339 -0.17771481 -0.19180153 0.0061507183 -0.15558329 0.14361121 -0.07167733 0.12737305 0.08255837 0.008812988 0.010219457 0.09193055 0.27155834 0.18258096
CupboardPlates -0.10928202 -0.16326554 -0.1695613 -0.14660405 0.063946284 0.13834172 0.1971771 0.23657303 0.19442837 -0.29218972 -0.40509966 0.14518948 -0.13141608 0.07829962 -0.24283305 -0.06817815 0.087921105 -0.22398993 -0.2571382 -0.21448058 0.2380259 -0.035801254 0.09045357 0.0816903 -0.047815163 0.09081371 0.08707843 0.25046375 -0.060226 0.15426351 0.16701275 0.0024297247 -0.3652361 0.20047624 0.4908387 0.069487944 0.1716793 -0.117604166 -0.16464321 0.06693886 -0.23258105 0.21216281 -0.065497145 0.10116259 0.10624527 0.12667607 -0.11893246 0.011535799 0.33023795 0.084183566
Microwave -0.07825765 -0.18434215 -0.17314471 -0.14395012 0.07041584 0.12734197 0.1701769 0.22787462 0.19521059 -0.3034668 -0.41369924 0.13215938 -0.1389676 0.05536885 -0.26470155 -0.10185444 0.068758875 -0.19702587 -0.24471167 -0.20543638 0.23782033 -0.019479377 0.087727204 0.069080256 -0.04994419 0.10813051 0.060826972 0.26719972 -0.045835786 0.14646111 0.16619979 -0.013186366 -0.37478828 0.23348184 0.5028809 0.05503323 0.17243285 -0.12747969 -0.17300269 0.06600361 -0.22670744 0.19511949 -0.08416489 0.110043325 0.10178499 0.11471133 -0.10311297 0.011160171 0.33153906 0.0903432
CupboardGroceries 0.007969788 -0.08390289 -0.044946987 -0.037675384 0.028362555 0.027177302 0.007788537 0.06749485 0.07107289 -0.09233106 -0.10287931 0.041323565 -0.06696559 -0.022056434 -0.10630857 -0.05338157 0.019185105 -0.022142228 -0.062102914 -0.04187291 0.06057207 0.005507871 0.0016451407 0.020438382 -0.024889993 0.0656697 -0.0016368972 0.11230801 -0.014887067 0.030250963 0.06434628 -0.040861003 -0.11462284 0.09186642 0.18238363 0.014372006 0.052030753 -0.062383898 -0.059424985 0.012297737 -0.05571022 0.04282078 -0.026390014 0.04094243 0.019669533 0.011353274 0.00071404065 0.025832448 0.089485295 0.046600405
