22 50
KitchenPIR 0.6126703 0.08984578 -0.43650615 -0.18586135 -0.27111536 -0.26268438 0.11488021 0.17809582 0.4231745 -0.19520245 -0.044875953 0.37417847 -0.36180136 -0.03752879 -0.86778533 -0.4389446 0.86591136 0.44240794 -0.96739924 0.3378654 0.49504036 -0.1683857 -0.49808788 -0.03166106 0.10129522 0.7980177 -0.18691532 -0.22096398 -0.26766667 -0.14994907 0.31041187 0.41895047 -0.65407187 -0.340579 0.3662079 -0.033612784 -0.21339269 -0.5995198 0.13205732 -0.7334431 0.5045583 0.93890107 0.6829338 -0.54128957 -0.121895075 -0.639989 -0.5677472 0.4802135 -0.44985953 0.14098807
BedLeft 0.57423156 -1.260865 -0.2658284 -0.5156585 -0.9526716 -0.06105961 0.0941381 0.086914 0.8165278 0.3157654 -0.5393013 -0.153304 -0.9449745 0.08728881 -0.92076457 -0.066989936 -0.26806843 0.26118392 -0.18415289 -0.9371116 -0.08730293 0.0014777898 -0.7892487 1.2175089 0.6494505 0.64716566 0.77902275 0.48876658 0.65683264 -1.5445936 0.4349388 -0.8245628 0.49675176 0.6695664 0.12806055 -0.6035586 1.0182929 -0.7137912 -0.89610606 0.10116474 -0.33364168 -0.12013533 1.3885127 0.09317826 -0.4652981 0.33166206 1.0803648 -0.20090757 0.05352568 0.093247555
BathroomPIR -0.31202003 -0.22395112 0.47253752 0.5897919 -0.012748801 -0.51321274 -0.25355193 -0.60102725 -0.277283 0.14199717 -0.3561697 0.23405321 0.11872249 -1.0388762 0.33314148 -1.002683 -0.06425385 1.1775337 -0.111969635 0.17759547 -0.15045972 -0.5981205 0.45041382 0.5772653 0.61073655 0.48519826 -1.4095258 -0.49272227 -0.9269397 0.88177127 1.1632812 -0.21733475 0.062071487 -0.0034515688 0.6852813 -0.36935565 0.53775585 -0.8168211 -1.0037016 -0.39570823 1.2037468 -0.3170942 -0.40559372 -0.44103533 0.4406207 0.5924832 -0.7001962 0.5888219 -1.1467102 0.68896264
BedRight -0.27163285 -1.2595826 0.48881686 -1.0704983 -0.6091109 0.12759347 -0.89259267 -0.42264184 0.8832564 0.09690793 0.34831107 0.6591654 -0.19542135 -0.5639392 -0.05950192 -0.09068888 0.36167663 -0.5119081 -0.51493746 0.38190803 -0.6015917 0.4483514 -0.73494387 0.106243186 -0.41048136 0.32869148 -0.38105327 -0.3879597 0.40946725 -0.19811386 0.38590735 -1.3062015 0.05006352 0.7235367 -0.4977275 -0.91869104 0.5045898 0.19092737 -0.41133714 -0.3058425 0.45076546 0.006403047 0.08587253 -0.006596389 -0.22138917 0.39727408 0.40435922 0.5070928 0.39556313 -0.029680977
BedroomPIR -0.10286795 0.19151665 -0.23089404 -0.16841261 -0.6971724 0.11839778 -0.53733426 0.14316183 -0.035601884 -0.3501742 -0.124548666 -0.047289502 -0.13855264 -0.44425696 -0.28268144 0.5132413 -0.5963746 -0.0545659 0.0553286 -0.46334478 0.42922768 0.40276107 0.3249396 0.07815988 0.11307894 0.647967 -0.32928902 0.51364523 -0.15996148 0.009488701 0.43553635 -0.28340465 0.47625074 0.3544827 -0.17043073 -0.32983685 0.011639697 -0.30949047 -0.38566065 -0.64260334 -0.04943494 0.0679448 0.35995987 -0.3010328 -0.3808988 0.07413007 0.37826607 0.44717923 -0.16552944 -0.4056097
Dresser 0.16058604 -0.4354898 0.6536036 0.42292127 -0.22174984 -0.5475712 -0.18879081 0.25221908 0.187246 -0.15709184 0.24936946 0.24963328 0.12568676 -0.3565157 0.17566213 -0.17491257 -0.7282477 0.6230856 0.17276387 -0.59217525 -0.26669073 -0.13343036 0.38069358 0.23610215 0.08349228 0.82982206 -0.2859662 -0.18025737 0.3745125 -0.16740774 0.3620054 -0.80247563 0.8846128 0.7658997 -0.21658939 -0.936637 0.17869392 -0.14541176 -0.9419278 -0.5819446 -0.38642785 -0.6723941 0.61684537 -0.5289882 -0.16317548 0.28230575 0.16061963 0.71300775 -0.5904778 -0.025394505
Piano -0.00146234 0.102234066 0.18640922 0.19822556 -0.0679523 -0.10150388 -0.11359307 0.09977446 0.40875265 -0.52246416 -0.12325026 0.24416922 -0.21262571 -0.39057943 -0.40022674 -0.26357695 0.09556573 0.29192284 -0.51342934 -0.057829227 0.3461968 -0.18036637 0.114132546 0.08103584 0.34591562 0.5140527 -0.18823226 -0.12048316 0.0016363739 -0.20617907 0.29143405 0.23961264 -0.2535294 0.23877715 0.11944953 0.03368311 0.033873703 -0.4322941 -0.43718833 -0.3370024 -0.018872997 0.012294981 0.45032158 -0.51943445 -0.2590769 -0.23829222 0.04408934 0.51031625 0.05319335 0.070575364
CutlaryDrawer 0.039124914 -0.1901122 0.09074703 -0.2133426 -0.23971719 -0.05882841 -0.3622933 -0.20914672 0.099147916 -0.21831237 0.19257769 0.008348108 -0.35335472 -0.06698792 -0.21297249 0.0830035 0.086649254 0.08216472 -0.3563041 -0.05048223 0.11181401 0.04041156 -0.11047358 0.2443889 0.26419225 0.32794586 -0.33088678 -0.13984105 -0.29624456 -0.21430665 0.38947275 -0.07943365 0.1840987 0.13665111 -0.19432122 -0.28598574 0.31924254 -0.50965804 -0.17888528 -0.35761264 0.1329814 -0.1760418 0.2681659 -0.059134256 -0.42710343 0.23840484 0.4854535 0.37962937 0.011459809 0.17278776
Chair 0.1009388 -0.015518249 -0.009028261 0.011386889 -0.28925496 -0.14004317 -0.16180533 -0.032446265 0.10880171 -0.12942328 -0.06905769 0.1782959 -0.16604513 -0.28672475 -0.2843726 -0.19898468 0.14387767 0.27965364 -0.33041233 0.023341699 0.2314645 -0.02536616 -0.008919448 0.12211555 0.18223576 0.51101196 -0.30822784 -0.030189399 -0.1946921 0.048879307 0.39054358 -0.04354333 -0.0847025 0.035354655 0.104509994 -0.20214285 0.031125287 -0.35092315 -0.26922315 -0.4193465 0.25206748 0.19672064 0.27608287 -0.32781518 -0.10268191 -0.062254317 -0.09384673 0.38144106 -0.27533665 0.033257328
ToiletDoor 0.06996951 -0.12293895 0.036121327 0.06538986 -0.16212004 -0.16665637 -0.11403434 -0.07563818 0.09191413 -0.07584364 -0.10582345 0.1367956 -0.11933905 -0.29662988 -0.1831636 -0.27357894 0.045136876 0.3638317 -0.2363002 -0.011663441 0.09657908 -0.12969501 0.0037398417 0.19040501 0.21394607 0.38765633 -0.3272586 -0.079054296 -0.18429118 0.029330907 0.38509622 -0.054375447 -0.013833812 0.07907519 0.17557023 -0.19173992 0.1568933 -0.37919936 -0.33476686 -0.3073495 0.27469453 0.053101305 0.1915213 -0.25429127 -0.04099069 0.04166488 -0.105547726 0.2962286 -0.31572405 0.143094
Fridge 0.21811448 -0.06251688 -0.07355195 -0.11273074 -0.2628401 -0.15348053 -0.13289729 0.046348315 0.29293662 -0.19428681 0.0136293825 0.2537087 -0.21812479 -0.19013038 -0.42652163 -0.23338106 0.33863392 0.25883108 -0.5308938 0.11478408 0.23326296 -0.03153205 -0.20682175 0.046691775 0.116133146 0.551008 -0.22837698 -0.11746384 -0.14178294 -0.10305236 0.3238132 0.029478267 -0.21811621 0.008269087 0.11611644 -0.19007008 0.004853842 -0.38962573 -0.1345011 -0.49405515 0.2678063 0.3367393 0.40576246 -0.36536184 -0.15356283 -0.19958445 -0.14917935 0.41182482 -0.2346105 0.072876655
StoveLid 0.24487509 -0.12825876 -0.08799764 -0.13194352 -0.31619275 -0.19540294 -0.1384952 0.05303811 0.32224286 -0.19168612 -0.0024600492 0.2842246 -0.24846122 -0.23250914 -0.47707054 -0.25362328 0.34246424 0.30867088 -0.5487281 0.07532062 0.21650882 -0.038239386 -0.227703 0.087171555 0.14456199 0.63008827 -0.24986163 -0.13325086 -0.13248722 -0.12739737 0.371263 -0.0076950677 -0.19359088 0.059082124 0.13151135 -0.23939681 0.042242758 -0.44548127 -0.20612465 -0.543557 0.27776992 0.35352007 0.4786389 -0.39658594 -0.1627773 -0.17850067 -0.15000059 0.4726512 -0.27933374 0.067038186
BedroomDoor 0.09974443 -0.31076673 0.06462327 -0.09522819 -0.28946042 -0.113421164 -0.1663189 -0.018535484 0.23691115 -0.037852217 -0.033026878 0.13782568 -0.16913489 -0.20567392 -0.21041073 -0.11493536 -0.051063087 0.18711264 -0.18738584 -0.14270627 -0.010200039 0.007821195 -0.11358683 0.22673512 0.13097443 0.40224525 -0.12666796 -0.016302882 0.054949775 -0.19467734 0.2935858 -0.28400162 0.14659655 0.24568774 -0.0010360802 -0.327725 0.20732608 -0.24540138 -0.3561131 -0.26799676 0.080932625 -0.011537111 0.33583567 -0.1705106 -0.14484899 0.098152086 0.13838042 0.2541572 -0.14717932 0.046224758
Frontdoor 0.18133993 -0.046989527 -0.06276704 -0.105634175 -0.23676242 -0.13916415 -0.14854094 0.040793855 0.26578188 -0.19185434 0.025732214 0.23734628 -0.18184313 -0.21820708 -0.37943724 -0.18746878 0.28405935 0.22253358 -0.5025684 0.10268543 0.22490473 -0.00710658 -0.15680817 0.03324671 0.07492301 0.5387031 -0.28196284 -0.11433898 -0.1429632 -0.02914489 0.32041255 0.0168916 -0.17931283 0.010732477 0.086777784 -0.17903353 -0.0076590264 -0.35752827 -0.14550431 -0.48851317 0.25517318 0.3294873 0.36414832 -0.36593074 -0.16396743 -0.1828238 -0.14232396 0.4372782 -0.23117061 0.037657708
Sink 0.113940604 -0.2571861 0.08022101 -0.061456073 -0.33352378 -0.2157855 -0.2627726 -0.08998583 0.25413987 -0.15570843 -0.04265841 0.26637357 -0.2379141 -0.39147666 -0.3267959 -0.2833538 0.18986043 0.35590115 -0.46840912 0.0769335 0.08936799 -0.004253892 -0.15896322 0.2005502 0.17863455 0.6137415 -0.40964064 -0.10541707 -0.13013266 -0.021555498 0.5082089 -0.21717337 -0.07057102 0.16172907 0.057158194 -0.3537416 0.20046565 -0.45297983 -0.41233683 -0.5054177 0.3076531 0.1622252 0.3766868 -0.3759423 -0.13329443 0.0518689 -0.060503636 0.5098034 -0.3249938 0.11620541
ToiletFlush 0.12698965 -0.09022831 0.003779103 0.011329622 -0.1885049 -0.17611544 -0.13999453 -0.054765355 0.16884574 -0.13319549 -0.050011706 0.21380211 -0.13913505 -0.29398635 -0.26173404 -0.2964035 0.18871638 0.35308057 -0.3868157 0.08458035 0.15740244 -0.10475567 -0.06511145 0.1154419 0.14076452 0.47873306 -0.37680548 -0.13280024 -0.22472553 0.07189861 0.38561586 -0.022681035 -0.12636131 0.028939383 0.16451323 -0.19606878 0.055746827 -0.38439903 -0.26881385 -0.43662083 0.35342667 0.21393378 0.24442603 -0.3293541 -0.05141128 -0.06646176 -0.19542353 0.41428944 -0.34387428 0.11486822
BalconyDoor 0.17497632 -0.060823184 -0.043226507 -0.088587776 -0.2307748 -0.14327899 -0.12441529 0.035660427 0.24856897 -0.15782885 0.007667153 0.2164429 -0.17681935 -0.17781831 -0.37375614 -0.19529663 0.26964864 0.22564144 -0.4436492 0.08587121 0.18841982 -0.031438872 -0.14393887 0.056140993 0.11106027 0.4812288 -0.21910696 -0.11068895 -0.10729588 -0.08046118 0.27266562 0.020168364 -0.1814978 0.039122168 0.08017718 -0.15392402 0.0069637625 -0.3429679 -0.14945017 -0.41612792 0.22279683 0.28549027 0.3475365 -0.3079015 -0.14377509 -0.15710856 -0.11671038 0.37770376 -0.1930823 0.045173526
Toaster 0.15706773 -0.15841608 -0.0069736047 -0.10246205 -0.29952592 -0.15996543 -0.19679137 0.005076722 0.28774318 -0.16613343 0.0006596125 0.2791501 -0.20949338 -0.29060587 -0.37000284 -0.24753846 0.26670414 0.26435128 -0.46285263 0.083446674 0.1476311 -0.04272352 -0.15239342 0.09882456 0.10403045 0.5830997 -0.31712228 -0.1306071 -0.1238634 -0.04210374 0.38244617 -0.10883647 -0.11023981 0.09784284 0.08575597 -0.2654324 0.08172659 -0.37212938 -0.2654202 -0.51587677 0.30255985 0.26126987 0.3613538 -0.3539535 -0.15493739 -0.10932386 -0.12743819 0.47071588 -0.26425186 0.07325062
Window 0.08128693 -0.21390961 0.06436695 -0.055750944 -0.26181194 -0.13629015 -0.16934721 -0.05812972 0.20121847 -0.068348266 -0.049179133 0.14338009 -0.17481925 -0.26112676 -0.21705715 -0.17638004 0.022966942 0.2625621 -0.24785121 -0.058237195 0.055604942 -0.033422265 -0.06543452 0.20043254 0.17066611 0.4257235 -0.24121362 -0.064850815 -0.06989483 -0.09428571 0.36316615 -0.20304395 0.044394538 0.16569877 0.07010331 -0.28309742 0.19566476 -0.318399 -0.36003298 -0.3101605 0.1885952 0.03593824 0.2933275 -0.22433226 -0.118391775 0.06457259 0.039094318 0.30737022 -0.21947078 0.088418685
Microwave 0.13778532 -0.20226324 0.033939276 -0.08623173 -0.2774884 -0.15275343 -0.17898026 -0.0083281575 0.2580555 -0.11626811 -0.008461682 0.20193382 -0.18374813 -0.25456008 -0.29954043 -0.20056352 0.15240483 0.24067421 -0.34973463 -0.004751686 0.09482215 -0.025707563 -0.13880931 0.1579575 0.13244773 0.49196267 -0.25266415 -0.078517996 -0.07163478 -0.11559252 0.34160814 -0.16147505 -0.023138925 0.15126853 0.070579454 -0.26996475 0.13154098 -0.34057102 -0.29166207 -0.38395286 0.21948026 0.13433611 0.33838248 -0.29376182 -0.12686609 -0.011096973 -0.019674025 0.3768723 -0.20682348 0.060808778
CupboardPlates 0.14829889 -0.12610704 -0.03390874 -0.08508216 -0.20786789 -0.1205584 -0.108549155 0.0038180952 0.20903371 -0.09559225 -0.016304465 0.15242316 -0.16801111 -0.16013233 -0.29344204 -0.15456809 0.17479889 0.19870134 -0.34118864 0.026305469 0.12624665 -0.027876433 -0.13021845 0.114359364 0.11251882 0.4020927 -0.16517878 -0.063128434 -0.07064136 -0.08371144 0.26839784 -0.05625985 -0.072361864 0.06540098 0.081991546 -0.17049477 0.06917084 -0.29002514 -0.18653078 -0.33117494 0.18368931 0.17394677 0.2984822 -0.23281094 -0.11688321 -0.067726135 -0.0604943 0.30025402 -0.18063101 0.06909554
CupboardGroceries 0.005315922 -0.04041996 0.017342888 -0.020383492 -0.060437243 -0.018139288 -0.04033627 -0.016917314 0.04221692 -0.015969375 -0.0028253268 0.042568948 -0.020506788 -0.0485079 -0.037567914 -0.03095874 0.0023323772 0.057296988 -0.047462165 -0.010867558 0.012720453 -0.006172624 -0.010751508 0.03135489 0.0347932 0.08357913 -0.061922383 -0.021614969 -0.012008751 -0.019449895 0.076184794 -0.04074103 0.012626186 0.043498963 0.0037502812 -0.053620335 0.044863738 -0.054610636 -0.079829894 -0.06709315 0.036951724 0.006772193 0.052624732 -0.047118608 -0.0157646 0.023044115 0.008358862 0.066303276 -0.03731832 0.018393578
