22 50
KitchenPIR 0.67220515 -0.1795789 -0.6944419 0.02571759 -0.09975991 -0.16451447 0.7314608 0.36758885 0.10959166 0.6519758 -0.015924275 -0.087388545 -0.10959282 -0.48046255 -0.56205666 -0.983959 0.030388603 0.15757883 0.30314958 0.42676637 -0.31943354 -0.026629157 0.14288665 -0.17910993 -0.05985153 -0.030685162 -0.79396385 0.11764486 0.27934194 -0.17898898 0.36716005 -0.08613785 0.015682753 -0.28941998 -0.2207226 0.1743147 0.99065787 -0.4339329 -0.014885082 0.10123858 -1.5246365 0.15449965 0.19474831 0.719724 0.09874648 0.029006468 0.2843539 -0.20516467 0.37111855 0.7873112
BedLeft 0.7196123 -0.8375803 0.4212238 0.21037036 -0.55403244 0.43308386 0.87187237 0.17054632 -0.20320903 -0.2111262 -0.4726297 -0.5150292 0.7093667 -0.016627803 -0.6948331 -0.31670055 0.31784347 0.34800497 -0.30012023 -0.20402157 -1.1468345 0.30103126 0.88001335 -0.99082625 0.11862014 -0.20920543 0.9656032 -0.15680704 0.014511191 0.18093054 1.0189283 0.4216248 -0.481937 0.7071936 0.6866158 0.87774867 -0.24712348 0.0075080036 -1.1730088 -0.054409165 0.086312585 -0.1059751 0.3317578 -0.7654373 0.77474445 0.8512293 0.91006094 -1.1351403 0.45400184 0.9226951
BathroomPIR 0.061796326 -0.34639192 -0.9597642 0.41316435 0.28580204 -0.76016825 0.60076314 1.1105932 0.11509254 -0.3310647 0.34591663 0.29780257 -0.6915071 0.3437822 0.61179036 0.34800658 1.162789 -1.075166 1.0179518 -0.5705605 -0.20995884 -0.6573095 -0.8814117 -0.23464617 -0.49480397 0.37440994 0.19097766 -0.06358458 -0.48939994 0.7183676 -0.6119995 0.41637665 0.98753715 -0.19083093 -0.50061387 0.20454405 0.45322552 -1.0369788 -1.1346558 -0.54545695 -0.75678647 -0.13361989 0.62910354 0.5606142 -0.69023037 -0.5896543 -0.021570098 0.28470778 0.93562436 0.28334013
BedRight -0.21070008 0.14961548 0.6473796 0.54109097 -0.55524737 0.1898533 -0.40494964 0.42173764 -0.5904662 -0.49360207 0.01971067 -1.12252 -0.63174117 0.931322 -0.25462952 -0.031775214 0.4977603 0.48180014 0.26791018 0.51153654 -0.22586471 0.6838769 -0.41845018 -0.4893944 -1.3307697 0.48324183 0.4540933 -0.33980915 -0.34719884 -0.46162963 0.31311804 -0.026268072 -0.11216608 0.5985057 0.7172836 -0.13905574 -0.43958607 -1.0954989 -0.42133543 0.76600707 0.2939638 0.4407485 -0.10538614 -0.14123149 0.28911886 0.16191977 0.10888527 -0.64456534 0.7223853 0.57114977
BedroomPIR 0.14734714 0.26184973 0.12139269 -0.057333086 -0.25132552 0.68765193 -0.617901 0.1380666 0.21338798 0.42835465 0.108302094 0.110258855 0.15887447 0.12155194 -0.27027342 0.08879178 0.25945324 0.21331486 0.576531 -0.34214863 -0.2840977 0.012348099 -0.06887216 -0.7464291 -0.40665057 -0.34008634 -0.008050511 -0.28012824 -0.35395008 0.541592 -0.05904619 0.075522475 0.3367143 -0.104875855 0.087590136 0.59824896 -0.13476448 -0.47817132 -0.8410526 0.104388125 -0.22426297 0.38508818 -0.40673536 -0.039922945 -0.5418471 0.48745298 0.48401648 -0.68684626 0.19054048 0.08062987
Dresser 0.16127805 -0.8916843 0.05898203 0.56078255 -0.51063484 0.55150926 0.4615846 0.17684591 0.4099883 -0.3817517 0.5488973 0.05130293 0.3470075 -0.06097129 0.22335586 0.03162555 0.40734297 0.10852629 0.05814283 0.18174051 -0.35799056 0.03656708 -0.20612572 -0.24594378 -0.21873808 -0.014487379 0.25491154 -0.55705386 -0.33740628 0.28087875 0.11789996 0.6952334 0.5225031 0.24910787 0.47768834 0.39149988 -0.68195516 -0.5379214 -1.2857449 -0.1654174 0.22236806 0.33612153 -0.094756834 0.043397333 -0.5610871 -0.067267895 0.55482346 -0.83213395 0.026137529 0.42424986
Piano 0.29154333 -0.15842824 -0.12172005 0.27366823 -0.23629807 -0.057497162 0.1305622 0.38132852 0.16455816 0.052949514 0.20239279 -0.44870457 -0.14177534 -0.06315095 -0.30703995 -0.29421413 0.12108715 -0.16451134 0.2983287 0.18140894 -0.18270013 0.1333964 -0.07834577 -0.42164472 -0.58204454 0.26185426 -0.30331522 -0.076458596 0.15586205 -0.02695497 0.3136144 -0.17552862 0.22445689 0.059355665 0.12158218 -0.125039 0.19617398 -0.4938265 -0.22954078 0.02968432 -0.83798784 -0.017459748 0.046407 0.036606226 -0.02843816 0.007739491 0.09044012 -0.45997795 0.13115029 0.14011256
CutlaryDrawer -0.076806754 0.050773896 -0.12381507 0.27757403 -0.05146068 -0.01318964 0.13705805 0.29478204 -0.2341827 0.036266543 0.42226315 -0.31632298 -0.15012957 0.41079918 0.11360031 -0.060962107 0.49227664 -0.37547615 0.069222696 -0.008867719 -0.027141143 0.03165557 -0.050957743 -0.6103871 -0.7204827 -0.044965178 0.28798667 0.013836346 0.044972584 -0.04363332 0.103263535 -0.10681505 0.20801413 0.04628105 0.2896865 0.1326216 0.16134909 -0.43417934 -0.39612493 0.24726884 -0.25366044 -0.10042663 0.18500033 -0.032970794 0.042281702 -0.015391267 0.177799 -0.21703088 0.32790655 0.27926043
Chair 0.22319838 -0.07905736 -0.29603773 0.13781136 -0.056007933 0.0033690874 0.10423486 0.39220637 0.08046424 0.09534449 0.15691456 -0.11721488 -0.18664981 0.059737734 -0.040680546 -0.18963131 0.34039742 -0.15821075 0.4115971 0.02759424 -0.20061174 -0.044188887 -0.16250032 -0.33144924 -0.38889247 0.03473302 -0.10207209 -0.10922983 -0.12556562 0.12544905 0.021871738 0.09067898 0.29780674 -0.030400809 0.023040807 0.15134825 0.2046662 -0.5263419 -0.46271047 0.0054958165 -0.569903 0.11186749 0.037987586 0.23200741 -0.24747929 -0.010214795 0.14179435 -0.26983917 0.29714268 0.23670794
ToiletDoor 0.21383294 -0.16365428 -0.3511712 0.15090403 -0.025705017 -0.15027507 0.27857614 0.37739632 0.08979383 0.055435102 0.13151476 -0.027269103 -0.18246682 0.004110782 -0.0274271 -0.16545992 0.3175638 -0.1920166 0.3495267 -0.0055049295 -0.18567555 -0.11923608 -0.15928477 -0.19735865 -0.25147668 0.09596945 -0.13642503 -0.03747315 -0.048897963 0.1318743 0.0020941612 0.08730739 0.2550199 -0.085938856 -0.08810524 0.109170705 0.30976397 -0.43787244 -0.38446277 -0.0718985 -0.5790251 0.04274009 0.14540215 0.26224133 -0.16476423 -0.07879568 0.10787327 -0.13619082 0.32846424 0.28974038
Fridge 0.33482057 -0.1457753 -0.3056403 0.16188183 -0.14226952 -0.046656735 0.3510392 0.352031 0.052085448 0.21513472 0.103269994 -0.20328845 -0.12411815 -0.06447753 -0.26175556 -0.42771134 0.23727843 -0.00314352 0.3052606 0.1887784 -0.26082203 0.00960769 -0.03757358 -0.31319997 -0.3258219 0.054565467 -0.2554464 -0.03788189 0.031135457 -0.00030079612 0.20060219 0.0075991102 0.14425217 -0.06660844 0.034495644 0.13972273 0.4031638 -0.49588868 -0.32894215 0.092753835 -0.80556023 0.11957476 0.11708474 0.30743468 -0.043926768 0.02058804 0.22625254 -0.306613 0.3522866 0.48628333
BedroomDoor 0.16557375 -0.19523598 -0.058816433 0.18625857 -0.17854525 0.09153654 0.18817933 0.24109869 0.019076321 -0.027109541 0.08752359 -0.18499075 -0.03945349 0.078205094 -0.13034332 -0.16121876 0.24683735 0.035823356 0.18211262 0.08941689 -0.23905955 0.07225174 -0.02738997 -0.28187537 -0.28213438 0.050736144 0.0392055 -0.119948685 -0.07217427 0.0365329 0.16048644 0.103916965 0.10157644 0.104787745 0.15320589 0.1595517 0.041556574 -0.37999678 -0.43196332 0.04342562 -0.26346678 0.1078027 0.055258214 0.058124874 -0.039945908 0.058957294 0.20449813 -0.35040262 0.24459705 0.32754987
StoveLid 0.35220298 -0.13029432 -0.33190998 0.15541066 -0.15047327 -0.045264803 0.3482323 0.38611847 0.02844248 0.25053814 0.11839943 -0.22503586 -0.17232297 -0.07616459 -0.30143422 -0.50096345 0.2306587 0.033427734 0.3269981 0.23413768 -0.26466325 0.04370289 -0.057070296 -0.32895452 -0.3812426 0.05069005 -0.30083725 -0.036534064 0.06099813 -0.03503979 0.22449784 -0.004321562 0.14057863 -0.07204978 0.029998025 0.13288727 0.4484009 -0.52787083 -0.29768512 0.13427913 -0.87834066 0.14433964 0.09174535 0.34869882 -0.041694123 0.023622457 0.21881935 -0.3348594 0.36766678 0.5279772
Frontdoor 0.30264622 -0.10552396 -0.23066929 0.1245376 -0.17246531 0.030074228 0.24747388 0.30930665 0.03909469 0.22531068 0.08511133 -0.2030464 -0.10048272 -0.06415327 -0.28333732 -0.41969362 0.17662108 0.05901477 0.26033938 0.19070712 -0.24100496 0.05451565 -0.00094862754 -0.31861725 -0.32681367 0.04545959 -0.23168972 -0.046810668 0.044395242 -0.017383501 0.22336324 -0.017670296 0.101742305 -0.031139847 0.04397912 0.12843515 0.34824693 -0.44967175 -0.29895017 0.12245813 -0.7203945 0.12812003 0.047264595 0.24187395 -0.021489328 0.05660277 0.222995 -0.3370625 0.3036421 0.41190776
Sink 0.26856315 -0.1870606 -0.2257221 0.18414865 -0.2032431 -0.022432137 0.25655997 0.36936215 0.0016748952 0.05082027 0.110709496 -0.25412533 -0.122961 0.06355692 -0.20568836 -0.3206567 0.33076438 0.00045570655 0.31759417 0.16217554 -0.31121534 0.030441636 -0.07754522 -0.36717844 -0.4142849 0.08165866 -0.07384907 -0.06917715 -0.03403617 0.039729703 0.21035434 0.093810804 0.16266549 0.0023821655 0.13096143 0.1926175 0.25468394 -0.5279415 -0.47160724 0.07006671 -0.60636055 0.11637508 0.096407056 0.16814712 -0.06468439 0.030893575 0.25047225 -0.3851447 0.38296092 0.45580003
ToiletFlush 0.22351328 -0.16617544 -0.2952729 0.14707537 -0.059541315 -0.09915782 0.28497997 0.35546538 0.051406037 0.058725875 0.09193025 -0.09861284 -0.15901047 0.021659264 -0.09253671 -0.21995246 0.31382596 -0.13441326 0.3202011 0.02958734 -0.20516779 -0.050994687 -0.115026675 -0.24581452 -0.28517446 0.096625105 -0.091007866 -0.043021906 -0.04220166 0.083289586 0.07444787 0.07785298 0.20094205 -0.027678324 -0.011476758 0.12818085 0.28595376 -0.44068637 -0.36900693 -0.026266158 -0.5701976 0.039014623 0.14361599 0.23133269 -0.10174015 -0.035276964 0.1318338 -0.2030987 0.32429036 0.3274631
BalconyDoor 0.28569573 -0.13428608 -0.21799874 0.18225017 -0.18854125 0.020415902 0.2641409 0.33537704 0.034416035 0.16602096 0.10685323 -0.23914589 -0.12836373 -0.019962627 -0.23729461 -0.37447307 0.24114896 0.01871232 0.2893562 0.17614019 -0.25697058 0.060237743 -0.036470912 -0.33611885 -0.39042008 0.07112178 -0.18325362 -0.060567304 0.020282684 -0.008500082 0.2184402 0.018966962 0.14755493 -0.017546965 0.07237641 0.13440526 0.28958207 -0.48207927 -0.36081713 0.12334667 -0.6666375 0.13267522 0.073410235 0.22193612 -0.04547956 0.046800658 0.21852595 -0.3562466 0.32273427 0.42417032
Microwave 0.28096056 -0.15266316 -0.25032526 0.18804628 -0.15294902 -0.023192858 0.28979722 0.37575138 0.013065077 0.124747664 0.10376389 -0.22074999 -0.13088693 0.015512567 -0.21374032 -0.3411014 0.2851485 -0.0064763986 0.3025752 0.13260435 -0.27301764 0.035322897 -0.07500891 -0.33318812 -0.37645078 0.07866919 -0.12737305 -0.07955801 -0.014564414 0.025088502 0.17855519 0.05699206 0.17182261 0.0029161847 0.07629423 0.15278564 0.28157455 -0.512665 -0.40763533 0.08400478 -0.6527822 0.12658188 0.10919526 0.24238165 -0.06274716 0.030586705 0.21941796 -0.33714697 0.37065825 0.4623185
Toaster 0.27659637 -0.1474773 -0.20938177 0.1788654 -0.17403804 0.007415494 0.2671355 0.34105825 0.013067417 0.12288455 0.09745015 -0.21124136 -0.13913396 0.0056903698 -0.20756187 -0.33986685 0.26424757 0.014719868 0.27430323 0.16320416 -0.25482115 0.038002856 -0.05299504 -0.31649828 -0.35899618 0.061243128 -0.13714945 -0.08362719 -0.011291087 0.006405052 0.2009242 0.04611524 0.13053574 -0.0027531805 0.095770836 0.14109205 0.28244105 -0.4731878 -0.38070798 0.09122073 -0.62516373 0.10829802 0.08047933 0.21872737 -0.043781515 0.038711928 0.23302484 -0.34366477 0.34659022 0.4366154
Window 0.19436334 -0.16488962 -0.11971871 0.18561743 -0.16895485 0.037869193 0.2191141 0.31355083 0.0077926917 0.0035256413 0.10455788 -0.2036559 -0.0886383 0.063896485 -0.12940602 -0.1766343 0.28100118 -0.043376625 0.24960604 0.05911514 -0.24326853 0.02639072 -0.07108779 -0.33982491 -0.3515873 0.062164642 0.017904079 -0.10535989 -0.055316716 0.06872214 0.14732791 0.08029773 0.16406238 0.06402601 0.11793939 0.16639958 0.1060384 -0.4403046 -0.4579107 0.040720217 -0.40923584 0.085206605 0.07011335 0.09024134 -0.055379383 0.047914296 0.2146749 -0.32588366 0.30234534 0.33344498
CupboardPlates 0.23410006 -0.12311115 -0.20476641 0.12719591 -0.10812257 -0.021932608 0.25054294 0.2746304 0.014035103 0.11654155 0.077052295 -0.1358751 -0.090015955 -0.01622149 -0.17316651 -0.27292642 0.18932825 -0.018244432 0.21874999 0.119071975 -0.19766982 0.0074150297 -0.035395466 -0.23378628 -0.25725642 0.036064576 -0.14513949 -0.04251491 0.008682892 0.0063818297 0.1491366 0.03498695 0.1216467 -0.029041726 0.026565036 0.107214175 0.2566223 -0.35452154 -0.2773615 0.059764594 -0.5379407 0.08212432 0.09636651 0.2070027 -0.03762952 0.01638493 0.16590181 -0.22767977 0.25833356 0.3519792
CupboardGroceries 0.055697266 -0.036540527 -0.020158367 0.04142858 -0.0441103 0.011476932 0.055317584 0.06318258 0.010444817 0.005921833 0.012870173 -0.04448213 -0.025383875 0.010385027 -0.02599409 -0.0421169 0.06611906 -0.0056836987 0.046532106 0.0075971186 -0.06191349 0.000263003 -0.005330647 -0.06924493 -0.07808239 0.010575022 -0.0005450349 -0.015423731 -0.01782859 0.004448314 0.03261515 0.018175947 0.029575996 0.016136412 0.018679895 0.034028146 0.030744923 -0.09071103 -0.08962689 0.016551532 -0.101200245 0.028249552 0.01677314 0.015885968 -0.007893268 0.009255615 0.043436088 -0.069961496 0.07778627 0.07762295
