22 50
BedLeft 0.57507557 0.032755274 -0.18372245 0.5628468 -0.09482105 -0.841266 -0.30788523 0.68132323 0.5435129 -0.050496418 -1.1783352 1.4327149 0.35050437 1.4528813 -0.838515 0.3700197 0.3403496 -0.0054634796 0.12598589 0.4277737 -0.6885152 0.11413748 0.8701581 -0.059992574 -0.77819824 1.1599113 -0.19451208 -0.5309851 0.057689823 -0.6522601 0.4317779 0.2509017 -0.93483925 -0.22452956 -0.7863013 0.8575332 -0.88720375 -0.560364 0.36049184 0.119143136 -0.40685928 -0.534259 -0.79524475 -0.90061915 -0.24759275 -0.5080645 0.74206036 -0.9644934 0.84497505 -1.1794395
KitchenPIR -0.91608924 -0.046796802 0.29460177 0.4954072 -0.19493884 0.0643167 0.036324807 0.089308925 -0.13459145 0.42759484 -0.6725331 0.42274022 -0.3228569 0.4886171 0.18659851 -0.29069182 -0.15171897 -0.25895244 -0.91488194 -0.6487734 -0.09468264 1.0833814 0.15428756 0.29792872 0.5423955 0.14684932 -0.19700064 0.73189443 -0.48829368 0.04293295 -0.32061198 -0.22279611 -0.24861537 -0.0017003205 0.40014204 -0.119978495 0.30752513 -0.61609954 0.3746574 -0.26628187 -0.94246304 0.4009751 0.2272799 -0.4979004 -0.005426412 -0.5953651 -0.3655243 -0.41105905 -0.071348496 -0.89427817
BathroomPIR -0.5933324 0.72494423 0.9830043 0.045045044 -0.12993518 -0.2185736 -1.6039397 -0.17774238 0.28723872 -1.238645 0.6419192 -0.48837227 0.34122634 0.7978935 -0.02784884 -0.41784135 -0.5598484 0.6896162 -0.24631558 -1.0624881 0.8334048 0.271622 -0.8841838 -0.1337664 0.34263518 0.8205451 -0.280595 1.0345105 -0.54465526 0.8944344 0.46951014 -1.2715529 -0.25404924 -0.13313724 1.2114458 0.004062296 -0.38966638 0.42224324 -0.20436901 -1.073039 0.14218685 0.41030374 0.45846146 0.5153131 -0.025353031 -0.0027111045 -0.0837487 0.11114035 -0.12795183 0.15938334
BedroomPIR 0.21120426 0.2942746 0.09946488 -0.03706708 -0.107899986 -0.0043193265 -0.75144446 -0.018374948 0.1993924 -0.26588893 -0.19808714 0.22326905 0.0049470626 0.34438586 -0.07522469 0.13560724 -0.26685026 0.3149768 -0.16590157 -0.0454162 -0.22654812 -0.029199114 0.072064966 -0.08424728 0.012389183 0.51281166 0.34089965 -0.081545 0.2122752 -0.12840788 0.31055376 -0.086975895 -0.34918267 0.1701916 -0.043191943 -0.021522256 -0.58156157 -0.17824091 0.110225804 -0.13562699 -0.002658776 0.029185958 0.085000336 -0.27858686 -0.016599506 0.037591763 -0.046453614 -0.03224228 0.07735929 -0.3051912
Dresser 0.14453967 0.7601641 0.041852854 -0.08892005 0.39023137 -0.047851868 -1.3263108 -0.053854443 0.41442272 -0.5985958 -0.12580657 0.40896577 -0.009428223 0.40685263 -0.22687374 0.46991175 -0.21286494 0.45536214 0.032109987 -0.3271815 -0.09904618 -0.3884378 0.3380154 -0.104132384 0.22588986 0.6603912 -0.18672621 -0.4772023 0.3071006 0.18841198 0.37554 -0.46724647 -0.60802436 0.25125703 -0.02652608 0.06502563 -0.6022355 0.18805651 0.31946582 0.0026527662 0.12782654 -0.22126772 -0.34783554 -0.056971416 0.34237987 0.1563818 0.011870544 -0.4634519 0.17838891 -0.3231262
Piano -0.29465342 0.08584742 0.11613521 0.30588135 0.10420023 0.06523728 -0.547593 0.039214723 0.16280162 -0.28500423 -0.22371037 0.10981867 -0.1521016 0.59489495 -0.1644545 -0.024970027 -0.16058931 0.06970351 -0.21728839 -0.21518719 -0.019274758 0.37460816 0.14743648 0.063799225 0.11536075 0.3581085 -0.14250822 0.07542867 -0.12508911 -0.010756957 0.006164537 -0.3838848 -0.1723013 0.13877638 -0.033108223 -0.12101628 -0.3520857 -0.12166572 0.2033261 -0.22163168 -0.085628405 -0.049064636 0.21348374 -0.2774753 0.108746335 -0.038975917 0.09679899 -0.08236185 -0.16391912 -0.4508457
BedRight -0.047588937 0.3361691 -0.028357273 -0.113546185 0.03591511 -0.16786292 -0.7288706 0.1943668 0.30678838 -0.020033406 -0.16731827 0.2717709 -0.07696168 0.37860382 -0.19117655 0.026836047 -0.18916471 0.285506 -0.24458535 0.08587357 -0.24855356 0.08816923 0.02893412 0.048159316 0.13892882 0.41526595 0.29633886 -0.056955084 0.25947148 -0.19429196 0.34300876 0.032833327 -0.4425501 0.032745045 -0.032071292 0.17315832 -0.5179166 -0.08304803 0.2766948 0.032089196 -0.20951226 -0.038311496 0.10722682 -0.3217237 0.07860183 -0.09195001 0.017820014 -0.19178154 -0.0277323 -0.58532953
CutlaryDrawer 0.047443002 0.34169662 -0.049775776 -0.17143215 -0.12153885 -0.18140155 -0.6160907 -0.010511477 0.2108926 -0.40638468 -0.03185105 0.22269914 0.054310005 0.43313318 -0.23415886 0.031029506 -0.056027845 0.22088936 -0.0517212 0.06652248 0.05746806 0.14619875 -0.049719766 0.038956173 -0.03746629 0.52189314 0.06952879 0.005630939 -0.046870008 0.0840141 0.36666012 -0.32218227 -0.23400754 -0.07773953 0.013174396 0.16025113 -0.4287789 -0.04575586 0.06771144 -0.16840214 0.06499421 0.10190415 0.115235604 -0.18698208 0.033243537 0.11426168 0.16485023 0.026337294 0.0012887272 -0.1955582
Chair -0.25651324 0.22426514 0.23683889 0.17451853 -0.069087364 -0.081992656 -0.4981773 0.048292626 0.10024949 -0.18557009 -0.18986976 0.18709522 -0.029367192 0.4533819 -0.03316435 -0.06581037 -0.17020905 0.12906885 -0.3195832 -0.33372763 -0.017361978 0.34408647 0.0002562924 0.02908133 0.14643264 0.419157 -0.039319426 0.26423308 -0.14542638 0.0652394 0.10945116 -0.2977649 -0.2862565 0.009091483 0.21061233 0.0056740697 -0.22437766 -0.18985054 0.13704264 -0.26958272 -0.2490614 0.12598562 0.09338283 -0.21943192 0.025286686 -0.16973387 -0.048610296 -0.17550203 0.024072096 -0.38734517
ToiletDoor -0.3551125 0.21689922 0.29363897 0.15605724 -0.03989724 -0.027944643 -0.50586265 0.0010299593 0.064670704 -0.24964926 -0.07451087 0.060548473 -0.022713967 0.41355798 -0.008892272 -0.13245428 -0.2053042 0.13739683 -0.31253365 -0.40838617 0.11354484 0.34471434 -0.11161524 0.046708725 0.22255068 0.33978575 -0.10420415 0.37099555 -0.21655269 0.19387157 0.075725034 -0.39421147 -0.18498763 0.0077215377 0.33543912 -0.039028663 -0.12537226 -0.081933565 0.10642889 -0.32106927 -0.22123298 0.16824546 0.15150006 -0.06477941 0.013359592 -0.14340664 -0.09364051 -0.1100518 -0.05268583 -0.28833538
BedroomDoor -0.13264167 0.21701354 0.17321448 0.13411966 -0.020721028 -0.1035618 -0.50537324 0.08360591 0.14066702 -0.19470969 -0.21852635 0.24666357 0.014553306 0.46814558 -0.12207433 0.0077024708 -0.14416714 0.13487084 -0.21528338 -0.21427375 -0.05144668 0.23453973 0.048043355 0.020837544 0.0811136 0.41595247 -0.039828483 0.12519537 -0.07888164 0.017371701 0.15688208 -0.23420854 -0.30309567 0.020261386 0.10322803 0.08759111 -0.25925246 -0.12733041 0.15980047 -0.17685775 -0.20616576 0.025890347 0.011170043 -0.19233073 0.010289979 -0.13204089 0.012707969 -0.20363276 0.074624196 -0.37767965
Fridge -0.41551447 0.11866402 0.19215246 0.23874658 -0.0866839 -0.017297925 -0.31005517 0.041881066 0.027814798 0.01771745 -0.3371898 0.2470183 -0.13650696 0.44030756 -0.0006018933 -0.112568095 -0.15044181 0.021696664 -0.47719273 -0.37337056 -0.030382367 0.54342294 0.06258868 0.126793 0.26008013 0.2992147 -0.07866917 0.35392976 -0.20925978 0.04465841 -0.019740975 -0.24861611 -0.23984796 0.011663786 0.22639932 -0.037320927 -0.07877971 -0.29221228 0.21455473 -0.22827077 -0.43999442 0.1802865 0.14759013 -0.2837613 0.019036245 -0.2694812 -0.13569963 -0.21609013 -0.018402446 -0.5316722
StoveLid -0.34785205 0.18868405 0.23069492 0.23227035 -0.07595169 -0.08210129 -0.45167768 0.056046434 0.096458435 -0.079386964 -0.32693654 0.29082674 -0.07472883 0.52636313 -0.054539133 -0.06685414 -0.16173653 0.0861372 -0.4283883 -0.3774386 -0.035584778 0.47096384 0.066360064 0.09039302 0.20411648 0.41501802 -0.06595052 0.30631024 -0.18194795 0.05026074 0.047896598 -0.284181 -0.3129104 0.00070178095 0.22392274 0.020989353 -0.16590714 -0.24288987 0.19945282 -0.24552988 -0.39255294 0.14525644 0.1064749 -0.2822246 0.0070525478 -0.2631781 -0.08993745 -0.25890285 0.026463225 -0.538932
Frontdoor -0.35165268 0.12808518 0.17949587 0.23040715 -0.073007524 -0.029554702 -0.31188893 0.06557474 0.044740606 -0.016193617 -0.31315833 0.26202512 -0.08976999 0.42126128 -0.024419183 -0.08047546 -0.124206826 0.011268916 -0.39484724 -0.3163336 -0.0709063 0.43401557 0.08081198 0.097518824 0.21589267 0.29769108 -0.069108754 0.28279385 -0.17734252 0.027793882 -0.010949203 -0.22732066 -0.24651629 0.027828092 0.16527356 -0.007822671 -0.09978837 -0.24790202 0.19218819 -0.19746928 -0.3621479 0.13212559 0.086154945 -0.26339552 0.011693832 -0.21949823 -0.098037526 -0.20966107 0.0018834218 -0.4823417
Sink -0.321981 0.2896863 0.308969 0.1851679 -0.03463378 -0.091731906 -0.63558084 0.07377848 0.11250948 -0.29130274 -0.19687171 0.18829058 -0.0029298381 0.58643633 -0.07525733 -0.064132564 -0.18411896 0.17212588 -0.32346988 -0.40369782 0.07962598 0.391576 -0.007351547 0.04171508 0.20714422 0.5130532 -0.10483294 0.33084792 -0.17992608 0.12388971 0.13977121 -0.3876674 -0.317904 0.0019727156 0.27997088 0.027863057 -0.2540672 -0.11710385 0.15037477 -0.28876388 -0.28754112 0.12007426 0.116197646 -0.19043179 -0.001551095 -0.20305486 0.002713396 -0.18058997 -0.015506036 -0.44065621
ToiletFlush -0.33359072 0.2135967 0.28645325 0.17322835 -0.057152513 -0.066541396 -0.5289156 0.017623743 0.095363714 -0.24082306 -0.13052285 0.108268134 -0.0035435152 0.45884314 -0.036519475 -0.10819573 -0.20001046 0.14422663 -0.321253 -0.3754107 0.07443159 0.35957432 -0.06134182 0.032402266 0.18767239 0.37420046 -0.08661425 0.3333857 -0.19252776 0.14438964 0.09186359 -0.381993 -0.22247632 0.006406959 0.2922303 0.004076883 -0.17358492 -0.098893054 0.11506527 -0.29947862 -0.23332521 0.13729168 0.14200841 -0.116950355 0.017464053 -0.16071285 -0.060539473 -0.14987622 -0.02878966 -0.33643684
BalconyDoor -0.31698152 0.16878584 0.2103494 0.19699581 -0.080677204 -0.05978021 -0.3938837 0.057256278 0.07386388 -0.07097083 -0.28308928 0.2504142 -0.0762887 0.46079615 -0.031651635 -0.06720937 -0.15021735 0.06779794 -0.3746236 -0.32927287 -0.034079514 0.41944283 0.04242287 0.07911899 0.20126757 0.35560313 -0.048796628 0.29110944 -0.17671676 0.03265827 0.050494187 -0.25262716 -0.2637174 -0.0024755136 0.18279831 0.011573458 -0.12929073 -0.22667675 0.19046657 -0.20422003 -0.34535006 0.14424811 0.099540465 -0.25974417 0.015333594 -0.23399107 -0.0828387 -0.20819151 0.0059226737 -0.47858095
Toaster -0.33087528 0.17135003 0.21566862 0.2372327 -0.06666823 -0.07427756 -0.4310976 0.06999417 0.08581392 -0.07939493 -0.32259154 0.29041934 -0.055058174 0.5236452 -0.066442475 -0.07786943 -0.13516665 0.07846442 -0.39942756 -0.3404575 -0.030570064 0.45235732 0.06460063 0.081617616 0.20990066 0.3869796 -0.07109872 0.28795406 -0.20068836 0.051016957 0.05101467 -0.26104757 -0.317676 -0.002082629 0.21058144 0.039890725 -0.1594938 -0.25665972 0.21781312 -0.2458914 -0.37130427 0.12530169 0.101908244 -0.27238548 -0.0072859824 -0.25081283 -0.065988556 -0.25670838 0.024072744 -0.5401622
Microwave -0.26597103 0.220105 0.1990326 0.22344917 -0.053674765 -0.12416825 -0.4984665 0.08749217 0.13289091 -0.15158206 -0.32170781 0.3088926 -0.0281226 0.5566208 -0.09465873 -0.03468783 -0.15446007 0.117225625 -0.35087147 -0.30553922 -0.054152943 0.39669105 0.09361577 0.052845996 0.13671821 0.46784523 -0.07147079 0.2528681 -0.15115193 0.023944285 0.111004464 -0.27909845 -0.32890648 0.0050413427 0.16901499 0.073942564 -0.24878973 -0.22642082 0.20654249 -0.2420497 -0.31475088 0.094662026 0.066292256 -0.26866028 0.013752456 -0.24216554 -0.021757895 -0.270589 0.055810284 -0.5163722
Window -0.14775296 0.22712652 0.17800337 0.1334874 -0.018030902 -0.12232348 -0.52536625 0.064962804 0.15830757 -0.24747433 -0.18587081 0.21325062 0.032795377 0.49195716 -0.11432762 -0.0065932865 -0.1415492 0.14597161 -0.20818943 -0.23972812 -0.008169129 0.22645693 0.023829479 0.00016614911 0.06706205 0.44241372 -0.062089488 0.16622967 -0.08597975 0.062763125 0.16767707 -0.28301987 -0.2921926 -0.009134859 0.13853085 0.08845003 -0.28220552 -0.10752293 0.13824393 -0.22168556 -0.1598754 0.04195182 0.03238289 -0.1742008 0.008638582 -0.12397192 0.03670429 -0.19592027 0.071050294 -0.3591975
CupboardPlates -0.20327513 0.139321 0.14689495 0.14434206 -0.053867377 -0.06727452 -0.3425521 0.047200937 0.08705575 -0.090091385 -0.2071891 0.20198298 -0.02068456 0.3648787 -0.044581924 -0.043479435 -0.11393443 0.083485804 -0.243711 -0.2381421 -0.012604343 0.28106257 0.047369674 0.05733845 0.12582311 0.2968574 -0.04145548 0.20069286 -0.11959995 0.0290973 0.05706534 -0.19744533 -0.2243819 -0.0064577116 0.13638641 0.024442255 -0.15353237 -0.14321905 0.13288668 -0.17635256 -0.23722215 0.088170305 0.0606041 -0.18979794 0.008511146 -0.14751786 -0.03419015 -0.16600038 0.030653305 -0.339043
CupboardGroceries -0.053496208 0.056965817 0.049601145 0.03712364 -0.0052321698 -0.021619044 -0.15144257 0.0024254739 0.045713875 -0.06312284 -0.03812749 0.045369428 0.0063397996 0.12242404 -0.03308059 -0.0009586757 -0.032855246 0.0383542 -0.052387815 -0.06501513 0.0029564819 0.068765 0.0012216266 -4.5614433e-05 0.037349004 0.102701075 -0.020422123 0.052025408 -0.026695035 0.02803239 0.031991996 -0.08481004 -0.06373239 0.0037182956 0.055224586 0.007688779 -0.061387464 -0.018573564 0.03456336 -0.056205273 -0.046651557 0.02304179 0.01643989 -0.045029346 0.002405016 -0.038422085 -0.0013775183 -0.034469046 0.014662555 -0.09436528
