22 50
KitchenPIR 0.4749821 0.18226969 -1.2631273 -0.01291208 -0.026262457 -0.74651736 0.03545941 0.29208785 -0.4189012 -0.47191763 -0.36154518 -0.061279837 -0.47600114 0.15332456 0.29060283 0.28301296 -0.74664617 0.67336965 -0.21310407 0.5732335 0.5700408 -0.2677093 -0.43212798 -0.089204416 -0.64119506 -0.33400804 -0.1844814 -0.23362054 -0.043887727 0.0035621899 -0.6885452 -0.1733647 0.2256191 0.0900548 -0.36405212 0.37391564 -0.54212415 -0.51797205 0.6890143 0.3885118 -0.3193824 0.7641875 0.17915094 -0.028571762 -0.027315866 0.17828046 0.084818296 -0.33939117 0.86310714 0.41692016
BedLeft 0.9208515 -0.50638777 -1.064849 0.4501254 0.79194176 0.010614758 0.90959626 -0.17980464 -1.3999226 -0.39846903 0.49519843 -0.31793526 0.09675787 -1.1709403 0.06836272 -0.02551041 0.004197411 0.31986964 1.3318651 -0.049526952 -0.83492196 -0.8345598 0.16357595 -0.43875116 -0.67666805 0.12731232 0.095330775 0.10216248 -0.49268574 0.5100951 0.32109737 -0.7789034 0.507992 0.45987216 1.3522553 1.5912483 -0.47625196 0.38248068 0.11236039 0.29514793 0.47619113 0.22948256 0.30890545 0.18891172 0.5329004 0.35277614 0.38561907 -0.736241 -0.66140693 0.14693333
BathroomPIR 0.39039466 1.2556846 -0.0036713476 0.6728997 0.761891 -0.12802169 0.2365317 -0.26246464 -0.98823154 -0.9447778 -0.108519204 0.5797785 0.25370917 0.16162962 -0.3335849 0.80528194 -0.7124011 0.3250374 0.27789208 0.14103974 0.007483342 1.2229661 -1.2005479 -0.61591804 0.67733085 -0.34552473 -0.3862705 0.033681974 0.2664462 -0.31331596 0.27365443 0.7098241 -1.0930502 0.17237821 -0.42378804 0.42915168 -0.81970936 0.65087545 -0.6143515 -0.45707157 0.12021111 -0.50163835 1.2505295 0.29480886 -0.00673461 0.8832712 0.33886483 -0.14861938 1.038121 -0.5565923
BedRight -0.24817471 0.49979204 -0.17412065 0.51143944 0.9380168 0.15320429 0.97567576 0.73453176 -0.29623353 -0.46393532 0.73075795 0.032780726 0.5791524 -0.5897889 -0.6839881 -0.28317794 0.23383571 -0.18983947 0.64464074 0.040389623 -0.6367286 -0.16114913 0.06251525 0.38495165 0.51667553 -0.18600476 -0.43599302 -0.036170427 0.22909462 0.73419523 -0.034901198 -0.81026554 0.8293866 0.31039602 0.6188554 0.35385627 0.174323 0.4734869 0.0031236513 -0.629376 -0.07195443 0.38239318 0.27975333 -0.15098491 0.53551215 0.015427228 -0.014155236 -0.82821554 -0.15127689 0.25655836
BedroomPIR -0.378971 0.124205105 -0.047826968 -0.13055381 -0.015683621 -0.3776766 0.5377118 0.3919938 -0.1082213 -0.1508897 0.635082 0.38776758 -0.28617445 -0.50342077 0.0500733 0.017335586 0.21758871 0.096512444 0.4074958 0.13752507 0.3490353 0.07872874 -0.28822705 0.6988819 0.50322336 -0.2154289 -0.05607525 -0.27622926 -0.2970293 0.38776413 -0.18171367 0.15261993 0.4166946 -0.12469632 0.16624154 0.4084997 0.55804694 0.64921707 0.35460332 -0.3091046 -0.4507134 0.14374849 0.6933652 -0.10799111 0.5102049 0.090107255 0.5245047 -0.24928029 -0.4227575 0.35855368
Dresser -0.19934914 0.4665808 0.051043343 0.5553551 0.9400627 0.47355473 1.016778 -0.20917448 -0.6564035 -0.051903963 0.47528985 0.52070135 0.43589997 -0.32534942 -0.44731078 0.21107043 0.08138477 0.38535517 0.2799047 -0.237444 0.065237105 0.38019386 -0.13730103 0.094115235 0.14620301 -0.47950965 0.031696465 -0.62692034 0.2273231 0.47191435 -0.037632294 0.27459508 -0.07375007 -0.6742355 0.11284809 0.5204216 -0.0637375 0.7407621 0.24354267 -0.032725457 0.09328767 -0.42699647 0.5960585 -0.3217665 0.20574011 0.9350613 0.8309622 -0.6145279 -0.71446747 0.20788787
Piano -0.42618868 0.49840328 -0.486889 0.2574391 0.5360511 -0.6028029 0.3764678 0.29999647 0.08511648 -0.25413796 0.17755878 0.49952057 -0.10903778 0.18645331 -0.21909219 -0.0075062485 -0.43822944 0.38104177 -0.014092564 0.16487384 0.44164506 0.089474685 -0.46789828 0.2768168 0.28497708 -0.14519769 -0.39442036 -0.45617178 0.275699 -0.034533896 -0.58920467 -0.19258697 0.10265446 -0.2711959 -0.418759 0.03352425 -0.0361984 -0.06848101 0.60208637 -0.11173516 -0.40808356 0.1360686 0.5068958 -0.052383244 0.3728551 0.07984072 0.41829303 -0.13054775 0.59139705 0.34861812
CutlaryDrawer -0.4610604 0.06524394 -0.19472322 0.5113267 0.39333624 -0.095192865 0.39099059 0.3790917 0.08346398 -0.092814855 0.08244052 0.4104915 -0.1044999 -0.06654297 -0.092637695 0.23025906 -0.08446159 0.22895521 0.3060917 -0.0075368653 0.03138749 -0.09838944 0.11620968 0.44026598 0.3831547 -0.28774738 -0.33573872 -0.60097843 0.18935663 0.056455355 -0.1665273 -0.13342 0.4178096 -0.044588264 0.33505747 0.23255607 0.041189153 0.24111304 -0.013734745 -0.11033806 -0.23694809 0.1578869 0.544285 -0.19053084 0.2097045 -0.013808115 0.53263044 -0.11652834 0.28868985 0.30719107
Chair -0.009272708 0.27743307 -0.37364843 0.06861715 0.19262049 -0.34113547 0.25085664 0.22776726 -0.2543359 -0.27383953 0.113371015 0.19750457 -0.16255054 -0.11473914 -0.037355527 0.097308986 -0.20701228 0.25784445 0.13986419 0.19273046 0.1928101 0.054665565 -0.33514017 0.1386355 0.0808714 -0.18203549 -0.11695892 -0.1467795 -0.031636838 0.08765289 -0.22112426 -0.0076167597 0.124973536 -0.05764066 -0.04633298 0.29459634 -0.090743974 0.09010935 0.30368403 -0.051488027 -0.2306619 0.20971099 0.39656907 -0.03426334 0.17781238 0.20291261 0.23256633 -0.19897625 0.23271438 0.16964468
ToiletDoor 0.06592362 0.3959489 -0.38694182 0.216664 0.28151476 -0.30260104 0.2032843 0.12022171 -0.29591218 -0.35352758 -0.019542275 0.21718635 -0.06472845 0.028271612 -0.06709319 0.22314979 -0.36856076 0.29893318 0.042476274 0.2054487 0.2076492 0.15555674 -0.39950094 -0.023658521 0.055373326 -0.220462 -0.21892175 -0.18722351 0.089456536 -0.00021002867 -0.2245441 0.05102273 -0.068204924 -0.028704273 -0.17320901 0.2435394 -0.2588963 0.0379451 0.17264791 -0.04756507 -0.15879498 0.12723218 0.42943302 0.009369132 0.10890129 0.24805193 0.22145167 -0.19052464 0.46309415 0.09834958
Fridge 0.07160286 0.27683005 -0.67578506 0.15993795 0.24829881 -0.44974953 0.29179388 0.27418745 -0.28869113 -0.32921866 0.015724914 0.15275049 -0.19989286 -0.03052101 -0.00077438285 0.15321043 -0.39277676 0.39186144 0.054900073 0.2771342 0.2872308 -0.081496954 -0.3321803 0.11239791 -0.10772825 -0.24508595 -0.19921939 -0.27374053 0.026308095 0.10135458 -0.38556188 -0.14430194 0.21378529 -0.027052356 -0.121554196 0.3191648 -0.22430684 -0.06430995 0.42872968 0.045885235 -0.23428828 0.37143835 0.36943975 -0.06700124 0.17636171 0.19918393 0.24209596 -0.297192 0.41079164 0.30762443
StoveLid 0.10458794 0.27372342 -0.7021337 0.17760223 0.2641697 -0.4484785 0.30533138 0.26086056 -0.33158252 -0.35793632 0.004907625 0.15657285 -0.18557681 -0.04328676 -0.000578384 0.16224036 -0.402267 0.40121925 0.0663272 0.2853745 0.29462114 -0.07756644 -0.3551189 0.10074235 -0.106163494 -0.24548042 -0.20894414 -0.2801936 0.022818008 0.120485045 -0.4030166 -0.1485356 0.2031802 -0.0021438135 -0.1147681 0.3627135 -0.2325372 -0.05793372 0.42112747 0.05761015 -0.23657142 0.3797003 0.385329 -0.04732271 0.16521525 0.21582752 0.25484565 -0.3314053 0.43682075 0.30776557
BedroomDoor 0.07741213 0.16757384 -0.346673 0.2007249 0.31536376 -0.14089791 0.3536255 0.11349205 -0.33163682 -0.21666977 0.14916168 0.09736662 -0.009315394 -0.21625425 -0.09107569 0.07894738 -0.12141168 0.19412939 0.2292317 0.088942245 0.010426768 -0.052457653 -0.16447543 0.030913915 -0.0128765395 -0.15805882 -0.11709315 -0.14602983 -0.0044924794 0.17446369 -0.12358829 -0.104990356 0.16200954 -0.009930059 0.13064995 0.35407564 -0.112180956 0.14957912 0.19386111 -0.03245922 -0.05842607 0.13417731 0.29556793 -0.030472852 0.19039159 0.21048123 0.21982686 -0.29894662 0.049211647 0.1644011
Frontdoor 0.054935407 0.23098904 -0.55257505 0.14027914 0.22379242 -0.39838207 0.25791943 0.23146313 -0.22863147 -0.30001 0.022731734 0.15470265 -0.17684756 -0.01640158 -0.015867427 0.12474707 -0.32256457 0.3179227 0.047587205 0.24359928 0.27065125 -0.027215006 -0.30807945 0.09539513 -0.07584591 -0.21933109 -0.182821 -0.2342172 0.022821715 0.078620255 -0.35764974 -0.10094124 0.15462516 -0.01519349 -0.113850124 0.2795398 -0.16237065 -0.035928592 0.37373915 0.01305624 -0.2184083 0.31441334 0.33091125 -0.031794935 0.15833199 0.15343699 0.20783935 -0.26502672 0.35768363 0.25148875
Sink 0.04344869 0.31782228 -0.5884823 0.28868568 0.41655922 -0.32408646 0.39551795 0.28707996 -0.38452122 -0.31434774 0.08573611 0.18959692 -0.113426276 -0.15716065 -0.103949815 0.13948321 -0.31324896 0.36001423 0.17380232 0.2236938 0.1297116 0.001660657 -0.35330185 0.04667813 -0.0367015 -0.19871363 -0.21971771 -0.22748956 0.012125912 0.13786729 -0.30053446 -0.18328938 0.1582385 -0.03701728 0.0218087 0.42451513 -0.2049336 0.056169294 0.3540033 -0.039245553 -0.12792417 0.23879242 0.40767306 -0.07299948 0.24608888 0.20721312 0.28739133 -0.3321215 0.29322088 0.28538987
ToiletFlush 0.08780006 0.38154364 -0.28736863 0.25276646 0.32759228 -0.19694148 0.2615056 0.089489035 -0.34556884 -0.32417208 0.033030286 0.20174898 -0.0024270061 -0.04891304 -0.09966197 0.22022267 -0.29115713 0.23091806 0.12443561 0.14752942 0.11018912 0.17972998 -0.3687118 -0.037032906 0.09674606 -0.1886414 -0.185674 -0.1381785 0.07134551 0.028316181 -0.12023307 0.062498316 -0.09461604 -0.010173778 -0.07681169 0.2932861 -0.24485548 0.13954513 0.09602956 -0.08410356 -0.08333702 0.04318974 0.43467605 0.0045399563 0.1148007 0.29357412 0.22960643 -0.19818562 0.32487115 0.05155698
BalconyDoor 0.039728943 0.2385432 -0.59632945 0.15419133 0.24586305 -0.41400477 0.28287205 0.2684356 -0.23524536 -0.29989675 0.034894533 0.16845408 -0.17790863 -0.04217734 -0.013491024 0.13466063 -0.3467244 0.3584164 0.053128503 0.26335168 0.29369617 -0.074483834 -0.30271402 0.12667385 -0.08121447 -0.22638288 -0.19924222 -0.27563524 0.03536563 0.095917515 -0.39230782 -0.13766964 0.19579025 -0.04564153 -0.11074933 0.29109615 -0.177544 -0.05876897 0.4205829 0.032682557 -0.23256864 0.34614217 0.34095848 -0.054921266 0.16365016 0.16426793 0.24892005 -0.279997 0.38085377 0.3095275
Toaster 0.032401025 0.33626404 -0.5699303 0.19647361 0.270228 -0.39883557 0.30159009 0.23880893 -0.277418 -0.32771623 0.032521237 0.20621897 -0.14747754 -0.00036360713 -0.0208358 0.17227367 -0.38703263 0.36615482 0.048987437 0.24723718 0.2724605 0.014293536 -0.3490832 0.10316949 -0.037058335 -0.23959775 -0.21867867 -0.24144737 0.07161198 0.0735476 -0.3449646 -0.09810144 0.12876052 -0.04580768 -0.14456908 0.276266 -0.20041916 -0.008581399 0.36010045 0.0017111353 -0.23980008 0.2783429 0.39123973 -0.0403906 0.16290435 0.21551621 0.2342587 -0.2846988 0.42407283 0.24439593
Microwave 0.05084138 0.26697177 -0.5495114 0.21575083 0.31679597 -0.3300423 0.3408236 0.22274701 -0.3116888 -0.3219448 0.07449757 0.17974782 -0.115518965 -0.08295693 -0.048302475 0.15525724 -0.29695335 0.32773513 0.1403624 0.19644469 0.1808199 -0.02603682 -0.2932823 0.08099679 -0.03466639 -0.21373007 -0.18057929 -0.24570836 0.022454033 0.11888179 -0.29036424 -0.1232896 0.16396007 -0.0067933104 -0.023912154 0.3455266 -0.1884449 0.057973567 0.32258582 -0.007021883 -0.16729638 0.25472125 0.382007 -0.045028105 0.18031569 0.21212052 0.25480768 -0.304901 0.31278706 0.23195669
Window 0.026561689 0.26221278 -0.356155 0.23392798 0.35881463 -0.21191476 0.3593579 0.16568579 -0.3290095 -0.29022238 0.13328533 0.19065839 -0.00871879 -0.14643876 -0.11678585 0.12740138 -0.21188755 0.23559244 0.2034881 0.13391447 0.078409106 0.039061546 -0.2799309 0.051840983 0.083437264 -0.16816832 -0.1711896 -0.19276044 0.023380343 0.11294569 -0.1501737 -0.07493177 0.08476899 -0.01263449 0.044819064 0.33889052 -0.15764427 0.16599487 0.17801888 -0.07139885 -0.116521895 0.12609412 0.40937293 -0.024629168 0.18853965 0.23132502 0.26765007 -0.27836925 0.20399976 0.15289536
CupboardPlates 0.06129234 0.2075595 -0.50207645 0.1679117 0.23807219 -0.31292778 0.26150534 0.21286671 -0.25222394 -0.2704744 0.034828357 0.13103597 -0.12657706 -0.046737637 -0.018674366 0.11941629 -0.28993943 0.3049878 0.082907274 0.20962073 0.17963459 -0.045188166 -0.2553809 0.06988617 -0.07700494 -0.18540184 -0.1579852 -0.2127684 0.035432674 0.102229044 -0.28637308 -0.12262051 0.15853693 -0.01532532 -0.06737009 0.2649153 -0.18753032 -0.030220019 0.313815 0.023807267 -0.16201974 0.25763154 0.29665315 -0.05334649 0.13146986 0.16040951 0.21055838 -0.24921064 0.32281628 0.23622946
CupboardGroceries 0.010824971 0.086339734 -0.11166212 0.060393773 0.095239215 -0.060455974 0.098316416 0.0465072 -0.08805591 -0.06985976 0.03319646 0.04488162 -0.00789195 -0.034844108 -0.038110297 0.03678588 -0.05341443 0.07180735 0.04814716 0.035124786 0.03184445 0.013037492 -0.069106996 0.013818142 0.027262535 -0.057352714 -0.05490753 -0.06668672 0.013618595 0.030746363 -0.042997353 -0.014450722 0.033909757 0.0033814707 0.01095932 0.099213995 -0.048865896 0.047812413 0.060228396 -0.010997954 -0.020671844 0.039812535 0.11883015 -0.01876719 0.050433364 0.06948552 0.06860818 -0.06892318 0.064210266 0.04294844
