22 50
KitchenPIR 0.38397187 -0.27948385 0.59259903 -0.45158395 -0.17816342 0.5297997 -0.5899016 0.42434993 0.87060434 -0.27187017 -0.5090721 0.20974135 -0.6868176 -0.03322976 0.08155743 0.6787763 -0.1172521 -0.35321012 0.13855922 -0.12605473 0.78670835 -0.15664938 -0.5121599 0.357794 0.2220601 0.48632246 0.37291774 0.5002093 0.16006403 0.26981 -0.5952018 1.2331058 0.66441435 -0.36759537 0.22047094 0.08685283 -0.510037 -0.3776006 -0.035055228 -0.1979273 -0.8494698 0.062617265 -0.2070569 0.12919345 0.093850344 0.73197955 0.53983295 -0.40552017 0.32699758 -0.7530197
BedLeft 1.0040685 -0.43535495 -0.04649817 -0.08974689 -1.1539233 0.4446129 0.53491604 0.8972815 0.64183277 0.1241673 0.4793377 0.43190747 0.048282243 0.42125654 -0.23886128 0.54797214 -0.57292664 1.1119347 0.87663376 0.8912333 -0.8008502 -0.011685606 0.48796156 -0.2157126 0.27532125 0.70872533 1.3179089 -0.5589532 -0.5536199 0.75078285 0.19147259 0.46490183 0.47029215 0.3997925 0.052285086 -0.4244938 -0.05428475 -0.58312196 -0.5519928 0.19477618 -0.76107955 -0.86116785 -0.6903573 0.3652225 0.7224303 0.61345375 -0.682525 -0.7245274 0.14424828 -0.6006301
BathroomPIR 0.39590913 -0.20094922 1.1028184 0.23592465 -0.5152275 0.373859 0.26911485 0.07329216 -0.1586385 0.22265635 0.29735816 0.08567534 -0.92537284 -1.319064 -0.6453844 -0.57356465 1.066589 0.31562933 -0.4541421 -1.3699398 -0.19922893 -0.16935803 -0.043470386 0.60591686 0.80343676 0.39166695 0.26959124 -0.248139 -0.32932734 -0.6689236 0.57544976 0.7224914 -0.10630909 0.032861948 1.280585 -0.22962016 -0.81109226 -0.6575629 0.3810571 -0.01963462 0.18722153 0.7600798 0.6070887 -0.255339 -0.050624985 -0.28682208 0.96085155 -0.28189826 0.06838659 0.3231546
BedRight 0.13920124 -1.0195595 -1.2035056 -1.14637 -0.5160448 -0.22571069 1.0491992 0.3166804 -0.26371372 -0.20111318 1.0594368 0.8981106 -0.071910955 -0.1394467 0.012821693 0.40627158 0.49476317 0.46305645 0.11171746 -0.40265352 -0.27346355 -0.29429358 0.15046129 -0.5127946 0.18228135 0.049663495 0.033385996 -0.5051806 -0.94956774 -0.15955612 0.19103947 -0.17608854 0.6641329 -0.3837124 0.77167016 -0.34708998 0.3676623 -0.0912134 -0.17269452 -1.0702949 -0.04688449 -1.2082187 -0.89461166 -0.18023463 -0.007622583 0.31400004 -0.10902207 -0.23120385 0.07517894 -0.30680332
BedroomPIR -0.13537005 0.09278978 -0.761412 -0.039539553 -0.72436386 0.2524538 0.44306117 -0.06551724 0.22050564 0.5076615 0.43530747 -0.24762078 -0.37814718 -0.020918876 -0.69060224 0.33916262 0.28449562 0.037671886 -0.38218942 0.32551366 -0.11611244 -0.083504125 0.14720628 -0.20502816 0.25666422 -0.04115451 0.17442922 0.21130167 -0.59483355 0.4963925 -0.31171182 0.5056696 0.49868187 -0.20310378 0.21920784 0.091849245 0.04425601 -0.5175379 -0.21460478 -0.53123134 0.08757826 -0.24466182 0.28807038 0.79555815 -0.36031157 -0.113878585 0.1487842 -0.3324385 0.22168235 0.1296424
Dresser 0.17933238 -0.63759524 -0.33459032 0.51631105 -0.5670088 0.25157532 0.40836102 -0.11743118 0.32440272 0.63552195 0.37603158 0.47678527 -0.14800692 0.10841703 -0.6610567 -0.3399478 0.043217238 0.66892326 -0.34574056 -0.46901023 -0.7958419 -0.42236787 0.025603592 -0.14605355 0.5556112 0.65232265 -0.0366734 -0.5563701 -0.79534954 -0.43211123 0.54086393 0.24764083 -0.4150895 -0.27463248 0.6960533 -0.47846308 -0.62510365 -0.63563687 -0.15381418 -0.03170416 0.14566043 -0.633436 -0.053771526 0.4935599 0.025996463 -0.24763651 0.029652629 -0.6606933 0.1776221 -0.04969107
Piano 0.08805481 -0.4775553 -0.090197094 -0.37144014 0.08060339 0.26117972 -0.07102023 -0.103672914 0.3282779 0.0039461367 0.028291933 0.5310985 -0.6949223 -0.29552418 -0.26938966 0.15347105 0.35156623 -0.3539375 -0.14948761 -0.7050214 0.3336526 -0.06659139 -0.40084973 0.016936902 0.034480788 0.11749675 -0.05241885 0.41713762 -0.05955863 -0.12531365 0.13039577 0.5245535 0.46424937 -0.4588271 0.48808038 0.06698119 -0.31975803 -0.2114159 -0.13149828 -0.6791897 -0.1787494 -0.3055424 0.021166675 0.20380141 0.026641587 0.0332574 0.5716788 -0.1259088 0.36878398 -0.03965508
CutlaryDrawer 0.05997317 -0.2389902 -0.21343721 -0.30668417 -0.17541118 0.1879846 0.3533844 0.14226003 -0.019956192 -0.012701419 0.0018046659 0.118954085 -0.4405083 -0.24027807 -0.34128582 0.0037124264 0.26522046 0.2094686 -0.007645743 -0.28389955 -0.08609977 -0.08571997 0.008646473 0.16916437 -0.010955384 0.06837262 -0.025410818 -0.05307697 -0.3498417 0.04550481 0.23315647 0.1883402 0.24893604 -0.27867398 0.35581803 0.2530619 -0.10768754 -0.29250032 0.013477616 -0.455188 -0.16908988 -0.082046315 -0.10798875 0.2884419 -0.20559347 6.268965e-07 0.22868136 -0.1472606 0.30809754 0.033300538
Chair 0.093516186 -0.1985094 0.07497267 -0.15441741 -0.25339288 0.24098311 0.010582363 0.084232934 0.25999922 0.04240435 0.062226217 0.12140491 -0.4271355 -0.19370636 -0.23264274 0.12860091 0.24975038 -0.017970819 -0.1153223 -0.28230202 0.12275998 -0.118579976 -0.15721379 0.089052066 0.22293423 0.19180354 0.12891774 0.14687009 -0.19963834 0.008552865 -0.08099405 0.49825194 0.25962782 -0.18861309 0.333776 -0.01459654 -0.25628147 -0.30908954 -0.03803296 -0.27033862 -0.16479094 -0.041994795 0.021924054 0.14539476 -0.033696014 0.11053125 0.3311602 -0.21280912 0.18360592 -0.124648824
ToiletDoor 0.15999457 -0.23830184 0.12852849 -0.1250633 -0.21615867 0.2235887 0.03834455 0.10201023 0.22100563 0.04669806 0.07051402 0.17836541 -0.38907516 -0.24419877 -0.18962638 0.086885385 0.21840231 0.035382144 -0.094928294 -0.33734444 0.080677986 -0.11255242 -0.1310824 0.11678294 0.2193024 0.2324274 0.110266924 0.03579434 -0.17757808 -0.07127477 0.019680738 0.45837036 0.18555535 -0.18036039 0.38966748 -0.049287092 -0.2923002 -0.28998432 -0.008010639 -0.21359503 -0.16801584 -0.056916315 0.002990779 0.07832697 0.0046384395 0.11471072 0.31981277 -0.23357175 0.15912163 -0.13804214
StoveLid 0.1970748 -0.345654 0.12566495 -0.34206772 -0.24126948 0.31444013 -0.08810223 0.18119898 0.42093867 -0.038071483 -0.037817508 0.2637744 -0.51699936 -0.1785699 -0.13368243 0.30830833 0.19140616 -0.106095724 -0.05800993 -0.3250432 0.31438172 -0.14911053 -0.28162947 0.14352039 0.22770493 0.28398862 0.14603752 0.21732867 -0.1800183 0.04094486 -0.18566804 0.7209794 0.3993476 -0.32534146 0.4076307 0.011443972 -0.33525315 -0.35864803 -0.047528286 -0.34654126 -0.36821124 -0.11463003 -0.09928989 0.16255707 -0.012883132 0.3058195 0.43009022 -0.28784236 0.25269246 -0.33677378
BedroomDoor 0.20010793 -0.25863948 -0.04047191 -0.08672584 -0.3328868 0.19733073 0.15739846 0.14904836 0.2322589 0.09830076 0.16432555 0.19182473 -0.22199352 -0.04727324 -0.19950165 0.13538386 0.043265276 0.20687771 0.030738404 -0.079107046 -0.10507202 -0.118445754 0.00027591246 0.0024936656 0.19735302 0.25939152 0.21409617 -0.077830635 -0.2725145 0.0535625 0.044834048 0.33472392 0.16022779 -0.1040448 0.27585676 -0.120052405 -0.19043593 -0.28442883 -0.09052019 -0.1538644 -0.18169245 -0.24021465 -0.10635988 0.17316823 0.077059306 0.12955661 0.083073705 -0.27764952 0.1303009 -0.15232822
Fridge 0.16731006 -0.31643927 0.10037937 -0.3004519 -0.21475264 0.29199263 -0.076406926 0.15713076 0.37978393 -0.046160504 -0.040744364 0.22416444 -0.4907066 -0.16713111 -0.14826533 0.28464544 0.17140892 -0.10094147 -0.06251549 -0.30161932 0.30814782 -0.15298983 -0.26899117 0.13197489 0.21196237 0.25244564 0.13578379 0.212266 -0.16526394 0.04059659 -0.18008703 0.67954624 0.37254685 -0.30342606 0.36611274 0.006838299 -0.30697647 -0.33164012 -0.046720475 -0.3406454 -0.34747976 -0.112840846 -0.09325832 0.16744794 -0.03718024 0.27996564 0.40804783 -0.27210918 0.24559888 -0.30516934
Frontdoor 0.15907128 -0.28195083 0.052807447 -0.3160742 -0.19227825 0.25438163 -0.06519032 0.14870153 0.34584737 -0.033673935 -0.036660895 0.22765495 -0.47062093 -0.15252818 -0.11980898 0.28193906 0.15106626 -0.12934612 -0.047365125 -0.24900919 0.2839406 -0.12974887 -0.23884538 0.110605456 0.17185213 0.23613419 0.121086225 0.20620795 -0.13682468 0.061806943 -0.17905547 0.6 0.3764561 -0.28013155 0.3312636 0.037289944 -0.26371738 -0.2789626 -0.053176947 -0.3320555 -0.31567147 -0.11419753 -0.08035729 0.1604979 -0.014260249 0.24668178 0.34368744 -0.24316499 0.23144993 -0.2657018
ToiletFlush 0.1757315 -0.24929327 0.18424872 -0.1537099 -0.22810555 0.23162626 0.022924226 0.096063785 0.21684466 0.035533175 0.0531638 0.17860843 -0.44079512 -0.30430406 -0.19571215 0.07243904 0.26039025 0.01253121 -0.11669206 -0.39336994 0.10103666 -0.1183924 -0.15744415 0.15144463 0.24719097 0.23523013 0.116309136 0.061483204 -0.17816742 -0.09426602 0.0025272833 0.50160396 0.1973031 -0.18493666 0.43796888 -0.04609481 -0.3166519 -0.3054307 0.019785492 -0.2200744 -0.17126375 -0.0047929836 0.027627604 0.07769783 -0.021932865 0.108211935 0.37332726 -0.2243733 0.17013408 -0.11607959
BalconyDoor 0.17955843 -0.29215986 0.047821105 -0.28022137 -0.23553991 0.26966938 -0.022918986 0.17298317 0.343981 -0.0043436047 0.00686604 0.23078115 -0.4348938 -0.13948135 -0.1540408 0.2569421 0.15187795 -0.035244785 -0.026596602 -0.23253554 0.19796449 -0.12011264 -0.18875606 0.10309107 0.16569166 0.24780132 0.14443329 0.13508004 -0.18401857 0.047198758 -0.12892692 0.5677579 0.34428638 -0.2615098 0.3406016 0.0007739353 -0.25715652 -0.29956734 -0.07326167 -0.30801553 -0.3082047 -0.14000495 -0.10192061 0.15246983 0.007382761 0.24942091 0.30508268 -0.26342374 0.22818741 -0.2524939
Sink 0.20688689 -0.3558199 0.009740552 -0.2765623 -0.33142227 0.24893309 0.11461007 0.17135401 0.23392835 0.04125063 0.14339177 0.2801947 -0.4396206 -0.1901005 -0.23379014 0.17435859 0.24394482 0.090995856 -0.06728887 -0.30082628 0.06557164 -0.13679436 -0.11710928 0.07154358 0.22227427 0.24119686 0.18531008 0.02902385 -0.3056738 -0.016096245 0.021260357 0.49407437 0.3265123 -0.2270447 0.43319643 -0.064778924 -0.25426364 -0.33202946 -0.08565606 -0.3350321 -0.2443632 -0.22311318 -0.10420704 0.1363196 0.025915695 0.17711087 0.27322707 -0.29400334 0.2161927 -0.19518225
Toaster 0.17280665 -0.31742358 0.09279013 -0.2898721 -0.23132734 0.26939213 -0.028484976 0.14995658 0.3305652 -0.02427559 0.0008247094 0.25043866 -0.4716557 -0.19597313 -0.13742982 0.25693315 0.1795172 -0.043501247 -0.062849924 -0.30425337 0.23167738 -0.12988012 -0.21919157 0.14226854 0.21238464 0.25799912 0.14735942 0.16403843 -0.17907315 0.02505574 -0.11015901 0.6140478 0.35098228 -0.29180712 0.40828037 0.001856524 -0.29267228 -0.3078942 -0.03579289 -0.31484452 -0.3002254 -0.11454276 -0.09897989 0.13429385 0.001966278 0.2613372 0.37934348 -0.25590453 0.23424032 -0.2847774
Microwave 0.20575498 -0.32911038 -0.0033890703 -0.26184106 -0.2874568 0.24570495 0.08361513 0.16097727 0.29000998 0.022680704 0.11580837 0.2705551 -0.40141726 -0.17744459 -0.18483137 0.21433206 0.19547601 0.0621799 -0.03287891 -0.28202128 0.10236749 -0.14745885 -0.14961946 0.066216104 0.21310638 0.24605316 0.17799746 0.057537816 -0.25730914 0.008032006 -0.038811415 0.5105188 0.31002557 -0.23790476 0.40067214 -0.045685705 -0.24178068 -0.3333581 -0.05889458 -0.3256437 -0.24595918 -0.18700966 -0.11822371 0.14754991 -0.0029666312 0.20545238 0.29105395 -0.26991817 0.20192796 -0.2349983
CupboardPlates 0.18104386 -0.27862567 0.046762794 -0.23023367 -0.24587402 0.24065654 0.044971377 0.15670903 0.26596224 0.014081735 0.054549973 0.22478166 -0.40019825 -0.16401455 -0.16288419 0.19489108 0.15430488 0.0355767 -0.045917816 -0.25765032 0.120127685 -0.1390511 -0.13730058 0.1005141 0.21083905 0.24064572 0.14653915 0.06120945 -0.20681371 0.01710694 -0.058250204 0.49452415 0.29145625 -0.21249017 0.36524 -0.027244117 -0.24901874 -0.30572924 -0.05229659 -0.2770576 -0.25276038 -0.14410944 -0.09305084 0.13488862 0.0007822952 0.19584239 0.27896708 -0.25239328 0.18565503 -0.21039715
Window 0.14612347 -0.28758186 -0.037586857 -0.20322108 -0.27038622 0.1933943 0.14857177 0.11461929 0.1734419 0.060850386 0.1570923 0.22876836 -0.34947592 -0.18654881 -0.19926108 0.11800358 0.21226247 0.10450573 -0.048431493 -0.28142095 -0.0038892168 -0.12848613 -0.08106726 0.05062608 0.20499982 0.21184428 0.12890787 -0.0037162988 -0.26609805 -0.030599227 0.029664986 0.39028582 0.23385532 -0.17908807 0.39040864 -0.06877184 -0.20171005 -0.29531127 -0.040552173 -0.28563282 -0.1542318 -0.17894648 -0.06387883 0.12489527 -0.0018169067 0.12311437 0.23847473 -0.23245019 0.16336863 -0.13009
CupboardGroceries 0.042197444 -0.09174676 -0.027443485 -0.054370224 -0.09390846 0.059399985 0.053917915 0.039618626 0.05095275 0.014211575 0.047299914 0.06602792 -0.093653254 -0.045917057 -0.053149883 0.041676015 0.049360648 0.04412959 -0.013639933 -0.060757022 -0.019425465 -0.03265943 -0.008221649 -0.0018949178 0.060031414 0.056432962 0.045088567 -0.011398437 -0.08539676 -0.000886358 0.0042219064 0.10650952 0.079541415 -0.037952907 0.10765513 -0.023409236 -0.051590182 -0.07585734 -0.0188578 -0.08896875 -0.05789309 -0.07758926 -0.03447372 0.038277514 0.015430754 0.03113905 0.047449578 -0.067804575 0.05500033 -0.043173354
