22 50
KitchenPIR -0.465126 0.14754279 0.15068643 -0.2813666 -0.22960424 0.17840903 0.16616683 0.4565262 0.62852895 0.7537814 0.04584872 0.24728003 0.5068767 0.052057967 0.8929052 0.14019628 -0.17728575 -0.18715446 0.76683676 0.17595418 0.34888816 -0.59886706 0.3293347 0.2279807 0.20828642 0.3623926 -0.36702767 -0.05958604 0.13721944 0.51895446 -0.45899183 -0.06076437 -0.20305666 0.14975403 0.58574843 0.58341724 0.29034877 -0.40699092 0.05653788 -0.7235562 -0.5180693 -0.28190172 -0.189698 0.31161112 -0.8790571 0.3740328 0.65584993 0.6777236 -0.5771502 -0.21767855
BedLeft -1.4951007 0.23620716 -0.8139432 0.36787477 -0.8450042 -0.31840017 0.7769909 0.7291925 1.1789587 -0.57807094 0.8431037 -0.32287037 1.1562417 -0.25124273 -0.39848602 -0.33936754 0.011134002 -1.0215912 -0.33300328 -0.5997286 -0.08091137 0.5034874 0.044076 0.935667 -0.007271919 -0.3685051 -1.1827174 -0.906489 0.6186217 -0.5300417 0.45771518 -0.42230752 0.014043293 0.3794306 -0.33735576 0.45634648 0.034298193 -0.73701 0.7715629 -0.78221667 0.6780135 -0.7888568 -0.023123002 -0.3899711 -0.0034373337 0.20741652 0.0620967 -0.34836107 -1.0298098 0.3060666
BathroomPIR 0.51700634 0.79874265 -0.039387893 0.033170328 -0.12423867 0.32220772 0.8620929 1.299144 -0.6863615 -0.2873406 -0.74719274 0.6524928 0.9355385 0.6656964 0.18764545 -0.45556965 -0.7319019 -0.4656499 0.3574732 0.5084614 0.79338497 -0.8950274 -0.34838936 -0.11785825 -0.917789 0.61182827 -0.21961579 0.46457294 0.79799396 0.16307425 0.566494 0.5724422 -0.20188338 -0.26580858 -1.0191541 0.8273093 0.7346523 -0.13416791 -1.3053664 0.26394042 0.16375639 0.118518144 -0.12453281 -0.31980282 -1.3774537 -0.44483286 1.1609156 0.146951 0.84732467 -1.0031272
BedRight -0.9499324 0.33542746 -1.0059601 0.29891175 0.056161102 0.5996151 0.2105743 0.047445852 0.877132 -0.48682684 1.0255618 -1.0428423 -0.15296128 0.39872202 -0.119537234 -0.37677595 0.52127063 -0.85587984 0.1403654 0.37582216 -0.14945371 0.30493575 0.8653008 0.47401005 -0.0827203 -0.72003466 0.27336976 0.10868348 -0.26495132 -0.35217628 0.45020464 0.16992988 0.48472834 0.26085055 -0.10229836 0.37620345 0.6170764 0.3056018 0.5302243 -1.0832975 -0.70616966 0.6710403 0.68499917 0.26309443 -0.17903672 -0.07710781 0.6361234 -1.1259887 -0.8842429 -0.558156
BedroomPIR -0.35642248 0.21431156 -0.37332794 -0.30992988 -0.011578457 0.39344287 0.37154284 0.66560185 0.11064761 0.44024146 -0.4254333 0.34223974 -0.37568203 -0.65289205 0.36326274 -0.076409966 0.51535493 -0.34976375 0.14893119 -0.32797423 0.15210542 0.76972234 0.04067941 0.36407956 -0.7127627 -0.2719319 -0.1069273 -0.2258211 -0.2855491 -0.3700187 0.6385727 0.34253877 -0.44411373 -0.46395293 -0.91722363 0.7019953 -0.22378382 -0.2700812 0.22459185 -0.057770476 -0.117520854 0.529741 0.0309447 -0.4023411 -0.5317865 0.025499292 0.25081688 -0.608924 -0.4288446 -0.4331651
Dresser -0.27998647 0.7640307 -0.93151194 0.08571193 -0.05486242 -0.18336278 0.6744395 1.0971363 -0.19145419 -1.0028516 0.17063358 0.020027056 0.28154173 0.45920902 -0.35962495 -0.66368675 0.14812215 -0.80857646 0.00028118433 -0.29963213 -0.30237335 0.121712044 0.101838484 -0.009128395 -0.6926574 -0.27958596 -0.22169542 -0.026778597 0.2858821 -0.2774239 0.6553399 0.21485546 0.17098281 0.48203546 -0.8870799 -0.021130485 0.35735384 0.42734066 0.042397216 -0.07488797 0.7948353 -0.282581 -0.1322991 -0.06836289 -0.75513834 -0.44501758 0.24958035 -0.80568606 0.050960038 -0.80390346
Piano -0.37443307 0.34584892 -0.10485497 -0.50570154 0.19771875 0.046189923 0.35584483 0.5302599 0.23767383 0.26157042 0.1755002 0.17868696 0.28777814 -0.08649505 0.30548012 -0.043086674 -0.30987087 -0.06825641 0.12829608 -0.19510189 -0.1395321 -0.26863867 -0.07233508 -0.2328076 -0.15085563 -0.28325224 0.06721878 -0.06848099 0.005811022 0.30842653 -0.14497085 -0.17789268 -0.477491 -0.26589742 -0.2312942 0.5987319 0.5013744 0.020983484 -0.0052621956 -0.6099091 -0.32128268 -0.120071664 -0.27873382 -0.14717077 -0.47182524 0.045850117 0.7451924 -0.1674989 -0.12019432 -0.3189325
CutlaryDrawer -0.25266778 0.2988829 -0.16243805 -0.17404723 0.106074296 0.27304873 0.51221764 0.48536238 0.35354072 -0.1380799 0.30162054 -0.18253879 0.33417672 -0.08373312 0.27211538 -0.028616117 0.07755517 -0.5233029 -0.13106608 0.07665299 0.15104154 -0.0006209443 0.24826635 0.08320653 -0.08167298 0.027756741 0.0938853 -0.1645364 0.12354305 -0.06659356 0.340833 -0.14836328 0.010686626 -0.30521655 -0.0625541 0.20513888 0.34296134 0.1333105 -0.001370515 0.1557882 -0.17931783 -0.100776166 0.24100305 0.2655177 -0.32364303 -0.24779506 0.34736526 -0.18472846 0.05007813 -0.306977
Chair -0.17203529 0.21188204 -0.13591021 -0.16598018 0.01198118 0.23603357 0.26465598 0.40638208 0.13500588 0.21396372 -0.09084017 0.10600729 0.1490372 0.026075073 0.30127278 -0.024085743 -0.023171168 -0.245018 0.28051224 0.058401477 0.19663449 -0.124321096 0.12043813 0.11361071 -0.23358913 0.03671263 -0.047036823 0.009629289 0.07170965 0.09403907 0.092501916 0.15718426 -0.15430194 -0.09498683 -0.2003678 0.44247755 0.21249638 -0.09158836 -0.12003463 -0.26633748 -0.2113775 0.12692042 -0.019731196 0.010381002 -0.5451731 0.020827536 0.4795366 -0.06442855 -0.14952587 -0.37764964
ToiletDoor -0.1347807 0.28042638 -0.07754591 -0.14306982 -0.034651138 0.18176384 0.29024425 0.46409297 0.096426465 0.13782866 -0.07432453 0.14447327 0.27074766 0.1239805 0.30827445 -0.08395021 -0.13489872 -0.22067256 0.30341128 0.13068932 0.19734395 -0.26200157 0.07677422 0.018713554 -0.1981703 0.099179976 -0.065168865 0.09633054 0.14161795 0.15771897 0.05241028 0.118319504 -0.1258969 -0.037544243 -0.15002628 0.4282349 0.3222699 -0.059619766 -0.20880385 -0.26281148 -0.20959003 0.058214094 -0.035873592 0.0066936226 -0.60855365 -0.03341924 0.5440209 0.036189403 -0.06925261 -0.40182948
Fridge -0.37205452 0.24454972 -0.09751994 -0.21026477 -0.035173167 0.25979286 0.2565413 0.47117582 0.41141245 0.35418835 0.116859965 0.07451531 0.2792345 0.062437896 0.51902765 0.0066513 -0.05200818 -0.2902912 0.45458376 0.11903656 0.19141902 -0.29771352 0.28353342 0.1356726 -0.057577856 0.04943365 -0.103125565 0.0031412006 0.04921548 0.2444638 -0.0890409 0.03539962 -0.13408263 -0.0031403252 0.08855535 0.49075294 0.34259292 -0.10797668 -0.0061968383 -0.52176106 -0.4064173 -0.0050481106 -0.017665926 0.1648445 -0.68340594 0.100826286 0.617654 0.09764809 -0.3625381 -0.3721638
StoveLid -0.39724824 0.24943715 -0.10152164 -0.21112263 -0.054201465 0.27713764 0.26347885 0.47192034 0.44897726 0.37229577 0.11229318 0.048049003 0.29332095 0.08937159 0.55793697 -0.00072081253 -0.040223055 -0.31453463 0.48596817 0.15390985 0.20781186 -0.3016364 0.30496106 0.16520871 -0.048264403 0.06507044 -0.11505626 0.027420992 0.05453453 0.25202373 -0.11165699 0.06600277 -0.121657 0.03603732 0.1310725 0.5126805 0.36247605 -0.12949163 -0.00017553681 -0.5831931 -0.44344124 0.01800452 -0.005297485 0.19567999 -0.70217097 0.12959386 0.64610326 0.11620981 -0.40863743 -0.38111204
BedroomDoor -0.36091244 0.2349888 -0.27501997 -0.034964565 -0.12087353 0.08725404 0.28843752 0.40556723 0.28261745 -0.044731606 0.15402013 -0.018815925 0.25692123 0.049342923 0.119723186 -0.1342354 0.0019669 -0.3362025 0.1507779 -0.020686356 0.05422158 -0.020680036 0.13467586 0.15975627 -0.13740206 -0.07099702 -0.18394078 -0.07025864 0.10872617 -0.027609963 0.15123181 0.022341624 -0.0436061 0.07779766 -0.1681402 0.314835 0.20961785 -0.067709334 0.06493548 -0.32670724 -0.036110956 -0.043959975 0.0061708065 -0.01770186 -0.3931232 -0.00083410926 0.3337079 -0.14363734 -0.2621934 -0.24303779
Frontdoor -0.3139776 0.22241582 -0.082684115 -0.21742095 -0.04910591 0.19072998 0.2426452 0.39744148 0.35368755 0.3335398 0.056917783 0.08855157 0.23251975 0.013665324 0.45000708 -0.008502018 -0.04185954 -0.23760185 0.36258134 0.048216097 0.16873132 -0.20445564 0.20230046 0.12501326 -0.06961712 0.053544257 -0.12013559 -0.009857304 0.04267029 0.20369639 -0.06988154 0.032996595 -0.16838706 -0.005374201 0.060323186 0.4545265 0.2491759 -0.13561083 0.030613087 -0.43492255 -0.29623994 -0.026554888 -0.071582764 0.11036512 -0.5872274 0.10803377 0.50583154 0.106651485 -0.31509522 -0.295758
Sink -0.40641302 0.32437474 -0.26323816 -0.068164796 -0.066170976 0.21139304 0.36698815 0.52978444 0.39951566 0.09495169 0.12252269 -0.02581701 0.36510807 0.056684338 0.29440984 -0.07851646 -0.02726865 -0.39490318 0.32233703 0.06124845 0.16265349 -0.15114522 0.24236876 0.15587945 -0.09294401 -0.05660159 -0.14335091 -0.026656125 0.14267074 0.059632834 0.021031443 0.087758 -0.095985815 0.08251132 -0.09735263 0.446437 0.34766686 -0.1409638 0.015003043 -0.5062514 -0.2854137 0.019854149 0.014252237 0.08112838 -0.6095628 0.011822996 0.55848205 -0.07204056 -0.37916547 -0.34879228
ToiletFlush -0.15230133 0.24955618 -0.08833555 -0.1031681 -0.07630301 0.13322492 0.25770923 0.43420374 0.14366369 0.08445324 -0.01858085 0.10229111 0.3140652 0.14185579 0.25503668 -0.09252107 -0.14347355 -0.23259613 0.26752996 0.10885948 0.18957894 -0.2539328 0.10034467 0.059647266 -0.13607639 0.110773906 -0.119798996 0.0579863 0.17251387 0.13175283 0.040134594 0.066157855 -0.100573584 0.020785162 -0.07732134 0.3656098 0.2877081 -0.076050475 -0.1576663 -0.25416148 -0.14920369 -0.017102176 -0.04773537 0.025212804 -0.535156 -0.0011109081 0.46834442 0.062213015 -0.083858095 -0.3220069
BalconyDoor -0.31310058 0.21951555 -0.13689674 -0.1476196 -0.047660254 0.18568714 0.2410146 0.4098667 0.31570962 0.19551933 0.10706119 0.031506468 0.23962332 0.06302284 0.34667 -0.03997191 -0.030182691 -0.27983752 0.31465623 0.087575376 0.13176903 -0.20545878 0.20079836 0.12894319 -0.07986727 0.008008118 -0.10798037 -0.008477823 0.077214986 0.14400978 -0.025668763 0.05425961 -0.10282688 0.01176022 0.003536892 0.40964743 0.2955604 -0.0949153 -0.0049316315 -0.4186008 -0.27242526 0.008453111 -0.013599956 0.101221375 -0.52613527 0.05306985 0.49519786 0.016996909 -0.283622 -0.32253668
Toaster -0.34212384 0.29107904 -0.17996193 -0.12637404 -0.05210299 0.22396925 0.27838436 0.4807939 0.3514651 0.17929235 0.12482632 0.029819863 0.27588814 0.12401211 0.40975544 -0.07905026 -0.04589763 -0.32466987 0.3779857 0.12032495 0.18640031 -0.25137284 0.23332135 0.15400602 -0.093444705 0.047370415 -0.119384974 0.02242621 0.095101364 0.14570276 0.0023196125 0.06754195 -0.06926567 0.027201109 0.0029377455 0.44622752 0.3455999 -0.11052379 -0.010207678 -0.47482193 -0.29345688 0.024442907 0.0014611954 0.10518154 -0.634083 0.06458012 0.5568002 0.013386355 -0.29630995 -0.3786627
Microwave -0.39244774 0.275693 -0.20803158 -0.09990731 -0.08557083 0.18144453 0.3098652 0.45083165 0.36095494 0.13663282 0.13743159 0.0066854907 0.29036987 0.091082245 0.30872005 -0.0814531 -0.011383639 -0.34229234 0.30340594 0.06497356 0.13412637 -0.16500306 0.20848607 0.15782186 -0.10126236 -0.027678303 -0.13516554 -0.017696388 0.08440442 0.101338685 0.049098138 0.03977648 -0.07317152 0.043525748 -0.058551427 0.41820532 0.3094827 -0.08647776 0.024309004 -0.4551798 -0.23750566 -0.008957243 0.0017788364 0.075350374 -0.54110634 0.043868694 0.51635796 -0.048400514 -0.321725 -0.3366583
Window -0.2886219 0.25039643 -0.20599277 -0.07664072 -0.072808824 0.14722008 0.29784042 0.4202483 0.24574414 0.03283755 0.09328331 0.018367311 0.26140466 0.07503064 0.20009759 -0.104349926 -0.022576012 -0.3302346 0.18298872 0.04237429 0.115171246 -0.10788105 0.12843908 0.14409459 -0.16902113 -0.022077123 -0.12762454 -0.029955875 0.12366251 0.032364015 0.11791674 0.0691095 -0.084874935 0.0059110606 -0.16944163 0.37563965 0.26153725 -0.08729963 -0.011018231 -0.32327706 -0.119712144 0.005848446 0.014669472 0.012461369 -0.4544245 0.0005473837 0.42619798 -0.10783461 -0.20357487 -0.31049898
CupboardPlates -0.27297193 0.23072344 -0.13915898 -0.07853641 -0.059535407 0.16347872 0.25459078 0.3887482 0.2665542 0.12543654 0.07435117 0.04073574 0.25721306 0.0806709 0.27655464 -0.07187511 -0.04274918 -0.261512 0.2633412 0.06303067 0.14744471 -0.16363007 0.16321777 0.1294818 -0.08742445 0.017390398 -0.11243861 -0.0056895507 0.105088234 0.09395352 0.020196231 0.039437182 -0.079764664 0.016128024 -0.038679045 0.342001 0.24733809 -0.09101828 -0.015285231 -0.34048378 -0.18988496 -0.016546596 -0.005897051 0.06612548 -0.47876552 0.020987565 0.41782442 0.011962372 -0.22478238 -0.27358082
CupboardGroceries -0.1204092 0.081827685 -0.089090385 -0.021508908 -0.026025375 0.03628031 0.09617705 0.14180401 0.10385657 0.0039682165 0.056375794 -0.01153584 0.08789919 0.0067589125 0.041865263 -0.032282017 -0.0021491586 -0.11548951 0.04622739 -0.0037436043 0.026929589 -0.005405709 0.040299293 0.05759008 -0.041416887 -0.031305365 -0.044919007 -0.03366831 0.04033565 0.003293032 0.047323752 0.012286522 -0.0153048225 0.010083643 -0.051659167 0.115047574 0.07450494 -0.024447076 0.023611033 -0.10456489 -0.035266496 0.003479856 0.0070829066 -0.0044772583 -0.13699059 0.0072173416 0.12957165 -0.056763425 -0.09217325 -0.0806529
