22 50
KitchenPIR -0.10543417 -0.09494969 0.31232306 -0.2025269 0.1056005 -0.35682175 0.60036093 -0.43015087 0.48483545 -0.1289815 0.1207067 -0.13886411 0.10225218 0.68346816 0.445901 0.42257568 0.58343965 0.33615902 -0.017493693 -0.6125663 0.05167785 0.38392875 0.64190334 0.5675923 0.18145013 -0.77232707 -0.10465883 0.23176128 -0.40274686 -0.72977555 0.4586719 0.0028661215 0.23464829 0.03659397 -0.024313854 0.021061948 0.071442015 -0.8728088 -0.36675313 0.58704567 0.7129348 0.071727104 0.63171506 0.10857454 0.27540815 -0.60345185 0.40046334 0.64944434 -0.7207412 0.016601034
BedLeft -0.5035716 0.41853765 -0.97685736 -0.862738 -0.8171482 0.44343415 0.63926655 -0.8224018 -0.44557592 0.46404693 0.05499393 -1.1597207 0.7889801 0.9093948 0.613537 0.003693654 -0.18496414 -0.60370326 -0.27457443 -0.7914774 0.1442257 0.46701264 0.3011537 0.27896723 0.7961207 -0.6800915 0.4785184 -0.4896232 -0.10021534 -0.25066912 0.27908137 0.3490028 -0.56696826 1.3768922 0.60668236 -0.42464364 0.3872706 0.34240752 -0.77411467 -0.6327101 -0.19923127 -1.360245 0.25470534 -0.7366652 0.15382549 -0.4682975 1.1235762 -0.18679318 -0.43578547 -0.6635224
BathroomPIR 0.65343386 -0.019680096 0.9860871 -0.2131325 0.61388195 -0.15532336 -0.29088807 0.030816646 0.97445637 -0.69330263 -1.0533261 -0.7478762 0.2253496 0.63729453 -0.90680254 -0.10933419 0.00035953405 -0.3662832 0.8305993 0.55184835 -0.32434 0.80911344 0.16106053 -0.9157268 -0.02352667 -1.050353 -0.17526989 0.8750366 0.12625524 -0.37645322 -0.6251765 -0.8409297 1.007435 -1.4330125 0.4995169 -0.11873291 0.7271846 0.07223053 -0.638693 0.3368483 -0.1853992 -1.079214 0.9101319 -0.14786187 -0.74206406 0.43538848 0.4500999 -0.13114977 -0.41915032 0.69148266
BedRight -0.93726665 0.08251052 -0.38272297 0.27261916 0.81175315 0.12028403 -0.07393449 -1.0204223 0.35760584 0.40097532 -1.1048082 -0.6377203 -0.38766402 0.105798975 0.75521064 0.07877847 -0.12150003 0.08199039 0.37421566 -0.30555007 -0.24656996 0.47889295 -0.45032156 0.47678894 0.5324431 -0.49241975 1.0072308 -0.82336175 -0.24317613 -0.3309812 0.8841077 -0.21507727 -1.4515043 0.14856067 -0.6145306 -0.14366895 -0.33260944 0.17548501 -0.34139585 -0.33393905 -0.92951536 -0.3032168 -0.43559197 -0.099241234 -0.60224307 -0.13696812 0.61956036 -0.25846812 -0.6066523 -0.84892243
BedroomPIR 0.05211936 -0.36510116 -0.0031955848 -0.46500835 0.5147844 -0.7176921 -0.09223114 -0.76115155 -0.17991373 0.36357874 -0.20482835 -0.31641993 -0.11480475 0.333862 -0.08543931 -0.32639503 -0.04923415 -0.75590056 0.5690514 -0.34938648 0.43067992 -0.0048249215 -0.18545769 -0.42246142 0.47715437 0.006343158 -0.3261315 -0.020974116 0.17686184 -0.15795895 -0.29565865 -0.32525674 -0.3620771 -0.04935405 -0.18894699 0.13157672 0.3473585 0.093112655 -0.015543732 -0.61179084 -0.21507275 -0.7016222 -0.24125196 -0.21860775 -0.20329909 -0.07365856 0.86052656 0.29655322 -0.005547818 0.06885632
Dresser 0.24718381 -0.30579558 -0.6339041 0.062194306 0.5445008 -0.0745105 -0.24302073 -0.63508517 -0.16249774 -0.19045518 -0.6499286 -1.2658154 0.37388512 0.39686817 -0.40706798 -0.29494303 0.20128556 -0.11570385 0.40638182 0.30856183 0.24437359 0.61475617 -0.29299378 0.015782397 0.19237491 -0.06726164 0.2531585 0.32525757 -0.36797574 0.25026914 -0.033466913 -0.0843898 -0.42259663 -0.20270899 0.13324264 -0.6447854 0.20548713 0.20456502 -0.3170649 -0.8448779 -0.69937956 -0.86822414 0.15721823 -0.12285727 -0.1279342 -0.37019813 0.3247477 -0.50768626 -0.24466531 -0.3716894
Piano 0.0430737 -0.20507881 0.30385163 -0.11966228 0.81779844 -0.35260975 0.07236987 -0.36030665 0.5418741 -0.077155 -0.50192887 -0.19110724 -0.1846879 0.31199244 0.018942654 0.14920984 0.34588492 0.173547 0.5513073 -0.112509094 -0.15792637 0.36074764 -0.13166904 -0.15406969 -0.14023484 -0.5323951 -0.045525327 0.30864754 -0.34351593 -0.25565332 0.1334101 -0.21810241 -0.0060628485 -0.63808835 -0.43486193 0.07515897 -0.09247445 -0.45855364 -0.23306932 0.22981207 -0.09075628 -0.4625814 0.09618949 -0.116677776 -0.16636056 0.07979214 0.55117965 0.12296683 -0.256131 -0.12378198
Chair 0.033644877 -0.15347342 0.13821076 -0.16000421 0.35175368 -0.2881547 0.04257944 -0.379325 0.25535092 0.0026435996 -0.28447047 -0.2880534 0.0058980174 0.32905656 0.0101205455 0.0002639165 0.114487156 -0.1412538 0.31898907 -0.13875097 0.029981486 0.2565706 0.07596116 -0.09871983 0.14831573 -0.37888467 -0.024756426 0.127129 -0.098834366 -0.24138105 -0.004073806 -0.18980695 -0.028708212 -0.26122373 -0.053093094 -0.018133566 0.1642901 -0.15571652 -0.19859709 -0.0112904105 -0.008267518 -0.37662685 0.17879732 -0.04390534 -0.10551858 -0.105514936 0.40677595 0.15569517 -0.28191113 -0.008336612
CutlaryDrawer -0.0113491835 -0.15028942 0.045291927 -0.0978416 0.35518196 -0.217231 -0.030867476 -0.41175035 0.23583095 -0.060028624 -0.420136 -0.40628627 -0.0068737348 0.23289841 -0.08169323 0.015748948 0.029214056 -0.11691695 0.35352525 -0.1076917 -0.0472441 0.24126188 -0.058764722 -0.14500627 0.117114455 -0.35011476 0.10486205 0.06630571 -0.11007359 -0.19356564 0.03413556 -0.1726559 -0.14758533 -0.20266873 -0.067736946 -0.08079078 0.17631157 -0.044164624 -0.27498797 -0.07518582 -0.15395226 -0.47941056 0.14459543 -0.16971406 -0.20018055 -0.050299224 0.41198725 0.024477268 -0.24999604 -0.12558189
ToiletDoor 0.10307475 -0.09225816 0.31112614 -0.08179682 0.40785655 -0.2340786 0.07273291 -0.26923478 0.44857714 -0.18409656 -0.38408864 -0.2858046 0.002851278 0.3773959 -0.05471123 0.10474302 0.18852076 0.023082262 0.32341462 -0.05046982 -0.08234923 0.3798946 0.11720909 -0.07378036 0.05897297 -0.52050894 -0.011499622 0.2665085 -0.14759624 -0.3079891 0.04342355 -0.25614524 0.1779737 -0.4582683 -0.019672226 -0.015148328 0.15962113 -0.27243468 -0.28043386 0.19608542 0.029349247 -0.3296116 0.3334566 -0.008155989 -0.17826195 -0.055550754 0.35007864 0.13696674 -0.3426764 0.088933
Fridge -0.037704583 -0.12770166 0.23250143 -0.16002856 0.38629788 -0.32800007 0.23166575 -0.46286967 0.44099152 -0.08729349 -0.29114068 -0.3108115 0.031110648 0.48824987 0.1693268 0.20508501 0.32271534 0.09314755 0.27158773 -0.29499453 -0.007148492 0.38300887 0.24624424 0.16644087 0.15492007 -0.61604625 0.0075639454 0.19516294 -0.250285 -0.47880304 0.21577352 -0.1566765 0.033690393 -0.25505075 -0.09775206 -0.03707387 0.11698878 -0.45123696 -0.3243408 0.23990968 0.17174923 -0.27877468 0.37324202 -0.0066731144 -0.05981965 -0.26492232 0.478731 0.29061806 -0.4800781 -0.04247103
StoveLid -0.051091 -0.11361283 0.22230151 -0.14965242 0.33403164 -0.29873928 0.25842065 -0.42978552 0.40637526 -0.09542158 -0.236324 -0.27795935 0.025302064 0.45435902 0.18918498 0.20149711 0.33166915 0.11373117 0.22976302 -0.29817978 0.011034259 0.35482758 0.26586464 0.19082117 0.14373372 -0.58908993 0.008867061 0.16890836 -0.24795778 -0.45815966 0.23323749 -0.12573966 0.032122623 -0.19149011 -0.07894754 -0.02880754 0.09843994 -0.46780953 -0.2954137 0.24997646 0.1961887 -0.21636161 0.35032508 0.011121188 -0.022736268 -0.29154572 0.43911567 0.30704 -0.47248995 -0.04473557
BedroomDoor -0.09161566 -0.035197027 -0.0801955 -0.12671241 0.2161768 -0.0733622 0.08888551 -0.40096256 0.16545683 0.007846609 -0.31720123 -0.44569424 0.099367656 0.34673977 0.10019041 0.029013984 0.09385184 -0.07916924 0.2011807 -0.14968541 0.012860557 0.3152719 0.030269101 0.04380691 0.1998885 -0.3698839 0.13819729 0.024225406 -0.14689656 -0.19755065 0.13020724 -0.09413875 -0.17273702 -0.03363228 -0.005624374 -0.12328361 0.11531082 -0.06324074 -0.2704344 -0.09506774 -0.13495965 -0.42904374 0.13315359 -0.12054133 -0.11274461 -0.13843454 0.40584582 -0.011511475 -0.28819543 -0.16617714
Frontdoor -0.013304418 -0.13090457 0.21580203 -0.13891202 0.33011046 -0.2693298 0.18727864 -0.38258693 0.39023608 -0.092140175 -0.23409821 -0.24206865 0.022450415 0.40656352 0.11106034 0.15873234 0.26567388 0.058062445 0.24789713 -0.25694504 -0.013314315 0.3396225 0.21258064 0.11926736 0.120392054 -0.5134003 -0.012322913 0.17298852 -0.21709254 -0.39772475 0.19222122 -0.13980898 0.053488087 -0.25420764 -0.100616455 -0.0046097278 0.10781959 -0.39288 -0.28056222 0.21525382 0.15416503 -0.24944033 0.30684307 -0.021222057 -0.04350801 -0.21831746 0.41343564 0.24031916 -0.39867902 -0.01780735
ToiletFlush 0.059105426 -0.080874644 0.24040812 -0.088464186 0.2835639 -0.17552686 0.10995853 -0.2359788 0.36727595 -0.15236421 -0.2986438 -0.27877632 0.047283895 0.35245058 -0.018673379 0.111146525 0.17751873 0.028209822 0.25894424 -0.07683447 -0.057230394 0.33311096 0.14801373 -0.018465701 0.05897155 -0.48517904 0.0032058486 0.22619072 -0.15092368 -0.29575196 0.07447419 -0.18494175 0.13581705 -0.33215892 -0.0027407415 -0.033446625 0.14035134 -0.2410444 -0.2741603 0.17566153 0.055595305 -0.28972968 0.31656212 -0.018054433 -0.109199055 -0.103864774 0.31079498 0.1279089 -0.31698495 0.061861344
Sink -0.027636852 -0.114892766 0.16125596 -0.18183568 0.4297981 -0.25495195 0.13755788 -0.55462253 0.4323192 -0.08330546 -0.44700775 -0.5405652 0.047766816 0.5107623 0.07267631 0.13244878 0.26258126 -0.03858602 0.34486088 -0.25275534 -0.013993843 0.47344956 0.16939811 0.059891243 0.19026121 -0.66917807 0.11778098 0.15088154 -0.23135754 -0.4326696 0.20357233 -0.22728996 -0.029483207 -0.29972687 -0.045757405 -0.10765505 0.1664327 -0.28886953 -0.42589435 0.08334741 -0.037203535 -0.51722026 0.33719698 -0.11755021 -0.17048459 -0.23433799 0.5492777 0.15748729 -0.49163693 -0.08961192
Toaster -0.06548747 -0.063733034 0.11858407 -0.14645831 0.27790448 -0.21116515 0.16963395 -0.4175191 0.30991384 -0.03694252 -0.25578636 -0.3306683 0.028460843 0.36480236 0.1321289 0.13046809 0.21377547 0.007551533 0.23575284 -0.23548415 0.015267867 0.30765343 0.1409967 0.12179231 0.15526338 -0.4557798 0.046772897 0.10335886 -0.20995596 -0.3517341 0.17465673 -0.14050995 -0.06089493 -0.12780377 -0.050245456 -0.04690169 0.10481575 -0.29288182 -0.2870484 0.09785765 0.0665603 -0.30671838 0.2237337 -0.05715873 -0.07059626 -0.19778986 0.39429384 0.18855742 -0.36419824 -0.08926926
BalconyDoor -0.0827233 -0.083596855 0.09164679 -0.15510677 0.26936394 -0.23353657 0.21682505 -0.42663532 0.28404835 -0.039897967 -0.22261071 -0.31164607 0.047554065 0.42129466 0.18506896 0.13865328 0.23959617 0.029847104 0.21007179 -0.27817103 0.01539627 0.3192507 0.1841986 0.16070919 0.16558664 -0.4964716 0.033206604 0.09807805 -0.21325327 -0.3698874 0.21365336 -0.09348558 -0.05453339 -0.10475045 -0.062058836 -0.05835118 0.09843197 -0.33265805 -0.27667573 0.10851998 0.108807646 -0.28109777 0.2708213 -0.04151522 -0.017732192 -0.24365513 0.43006065 0.2095465 -0.40828988 -0.105609156
Microwave -0.0688755 -0.08469415 0.09876777 -0.15740108 0.32460463 -0.20027134 0.15724458 -0.435258 0.32495916 -0.049819503 -0.3309157 -0.3835385 0.055558763 0.41636947 0.13403982 0.122574106 0.19503136 0.0012065399 0.25670883 -0.23394902 -0.0117621645 0.35025778 0.13554321 0.09339607 0.17295296 -0.5007499 0.07361688 0.09490055 -0.20568676 -0.34810284 0.17237349 -0.15354608 -0.06100213 -0.17304242 -0.05070819 -0.075448 0.12813143 -0.26114038 -0.30992183 0.0673837 0.0040999353 -0.3657941 0.24871339 -0.07090615 -0.10261866 -0.19650497 0.4642226 0.14182584 -0.39757738 -0.10731122
CupboardPlates -0.029801454 -0.054905374 0.10006779 -0.11013268 0.23485154 -0.15386869 0.12393465 -0.31162426 0.25866857 -0.04931415 -0.23549569 -0.26813912 0.045256484 0.3197059 0.094563164 0.10526162 0.17850785 0.0155225955 0.18204996 -0.17214249 -0.017969452 0.2782623 0.12670176 0.08674513 0.114045404 -0.3948279 0.055634674 0.103776045 -0.15223664 -0.28295 0.145138 -0.11385955 -0.012643861 -0.14450021 -0.029367436 -0.049976997 0.09985535 -0.23411785 -0.24260654 0.09524259 0.041885298 -0.25816768 0.22876674 -0.04784568 -0.057087418 -0.14889877 0.3225661 0.12644717 -0.32290858 -0.051619265
Window -0.008222606 -0.041806705 0.059259288 -0.10208577 0.18272151 -0.10253595 0.06337905 -0.22478396 0.18071349 -0.036866214 -0.21088514 -0.2520951 0.039483923 0.23374669 0.01434238 0.038653694 0.08883919 -0.041986015 0.16126831 -0.09256539 -0.009964206 0.21132778 0.06390546 -0.00063630665 0.097125106 -0.293517 0.048963606 0.083011396 -0.09066128 -0.17460512 0.064174585 -0.10641399 -0.015617951 -0.13885172 -0.0095996745 -0.05827493 0.105521314 -0.10872009 -0.18852161 0.017058644 -0.02218844 -0.26075315 0.16137767 -0.049842287 -0.071609505 -0.07394386 0.2648095 0.054001275 -0.2166493 -0.040433504
CupboardGroceries -0.014421986 -0.002226614 -0.00052706094 -0.034034472 0.066870406 -0.034349397 0.013112461 -0.095096536 0.03684842 -0.000545338 -0.073392846 -0.09586846 0.017600589 0.069554955 0.015419178 0.016224422 0.02892313 -0.02317932 0.05686805 -0.04371531 0.0077161375 0.079152904 0.014332798 0.011415287 0.045086544 -0.08689536 0.026776122 -0.0013205486 -0.02630158 -0.046528365 0.025458327 -0.0263747 -0.04098182 -0.015496883 -0.010287562 -0.030050928 0.03552234 -0.03114323 -0.059752032 -0.008574599 -0.035966016 -0.09350985 0.03323 -0.022954691 -0.037514634 -0.03942792 0.10225806 0.006576646 -0.07725462 -0.041830674
