22 50
KitchenPIR -0.0028488257 0.0682478 -0.049003754 -0.5678268 0.37640607 -0.24327679 -0.08567537 -0.23206985 -0.74781156 -0.27205724 0.21428783 -0.3522092 0.3347118 0.44790345 -0.40005776 -0.711787 -0.071856424 -0.09430146 -0.23482683 -0.8851896 0.19724682 0.8299348 0.34028256 -0.4994317 -0.38326475 -0.64877754 0.22436623 -0.5468277 -0.16021413 -0.6149257 -0.4197349 -0.30267137 0.15325016 -0.37836593 0.2436702 -0.64889127 -1.0025257 0.74267566 0.31076863 0.71080726 -0.16887847 0.5004637 0.43679366 0.702725 -0.13858354 0.2712137 0.0557636 -0.26912045 -0.9452053 -0.1651425
BedLeft 0.129889 0.24491721 0.40676236 -0.8485656 0.17376179 -0.21673886 -0.8122763 -0.5325726 0.54607475 -0.18657514 -0.31306273 -0.20702107 0.899349 0.8252738 0.46851644 -0.44121534 -0.15012023 0.9998292 -1.0630642 -1.1924472 0.5104994 -0.52913296 -0.035661556 0.4761404 0.061072487 0.29126897 -0.1346992 -0.3866252 -0.48192465 -0.9081262 -0.63394564 0.30099344 -1.1498376 0.45069212 0.5497182 -0.9645553 0.34272197 -0.08768796 0.82756084 1.3838562 1.1375087 -0.68584615 -0.9435297 -0.030925758 0.32457623 -0.28019035 0.07594048 -0.7456944 -1.0593088 -0.77785105
BathroomPIR -0.4902569 -1.13344 0.21755089 -0.46516252 0.16187741 -0.9446524 0.44941574 -0.35277832 -1.1690072 -0.82943565 1.1091931 0.9194097 -1.245566 0.0462616 0.03968568 -0.0881574 0.09561877 -0.2512026 -0.6156594 0.20151307 -0.48173907 1.6781287 -0.7021567 0.3260224 -0.22894229 0.5687952 0.88267106 0.27381602 0.2953546 -0.6978684 0.28845406 -0.88053215 0.61252546 -0.25883076 1.2493808 0.86402524 -0.5290243 0.39791355 -0.2660001 -0.365132 0.60124475 0.046551485 -0.2717868 0.0035051547 0.32040074 0.042028796 0.14239283 -0.60902816 0.031918373 -0.59966713
BedRight -0.2992456 -0.7210815 1.026294 -0.42411968 0.6907211 -0.08046251 -0.789463 -1.256563 0.80116063 0.26986477 0.7626547 -0.65036446 0.81539863 -0.24831705 -0.053364124 0.32552832 0.58013463 0.33636823 -0.3190888 -0.09934645 0.6537859 0.1599706 -0.032367196 0.014300851 0.16338769 -0.045316186 1.0418293 0.39865735 -0.40502962 0.2995201 -0.28081417 0.30359283 -0.21676126 0.9957047 0.82998866 -0.16754639 0.64816505 -0.14410056 0.4964232 0.33025357 0.7602479 -0.30347538 -0.7959645 0.6356145 -0.4023251 -0.36099708 -0.6078847 -0.86205286 -0.17764847 0.037075073
BedroomPIR -0.21748368 0.001062385 0.1270694 -0.07016756 -0.425154 -0.373644 0.39415598 -0.046007603 -0.05499031 0.22364154 0.56871647 0.5930355 -0.556442 -0.34881908 -0.0034738397 0.057608172 -0.011515257 0.23729599 -0.5307331 -0.36797532 0.8404613 -0.31922612 -0.5624436 0.1839917 -0.16107573 0.5134425 0.23161839 -0.5229821 -0.06704487 0.2082678 -0.8232439 -0.5718528 -0.2668475 1.2143915 0.44101968 -0.18301484 -0.22542942 0.12706026 -0.11959531 0.42297408 1.2251998 -0.26587203 -0.13713698 0.0053131534 0.55014294 0.48381722 -0.048578065 -0.2136278 -0.30559555 0.47586006
Dresser -0.8985994 -0.7396666 0.87799495 -0.19796747 0.76986253 -0.093451455 0.08576496 -1.1790671 -0.16070181 -0.23039296 0.4486389 0.4270065 -0.06813721 0.23059274 -0.5055287 0.24494573 -0.33922115 0.090403646 -0.173749 0.1292239 0.16338237 0.04700022 -0.7408251 -0.031674188 0.27987954 -0.33496174 0.6811295 -0.4093423 0.32249582 0.54932874 -0.7857161 -0.66488194 -0.20714623 0.53617394 0.17118667 -0.20160148 -0.04632464 -0.052348994 -0.026825283 -0.24416007 -0.023164252 -0.16883162 0.0624281 0.733193 -0.2341386 0.9283211 -0.22260067 -0.12101227 -0.19950679 -0.14000282
Piano -0.43843797 -0.2841283 0.23963341 -0.05487899 0.31396037 -0.23275812 0.13508254 -0.41518113 -0.320012 -0.068923056 0.44345677 0.20076977 0.029988568 0.2843739 -0.042354632 -0.11680758 -0.11826518 -0.2394247 -0.26858926 -0.39249092 0.24732092 0.47678494 -0.25093475 -0.3567032 0.05645695 -0.26190946 0.2073907 -0.12842992 0.23673311 -0.08231333 -0.24748997 -0.5409762 0.07989231 0.10373195 0.039913014 -0.04397176 -0.6463656 0.24538861 -0.08379114 0.48496822 0.20518233 0.1717514 0.07445295 0.35129791 -0.039260577 0.52022856 -0.2607601 0.10226253 -0.37822667 -0.20694287
CutlaryDrawer -0.52123296 -0.39598033 0.20671089 -0.37198722 0.07294648 -0.09087942 -0.20282386 -0.39389986 -0.16824499 0.12665784 0.48943397 0.21697365 -0.016001431 -0.10531861 0.46095252 -0.04731781 0.035981722 -0.14356819 -0.28121972 -0.1353917 0.1790518 -0.071364835 -0.095154375 0.50850475 0.18314518 0.34145012 0.38871068 0.17432295 0.025658319 -0.19970666 0.0328816 -0.41785267 -0.20405373 0.23760216 0.44127107 0.13681555 -0.13688327 -0.053664368 0.047543522 0.095332146 0.60730916 -0.023731425 -0.5671331 -0.034712117 0.047947235 -0.19196315 -0.5048345 -0.26065347 -0.2955955 -0.35349602
Chair -0.22796974 -0.22776486 0.115725785 -0.219354 0.061063156 -0.27737704 0.10239556 -0.1834824 -0.37731838 -0.09082223 0.38372514 0.2266798 -0.26094064 0.006952791 -0.030627295 -0.1565992 -0.005954163 -0.031510565 -0.28254876 -0.3033127 0.22270882 0.32025668 -0.20424394 0.044579577 -0.14633684 0.110850945 0.31127495 -0.18262295 -0.018156262 -0.16689226 -0.28869247 -0.395999 0.030385153 0.25593013 0.36393175 -0.05529197 -0.3580939 0.2213772 -0.02017969 0.22478421 0.44081995 0.06568961 -0.018170083 0.19644724 0.13949239 0.21875304 -0.0259769 -0.17779312 -0.29475713 -0.04718462
ToiletDoor -0.16483332 -0.25882864 0.08169328 -0.23124899 0.17659952 -0.26891744 0.07688367 -0.21563786 -0.42953452 -0.20703714 0.3408611 0.107266255 -0.16052945 0.12121589 -0.12680101 -0.18820526 -0.0039250795 -0.0884929 -0.20555724 -0.21828549 0.033101443 0.5448671 -0.10401794 -0.09895304 -0.12548421 -0.07864804 0.28175193 -0.12308611 0.042076975 -0.2460961 -0.14568514 -0.31907883 0.15585038 -0.056537915 0.31088004 -0.026592124 -0.39576042 0.28895617 0.01575959 0.16224352 0.12439813 0.14162481 0.0719029 0.2330926 0.036542296 0.16754375 0.009171821 -0.17877157 -0.2805401 -0.14700186
Fridge -0.21483217 -0.20535028 0.1767338 -0.33229968 0.2897361 -0.23840682 -0.029632293 -0.35181543 -0.41705775 -0.14442174 0.38049936 -0.030377245 0.07513884 0.20274587 -0.18597917 -0.27464017 -0.032209367 -0.057120435 -0.22389944 -0.43177274 0.20548199 0.5017833 -0.017797189 -0.19670857 -0.1483471 -0.25040564 0.33266675 -0.25619802 -0.015768329 -0.2534784 -0.32637405 -0.34050342 0.05164098 0.0321957 0.31079873 -0.2532079 -0.52556103 0.3561042 0.11944599 0.36982462 0.13912094 0.19436114 0.097379275 0.45027727 -0.04712086 0.27805817 -0.08885754 -0.22438298 -0.5192883 -0.09422324
StoveLid -0.19173785 -0.18150972 0.1414534 -0.35205573 0.2922588 -0.22311923 -0.048337486 -0.32177544 -0.42455 -0.13446626 0.347865 -0.078495964 0.107403286 0.20948508 -0.21469599 -0.31225508 -0.015327751 -0.07452074 -0.19455582 -0.44676575 0.1965298 0.51970655 0.032117262 -0.23239484 -0.18031515 -0.30265024 0.30755487 -0.2791112 -0.03929789 -0.27577063 -0.3055532 -0.3174126 0.07655516 -0.035698842 0.2758575 -0.29611585 -0.5424637 0.39235067 0.1377704 0.37687662 0.078894146 0.22815196 0.15348156 0.46788642 -0.081780456 0.25755012 -0.07343584 -0.22984917 -0.52952677 -0.087987505
BedroomDoor -0.15094885 -0.16990578 0.22281879 -0.28517613 0.16254672 -0.18577327 -0.10057597 -0.33603638 -0.07366967 -0.12165846 0.17587766 0.05655918 0.065023914 0.18917237 0.00037542364 -0.11317081 -0.028339216 0.15087852 -0.31695238 -0.29022032 0.16250582 0.12607071 -0.1493259 0.06635233 0.0015222132 0.008294926 0.20564592 -0.16187553 -0.046397995 -0.20433666 -0.27035215 -0.17579606 -0.17242077 0.18138073 0.28034276 -0.19792113 -0.108240075 0.1046164 0.16166145 0.31134197 0.3468576 -0.09777772 -0.169486 0.17935191 0.07155887 0.09274592 -0.03358496 -0.2348806 -0.33057156 -0.19590594
Frontdoor -0.16006306 -0.14102997 0.12255857 -0.30601546 0.19233541 -0.21796656 0.0071243388 -0.27782598 -0.37579367 -0.11279543 0.325544 0.003181307 0.051758554 0.1940599 -0.13888408 -0.27482826 -0.030710043 -0.049672816 -0.25833043 -0.4390582 0.20704097 0.41824058 -0.030831855 -0.16703898 -0.14258309 -0.19382985 0.2771166 -0.25711745 -0.022523083 -0.27971214 -0.30283302 -0.3169887 0.01840743 0.04224392 0.28599754 -0.23824908 -0.5013924 0.32231963 0.10112545 0.39201218 0.21236639 0.15227021 0.079159506 0.36700317 0.018406913 0.21140267 -0.060609 -0.21111985 -0.49051526 -0.09490446
Sink -0.31146154 -0.38731784 0.3029674 -0.31290048 0.33020553 -0.28186062 -0.076003335 -0.45732635 -0.29156443 -0.13451321 0.39668882 0.046617992 -0.018562647 0.15186965 -0.061491635 -0.17867523 0.018189168 0.031951558 -0.33802754 -0.33823442 0.17741156 0.46807265 -0.15279186 -0.029584872 -0.09440284 -0.013266138 0.46705738 -0.12341238 -0.034320734 -0.22016436 -0.31784168 -0.3398314 -0.017391378 0.20542099 0.4708447 -0.17191829 -0.33051637 0.24798967 0.1468723 0.32199034 0.3669382 0.016605325 -0.14898263 0.33440113 0.0152724525 0.17635854 -0.15938382 -0.33029056 -0.4200281 -0.1666223
ToiletFlush -0.23970291 -0.38571388 0.13794905 -0.28332028 0.18249397 -0.34354392 0.10367129 -0.29599145 -0.4861033 -0.2650846 0.45542106 0.19164526 -0.24678105 0.113754734 -0.09347711 -0.15828468 0.010619162 -0.089166 -0.27075782 -0.1960681 0.019931689 0.63785636 -0.1901835 -0.038544636 -0.10743703 -0.010814515 0.38544062 -0.092585 0.06947934 -0.2682902 -0.12405852 -0.4077048 0.17352359 -0.013742547 0.43609136 0.06422506 -0.38722342 0.27409583 0.007777947 0.13050288 0.2392912 0.11834724 -0.019626517 0.23527387 0.06263894 0.16099049 -0.01749051 -0.24233922 -0.26714066 -0.18336219
BalconyDoor -0.15607132 -0.16035259 0.12623438 -0.27345154 0.22581235 -0.18738417 -0.017206194 -0.27853587 -0.3194087 -0.11615716 0.2816304 -0.040619925 0.06520415 0.17114076 -0.13584706 -0.2278437 -0.01601096 -0.03284732 -0.19810866 -0.3631794 0.17499016 0.38897374 -0.01681456 -0.15518379 -0.10669285 -0.19488792 0.2616146 -0.21640423 -0.028559428 -0.19640848 -0.27279887 -0.26393175 0.032227293 0.017801316 0.23870489 -0.22528237 -0.4224026 0.29505715 0.1005398 0.3198437 0.12366262 0.14233671 0.08282502 0.3478882 -0.042516828 0.2016873 -0.06443682 -0.17272864 -0.41710308 -0.09138502
Toaster -0.16705929 -0.1924235 0.18866551 -0.31385958 0.22517602 -0.22927797 -0.05846233 -0.33281767 -0.2718549 -0.14312911 0.2920502 -0.034084924 0.09044311 0.17908543 -0.096668385 -0.24418917 -0.020750444 0.0062689926 -0.2645468 -0.41173968 0.2041132 0.4039261 -0.046162285 -0.089764126 -0.10970606 -0.13655053 0.2848033 -0.19053604 -0.0657024 -0.2641791 -0.28425196 -0.257653 -0.023126561 0.07390075 0.34229833 -0.24492861 -0.36906835 0.26791355 0.15169157 0.36087993 0.22378759 0.08294785 -0.03673121 0.34893897 -0.015783556 0.14516902 -0.07083172 -0.27237415 -0.45259506 -0.12474652
Microwave -0.2286391 -0.28334063 0.24964905 -0.33468467 0.2377718 -0.25827396 -0.08765586 -0.38672638 -0.2575403 -0.14699161 0.38457993 0.040038742 0.044278778 0.15809654 -0.08849784 -0.16898434 0.0011103975 0.026654508 -0.30759352 -0.34408712 0.18942165 0.39050272 -0.11700018 -0.035188742 -0.08066341 -0.079240724 0.35310447 -0.15919188 -0.03782188 -0.2392665 -0.26295286 -0.2718058 -0.040461503 0.13844596 0.40286633 -0.15909734 -0.29630056 0.22426671 0.11911584 0.3061792 0.31872633 0.04088095 -0.07962966 0.32456687 0.0063758814 0.16153449 -0.095665306 -0.30772734 -0.39627504 -0.14912564
Window -0.21875715 -0.2578588 0.22022809 -0.2787911 0.19643407 -0.22698294 -0.05779119 -0.3466234 -0.19460462 -0.12960726 0.33548984 0.09326676 -0.01587056 0.11942849 -0.031479664 -0.11316378 -0.0025431912 0.03981493 -0.2834161 -0.26957268 0.14894798 0.30498314 -0.15001783 0.015472105 -0.058102176 0.0023019202 0.3157721 -0.09833863 -0.019164901 -0.186781 -0.21226503 -0.2591963 -0.045965586 0.15674743 0.35057613 -0.10994103 -0.20205165 0.14998245 0.09064904 0.25682482 0.3397378 -0.0016256968 -0.13620211 0.22026621 0.0389965 0.12452718 -0.09283634 -0.2486959 -0.29770932 -0.1591559
CupboardPlates -0.17100547 -0.17259303 0.15288885 -0.2665377 0.21595348 -0.181822 -0.049969427 -0.28564447 -0.25018 -0.108820386 0.26836613 -0.0025777943 0.05715574 0.147203 -0.09616316 -0.1818466 -0.0063332953 -0.0061298227 -0.20969518 -0.31163973 0.1524578 0.3409565 -0.047261182 -0.078215055 -0.08830151 -0.120845184 0.26648772 -0.16380665 -0.037053764 -0.20194848 -0.22049135 -0.22534584 -0.0049231094 0.06371527 0.2765562 -0.18727852 -0.3100486 0.23519805 0.10196605 0.27827668 0.18374765 0.07679437 -0.013797 0.28664064 -0.016621241 0.14502612 -0.078646325 -0.20207024 -0.35443068 -0.10985527
CupboardGroceries -0.069624394 -0.084329106 0.05594049 -0.062483896 0.04011482 -0.05632424 -0.014151922 -0.08774821 -0.061765496 -0.038843032 0.10021076 0.041981388 -0.02442752 0.0142078 -0.0036955937 -0.013169342 0.011708641 0.011894629 -0.068244904 -0.05581309 0.043998428 0.080472074 -0.046331495 0.023417166 -0.010223879 0.011620203 0.096241266 -0.01169775 0.008797945 -0.035121042 -0.06025229 -0.080084205 -0.0034540228 0.058347166 0.101076744 -0.0026764022 -0.03814028 0.03072593 0.018414333 0.0433831 0.09188433 -0.005298165 -0.0372686 0.05936976 0.008735988 0.028172208 -0.014288264 -0.078128316 -0.06322394 -0.042875852
