22 50
KitchenPIR 0.41732985 -0.06837482 -0.5182712 -0.39963233 -0.45422426 0.5332883 -0.058243066 -0.5095273 1.1554257 -0.24090767 -0.04508755 -0.090796255 -0.29424015 -0.4334094 -0.7927737 -0.26234135 0.76362383 -0.22639719 -0.2009001 -0.96749157 -0.6738845 -0.7230983 -0.03276286 -0.22191548 0.32889152 0.70595896 -0.5442747 -0.70845276 0.051308043 -0.2859554 0.30850756 0.22125368 0.2326608 -0.65751487 -0.008550606 0.1892327 -0.89697677 0.2544014 0.05043758 -0.7107942 0.31665587 0.1429043 0.11155845 0.26785824 0.27371088 -0.5072102 0.052468497 0.0032105856 0.049394645 -0.17618193
BedLeft 0.20493716 -1.2841052 -0.6367297 -0.77609795 -0.7397013 -0.53621024 -1.0493083 -0.9503373 0.4878156 1.0232096 -1.1575847 -0.0081875 0.90824264 0.20738997 -1.0955833 0.10136244 -0.32377663 0.78447664 0.073561616 0.28842115 1.0823209 0.39801574 0.9093069 -0.52099466 -0.5047644 -0.05508202 -0.8542795 0.08204968 -0.052713595 0.60934186 -0.10335608 0.77132744 1.0051782 0.33086562 -0.5491307 0.09359832 -0.050866764 -0.025293244 -0.559632 -0.6803804 0.14237353 0.6925355 -0.5193994 0.8012309 0.54936564 -0.28445938 -0.5117278 0.80549043 0.32932284 -0.16270596
BathroomPIR 0.27039886 -0.41477248 0.490955 0.568879 0.15924792 -0.4063612 -0.6543877 -0.5651981 -0.14070034 -0.6673371 0.51219034 1.0538601 0.3963859 -0.911129 -0.35129082 0.9693858 -0.19047521 0.932994 0.13191706 -0.18362631 -0.61067325 -0.14799313 -0.08156709 0.3753441 0.11604019 0.9489085 0.5634919 -0.83362556 0.11523167 0.43805206 0.2125797 -0.41633555 0.7404152 -1.5796999 1.0901268 -0.14870113 -0.7284736 -0.32330188 -1.069264 -0.086216606 -0.22344281 -0.66579264 0.09325032 0.6815108 -0.5063538 0.23744081 0.36769113 -0.5784014 0.52951086 0.85936564
BedRight -0.15770052 -0.1094791 -0.09752553 -0.06472407 0.020596616 0.3666587 0.54119444 -0.26324326 -0.32252347 -0.18264529 -0.29710862 0.46226224 1.0391462 -0.27803653 -0.27618834 0.14256108 -0.17018469 0.6365521 0.16600062 -0.16685589 0.977076 0.6770217 1.2934486 0.36866006 0.21471344 0.124031305 -0.35940656 0.16904141 -0.37469774 -0.3032593 -0.2900701 -0.2727671 0.72099686 0.5076659 0.7826385 0.17915353 -0.60669684 0.26200905 0.21085715 -1.1886799 0.7163324 -0.55655885 -0.15341327 0.7347123 -0.38857222 0.23829992 -0.87669665 1.1824577 -0.7840036 -0.4807326
BedroomPIR -0.1548181 -0.7091322 -0.121572316 -0.24152432 0.20008227 -0.060264125 -0.37941876 0.08561779 0.38563192 0.43554667 -0.062451452 0.14443156 0.5324778 -0.14817896 0.13523896 0.5018336 0.5492084 -0.054206397 0.5174549 -0.044987973 0.22905965 0.34896165 0.32178152 -0.39575252 0.3071676 -0.6067747 0.1503092 -0.6238729 0.5156069 0.7034604 0.052004486 -0.0011780988 0.0027396835 -0.22393155 0.45631397 -0.10822902 -0.75222206 -0.1550744 -0.04077911 0.08977296 0.45329195 0.42621624 0.026168928 0.018821279 -0.3253053 -0.35856062 -0.8464743 0.54229313 -0.592365 0.36710462
Dresser -0.562175 -0.5124004 -0.41771695 -0.6107504 0.07257052 -0.491845 -0.08430295 -0.6638773 -0.32827857 0.6577802 -0.09928177 0.105408184 0.44329995 0.06489301 -0.832045 0.19208288 0.23598169 0.7967542 0.20101629 0.06467751 0.47522247 -0.11483313 0.8565722 0.48113385 -0.36786345 -0.16022986 0.32232782 -1.0436121 -0.39366996 -0.088518806 0.12036719 0.17686732 0.13211598 0.12296065 0.6174756 -0.048550405 -0.31514314 -0.6266461 -0.16609249 0.03890448 0.5780076 -0.36887264 -0.4770657 0.34721452 0.07823682 -0.07589427 -1.0119531 -0.025586316 0.054432996 0.65678763
CutlaryDrawer 0.29315242 -0.19984698 0.24176623 0.003946999 -0.080013745 0.28197247 0.098138645 0.178804 0.08488599 -0.09877118 -0.52237445 0.10858898 0.40575472 -0.19988297 0.010027068 0.34549865 0.058164977 0.24069463 -0.06360532 -0.26861906 0.40663794 -0.16100381 0.4750155 0.16616392 0.23466428 0.18025953 -0.18499455 -0.35483658 -0.050717887 0.16921045 0.22965293 0.12905021 0.26722845 -0.41241783 0.37502682 0.21848126 -0.38384324 -0.43813735 -0.17655723 -0.21807416 0.09448019 -0.25292966 -0.2778934 0.20317301 -0.38391963 -0.08162435 -0.3163417 0.41347042 0.14480563 -0.018738462
Piano 0.13550135 -0.3050251 -0.11444109 -0.13109118 -0.13273472 0.11162584 -0.10825796 -0.32887208 0.33401597 -0.1018511 -0.08042323 0.18760984 0.13690577 -0.21322124 -0.29810616 0.10706353 0.29936805 0.20169933 -0.022791563 -0.3457187 -0.10018381 -0.12208825 0.2668945 0.02226669 0.22286232 0.25010526 -0.115571186 -0.5041115 0.06936426 -0.017532669 0.11707771 0.030034648 0.3107796 -0.4042314 0.2933361 0.0024130314 -0.5912041 0.026837599 -0.10639027 -0.39800292 0.20234396 -0.057633266 -0.044777755 0.20323712 -0.079159185 -0.09465124 -0.15319805 0.1709397 -0.0066202777 0.08743511
Chair 0.071140826 -0.2691789 -0.09034562 -0.088877745 -0.0033484567 0.088108756 -0.11982429 -0.2117088 0.3403563 -0.09406173 0.044649955 0.19630015 0.14178766 -0.26905605 -0.20937037 0.18700369 0.34295583 0.101345375 0.07669893 -0.30814204 -0.21232775 -0.13482857 0.1446432 -0.042034637 0.21968725 0.20611145 0.00042010212 -0.5457087 0.101486854 0.07088805 0.12890714 0.0047274865 0.1813152 -0.43604207 0.32188028 -0.02022818 -0.60492945 -0.027438838 -0.16729541 -0.25121146 0.21845034 -0.02110693 0.0013261299 0.20228836 -0.13938212 -0.13582806 -0.19332933 0.091501705 -0.09549336 0.15360239
ToiletDoor 0.10353634 -0.22911604 -0.021854375 -0.018359544 -0.044939272 0.040711906 -0.1328726 -0.30015728 0.25583363 -0.17152314 0.06915963 0.27653018 0.1289674 -0.35534704 -0.31048432 0.2288764 0.21641275 0.23952161 0.025654985 -0.33775905 -0.22517206 -0.17692578 0.12417492 0.083176196 0.15849385 0.36251634 0.010196875 -0.52298087 0.029460058 0.02218295 0.14224902 -0.04959632 0.2830769 -0.54626566 0.3983336 0.008943339 -0.5517891 -0.06056938 -0.23903002 -0.27071953 0.14755593 -0.17394117 0.013536741 0.26185527 -0.11601467 -0.07344429 -0.068706945 -0.038803943 0.058769908 0.21977766
Fridge 0.16249718 -0.20882443 -0.20184034 -0.16869257 -0.12846749 0.24479854 -0.026713435 -0.3037249 0.5203634 -0.15690716 -0.053596474 0.12493332 0.103516 -0.33306774 -0.4187373 0.06051672 0.40960437 0.07827868 -0.009894432 -0.5320612 -0.20887122 -0.2875821 0.2408848 -0.004015195 0.25174785 0.36439985 -0.20313552 -0.58752155 0.03304089 -0.07732357 0.18896186 0.041189533 0.2424383 -0.46753848 0.2997011 0.10048957 -0.6942853 0.002814211 -0.07172348 -0.4716277 0.3121125 -0.060723335 -0.018595086 0.24499181 -0.06113366 -0.21377786 -0.21742924 0.14819773 -0.0631596 0.021462752
BedroomDoor -0.0118191205 -0.33876172 -0.15057372 -0.18016106 -0.08177293 -0.05699166 -0.14794727 -0.28069645 0.14753507 0.12272399 -0.1788754 0.12587547 0.3098851 -0.11669216 -0.34204963 0.12379134 0.09592304 0.2789389 0.062146265 -0.10894901 0.19360869 0.030395847 0.3475936 0.018308632 -0.0040077716 0.09985203 -0.109253086 -0.29466712 -0.035197582 0.065476365 0.033242315 0.083941974 0.29013723 -0.09669902 0.1935872 0.029365372 -0.33745947 -0.062826276 -0.1374926 -0.28958848 0.19781218 -0.015958287 -0.116499394 0.28479722 -0.004813627 -0.08566309 -0.2884935 0.20888771 -0.02113754 0.08216265
StoveLid 0.16351476 -0.21181756 -0.23044568 -0.18638408 -0.1365011 0.26589558 -0.01906648 -0.3335207 0.53134817 -0.1557386 -0.051824488 0.1485196 0.12479171 -0.36165363 -0.45592034 0.05837005 0.4339917 0.094928905 -0.013171467 -0.5561671 -0.19905782 -0.28847364 0.2701616 -0.004079636 0.256174 0.37908623 -0.20038833 -0.61237895 0.01807527 -0.08666048 0.17463276 0.031455096 0.26438493 -0.45679435 0.3299328 0.08984162 -0.7529672 0.015474181 -0.049354043 -0.5047905 0.35119772 -0.07673918 -0.019301178 0.27528706 -0.06726417 -0.21736753 -0.23888648 0.17510986 -0.110862605 0.027863206
Frontdoor 0.13516769 -0.15186997 -0.18586652 -0.16606832 -0.10539484 0.22561157 -0.0315065 -0.26614574 0.4682967 -0.11780096 -0.013424697 0.11175271 0.06846447 -0.29190886 -0.3558684 0.046515416 0.38336286 0.050897628 -0.013908799 -0.4764688 -0.21410549 -0.23739131 0.17899248 -0.012741084 0.23793295 0.3136947 -0.15182374 -0.5125029 0.040499214 -0.04980599 0.17126727 0.02392051 0.20664683 -0.43058667 0.26221842 0.083105065 -0.6396097 0.03200831 -0.03140726 -0.39860415 0.27215025 -0.028701723 0.0014541245 0.21813428 -0.03788819 -0.18936169 -0.18338135 0.106869996 -0.08091126 0.035191834
Sink 0.0973355 -0.333521 -0.14099921 -0.14628817 -0.11617004 0.13522597 -0.12065382 -0.3732782 0.3448032 -0.066671394 -0.100108944 0.18063232 0.24313667 -0.32116404 -0.39554983 0.15608312 0.2844976 0.25742948 0.046402246 -0.35114893 -0.038569335 -0.14678015 0.37766302 0.0058972654 0.20363498 0.3481689 -0.12349955 -0.53386 0.028365843 0.036471065 0.13927552 -0.0015544614 0.3800789 -0.3900612 0.37342957 0.09021931 -0.6563434 -0.007630413 -0.18129477 -0.49317488 0.29095927 -0.1389476 -0.052503113 0.33899894 -0.1206051 -0.09437824 -0.28230157 0.20608594 -0.035097502 0.097714245
ToiletFlush 0.09372768 -0.22265308 -0.015891565 -0.018696379 -0.040912323 0.021214198 -0.14227138 -0.29247507 0.22094871 -0.15947708 0.032274675 0.26317385 0.15190051 -0.31112662 -0.30552438 0.21367353 0.16011697 0.25190547 0.027274493 -0.273578 -0.15719783 -0.14559843 0.15966241 0.07669722 0.14042608 0.35580468 0.017536037 -0.46063414 0.025492968 0.026056966 0.12267359 -0.03738714 0.2783247 -0.4931426 0.38475478 0.018786415 -0.48886028 -0.055840295 -0.24226704 -0.25898513 0.12778524 -0.16207306 -0.0042150454 0.27338186 -0.1321628 -0.06250888 -0.0819467 -0.008579893 0.064530775 0.19637999
BalconyDoor 0.12831415 -0.23572075 -0.15503594 -0.1534268 -0.10632069 0.17437845 -0.071634434 -0.28622165 0.4068474 -0.08291537 -0.060834985 0.14575073 0.14213558 -0.28172624 -0.37117943 0.10039054 0.33280656 0.13754632 0.024237953 -0.40595952 -0.115019076 -0.19440241 0.24572301 -0.017170597 0.1914194 0.28550568 -0.15850449 -0.5088014 0.04289298 -0.008765932 0.15118104 0.04943661 0.25938597 -0.39551893 0.28686416 0.0630163 -0.61029285 -0.013174768 -0.080448136 -0.39445168 0.25442782 -0.0441125 -0.030607533 0.25687945 -0.05861259 -0.1599365 -0.22036137 0.16379133 -0.05732132 0.0503911
Toaster 0.116820715 -0.2768321 -0.17804228 -0.18028532 -0.1320293 0.1286303 -0.12081825 -0.3091676 0.3712798 -0.038465474 -0.09761224 0.16349779 0.21328224 -0.27439305 -0.3898042 0.13682912 0.2723212 0.18578644 0.034358464 -0.36618665 -0.04378854 -0.10866473 0.30161932 -0.02887107 0.15583281 0.2769615 -0.15556586 -0.45991844 0.021399189 0.020250807 0.113266565 0.05475084 0.31358722 -0.33454084 0.2930349 0.07490565 -0.5848964 0.004071921 -0.11708179 -0.4112623 0.26274902 -0.032199137 -0.044857506 0.31273276 -0.046647903 -0.13685359 -0.2612016 0.22314799 -0.07055178 0.056771304
Microwave 0.11487081 -0.2413879 -0.13995084 -0.13243395 -0.08948415 0.10878482 -0.08998283 -0.29843235 0.3249525 -0.07361907 -0.05993514 0.17140026 0.20138358 -0.27247095 -0.3719029 0.14092176 0.239946 0.20930724 0.03934391 -0.33035156 -0.059586316 -0.14036421 0.27328265 0.011471053 0.15057823 0.2834734 -0.1287745 -0.44867703 0.012077961 0.013405748 0.11192115 0.02319465 0.2853121 -0.36901018 0.31391406 0.058422334 -0.5582826 -0.026319854 -0.13917105 -0.38160884 0.24564299 -0.08434537 -0.044307325 0.2766325 -0.08572368 -0.13170868 -0.21982418 0.15656634 -0.037022263 0.0681715
Window 0.081899025 -0.3072767 -0.09546318 -0.10924836 -0.077812836 0.0351002 -0.14070429 -0.29410717 0.22646174 -0.018351015 -0.09986041 0.1939968 0.23546629 -0.22592293 -0.33756244 0.18437631 0.17657469 0.2598976 0.054812305 -0.23987156 0.02083669 -0.06379349 0.27706835 0.017762627 0.09390924 0.22456092 -0.07312045 -0.41029295 0.011913921 0.07831438 0.10455365 0.04016272 0.29444966 -0.3384779 0.29995686 0.023777625 -0.4803204 -0.06819696 -0.18765536 -0.3175967 0.2077273 -0.06259267 -0.062303703 0.2860138 -0.08431035 -0.08663417 -0.228486 0.1553671 -0.018512908 0.12556432
CupboardPlates 0.115289554 -0.20475464 -0.13949138 -0.13032116 -0.113759294 0.11587382 -0.07331896 -0.2602227 0.29932326 -0.055175792 -0.070199594 0.13507473 0.14747512 -0.22854052 -0.33033976 0.08969871 0.24275917 0.14108518 0.015781322 -0.30769283 -0.04703083 -0.12989387 0.22970589 0.010958395 0.13245647 0.25022832 -0.14570509 -0.38409534 0.0035087736 -0.005260124 0.097549796 0.03851892 0.24303997 -0.29601744 0.23267287 0.051874455 -0.47423264 -0.0021624034 -0.09263772 -0.3310015 0.21456209 -0.060105372 -0.030821925 0.24096681 -0.04999087 -0.13470073 -0.17738317 0.14494641 -0.022810567 0.045604527
CupboardGroceries 0.022317665 -0.08838848 -0.0376876 -0.026676659 -0.018407045 0.025364123 -0.03452596 -0.0793256 0.070862666 -0.010116223 -0.019542472 0.052464783 0.067166 -0.06581013 -0.10497342 0.05188337 0.0517609 0.07267496 0.022044105 -0.06842269 0.0033344766 -0.01608263 0.07988691 0.0125216525 0.03172407 0.07158503 -0.019688424 -0.120410524 0.008091307 0.019608518 0.020933416 0.0007883469 0.085260235 -0.098527886 0.093867145 0.017861601 -0.14026129 -0.021034148 -0.044556692 -0.088303514 0.061921544 -0.02881823 -0.017482283 0.07718227 -0.02437364 -0.021866536 -0.0698285 0.041822843 -0.006924195 0.029929781
