22 50
KitchenPIR -0.43166286 0.32846105 0.38537067 -0.44620398 0.30594084 -0.13162635 0.37109673 -0.18827243 0.32145157 -0.22233969 0.20044072 0.05265015 -0.2094067 -0.21311373 -0.27477494 -0.10331817 0.524765 -0.51415485 -0.929524 0.67726856 -0.51269287 -0.6837382 -0.47844246 0.528289 0.3464321 0.4986756 -0.051430266 -0.13489304 0.17440544 -0.23866133 -0.13293564 0.60236144 1.388665 -0.3330137 -0.28109637 0.28687736 -0.39813563 0.14838862 0.3760284 -0.6392768 0.25065917 -0.33903825 0.5898839 -0.85658175 -0.20326662 0.17041545 -0.18708526 -0.4609447 0.004102463 0.1477818
BedLeft 0.09147735 -0.4188045 -0.69536644 0.0155277345 0.7827935 -0.002260751 -0.27130175 0.32936025 -0.22850038 0.36770836 -0.42637616 0.21703516 -0.78821325 -0.75212777 -0.25278836 -0.3933173 0.015271484 0.75543493 -0.87085474 -0.4335574 0.6177764 0.39476314 0.29826787 0.16591588 0.37762874 0.90811735 0.9730131 0.3622102 -0.9590762 -0.1614564 0.053826276 0.6960803 0.6417145 -1.0206308 -0.9512141 1.093426 -0.4399187 -0.5159502 0.9529807 0.7765908 -0.12679063 -0.57246464 0.5937905 -1.4383805 0.4597488 1.0090479 -0.69851166 0.05006683 0.1998931 0.23153836
BathroomPIR -1.0529673 0.8445137 0.53487945 1.0552604 -1.2806469 -0.36449468 0.06824172 0.23770975 0.8059559 -1.366738 0.7463501 -0.98341477 -1.0670905 -0.6698263 1.0071725 -0.16184054 -0.14482555 -0.3930625 -0.9073198 -0.23420177 -0.5204472 -0.85996985 0.7680945 0.105899245 -0.22447655 -1.0381749 -0.38079983 -0.09150651 0.46347797 -0.769424 0.8698233 -0.38679343 0.63025403 0.5585122 0.6982156 0.32403365 -0.3930234 0.53798324 -0.014376819 0.16393243 0.27039063 0.5444869 0.6576824 0.1846579 0.0055177053 -0.3501529 -0.7324826 -0.24237056 -0.7400818 -0.7024778
BedRight -0.041882545 0.9257236 -0.877076 -0.20030327 0.42058712 0.7931233 1.0786353 1.0800467 0.5818036 -0.15020235 0.7461446 0.561927 -0.07615588 -0.60912967 -0.24314415 -0.44233766 -0.018649768 0.04538193 -0.8596827 0.08747064 0.45631972 0.41867945 0.37957352 -0.07544208 -0.21130261 -0.01930793 0.5807407 -0.20684259 -1.1225971 0.4082501 0.5391487 -0.33201098 -0.12562162 -1.1487026 -0.26209998 -0.19145626 -1.0558484 -0.3376314 0.5893426 -0.003312353 -0.4918644 -0.6022863 -0.41711134 -0.2817201 0.75056446 0.5489239 0.0060222344 -0.2708549 -0.09753865 0.23485647
BedroomPIR -0.3024561 -0.2018736 -0.02903112 0.48209542 -0.83513457 0.52380854 0.29808688 0.23041636 0.14753537 -0.7618536 -0.04400155 -0.26378375 -0.1948739 -0.33963105 -0.04422496 -0.49492624 0.45361945 -0.37106058 -0.18693648 -0.35097107 -0.47410244 0.48280558 0.4634578 -0.5172787 -0.5969733 0.3568895 0.18276806 0.33376634 -0.8816023 0.19013175 0.083243646 0.47927213 0.21312097 -0.2631001 -0.05620973 -0.10170024 -0.25650135 -0.73202336 0.37255892 0.80518544 -0.07415973 0.29265144 0.013795941 -0.701343 0.24327986 -0.7381306 -0.08427956 -0.060912598 -0.5290536 0.04350356
Dresser -0.70925385 0.5969467 -0.23430645 0.50429755 -0.14560543 0.092360325 -0.42194536 0.07656019 -0.029878095 -0.6371017 0.431463 0.2709382 -0.34919795 -0.3534838 0.6859955 -0.29096133 -0.49108726 0.6987434 -0.9831945 -0.9175729 0.64651144 -0.041985158 0.54356223 -0.6880587 -0.65878844 0.33123732 0.32987103 0.0023017176 -0.6362475 -0.63173974 0.2299043 -0.25096107 -0.086727984 0.0042098872 -0.39499724 0.6842122 -0.75086474 -0.67645144 0.72106725 0.68268967 -0.37803087 0.03261172 0.088153385 -0.034679905 0.047527507 -0.33363247 -0.43901536 -0.22360617 -0.50502104 0.35082725
Piano -0.6820445 0.5216634 0.16197136 -0.035257876 -0.10144192 -0.008960312 0.45735565 -0.0916022 0.23646133 -0.44476625 0.37038895 -0.32297954 -0.34201548 -0.29404828 -0.009137769 -0.09990799 0.041484173 -0.49377948 -0.8292968 0.3591188 -0.21204358 -0.5516543 0.24051356 0.020017333 -0.023483222 0.06428605 -0.18173695 0.016861983 0.24190247 -0.17860948 0.056743063 0.070586696 0.5404987 -0.13893422 0.30292293 0.17071311 -0.13566954 0.16330908 0.2745002 -0.06442471 -0.11575933 -0.0023988278 0.36052313 -0.43249342 0.11639435 0.03565643 -0.21796839 -0.097711086 -0.39846134 -0.21171851
CutlaryDrawer -0.18284713 0.3214767 -0.123633645 0.44895914 -0.38662326 0.21476668 0.023158263 0.2751137 0.36107367 -0.090719506 -0.057536066 -0.31977558 -0.593491 -0.3750514 0.19830917 -0.25677735 -0.044912357 0.045428175 -0.2955117 -0.103284 -0.09065069 0.028563809 0.528622 -0.21437453 0.06354389 -0.43734464 0.22070093 0.19423874 -0.2941202 0.0006493532 0.4736072 -0.14276145 0.25882936 -0.075042635 -0.14609629 0.1382079 -0.28346023 0.062412124 0.26795194 0.24274597 -0.360914 -0.12434872 -0.0006719619 -0.37748647 0.2428991 -0.0060167196 -0.5525231 0.39961514 -0.20636502 0.014513078
Chair -0.37126988 0.21000482 0.04028923 0.26188967 -0.2862303 0.118588224 0.25347552 0.10510363 0.25298688 -0.45078516 0.19033006 -0.14809108 -0.32956252 -0.33975777 0.04746716 -0.24706064 0.20027316 -0.25086913 -0.48755002 -0.021436263 -0.2353367 -0.05140841 0.25173426 -0.05249282 -0.15109165 0.13167986 0.025969675 0.10951446 -0.29707968 -0.111353055 0.17388596 0.1504208 0.4538458 -0.17927198 0.0024037426 0.045865253 -0.22847341 -0.2025365 0.22049406 0.19649513 0.0042599603 0.08403341 0.1659604 -0.36499846 0.067949206 -0.20925713 -0.19498496 -0.08445647 -0.34540245 -0.027748616
ToiletDoor -0.39970466 0.3245248 0.16792542 0.16381757 -0.20806439 -0.052223146 0.14688037 0.04160676 0.27147853 -0.4066132 0.2434902 -0.19499043 -0.29818124 -0.2456607 0.1591238 -0.1068088 0.08057849 -0.20826674 -0.52862394 0.06631691 -0.18124945 -0.33451122 0.12681508 0.07196046 -0.04141373 -0.055643555 -0.05176252 -0.021519918 0.060802545 -0.23458348 0.17503029 0.048592463 0.46243823 0.0003018894 0.07834402 0.1641753 -0.24142745 0.078925855 0.1701092 -0.050979733 0.04336318 0.03830454 0.27180603 -0.21033825 -0.011959401 -0.06205527 -0.22996294 -0.15833798 -0.23626173 -0.10020831
Fridge -0.40239787 0.36992106 0.17807356 -0.12790963 0.03733864 -0.003645959 0.3275845 -0.0043015005 0.2959675 -0.32167152 0.25897068 -0.031239558 -0.24671674 -0.2657692 -0.05404731 -0.1472429 0.26285785 -0.34553596 -0.7354028 0.30799693 -0.27605444 -0.40789425 -0.06712851 0.21108471 0.07106145 0.22301844 0.00589897 -0.06717383 -0.013592392 -0.1474994 0.047025565 0.2604206 0.80711365 -0.2387024 -0.09441869 0.16448501 -0.351613 0.034150295 0.31674397 -0.25287038 0.05955788 -0.16575548 0.3493971 -0.51427054 -0.020046653 0.021366585 -0.20322448 -0.2708237 -0.18248777 0.053567607
BedroomDoor -0.22066513 0.1674703 -0.100946255 0.1273122 0.0046390677 0.04880079 0.036616832 0.12823425 0.10309421 -0.20823346 0.109547906 0.020050727 -0.26539227 -0.27602565 0.085080095 -0.1711769 0.0016392933 0.096014306 -0.47127628 -0.13202238 0.085035875 -0.037982363 0.18943793 -0.044242617 -0.07813402 0.17285602 0.1799956 0.054043557 -0.27266482 -0.15058644 0.11086271 0.088079736 0.2624715 -0.21031353 -0.16547453 0.27024806 -0.279017 -0.16386423 0.3032614 0.18257557 -0.07468197 -0.07319335 0.17281385 -0.33134672 0.10811975 0.07037515 -0.23012653 -0.09552091 -0.13873345 0.059258867
StoveLid -0.40555748 0.39771897 0.15511914 -0.11319958 0.041602187 0.01975862 0.33420748 0.026827171 0.3044876 -0.3313578 0.29143983 -0.007319507 -0.24701326 -0.26846766 -0.034647476 -0.16371652 0.24751076 -0.32169476 -0.7423414 0.28507897 -0.25249246 -0.38781568 -0.06216115 0.19382614 0.06592613 0.20773408 0.016227996 -0.06562874 -0.046575673 -0.15245466 0.06471467 0.24152632 0.77363753 -0.23832662 -0.10178966 0.1713419 -0.3676118 0.021774752 0.3213676 -0.22270197 0.051439386 -0.16295621 0.3228024 -0.49528083 0.005159736 0.0244979 -0.20334691 -0.27448416 -0.19084741 0.05171187
Frontdoor -0.38857704 0.3559568 0.17382461 -0.03542907 -0.053004153 0.019027876 0.29801726 0.02423665 0.27651796 -0.34349737 0.23733489 -0.07106127 -0.24036276 -0.23926501 -0.032367926 -0.14848618 0.22745495 -0.30461675 -0.6463205 0.256351 -0.27241918 -0.3590045 -0.03259001 0.15636571 0.03390414 0.15482216 -0.014083218 -0.03619368 -0.020720027 -0.16143793 0.078455 0.2142824 0.6833637 -0.1629586 -0.041588 0.12810454 -0.32482955 0.024480734 0.26162317 -0.17827341 0.043625765 -0.10238733 0.30894408 -0.40984353 -0.022017017 -0.008128726 -0.18911244 -0.2463593 -0.171745 0.031221345
Sink -0.44046855 0.37300223 -0.06678704 0.18700276 -0.0650309 0.021544617 0.2514986 0.19978175 0.3326227 -0.37765753 0.32463455 -0.06257266 -0.42016327 -0.42156106 0.12691738 -0.20529087 0.10277593 -0.08444419 -0.77932465 0.020253303 -0.06619119 -0.24669632 0.25704286 0.044181786 -0.08204377 0.12639776 0.12506753 0.006281135 -0.26071146 -0.22048213 0.2193467 0.11568893 0.5509352 -0.29368034 -0.13436326 0.2715992 -0.4381086 -0.10090153 0.36724705 0.09350972 -0.088339545 -0.12420012 0.32791597 -0.4312039 0.15161105 0.060819365 -0.36665362 -0.16265951 -0.27666658 0.021065038
ToiletFlush -0.38827136 0.33858696 0.15884374 0.12855843 -0.16061535 -0.05030284 0.18281227 0.035553545 0.28592622 -0.39746517 0.25435656 -0.15947454 -0.3015833 -0.2597866 0.12838416 -0.12645939 0.10085723 -0.2117876 -0.56573135 0.10189877 -0.19506876 -0.32764804 0.10166212 0.08840246 -0.0071036853 -0.01583064 -0.042814393 -0.022567786 0.011765428 -0.23141627 0.15676679 0.07830473 0.5299074 -0.065525316 0.032200947 0.16358402 -0.26808694 0.073248275 0.18815911 -0.06309871 0.045535695 -0.012352913 0.29187435 -0.27814955 -0.010355331 -0.03283826 -0.22781265 -0.17897312 -0.2187784 -0.064094715
BalconyDoor -0.38419944 0.33005854 0.074584894 0.005802381 -0.023500614 0.03392093 0.24567553 0.0689687 0.24442378 -0.33240867 0.23886952 -0.035414685 -0.27525112 -0.28181437 0.014434345 -0.15931752 0.1738338 -0.20557053 -0.66314596 0.1549083 -0.18580705 -0.287646 0.0643387 0.09363553 0.010582265 0.16631143 0.05215285 -0.016873445 -0.1184608 -0.16118728 0.10145688 0.17960581 0.622345 -0.22327164 -0.11364591 0.17906937 -0.35090125 -0.033203494 0.31553113 -0.07023699 0.0005689832 -0.1120127 0.29026428 -0.4562851 0.050129443 0.021645777 -0.2228994 -0.21203466 -0.20700458 0.040666465
Toaster -0.34850585 0.32813483 0.04257085 -0.008188531 0.0003315115 0.08436858 0.28770852 0.09905042 0.25063583 -0.33022454 0.25223583 0.00014443998 -0.28000864 -0.33505905 -0.0053484235 -0.21179876 0.16196035 -0.18121113 -0.6785527 0.13664544 -0.15000159 -0.23766427 0.07131909 0.09537491 -0.0071236566 0.20193636 0.09989229 -0.006880803 -0.20417127 -0.14752822 0.1366788 0.20249164 0.61534554 -0.2911708 -0.14667192 0.19587854 -0.375742 -0.061708502 0.33911222 -0.032437686 -0.0066779447 -0.12751426 0.26501462 -0.46886516 0.07785182 0.05312949 -0.23678625 -0.19016123 -0.20040925 0.06260592
Microwave -0.38725033 0.35286126 0.01465601 0.06552306 -0.037826993 0.06506308 0.265224 0.1408182 0.26614377 -0.34110412 0.2765029 -0.037065897 -0.32594895 -0.33042443 0.04801064 -0.20702693 0.12894608 -0.17043054 -0.6867084 0.07703093 -0.12222015 -0.21693914 0.122229375 0.074639276 -0.031606715 0.13056383 0.10368394 -0.001831945 -0.19265403 -0.14108041 0.16495098 0.1306259 0.55544835 -0.25364166 -0.11355987 0.2070163 -0.3913333 -0.052626885 0.33266863 -0.009558601 -0.021328421 -0.12663807 0.26670814 -0.43576217 0.10442439 0.028187606 -0.26534584 -0.19177918 -0.22917365 0.041104827
Window -0.32826903 0.279054 -0.022546299 0.13225916 -0.08955427 0.042931784 0.15963931 0.12642883 0.21163397 -0.31527296 0.21409367 -0.051475313 -0.30519095 -0.30212212 0.09496259 -0.16774182 0.060207803 -0.073065974 -0.55899805 -0.032914985 -0.038215015 -0.15140536 0.20198742 -0.0027148966 -0.051014896 0.073585644 0.09851145 0.014590873 -0.18894917 -0.14492418 0.16729942 0.08031103 0.38802215 -0.18542919 -0.07367505 0.20193897 -0.31592318 -0.0771744 0.2798206 0.093844354 -0.050395396 -0.059103835 0.21537183 -0.3290765 0.09990668 0.031537183 -0.24154042 -0.12518466 -0.21099515 -0.0032553165
CupboardPlates -0.29109675 0.28071997 0.050141603 -0.019173888 0.025929764 0.020916047 0.20819743 0.06272622 0.21933292 -0.24192487 0.19399124 -0.014440372 -0.24276628 -0.25323159 -0.009054275 -0.12927368 0.1353302 -0.15241621 -0.55357337 0.12553684 -0.124939956 -0.23344088 0.042148206 0.09459664 0.023679404 0.13083424 0.068136774 -0.031607628 -0.11565449 -0.13053282 0.099936485 0.15155114 0.50313294 -0.21575996 -0.10108186 0.16268611 -0.29539472 -0.015692923 0.27041757 -0.06808745 -0.0016097468 -0.1244139 0.22952902 -0.3785434 0.04078312 0.05806512 -0.20159033 -0.16060984 -0.13873886 0.030613808
CupboardGroceries -0.10345181 0.08508682 -0.020970594 0.05467572 -0.04596748 0.025578933 0.040238548 0.05790029 0.06889111 -0.11072911 0.07423996 -0.025912207 -0.117275804 -0.11718826 0.034725722 -0.07440768 0.0035082146 -0.00615427 -0.18861936 -0.022465477 -0.004444962 -0.030403659 0.09305805 -0.013796474 -0.036290374 0.016764129 0.056241214 0.012559754 -0.07817002 -0.05878094 0.069632635 0.024102528 0.12414097 -0.06440986 -0.02501185 0.07494831 -0.10693505 -0.04663209 0.11371295 0.06061491 -0.014684012 -0.014930402 0.05887626 -0.1173464 0.045968182 0.005586478 -0.08719292 -0.03232382 -0.07747493 0.008695145
