22 50
KitchenPIR 0.28732768 0.71348304 0.14988321 -0.5263068 0.37214044 0.55077446 0.28476366 -0.4021867 -0.2942428 0.67259026 0.0023754863 -0.52340907 -0.40978402 0.27796865 0.30994776 0.18105306 0.7554703 0.23944414 0.3808675 -0.39745438 -0.44561645 0.16029829 -0.5390842 0.27913523 -0.2681708 -0.043478273 0.21841472 -0.5150242 0.19106714 -0.049986843 0.3218053 0.8509811 0.15527402 -0.1762172 0.664855 -0.27697712 0.727944 0.22810669 0.2785596 0.32322356 0.27836028 -0.7797898 0.31619784 0.021036025 -0.36656132 0.4645505 0.23128766 -0.93022686 0.35537133 0.65998214
BedLeft -1.1559303 0.906975 0.5965714 -0.024318518 -0.54477435 -0.7689314 -0.52931947 -0.6688694 -1.3062823 0.37402907 0.78082937 0.33880818 -1.183447 0.29669008 0.42727208 -0.04191667 0.26995784 -0.8818441 0.28302726 -1.0220473 -0.61039984 0.20125681 -0.13348503 -0.21525261 -0.20996022 -1.0509313 0.5313496 -0.17096812 -0.18480024 0.814234 0.5397972 0.29894736 1.0046494 -0.87717307 0.6829653 -0.06298194 -0.2384095 0.46035942 -0.27981737 0.051456157 1.3866317 -0.70714605 -0.18777849 0.7309511 0.6099163 0.9276825 -0.785012 -1.1134441 -0.48425594 -0.5484807
BathroomPIR 0.82427835 1.0612501 -0.634719 -0.28585887 -0.16449645 0.044797953 0.4981104 -0.09497354 1.0715412 0.5967848 -0.24110109 -0.3156675 -0.5075883 0.29099867 1.3234748 0.14059547 0.9056714 -0.21186428 -0.34858012 0.64163095 -0.42915788 -1.1279784 0.5414802 -0.7524539 0.9398033 0.95055336 -0.8079301 0.74517334 0.097959526 -0.6345925 1.5673696 -0.4527792 0.44399273 -0.08550316 0.39425197 -0.6194227 0.7112991 0.6053695 0.7156352 -0.002330579 -0.0578511 0.9701864 0.71562475 -0.2008146 -0.96561253 -0.58519065 0.96823084 -0.032792747 0.49311262 0.33905253
BedRight -0.6925351 0.46456748 -0.57311887 0.69594514 0.26025674 -0.4821976 0.31515506 -1.2669191 -0.5999959 0.43775514 1.1576213 0.32213053 -0.10088664 0.46764377 0.23213026 -0.15386751 -0.43138847 -0.0017586912 -0.32305503 0.20062177 -0.35836232 0.37004167 0.70824414 0.48118412 0.92730665 -0.5381047 0.12466263 0.22724071 -0.84947 0.22966391 0.39063945 0.5950882 0.10789198 0.6963426 0.2029793 -0.8830403 0.06838775 -0.03747445 -0.42002013 0.57447255 1.2008338 0.20173411 0.15190488 1.1470025 0.54648876 0.38403726 0.20670776 0.25720602 0.05513002 0.14942239
BedroomPIR -0.38024116 0.09883222 -0.14297278 -0.11813822 -0.068534456 -0.33614945 -0.3462811 -0.6227469 0.21702641 0.22330353 0.5252241 0.605562 -0.022941045 -0.47619864 -0.1656739 -0.17761117 0.20736597 -0.1602017 -0.20573561 -0.23628697 -0.43666032 -0.24213639 0.25278205 -0.50717854 0.1457765 0.24225755 -0.25303262 0.49779645 0.12813936 0.51067656 0.52476287 -0.22538446 0.65101236 0.25948197 0.20775095 0.081650466 0.28788248 0.7942605 -0.090942934 -0.44821516 0.27976492 0.40087593 0.20720541 0.8214854 -0.55976754 -0.38143682 -0.5369724 -0.7460261 0.038767114 0.060913537
Dresser -0.6914779 0.39877197 -0.3872444 0.3671814 -0.86097264 -0.74316865 -0.35895094 -0.12770249 0.022948807 0.7796847 0.3113088 0.052786954 -0.2920415 -0.08339306 1.0376492 0.0012290791 -0.40085992 -0.884401 -0.5964867 -0.12295802 -0.60175997 -0.33715105 0.6044084 -0.5097505 0.6263196 -0.25858742 -0.11129815 0.7575489 -0.22689904 0.26741818 0.807968 -0.44689375 0.41268265 -0.56939805 0.34626362 -0.1547838 -0.13213529 0.49572128 0.03788048 -0.0034984315 0.8537223 0.16798547 0.47236317 0.09162902 0.021652985 -0.48416027 0.19166365 -0.14964986 -0.19273171 -0.6262038
Piano -0.08492313 0.14560471 -0.15334623 -0.31391993 -0.002776412 0.113615 0.34395093 -0.57425714 0.2960859 0.60962296 0.052054945 0.00086167094 -0.20384364 0.006454655 0.21867368 0.2400385 0.09849783 0.12255087 -0.0789099 -0.13586672 -0.35228792 0.06632002 0.06273117 -0.071911894 0.17459878 0.083767876 -0.389617 -0.21598345 0.09372245 -0.17805527 0.49154413 0.397044 0.020175619 0.12911047 0.2935798 -0.20453143 0.72294694 0.20365599 0.25046995 0.39078897 0.4543957 -0.3044597 0.5762563 0.31981084 -0.2068933 -0.26827812 0.0039303475 -0.32254997 0.18292688 0.4086095
CutlaryDrawer -0.28977025 0.27620435 -0.52857655 -0.18942265 -0.29984564 -0.20546973 0.11334989 -0.27739143 -0.070751436 0.49451956 -0.004037109 0.09752768 -0.0002853372 0.101379916 0.40195417 -0.124072686 0.3035119 -0.27611843 -0.31998825 0.104192294 -0.09319686 -0.015307117 0.009511458 -0.111574404 0.48373502 -0.04847272 -0.39117533 0.5040833 -0.35799268 0.007820182 0.33313152 -0.08217664 0.21520935 0.22940485 -0.15986736 -0.29151106 0.35643953 0.60216826 -0.16955973 -0.070068695 0.64930236 0.23275498 0.13167307 0.24072745 -0.2214339 0.05531393 -0.20992051 0.01939734 -0.14009543 -0.19545813
Chair 0.04583745 0.3375129 -0.15537393 -0.15212663 0.03458561 0.06421559 0.071720816 -0.36567047 0.13415672 0.4070463 0.16149929 -0.011714123 -0.1679892 -0.015437059 0.265754 0.0733653 0.3158777 0.005211672 -0.07622455 -0.12208729 -0.33962283 -0.14765239 0.0495067 -0.09679908 0.18571937 0.18803321 -0.18017934 0.079666615 0.0034865236 0.066697784 0.4677577 0.18784861 0.24348797 0.04907005 0.2596928 -0.20180163 0.43062177 0.35750434 0.07565 0.03187198 0.24287578 0.021742053 0.32124725 0.27473658 -0.36644286 -0.12511094 0.07900297 -0.41859204 0.14667387 0.26903188
ToiletDoor 0.15899484 0.40640074 -0.1556604 -0.1683162 0.026344918 0.09869325 0.19335487 -0.22368495 0.16431645 0.41796502 0.027123991 -0.14172119 -0.21740489 0.10857762 0.38869873 0.078416236 0.32392988 0.0007569443 -0.03314849 0.0059029134 -0.27681506 -0.18095772 0.034897745 -0.09513542 0.2052368 0.1580622 -0.17403355 0.061568435 0.031225353 -0.11560293 0.47788948 0.16523927 0.14921209 -0.02947199 0.2636593 -0.23983291 0.4093516 0.24668257 0.19493473 0.115914166 0.1834875 -0.0029338188 0.30524787 0.07509416 -0.3027245 -0.07341151 0.24158362 -0.26854455 0.18784207 0.2540665
Fridge 0.04537099 0.44230312 -0.120443955 -0.21331374 0.09703728 0.15816726 0.19055453 -0.39439687 -0.024843872 0.5332382 0.1322435 -0.15734196 -0.23546827 0.13721134 0.33050203 0.082385816 0.3514531 0.06113701 0.02219302 -0.14527313 -0.35579827 -0.021084094 -0.08158021 0.025801303 0.1024146 0.057884112 -0.0744205 -0.06592722 0.009158903 -0.024277158 0.43595123 0.37032166 0.1725262 0.0027662558 0.36894736 -0.27772236 0.50113654 0.29203567 0.14517084 0.20140575 0.34229773 -0.22727391 0.32032585 0.20029907 -0.26833853 0.06615789 0.14711098 -0.44715163 0.19917111 0.32986584
StoveLid 0.071295574 0.46953028 -0.10506741 -0.22398019 0.14874823 0.19471839 0.1968752 -0.4041596 -0.0537371 0.5430258 0.14224541 -0.21468677 -0.23760602 0.15441504 0.3138182 0.102980554 0.38760355 0.09740107 0.07608314 -0.167402 -0.3508542 0.008874916 -0.13523081 0.092578545 0.073597826 0.040294845 -0.033796478 -0.1153782 0.0036847559 -0.018268568 0.41559327 0.44886255 0.14593881 0.018221568 0.3958056 -0.2944253 0.51184624 0.27374598 0.15615937 0.22378625 0.3493838 -0.28369987 0.32342374 0.18931258 -0.28381428 0.13402335 0.16672286 -0.49307275 0.22077577 0.38381523
BedroomDoor -0.15102088 0.35373494 -0.065419964 -0.06220216 -0.073924825 -0.09358577 0.00084209954 -0.28244126 -0.10602293 0.37452567 0.18650453 -0.0017889937 -0.25428444 0.075212784 0.31839883 0.023394095 0.15349223 -0.16176039 -0.048423663 -0.13684392 -0.3027288 -0.060061656 0.03852837 -0.08318858 0.14402989 -0.08630346 -0.01072834 0.061665475 -0.055486698 0.08326981 0.37477013 0.13895945 0.22037713 -0.117747776 0.26981497 -0.175581 0.19409326 0.24401607 0.043722533 0.093332656 0.39645162 -0.10249104 0.19281748 0.21643806 -0.09558793 0.05778177 0.018891646 -0.32577404 0.048022877 0.053835526
Frontdoor 0.0013803184 0.40186173 -0.07066079 -0.21206549 0.086227186 0.12933707 0.13624118 -0.38989505 -0.032537833 0.48881748 0.12463051 -0.13223805 -0.2351829 0.09898246 0.2783468 0.073778465 0.3137848 0.038580194 0.01773355 -0.18268138 -0.32930338 -0.014513155 -0.09430088 0.025687516 0.06849826 0.016343674 -0.054538816 -0.073616214 0.0216703 0.014316915 0.38692138 0.32522747 0.16792996 -0.0134903975 0.3410681 -0.20882553 0.4292721 0.2643383 0.11990938 0.1765712 0.34892648 -0.23840521 0.30708203 0.20396532 -0.24754709 0.07075317 0.08112513 -0.46381998 0.15961431 0.2746021
Sink -0.003455623 0.51420015 -0.19436495 -0.11528759 0.024106953 0.07267155 0.18715522 -0.473475 -0.037329927 0.56892365 0.2098768 -0.081677996 -0.29440978 0.16159452 0.4464558 0.10457184 0.34961268 -0.050586738 -0.024707228 -0.06349856 -0.36231682 -0.10396366 0.06965968 0.021182897 0.24512008 0.02897648 -0.08181075 0.013289149 -0.050444692 0.035680115 0.506694 0.3257436 0.21787015 0.051784053 0.3731805 -0.34992895 0.45085967 0.30346298 0.11156934 0.20803368 0.48335576 -0.09712467 0.34248292 0.24961822 -0.2311129 0.039415266 0.1712871 -0.42157057 0.15060967 0.25188893
BalconyDoor 0.06304743 0.40594548 -0.06866287 -0.20509295 0.06381228 0.14202267 0.14860606 -0.33640718 -0.010131697 0.44535443 0.09803286 -0.15463184 -0.22460596 0.1204332 0.30030632 0.097450756 0.3278479 0.04217509 0.035826582 -0.14789309 -0.3083241 -0.041686762 -0.09433243 0.015713554 0.06809045 0.053341743 -0.054111525 -0.07348875 0.018191874 -0.031003624 0.38017225 0.31643695 0.14502509 -0.030117115 0.31859568 -0.22297794 0.42530558 0.24892934 0.14942476 0.156885 0.30040884 -0.21108767 0.2743919 0.15720767 -0.25533596 0.068879634 0.10991686 -0.41694245 0.16494438 0.27860788
ToiletFlush 0.10568697 0.42934415 -0.18770932 -0.1591421 0.07457686 0.10571814 0.2144979 -0.33347702 0.11101913 0.47852278 0.098430544 -0.15237948 -0.20076111 0.11855552 0.38692927 0.08705707 0.32930902 0.017922185 -0.05089565 -0.0028073597 -0.30322847 -0.12897094 0.037538454 -0.04263873 0.22067034 0.13965778 -0.15163925 0.057328947 -0.011820297 -0.103708975 0.4818845 0.24362148 0.15066515 0.02194786 0.29097265 -0.2912871 0.4448082 0.2600379 0.18454485 0.16157521 0.26367855 -0.043366037 0.3265315 0.15672854 -0.29922798 -0.04212419 0.23929277 -0.31499428 0.205951 0.28176868
Toaster 0.047660425 0.47046548 -0.09494146 -0.17269044 0.09928788 0.12708032 0.16603595 -0.41067454 -0.04419815 0.49371052 0.1408729 -0.16735126 -0.26174444 0.166404 0.32349506 0.0895333 0.36026984 0.039199304 0.039696883 -0.12817988 -0.33326012 -0.0028255908 -0.067835666 0.057188258 0.14256941 0.024127614 -0.043704 -0.06836756 -0.020302735 -0.026443426 0.43074074 0.35552445 0.1684851 -0.011767096 0.36579585 -0.26783296 0.4467833 0.2450512 0.1438944 0.18999875 0.36012903 -0.20954193 0.31023607 0.20294689 -0.22388436 0.101703405 0.17238536 -0.42869404 0.20349306 0.32760668
Microwave -0.038848184 0.44028413 -0.14006259 -0.12224288 -0.0028912884 0.019646522 0.1399175 -0.38787943 -0.037682924 0.48182905 0.17713681 -0.09475637 -0.24921818 0.14632235 0.3836426 0.043770883 0.28258237 -0.045614697 -0.045494933 -0.11840062 -0.33495027 -0.06920832 0.027690988 -0.013043367 0.19903526 0.011109818 -0.08573191 0.041456077 -0.065498725 0.028964978 0.45485467 0.26447466 0.20921943 -0.0058310237 0.3114827 -0.2813409 0.37871516 0.28398782 0.10653479 0.15366797 0.40915585 -0.11721043 0.2945391 0.22115706 -0.20321484 0.06905392 0.13237962 -0.36892375 0.1449097 0.2123048
Window -0.08810102 0.38611835 -0.1659675 -0.061514907 -0.05334747 -0.0710244 0.079491764 -0.34972286 0.016068956 0.41037774 0.1907939 -0.014673578 -0.23115258 0.09450723 0.3629675 0.04925323 0.18541346 -0.10795046 -0.10054482 -0.075597204 -0.31482038 -0.108043045 0.10716409 -0.092736684 0.2430955 0.02183643 -0.10884231 0.11691914 -0.077597484 0.021492478 0.46711028 0.12400527 0.21433362 -0.01112172 0.2565806 -0.24327539 0.27850756 0.281736 0.08327336 0.09866911 0.39396876 -0.0100222165 0.2568975 0.2338573 -0.16002993 -0.02269056 0.10487814 -0.28554866 0.09219337 0.120700575
CupboardPlates 0.026337856 0.35060957 -0.07640286 -0.16895567 0.044020317 0.07639603 0.12563998 -0.26615244 -0.04484474 0.39048934 0.08890094 -0.1282578 -0.21593748 0.101396225 0.2682052 0.07459712 0.26524076 -0.004583474 0.009417488 -0.11571331 -0.2536095 -0.027016092 -0.048753172 -0.0029546176 0.09432526 0.0027327966 -0.044947486 -0.0383172 -0.0036433304 -0.00871896 0.3242799 0.24135181 0.1523992 -0.0347618 0.27143285 -0.18317091 0.3443929 0.21786992 0.11785739 0.121228255 0.2777511 -0.16286585 0.22267239 0.12845242 -0.17725891 0.07969273 0.10795345 -0.33747402 0.1319233 0.19959481
CupboardGroceries -0.035492014 0.11725934 -0.047407664 -0.026225107 -0.024809837 -0.031124447 0.024352975 -0.10493016 -0.019620929 0.13387506 0.06674582 -0.010003074 -0.071442306 0.027293436 0.104948245 0.009150085 0.061121855 -0.03079395 -0.024985278 -0.035221633 -0.08724856 -0.023420377 0.024596646 -0.026856555 0.06950773 -0.0153703 -0.028225303 0.034928016 -0.031764477 0.02611607 0.12994356 0.041832656 0.06842764 -0.0043688063 0.0774863 -0.064422205 0.082110114 0.0889132 0.02190341 0.03848832 0.12751913 -0.0053762645 0.08016848 0.077530466 -0.03646303 0.0012889139 0.018894631 -0.09295579 0.02598896 0.033741478
