22 50
KitchenPIR 0.29906574 1.038119 -0.78016603 -0.34577933 -0.07930044 -0.014812784 -0.04418797 -0.37943327 0.05459076 -0.26206368 0.8482385 0.095310986 0.067470476 -0.43355423 -0.46526703 -0.011703804 0.19201362 0.21187107 0.78986317 -0.88186157 -0.024538592 0.45175502 -0.022674993 0.012365049 -0.088632375 0.0010918197 -0.25168365 0.10156346 0.16037399 -0.24534898 0.94343084 -0.4247308 -0.12864129 0.4113228 -0.098019 0.10507913 0.41811645 0.22040983 -0.682391 0.45925093 -0.62496156 0.3145617 0.07623354 0.6043128 -0.39838287 -0.7414581 -0.33072847 -0.23694813 -0.3535667 -0.28569385
BedLeft 0.44912806 -0.15249418 0.23774871 0.5756746 0.14891803 0.2273981 1.2652401 0.07888882 -0.15725748 -0.9709739 0.21702197 0.4494296 -0.24741669 0.41621983 -0.738868 -1.203171 0.30873162 -0.6598163 0.70676404 -0.599948 0.0916809 0.6115315 1.1417232 -0.40941545 -0.5426758 0.12171676 -0.82319075 -0.9507463 -0.018333172 -0.076074615 0.3694305 0.6049344 -1.066143 -0.09614386 -0.0038549923 -0.67924625 -0.8059363 0.9704567 0.18560034 1.3377472 -0.99080557 1.201855 0.79489076 -0.2982729 0.29886332 -0.0749696 -0.68262994 0.43585232 -0.07059864 0.096007116
BathroomPIR -0.83300996 1.0851207 0.008249695 -0.37882316 0.6362738 -0.53751755 0.2721483 0.5783838 0.38909423 0.365622 0.57377195 -0.51743734 0.23334348 -0.19026771 0.16727388 0.024765879 -0.517638 -0.39237458 0.16124406 -1.3183203 -0.87582505 -0.50164366 -0.26622167 -1.3134362 -0.28195545 -0.8023185 0.71205676 0.41312534 -0.24322788 1.3964727 0.56651807 0.50185627 -0.22599067 1.6423619 0.6965119 0.024098208 -0.298468 -1.1323576 -1.0251546 -0.34040794 0.5046626 0.3738748 -0.20217496 0.48292908 -0.47771806 -0.1461926 -0.3221642 0.09367257 0.743587 -0.3812817
BedRight 0.35029384 -0.088417746 -0.3014953 -0.92716134 0.015901364 0.90363944 0.50359774 0.6928535 0.2898151 -0.50689316 0.19355148 -0.6396016 0.45251498 1.3000386 -0.35138884 -0.282484 -0.45246515 -1.0097842 1.082007 -0.4295267 -0.05148411 0.09361676 1.0142595 0.50342894 -0.1090671 -0.33908132 -0.4200411 -0.33765712 -0.45900267 -0.040565357 0.48145145 -0.040823065 -0.57457805 0.1528714 -0.446204 0.49236277 -0.6642409 0.44093424 0.021583121 0.57906127 0.33807263 -0.23202515 -0.25020996 -0.60818636 0.82297677 -0.3084521 0.18361948 -0.21293302 -0.26385185 0.387865
BedroomPIR 0.40327877 -0.35080466 -0.43980956 -0.090739086 0.09691873 0.3206166 0.82920897 -0.18239594 0.43766108 -0.050534956 0.76278436 -0.11585903 0.063515835 0.330972 0.1825004 -0.123780936 0.12730506 -0.36955842 0.45123354 0.34783307 -0.6747203 -0.43717235 0.69593 -0.5137511 0.66798615 -0.00773015 0.20684841 -0.4631767 -0.07683448 0.68801045 0.29569662 0.3637915 0.49109045 0.3906897 0.4121618 -0.25731462 -0.24298786 0.26144326 -0.22093898 0.35173976 -0.14979425 -0.13621624 -0.019130088 0.20969716 0.2278882 0.16319886 0.08917717 0.9515945 -0.049874827 -0.5858143
Dresser -0.14174578 -0.2835259 0.40812668 -0.25498635 0.04478439 -0.07413988 0.9168177 0.10663113 0.23559803 -0.17028792 -0.3537765 -0.2111381 -0.18677649 -0.107139155 -0.34405982 -0.30359828 -0.5401903 -0.63232 -0.1276185 -0.88818616 -0.29015663 0.1330041 1.0201794 -0.65203315 -0.07501319 0.029610265 0.0112648895 -0.66227955 -0.63002694 0.66512024 0.05681117 0.18589373 -0.19434309 0.83604026 0.6504623 0.19103558 -0.35500988 0.110350505 0.051320832 -0.12220071 -0.21627499 0.57565886 0.0820648 -0.0033414017 0.16040477 0.12935136 -0.25925756 0.63629633 0.74890006 -0.21597448
Piano 0.36976853 0.2520733 -0.5623592 -0.51482797 -0.13556857 -0.09522316 0.18477605 -0.20568697 0.12616058 -0.11968884 0.49733117 -0.18650773 0.19899131 -0.25763986 -0.18437953 -0.017793002 -0.26238394 0.06219899 0.21129516 -0.6841167 -0.12144536 -0.19294252 0.26772708 0.03737908 0.22128233 -0.11837363 -0.16853446 -0.06763687 -0.19226184 0.28741577 0.6816941 -0.07726835 -0.043404706 0.49271536 0.31736565 -0.19036254 -0.01480761 -0.17015195 -0.13586533 0.25480235 -0.17867345 0.2790647 0.0002299177 -0.0506754 -0.0978384 -0.4444285 -0.39556047 -0.050765038 -0.07983098 -0.27554992
CutlaryDrawer -0.13633467 0.20529778 0.095028505 -0.21208902 0.11694009 0.025907028 0.33152387 -0.0048357174 0.24101429 -0.1160014 0.4734091 -0.34945455 0.39541152 0.065387525 0.295724 -0.22781284 -0.020254454 -0.32088166 0.45060554 -0.32283136 -0.2678768 -0.26140773 0.36037803 -0.1772515 -0.009325151 -0.2656824 0.046468988 -0.40749642 -0.25968313 0.09532523 0.4520693 0.22369456 -0.042718004 0.3247238 -0.23795292 0.15897462 -0.41605404 -0.036753405 -0.14299993 0.10457255 -0.2747452 0.10047211 -0.20697166 -0.33321851 0.151693 -0.30028647 -0.0947498 -0.093454964 0.24664158 -0.0170185
Chair 0.038413584 0.313894 -0.29451373 -0.2567409 0.10577184 0.02985795 0.2865689 0.0047869952 0.17343168 -0.107642755 0.46836773 -0.14235215 0.1135732 -0.010787555 -0.0591379 -0.12141463 -0.07696409 -0.14469732 0.36981806 -0.42335302 -0.32014802 -0.07315357 0.23737116 -0.33066013 0.07795353 -0.1837497 0.04597385 -0.081713416 -0.12487273 0.33225152 0.45950168 0.057335384 -0.044280358 0.4515059 0.1762498 -0.04258748 -0.09204854 -0.017909724 -0.29629773 0.20714675 -0.09888856 0.14122267 -0.005130564 0.18301634 -0.0693047 -0.17162411 -0.16744775 0.15245602 0.022771204 -0.27272558
ToiletDoor -0.022834102 0.48629612 -0.3059694 -0.35431054 0.111162305 -0.047380347 0.16558558 0.056021817 0.17086835 -0.041506086 0.42490005 -0.17516991 0.1307214 -0.052791256 -0.102970935 -0.012093867 -0.15484256 -0.12181017 0.3458265 -0.6190519 -0.26679227 -0.05787207 0.085143216 -0.27530286 -0.008706622 -0.22172286 0.065586336 0.045509677 -0.10549336 0.34079793 0.47876567 0.0011354641 -0.091154784 0.5785748 0.17337862 0.0495259 -0.02943911 -0.18266788 -0.39477763 0.11689646 -0.025977017 0.14062083 -0.054626986 0.20611727 -0.1197396 -0.26644632 -0.18379216 -0.009399565 0.08009011 -0.2039181
Fridge 0.1768837 0.57626456 -0.47450796 -0.3722456 0.027393732 0.04811536 0.1517367 -0.13183703 0.13254175 -0.16219355 0.5719708 -0.10147557 0.11876468 -0.11417965 -0.20971704 -0.056773994 -0.014092141 -0.03750206 0.54557616 -0.64986145 -0.16717254 0.11026595 0.17232879 -0.10704372 0.01552775 -0.13080174 -0.08986316 -0.037940856 -0.048597552 0.07772001 0.64716375 -0.15467992 -0.12224842 0.43350142 0.03395785 0.09177547 0.07560731 0.045226358 -0.42632824 0.2904902 -0.2895833 0.18809763 -0.017378788 0.24542516 -0.14508528 -0.43088415 -0.20744908 -0.07628566 -0.107537866 -0.2159161
StoveLid 0.17310752 0.60688263 -0.4810243 -0.40919393 0.024690995 0.051331263 0.16716044 -0.124241196 0.14519121 -0.17847677 0.60347617 -0.1203665 0.13198313 -0.10201962 -0.22797462 -0.06554809 -0.02649903 -0.06941048 0.5876388 -0.6741529 -0.17032535 0.1313861 0.19345412 -0.093444735 -0.00046473232 -0.13349286 -0.11166184 -0.04009867 -0.058841918 0.0696274 0.68649894 -0.16527687 -0.13412222 0.4504373 0.013290743 0.10476238 0.061097275 0.062005848 -0.44369996 0.31283173 -0.2838574 0.19934613 -0.023708917 0.25329754 -0.13094433 -0.45577314 -0.21259397 -0.07046135 -0.10690655 -0.21352096
BedroomDoor 0.11739198 0.1292704 -0.1463186 -0.20299986 0.0812547 0.12533711 0.3981164 0.06956328 0.1281184 -0.22392115 0.25399745 -0.088653915 0.05305272 0.16099519 -0.1910761 -0.21742061 -0.10438431 -0.27450603 0.37242883 -0.42381963 -0.15729587 0.029290268 0.39282113 -0.19168875 -0.029975314 -0.10291344 -0.10531333 -0.22852556 -0.15269835 0.19895749 0.33105278 0.10150624 -0.19199914 0.32254806 0.09564682 -0.03212653 -0.20114495 0.109286785 -0.12992328 0.30819073 -0.16272652 0.23845808 0.058478948 -0.00060669077 0.089471385 -0.14536509 -0.1739241 0.14098865 0.037020933 -0.094137445
Frontdoor 0.1747125 0.4860169 -0.43018577 -0.30056667 0.0017846695 0.042927317 0.17446998 -0.1266149 0.13048463 -0.16263099 0.52880114 -0.096562594 0.11028472 -0.10650208 -0.18984546 -0.052614238 -0.028258597 -0.032799784 0.47287613 -0.5614377 -0.16461684 0.073522866 0.17578901 -0.104240134 0.013820541 -0.09502236 -0.0898555 -0.047607515 -0.038182177 0.08617978 0.5645097 -0.09237406 -0.073364615 0.3802211 0.06696568 0.036114424 0.064854585 0.036376644 -0.36580628 0.26145408 -0.25852945 0.16934454 -0.010840032 0.22537993 -0.12475747 -0.36348683 -0.19162941 -0.010234002 -0.10159298 -0.19400407
Sink 0.071877345 0.43671542 -0.3056593 -0.3807509 0.16729419 0.08797097 0.35569534 0.115578875 0.1600099 -0.21720795 0.52794766 -0.21118777 0.15854989 0.1289129 -0.19034165 -0.19000244 -0.14141953 -0.27592734 0.5128352 -0.7073045 -0.30464256 0.011033143 0.33955166 -0.31200778 -0.048821833 -0.19591771 -0.035488866 -0.11982076 -0.17555442 0.36677527 0.586837 0.07984977 -0.22614335 0.5902729 0.1495112 0.041778974 -0.17319964 0.0038039233 -0.32021916 0.2915044 -0.14418311 0.28566474 0.019270932 0.0685844 -0.0028104214 -0.3299642 -0.18550928 0.057529915 0.08229783 -0.15679745
ToiletFlush -0.015151798 0.47693628 -0.26967517 -0.33035183 0.11305109 -0.05569397 0.19205453 0.055565823 0.15968949 -0.07332877 0.43975294 -0.16926602 0.11939975 -0.0730846 -0.10610904 -0.05816597 -0.14159492 -0.1254341 0.3416099 -0.6338747 -0.26672304 -0.044278283 0.12307443 -0.29385483 -0.030405955 -0.22435565 0.05408669 0.02037482 -0.113255754 0.34132162 0.47524387 0.041353896 -0.1108004 0.58631355 0.18738459 0.03614918 -0.059971776 -0.17147957 -0.37696812 0.14823608 -0.072372586 0.18857108 -0.038784415 0.20280981 -0.1271549 -0.28074005 -0.21337269 0.016596247 0.094116874 -0.20879956
BalconyDoor 0.14285149 0.4296371 -0.35478935 -0.33255216 0.05495973 0.0726907 0.2691624 -0.03579434 0.13740003 -0.17947352 0.48217124 -0.12577227 0.12268438 -0.0074430145 -0.19880246 -0.11558245 -0.060178462 -0.15759908 0.49594566 -0.5930181 -0.1863005 0.06754722 0.27324224 -0.14897253 -0.0051322174 -0.13150372 -0.08871198 -0.10544821 -0.10320619 0.15808792 0.5573902 -0.045052134 -0.1585741 0.42346215 0.06392607 0.050674334 -0.048203483 0.044944886 -0.32562995 0.2946877 -0.23006241 0.22416152 0.0068574096 0.14566961 -0.05318203 -0.33682704 -0.20992488 0.019135348 -0.035191976 -0.16478305
Toaster 0.14653604 0.4284791 -0.35471842 -0.33504355 0.055631813 0.09081073 0.25674504 -0.019432483 0.15447406 -0.20138478 0.4762065 -0.11401788 0.12996586 -0.004016543 -0.23038135 -0.14220703 -0.06222148 -0.14364095 0.5041043 -0.5744893 -0.17275138 0.092063494 0.2622005 -0.12044434 -0.021178953 -0.14211158 -0.09268709 -0.11563074 -0.096562885 0.12456316 0.5508427 -0.07004089 -0.17437573 0.3959796 0.031414587 0.056269407 -0.061965488 0.06987158 -0.33219233 0.30767193 -0.24001968 0.19667456 0.012496005 0.15728879 -0.031397175 -0.342762 -0.20866762 -0.014477763 -0.04394335 -0.17729807
Microwave 0.1061924 0.36114308 -0.26634154 -0.28992927 0.06507312 0.08379831 0.28596592 0.0073771765 0.13610847 -0.19681159 0.40668452 -0.13080885 0.09990705 0.03836052 -0.18489672 -0.1678108 -0.06292213 -0.19330181 0.44964716 -0.56158596 -0.1791917 0.0655916 0.3091215 -0.17649332 -0.041523412 -0.13518685 -0.0799875 -0.12717901 -0.117251 0.18490663 0.4826655 0.017162664 -0.18417189 0.39819485 0.072848134 0.047748342 -0.12249832 0.053229194 -0.29536203 0.29243317 -0.20465587 0.20916082 0.021012215 0.094729215 -0.023885833 -0.28847793 -0.19920026 0.040727068 0.007553789 -0.13364203
CupboardPlates 0.11302289 0.36983934 -0.2762884 -0.2525966 0.05591824 0.057941575 0.21709926 -0.031445187 0.10429907 -0.1545326 0.40511802 -0.09739141 0.08904044 -0.022918718 -0.1660243 -0.11037379 -0.042620443 -0.12025346 0.4146487 -0.4942529 -0.14890938 0.07876094 0.215292 -0.13108785 -0.019242648 -0.1131062 -0.07564283 -0.086705856 -0.07062243 0.12922649 0.46197382 -0.034286346 -0.14634573 0.35578284 0.04754735 0.03506621 -0.048082504 0.047091577 -0.27769938 0.25007585 -0.20787539 0.19821681 0.014158916 0.12577242 -0.06065344 -0.2812692 -0.17454797 -0.0045907954 -0.039697077 -0.13617055
Window 0.03882155 0.23974814 -0.15380463 -0.21942392 0.09250008 0.032520976 0.3223889 0.071300484 0.11695427 -0.1415044 0.29687497 -0.13208473 0.09487056 0.06417928 -0.117509834 -0.16590202 -0.09740435 -0.23364103 0.32931617 -0.46764714 -0.19379665 -0.013293677 0.28392896 -0.2267951 -0.046467766 -0.13968155 -0.03579354 -0.1264794 -0.1291592 0.25824338 0.3571371 0.09408498 -0.1644671 0.38757432 0.113130316 -0.012880614 -0.18037695 0.013901818 -0.21664537 0.2239641 -0.104783155 0.22386368 0.0133239515 0.03833227 0.014785718 -0.17907563 -0.16726999 0.084968574 0.06937355 -0.12782912
CupboardGroceries 0.020678632 0.061733454 -0.041118693 -0.05571648 0.024918076 0.010961272 0.084030926 0.024919247 0.038698144 -0.033414073 0.09332352 -0.031096477 0.015749747 0.025182467 -0.041364025 -0.047919072 -0.025801342 -0.06600916 0.09651758 -0.12995096 -0.058431946 -0.0069890614 0.09193969 -0.06404252 -0.0097661335 -0.039860178 -5.881072e-05 -0.04857368 -0.030114755 0.064174525 0.10800147 0.023546765 -0.037872184 0.11267418 0.040397424 0.0064088893 -0.047556575 0.009133312 -0.049998526 0.06116726 -0.03789042 0.05109798 -0.0027778344 0.0140846865 0.0053992043 -0.043237027 -0.03372889 0.03246333 0.010453694 -0.031593658
