22 50
KitchenPIR -0.029727 0.114930 -0.089072 0.289467 -0.869923 -0.068738 0.120673 0.097491 0.265018 0.008584 -0.420087 0.167605 -0.171402 0.234092 0.239190 0.095762 -0.126556 -0.175396 0.218154 0.431957 0.064288 -0.055869 -0.194225 -0.127537 0.333350 -0.072533 0.308934 -0.315055 -0.453811 -0.223353 -0.241522 -0.370057 -0.251286 -0.300701 -0.423041 -0.112873 -0.182684 -0.048326 -0.096235 0.331531 -0.303490 0.285385 -0.072705 -0.207879 -0.288997 -0.042220 -0.020556 -0.043730 -0.370398 -0.444876
Fridge -0.004951 0.140984 -0.055114 0.305400 -0.836708 -0.035574 0.121002 0.062338 0.244334 0.039077 -0.394246 0.195945 -0.220538 0.217633 0.217171 0.086202 -0.080911 -0.181923 0.208347 0.403799 0.099885 -0.048907 -0.162872 -0.175183 0.390819 -0.073485 0.277264 -0.318876 -0.432907 -0.249694 -0.194583 -0.313187 -0.213234 -0.254615 -0.411845 -0.094342 -0.157423 -0.043395 -0.095088 0.340623 -0.307931 0.295473 -0.076233 -0.146714 -0.284680 -0.036470 -0.065950 -0.059139 -0.348667 -0.447602
Window 0.003588 0.169309 -0.048580 0.336154 -0.917826 -0.030335 0.156809 0.061193 0.242566 0.104222 -0.413080 0.170441 -0.273665 0.205488 0.207671 0.083938 -0.080164 -0.189491 0.219449 0.425169 0.112197 -0.078326 -0.139178 -0.224713 0.462501 -0.101792 0.255137 -0.324742 -0.435363 -0.281170 -0.194792 -0.337017 -0.175468 -0.266111 -0.397154 -0.065838 -0.128318 -0.040905 -0.160497 0.391878 -0.327304 0.314419 -0.068839 -0.113745 -0.325976 -0.032204 -0.035027 -0.012511 -0.302595 -0.488756
CupboardPlates 0.009722 0.151273 -0.043617 0.325050 -0.903008 -0.021766 0.148864 0.074959 0.243602 0.097894 -0.415027 0.213400 -0.262219 0.205557 0.215938 0.071309 -0.071299 -0.185824 0.205099 0.413127 0.125432 -0.049418 -0.150088 -0.209144 0.451576 -0.097089 0.258843 -0.340312 -0.428710 -0.278639 -0.177743 -0.316108 -0.190138 -0.254211 -0.416124 -0.070201 -0.138297 -0.029945 -0.127830 0.398559 -0.330836 0.318705 -0.076005 -0.124937 -0.318259 -0.034351 -0.048441 -0.030709 -0.326408 -0.479093
CupboardGroceries -0.024446 0.151225 -0.081402 0.331332 -0.932037 -0.058911 0.146189 0.068808 0.263152 0.060218 -0.420208 0.146702 -0.212574 0.234362 0.239867 0.106283 -0.111682 -0.191097 0.228741 0.462390 0.084616 -0.085070 -0.183872 -0.169412 0.403284 -0.091602 0.303627 -0.315475 -0.461738 -0.248258 -0.242006 -0.371560 -0.226716 -0.309930 -0.444664 -0.103169 -0.170516 -0.052222 -0.127127 0.370867 -0.320088 0.321299 -0.069281 -0.195136 -0.332595 -0.045797 -0.036953 -0.027108 -0.373735 -0.477536
CutlaryDrawer -0.013863 0.139137 -0.046779 0.309173 -0.880299 -0.046774 0.145724 0.078559 0.243368 0.083874 -0.404713 0.180955 -0.229046 0.205354 0.201621 0.081961 -0.095509 -0.170737 0.219162 0.408710 0.099644 -0.067848 -0.142000 -0.186657 0.401656 -0.090721 0.263027 -0.315767 -0.417670 -0.257811 -0.195145 -0.321275 -0.187022 -0.273916 -0.411328 -0.078184 -0.141573 -0.033001 -0.139888 0.377427 -0.321560 0.301099 -0.065837 -0.161035 -0.311830 -0.035907 -0.028739 -0.042463 -0.337626 -0.458494
Microwave -0.026143 0.125238 -0.065050 0.293485 -0.848878 -0.066457 0.115372 0.082229 0.258261 0.048777 -0.396578 0.173034 -0.189392 0.222569 0.220195 0.079985 -0.111169 -0.166120 0.215853 0.415168 0.076316 -0.060849 -0.176340 -0.144906 0.359993 -0.074571 0.290027 -0.313889 -0.427100 -0.243035 -0.204238 -0.344293 -0.211367 -0.284942 -0.417533 -0.091954 -0.154027 -0.048862 -0.114181 0.338310 -0.308383 0.288943 -0.061928 -0.190557 -0.305180 -0.027748 -0.028672 -0.029174 -0.343507 -0.432540
Toaster -0.008660 0.184997 -0.065913 0.377483 -1.007257 -0.031083 0.164379 0.039146 0.273064 0.097299 -0.455036 0.164788 -0.289328 0.218606 0.245862 0.117192 -0.087161 -0.208797 0.246174 0.481396 0.134181 -0.094336 -0.176191 -0.220963 0.489662 -0.110917 0.284846 -0.326805 -0.473926 -0.282688 -0.229902 -0.380615 -0.229061 -0.316546 -0.451464 -0.083028 -0.146041 -0.053735 -0.159134 0.400630 -0.333766 0.338984 -0.089636 -0.137445 -0.349613 -0.021244 -0.056163 -0.007274 -0.335690 -0.518737
StoveLid 0.000353 0.161167 -0.076197 0.341492 -0.933263 -0.041569 0.145351 0.074080 0.264192 0.085693 -0.422018 0.157507 -0.237772 0.216495 0.229114 0.087319 -0.094869 -0.185028 0.225791 0.450581 0.088786 -0.077042 -0.173646 -0.186476 0.432525 -0.095440 0.278547 -0.318603 -0.451129 -0.270353 -0.229225 -0.360263 -0.210074 -0.289148 -0.435371 -0.093764 -0.144453 -0.038031 -0.156524 0.379080 -0.320839 0.320847 -0.079262 -0.172708 -0.331112 -0.040127 -0.038445 -0.016578 -0.340412 -0.487419
Sink 0.009847 0.176172 -0.054513 0.343112 -0.921184 -0.044825 0.160956 0.052202 0.267222 0.084385 -0.412957 0.148148 -0.236564 0.209981 0.220777 0.095798 -0.096627 -0.199491 0.224598 0.436611 0.104277 -0.085517 -0.160436 -0.192345 0.459447 -0.082935 0.267244 -0.310169 -0.436816 -0.255776 -0.197149 -0.355405 -0.206829 -0.293235 -0.401311 -0.073644 -0.136602 -0.044610 -0.163110 0.365201 -0.321063 0.303370 -0.092121 -0.136401 -0.312903 -0.031604 -0.030669 -0.000420 -0.326629 -0.478530
TempGeiser -0.000747 0.150118 -0.050582 0.323243 -0.902741 -0.028714 0.145479 0.067113 0.247075 0.095129 -0.403523 0.176380 -0.240950 0.212238 0.219629 0.081152 -0.085904 -0.173353 0.211248 0.415833 0.112069 -0.081111 -0.155146 -0.197285 0.421935 -0.101211 0.261949 -0.310952 -0.427507 -0.275572 -0.200454 -0.322070 -0.181306 -0.276437 -0.416575 -0.065900 -0.126611 -0.043462 -0.150564 0.389221 -0.319169 0.321174 -0.058395 -0.142143 -0.319976 -0.038606 -0.020901 -0.016795 -0.321080 -0.464961
BathroomPIR -0.038030 0.119247 0.595797 0.190458 0.101479 0.302435 -0.061205 0.116511 -0.063365 -0.239145 -0.374735 1.429490 -0.722131 0.468382 0.018054 -0.051322 0.287455 -0.165590 -0.151264 -0.549841 0.668885 0.604429 0.020446 -0.433857 0.126381 0.016039 0.173409 -0.800617 -0.440928 -0.443892 0.363069 0.342325 -0.377216 0.262843 -0.229478 0.004305 -0.228244 0.050613 1.027666 0.436394 -0.251065 0.184182 -0.268390 0.615633 0.129669 -0.014671 -0.723448 -0.788313 -0.397483 -0.318575
ToiletDoor -0.036534 0.132037 0.600218 0.199780 0.057994 0.286212 -0.054657 0.114060 -0.028107 -0.256585 -0.395766 1.421359 -0.713344 0.476414 0.037931 -0.040166 0.280670 -0.166262 -0.153949 -0.523928 0.680310 0.608570 -0.000430 -0.450063 0.135458 0.027153 0.171876 -0.807271 -0.456792 -0.433454 0.332257 0.329734 -0.389638 0.260918 -0.232157 0.003492 -0.218998 0.061236 1.028473 0.411324 -0.236017 0.179586 -0.288090 0.646113 0.152519 -0.010653 -0.739259 -0.772513 -0.390627 -0.308063
Piano 0.128356 -0.709116 0.315916 -0.382767 -0.382038 -0.166777 -0.328859 1.077276 0.162533 0.345874 -0.175641 1.617157 0.049495 0.124368 -0.117351 -0.590445 0.181693 0.245670 -0.231214 -0.397860 -0.093637 0.302709 0.214894 -0.168313 -0.171189 -0.209706 0.327403 -0.909993 -0.506571 -0.795440 0.331581 0.151863 0.521306 0.295204 -0.327617 0.022392 0.205801 0.273368 -0.058898 0.988817 -0.442457 0.407375 0.675621 -0.315339 -0.347745 -0.432122 0.437166 -0.700540 -0.614570 -0.512463
Chair 0.121621 -0.744050 0.319973 -0.406650 -0.366586 -0.182451 -0.347973 1.122175 0.152815 0.359726 -0.176108 1.656247 0.053916 0.111084 -0.138812 -0.610627 0.193110 0.257667 -0.251074 -0.418060 -0.096981 0.319635 0.233775 -0.160719 -0.185911 -0.208061 0.316434 -0.934432 -0.498012 -0.806581 0.341034 0.174057 0.559601 0.312811 -0.331859 0.029516 0.223264 0.273730 -0.078637 1.012639 -0.437253 0.430086 0.711219 -0.334240 -0.354028 -0.452476 0.471463 -0.714123 -0.603318 -0.497537
TempShower -0.038041 0.112399 0.587957 0.191389 0.094817 0.294108 -0.047689 0.123218 -0.060757 -0.243590 -0.381690 1.414727 -0.711091 0.462568 0.015942 -0.052147 0.282039 -0.147611 -0.155009 -0.536881 0.669145 0.592493 0.014540 -0.419404 0.137587 0.019899 0.165751 -0.792871 -0.427846 -0.431637 0.362043 0.348683 -0.378985 0.263561 -0.225744 -0.006311 -0.231368 0.050765 1.011781 0.411453 -0.228964 0.173031 -0.271297 0.617272 0.144604 -0.024908 -0.725473 -0.777763 -0.383466 -0.318977
ToiletFlush -0.027382 0.106673 0.597429 0.187167 0.089184 0.289051 -0.074740 0.124200 -0.048329 -0.236802 -0.384161 1.435092 -0.706196 0.469708 0.032595 -0.071860 0.272791 -0.150885 -0.161207 -0.539805 0.666894 0.607735 0.009017 -0.435330 0.122464 0.008028 0.177201 -0.802979 -0.456111 -0.449137 0.369179 0.347257 -0.359496 0.266741 -0.231996 -0.007978 -0.207650 0.058263 1.003698 0.432547 -0.236341 0.194865 -0.256616 0.611684 0.134651 -0.037994 -0.713958 -0.768160 -0.402076 -0.327499
BedroomPIR -0.245262 -0.202536 -0.107777 0.015543 -0.399687 -0.286277 -0.175443 0.359951 0.293256 -0.381768 -0.422919 0.434569 0.228073 0.450290 0.230763 0.045591 -0.195829 -0.001637 0.166975 0.161255 -0.178251 0.146368 -0.417111 0.246217 -0.446413 0.084272 0.579812 -0.414362 -0.508214 -0.088942 -0.292630 -0.341605 -0.494808 -0.291742 -0.525803 -0.295287 -0.341360 -0.067073 0.340666 0.097853 -0.245180 0.112309 0.025783 -0.586847 -0.119151 -0.088985 -0.001165 -0.328807 -0.720498 -0.217061
Dresser -0.215348 -0.159673 -0.125128 0.039550 -0.420374 -0.263974 -0.139981 0.302508 0.275712 -0.296377 -0.379541 0.313494 0.212981 0.361247 0.212568 0.067476 -0.189398 -0.004788 0.162018 0.196880 -0.177887 0.085985 -0.360232 0.225099 -0.351834 0.067051 0.505568 -0.327400 -0.446985 -0.075375 -0.292996 -0.339178 -0.408430 -0.297444 -0.470135 -0.262076 -0.290714 -0.057046 0.228721 0.092932 -0.212449 0.115845 0.034103 -0.528122 -0.139586 -0.074770 0.032440 -0.245341 -0.626733 -0.204927
BedLeft -0.272032 -0.239376 -0.126778 -0.027434 -0.315194 -0.313951 -0.226134 0.393524 0.285744 -0.418813 -0.404242 0.427260 0.295721 0.454240 0.222533 0.036965 -0.199885 0.033572 0.147813 0.103477 -0.210916 0.176053 -0.437659 0.308549 -0.550745 0.107560 0.585226 -0.401806 -0.484685 -0.059262 -0.287636 -0.323768 -0.492320 -0.288007 -0.523942 -0.302563 -0.346285 -0.071639 0.373440 0.059723 -0.217850 0.077098 0.048570 -0.623862 -0.090631 -0.108210 0.000951 -0.356515 -0.747719 -0.162903
BedRight -0.230957 -0.219521 -0.119643 -0.009607 -0.336110 -0.276392 -0.191259 0.359365 0.261844 -0.375195 -0.371116 0.421728 0.257093 0.415254 0.211839 0.050398 -0.172278 0.025371 0.142501 0.125895 -0.182464 0.148925 -0.393648 0.269171 -0.473652 0.082716 0.551188 -0.372494 -0.456664 -0.077190 -0.282254 -0.304483 -0.455579 -0.272891 -0.504851 -0.277934 -0.319414 -0.062120 0.327381 0.073154 -0.203126 0.096298 0.037285 -0.570918 -0.095812 -0.102721 0.010617 -0.332905 -0.698404 -0.178943
BedroomDoor -0.207360 -0.182707 -0.104825 0.015153 -0.410565 -0.259858 -0.153520 0.353382 0.280993 -0.342094 -0.390753 0.414095 0.216909 0.419777 0.205395 0.044671 -0.163761 -0.005100 0.152400 0.144517 -0.169796 0.147809 -0.383824 0.213752 -0.387848 0.075155 0.527989 -0.401837 -0.469921 -0.113443 -0.276306 -0.315677 -0.443868 -0.277388 -0.514219 -0.277062 -0.315729 -0.055213 0.300222 0.113583 -0.230730 0.119769 0.030313 -0.550336 -0.128579 -0.100113 -0.005821 -0.320939 -0.684407 -0.219925
