22 50
Window -0.089707 -0.267604 -0.006924 -0.046922 -0.630035 -0.013367 -0.017995 0.542128 0.241958 0.048226 -0.518891 0.888351 -0.086588 0.293789 0.161213 -0.141530 0.092453 0.159959 -0.023732 0.155163 0.058219 0.256717 -0.309272 -0.052927 0.120533 -0.038661 0.327038 -0.696883 -0.301317 -0.531294 -0.109607 -0.015710 -0.150930 -0.055992 -0.692054 -0.208676 -0.280343 0.077962 0.232897 0.496922 -0.405870 0.371274 0.284036 -0.321920 -0.452651 -0.007134 -0.034963 -0.254210 -0.492179 -0.485722
Fridge -0.065105 -0.252095 -0.002628 -0.049962 -0.557462 -0.002439 -0.025566 0.495462 0.229842 0.029117 -0.460709 0.837503 -0.059263 0.262395 0.150533 -0.133179 0.104613 0.149169 -0.035864 0.133553 0.059462 0.247990 -0.289760 -0.038882 0.118375 -0.019286 0.296475 -0.642777 -0.271348 -0.486903 -0.087705 0.017911 -0.137915 -0.034635 -0.648773 -0.201755 -0.261185 0.078337 0.222748 0.442492 -0.361471 0.339806 0.257957 -0.287318 -0.393708 -0.016875 -0.061638 -0.255713 -0.464716 -0.436917
Dresser -0.227799 -0.479024 0.109596 -0.676953 0.395484 -0.200527 -0.202324 0.482184 0.330765 -0.449281 0.088835 0.233664 1.056013 0.361828 -0.094007 -0.023125 0.239228 0.335782 -0.340387 -0.621968 -0.518660 0.370447 -0.589199 0.367583 -1.094525 0.391818 0.131456 -0.246117 0.177193 -0.001570 -0.193400 0.370114 -0.209682 -0.096423 -0.544254 -0.469908 -0.303949 0.156982 0.726149 -0.242816 0.063662 -0.206283 0.494482 -0.615037 -0.004729 0.003792 -0.031070 -0.235310 -0.632649 0.390420
BedroomPIR -0.227975 -0.487370 0.116284 -0.683657 0.396945 -0.191984 -0.191356 0.495013 0.322801 -0.457002 0.075919 0.259936 1.033009 0.381602 -0.096305 -0.047812 0.251983 0.341845 -0.342982 -0.630961 -0.497893 0.383780 -0.601907 0.351988 -1.081234 0.389694 0.127560 -0.277920 0.181657 -0.007751 -0.172135 0.390541 -0.222937 -0.068504 -0.554800 -0.462882 -0.311924 0.153029 0.739115 -0.222996 0.043918 -0.204962 0.487230 -0.604835 0.000227 0.001573 -0.047141 -0.242090 -0.617329 0.371625
CupboardGroceries -0.081368 -0.247482 0.008690 -0.049793 -0.549334 -0.001192 -0.008498 0.492653 0.212875 0.042269 -0.456937 0.826491 -0.068383 0.267819 0.146023 -0.126649 0.098085 0.152022 -0.050805 0.119639 0.069753 0.241693 -0.281212 -0.043095 0.103501 -0.032614 0.286865 -0.635150 -0.266548 -0.476313 -0.092857 0.015876 -0.137893 -0.044128 -0.637038 -0.198535 -0.265037 0.081114 0.250053 0.456307 -0.348025 0.339868 0.265684 -0.281050 -0.403340 -0.023808 -0.056953 -0.252839 -0.464234 -0.434606
BathroomPIR -0.075409 -0.246111 0.378915 -0.182665 0.708640 0.227313 0.042367 0.479969 -0.288345 -0.117939 -0.143689 1.115813 -0.202246 0.220516 -0.268775 -0.293182 0.527732 0.595608 -0.558812 -0.898091 0.533992 0.524853 -0.093322 0.030200 -0.055040 0.175650 -0.261218 -0.552545 0.393976 -0.213274 0.583070 1.043236 -0.024082 0.589648 -0.237627 -0.090426 -0.216153 0.136452 0.820813 0.044733 0.183661 -0.149879 0.057594 0.583887 0.363466 -0.301272 -0.692234 -0.619292 -0.083369 -0.043837
KitchenPIR -0.068549 -0.276336 0.000472 -0.052483 -0.591565 0.004328 -0.015283 0.528758 0.222579 0.052866 -0.488832 0.887503 -0.089655 0.253739 0.161840 -0.149472 0.086973 0.160503 -0.044888 0.147073 0.085394 0.249716 -0.274903 -0.039786 0.135386 -0.048813 0.297888 -0.662931 -0.284971 -0.502916 -0.082803 0.002176 -0.136144 -0.038986 -0.651301 -0.194640 -0.263905 0.086305 0.222948 0.485605 -0.367001 0.358467 0.267117 -0.286957 -0.408847 -0.022240 -0.035322 -0.256729 -0.456956 -0.464251
TempShower -0.075937 -0.295232 0.361999 -0.209395 0.639498 0.189612 0.032998 0.521751 -0.249388 -0.092829 -0.153009 1.114777 -0.146364 0.211732 -0.260666 -0.309002 0.500495 0.608948 -0.542469 -0.851978 0.475254 0.492413 -0.103127 0.049090 -0.076060 0.157844 -0.227120 -0.556728 0.365570 -0.235466 0.558479 0.996398 -0.001381 0.557467 -0.260918 -0.115512 -0.203342 0.147091 0.762626 0.064251 0.172252 -0.134594 0.113949 0.498692 0.315526 -0.306778 -0.620397 -0.597459 -0.114330 -0.071311
ToiletDoor -0.075687 -0.279422 0.359647 -0.210168 0.614796 0.183605 0.024560 0.509640 -0.219590 -0.117061 -0.160707 1.101998 -0.131612 0.223297 -0.238708 -0.290904 0.497896 0.587127 -0.538749 -0.833738 0.471328 0.509890 -0.126168 0.033357 -0.091395 0.172206 -0.219684 -0.560609 0.347055 -0.227847 0.516802 0.975491 -0.022300 0.534513 -0.290872 -0.118180 -0.206378 0.152334 0.766046 0.071126 0.149658 -0.115102 0.105425 0.485374 0.306949 -0.292431 -0.616618 -0.589920 -0.143991 -0.067440
Piano 0.070050 -0.997239 0.323714 -0.675023 0.349006 -0.235898 -0.394567 0.983323 -0.054199 0.703214 0.227420 1.126772 0.522925 -0.232856 -0.356457 -0.735082 0.178055 0.785111 -0.400205 -0.700539 -0.424219 -0.024842 0.300750 0.188871 -0.618918 -0.325484 0.114191 -0.312065 0.036579 -0.597775 0.631034 0.487108 0.949286 0.443545 0.083916 -0.087672 0.498089 0.410783 -0.207495 0.539025 0.096794 -0.058401 1.026599 -0.343868 -0.242030 -0.471796 0.609462 -0.357786 -0.333917 -0.202893
BedLeft -0.237893 -0.483980 0.104626 -0.701478 0.416708 -0.201840 -0.205812 0.498159 0.334924 -0.482921 0.088435 0.218042 1.086287 0.392344 -0.096410 -0.037280 0.256207 0.347785 -0.354571 -0.664840 -0.516487 0.402179 -0.628214 0.374151 -1.126559 0.411999 0.117233 -0.264955 0.198290 0.011209 -0.182494 0.399766 -0.225023 -0.086136 -0.566478 -0.469581 -0.319237 0.149164 0.755163 -0.244838 0.059693 -0.223106 0.492483 -0.619554 0.011859 -0.009078 -0.062046 -0.243479 -0.637862 0.404984
Chair 0.037415 -0.933068 0.298451 -0.627557 0.303482 -0.221796 -0.365598 0.943662 -0.039562 0.620632 0.162585 1.093794 0.475249 -0.182559 -0.328732 -0.668231 0.190514 0.731556 -0.386186 -0.653863 -0.369420 0.023898 0.237376 0.180645 -0.574724 -0.274892 0.108695 -0.347292 0.036969 -0.568585 0.560807 0.475599 0.843041 0.402448 0.004459 -0.102252 0.423464 0.368500 -0.146875 0.507663 0.081110 -0.020462 0.954452 -0.337656 -0.240558 -0.434185 0.535324 -0.353648 -0.330289 -0.187875
Microwave -0.086035 -0.264297 0.014377 -0.073035 -0.515391 -0.016453 -0.029169 0.499555 0.224790 0.029521 -0.440943 0.821720 -0.034162 0.268709 0.137847 -0.137447 0.094005 0.168494 -0.047953 0.099059 0.052938 0.246161 -0.291565 -0.020720 0.071242 -0.017804 0.286417 -0.625443 -0.246165 -0.469084 -0.076810 0.020094 -0.139604 -0.046914 -0.636464 -0.198685 -0.253905 0.076085 0.246608 0.421368 -0.339005 0.312315 0.263959 -0.295108 -0.389410 -0.007104 -0.051865 -0.241171 -0.452728 -0.404000
StoveLid -0.066422 -0.249214 -0.003227 -0.032406 -0.583580 -0.001701 -0.017559 0.516975 0.234298 0.054310 -0.489015 0.855571 -0.087938 0.264778 0.155584 -0.144876 0.094713 0.156852 -0.034846 0.144391 0.064282 0.251968 -0.293600 -0.042440 0.125320 -0.035601 0.297852 -0.658769 -0.286450 -0.502587 -0.103490 -0.005668 -0.152144 -0.043001 -0.669820 -0.208646 -0.262126 0.096378 0.228989 0.480301 -0.371822 0.352902 0.251291 -0.304951 -0.409507 -0.018856 -0.052704 -0.252980 -0.470425 -0.457692
Sink -0.073879 -0.275668 0.013209 -0.052440 -0.596266 -0.016625 -0.023119 0.543457 0.245513 0.049406 -0.492978 0.897899 -0.057742 0.281393 0.153140 -0.146867 0.103533 0.168980 -0.046228 0.119181 0.062626 0.253731 -0.305995 -0.031526 0.111355 -0.028257 0.317684 -0.682532 -0.288722 -0.516927 -0.078739 0.006718 -0.146536 -0.049510 -0.672631 -0.205572 -0.263245 0.087568 0.241205 0.479745 -0.379018 0.352645 0.284075 -0.309580 -0.424309 -0.024805 -0.038899 -0.265422 -0.501569 -0.468474
Toaster -0.086874 -0.274337 -0.000789 -0.048654 -0.586331 -0.005588 -0.028600 0.517017 0.234667 0.044717 -0.497318 0.881561 -0.079986 0.268841 0.158630 -0.133243 0.113237 0.169321 -0.039455 0.135761 0.074969 0.252696 -0.310936 -0.034764 0.104972 -0.037762 0.308160 -0.664627 -0.281791 -0.505082 -0.098552 0.003723 -0.162517 -0.049904 -0.687127 -0.212278 -0.266305 0.084023 0.253046 0.472635 -0.364318 0.352887 0.277812 -0.306705 -0.421509 -0.008844 -0.057678 -0.261287 -0.481623 -0.458869
CupboardPlates -0.075632 -0.278548 -0.002532 -0.065644 -0.567917 -0.003189 -0.021468 0.538249 0.231614 0.046139 -0.493679 0.884015 -0.060978 0.271568 0.153260 -0.151028 0.116466 0.175591 -0.053272 0.120973 0.066574 0.274887 -0.315015 -0.031133 0.104926 -0.026358 0.298464 -0.677030 -0.261757 -0.503205 -0.085875 0.026461 -0.157094 -0.032631 -0.692920 -0.215542 -0.279458 0.098601 0.264354 0.479650 -0.376897 0.347418 0.275027 -0.311554 -0.417440 -0.016412 -0.058430 -0.259079 -0.488605 -0.451138
BedRight -0.216776 -0.483354 0.100355 -0.662463 0.374729 -0.175602 -0.195164 0.497976 0.311808 -0.459951 0.069388 0.300254 1.017799 0.384924 -0.081769 -0.032013 0.268146 0.350709 -0.347131 -0.620744 -0.466428 0.393628 -0.603450 0.355756 -1.054697 0.379764 0.136682 -0.283871 0.178129 -0.028618 -0.178479 0.400545 -0.223689 -0.069005 -0.586784 -0.458354 -0.320530 0.147289 0.743321 -0.213191 0.053459 -0.182197 0.480955 -0.593183 -0.001276 -0.018280 -0.069022 -0.268911 -0.643417 0.354473
ToiletFlush -0.067804 -0.254623 0.358318 -0.177404 0.637999 0.196650 0.022996 0.460776 -0.249549 -0.101716 -0.151462 1.063083 -0.171839 0.210595 -0.234754 -0.293863 0.472037 0.569819 -0.522682 -0.818537 0.487034 0.486086 -0.098954 0.029376 -0.062758 0.147111 -0.223702 -0.523340 0.339243 -0.215813 0.545673 0.965149 -0.008118 0.543442 -0.238454 -0.107734 -0.187365 0.134328 0.746708 0.051265 0.179463 -0.122679 0.082201 0.519961 0.324807 -0.300861 -0.624657 -0.563589 -0.097270 -0.062688
CutlaryDrawer -0.089655 -0.272768 0.016507 -0.065711 -0.558159 -0.013434 -0.014519 0.525172 0.227534 0.043982 -0.478233 0.857045 -0.051463 0.271869 0.136093 -0.140448 0.099383 0.178765 -0.042279 0.103718 0.061189 0.255080 -0.293527 -0.033490 0.078685 -0.025643 0.291829 -0.654878 -0.253923 -0.490325 -0.085417 0.031560 -0.141152 -0.046225 -0.667925 -0.207640 -0.266857 0.093618 0.247828 0.462999 -0.365230 0.331241 0.275889 -0.311190 -0.406478 -0.017658 -0.047440 -0.268188 -0.489412 -0.437681
BedroomDoor -0.210437 -0.473224 0.109341 -0.672025 0.372246 -0.183106 -0.184598 0.497885 0.322274 -0.444790 0.079588 0.259624 1.025723 0.378446 -0.103062 -0.040489 0.261661 0.338675 -0.340645 -0.632640 -0.494971 0.388754 -0.591630 0.340718 -1.049365 0.379833 0.115695 -0.278128 0.183924 -0.030336 -0.173316 0.384061 -0.206744 -0.076017 -0.556502 -0.459058 -0.304124 0.153880 0.719797 -0.219099 0.056475 -0.200746 0.483125 -0.598536 -0.008865 -0.011219 -0.057867 -0.247938 -0.616961 0.360082
TempGeiser -0.080006 -0.258329 0.000640 -0.035000 -0.619364 0.005264 -0.011966 0.520648 0.236070 0.055140 -0.505619 0.876435 -0.091432 0.282847 0.169631 -0.139570 0.095451 0.163493 -0.033606 0.148914 0.084587 0.247862 -0.308622 -0.048667 0.127824 -0.042174 0.310359 -0.672865 -0.287388 -0.521506 -0.103582 0.004589 -0.150705 -0.055739 -0.690778 -0.195752 -0.269357 0.079718 0.233880 0.497156 -0.390412 0.373798 0.271280 -0.305569 -0.430195 -0.009084 -0.037647 -0.242329 -0.473760 -0.461294
