15 50
Fridge -0.160329 -0.396377 -0.019811 -0.030401 -0.602896 0.125718 0.049017 0.096509 -0.133916 0.463394 -0.303840 0.654477 -0.309875 -0.285935 0.189898 0.183657 0.466358 -0.085653 -0.271104 0.398367 0.182863 -0.016046 0.073900 -0.354097 0.063038 -0.433666 0.148268 -0.147192 -0.407211 -0.008126 -0.364152 0.075602 0.005277 0.103022 -0.564045 -0.375062 -0.127256 0.377882 0.339044 0.783871 -0.003196 0.540847 0.462688 -0.098470 -0.492078 -0.220961 -0.124177 -0.353984 -0.619645 -0.559394
ToiletDoor 0.153000 0.356702 0.641325 0.021131 0.534686 0.322734 -0.225725 -0.143817 0.005773 -0.135586 0.001613 0.942716 -0.389838 0.242734 0.053121 0.054205 0.501816 -0.196807 -0.578151 -0.729372 0.490424 0.787311 0.027704 -0.719048 -0.134302 0.130377 -0.197043 -0.431652 -0.273966 -0.231468 0.023912 0.536080 0.063150 0.366851 -0.109962 0.020298 0.135651 0.359064 0.927390 0.441577 -0.054293 0.358974 -0.075732 0.931680 0.120999 -0.125349 -0.593101 -0.401963 -0.412803 -0.038768
BedroomPIR -0.109079 -0.686567 0.127916 -0.627756 0.288251 0.304006 -0.043245 0.360242 -0.237190 -0.918632 0.074556 0.823668 0.080752 0.200503 0.552208 -0.227430 -0.399250 -0.212789 -0.577406 0.006855 0.490682 0.254400 0.118216 0.065665 -0.679712 -0.200356 0.186890 -0.258194 -0.660248 0.453348 -0.198721 0.075259 -0.391340 0.263361 0.177094 -0.073741 -0.516970 -0.050681 1.024914 0.387162 0.073983 0.328932 0.151877 0.098854 0.584014 -0.366796 0.199039 -0.601656 -0.197129 0.074380
CupboardPlates -0.163255 -0.358522 -0.008706 -0.012838 -0.579732 0.108649 0.048392 0.096430 -0.110972 0.474791 -0.316341 0.622483 -0.293427 -0.278890 0.169843 0.193823 0.450499 -0.071291 -0.264483 0.366676 0.156753 -0.001847 0.058716 -0.332692 0.054047 -0.403941 0.135408 -0.139296 -0.375943 -0.018592 -0.362650 0.060467 0.004878 0.074537 -0.544002 -0.369573 -0.112664 0.381745 0.324745 0.739101 0.002053 0.508409 0.436802 -0.093638 -0.495326 -0.190193 -0.113768 -0.307989 -0.594945 -0.529581
CutlaryDrawer -0.183925 -0.402753 -0.009291 -0.030023 -0.617776 0.115848 0.068079 0.103958 -0.140973 0.479193 -0.320616 0.648826 -0.318516 -0.286900 0.180704 0.188020 0.451690 -0.074216 -0.263426 0.396361 0.191314 -0.024998 0.082593 -0.355025 0.046073 -0.444257 0.142263 -0.142321 -0.394849 0.003814 -0.369221 0.074060 0.001695 0.086223 -0.564200 -0.369389 -0.127870 0.383033 0.335881 0.793628 -0.005611 0.530342 0.462291 -0.114727 -0.498128 -0.216454 -0.108363 -0.353287 -0.622840 -0.557127
BedroomDoor -0.280958 0.217833 0.620532 0.101045 0.029322 -0.070301 -0.220824 0.157002 0.697436 -0.258052 -0.500288 0.832890 0.479364 -0.023495 0.036572 0.833327 -0.130529 -0.089128 -0.593416 -0.389388 -0.474451 0.416305 0.004871 0.129526 -0.697345 0.444331 0.155582 -0.064564 -0.721462 -0.286434 -0.988849 -0.269158 -0.069559 -0.640283 -0.181583 -0.944647 -0.275226 0.622369 1.035218 -0.024318 0.484959 0.384411 0.286041 0.409927 -0.236832 0.162882 -0.067126 -0.312281 -0.733041 -0.020524
Dresser -0.303579 0.179669 0.618755 0.092463 0.031731 -0.071077 -0.233874 0.165480 0.680890 -0.248708 -0.513276 0.870385 0.464725 -0.046906 0.066192 0.824984 -0.149927 -0.084968 -0.610749 -0.359900 -0.452038 0.400150 0.020057 0.144199 -0.713092 0.422491 0.176867 -0.059858 -0.751844 -0.259753 -0.991427 -0.272780 -0.069210 -0.629537 -0.174761 -0.943587 -0.284458 0.628624 1.057676 0.011906 0.479096 0.407008 0.307268 0.413459 -0.235714 0.155553 -0.043168 -0.323330 -0.748058 -0.030496
CupboardGroceries -0.168240 -0.349502 0.004402 -0.011318 -0.571668 0.113405 0.057069 0.083476 -0.123108 0.460743 -0.294214 0.614540 -0.299043 -0.265372 0.170761 0.198359 0.438640 -0.083679 -0.270862 0.360540 0.170321 -0.015184 0.076508 -0.343398 0.052795 -0.409332 0.134365 -0.133605 -0.390060 -0.010941 -0.361097 0.062146 0.011563 0.073658 -0.527135 -0.364028 -0.117830 0.370148 0.342798 0.745030 0.015326 0.512896 0.440115 -0.074083 -0.484822 -0.207133 -0.122335 -0.325777 -0.595286 -0.526609
BedLeft -0.109228 -0.648423 0.089701 -0.583396 0.244385 0.275864 -0.047058 0.350845 -0.219239 -0.858650 0.061393 0.745654 0.093082 0.177481 0.525155 -0.207262 -0.385645 -0.189468 -0.535926 0.014990 0.455143 0.232449 0.104923 0.090113 -0.636293 -0.189782 0.174832 -0.230433 -0.615391 0.429509 -0.192049 0.057176 -0.359505 0.225465 0.154753 -0.069024 -0.489694 -0.057995 0.935123 0.358649 0.079622 0.302556 0.146376 0.073056 0.544462 -0.358199 0.190518 -0.562929 -0.188602 0.072558
BedRight -0.103425 -0.696429 0.080530 -0.619849 0.266595 0.297165 -0.037587 0.360562 -0.243171 -0.927916 0.092426 0.774869 0.116602 0.181165 0.553653 -0.203488 -0.421684 -0.195844 -0.551494 0.040797 0.471317 0.216437 0.121230 0.124365 -0.671354 -0.202976 0.196448 -0.213301 -0.633511 0.461043 -0.211921 0.050193 -0.388030 0.231654 0.181557 -0.067578 -0.523408 -0.077345 0.967536 0.339171 0.104682 0.310951 0.139793 0.065981 0.595060 -0.371105 0.224866 -0.590315 -0.178020 0.090019
BathroomPIR 0.158047 0.396305 0.623973 0.054496 0.543884 0.311853 -0.228186 -0.164995 0.006524 -0.100617 0.009780 0.874661 -0.389965 0.243404 0.021122 0.054748 0.490877 -0.193449 -0.526977 -0.738367 0.449899 0.763361 0.026981 -0.693356 -0.106001 0.142452 -0.195875 -0.410422 -0.236243 -0.259296 0.057420 0.514067 0.080836 0.350335 -0.080592 0.040385 0.155387 0.332975 0.872422 0.396477 -0.059799 0.319188 -0.096917 0.917665 0.103511 -0.092203 -0.590097 -0.359597 -0.366921 -0.016528
ToiletFlush 0.164821 0.404701 0.661553 0.054647 0.569334 0.325220 -0.243516 -0.177158 0.010740 -0.117881 -0.003666 0.931862 -0.408740 0.259749 0.040655 0.049685 0.504038 -0.195781 -0.566910 -0.762079 0.488604 0.806968 0.018534 -0.732335 -0.117214 0.140896 -0.202663 -0.431177 -0.264120 -0.261650 0.058391 0.548423 0.080118 0.370649 -0.095642 0.024708 0.163684 0.353982 0.922539 0.415692 -0.046366 0.346800 -0.098001 0.967649 0.119205 -0.116107 -0.622408 -0.369431 -0.392613 -0.027415
Toaster -0.168638 -0.371451 0.006804 -0.034140 -0.539403 0.119738 0.034749 0.091705 -0.119628 0.407438 -0.294839 0.636742 -0.294704 -0.254425 0.187657 0.181796 0.426217 -0.078955 -0.277710 0.341568 0.188544 0.003569 0.060744 -0.328836 0.013204 -0.402614 0.136318 -0.139822 -0.398548 0.003876 -0.355317 0.061707 -0.018382 0.082910 -0.512120 -0.351608 -0.117074 0.354100 0.364219 0.721707 0.015516 0.500292 0.426692 -0.070543 -0.441131 -0.197855 -0.115014 -0.331452 -0.573376 -0.503436
StoveLid -0.147236 -0.352095 -0.010972 -0.015813 -0.548400 0.120531 0.048720 0.095838 -0.127939 0.440152 -0.288936 0.611721 -0.307520 -0.253384 0.172006 0.159404 0.435118 -0.076787 -0.257889 0.354488 0.174301 -0.001578 0.064968 -0.339025 0.055794 -0.404710 0.129722 -0.146910 -0.380149 -0.012201 -0.339723 0.070133 -0.001454 0.102116 -0.522723 -0.346774 -0.111922 0.359882 0.324786 0.737882 -0.005225 0.501863 0.414057 -0.086592 -0.457876 -0.210604 -0.125286 -0.328651 -0.576302 -0.523223
KitchenPIR -0.085964 -0.644201 0.089414 -0.588656 0.257641 0.291384 -0.029386 0.343398 -0.228651 -0.875648 0.082950 0.739120 0.090091 0.171349 0.521539 -0.208676 -0.398502 -0.198356 -0.532900 0.023100 0.461611 0.227669 0.123481 0.093203 -0.612275 -0.189317 0.163474 -0.219782 -0.600591 0.432722 -0.183631 0.053432 -0.362005 0.232435 0.185353 -0.055965 -0.492250 -0.064714 0.923499 0.336275 0.088957 0.295244 0.122537 0.090821 0.566781 -0.351809 0.200059 -0.560947 -0.157833 0.077975
