24 50
Piano -0.039964 -0.320172 -0.017491 -0.085585 -0.318360 0.075616 -0.120595 0.411222 -0.117655 0.078528 -0.151999 0.368954 -0.070622 -0.027664 0.089775 0.021258 0.233895 -0.013717 -0.087786 -0.212655 0.037313 0.070403 -0.120484 0.009999 -0.326632 0.016881 0.156377 -0.188287 -0.162155 -0.178114 -0.052890 -0.084651 -0.038313 0.048827 -0.227799 -0.019832 -0.101500 0.004838 0.093666 0.368029 0.101830 0.023755 0.270117 -0.070108 0.039769 -0.374259 -0.065169 -0.361328 -0.215009 -0.079253
CutlaryDrawer -0.050638 -0.286697 -0.014118 -0.076064 -0.294153 0.063338 -0.098902 0.376951 -0.112815 0.066214 -0.156570 0.331822 -0.073078 -0.023257 0.071138 0.024655 0.207339 -0.011357 -0.067738 -0.193842 0.040260 0.071674 -0.103204 0.003393 -0.307543 0.020878 0.135890 -0.178544 -0.138194 -0.156617 -0.057448 -0.066107 -0.036697 0.041184 -0.224699 -0.018594 -0.106691 0.004577 0.081786 0.353855 0.083542 0.025597 0.254415 -0.078779 0.040241 -0.360177 -0.062070 -0.360990 -0.214529 -0.073618
KitchenPIR -0.035862 -0.294241 -0.026012 -0.081989 -0.297071 0.079590 -0.100574 0.380864 -0.112965 0.053695 -0.152170 0.338150 -0.076288 -0.034054 0.091049 0.027911 0.203659 -0.025270 -0.088348 -0.178415 0.051245 0.078887 -0.107028 0.013454 -0.291920 0.014700 0.132422 -0.173760 -0.151337 -0.148175 -0.063518 -0.087270 -0.049196 0.038390 -0.210275 -0.024786 -0.113728 0.001350 0.098257 0.340944 0.102956 0.031689 0.236148 -0.058156 0.048358 -0.352099 -0.061763 -0.336894 -0.178430 -0.071374
BedroomPIR -0.055283 -0.304044 -0.013294 -0.087863 -0.290997 0.063219 -0.111600 0.389885 -0.110510 0.060280 -0.162219 0.346620 -0.074298 -0.017513 0.081493 0.016884 0.212479 -0.018388 -0.077764 -0.193445 0.035469 0.075081 -0.120454 0.007623 -0.324880 0.024271 0.146895 -0.188891 -0.155275 -0.153449 -0.059270 -0.078740 -0.052299 0.046189 -0.220372 -0.024086 -0.109737 -0.000654 0.098458 0.352463 0.082374 0.026213 0.259103 -0.083480 0.040474 -0.351792 -0.060482 -0.347228 -0.199871 -0.069644
BalconyDoor -0.034700 -0.282487 -0.010057 -0.071481 -0.287327 0.069703 -0.102970 0.373989 -0.105655 0.072328 -0.138161 0.322447 -0.074217 -0.026878 0.071240 0.033027 0.214626 -0.021877 -0.068685 -0.187075 0.042415 0.066646 -0.117310 0.005914 -0.294532 0.027542 0.138903 -0.166149 -0.133982 -0.153875 -0.049615 -0.084097 -0.040158 0.028357 -0.217663 -0.022901 -0.098125 -0.006019 0.087281 0.325763 0.092265 0.018516 0.229977 -0.060974 0.042785 -0.341362 -0.072745 -0.332496 -0.178107 -0.062483
Window -0.056405 -0.300347 -0.025265 -0.084237 -0.302504 0.063777 -0.114215 0.398080 -0.121855 0.059089 -0.161435 0.341738 -0.081195 -0.016152 0.075219 0.029410 0.222374 -0.017760 -0.075876 -0.200905 0.030941 0.075360 -0.114055 0.001943 -0.325528 0.022595 0.147201 -0.190890 -0.154541 -0.167762 -0.067397 -0.084697 -0.037159 0.047123 -0.216977 -0.018438 -0.109718 -0.008062 0.090113 0.358565 0.094810 0.027357 0.274055 -0.071361 0.038466 -0.369691 -0.061634 -0.362108 -0.198533 -0.077002
StoveLid -0.038217 -0.278006 -0.023415 -0.065694 -0.286438 0.068827 -0.108842 0.376372 -0.104014 0.067686 -0.153339 0.331664 -0.076391 -0.021307 0.080559 0.020599 0.215809 -0.015989 -0.079952 -0.188103 0.033224 0.077090 -0.118416 0.009963 -0.294887 0.022721 0.138267 -0.180101 -0.151345 -0.160237 -0.065038 -0.080821 -0.047782 0.044217 -0.221239 -0.026884 -0.099391 0.005872 0.087059 0.337936 0.089234 0.030907 0.233836 -0.072465 0.035157 -0.346502 -0.070122 -0.334126 -0.197896 -0.075195
Frontdoor -0.039629 -0.286750 -0.021720 -0.071692 -0.304695 0.073772 -0.105174 0.388683 -0.124576 0.063704 -0.153775 0.349111 -0.079941 -0.026395 0.092670 0.022252 0.221460 -0.027705 -0.086882 -0.200241 0.044381 0.070851 -0.114778 0.015435 -0.310727 0.029015 0.135717 -0.184034 -0.146407 -0.164597 -0.064355 -0.089175 -0.054042 0.052353 -0.228047 -0.011951 -0.112062 0.002771 0.088485 0.359571 0.111921 0.028410 0.262573 -0.067217 0.048718 -0.370972 -0.071692 -0.349719 -0.193887 -0.068926
Fridge -0.036630 -0.295087 -0.029532 -0.079500 -0.294748 0.075865 -0.117221 0.371407 -0.112643 0.055037 -0.148626 0.344334 -0.071901 -0.028967 0.089682 0.026745 0.225270 -0.024801 -0.078073 -0.182283 0.040821 0.075894 -0.115153 0.007755 -0.295938 0.022508 0.146822 -0.180782 -0.155727 -0.162080 -0.058110 -0.072023 -0.041664 0.052224 -0.228187 -0.024088 -0.109194 -0.004949 0.084981 0.342428 0.090288 0.036377 0.253832 -0.068261 0.041891 -0.356328 -0.074062 -0.349807 -0.200328 -0.073884
ToiletDoor -0.040604 -0.294757 -0.012982 -0.084744 -0.296417 0.066429 -0.109799 0.396617 -0.103801 0.056260 -0.154850 0.355720 -0.068591 -0.024858 0.079790 0.029341 0.230410 -0.014593 -0.090213 -0.206643 0.045517 0.088346 -0.120058 0.002189 -0.317458 0.033209 0.135350 -0.190211 -0.145865 -0.158017 -0.068121 -0.072875 -0.046947 0.043067 -0.233279 -0.019591 -0.104614 0.009562 0.098101 0.358205 0.090187 0.029772 0.253548 -0.064495 0.048006 -0.363575 -0.069415 -0.367293 -0.217954 -0.074392
Sink -0.039186 -0.286549 -0.014207 -0.067147 -0.306646 0.060442 -0.108472 0.386855 -0.102314 0.060659 -0.159412 0.342494 -0.067004 -0.018463 0.083175 0.033247 0.224905 -0.023884 -0.083796 -0.208585 0.040544 0.074249 -0.125590 0.016648 -0.307842 0.032982 0.150200 -0.187205 -0.157168 -0.160111 -0.052558 -0.088208 -0.056260 0.035356 -0.216502 -0.016705 -0.102407 -0.002551 0.093278 0.344450 0.100483 0.020290 0.246143 -0.061869 0.050393 -0.366156 -0.063478 -0.350579 -0.211175 -0.073425
ToiletFlush -0.046109 -0.298263 -0.017541 -0.075202 -0.294620 0.078848 -0.121848 0.380792 -0.119738 0.062027 -0.165894 0.355651 -0.086419 -0.015194 0.094263 0.022527 0.217038 -0.020422 -0.082477 -0.197259 0.046732 0.085018 -0.124344 0.005366 -0.316209 0.014874 0.150126 -0.183807 -0.162559 -0.166909 -0.053720 -0.076989 -0.050011 0.049355 -0.225796 -0.027879 -0.108692 -0.003282 0.105209 0.348469 0.103760 0.031375 0.252451 -0.062821 0.043368 -0.363668 -0.078328 -0.341403 -0.197764 -0.073414
Toaster -0.055373 -0.307850 -0.024867 -0.078148 -0.312347 0.067322 -0.119945 0.385570 -0.111632 0.068031 -0.163443 0.345239 -0.080431 -0.030992 0.086432 0.036744 0.233349 -0.014755 -0.078394 -0.194287 0.044534 0.070628 -0.127901 0.012296 -0.322283 0.017041 0.147514 -0.177963 -0.153111 -0.159968 -0.067304 -0.090401 -0.054822 0.034177 -0.232483 -0.023096 -0.100526 -0.004771 0.095536 0.349950 0.105738 0.026467 0.261422 -0.074501 0.036166 -0.353043 -0.067922 -0.350713 -0.199164 -0.072733
CupboardPlates -0.041049 -0.304055 -0.031451 -0.081345 -0.308651 0.076694 -0.109108 0.392684 -0.117929 0.077104 -0.164952 0.347374 -0.080050 -0.032941 0.092426 0.023296 0.228832 -0.019130 -0.086281 -0.185634 0.044595 0.085202 -0.126865 0.010072 -0.301080 0.017914 0.142822 -0.186855 -0.143750 -0.160356 -0.060450 -0.080904 -0.050296 0.047942 -0.233150 -0.022470 -0.110587 0.005933 0.095284 0.353196 0.090649 0.032765 0.247836 -0.072955 0.030554 -0.352257 -0.065551 -0.332329 -0.198211 -0.075001
Chair -0.056220 -0.313702 -0.020748 -0.084064 -0.307437 0.064192 -0.118598 0.412340 -0.125155 0.069794 -0.166402 0.360189 -0.082009 -0.031064 0.075494 0.028971 0.232892 -0.018127 -0.090812 -0.207955 0.047030 0.083817 -0.112545 0.012682 -0.320982 0.025929 0.136353 -0.193566 -0.146575 -0.162526 -0.062355 -0.072991 -0.035246 0.046542 -0.230517 -0.017084 -0.103436 -0.004588 0.087651 0.368135 0.110206 0.039536 0.272956 -0.075001 0.040887 -0.379280 -0.059561 -0.366041 -0.199752 -0.066272
BathroomPIR -0.043318 -0.290989 -0.020316 -0.076999 -0.292757 0.077312 -0.110558 0.390480 -0.123071 0.071898 -0.151043 0.352051 -0.083745 -0.022727 0.074441 0.027417 0.225175 -0.027607 -0.074687 -0.205965 0.037250 0.079902 -0.107841 0.008095 -0.309226 0.020627 0.144162 -0.187426 -0.147610 -0.169225 -0.053593 -0.081102 -0.042517 0.046725 -0.218949 -0.012212 -0.110909 -0.002420 0.102289 0.363229 0.083469 0.026544 0.249084 -0.069166 0.035727 -0.349643 -0.068407 -0.359232 -0.198627 -0.067980
BedroomDoor -0.032940 -0.290409 -0.023844 -0.083767 -0.305061 0.074472 -0.104539 0.389254 -0.104431 0.052095 -0.151725 0.335663 -0.062987 -0.015738 0.073813 0.032263 0.232524 -0.023468 -0.077071 -0.205394 0.030494 0.088076 -0.125438 0.003896 -0.311913 0.028763 0.138647 -0.189772 -0.145887 -0.171859 -0.065695 -0.078920 -0.050753 0.038374 -0.234235 -0.029554 -0.110465 -0.000543 0.092667 0.343115 0.097359 0.023255 0.246967 -0.078326 0.041720 -0.359051 -0.075907 -0.360703 -0.203973 -0.073174
Dresser -0.055749 -0.289499 -0.014768 -0.076260 -0.289301 0.060150 -0.111570 0.379261 -0.104988 0.065295 -0.160498 0.340504 -0.066293 -0.029477 0.081172 0.035460 0.205067 -0.014404 -0.081703 -0.187916 0.033064 0.071926 -0.109080 0.017856 -0.316123 0.026346 0.144006 -0.174050 -0.152782 -0.153680 -0.069589 -0.081567 -0.040252 0.032308 -0.219012 -0.027788 -0.109675 0.006280 0.095512 0.349444 0.095603 0.031837 0.259746 -0.069914 0.036122 -0.352114 -0.057956 -0.347927 -0.208204 -0.069714
Bridge -0.051221 -0.287634 -0.013759 -0.085432 -0.296272 0.064184 -0.114991 0.376432 -0.111846 0.065883 -0.159016 0.348593 -0.074951 -0.015954 0.078268 0.032574 0.217732 -0.027981 -0.073269 -0.189550 0.034315 0.078771 -0.111967 0.011355 -0.314869 0.019524 0.141425 -0.177653 -0.153444 -0.157821 -0.052068 -0.083978 -0.054070 0.036339 -0.221322 -0.015100 -0.115144 -0.002179 0.092372 0.357459 0.096349 0.021842 0.261691 -0.073839 0.038429 -0.359794 -0.075843 -0.355208 -0.196288 -0.073504
Couch -0.055546 -0.297612 -0.025695 -0.073603 -0.297810 0.079592 -0.116327 0.369700 -0.121133 0.071655 -0.153972 0.325782 -0.079073 -0.024141 0.092930 0.028505 0.220956 -0.016799 -0.080882 -0.197857 0.034008 0.067403 -0.116115 0.013784 -0.307176 0.023669 0.149044 -0.173778 -0.153742 -0.165267 -0.060658 -0.072611 -0.049419 0.053554 -0.211484 -0.011083 -0.107647 -0.004379 0.087512 0.345749 0.100062 0.022766 0.255146 -0.073167 0.035607 -0.357321 -0.067993 -0.341023 -0.204992 -0.061079
CupboardGroceries -0.054927 -0.300726 -0.020681 -0.076043 -0.316825 0.076368 -0.106331 0.391890 -0.128185 0.070734 -0.154974 0.346790 -0.085256 -0.022018 0.090910 0.039112 0.226882 -0.028159 -0.093546 -0.196619 0.050501 0.071182 -0.114255 0.003633 -0.315926 0.014226 0.145841 -0.182892 -0.162420 -0.160357 -0.072065 -0.086881 -0.044784 0.038876 -0.228169 -0.022875 -0.115652 -0.004200 0.107512 0.363382 0.113245 0.037620 0.265803 -0.063678 0.034595 -0.377279 -0.074466 -0.353340 -0.202894 -0.073164
Microwave -0.054335 -0.295966 -0.014149 -0.077315 -0.306449 0.061832 -0.114652 0.387626 -0.106389 0.065836 -0.154685 0.349260 -0.076656 -0.016259 0.085066 0.028450 0.212651 -0.018281 -0.075008 -0.189516 0.044057 0.073573 -0.119779 0.010703 -0.307005 0.024455 0.150808 -0.189456 -0.152609 -0.167930 -0.057460 -0.090045 -0.046730 0.030967 -0.229742 -0.018344 -0.106738 -0.007256 0.096005 0.346086 0.092469 0.028375 0.252360 -0.072982 0.029085 -0.342718 -0.068950 -0.343638 -0.199037 -0.070410
BedLeft -0.054138 -0.311094 -0.030877 -0.084121 -0.315731 0.067351 -0.125499 0.413484 -0.117759 0.065490 -0.170479 0.350275 -0.072128 -0.023205 0.091714 0.021572 0.229389 -0.015027 -0.087332 -0.214351 0.046587 0.088574 -0.132085 0.016714 -0.331938 0.026711 0.145515 -0.195474 -0.155140 -0.163253 -0.057975 -0.079795 -0.043224 0.042098 -0.241785 -0.016608 -0.112229 -0.005844 0.094224 0.376398 0.098084 0.029041 0.273053 -0.080180 0.044182 -0.389530 -0.073756 -0.369766 -0.219294 -0.070127
BedRight -0.037880 -0.284777 -0.028625 -0.073375 -0.275769 0.072186 -0.110209 0.362849 -0.117720 0.052182 -0.137152 0.333059 -0.065224 -0.023098 0.085501 0.033551 0.213583 -0.013238 -0.080421 -0.184352 0.045927 0.072358 -0.111135 0.017927 -0.301014 0.016649 0.141950 -0.163275 -0.139518 -0.149383 -0.060976 -0.067729 -0.042799 0.042878 -0.216687 -0.016269 -0.102793 -0.004267 0.093498 0.327833 0.099919 0.031458 0.234898 -0.063952 0.047653 -0.349911 -0.063789 -0.338260 -0.200227 -0.063254
