22 50
Frontdoor -0.198783 -0.383595 -0.043883 -0.099771 -0.694631 -0.095994 -0.059103 0.431722 0.048144 0.344251 -0.196081 0.072487 0.315785 0.020461 0.116064 0.070467 0.042209 0.049015 0.131269 -0.092023 -0.484923 -0.352006 -0.179678 0.267849 -0.553114 0.020900 0.418750 0.014666 -0.306359 -0.240172 -0.102889 -0.342005 -0.103909 -0.184540 -0.232956 -0.136279 -0.250235 0.092651 -0.160257 0.432615 0.076334 -0.249747 0.598390 -0.531964 -0.183791 -0.447282 0.027873 -0.370996 -0.571217 -0.192464
BalconyDoor -0.188552 -0.355159 -0.013443 -0.102960 -0.601953 -0.089169 -0.080555 0.403539 0.071446 0.291703 -0.188736 0.093350 0.299021 0.034197 0.099476 0.074947 0.048297 0.053920 0.107335 -0.118330 -0.429089 -0.277129 -0.186201 0.229089 -0.537983 0.036961 0.388099 -0.002739 -0.290335 -0.215554 -0.092589 -0.286057 -0.091874 -0.182184 -0.228435 -0.139733 -0.222058 0.086217 -0.098947 0.389363 0.047850 -0.221466 0.525894 -0.463543 -0.156151 -0.401808 0.008800 -0.360749 -0.546372 -0.161427
Piano -0.196110 -0.373526 -0.034078 -0.111182 -0.635623 -0.097014 -0.074397 0.409016 0.065429 0.312997 -0.188567 0.078924 0.317945 0.029238 0.105168 0.066908 0.035718 0.063301 0.115964 -0.100214 -0.462535 -0.311253 -0.176396 0.247499 -0.539517 0.013725 0.400672 0.010552 -0.299719 -0.223630 -0.093453 -0.304524 -0.086553 -0.181634 -0.215282 -0.139968 -0.226971 0.091399 -0.127539 0.398286 0.055841 -0.233297 0.562101 -0.498219 -0.178851 -0.414200 0.032029 -0.355375 -0.562013 -0.181837
ToiletDoor -0.393677 -0.062242 0.516052 -0.277156 0.330985 -0.025653 -0.587841 0.348579 0.355363 -0.493412 -0.422229 0.855811 0.303784 0.461119 0.189853 0.070733 0.143977 0.137400 -0.503132 -1.059677 0.079863 0.853001 -0.339649 -0.142216 -1.135095 0.384909 0.073507 -0.489542 -0.482770 -0.140217 -0.213443 0.426933 -0.154790 -0.024424 -0.374716 -0.107062 -0.110965 0.305386 0.998416 0.425643 -0.174213 0.083349 0.335810 0.193225 0.162236 -0.261209 -0.341685 -0.758458 -1.123560 0.187223
BedroomDoor -0.434353 -0.010022 -0.202665 -0.260975 0.180587 -0.379719 -0.145268 0.266154 0.539916 -1.007024 -0.284665 -0.244269 0.938566 0.418030 0.054417 0.257282 -0.414346 0.144495 -0.265028 -0.115738 -0.269986 0.516953 -0.467785 0.459395 -0.734327 0.351374 -0.047888 -0.206043 -0.081678 0.294034 -0.785041 0.061414 -0.210284 -0.611760 -0.600600 -0.673911 -0.382416 -0.059947 0.659078 -0.534963 0.118901 0.332277 0.068785 -0.587099 -0.063134 0.222891 0.158015 0.024621 -0.493955 0.379029
KitchenPIR -0.205930 -0.375995 -0.025873 -0.121722 -0.624948 -0.084877 -0.087347 0.417300 0.068157 0.279696 -0.207210 0.109483 0.312573 0.034727 0.120669 0.073056 0.033517 0.054107 0.089340 -0.119965 -0.438054 -0.270313 -0.176540 0.242928 -0.555341 0.025038 0.389572 -0.007350 -0.316554 -0.215177 -0.107200 -0.288904 -0.098835 -0.176396 -0.220106 -0.139471 -0.240474 0.095864 -0.089433 0.408454 0.056776 -0.215725 0.548669 -0.470169 -0.159622 -0.417982 0.018690 -0.375181 -0.566652 -0.170382
BedLeft -0.441209 -0.010295 -0.229086 -0.252616 0.186563 -0.395325 -0.142311 0.258807 0.534091 -1.001933 -0.282733 -0.280207 0.938434 0.401165 0.058622 0.247737 -0.441488 0.150570 -0.255663 -0.076545 -0.262627 0.497182 -0.462001 0.482762 -0.706737 0.342597 -0.050540 -0.190813 -0.068521 0.319042 -0.777715 0.052324 -0.198800 -0.618723 -0.592527 -0.668218 -0.377729 -0.076728 0.630269 -0.549695 0.115668 0.339005 0.057139 -0.593243 -0.065914 0.235138 0.178678 0.059482 -0.457195 0.381745
Fridge -0.189691 -0.364903 -0.039468 -0.105174 -0.629590 -0.089216 -0.080334 0.395372 0.062899 0.297755 -0.185717 0.082931 0.308245 0.026429 0.107806 0.073397 0.047536 0.049825 0.115971 -0.091469 -0.454302 -0.304032 -0.172386 0.240669 -0.521741 0.023918 0.399217 0.005252 -0.304524 -0.224492 -0.097774 -0.293437 -0.086881 -0.170877 -0.224753 -0.139954 -0.231381 0.083347 -0.129754 0.390411 0.052727 -0.216630 0.552956 -0.485993 -0.170872 -0.410872 0.016883 -0.363097 -0.555054 -0.178027
BedRight -0.434172 -0.020458 -0.222515 -0.251479 0.196795 -0.380737 -0.149978 0.248029 0.520090 -1.002932 -0.267804 -0.247192 0.929974 0.395605 0.065980 0.262253 -0.423267 0.153305 -0.261277 -0.078065 -0.253573 0.490145 -0.453961 0.480382 -0.718057 0.335475 -0.035231 -0.178511 -0.074046 0.312237 -0.781187 0.061751 -0.201685 -0.607258 -0.591309 -0.660329 -0.374855 -0.071981 0.641708 -0.544811 0.126850 0.341122 0.059726 -0.577501 -0.056594 0.225970 0.175542 0.039786 -0.472311 0.379597
Couch -0.206248 -0.366676 -0.039789 -0.098309 -0.629553 -0.087081 -0.077683 0.394836 0.057195 0.309712 -0.192841 0.062912 0.300916 0.026719 0.112337 0.073803 0.039148 0.057279 0.111153 -0.100440 -0.452840 -0.306600 -0.177162 0.250706 -0.525191 0.025091 0.395471 0.012083 -0.295988 -0.219312 -0.102495 -0.295737 -0.097471 -0.173960 -0.210308 -0.129650 -0.227037 0.082127 -0.125632 0.385099 0.061540 -0.226113 0.544640 -0.488306 -0.175601 -0.403559 0.025926 -0.343886 -0.550958 -0.163479
BathroomPIR -0.365163 -0.022416 0.547384 -0.252682 0.406494 0.022087 -0.600758 0.300791 0.311386 -0.471267 -0.399226 0.901898 0.210945 0.456365 0.179268 0.051186 0.171482 0.111160 -0.505707 -1.096081 0.140355 0.886663 -0.298608 -0.194372 -1.082096 0.367754 0.051403 -0.500528 -0.472786 -0.157328 -0.149041 0.462874 -0.137911 0.033591 -0.322168 -0.051791 -0.079651 0.299000 1.030424 0.443392 -0.199722 0.087313 0.293933 0.277743 0.179114 -0.235614 -0.374013 -0.767340 -1.081553 0.199468
Dresser -0.470293 -0.022148 -0.215284 -0.265419 0.194889 -0.411276 -0.157897 0.273881 0.564452 -1.038516 -0.300266 -0.248896 0.977327 0.405526 0.064932 0.277025 -0.455398 0.158528 -0.275395 -0.087148 -0.282250 0.509351 -0.468185 0.502526 -0.762450 0.361647 -0.034172 -0.192550 -0.092371 0.321195 -0.821495 0.051841 -0.207212 -0.650267 -0.617283 -0.712218 -0.400487 -0.059410 0.683041 -0.557782 0.125812 0.357991 0.080960 -0.609542 -0.072515 0.244122 0.192883 0.036614 -0.515900 0.392467
StoveLid -0.193653 -0.356302 -0.027435 -0.093631 -0.624256 -0.086293 -0.082865 0.409404 0.064555 0.313419 -0.203383 0.098112 0.286217 0.035090 0.104060 0.064441 0.051711 0.056846 0.108764 -0.110945 -0.451940 -0.286198 -0.178167 0.230561 -0.532500 0.024554 0.393608 -0.006260 -0.310805 -0.231809 -0.103625 -0.294569 -0.097915 -0.165544 -0.224590 -0.139855 -0.224087 0.099697 -0.118963 0.411116 0.047923 -0.220941 0.541997 -0.484599 -0.174168 -0.416095 0.008407 -0.368979 -0.563207 -0.185899
CutlaryDrawer -0.210620 -0.376162 -0.031091 -0.106451 -0.659228 -0.101371 -0.063019 0.416072 0.060562 0.319599 -0.205738 0.076905 0.310527 0.027925 0.098938 0.077610 0.032753 0.061238 0.128477 -0.095934 -0.461208 -0.316430 -0.170793 0.248211 -0.547010 0.017641 0.401954 0.009270 -0.296460 -0.221070 -0.101831 -0.304152 -0.093758 -0.192533 -0.231261 -0.141718 -0.241677 0.093456 -0.136550 0.415045 0.053625 -0.235970 0.568731 -0.516113 -0.181748 -0.424390 0.031281 -0.374644 -0.576712 -0.183925
Sink -0.196411 -0.349767 -0.033228 -0.098662 -0.622205 -0.106548 -0.071781 0.401452 0.079791 0.277326 -0.199535 0.073517 0.323164 0.042590 0.103003 0.082025 0.034450 0.051042 0.105327 -0.105354 -0.450231 -0.287804 -0.187013 0.252259 -0.526198 0.035331 0.390506 -0.001358 -0.298368 -0.205413 -0.105480 -0.298410 -0.103916 -0.191114 -0.214728 -0.142353 -0.228943 0.082441 -0.107932 0.369727 0.056269 -0.218793 0.528004 -0.479472 -0.163566 -0.399048 0.030245 -0.343713 -0.555920 -0.167104
CupboardGroceries -0.203843 -0.361657 -0.023621 -0.101015 -0.633668 -0.086068 -0.070236 0.394981 0.048832 0.320043 -0.187378 0.084198 0.288748 0.031388 0.107981 0.077280 0.044797 0.047782 0.105616 -0.102301 -0.441179 -0.307870 -0.163431 0.227982 -0.528125 0.010899 0.395722 0.008092 -0.309098 -0.219986 -0.095472 -0.297083 -0.084868 -0.173422 -0.209019 -0.129581 -0.229610 0.087569 -0.112854 0.413768 0.060316 -0.220370 0.555594 -0.468869 -0.177934 -0.421165 0.014572 -0.363406 -0.556283 -0.180192
Toaster -0.222545 -0.398056 -0.023603 -0.109141 -0.677494 -0.096193 -0.098041 0.426514 0.065288 0.338084 -0.220145 0.108686 0.304519 0.028626 0.117501 0.080561 0.062531 0.063814 0.118712 -0.122665 -0.467968 -0.316078 -0.193532 0.246889 -0.582843 0.016678 0.424838 0.004790 -0.328999 -0.238687 -0.098623 -0.316244 -0.104795 -0.180555 -0.229350 -0.132455 -0.228203 0.096670 -0.128365 0.439648 0.059223 -0.246421 0.590157 -0.501215 -0.184392 -0.439223 0.013508 -0.390134 -0.593098 -0.195637
ToiletFlush -0.387862 -0.052198 0.524383 -0.260994 0.353758 -0.010233 -0.598095 0.321849 0.338354 -0.490298 -0.430000 0.867805 0.272487 0.469897 0.200245 0.056538 0.132304 0.129974 -0.501552 -1.059466 0.100645 0.861658 -0.334788 -0.152378 -1.119981 0.367535 0.077762 -0.489454 -0.496595 -0.147618 -0.184297 0.437476 -0.150626 -0.006938 -0.359478 -0.109053 -0.105477 0.296288 1.012265 0.423650 -0.163112 0.089727 0.329300 0.211847 0.168517 -0.269277 -0.356182 -0.747938 -1.111363 0.186405
CupboardPlates -0.185993 -0.358765 -0.036771 -0.104846 -0.614357 -0.085341 -0.073945 0.396630 0.055755 0.313109 -0.194996 0.088048 0.287200 0.022971 0.104659 0.062215 0.052410 0.053971 0.107929 -0.093912 -0.435742 -0.280918 -0.175733 0.230304 -0.507272 0.017457 0.381814 -0.002268 -0.282916 -0.216632 -0.087154 -0.284771 -0.090632 -0.160162 -0.217468 -0.126269 -0.220864 0.092624 -0.119995 0.398510 0.041782 -0.215601 0.529727 -0.465665 -0.174728 -0.394380 0.021166 -0.337693 -0.531887 -0.175225
BedroomPIR -0.457778 -0.031363 -0.205312 -0.270748 0.186944 -0.398382 -0.151905 0.272442 0.544758 -1.013192 -0.296705 -0.246567 0.959821 0.420641 0.064045 0.252175 -0.442276 0.153461 -0.264872 -0.097714 -0.280518 0.504642 -0.475569 0.482738 -0.761739 0.351600 -0.029578 -0.204584 -0.094968 0.314370 -0.795111 0.055008 -0.215987 -0.620137 -0.602847 -0.686609 -0.391185 -0.064661 0.666903 -0.538398 0.110819 0.336118 0.082015 -0.608504 -0.065277 0.230862 0.181723 0.033836 -0.496141 0.381866
Bridge -0.208403 -0.362448 -0.028901 -0.115575 -0.631774 -0.101673 -0.080877 0.399149 0.070006 0.299052 -0.202977 0.086474 0.316821 0.040429 0.102873 0.084895 0.036452 0.047702 0.120274 -0.095152 -0.463103 -0.295200 -0.179948 0.252351 -0.551268 0.022574 0.400784 0.008410 -0.306458 -0.215369 -0.098756 -0.305533 -0.104533 -0.193748 -0.224956 -0.140500 -0.245321 0.085083 -0.115003 0.399709 0.055380 -0.230212 0.559843 -0.498644 -0.176038 -0.411850 0.015981 -0.367600 -0.561449 -0.174822
Window -0.196940 -0.330184 -0.030884 -0.099680 -0.566570 -0.092893 -0.076846 0.376180 0.058117 0.262305 -0.191779 0.072076 0.278338 0.044692 0.092259 0.067798 0.033976 0.053812 0.102847 -0.107170 -0.420355 -0.259797 -0.169604 0.217022 -0.509237 0.027705 0.363015 -0.008599 -0.278211 -0.203102 -0.100506 -0.271802 -0.084909 -0.160474 -0.195651 -0.125374 -0.211512 0.073810 -0.098135 0.354755 0.041956 -0.204006 0.502745 -0.443202 -0.157942 -0.370042 0.023812 -0.324111 -0.507882 -0.156569
