19 50
KitchenPIR -0.049782 -0.193313 0.092070 -0.223307 0.014321 -0.008535 -0.132991 0.218712 -0.025409 -0.113555 -0.145055 0.429602 0.014040 0.211019 0.099474 -0.169246 0.078942 0.028749 -0.133384 -0.209012 0.056987 0.236019 -0.105530 -0.152740 -0.358688 -0.096658 0.119779 -0.256680 -0.239867 -0.015022 0.085775 0.124899 -0.061536 0.162209 -0.084596 0.009479 -0.072408 0.090464 0.309532 0.344871 -0.185504 0.026309 0.210628 -0.003175 0.063468 -0.237169 -0.033415 -0.268977 -0.345585 -0.164383
BedroomPIR -0.064040 -0.192304 0.108030 -0.226095 0.025357 -0.027211 -0.135455 0.212319 -0.018992 -0.111876 -0.144558 0.423379 0.019574 0.228290 0.089236 -0.169814 0.080229 0.032094 -0.121377 -0.208834 0.041388 0.221848 -0.115136 -0.156380 -0.377753 -0.088742 0.132329 -0.257346 -0.238861 -0.011491 0.087271 0.125874 -0.068202 0.159618 -0.083370 0.008824 -0.066376 0.085450 0.304887 0.336337 -0.196154 0.017286 0.219133 -0.017666 0.057301 -0.226446 -0.028700 -0.262318 -0.352087 -0.161864
BedLeft -0.061727 -0.172822 0.082972 -0.202251 0.015466 -0.024870 -0.137687 0.204967 -0.018606 -0.098615 -0.142150 0.381680 0.018932 0.210156 0.087537 -0.160914 0.078145 0.038398 -0.114022 -0.208090 0.045458 0.220287 -0.116120 -0.138265 -0.350832 -0.082739 0.115815 -0.241633 -0.219093 -0.015528 0.086167 0.121251 -0.054315 0.144277 -0.091455 0.015092 -0.058654 0.075024 0.274359 0.320395 -0.180699 0.016383 0.203163 -0.016930 0.051271 -0.223014 -0.038369 -0.247242 -0.338544 -0.148447
BedRight -0.048480 -0.175794 0.089030 -0.201932 0.022862 -0.014994 -0.132973 0.192949 -0.025234 -0.112581 -0.128135 0.417844 0.023670 0.212790 0.092721 -0.146603 0.089777 0.035643 -0.122826 -0.203316 0.050980 0.217406 -0.108182 -0.140275 -0.358238 -0.087957 0.127206 -0.233462 -0.224796 -0.015727 0.076262 0.127476 -0.061132 0.148814 -0.089379 0.011736 -0.061540 0.079851 0.286175 0.307449 -0.164866 0.023258 0.196634 -0.005051 0.060689 -0.218653 -0.035703 -0.252953 -0.335531 -0.146974
StoveLid -0.050379 -0.179356 0.097262 -0.210431 0.021083 -0.016770 -0.137754 0.218615 -0.017988 -0.102742 -0.149405 0.430984 0.010465 0.225831 0.087727 -0.171065 0.091766 0.034818 -0.124340 -0.214696 0.037455 0.234619 -0.116871 -0.158159 -0.366030 -0.090010 0.126110 -0.261268 -0.241230 -0.027650 0.077804 0.123938 -0.066039 0.163199 -0.094563 0.001988 -0.061470 0.093252 0.291976 0.333438 -0.186753 0.023561 0.201129 -0.015327 0.051135 -0.228046 -0.041998 -0.262896 -0.351907 -0.169013
Window -0.064329 -0.180343 0.097092 -0.216976 0.018876 -0.027575 -0.134532 0.209762 -0.024988 -0.108673 -0.148396 0.415393 0.013468 0.229353 0.080520 -0.157689 0.087692 0.034009 -0.115341 -0.215209 0.034972 0.225047 -0.112466 -0.160792 -0.375042 -0.089846 0.130353 -0.256125 -0.233604 -0.022091 0.081968 0.121387 -0.059375 0.156233 -0.078519 0.012427 -0.063909 0.079338 0.287929 0.323516 -0.188112 0.013708 0.214813 -0.008497 0.051995 -0.226683 -0.029840 -0.260059 -0.347619 -0.166363
Toaster -0.061184 -0.182598 0.086142 -0.199811 0.005044 -0.023060 -0.137926 0.191914 -0.014497 -0.097573 -0.142850 0.401534 0.015913 0.199587 0.089228 -0.143326 0.093223 0.036114 -0.111303 -0.194620 0.044018 0.203891 -0.116157 -0.134411 -0.351649 -0.090180 0.123265 -0.226271 -0.222408 -0.013788 0.073904 0.105797 -0.070587 0.135167 -0.089084 0.007245 -0.052523 0.077711 0.278997 0.306905 -0.164005 0.015403 0.202265 -0.015375 0.047702 -0.201961 -0.032529 -0.241583 -0.325012 -0.151272
CutlaryDrawer -0.059137 -0.181472 0.105831 -0.209979 0.009046 -0.022270 -0.123503 0.210327 -0.020490 -0.098226 -0.147024 0.421367 0.017320 0.215980 0.079722 -0.158976 0.081964 0.040191 -0.115034 -0.216867 0.047640 0.223553 -0.102283 -0.158233 -0.366953 -0.090847 0.121611 -0.250075 -0.224918 -0.020513 0.084482 0.133809 -0.055857 0.150232 -0.093100 0.009816 -0.061301 0.092075 0.280615 0.330282 -0.186309 0.016542 0.204547 -0.014945 0.053396 -0.221020 -0.030562 -0.264422 -0.352595 -0.159882
Sink -0.042200 -0.171815 0.103083 -0.196716 0.000262 -0.028480 -0.123817 0.206709 -0.007721 -0.110634 -0.138197 0.416047 0.028677 0.218346 0.085872 -0.148858 0.091184 0.026206 -0.123491 -0.219862 0.045606 0.214422 -0.114174 -0.146836 -0.350102 -0.079007 0.131341 -0.249702 -0.239221 -0.014680 0.091327 0.116356 -0.071292 0.146179 -0.074937 0.014454 -0.056088 0.084241 0.283867 0.314822 -0.177449 0.010601 0.197358 0.002288 0.069303 -0.234322 -0.029259 -0.262881 -0.357001 -0.164962
CupboardPlates -0.051989 -0.188087 0.085841 -0.219205 0.013088 -0.021452 -0.134412 0.216075 -0.022137 -0.091947 -0.150155 0.414755 0.018946 0.211770 0.090093 -0.166916 0.092987 0.037009 -0.120829 -0.201719 0.042084 0.233377 -0.120961 -0.147670 -0.355794 -0.091337 0.123640 -0.254976 -0.218913 -0.017826 0.090070 0.126909 -0.062913 0.159239 -0.096052 0.012789 -0.064199 0.089700 0.283335 0.330340 -0.188993 0.019123 0.205232 -0.019726 0.044998 -0.221678 -0.030003 -0.242786 -0.344830 -0.161786
CupboardGroceries -0.056603 -0.171982 0.101974 -0.205275 0.011422 -0.018041 -0.119450 0.197871 -0.027858 -0.097090 -0.126255 0.398713 0.016281 0.213112 0.087908 -0.146630 0.080021 0.025395 -0.130392 -0.203524 0.053463 0.212408 -0.097180 -0.157296 -0.347590 -0.094043 0.120886 -0.240569 -0.233636 -0.012377 0.079595 0.125393 -0.049664 0.147960 -0.082457 0.009922 -0.067376 0.084858 0.295222 0.332720 -0.169472 0.027265 0.210475 0.002196 0.050715 -0.233880 -0.037944 -0.253310 -0.341956 -0.156938
Fridge -0.039327 -0.180235 0.088595 -0.204942 0.016624 -0.013636 -0.139415 0.197028 -0.013995 -0.107067 -0.124699 0.411611 0.023734 0.201781 0.087354 -0.157150 0.095495 0.030224 -0.114382 -0.199071 0.038976 0.213245 -0.106176 -0.148630 -0.338011 -0.081194 0.126580 -0.241330 -0.229555 -0.027436 0.083540 0.128412 -0.052362 0.160868 -0.094351 0.005977 -0.056200 0.082665 0.268932 0.309264 -0.181246 0.025008 0.202274 -0.009150 0.055932 -0.214069 -0.040259 -0.260035 -0.337071 -0.157117
Bridge -0.056420 -0.164636 0.096696 -0.208047 0.012555 -0.026398 -0.128084 0.189758 -0.015573 -0.097631 -0.141094 0.396126 0.019021 0.213133 0.076391 -0.143478 0.081761 0.023284 -0.102593 -0.194084 0.036210 0.215631 -0.105105 -0.139647 -0.346118 -0.084371 0.116807 -0.231345 -0.216361 -0.014665 0.089921 0.111531 -0.068343 0.133415 -0.082254 0.015859 -0.066976 0.076744 0.267358 0.309090 -0.172877 0.006592 0.198104 -0.014588 0.050505 -0.211747 -0.041026 -0.247062 -0.320882 -0.151858
BedroomDoor -0.044566 -0.171443 0.093270 -0.209030 0.006658 -0.016258 -0.124399 0.202679 -0.010155 -0.111898 -0.135226 0.401212 0.027248 0.219690 0.079166 -0.148190 0.097066 0.026577 -0.116666 -0.212219 0.033950 0.225045 -0.118226 -0.152157 -0.348251 -0.080427 0.115615 -0.245114 -0.220626 -0.027001 0.073220 0.117208 -0.069216 0.142874 -0.093809 0.000456 -0.061805 0.082193 0.280036 0.299884 -0.166969 0.014090 0.192172 -0.015531 0.049803 -0.209319 -0.041836 -0.245108 -0.325778 -0.150814
Dresser -0.065412 -0.184939 0.105007 -0.215928 0.020391 -0.024303 -0.140353 0.213869 -0.015173 -0.100337 -0.152560 0.433220 0.022900 0.214873 0.091922 -0.156984 0.077502 0.035482 -0.128993 -0.212205 0.038335 0.228300 -0.107324 -0.147546 -0.375108 -0.087572 0.130740 -0.250431 -0.242776 -0.019050 0.077574 0.121670 -0.056274 0.149197 -0.086513 0.001884 -0.068712 0.094427 0.302661 0.341340 -0.186439 0.024781 0.220435 -0.007486 0.047867 -0.222270 -0.029499 -0.260161 -0.359399 -0.162001
Piano -0.041515 -0.174665 0.093446 -0.200737 0.017400 -0.015668 -0.127344 0.195389 -0.014088 -0.084789 -0.121445 0.393943 0.026041 0.195664 0.082983 -0.157982 0.080826 0.040639 -0.114423 -0.201659 0.033394 0.200826 -0.101109 -0.139704 -0.336634 -0.089086 0.118586 -0.225162 -0.215667 -0.027068 0.086151 0.114480 -0.047130 0.145387 -0.075584 0.007967 -0.048267 0.088166 0.263100 0.303774 -0.167554 0.010727 0.196681 -0.009238 0.046798 -0.202829 -0.027352 -0.233871 -0.321393 -0.151527
ToiletDoor -0.053684 -0.178008 0.110076 -0.220617 0.031287 -0.018103 -0.136483 0.211532 -0.017633 -0.113852 -0.139468 0.432595 0.015220 0.221705 0.089288 -0.164823 0.093475 0.035338 -0.136852 -0.226540 0.057339 0.243526 -0.111352 -0.168943 -0.369690 -0.081512 0.115201 -0.260941 -0.231317 -0.016125 0.081782 0.140651 -0.058532 0.165190 -0.091836 0.015042 -0.059917 0.093995 0.302824 0.338941 -0.191733 0.024847 0.207773 0.006384 0.062523 -0.227391 -0.041630 -0.266047 -0.353508 -0.157230
BathroomPIR -0.052242 -0.172883 0.090526 -0.203959 0.030084 -0.004865 -0.136356 0.201187 -0.030543 -0.091381 -0.130647 0.408994 0.002641 0.206870 0.082278 -0.159270 0.090839 0.023772 -0.114764 -0.215579 0.042119 0.222667 -0.101133 -0.146869 -0.344451 -0.088182 0.119863 -0.244723 -0.220573 -0.029903 0.087805 0.117905 -0.055439 0.156303 -0.075102 0.020050 -0.059710 0.079356 0.295258 0.323874 -0.186914 0.018932 0.194501 -0.004965 0.044729 -0.199866 -0.037957 -0.251869 -0.321720 -0.143256
ToiletFlush -0.058894 -0.182562 0.102190 -0.211296 0.040183 -0.010977 -0.151323 0.198955 -0.028560 -0.105240 -0.150966 0.423801 0.000567 0.223401 0.100751 -0.175063 0.077951 0.035119 -0.128830 -0.215843 0.058200 0.240512 -0.118867 -0.159293 -0.365399 -0.097495 0.126900 -0.254923 -0.240991 -0.023972 0.096652 0.134671 -0.056073 0.167542 -0.085932 0.004468 -0.057848 0.081734 0.311160 0.329296 -0.177241 0.028419 0.206771 0.004152 0.056456 -0.229040 -0.045607 -0.244344 -0.340850 -0.157022
