21 50
Piano 0.117063 -0.269644 0.072752 -0.230082 -0.114488 0.041674 -0.150565 0.339769 0.073281 -0.093755 0.016913 0.454178 0.128773 0.038156 0.066385 -0.205171 0.079501 0.066088 -0.028441 -0.244471 0.023546 0.132889 -0.047532 -0.059297 -0.252575 -0.008533 0.104913 -0.233634 -0.149607 -0.197232 0.144880 0.038855 0.060176 0.099799 -0.169247 0.007294 -0.016514 0.077211 0.069332 0.274579 -0.157216 -0.043237 0.197912 -0.048775 0.104534 -0.184242 -0.042459 -0.374284 -0.256965 -0.127577
KitchenPIR 0.115213 -0.274166 0.058431 -0.237163 -0.118764 0.053281 -0.143870 0.342195 0.065673 -0.116729 0.006858 0.456199 0.116965 0.032319 0.074790 -0.201519 0.071355 0.052788 -0.037492 -0.228303 0.043100 0.153044 -0.041854 -0.059248 -0.240264 -0.010779 0.093020 -0.244587 -0.153117 -0.186091 0.134388 0.038625 0.052931 0.102941 -0.177836 0.003825 -0.036342 0.071390 0.081195 0.283832 -0.153805 -0.027712 0.187990 -0.045299 0.113053 -0.188322 -0.045178 -0.379330 -0.238939 -0.125117
BedroomPIR 0.106349 -0.270574 0.072123 -0.233363 -0.112569 0.039979 -0.141615 0.336763 0.070932 -0.106916 0.006264 0.446466 0.118637 0.044724 0.064132 -0.207863 0.072764 0.055836 -0.021933 -0.231527 0.025753 0.136532 -0.050751 -0.065537 -0.254263 -0.003624 0.103481 -0.243629 -0.149687 -0.185572 0.138506 0.037897 0.047384 0.104133 -0.173589 0.003299 -0.028295 0.069941 0.075556 0.274322 -0.167913 -0.039643 0.195757 -0.060381 0.107046 -0.176211 -0.040873 -0.373046 -0.248349 -0.125468
CutlaryDrawer 0.101875 -0.269665 0.072363 -0.226768 -0.123654 0.038475 -0.139391 0.342158 0.065634 -0.094799 0.000010 0.449497 0.116607 0.038072 0.056031 -0.200318 0.073367 0.066882 -0.015586 -0.239449 0.032001 0.138673 -0.040550 -0.065601 -0.255851 -0.007968 0.098018 -0.237917 -0.139597 -0.191577 0.138694 0.048375 0.061095 0.095915 -0.184748 0.005722 -0.025676 0.075520 0.063464 0.284702 -0.166108 -0.038981 0.195043 -0.061829 0.103482 -0.185296 -0.041750 -0.387318 -0.261746 -0.127630
BalconyDoor 0.114927 -0.269838 0.075261 -0.224808 -0.112480 0.043854 -0.145429 0.342182 0.070547 -0.094771 0.014805 0.446065 0.115841 0.035741 0.057562 -0.192585 0.084426 0.060409 -0.017312 -0.235129 0.035951 0.137203 -0.057165 -0.064034 -0.256860 0.001885 0.107073 -0.233647 -0.138166 -0.190862 0.141071 0.037213 0.057422 0.089272 -0.190864 -0.000051 -0.022994 0.064844 0.073080 0.273551 -0.160925 -0.041171 0.185053 -0.051376 0.112348 -0.187631 -0.054267 -0.388500 -0.248235 -0.120492
ToiletDoor 0.110720 -0.264708 0.072815 -0.230872 -0.111328 0.041083 -0.151906 0.339380 0.074976 -0.116627 0.007780 0.464119 0.122469 0.040289 0.069486 -0.197291 0.088439 0.063309 -0.038070 -0.246753 0.042331 0.152319 -0.051984 -0.067489 -0.254348 0.002856 0.092228 -0.239818 -0.145172 -0.183419 0.128291 0.049856 0.050889 0.102063 -0.185893 0.009379 -0.021454 0.076797 0.077817 0.272519 -0.155390 -0.031574 0.188409 -0.038520 0.116081 -0.188396 -0.051824 -0.388006 -0.261341 -0.122841
Chair 0.105444 -0.287879 0.068680 -0.241277 -0.116008 0.036357 -0.160618 0.363631 0.065930 -0.102572 0.000524 0.472654 0.120833 0.036238 0.058164 -0.209399 0.086979 0.064640 -0.032917 -0.250719 0.037095 0.155539 -0.047985 -0.058793 -0.259962 -0.002959 0.095770 -0.254880 -0.143772 -0.196533 0.145903 0.052868 0.067017 0.104159 -0.188508 0.007311 -0.020039 0.066309 0.067109 0.287878 -0.155923 -0.026202 0.207146 -0.060894 0.107636 -0.199697 -0.040278 -0.391819 -0.251334 -0.119257
BathroomPIR 0.110291 -0.265752 0.068214 -0.227801 -0.112612 0.048539 -0.148339 0.342210 0.061980 -0.092892 0.013737 0.450573 0.111163 0.041180 0.058217 -0.198313 0.084916 0.052115 -0.018044 -0.242792 0.027323 0.139550 -0.044662 -0.060969 -0.247567 -0.004558 0.104148 -0.241176 -0.140360 -0.196812 0.141171 0.036825 0.054111 0.098640 -0.171499 0.015139 -0.027144 0.065892 0.079669 0.280190 -0.168885 -0.039124 0.187680 -0.053732 0.096852 -0.170525 -0.048676 -0.380453 -0.244069 -0.114887
BedroomDoor 0.118076 -0.265129 0.065584 -0.235106 -0.123862 0.047245 -0.144288 0.345854 0.075099 -0.116415 0.008595 0.453350 0.127301 0.050531 0.060912 -0.198462 0.089516 0.055720 -0.027751 -0.246654 0.027368 0.156502 -0.057804 -0.068777 -0.251510 -0.000179 0.093391 -0.249006 -0.144074 -0.201049 0.130148 0.043279 0.049027 0.096959 -0.192867 -0.002651 -0.030515 0.070850 0.076362 0.269132 -0.152211 -0.034842 0.189416 -0.058120 0.104191 -0.186343 -0.057699 -0.380000 -0.248582 -0.122644
ToiletFlush 0.109045 -0.265351 0.069233 -0.222789 -0.104709 0.048260 -0.153771 0.325774 0.063452 -0.104706 0.000089 0.450162 0.107564 0.045029 0.070657 -0.203996 0.072169 0.059819 -0.026223 -0.231977 0.038681 0.148218 -0.051932 -0.066374 -0.247762 -0.013239 0.102395 -0.236991 -0.153795 -0.191768 0.143648 0.048612 0.054925 0.104756 -0.177004 -0.002743 -0.022821 0.066743 0.077330 0.265719 -0.148886 -0.028807 0.186239 -0.045912 0.105744 -0.184221 -0.053947 -0.363810 -0.245101 -0.124713
Fridge 0.121723 -0.272065 0.057913 -0.233450 -0.119377 0.050647 -0.154189 0.331757 0.072965 -0.116069 0.013850 0.451177 0.123319 0.031477 0.069872 -0.195485 0.088038 0.051617 -0.026194 -0.221293 0.029535 0.143481 -0.046144 -0.065490 -0.231880 -0.002011 0.099892 -0.235905 -0.151690 -0.191004 0.131157 0.047352 0.058683 0.107233 -0.184600 -0.002986 -0.029311 0.067255 0.062431 0.265049 -0.156117 -0.023913 0.191790 -0.047149 0.107167 -0.182811 -0.055349 -0.381034 -0.249760 -0.128657
StoveLid 0.112945 -0.264882 0.062936 -0.221821 -0.118859 0.043751 -0.149502 0.349874 0.073238 -0.098228 -0.002773 0.451999 0.111949 0.040790 0.062173 -0.205419 0.081791 0.061941 -0.025872 -0.234750 0.022308 0.148429 -0.053465 -0.062836 -0.252904 -0.003744 0.099457 -0.249289 -0.155241 -0.200677 0.127682 0.037547 0.050889 0.102977 -0.190880 -0.005952 -0.025277 0.078798 0.068274 0.283252 -0.160762 -0.029484 0.186365 -0.062194 0.097411 -0.181998 -0.051450 -0.372055 -0.251607 -0.132175
Dresser 0.097161 -0.265990 0.069982 -0.220985 -0.114880 0.035696 -0.150941 0.334598 0.074369 -0.098743 -0.003154 0.450887 0.122299 0.030641 0.068255 -0.187182 0.067926 0.061892 -0.031238 -0.228591 0.027757 0.137129 -0.045397 -0.049452 -0.255057 -0.002085 0.104082 -0.230993 -0.153739 -0.184731 0.125240 0.034296 0.055028 0.086016 -0.176064 -0.004397 -0.026930 0.073829 0.075181 0.266160 -0.145547 -0.027868 0.190191 -0.047802 0.096643 -0.171437 -0.037027 -0.358746 -0.248043 -0.118596
Sink 0.110619 -0.255775 0.073091 -0.211268 -0.122738 0.031269 -0.143635 0.334968 0.078445 -0.102504 -0.000798 0.448384 0.122121 0.044912 0.063443 -0.192562 0.079430 0.056603 -0.025722 -0.243200 0.032514 0.140166 -0.057925 -0.054768 -0.246975 0.003562 0.107255 -0.242736 -0.152486 -0.188523 0.144417 0.033687 0.044816 0.090239 -0.175899 0.006133 -0.019859 0.068240 0.071216 0.266778 -0.153214 -0.040571 0.179978 -0.046168 0.111060 -0.185664 -0.042845 -0.366732 -0.257902 -0.125984
Window 0.103658 -0.268377 0.062697 -0.230430 -0.114139 0.038361 -0.154838 0.345353 0.062872 -0.109561 0.000976 0.452248 0.112437 0.051432 0.063617 -0.204300 0.080069 0.061181 -0.021124 -0.243410 0.024498 0.142989 -0.052992 -0.067197 -0.261932 -0.006051 0.107672 -0.247838 -0.152833 -0.197213 0.136839 0.036238 0.056054 0.105227 -0.171841 0.008991 -0.025329 0.062338 0.073352 0.272958 -0.163338 -0.038503 0.199371 -0.049451 0.103511 -0.183967 -0.044042 -0.375708 -0.246885 -0.127995
Frontdoor 0.117280 -0.257371 0.067088 -0.221348 -0.121497 0.044421 -0.140056 0.344224 0.060927 -0.102755 0.008520 0.452155 0.114743 0.038848 0.070686 -0.207265 0.079080 0.051369 -0.027813 -0.241850 0.031552 0.137476 -0.048724 -0.055760 -0.253880 0.004524 0.094398 -0.246647 -0.140942 -0.198027 0.135159 0.030808 0.045610 0.107674 -0.184263 0.013439 -0.030003 0.075098 0.064853 0.283719 -0.149104 -0.037752 0.195920 -0.052598 0.111067 -0.185853 -0.049493 -0.370047 -0.241295 -0.121357
Microwave 0.096749 -0.260017 0.070800 -0.220772 -0.114713 0.033221 -0.146714 0.329930 0.074478 -0.096940 0.003892 0.444749 0.113482 0.045573 0.066101 -0.197448 0.066197 0.062238 -0.018504 -0.222011 0.034438 0.140427 -0.053715 -0.057684 -0.249600 -0.003118 0.108870 -0.247133 -0.146754 -0.195512 0.138551 0.032819 0.052260 0.089262 -0.195040 0.003622 -0.028454 0.065489 0.076367 0.276103 -0.164937 -0.033215 0.192309 -0.062424 0.093232 -0.172061 -0.049702 -0.375611 -0.252346 -0.123935
BedLeft 0.095699 -0.262179 0.057784 -0.221897 -0.115394 0.033508 -0.157497 0.336646 0.071390 -0.101526 -0.003124 0.428859 0.120251 0.041988 0.068921 -0.200649 0.073609 0.064182 -0.027001 -0.239090 0.037998 0.148608 -0.061249 -0.052196 -0.251273 -0.002262 0.095386 -0.236564 -0.142948 -0.179850 0.139626 0.041757 0.057000 0.089855 -0.188903 0.007373 -0.022714 0.059939 0.068066 0.272435 -0.154809 -0.034144 0.194124 -0.058079 0.104495 -0.192211 -0.053161 -0.374989 -0.254667 -0.117535
BedRight 0.106725 -0.268758 0.057855 -0.222435 -0.105243 0.045142 -0.154812 0.325640 0.059256 -0.109064 0.014791 0.449403 0.121195 0.037757 0.073235 -0.188691 0.081360 0.065055 -0.029568 -0.231293 0.039200 0.138704 -0.050380 -0.049637 -0.257491 -0.010111 0.108001 -0.226715 -0.146054 -0.185413 0.132538 0.047498 0.052925 0.098722 -0.181185 0.008120 -0.024190 0.063189 0.075602 0.262060 -0.144848 -0.028900 0.188067 -0.050245 0.110000 -0.185210 -0.045819 -0.371830 -0.254904 -0.116328
CupboardPlates 0.111435 -0.274553 0.057490 -0.233284 -0.118589 0.042966 -0.146423 0.344604 0.066433 -0.091735 -0.000965 0.447564 0.117829 0.034500 0.066127 -0.204400 0.084085 0.063306 -0.025909 -0.227469 0.031180 0.150879 -0.057664 -0.059503 -0.243210 -0.007709 0.099240 -0.243477 -0.134047 -0.188804 0.140066 0.043973 0.053934 0.102375 -0.188895 0.004963 -0.027508 0.074136 0.071942 0.282286 -0.167601 -0.033272 0.192431 -0.061747 0.096622 -0.180470 -0.042256 -0.366211 -0.249783 -0.124817
Toaster 0.100955 -0.276752 0.063584 -0.226511 -0.124232 0.040453 -0.158600 0.332693 0.071337 -0.104469 -0.001111 0.456459 0.112951 0.035699 0.072320 -0.194577 0.087464 0.065305 -0.023344 -0.233656 0.038078 0.138191 -0.061566 -0.058759 -0.266183 -0.012683 0.106550 -0.237728 -0.153552 -0.192421 0.134344 0.031918 0.043547 0.095292 -0.192923 0.001845 -0.018506 0.067090 0.077587 0.274881 -0.148746 -0.037356 0.202610 -0.056104 0.105049 -0.179017 -0.050311 -0.378767 -0.250405 -0.127945
