19 50
KitchenPIR -0.098222 -0.300784 -0.068819 -0.101465 -0.335533 -0.062402 -0.127569 0.139082 0.021034 -0.048991 -0.168462 0.355336 0.086525 0.058783 0.094378 0.115741 0.202463 0.054265 0.001053 0.042462 -0.043277 -0.042709 -0.129865 0.007615 -0.319746 -0.186536 0.241653 -0.040487 -0.286119 -0.018841 -0.129934 -0.053622 -0.150003 -0.055793 -0.259028 -0.150961 -0.066581 0.043901 0.120480 0.217120 0.043002 0.058293 0.282053 -0.192603 -0.041904 -0.228028 -0.017861 -0.329142 -0.433155 -0.272931
BedroomPIR -0.104363 -0.298887 -0.064233 -0.104650 -0.329645 -0.075272 -0.132958 0.132167 0.029399 -0.047279 -0.165765 0.342993 0.094294 0.070717 0.086339 0.109401 0.211925 0.056805 0.017027 0.046921 -0.062390 -0.055746 -0.148431 0.003301 -0.338438 -0.184336 0.257763 -0.044761 -0.289552 -0.020705 -0.128341 -0.052563 -0.157710 -0.053003 -0.272898 -0.155938 -0.061392 0.037778 0.112502 0.210014 0.028898 0.051963 0.296924 -0.218219 -0.052099 -0.214860 -0.017940 -0.322975 -0.431424 -0.267371
BedLeft -0.113145 -0.310107 -0.078614 -0.100732 -0.364029 -0.080447 -0.154088 0.152827 0.028438 -0.046752 -0.185869 0.371926 0.102068 0.079873 0.098192 0.122772 0.231643 0.065142 0.007349 0.024873 -0.053478 -0.040656 -0.160934 0.007600 -0.357913 -0.193882 0.266984 -0.051592 -0.307479 -0.027585 -0.131689 -0.050340 -0.157704 -0.063935 -0.297810 -0.157640 -0.063275 0.039341 0.124347 0.240474 0.036296 0.058111 0.315982 -0.218881 -0.054283 -0.254814 -0.033768 -0.358251 -0.487736 -0.289684
BedRight -0.093093 -0.273569 -0.066816 -0.087427 -0.303562 -0.065513 -0.128714 0.116939 0.018455 -0.048174 -0.146747 0.333406 0.092034 0.062241 0.084133 0.122526 0.207625 0.062418 0.012040 0.039591 -0.048118 -0.052544 -0.135055 0.014465 -0.320535 -0.173692 0.242933 -0.025663 -0.262126 -0.020408 -0.128821 -0.042808 -0.143388 -0.055620 -0.257103 -0.137715 -0.054176 0.034227 0.106938 0.192976 0.045434 0.053446 0.277829 -0.200059 -0.041284 -0.215157 -0.020989 -0.319397 -0.432624 -0.256105
StoveLid -0.087734 -0.264546 -0.068167 -0.077622 -0.317912 -0.066589 -0.124074 0.134603 0.032540 -0.036008 -0.158348 0.319758 0.081784 0.064753 0.076459 0.104249 0.204478 0.058022 0.010264 0.034034 -0.063837 -0.044823 -0.135589 0.000302 -0.294702 -0.162779 0.225602 -0.044770 -0.266840 -0.033432 -0.132467 -0.051152 -0.138738 -0.048750 -0.258580 -0.151546 -0.049584 0.045462 0.095124 0.199217 0.031580 0.054829 0.258626 -0.194035 -0.052194 -0.207697 -0.028396 -0.303686 -0.405028 -0.256391
Fridge -0.085358 -0.276871 -0.068612 -0.091977 -0.318203 -0.062015 -0.130297 0.120269 0.025952 -0.045145 -0.143491 0.321394 0.089192 0.057252 0.082636 0.108738 0.204132 0.046261 0.010689 0.041935 -0.053251 -0.046710 -0.126101 -0.000791 -0.285405 -0.164626 0.230740 -0.039341 -0.265344 -0.029524 -0.115107 -0.040053 -0.126890 -0.044117 -0.252791 -0.143354 -0.056015 0.034052 0.094463 0.192740 0.030986 0.057129 0.266754 -0.178938 -0.046311 -0.204508 -0.029030 -0.303469 -0.397130 -0.247700
Window -0.103309 -0.273782 -0.069850 -0.088976 -0.318327 -0.075527 -0.127929 0.127200 0.019402 -0.041323 -0.160677 0.315145 0.079798 0.071228 0.073209 0.112213 0.201000 0.058030 0.020592 0.037264 -0.065540 -0.053999 -0.134398 -0.002209 -0.313938 -0.172833 0.240294 -0.040677 -0.267573 -0.029058 -0.126103 -0.053797 -0.133844 -0.049613 -0.242803 -0.141415 -0.053372 0.030239 0.096265 0.191927 0.031279 0.047658 0.282162 -0.195338 -0.054057 -0.209282 -0.015494 -0.306126 -0.409144 -0.262275
CupboardPlates -0.090108 -0.284182 -0.075896 -0.095613 -0.322474 -0.067956 -0.126140 0.134796 0.023045 -0.030931 -0.164438 0.331551 0.089320 0.058828 0.084030 0.106769 0.211174 0.060213 0.010362 0.044263 -0.057054 -0.040086 -0.144261 0.006740 -0.306116 -0.176904 0.237674 -0.042599 -0.258965 -0.025276 -0.121015 -0.047012 -0.140204 -0.047005 -0.256508 -0.139319 -0.055123 0.043178 0.099195 0.202988 0.028786 0.051871 0.275570 -0.202315 -0.056519 -0.208253 -0.016323 -0.296757 -0.416734 -0.260575
Toaster -0.100822 -0.275705 -0.063957 -0.084303 -0.316189 -0.070054 -0.129588 0.112927 0.028309 -0.034134 -0.159166 0.316378 0.079473 0.053657 0.081474 0.117092 0.208145 0.059767 0.015453 0.039764 -0.049127 -0.055940 -0.142147 0.007916 -0.310715 -0.175793 0.234337 -0.028002 -0.262095 -0.020430 -0.123734 -0.056993 -0.147537 -0.061133 -0.249680 -0.140605 -0.042493 0.033953 0.099895 0.184778 0.044845 0.045209 0.268902 -0.189414 -0.050611 -0.191559 -0.020262 -0.291103 -0.396811 -0.248402
CutlaryDrawer -0.107279 -0.288327 -0.061239 -0.089595 -0.340262 -0.074342 -0.121267 0.133637 0.024313 -0.033272 -0.169865 0.334622 0.086016 0.063356 0.078036 0.116538 0.205948 0.064401 0.018762 0.035703 -0.049508 -0.053408 -0.132472 0.000299 -0.320169 -0.180465 0.238121 -0.038759 -0.268144 -0.022865 -0.126914 -0.043374 -0.142653 -0.061544 -0.270143 -0.147097 -0.055270 0.043953 0.101656 0.215010 0.033073 0.051256 0.281796 -0.205230 -0.052388 -0.216187 -0.019359 -0.322518 -0.429266 -0.260732
CupboardGroceries -0.100691 -0.278371 -0.061974 -0.089029 -0.327146 -0.068547 -0.118986 0.122351 0.018825 -0.036073 -0.148727 0.328359 0.091392 0.067881 0.087695 0.122679 0.209096 0.051971 0.000249 0.040570 -0.048916 -0.059154 -0.132510 -0.000520 -0.313160 -0.183460 0.243115 -0.033870 -0.280806 -0.018911 -0.130399 -0.049558 -0.135188 -0.060144 -0.259786 -0.147176 -0.059598 0.037606 0.116696 0.210355 0.046520 0.058140 0.283761 -0.188196 -0.054928 -0.226415 -0.024947 -0.315528 -0.427649 -0.260351
Bridge -0.101554 -0.268972 -0.055068 -0.097340 -0.317187 -0.076160 -0.128235 0.111845 0.028701 -0.040448 -0.160059 0.331321 0.089409 0.070876 0.074453 0.124480 0.203578 0.047131 0.024008 0.045408 -0.060045 -0.049591 -0.132291 0.007601 -0.317561 -0.173377 0.237516 -0.028594 -0.267047 -0.019417 -0.114405 -0.054723 -0.149543 -0.065565 -0.246789 -0.136233 -0.061805 0.033309 0.099590 0.196146 0.037110 0.039947 0.275766 -0.195106 -0.047470 -0.201821 -0.029323 -0.306781 -0.397671 -0.250368
Sink -0.088053 -0.265404 -0.058977 -0.076752 -0.324554 -0.076879 -0.121583 0.123692 0.032228 -0.043109 -0.156344 0.322876 0.091733 0.069661 0.077684 0.118523 0.204691 0.049898 0.012573 0.028493 -0.054394 -0.053565 -0.137751 0.008326 -0.293459 -0.159858 0.237303 -0.037478 -0.267482 -0.022714 -0.113397 -0.053695 -0.145369 -0.059722 -0.242827 -0.139279 -0.049156 0.033896 0.099592 0.185923 0.038788 0.042997 0.262752 -0.183581 -0.040088 -0.214830 -0.018871 -0.306047 -0.425785 -0.261494
Dresser -0.104793 -0.268786 -0.052364 -0.081209 -0.304660 -0.072728 -0.124702 0.122601 0.030003 -0.033558 -0.162551 0.328544 0.088154 0.055840 0.080578 0.118862 0.188750 0.058863 0.007307 0.037179 -0.057135 -0.052829 -0.125613 0.012617 -0.314031 -0.165022 0.238938 -0.032354 -0.270632 -0.021308 -0.130525 -0.051848 -0.134327 -0.062359 -0.245891 -0.147789 -0.054777 0.045013 0.112850 0.199870 0.038003 0.054962 0.277126 -0.189329 -0.052937 -0.200419 -0.011565 -0.300293 -0.416460 -0.250636
BedroomDoor -0.097732 -0.293280 -0.068908 -0.099871 -0.352195 -0.070547 -0.130030 0.138089 0.031777 -0.052036 -0.169215 0.352638 0.101479 0.079422 0.081643 0.130794 0.231583 0.055154 0.012345 0.030117 -0.064281 -0.042240 -0.152848 -0.000783 -0.338835 -0.184536 0.252484 -0.045724 -0.288136 -0.034056 -0.140758 -0.053917 -0.159116 -0.065108 -0.279839 -0.159829 -0.063851 0.041573 0.118965 0.209024 0.045188 0.051769 0.291696 -0.211751 -0.053416 -0.228923 -0.032516 -0.335520 -0.449109 -0.275410
BathroomPIR -0.097150 -0.269146 -0.056174 -0.086586 -0.301198 -0.052263 -0.130069 0.122185 0.009323 -0.032257 -0.152569 0.350896 0.071295 0.066020 0.080226 0.117502 0.210860 0.044628 0.007828 0.015722 -0.043758 -0.037334 -0.122654 0.001114 -0.317817 -0.180006 0.242347 -0.042812 -0.274907 -0.033408 -0.114875 -0.045434 -0.140487 -0.049684 -0.243162 -0.129902 -0.058527 0.037319 0.134131 0.219994 0.029829 0.052894 0.273312 -0.179897 -0.050843 -0.206614 -0.029590 -0.324804 -0.420967 -0.249096
Piano -0.090249 -0.292761 -0.061476 -0.098355 -0.331951 -0.070538 -0.131550 0.136712 0.029957 -0.031777 -0.154200 0.349085 0.101857 0.066503 0.083945 0.108858 0.213108 0.067517 0.010077 0.028355 -0.065709 -0.057054 -0.137652 0.002682 -0.326271 -0.185659 0.249437 -0.036664 -0.281035 -0.035356 -0.118904 -0.050504 -0.135975 -0.053534 -0.256685 -0.148546 -0.048677 0.048910 0.105027 0.211116 0.035893 0.044167 0.290874 -0.199884 -0.052146 -0.223523 -0.017923 -0.323015 -0.440432 -0.274040
ToiletDoor -0.098061 -0.277108 -0.047925 -0.095186 -0.308424 -0.063799 -0.130689 0.128499 0.024521 -0.049333 -0.160133 0.364322 0.083932 0.067638 0.085793 0.119810 0.218151 0.057920 -0.004080 0.017357 -0.034930 -0.031675 -0.134183 -0.007438 -0.332724 -0.173762 0.237496 -0.045907 -0.277957 -0.021479 -0.130055 -0.034451 -0.149245 -0.052042 -0.268255 -0.142255 -0.055594 0.050027 0.134008 0.224640 0.033992 0.059009 0.284481 -0.182362 -0.039943 -0.223701 -0.030347 -0.339278 -0.452257 -0.265274
ToiletFlush -0.096666 -0.277642 -0.052400 -0.085113 -0.304215 -0.058035 -0.136386 0.115750 0.014474 -0.042266 -0.166612 0.357179 0.075009 0.075179 0.096130 0.107721 0.201523 0.055192 0.000453 0.026277 -0.033404 -0.034666 -0.138576 -0.002396 -0.324479 -0.189392 0.249658 -0.042251 -0.289649 -0.027962 -0.111523 -0.037044 -0.145137 -0.049130 -0.263162 -0.152614 -0.055722 0.038984 0.136687 0.217437 0.048143 0.061206 0.284893 -0.184059 -0.043633 -0.235904 -0.035102 -0.325915 -0.449239 -0.272584
