21 50
BedRight 1.1720933 -0.18042916 0.2893575 0.80123407 -0.9347058 0.70375925 1.2596045 -0.16608337 -1.0251677 0.4310446 0.58561945 -0.6384036 0.43490535 0.60512143 -0.3222956 -0.5622822 -0.15056524 -0.20170459 1.0616229 1.1301174 0.8904177 -1.4384223 1.2536621 -1.3967664 -0.12386223 -1.3423737 0.6367299 -1.8999063 -0.20353034 -0.8361228 0.42883202 -0.10347677 1.1711533 -0.36498705 -0.40737414 -1.19078 0.1927771 0.5196621 -0.24256973 -0.3530086 0.42530495 0.0058317934 -0.39691582 0.7954419 0.44176376 0.36447453 -0.25820836 0.034464292 -0.060831103 -1.0201511
Bathtub -0.59814125 0.343563 0.00016739962 -0.34173125 0.3227611 0.3592766 0.28813675 0.84114015 0.031660173 -0.12251398 0.014572434 -0.44775903 0.48661703 -0.7864108 0.25670063 -0.7874889 0.5990471 0.37357575 -0.3522988 0.019406086 0.08962852 0.17961577 0.53733873 0.8536164 -0.45499676 -0.07501637 -0.1436216 -0.3798015 0.24558076 0.17672881 0.263998 0.33582136 -0.2986714 0.36551 -0.38641888 0.27989736 -0.033507384 0.57034683 -0.4838597 0.8650597 0.4343491 -1.0385381 -0.016292827 0.38420126 0.36327463 0.07780597 0.042709175 -0.25045916 -0.07481232 -0.39135188
Couch 0.05908148 0.20707016 -0.48986933 0.14557998 0.026736375 -0.36245537 0.22078775 0.08444328 0.017862773 -0.11666855 -0.28018352 -0.14009805 0.15388465 0.18386947 -0.15028909 0.13374852 -0.56587917 -0.1448577 0.17632587 -0.06487699 0.30777577 -0.41404963 -0.08601447 -0.14882457 -0.05027898 0.3255342 -0.33162132 0.7412393 -0.5703353 -0.24356547 -0.25904736 -0.19170907 0.0857887 -0.42060617 0.5610312 -0.2681069 -0.053637978 -0.104446724 0.063305706 0.07205226 0.29148698 0.30784622 -0.37030163 -0.55202377 -0.009545406 -0.0953441 0.119023144 0.078560874 -0.53012043 0.1871195
Fridge -0.15761122 0.2130293 -0.476636 0.07497363 0.13735141 -0.16325435 0.34553754 0.2618748 -0.13772127 -0.16877161 -0.27930242 -0.21938352 0.39066702 -0.04354844 -0.14985704 -0.123654656 -0.39480308 -0.060688037 0.22107828 -0.080256484 0.3493429 -0.46484113 0.2085321 0.114846624 -0.1588058 0.22056438 -0.36278442 0.3988401 -0.48508823 -0.16839685 -0.105359785 -0.06154275 -0.032530174 -0.28407398 0.3199004 -0.20989624 -0.09201347 0.18873087 -0.04437457 0.2603716 0.45211577 -0.058904435 -0.29645446 -0.36885414 0.11055216 -0.1852145 0.19108178 -0.029610964 -0.48900592 0.094293304
BathroomDoor -0.25781196 0.27440077 -0.31319112 -0.054645155 0.2158181 -0.00065009156 0.3055205 0.45121387 -0.03031727 -0.08148606 -0.11596693 -0.2960452 0.39898294 -0.33650032 0.009515382 -0.35740393 0.027297026 0.04210303 -0.04225574 -0.052603558 0.17713957 -0.16791809 0.30083594 0.42576158 -0.26743194 0.16664454 -0.28736585 0.20001094 -0.1685361 0.017349241 0.02384196 0.06543442 -0.12719736 0.0030866363 0.09251395 0.032244135 -0.06751947 0.28752232 -0.2130331 0.48488125 0.3694321 -0.42836007 -0.17683347 -0.09220121 0.1837119 -0.07075402 0.13656805 -0.0836573 -0.31282312 -0.12518604
Cutlery -0.19919385 0.16554296 -0.4830821 0.05696515 0.1625514 -0.14043611 0.3303263 0.2420437 -0.141502 -0.19749327 -0.31267637 -0.18222311 0.38274074 -0.023935368 -0.14005683 -0.09550191 -0.42862105 -0.032299154 0.25136778 -0.124273255 0.3493577 -0.46279135 0.2053867 0.13320947 -0.12932256 0.2485201 -0.3907203 0.41890574 -0.50101894 -0.16781664 -0.1123827 -0.086847275 -0.06111752 -0.27733997 0.31734788 -0.22521609 -0.09843001 0.18436922 0.009553796 0.27493042 0.4418963 -0.021013012 -0.29018053 -0.3861763 0.08358606 -0.21374601 0.19726793 -0.05885419 -0.46334165 0.13006699
Keys -0.06035083 0.48547828 -0.6160508 0.16660707 0.0056842584 -0.26601842 0.5240196 0.32627523 -0.36412162 -0.11184056 -0.18971378 -0.223724 0.55788016 -0.12135293 -0.26048973 -0.24256422 -0.24910353 -0.17155597 0.38982558 0.05077365 0.38050312 -0.76093227 0.23570332 0.15184048 -0.29234532 0.093310125 -0.51714826 0.24136092 -0.37669355 -0.11526446 -0.08671845 0.022950474 -0.21454239 -0.28711572 0.31748012 -0.06263072 -0.112946644 0.25994 -0.18470562 0.37815985 0.65076697 -0.34748277 -0.22716124 -0.55902815 0.27046427 -0.32671207 0.17994684 -0.19085316 -0.5083785 -0.15335175
SinkTop -0.4034419 0.3234745 -0.3464083 -0.15438427 0.3166119 0.023223538 0.30377105 0.5896455 0.0007086124 -0.14693128 -0.1691497 -0.3274532 0.47376564 -0.47402722 0.043920178 -0.43055642 0.1145754 0.12046284 -0.1274577 -0.07074166 0.18590169 -0.08883798 0.3402839 0.61590105 -0.33345172 0.1979918 -0.36609268 0.22823924 -0.1595574 0.07695206 0.0430796 0.1306822 -0.24798772 0.076670066 0.05606898 0.12724903 -0.091418594 0.33900112 -0.2802135 0.65345544 0.4616045 -0.5700928 -0.16753848 -0.10377202 0.20073792 -0.057161205 0.16913119 -0.12176718 -0.3539153 -0.14550857
Frontdoor -0.094025046 0.25438568 -0.41504356 0.08045679 0.071170814 -0.21285059 0.31608483 0.24768254 -0.08311306 -0.10315277 -0.20180357 -0.19274199 0.3201095 -0.014557477 -0.124115534 -0.09204532 -0.3632822 -0.07553487 0.15067177 -0.080271244 0.2853988 -0.385046 0.09212747 0.102779955 -0.12777494 0.21213105 -0.36242113 0.47096074 -0.40166548 -0.1356932 -0.15907924 -0.08176534 -0.033047672 -0.23504426 0.3399413 -0.18246885 -0.03744213 0.0982257 -0.02647782 0.22503589 0.3488997 0.0003566736 -0.29922733 -0.40633562 0.06580092 -0.13434201 0.15342814 0.012148263 -0.45453295 0.058318373
ToiletDoorDownstairs -0.15579674 0.31368992 -0.52113765 0.067499146 0.11795581 -0.11901436 0.4852215 0.41109762 -0.1198102 -0.1173606 -0.25702456 -0.35063237 0.48359692 -0.10012457 -0.14035262 -0.25985 -0.3584072 -0.07631659 0.20078172 -0.046262134 0.40992603 -0.48336807 0.3007456 0.21068047 -0.21776815 0.22026578 -0.4338457 0.38498965 -0.47992328 -0.20042627 -0.10726334 -0.043459777 0.00017981854 -0.24247977 0.34648022 -0.19885123 -0.066664964 0.22742125 -0.14267382 0.40368056 0.53087115 -0.19174555 -0.35721463 -0.3835273 0.12499609 -0.10660602 0.18214464 -0.012252744 -0.5824312 0.007914652
PlatesCupboard -0.14495452 0.2181103 -0.43361518 0.07860424 0.12656765 -0.12517767 0.34363094 0.2583854 -0.124993585 -0.14260532 -0.23919135 -0.21975069 0.3861955 -0.051687986 -0.11443935 -0.1513954 -0.3174829 -0.03142008 0.21274471 -0.06145254 0.33631474 -0.43271697 0.2187099 0.13242577 -0.15657912 0.17279337 -0.34789804 0.33043614 -0.43026805 -0.14513695 -0.09264937 -0.029269878 -0.02991551 -0.24577937 0.2844347 -0.18727571 -0.06904669 0.20226772 -0.0514814 0.2828969 0.4279385 -0.10329415 -0.27201158 -0.30460384 0.101471335 -0.1543248 0.17089596 -0.052300025 -0.44877356 0.050574813
BedroomDoor -0.10124613 0.18413159 -0.2804721 0.02954889 0.09888569 -0.059600636 0.2654372 0.24936402 -0.05172792 -0.068550035 -0.11424016 -0.20236915 0.28338397 -0.11926465 -0.045617037 -0.16516665 -0.14341025 -0.016161142 0.066034496 -0.026949503 0.20322385 -0.24018224 0.1854433 0.16763267 -0.14727163 0.11596183 -0.23346171 0.22346021 -0.24948347 -0.063405395 -0.04925052 -0.004871399 -0.046183046 -0.112954 0.17640214 -0.081653886 -0.039420098 0.1536446 -0.10427124 0.27413517 0.30312347 -0.17301337 -0.19491124 -0.17471173 0.116578266 -0.07538085 0.100278676 -0.0256748 -0.3161895 -0.046538536
ToiletFlushDownstairs -0.12908025 0.26020935 -0.44482937 0.06872456 0.12176058 -0.1436852 0.3545891 0.3180934 -0.063639656 -0.09913088 -0.2194919 -0.26523635 0.37077054 -0.07566043 -0.106128156 -0.18098964 -0.3016666 -0.07384094 0.1440905 -0.07145499 0.32464465 -0.36909148 0.19587947 0.17674774 -0.17241593 0.23308453 -0.3764269 0.40384555 -0.40879408 -0.13963458 -0.12546948 -0.0572489 -0.028265823 -0.21939416 0.3174815 -0.15542167 -0.06600639 0.16629942 -0.10147959 0.32000357 0.4292763 -0.13393795 -0.29366237 -0.35762873 0.10160317 -0.11694987 0.16545725 -0.011619392 -0.47062987 0.029391088
BedLeft -0.021311488 0.24485569 -0.32756972 0.12983654 0.034135953 0.07588387 0.50454533 0.350946 -0.20829947 -0.027764073 -0.064194575 -0.35190842 0.49252942 -0.13625023 -0.08029985 -0.34536633 -0.17878178 0.0058454312 0.20853876 0.121939324 0.39532468 -0.5331932 0.43349648 0.093070336 -0.23864351 -0.07474675 -0.2526764 -0.049365364 -0.3210059 -0.18866274 -0.001002663 0.01811187 0.04648607 -0.17097746 0.14643124 -0.25236365 -0.04567886 0.31761366 -0.1875236 0.3351742 0.50291437 -0.33186856 -0.25639895 -0.096673615 0.23008253 -0.082966596 0.099051945 -0.05832544 -0.41374767 -0.18222573
Dresser -0.21978825 0.32459667 -0.4209072 0.013854356 0.16694748 0.011363663 0.4689694 0.5032555 -0.13701636 -0.11615228 -0.15667851 -0.37646925 0.5409725 -0.26016706 -0.05992781 -0.391177 -0.15012956 0.057933565 0.10212547 -0.0013037175 0.3449885 -0.42530215 0.39674768 0.3418492 -0.2866367 0.08605344 -0.36711115 0.16700436 -0.3415331 -0.10555324 -0.024914792 0.046690684 -0.09862182 -0.124738045 0.18683973 -0.11363574 -0.058787666 0.34541342 -0.20682725 0.5140993 0.555288 -0.4352757 -0.26487058 -0.19748403 0.22790632 -0.12157497 0.15406637 -0.10106073 -0.47133443 -0.12920709
ToiletFlushUpstairs -0.295352 0.29309112 -0.37632006 -0.06543802 0.22516322 -0.057673078 0.29288036 0.46406558 -0.022543015 -0.1308475 -0.19240507 -0.28094333 0.4121385 -0.31421506 -0.010010934 -0.31897506 -0.053641733 0.04203237 -0.025742365 -0.09480701 0.2049478 -0.19404504 0.25090772 0.43460652 -0.2545279 0.21565671 -0.35344166 0.2850625 -0.23138574 -0.0029455007 -0.025939208 0.06698443 -0.1703537 -0.047428235 0.15243647 0.023906264 -0.07549289 0.25746998 -0.1729858 0.4958928 0.41414413 -0.3869895 -0.2025955 -0.1998274 0.15537305 -0.11311209 0.16324894 -0.09650594 -0.3821562 -0.058764976
CupboardCups -0.11952825 0.17142363 -0.32866365 0.040381983 0.09072101 -0.08611184 0.2817907 0.23842524 -0.103352286 -0.106076464 -0.17726497 -0.20042175 0.3024581 -0.07038125 -0.09742536 -0.14156796 -0.24278209 -0.030060925 0.14330436 -0.02951839 0.25557232 -0.34626076 0.19667636 0.12936959 -0.1405141 0.13053802 -0.27555484 0.23070425 -0.31842694 -0.10522322 -0.06487062 -0.019353785 -0.02773456 -0.17628367 0.20886002 -0.14113767 -0.058366247 0.15423363 -0.06551869 0.2518137 0.34142244 -0.10963021 -0.21797924 -0.23662235 0.097838275 -0.1033382 0.12591979 -0.037491787 -0.3577542 0.0090561425
Freezer -0.10866093 0.21406132 -0.3084595 0.026034193 0.08090113 -0.067206465 0.28189957 0.26768872 -0.09675963 -0.08414768 -0.1451949 -0.20683111 0.31252137 -0.12281547 -0.082062006 -0.19547297 -0.15273826 -0.018917922 0.10884025 -0.018271081 0.23510566 -0.3094784 0.2072173 0.15277348 -0.17367041 0.100613564 -0.26221323 0.16820055 -0.2641821 -0.08645195 -0.029016552 0.013188494 -0.037455488 -0.12104761 0.16309316 -0.09958427 -0.043462303 0.18026832 -0.096426 0.28098398 0.3440451 -0.19263643 -0.1885414 -0.19371778 0.121865 -0.09297951 0.10802862 -0.062323317 -0.32836506 -0.046568807
Microwave -0.13527304 0.21583228 -0.3388434 0.026892826 0.097737014 -0.06673444 0.29744026 0.28287598 -0.10175858 -0.09647144 -0.16331202 -0.22329234 0.33794063 -0.1279539 -0.065418966 -0.19867839 -0.18246679 0.00031468295 0.124541 -0.024762593 0.2527247 -0.31445372 0.22029544 0.17711146 -0.16906837 0.11842915 -0.27021176 0.20182793 -0.28434315 -0.08519447 -0.05202777 0.007134496 -0.046436623 -0.14862534 0.17429931 -0.10698537 -0.06473784 0.19450496 -0.09003081 0.29739204 0.36063123 -0.17381978 -0.21212423 -0.22043085 0.124848366 -0.115309685 0.13259687 -0.044258103 -0.35086414 -0.019816687
Saucepan -0.10639958 0.18625318 -0.30374792 0.045816183 0.0875163 -0.062677205 0.29470384 0.24655318 -0.11286349 -0.08604749 -0.14984359 -0.19362757 0.31214735 -0.106044844 -0.08434373 -0.17759626 -0.17676742 -0.023300983 0.13845672 -0.0038719089 0.25322732 -0.32121378 0.19748197 0.13748369 -0.1630912 0.093566224 -0.26084784 0.17766069 -0.2631475 -0.09164152 -0.044802602 -0.004164451 -0.033560902 -0.13538198 0.16317132 -0.11898618 -0.053331736 0.16931023 -0.082690574 0.25559407 0.35070795 -0.16639788 -0.18814996 -0.19162685 0.120954216 -0.10734608 0.11212322 -0.053592127 -0.3185274 -0.03448159
GarbageBin -0.0625935 0.09723887 -0.15624444 0.024469431 0.055577986 -0.036234643 0.1414723 0.13308203 -0.04000429 -0.039145824 -0.07502762 -0.11233409 0.15793142 -0.05490386 -0.032526653 -0.08317907 -0.08620206 -0.0071068243 0.058147315 -0.012678103 0.12859944 -0.14688723 0.097636 0.07831773 -0.0858053 0.05662396 -0.13226698 0.08673754 -0.13017368 -0.045621168 -0.012098552 0.006241664 -0.014235422 -0.076357625 0.09132457 -0.057989333 -0.023830403 0.10050567 -0.054568682 0.1373423 0.1826937 -0.0920384 -0.09337751 -0.09992421 0.068467975 -0.052997313 0.06536838 -0.023034066 -0.16470814 -0.008958462
