21 50
BedRight -0.8342568 0.825678 1.5292807 0.94082797 -0.8738645 0.4520036 0.77755284 -0.36979216 -0.60457885 0.8996397 -0.72995347 -0.31192303 -0.19987729 -0.14734259 -0.024535846 -0.5842191 0.99071145 -0.19716634 0.71900743 -0.082236744 0.09035064 -1.4176754 -0.15308945 1.4665349 0.61205965 1.2562436 -0.58963203 0.028592614 0.57416755 -1.1421822 -0.64985245 1.0908215 0.47220427 -0.9559047 -0.41571844 -0.96390927 -0.36101562 -0.3120768 -0.0020456219 1.6934295 0.5970381 -1.0003295 -0.6124633 0.22336663 -0.6463278 0.78761697 -0.37955832 0.09950373 -0.9309074 -1.0351509
Bathtub 0.7514449 -0.49845964 -0.16255787 0.6867059 0.73922056 -0.09085919 0.21831654 0.4595632 0.31937513 0.48492336 0.06657907 0.09620771 0.6954115 0.4302858 0.78998774 -0.5957203 0.41348842 0.3717516 0.71626097 -0.21475723 0.26871976 0.32807612 0.30996364 -0.39821023 -0.6557979 0.051930472 0.5747486 -0.67013836 0.20561619 -0.07489797 -0.7326898 0.30970845 0.22452003 -0.80521876 0.0028991317 -0.3367207 -0.50932884 -0.46339247 0.14118552 -0.5615462 -0.06381756 -0.27781048 0.09075469 0.05861131 0.5353388 -0.12564321 0.3133641 -0.39986783 0.4961447 -0.041595805
Couch -0.3764581 0.19301318 0.17943794 -0.3546648 -0.059282854 -0.094318666 -0.091260105 -0.62503433 -0.081492916 -0.8115211 0.30647367 0.11511893 -0.30722773 0.016345672 -0.12461721 -0.094429955 -0.13645983 -0.1429033 -0.14828731 0.012343909 -0.14156017 0.67711264 -0.43247852 0.20747519 0.31461993 -0.33652508 -0.22616301 -0.40472984 -0.06958313 0.20428514 0.583018 0.11982919 -0.14384857 0.25834292 -0.55003846 -0.20696066 0.3483416 0.021422684 -0.083343975 -0.26702797 -0.17284153 -0.068035394 -0.16086619 0.118961304 0.0262902 0.3733181 0.18520266 0.3880765 -0.4572154 -0.069887035
BathroomDoor 0.23784153 -0.12840018 0.056760482 0.16176818 0.4490904 -0.07571766 0.07947246 -0.1766023 0.085030705 -0.19757675 0.207529 0.13728246 0.13541828 0.25301427 0.36039644 -0.3278892 0.098141715 0.088730395 0.30597094 -0.08102895 0.11996275 0.56908536 -0.10784328 -0.120184965 -0.21765897 -0.1458763 0.21363072 -0.5582845 0.08054794 0.09442801 -0.032798983 0.19202214 0.046950128 -0.3132604 -0.3368616 -0.2637741 -0.049551856 -0.15666075 0.03146978 -0.44427365 -0.16316465 -0.14643347 -0.020365236 0.081135675 0.23348148 0.123677246 0.24355097 0.034404024 0.015520402 -0.07300519
Fridge -0.048910998 0.05484568 0.2605499 -0.027613135 0.28243527 -0.034666393 0.030143797 -0.50823677 -0.003188661 -0.547485 0.20406443 0.16690801 -0.086254805 0.15486117 0.08043587 -0.30009693 0.057996504 -0.14417274 0.05567424 0.0027404586 0.06190028 0.612279 -0.35762423 0.1424472 -0.018015409 -0.20677482 0.037758987 -0.56532246 0.06270962 0.08668047 0.2678135 0.18110149 -0.03481964 -0.11868799 -0.5601222 -0.33143768 0.15522052 0.02702729 -0.07927264 -0.34289604 -0.08500443 -0.2449483 -0.09573941 0.17398068 0.061532512 0.29563433 0.18398604 0.2649798 -0.25431663 -0.18312743
Cutlery 0.0018755418 0.05475951 0.20334427 0.0013589 0.33345726 0.0014643087 0.00458419 -0.43097687 0.035739865 -0.4998531 0.16193792 0.1802728 -0.09193554 0.1381145 0.07172445 -0.29670048 0.06798687 -0.14731126 0.07825445 0.030448768 0.061408225 0.6047177 -0.31230217 0.12077776 -0.08043225 -0.16837232 0.08771188 -0.52602786 0.07564369 0.07954517 0.25015134 0.14081119 -0.027788466 -0.1517059 -0.53792214 -0.32460374 0.17104459 0.040356778 -0.048536383 -0.3625145 -0.07532102 -0.22912458 -0.06251669 0.17276958 0.09207089 0.23640887 0.20006378 0.2645987 -0.19067961 -0.18748386
Keys -0.0015454158 0.1992219 0.58512175 0.124444 0.37529752 0.029273162 0.18580323 -0.92548186 -0.008933874 -0.7375967 0.043497536 0.23864332 -0.1584433 0.20058444 -0.0630683 -0.24446343 0.09838793 -0.24216138 0.13565034 0.18650787 0.208382 0.40538058 -0.6785473 0.2740679 0.12514102 -0.23835449 0.024219248 -0.7618685 0.14627686 -0.1309869 0.12750646 0.20489651 -0.05374626 -0.41790998 -0.92745775 -0.43753153 0.20386603 0.12937534 -0.19317554 -0.33122724 -0.116448484 -0.49415487 -0.022053758 0.26732937 -0.028330516 0.28680047 0.05868091 0.20419161 -0.26960337 -0.17738219
SinkTop 0.3537322 -0.18588147 0.025074577 0.22995014 0.6334356 -0.06723393 0.07426139 -0.19494401 0.12014056 -0.1999825 0.25193965 0.17986943 0.19723041 0.34117627 0.47113734 -0.43561786 0.073084936 0.1291709 0.3818616 -0.07409504 0.15274191 0.70873874 -0.10316659 -0.18947454 -0.34102747 -0.19783178 0.32834366 -0.70638454 0.09530519 0.14043234 -0.05771737 0.20260432 0.056794427 -0.4128343 -0.3774456 -0.2618277 -0.118433475 -0.21215901 -0.0037742439 -0.6337623 -0.22852288 -0.12676717 0.025462648 0.09807951 0.30707026 0.07930293 0.30113506 -0.0039641145 0.08940912 -0.036535066
Frontdoor -0.05813693 0.03684028 0.21306054 -0.04567558 0.22279306 -0.04201721 0.049377773 -0.45779812 0.016296126 -0.53073084 0.23214813 0.14106017 -0.06191875 0.14894064 0.09229155 -0.22756575 0.0109071545 -0.096911035 0.09940236 0.003325488 0.000376791 0.5641117 -0.28681234 0.084833294 0.020548087 -0.22133727 -0.024890872 -0.5369975 0.011548196 0.09648736 0.26162735 0.14213379 -0.05681851 -0.0809927 -0.52929014 -0.31228507 0.17125724 -0.03331486 -0.051299743 -0.34396276 -0.14834598 -0.19022669 -0.07639358 0.14056379 0.07824165 0.26319766 0.16774312 0.2097803 -0.22750914 -0.093920134
ToiletDoorDownstairs 0.010263828 0.03315466 0.38444266 0.0936124 0.46946335 -0.06570401 0.12326033 -0.6344533 0.027730288 -0.64750385 0.32393834 0.2300101 -0.02297273 0.25771746 0.25005916 -0.4595952 0.12647943 -0.1128237 0.30207253 -0.022287287 0.084002465 0.8781105 -0.3952977 0.13605826 -0.05842752 -0.24130604 0.07431317 -0.9267723 0.100376904 0.057697676 0.21455374 0.3261429 -0.0024872557 -0.30410016 -0.80937994 -0.536081 0.12435666 -0.11199905 -0.03374036 -0.5280799 -0.22358496 -0.3528254 -0.14993785 0.23191532 0.14565296 0.40976438 0.29780233 0.2423989 -0.29031858 -0.21322182
BedroomDoor 0.03863524 0.028456759 0.17111656 0.112531126 0.1874571 -0.00631114 0.068469636 -0.21292958 0.011656096 -0.15605621 0.097132705 0.08466724 0.023515353 0.12508002 0.1529799 -0.22722341 0.09898436 -0.00022125029 0.17813577 -0.030934555 0.06469722 0.28156987 -0.14216408 0.062931605 -0.03219928 -0.05917216 0.04592523 -0.35312343 0.05288424 -0.009411011 0.022399975 0.18006523 0.027724717 -0.21007612 -0.28672773 -0.23106946 0.009706245 -0.09562711 -0.008225926 -0.17899239 -0.06675368 -0.15868205 -0.07128661 0.07679059 0.07082685 0.15596013 0.12882599 0.080828324 -0.0979275 -0.12086751
PlatesCupboard 0.002393535 0.04696643 0.2868888 0.057364825 0.3262464 -0.0181416 0.06252755 -0.48407215 0.011279305 -0.47288793 0.16508827 0.17182258 -0.030058596 0.17620136 0.13339293 -0.33140585 0.106291965 -0.125343 0.13250701 -0.005894397 0.07314351 0.5828884 -0.3344399 0.13538985 -0.0554448 -0.15569426 0.052836638 -0.60384554 0.094808474 0.052306525 0.19094916 0.2240748 -0.010462112 -0.2165966 -0.5734304 -0.36872947 0.12349741 -0.033346653 -0.06891355 -0.32172662 -0.09459618 -0.28256634 -0.10470947 0.1756837 0.082268484 0.28305006 0.19305007 0.2342201 -0.23134379 -0.20890778
Dresser 0.2208592 -0.031466477 0.28898725 0.288579 0.55758643 -0.0046493486 0.15335906 -0.43977305 0.075573206 -0.34942812 0.18891984 0.20854488 0.14540051 0.31501257 0.38711137 -0.51830465 0.20601022 -0.015010082 0.39485374 -0.0746327 0.17125219 0.70122796 -0.27396947 0.059977844 -0.20507114 -0.16999689 0.22299074 -0.85002154 0.12185438 -0.0029903185 -0.018589528 0.35972303 0.03388182 -0.49562937 -0.64694136 -0.5211813 -0.023525514 -0.18369715 -0.020443933 -0.50986624 -0.16025609 -0.3308453 -0.08622185 0.18707137 0.20600569 0.3002402 0.30230564 0.13127555 -0.08324969 -0.22064021
BedLeft 0.042305086 0.10231608 0.40155983 0.27861056 0.2880293 0.057844374 0.1819035 -0.41992348 -0.03051837 -0.23236327 0.08812073 0.13206816 0.048711706 0.19108462 0.27348042 -0.4219978 0.24670169 -0.058473658 0.35810062 -0.053507574 0.11735192 0.40469816 -0.27507383 0.22201799 -0.050237186 -0.023182206 0.07961547 -0.6366441 0.12464774 -0.122623295 -0.026016803 0.36873126 0.051443238 -0.4525147 -0.56609625 -0.5071088 -0.019008491 -0.14733207 -0.023726575 -0.2115093 -0.044035256 -0.3458487 -0.14535655 0.15183851 0.077814996 0.33695436 0.19842751 0.15280354 -0.20030712 -0.2701071
ToiletFlushDownstairs -0.049236547 0.070795424 0.30814543 0.046991676 0.24850975 -0.0365991 0.088360555 -0.47211137 -0.026160292 -0.4746426 0.21000737 0.13897769 -0.071342066 0.14761508 0.12640788 -0.28518617 0.0933231 -0.0923176 0.17691159 -0.01514472 0.062298104 0.55794245 -0.32014632 0.14246342 -0.0020511644 -0.160296 0.0016888285 -0.6013249 0.05642221 0.02332874 0.16530776 0.21988605 -0.019394912 -0.19805318 -0.5617459 -0.35203007 0.10321895 -0.05870509 -0.03333203 -0.29154307 -0.14457819 -0.25756672 -0.12024746 0.1450094 0.06186895 0.29482704 0.19122325 0.2013613 -0.2506104 -0.17640758
ToiletFlushUpstairs 0.23204225 -0.12325803 0.09581756 0.1635856 0.48574507 -0.06741062 0.07537566 -0.25418034 0.11070961 -0.30102387 0.2210551 0.15635316 0.12430335 0.26979938 0.3357122 -0.35964653 0.09213113 0.042069018 0.27156672 -0.047044765 0.123334944 0.63241714 -0.17724103 -0.10570806 -0.2094424 -0.19656952 0.21808279 -0.62833667 0.062159732 0.09790959 -0.004523513 0.19276787 0.015359893 -0.31461072 -0.4138563 -0.30449304 -0.02438169 -0.12632547 0.0018029731 -0.517416 -0.16013381 -0.17836988 -0.014305069 0.109560624 0.23378818 0.14926557 0.25303522 0.06479025 0.014171362 -0.074813776
CupboardCups 0.030834 0.020549478 0.21827957 0.08300806 0.28191552 -0.017651685 0.06627553 -0.3466528 0.010815941 -0.33500358 0.12636074 0.12304797 7.155015e-05 0.15142171 0.14111458 -0.27302828 0.09793559 -0.075849555 0.14460424 -0.017838513 0.078287706 0.46208233 -0.22891271 0.09204132 -0.06174331 -0.11491996 0.0741201 -0.49540418 0.06484222 0.026857812 0.11108601 0.18563993 -0.003758336 -0.21204568 -0.43189135 -0.3015213 0.06364336 -0.038668297 -0.03757301 -0.28905848 -0.08193085 -0.2146299 -0.06849724 0.13829735 0.08907977 0.20891389 0.1684608 0.16088873 -0.15592939 -0.15777564
Microwave 0.058241498 0.031828027 0.25624543 0.12652747 0.31384477 -0.0153063275 0.10464353 -0.37209526 0.016499223 -0.318175 0.15360463 0.12629609 0.0051184176 0.17313558 0.17814854 -0.3413871 0.13357466 -0.05217963 0.20846966 -0.021317044 0.08330905 0.46656868 -0.26140085 0.09437119 -0.07514581 -0.11684247 0.079068206 -0.56305134 0.08942799 0.010350614 0.066347204 0.23187622 0.013587768 -0.2809981 -0.48798412 -0.3462288 0.05125856 -0.07036263 -0.044333097 -0.3126393 -0.09813666 -0.25051463 -0.09219333 0.15113522 0.108644634 0.23682244 0.17815186 0.13984081 -0.15188141 -0.17881387
Freezer 0.037519664 0.047352105 0.25361446 0.1378532 0.25425187 -0.01011174 0.11120102 -0.3567364 -0.0052681477 -0.27475777 0.11357823 0.107685365 0.001680793 0.15025221 0.15255554 -0.28517377 0.13591291 -0.04383303 0.19081303 -0.007210289 0.09531837 0.3739385 -0.23259032 0.12274611 -0.052790053 -0.08832352 0.056971755 -0.48204315 0.09369866 -0.033219375 0.030620193 0.20428552 0.03248011 -0.2606217 -0.44964874 -0.31732962 0.035995763 -0.052557528 -0.03535723 -0.23387705 -0.076235645 -0.2533401 -0.077656314 0.13305087 0.07545597 0.20353521 0.12700285 0.12478192 -0.14189012 -0.16832033
Saucepan 0.020280086 0.03217273 0.2109432 0.085909404 0.22671291 -0.002820088 0.079779975 -0.32480755 0.008714425 -0.27923438 0.11354343 0.102747835 -0.0006468125 0.13199644 0.10838196 -0.23854052 0.09564667 -0.06363827 0.13884903 -0.013663075 0.07762243 0.34516075 -0.21763971 0.09176054 -0.039702136 -0.09175792 0.042834297 -0.43362933 0.07519855 -0.010607099 0.064854935 0.16247621 0.01639336 -0.20953813 -0.3922846 -0.27588418 0.04215855 -0.04119584 -0.039206672 -0.21460135 -0.07355911 -0.19425623 -0.061342504 0.12485121 0.07142178 0.19344701 0.120021105 0.10872842 -0.13610066 -0.1244967
GarbageBin 0.022537282 0.02060955 0.10769629 0.039216038 0.12475256 -0.004922127 0.030816386 -0.14512034 0.004295297 -0.13959138 0.06447294 0.05844048 0.008915893 0.074442476 0.07230118 -0.13176963 0.055614915 -0.01941949 0.08847638 -0.0034175362 0.034115184 0.18056065 -0.09375922 0.03552301 -0.029585995 -0.04735497 0.036150835 -0.22279245 0.03387103 0.010708184 0.032765444 0.092242844 0.0037917427 -0.113597676 -0.19124885 -0.14338261 0.019136298 -0.028452892 -0.010462902 -0.11541095 -0.036192648 -0.09851839 -0.03285653 0.06272033 0.036756225 0.098849475 0.067131706 0.060325842 -0.063115954 -0.057744663
