21 50
BedRight 0.7462417 -0.8855366 0.44065055 0.8605022 -0.73934364 0.014379978 -1.2009734 -0.52080977 0.5687551 0.11295707 -1.0482061 0.7566269 -0.37865582 0.026455116 0.45256993 -0.6399102 -0.588661 -0.48738548 0.64234 -1.1094067 0.99301416 0.29759935 0.41148463 -0.7326336 -0.5183177 0.7717477 0.46459675 0.3386755 -0.5628973 0.47472256 0.58700097 -0.56035143 1.1582192 1.1049473 -0.10853368 -0.5179899 -1.1204728 -0.74632525 0.36409578 0.33746564 -1.0464522 1.7459139 -1.2126908 -0.5694671 1.4347616 -0.45769632 0.33307135 0.36737376 -1.026462 -0.97597295
Bathtub 0.48924324 -0.3105889 -0.82553804 0.5197751 -0.35691357 0.06565446 -0.04319892 0.16642562 -0.8185764 0.6281018 0.09055653 -0.11365649 -1.0932488 -0.15310863 -0.019701175 0.38646683 0.2686335 0.2997382 -0.39765462 0.48682734 -0.46777096 -0.2743297 0.65278304 -0.08221541 0.3694411 0.9117235 -0.9459461 -0.013491838 -0.1450191 0.62170243 0.0373395 -0.21156836 -0.28323245 -0.024892783 0.027542109 -0.04860764 0.19896159 0.31418395 -0.58207667 -0.62119734 -0.3075768 -0.5745594 -0.49894798 0.7410719 0.22023925 0.12414717 0.81865054 -0.15719596 -0.40036502 0.52882564
Couch 0.26260772 0.23230061 0.28781763 0.44326195 0.47681314 0.38740122 -0.25731102 -0.16700621 -0.2371167 0.1898903 -0.47725022 0.68193114 0.09602295 0.19384483 -0.052069418 0.09651013 0.5704413 0.1255631 0.04825925 0.06053547 0.20727701 0.2639368 -0.22405493 0.416915 -0.47851452 -0.45497188 0.33959675 0.57646394 0.35461608 -0.31644258 -0.397207 -0.14611086 0.28108793 -0.07734956 0.003411967 0.16724567 -0.27581394 -0.34685287 0.26749578 -0.13426231 0.2782585 -0.26086828 0.5618847 -0.1308361 -0.024800079 -0.12492805 -0.31979743 -0.3212021 0.3705803 0.0019399899
Fridge 0.3886563 0.036579005 -0.090657294 0.5057522 0.35852957 0.41937342 -0.2763397 -0.15989469 -0.34565625 0.2932538 -0.50543535 0.5616033 -0.22603083 0.14463271 0.031470392 0.08799701 0.52705944 0.14309065 -0.08433324 0.08917484 0.009875369 0.1570524 -0.03265822 0.22043745 -0.3104437 0.017316822 -0.022873575 0.47227487 0.12477414 -0.094105564 -0.28365773 -0.08689787 0.28701186 -0.10332703 0.03706215 -0.011117849 -0.22211035 -0.24958323 0.09765748 -0.1939501 0.1872233 -0.23647748 0.29986745 0.07233376 0.13891453 -0.06184505 0.042034414 -0.23469661 0.1077286 0.006193652
BathroomDoor 0.3775986 -0.054616638 -0.28043628 0.40004775 0.1043883 0.22961129 -0.11015458 -0.05211041 -0.5147019 0.39542326 -0.16616924 0.2480658 -0.47366297 -0.01024472 0.013390303 0.24437419 0.43252677 0.21397737 -0.18530846 0.26669282 -0.17659011 -0.04378871 0.16847302 0.14706188 -0.070551224 0.24352953 -0.3562944 0.28679445 0.10515233 0.16134514 -0.18444526 -0.14552514 -0.01901128 -0.13656585 0.008351755 -0.011665805 0.033606272 0.007938269 -0.15866669 -0.37414342 0.059008658 -0.4008882 0.063266665 0.33259034 0.07515334 -0.0033474038 0.24528123 -0.16517463 -0.042483028 0.2464552
Cutlery 0.3894076 0.054585498 -0.110487804 0.509496 0.37285846 0.4333574 -0.27537206 -0.13098197 -0.3218118 0.2730805 -0.5128295 0.5261847 -0.2449192 0.15885064 0.010893449 0.051356874 0.5191873 0.15380336 -0.113685206 0.09577416 0.012686635 0.16908088 -0.0037382792 0.17839295 -0.30836555 0.07142919 -0.04572125 0.4270851 0.11657472 -0.072017685 -0.29118887 -0.04086995 0.30181816 -0.13483132 0.04245419 0.003308704 -0.25099394 -0.23035775 0.11378946 -0.19766894 0.21024273 -0.2128742 0.25603718 0.073604375 0.17141771 -0.071623266 0.04446474 -0.23871835 0.092112206 -0.0016600331
Keys 0.50069946 -0.22007094 -0.2871484 0.5156878 0.3924693 0.3568003 -0.4370166 -0.3865782 -0.47281492 0.5491017 -0.62559026 0.6823521 -0.31180775 0.13494334 0.19403976 0.1959549 0.5687344 0.18104994 -0.058920722 0.12854 -0.08170221 0.22441413 0.05994052 0.37090868 -0.52851063 0.108114935 -0.27353638 0.64118254 -0.05129401 0.008043006 -0.3928103 -0.060031686 0.3528277 -0.111362904 -0.064576454 -0.21154144 -0.28468865 -0.27242145 0.03672012 -0.1987426 0.046439078 -0.23233339 0.24666639 0.13595311 0.14383209 0.003313781 0.22893006 -0.01641617 -0.19984493 0.08492162
SinkTop 0.4119975 -0.07779424 -0.3605637 0.4746989 0.069732085 0.2603926 -0.10743393 -0.008965481 -0.51992536 0.4419163 -0.15349597 0.26740462 -0.5704527 -0.035729796 0.03155731 0.22203182 0.4129243 0.20881487 -0.21793124 0.2561035 -0.17729463 -0.05913264 0.23718926 0.12352479 -0.041693963 0.29635456 -0.41100025 0.29380476 0.045803383 0.23027761 -0.15383363 -0.1755121 -0.062191993 -0.13826534 0.015667059 -0.010828198 0.052709788 0.018436195 -0.16260716 -0.43118697 0.021990666 -0.42714295 0.033500012 0.37750137 0.086649574 -0.0022529173 0.29576498 -0.1403319 -0.062888086 0.3039641
Frontdoor 0.3552735 0.037299145 -0.035212852 0.4438908 0.30808082 0.36933273 -0.26093236 -0.16851714 -0.36647713 0.31744054 -0.4279387 0.554616 -0.20020247 0.10530127 0.01914736 0.13778369 0.5255682 0.15746148 -0.076178886 0.15315138 0.046455827 0.15389691 -0.059170615 0.30658284 -0.35096022 -0.10536618 0.019128926 0.48096228 0.19203785 -0.08414742 -0.29644462 -0.1401378 0.21662977 -0.09675514 0.032320973 0.010026538 -0.16683431 -0.2423298 0.09638209 -0.18087867 0.15757637 -0.26493132 0.3101826 0.07592188 0.08175703 -0.044736445 -0.02693646 -0.2259047 0.11108168 0.09605912
ToiletDoorDownstairs 0.47661933 -0.00042850588 -0.10977196 0.6316052 0.297956 0.4467294 -0.33119938 -0.20375134 -0.48569986 0.4336611 -0.513816 0.6312736 -0.37787852 0.10170471 0.009694608 0.18451187 0.59842074 0.2106438 -0.101387866 0.1841856 0.021629194 0.12505153 0.0046383473 0.32347667 -0.37630597 0.0065951305 -0.08658895 0.5666161 0.21411772 -0.03348607 -0.33328167 -0.20820868 0.25835943 -0.096281566 0.030402057 -0.0007982531 -0.21006976 -0.28021896 0.025530688 -0.2674615 0.15509893 -0.33126077 0.31130746 0.16857512 0.13815999 -0.05197532 0.084605575 -0.2749639 0.07232873 0.13267557
PlatesCupboard 0.4139063 -0.00054111134 -0.1305117 0.52686065 0.28438786 0.39118764 -0.29447892 -0.16560972 -0.3715751 0.3042112 -0.48818907 0.5281725 -0.30713287 0.106232785 0.02738944 0.09823396 0.4894276 0.13837335 -0.10335364 0.10282901 -0.0018791154 0.11403083 0.028443735 0.18896905 -0.28458485 0.10642062 -0.07794056 0.44444898 0.09927112 -0.01485815 -0.25221187 -0.11625419 0.28013447 -0.08073464 0.045203656 -0.014773852 -0.2298481 -0.23556808 0.04966672 -0.21413262 0.1184299 -0.21382694 0.20628498 0.10665491 0.16800621 -0.06621289 0.1094676 -0.21376969 0.026856162 0.023673963
BedroomDoor 0.33496785 -0.06307735 -0.113504976 0.3795938 0.1356384 0.2264298 -0.18855712 -0.11220174 -0.33703718 0.2840928 -0.27164817 0.321228 -0.31812555 0.038540635 0.040519133 0.12689869 0.35898742 0.10869507 -0.08255939 0.11311726 -0.03636834 0.046038978 0.08433356 0.12143219 -0.15636234 0.121649176 -0.14574362 0.28636506 0.09070177 0.076777846 -0.17022702 -0.1394915 0.09927019 -0.035750482 -0.0057892995 -0.030188771 -0.11170408 -0.10383364 -0.022607312 -0.23468877 0.041309796 -0.1972569 0.08748914 0.14131118 0.13665587 -0.050690357 0.12419175 -0.11581934 -0.019816654 0.108200125
Dresser 0.5850314 -0.16070145 -0.33714405 0.7073464 0.14595877 0.39626122 -0.30333546 -0.15997517 -0.62600076 0.53566325 -0.44046572 0.49221963 -0.656862 0.033191334 0.07098331 0.23103422 0.56569177 0.20794734 -0.1961502 0.25999185 -0.12441733 0.020828895 0.23882525 0.18580447 -0.19660679 0.34130654 -0.34963623 0.4498035 0.072906114 0.22364257 -0.22859085 -0.24176322 0.14299597 -0.03072463 0.007414123 -0.0933708 -0.1624328 -0.11613547 -0.14344023 -0.43550274 -0.012468793 -0.32346937 0.014776295 0.31061 0.2745366 -0.05715028 0.35061884 -0.17582972 -0.12942141 0.21457255
ToiletFlushDownstairs 0.33476517 0.012482965 -0.120902136 0.4468524 0.25405478 0.3300404 -0.19399804 -0.12014385 -0.42495784 0.32868084 -0.35477468 0.46434742 -0.28578153 0.068325095 0.008805987 0.19254892 0.5004598 0.19684863 -0.10889295 0.20620029 -0.05155946 0.091788895 0.013753864 0.27560365 -0.24498637 -0.011968969 -0.11347498 0.41889188 0.18921715 -0.03237586 -0.27392048 -0.14132713 0.12967554 -0.1372674 0.014927479 0.01534605 -0.10401743 -0.15842463 -0.0051614195 -0.23790756 0.15624487 -0.3467178 0.28551483 0.16274142 0.050121557 -0.019234637 0.061949007 -0.21723083 0.08432382 0.15548012
BedLeft 0.513793 -0.21300073 -0.17488346 0.60695994 0.05402721 0.29768297 -0.34384832 -0.19704185 -0.3933395 0.40718594 -0.42036495 0.4558165 -0.49949366 0.03491787 0.095380895 0.109952725 0.37698293 0.0816301 -0.08844421 0.083026305 0.006569517 0.03556935 0.19428045 0.06074178 -0.21137394 0.3065512 -0.18258376 0.35107905 0.02145402 0.19528815 -0.13798395 -0.23024839 0.22717543 0.08516989 -0.011499403 -0.11993003 -0.24870637 -0.16183893 -0.045562364 -0.28970593 -0.0725494 -0.0564697 -0.09012181 0.1470964 0.33355063 -0.10080268 0.28560638 -0.07588095 -0.20048225 0.03346478
ToiletFlushUpstairs 0.32761723 -0.06816342 -0.28879958 0.38786453 0.09692168 0.21315566 -0.103845075 -0.041516397 -0.4540956 0.3648967 -0.16385263 0.24045171 -0.44106907 0.0024317787 0.01006994 0.2018544 0.38653004 0.1799222 -0.18538533 0.23916371 -0.16521162 -0.01871807 0.16571185 0.13511308 -0.060196534 0.23813103 -0.33077452 0.2546416 0.06318118 0.15973862 -0.17262909 -0.13331902 -0.0056703975 -0.10957778 0.003348622 -0.012753639 0.006272632 0.0046901843 -0.1397286 -0.3311932 0.035203684 -0.35313037 0.034396306 0.2903122 0.06865113 -0.002115217 0.24992763 -0.13555025 -0.03846411 0.2254808
CupboardCups 0.3594551 -0.019642124 -0.15719704 0.4456447 0.23174632 0.3168471 -0.23098554 -0.12123092 -0.347336 0.30897602 -0.3785942 0.4164843 -0.30389765 0.07914876 0.023843916 0.11410836 0.4348872 0.15031418 -0.103350036 0.12320169 -0.03600872 0.0918767 0.051486034 0.17418358 -0.22872077 0.11485095 -0.12095644 0.35658544 0.08194563 0.02195185 -0.21537282 -0.0998947 0.19040568 -0.08499949 0.021334192 -0.027297445 -0.15799843 -0.17088659 0.013770476 -0.22288999 0.0876142 -0.2313265 0.15730073 0.13515924 0.13539754 -0.044720296 0.117467366 -0.17301358 0.012054199 0.08490932
Microwave 0.36124328 -0.04631209 -0.13847166 0.4568938 0.19558719 0.30650067 -0.24026504 -0.12034157 -0.35411403 0.3209559 -0.3610076 0.41089392 -0.30859807 0.074081674 0.035149567 0.112290375 0.39683345 0.12993447 -0.09864327 0.11388186 -0.016429974 0.079687245 0.084725924 0.15867008 -0.2263655 0.13785751 -0.137637 0.36399066 0.07373183 0.05072423 -0.20117514 -0.12176091 0.19714119 -0.061766833 0.0067796055 -0.027859008 -0.16938707 -0.16634205 0.004870614 -0.22807112 0.06323591 -0.1827335 0.114178516 0.14032371 0.14862502 -0.040930927 0.14218257 -0.15478694 -0.01357432 0.06561368
Freezer 0.34556025 -0.07100917 -0.14912644 0.40061146 0.15981606 0.24953014 -0.23546161 -0.13936609 -0.32629952 0.30568692 -0.32641718 0.3715441 -0.29419607 0.05600639 0.054422665 0.11015387 0.34610385 0.11152742 -0.08459663 0.10968342 -0.028264208 0.06255418 0.078051716 0.14782526 -0.1928269 0.1415818 -0.15122478 0.32005545 0.042385176 0.050102916 -0.18131475 -0.10691843 0.17430462 -0.03850435 0.014290098 -0.05080052 -0.14979227 -0.12735869 -0.0004163817 -0.19960745 0.04206921 -0.16548707 0.087742895 0.13414074 0.15493982 -0.03405537 0.13914958 -0.113451704 -0.059055753 0.07689486
Saucepan 0.2946218 -0.024447648 -0.14130406 0.35512906 0.17019874 0.25142536 -0.19724548 -0.099773936 -0.3018267 0.26018396 -0.30303696 0.33751747 -0.25515637 0.06589149 0.032808315 0.11230323 0.35096797 0.12008929 -0.08975607 0.11493309 -0.037615158 0.061751954 0.04671771 0.14399688 -0.1762618 0.08081595 -0.12954624 0.30451837 0.057552226 0.01955405 -0.18981136 -0.0876054 0.14188702 -0.05776548 0.015862674 -0.034469698 -0.122796156 -0.11515628 0.007922399 -0.18883243 0.060746294 -0.20170784 0.12591125 0.13049097 0.0963301 -0.037176464 0.10446398 -0.12273991 -0.0025794373 0.08381263
GarbageBin 0.15714493 -0.036735658 -0.073696256 0.20374061 0.05877652 0.1309841 -0.118029885 -0.04489073 -0.1588932 0.13456184 -0.16537969 0.16533919 -0.1540625 0.033066504 0.02009174 0.03984735 0.17182992 0.054306958 -0.042297546 0.05350567 -0.01487732 0.022585507 0.04293698 0.05693262 -0.07510883 0.07194109 -0.059742346 0.14655773 0.031809792 0.042945966 -0.070597276 -0.061761495 0.08665974 -0.017954351 0.010589386 -0.027548207 -0.066842996 -0.058206752 -0.008872881 -0.106479205 0.017457442 -0.07798397 0.02397241 0.07040592 0.08883297 -0.018350838 0.07894053 -0.063064285 -0.028736386 0.039644018
