21 50
BedRight -0.62649 0.3238353 -0.5190521 -0.15745157 0.86851895 0.72645766 -0.49471557 -0.61056405 -0.31913128 0.038939133 -0.20997821 1.3424886 -0.95459074 -0.71954685 0.9719964 -0.4721573 -1.2858454 -0.25865805 0.18764123 -0.04067137 0.61865246 1.1404871 -1.1239456 0.8942431 -0.12857646 -0.30438966 0.64446557 -0.70107824 0.8272302 -0.44302207 -0.6831334 0.67730904 -0.010049077 0.103336886 -1.3810762 1.350518 0.6650924 1.3221258 1.2255551 0.60988593 0.8161196 -1.1189615 0.096527696 0.2238818 0.0663483 0.31451613 -0.0117473975 -1.1242474 -0.6239425 -0.38728222
Bathtub -0.68845373 -0.008697105 0.103858866 0.35854572 0.66045976 -0.27005595 -0.42464465 1.0021036 -0.32748744 0.47836503 0.18905559 -0.07315563 0.95623463 0.4812737 -0.29438025 -0.31248316 0.37702343 0.41225344 -0.6165205 -0.29199108 -0.28428078 0.07356629 0.33791965 0.80998033 -0.6125542 0.45790747 0.251721 0.3829539 0.73433113 -0.07906146 -0.4676189 -0.083551474 0.14241575 -0.5113278 -0.5018015 0.6446526 -0.13504037 -0.6242901 0.25008488 0.26452065 -0.4422512 0.08725176 0.21658343 -0.753879 -0.11664875 0.42648125 0.15820983 -0.05888761 -0.019055225 -0.6682395
Couch 0.53730893 -0.2215013 -0.05280336 -0.17764644 -0.45445874 0.5482211 0.57230484 -0.18919373 -0.43310192 -0.09722043 0.22645245 -0.4856084 0.4273922 -0.45742938 0.32565632 -0.35185117 0.14666298 -0.44546533 0.48566356 0.2287883 0.015128412 0.11527266 -0.13588841 -0.079407535 0.19880904 -0.077231884 0.28931433 0.0021726282 -0.10215722 0.2823683 0.063278556 -0.297931 0.041099656 -0.19122909 0.16760918 -0.22251323 -0.30763087 0.32656735 0.16967556 -0.07041519 0.46460363 -0.17064492 -0.5058898 -0.02098292 -0.042914595 -0.16970527 -0.1340387 -0.046872694 -0.25966293 0.56852335
Fridge 0.35698426 -0.21446382 -0.018860413 -0.016620485 -0.14842795 0.48453784 0.45720294 0.13251404 -0.60413975 0.06041778 0.15467589 -0.45406267 0.6382549 -0.40958604 0.2270634 -0.3417778 0.33962864 -0.38895592 0.36723742 0.051690288 -0.036063112 0.32909444 -0.029186822 0.27021047 0.058610372 0.09756968 0.35238642 -0.08017688 0.051206484 0.12222781 -0.12322697 -0.26029894 0.119122654 -0.34263018 -0.16654523 -0.046756852 -0.2832403 0.019953778 0.24653801 0.014771821 0.21636367 -0.18630439 -0.42856014 -0.19826108 0.036695294 -0.008611415 0.07813641 -0.09731338 -0.4159545 0.27974424
BathroomDoor -0.0856609 -0.121187024 0.056956757 0.14463195 0.117970854 0.0346938 0.085615665 0.5580572 -0.36236155 0.23383588 0.24170735 -0.36676872 0.8413148 0.09035345 -0.10774156 -0.25126347 0.40451917 -0.018975126 -0.09045949 -0.05838755 -0.21438102 0.06144053 0.24256319 0.37327644 -0.20724931 0.23260374 0.2542962 0.22454572 0.29591802 0.11783949 -0.16787301 -0.17857248 0.110456474 -0.37549362 -0.15504314 0.12638038 -0.26345462 -0.3057893 0.1475502 0.07046982 -0.10159996 -0.012440229 -0.10010051 -0.4408277 -0.061357174 0.14348996 0.049079362 0.025283398 -0.10184601 -0.06557366
Cutlery 0.3514584 -0.23337844 0.034282614 0.00812601 -0.15497158 0.45733872 0.4881771 0.15728314 -0.65819085 0.09639117 0.14811434 -0.54145736 0.69629955 -0.3945838 0.18004885 -0.30288804 0.4046377 -0.4067397 0.37091902 0.013073199 -0.0614034 0.33298776 -0.0019033239 0.3168514 0.031314876 0.16119254 0.35035938 -0.07660565 0.027571725 0.10751029 -0.123688966 -0.32176593 0.09796837 -0.39759204 -0.14407103 -0.06645291 -0.33330783 -0.07780855 0.22912271 0.010868517 0.17809363 -0.118942566 -0.43606928 -0.238965 0.032669395 0.0127808815 0.06845664 -0.0890677 -0.44783074 0.25890008
Keys 0.21228871 -0.29624012 -0.17947493 0.13345154 0.036706626 0.40969643 0.33816388 0.37279746 -0.65055335 0.09120843 0.22347547 -0.51377404 0.75535 -0.5062425 0.15263589 -0.23490937 0.44997892 -0.559627 0.39860833 0.069770046 0.01353939 0.23972246 -0.15145479 0.35519326 0.1395278 -0.010168221 0.63957065 -0.14668374 0.31186482 0.1447131 -0.27139676 -0.08275167 -0.015399326 -0.33613607 -0.38015327 -0.07389268 -0.41936114 0.0028356218 0.5051591 0.12542287 0.16780438 -0.2679647 -0.38920882 -0.19514413 -0.0731454 -0.077859834 0.22410399 0.013210443 -0.39599666 0.20685364
SinkTop -0.09430758 -0.14461638 0.034239437 0.16235736 0.16224313 0.04547125 0.066646464 0.66104794 -0.45165256 0.25925896 0.27723095 -0.38174817 0.9439693 0.07217711 -0.14394629 -0.3060476 0.41427395 -0.03545917 -0.1235912 -0.05575398 -0.23136263 0.14260739 0.2732199 0.48019725 -0.25141805 0.24061564 0.28579986 0.21660791 0.37935898 0.11013727 -0.20583363 -0.15563172 0.11984578 -0.42157733 -0.26265842 0.21523751 -0.30859983 -0.3446788 0.20113324 0.09092339 -0.09385856 -0.05834216 -0.09927717 -0.49226832 -0.08217941 0.17642745 0.064041145 -0.01466932 -0.12259504 -0.10229
Frontdoor 0.2690745 -0.22276744 -0.041017994 -0.036468267 -0.15510844 0.364795 0.4140957 0.16550629 -0.5320147 0.072458744 0.23610535 -0.47710544 0.73303634 -0.3075824 0.15091334 -0.3356695 0.33197165 -0.30143115 0.2618344 0.1212008 -0.09415014 0.19372366 0.029608652 0.18718743 0.032507215 0.05983703 0.33611488 0.027472427 0.10997502 0.219146 -0.08650304 -0.22868204 0.09427109 -0.33397046 -0.06536635 -0.06603755 -0.35110793 -0.011328455 0.23770168 0.02239342 0.2010922 -0.14607638 -0.3445477 -0.2364449 -0.011284605 -0.016437937 0.039808124 -0.033265237 -0.28933874 0.2904412
ToiletDoorDownstairs 0.20469123 -0.24735002 -0.044509828 -0.0052871318 -0.072175086 0.4320759 0.3909794 0.26960355 -0.7083332 0.16596949 0.2928089 -0.5569116 0.9445768 -0.33144167 0.16131869 -0.4206126 0.3827419 -0.36463684 0.26843908 0.10681068 -0.1117905 0.33528805 0.021260366 0.3473537 -0.030321917 0.11237036 0.43556914 0.0035568664 0.24010682 0.23926261 -0.15748514 -0.25525042 0.12856923 -0.43685475 -0.19046511 0.020346187 -0.39136124 -0.02278482 0.33677477 0.09874448 0.23953247 -0.2198983 -0.3733463 -0.33676696 -0.043603484 0.038985267 0.07736072 -0.128513 -0.39888906 0.25987947
PlatesCupboard 0.24465658 -0.19648519 -0.020666154 0.0111712245 -0.09190885 0.40150505 0.35869402 0.2204936 -0.5773391 0.10655409 0.17797281 -0.43324515 0.6863434 -0.31568214 0.15759735 -0.34854388 0.33789173 -0.31501052 0.25227216 0.021819543 -0.046669476 0.3094527 0.01758472 0.30508888 -0.012424397 0.102436036 0.35545352 -0.030146556 0.14164416 0.14569777 -0.13420378 -0.24803865 0.116238356 -0.36043078 -0.1742678 0.0181802 -0.285225 -0.019500382 0.25040326 0.0531166 0.17095427 -0.17749433 -0.36196482 -0.25089955 -0.00015748819 0.036782384 0.07184318 -0.11425976 -0.3716039 0.19362624
BedroomDoor -0.004110066 -0.077273965 -0.043314274 0.02394953 0.04943928 0.18149997 0.114465274 0.16783243 -0.29655758 0.09099622 0.11560419 -0.12709744 0.39088815 -0.12744783 0.086910196 -0.21172822 0.115438774 -0.13133761 0.08805694 0.016625684 -0.03432307 0.19317757 -0.02598904 0.25927517 -0.059839502 0.059639588 0.25373295 0.011381405 0.18239199 0.05552607 -0.12767431 -0.06967825 0.054536548 -0.20409662 -0.19621696 0.15205681 -0.12567285 0.030542446 0.2351833 0.08871933 0.12247992 -0.1601795 -0.1375933 -0.19282034 -0.010167025 0.06867384 0.019159649 -0.1271518 -0.19016051 0.024055013
ToiletFlushDownstairs 0.15026249 -0.17261697 -0.027838148 -0.018618774 -0.062766954 0.2971053 0.26711047 0.16432665 -0.47965637 0.088604435 0.19834276 -0.3682314 0.61958927 -0.24260534 0.120036125 -0.289051 0.24118571 -0.252709 0.19556548 0.08391995 -0.052711263 0.21953347 0.009100871 0.22294901 -0.0016746178 0.07305609 0.29017133 0.0016744516 0.15774263 0.16489202 -0.09371072 -0.16761358 0.08848506 -0.28353754 -0.13057074 0.0026330824 -0.24198835 0.007974414 0.22892362 0.05659836 0.18334147 -0.15309145 -0.26129332 -0.20174986 -0.025877941 0.013694425 0.023438703 -0.103637144 -0.2624148 0.19361106
Dresser -0.017585065 -0.1570166 -0.0032349634 0.09167306 0.10978166 0.26020038 0.19326068 0.52139467 -0.6404197 0.19913793 0.26404527 -0.3462495 0.9332075 -0.1851977 0.035327535 -0.39354905 0.39285198 -0.20329082 0.11043358 -0.01664642 -0.14539377 0.32706445 0.04490988 0.5458376 -0.16935945 0.17716181 0.46918598 0.06004612 0.37856805 0.10904122 -0.24852882 -0.17989717 0.12625699 -0.442121 -0.37941322 0.2188551 -0.30258062 -0.15540436 0.35970795 0.16539092 0.081556015 -0.17418063 -0.26924682 -0.44586718 -0.052424155 0.16435592 0.106554165 -0.15451811 -0.35462287 -0.009472945
BedLeft -0.044425584 -0.08193533 -0.05878352 0.049871918 0.12825201 0.2798416 0.11853897 0.3066314 -0.48896807 0.12514459 0.15329047 -0.13237888 0.57434964 -0.22485732 0.114245914 -0.32214376 0.16477524 -0.21319278 0.13556203 0.0007482187 -0.047782455 0.33790478 -0.08985678 0.4801327 -0.13115858 0.07860801 0.42005184 -0.05768877 0.3141342 0.028728805 -0.23785272 -0.05735681 0.109669425 -0.2925608 -0.38674062 0.26873174 -0.15388998 0.045015335 0.39401057 0.16664883 0.1649574 -0.24445789 -0.20900492 -0.29356864 -0.01962019 0.11942246 0.073769026 -0.21871321 -0.31791416 -0.012433298
ToiletFlushUpstairs -0.02301483 -0.13591078 0.02355538 0.09612152 0.10292421 0.1282552 0.12363815 0.4229072 -0.40377024 0.18349986 0.19897215 -0.3111828 0.7083304 -0.024649037 -0.030309586 -0.25867566 0.3201379 -0.087926544 -0.005244894 -0.038154352 -0.13968864 0.14646353 0.13747355 0.36131406 -0.14437589 0.17573361 0.27056086 0.11999788 0.26256365 0.10006514 -0.17341214 -0.14085391 0.099897675 -0.32090798 -0.20261224 0.13897596 -0.2349203 -0.18614013 0.20651972 0.07972268 -0.011673592 -0.079336666 -0.1455325 -0.35027292 -0.03156401 0.10382985 0.07171911 -0.035524458 -0.1703809 -0.027141532
CupboardCups 0.14727432 -0.15122548 -0.019724814 0.011237484 -0.031371087 0.2901917 0.25668955 0.20188206 -0.4541911 0.09302977 0.15360868 -0.32069588 0.5566502 -0.23248054 0.12127729 -0.25191373 0.2602726 -0.24153425 0.19233619 0.011932492 -0.045341585 0.22811295 0.0102091525 0.27627233 -0.02500184 0.08882833 0.2820155 -0.02199364 0.14200334 0.10641229 -0.13292524 -0.17880039 0.0784785 -0.29201135 -0.1717508 0.041244593 -0.2173314 -0.037624333 0.22410166 0.059858076 0.12168819 -0.1267169 -0.2532213 -0.21637553 -0.0014330233 0.031025166 0.05970006 -0.08231179 -0.27410367 0.13422318
Microwave 0.092385754 -0.14956652 -0.02190185 0.03027161 0.03625204 0.26749116 0.2115695 0.23088647 -0.4496441 0.11777698 0.14933002 -0.2848061 0.56775516 -0.22327258 0.121076666 -0.26321873 0.24694358 -0.21818148 0.14109889 0.009232627 -0.041199394 0.25891495 -0.013405038 0.32729176 -0.047973093 0.10084606 0.31789666 -0.0238965 0.20633669 0.068837665 -0.17165573 -0.14163163 0.071325354 -0.29992953 -0.23933354 0.108722515 -0.20160463 -0.03484331 0.2702155 0.073140845 0.12826367 -0.14849137 -0.23446918 -0.24109665 -0.018209293 0.06813785 0.076106824 -0.11156307 -0.2870107 0.0858228
Freezer 0.067464545 -0.13379121 -0.028173482 0.03005711 0.02902643 0.23762238 0.17769937 0.22420484 -0.39758977 0.10358889 0.14361425 -0.24023525 0.5010256 -0.20098726 0.09902716 -0.25249028 0.20544899 -0.20217441 0.1290818 0.020807028 -0.04856053 0.2269507 -0.018439965 0.2942744 -0.053144615 0.08065728 0.29453334 -0.013454019 0.19995438 0.067480244 -0.14990473 -0.10756793 0.07718831 -0.2646707 -0.21804069 0.10625405 -0.19160095 -0.02416952 0.25488856 0.078952834 0.118955 -0.14456186 -0.19535224 -0.21237038 -0.019659579 0.057488315 0.064224996 -0.09437617 -0.23618145 0.07756401
Saucepan 0.092833005 -0.12291883 -0.0118101835 0.023782544 -0.005687109 0.22344983 0.1987748 0.17576343 -0.36311987 0.08047778 0.12081471 -0.24428774 0.4594076 -0.17104682 0.090032905 -0.22250728 0.2190883 -0.19222301 0.13630398 0.011742066 -0.0476098 0.18023689 0.005367207 0.23195349 -0.01931329 0.066333406 0.24638833 -0.014746939 0.13152865 0.0752081 -0.110385634 -0.12203396 0.05800485 -0.2288597 -0.15875338 0.056123503 -0.17971683 -0.036005635 0.18305488 0.04990317 0.1049006 -0.111778535 -0.19624539 -0.19338402 -0.0011156412 0.0427393 0.05399367 -0.06942699 -0.22270404 0.084609225
GarbageBin 0.028060494 -0.067922495 -0.005427714 0.01358182 0.01235637 0.12826347 0.09837182 0.09169871 -0.19587985 0.045340378 0.074234635 -0.11851208 0.24414124 -0.09495076 0.051930957 -0.13886288 0.10290285 -0.08581192 0.067078196 -0.0016702141 -0.021478597 0.120577 -0.0067976313 0.14104216 -0.028803628 0.049955893 0.1348346 0.0006528022 0.10248432 0.038213067 -0.08018038 -0.06534602 0.037224155 -0.12190771 -0.09844169 0.051126853 -0.08550918 -0.00048788724 0.121554635 0.04356987 0.05416275 -0.06722829 -0.11150563 -0.09979905 -0.0033700182 0.036066737 0.030374968 -0.04532195 -0.11972823 0.031544454
