21 50
BedRight 0.45843902 -0.89921796 -1.1867396 0.07792504 -1.2646289 -1.07621 1.4468247 -0.15593415 -0.69573236 -1.0243922 1.0622176 -0.2715771 -0.58236337 -1.5214589 -0.32237953 -0.4423757 0.37273014 0.53828543 0.17702886 0.026532173 1.0229021 -1.1497139 -0.28379047 0.3599906 -0.6718432 -0.5639161 -0.5881064 1.3950773 -0.9353659 -1.3330206 -0.7416171 -0.20778288 0.9355543 -0.26098388 0.614524 0.39412752 0.09787492 -0.7706676 -0.18720697 -0.40956035 -0.799101 -0.13194953 -0.8163958 0.9197073 0.18349013 0.7393337 0.25135928 -1.1109025 -0.2214845 -1.0916023
Bathtub -0.23266792 0.7057491 0.64201546 0.9273077 -0.5577223 -0.14928366 -0.26708007 -0.422515 0.34297273 -0.47613186 -0.29363552 -0.15042973 -0.5661635 0.33446106 -0.17919286 0.2809959 -0.49075383 0.71211976 -0.38821578 0.46021158 -0.1113348 -1.0215833 -0.35108766 0.30771878 -0.9590811 -0.5847815 0.4578781 0.1996122 0.46145657 0.35515177 -0.23684353 -0.21880193 0.23751794 -0.63336957 -0.40623373 -0.30798757 0.2247543 0.1305084 0.42626846 -0.11310801 -0.17315479 -0.43228042 -0.11711476 -0.64889777 -0.11950007 -0.29895627 0.39011103 -0.10832994 0.06913504 -0.30417615
Couch 0.2844026 -0.0868248 0.029016957 -0.22659753 0.12568222 0.43241924 0.7178482 0.3415191 -0.86008644 0.5265117 0.4212505 0.09834202 0.3892047 -0.06938046 0.06761423 -0.31686527 -0.031962827 0.25474876 0.25106975 -0.28555578 -0.29077575 -0.047827322 0.24762294 0.3685053 0.010072437 0.16352662 -0.18772595 0.112660445 -0.43462285 0.4920413 0.076736875 0.5166499 0.2763323 0.052853964 0.58245337 0.22182705 -0.3078424 0.32125252 -0.4832862 -0.01326256 0.017140945 0.122979924 0.3356413 0.24107087 -0.13884626 -0.12090071 -0.57366675 0.1742382 -0.08064376 -0.0025889196
Fridge 0.13252766 0.35777572 0.17173757 0.27402383 -0.04183329 0.21533526 0.4305757 0.2433544 -0.49797153 0.13643306 0.24213526 0.031209964 0.06762627 0.051410396 0.19396546 -0.35581908 -0.34490168 0.53018093 0.08371692 -0.053851675 -0.1809782 -0.25752035 0.05319278 0.4269715 -0.33816928 0.10596606 0.019270744 0.12291179 -0.036731664 0.6799776 0.13514192 0.3438783 0.3424042 -0.23511443 0.25748143 0.34052494 -0.19989246 0.5772459 -0.1861829 0.20895118 -0.21941465 -0.13475165 0.2651506 -0.27175853 -0.082626 -0.12523702 -0.3508319 0.36013144 0.09748445 -0.17297718
BathroomDoor -0.010308333 0.41570133 0.34865656 0.40935433 -0.13900167 0.1871682 0.14217705 -0.021659635 -0.15896554 -0.059254058 -0.017233754 -0.044471256 -0.11632513 0.19681491 0.010518834 -0.06149523 -0.33511388 0.47578925 -0.048781954 0.14711295 -0.2550467 -0.47114486 -0.0469919 0.34142435 -0.46732983 -0.14178205 0.17348827 0.09826016 0.10176882 0.53660417 0.030167865 0.1539361 0.18751748 -0.33638242 -0.0024133478 0.010039506 -0.07731692 0.3577344 0.012227687 0.05482867 -0.11385378 -0.22197057 0.1646918 -0.31407672 -0.046585515 -0.22391765 -0.108584404 0.12568733 0.080415346 -0.11906667
Cutlery 0.15769885 0.3713063 0.11790922 0.27654245 -0.012324478 0.23939294 0.5383862 0.28049254 -0.55628073 0.17659679 0.2945862 0.035206575 0.10002044 0.041417133 0.22614135 -0.43344066 -0.3533705 0.5040121 0.109196864 -0.09911961 -0.17373535 -0.22047202 0.05203703 0.48683202 -0.30402732 0.18307583 -0.035282705 0.17812075 -0.08344439 0.76571786 0.20057736 0.37389937 0.3955593 -0.24556871 0.3167442 0.42218962 -0.23285101 0.59584004 -0.21191677 0.25850162 -0.24377446 -0.10693682 0.29079548 -0.2616614 -0.07349744 -0.09379669 -0.45153493 0.4112382 0.08193104 -0.20538062
Keys 0.18482174 0.4693771 0.08352767 0.33093965 -0.13052739 0.02184343 0.4672797 0.213785 -0.5214498 -0.24773291 0.3035618 -0.13317455 -0.021904502 -0.109762095 0.27991816 -0.5452502 -0.5229164 0.85613304 0.044067536 -0.04657513 -0.033266917 -0.45388326 0.09385195 0.6615327 -0.440252 0.1635108 -0.011281526 0.1318381 0.02739353 0.73859775 -0.011453893 0.36475095 0.2718663 -0.30501613 0.40003678 0.5171503 -0.2581603 0.843022 -0.21089703 0.3917015 -0.57151335 -0.30319142 0.0756012 -0.4085928 0.010276197 0.0048544738 -0.42803073 0.47379956 0.16221927 -0.27355874
SinkTop -0.07937324 0.5463436 0.45552835 0.5251851 -0.19002421 0.15333042 0.03793698 -0.06478868 -0.06373086 -0.14564022 -0.1090134 -0.0781014 -0.18345086 0.2813427 0.031183627 -0.03457547 -0.4194426 0.55307055 -0.10406109 0.21886791 -0.26680535 -0.5520124 -0.13510452 0.3210173 -0.59525347 -0.2046073 0.25217393 0.07512048 0.22952738 0.6186802 -0.007252749 0.082186975 0.18286954 -0.3837576 -0.084834754 -0.030822657 -0.033296052 0.3603667 0.07441469 0.09409289 -0.12267047 -0.3073867 0.14422278 -0.4404536 -0.0449992 -0.2869047 -0.016142843 0.13647625 0.09157897 -0.16016337
Frontdoor 0.14240575 0.19017427 0.13952355 0.11668603 0.029414037 0.26506388 0.40641454 0.2147181 -0.50716895 0.21735 0.17451893 0.039296858 0.12635145 0.024989415 0.07962156 -0.24423581 -0.23735982 0.41101345 0.08768629 -0.08047204 -0.20893086 -0.20776261 0.10706496 0.37504485 -0.20369285 0.10594732 -0.041698445 0.093067795 -0.13323084 0.5612495 0.06885862 0.31040186 0.21550347 -0.15627667 0.31715786 0.21225959 -0.16587518 0.44272298 -0.25778225 0.09613143 -0.10940593 -0.037182063 0.21706788 -0.0816801 -0.053866953 -0.15266457 -0.36962122 0.23759757 0.024082404 -0.096456945
ToiletDoorDownstairs 0.12781215 0.3733001 0.20517008 0.29541066 -0.13517669 0.22779116 0.53539586 0.19074373 -0.63781977 0.08890595 0.22048047 0.016539045 0.050257448 -0.012153931 0.12939645 -0.31657168 -0.34130263 0.6626921 0.06803056 -0.051209576 -0.23639034 -0.44590297 0.08434383 0.56076354 -0.46379822 0.03666246 -0.016175186 0.19043486 -0.09333063 0.73912066 0.0927951 0.32603645 0.37506366 -0.33252862 0.3414535 0.29822907 -0.18977644 0.595498 -0.25169948 0.10965307 -0.25685683 -0.11457241 0.21894747 -0.23129019 -0.042695493 -0.21453314 -0.40945217 0.22471906 0.07161611 -0.24088763
PlatesCupboard 0.13119909 0.28865975 0.12822643 0.22729442 -0.06523429 0.19089901 0.4152286 0.21156906 -0.4569294 0.09317372 0.23334311 0.032600872 0.0648593 0.02142898 0.14807989 -0.3125191 -0.2906584 0.4682889 0.0915726 -0.04848117 -0.15285946 -0.26832905 0.05376068 0.38982734 -0.3077152 0.08215827 0.002723373 0.14472134 -0.07809249 0.5757693 0.086705305 0.29723424 0.31864864 -0.20938724 0.2601003 0.2840531 -0.17849398 0.47305277 -0.17818736 0.1528874 -0.19015339 -0.106427126 0.21641988 -0.19986561 -0.0680866 -0.08695499 -0.31563234 0.27504247 0.069872595 -0.16213234
BedroomDoor 0.070984274 0.18145339 0.1071603 0.2047407 -0.14366937 0.0862102 0.29243496 0.053030003 -0.27943942 -0.033906672 0.11734713 -0.037669428 -0.045165498 -0.03427652 0.03502951 -0.12931494 -0.1954021 0.35324365 0.01714574 0.04269016 -0.092467844 -0.3540291 -0.00028088136 0.2789228 -0.29521468 -0.05717936 0.015064968 0.15881631 -0.061584026 0.31565946 -0.0065584322 0.15108487 0.22602208 -0.19916783 0.13870952 0.08493433 -0.09200143 0.23713595 -0.07503758 0.031820145 -0.1496787 -0.11635233 0.077201314 -0.09294916 -0.024067905 -0.0753254 -0.14981778 0.057721972 0.03685688 -0.1515799
Dresser 0.044693172 0.46680114 0.31128004 0.45244694 -0.25984308 0.09130738 0.37657154 0.02334905 -0.34310842 -0.14949198 0.13087918 -0.07116604 -0.09946325 0.017206218 0.07290652 -0.19915059 -0.40302214 0.691022 -0.0034085733 0.11262968 -0.16791591 -0.65834826 -0.052554566 0.4666527 -0.5841562 -0.118040964 0.11648479 0.21293655 0.02588616 0.62701505 -0.020973127 0.22993551 0.36368275 -0.39225256 0.18688981 0.11739164 -0.1275564 0.46863028 -0.07511621 0.11907087 -0.27421874 -0.24282876 0.10194571 -0.31598413 -0.053355526 -0.1741947 -0.17320535 0.19346073 0.08845673 -0.27995774
ToiletFlushDownstairs 0.06536202 0.23251767 0.12696233 0.18805647 -0.06921608 0.14145754 0.33552778 0.107503586 -0.38380453 0.055309534 0.13092406 0.001553304 0.028672334 0.0027135762 0.07716654 -0.19355747 -0.21253592 0.3977861 0.04756065 -0.016873522 -0.15593973 -0.29159033 0.036879253 0.34434348 -0.2698809 0.012565261 -0.0046669664 0.11583548 -0.051586732 0.4462901 0.05369856 0.19101389 0.21863483 -0.2094797 0.19933133 0.16685976 -0.12686652 0.36014172 -0.15508734 0.06499967 -0.13062721 -0.07344203 0.13564608 -0.137473 -0.031436123 -0.13928938 -0.2288857 0.1280141 0.05470096 -0.13877237
BedLeft 0.101800166 0.24860266 0.10574936 0.33343926 -0.31785503 -0.023256814 0.46770445 0.034025367 -0.37631544 -0.20329183 0.21223538 -0.069778465 -0.10662015 -0.1579256 0.047890045 -0.20758207 -0.29108244 0.57147866 0.0370525 0.08044312 -0.03648181 -0.59944963 -0.04776143 0.40216127 -0.47936574 -0.11277566 0.012895005 0.3065046 -0.09943747 0.36017376 -0.076438986 0.19032003 0.36607948 -0.31835347 0.23928037 0.14584264 -0.1080252 0.31644598 -0.09217613 0.06745102 -0.3043834 -0.1942223 0.015689414 -0.1398777 -0.015503702 -0.060850598 -0.15107636 0.07082847 0.056132667 -0.31306118
ToiletFlushUpstairs -0.013348957 0.45486578 0.3697961 0.3696123 -0.053454693 0.2125503 0.079697095 0.04009252 -0.14785165 0.027664352 -0.050521635 -0.0070668953 -0.034509104 0.24534151 0.07277131 -0.07428377 -0.35256058 0.44863346 -0.04745065 0.095586404 -0.25975195 -0.35241002 -0.024496144 0.31458113 -0.37045243 -0.044241358 0.17444372 -0.0038424083 0.14502928 0.6166186 0.07539986 0.17707343 0.14520209 -0.27575693 0.021913562 0.05495526 -0.075673684 0.4282371 -0.016700635 0.11744811 -0.09436874 -0.1914077 0.19702823 -0.3633263 -0.067158334 -0.22732365 -0.15500493 0.24451704 0.08012798 -0.07827017
CupboardCups 0.0957249 0.25413615 0.13371721 0.21489778 -0.067821145 0.1376952 0.35395682 0.13483769 -0.36431408 0.05794647 0.18787043 -0.001640444 0.02893117 0.010938474 0.09717724 -0.23924795 -0.2571657 0.40284812 0.05808947 -0.023629302 -0.13418806 -0.27941504 0.027986385 0.3429256 -0.28653046 0.043627296 0.01767956 0.14149725 -0.05294485 0.47965205 0.0592312 0.24078123 0.25543308 -0.19448334 0.20441437 0.21688317 -0.13228612 0.37153557 -0.13229764 0.12592748 -0.17933567 -0.1023381 0.15454262 -0.17722589 -0.0525769 -0.08963125 -0.25989515 0.21140206 0.059466302 -0.15811911
Microwave 0.087441534 0.2555058 0.10972288 0.25681937 -0.1611281 0.062412236 0.33471322 0.09565429 -0.31281033 -0.038785215 0.17548525 -0.018176638 -0.055569343 -0.03914333 0.06388731 -0.20923905 -0.2436195 0.45746064 0.034580525 0.017962743 -0.081561245 -0.35694033 -0.013712083 0.34758785 -0.35831055 -0.018747855 0.022168934 0.19327942 -0.044410337 0.41137895 -0.0028944183 0.17164479 0.28843877 -0.24586958 0.16058308 0.18896393 -0.107382655 0.34345424 -0.07935624 0.08280162 -0.21329065 -0.14322177 0.09288709 -0.16555339 -0.050085187 -0.076428555 -0.1845293 0.14411208 0.044378243 -0.21284695
Freezer 0.08200189 0.25018582 0.11108496 0.23589392 -0.12781656 0.089954585 0.3033346 0.0980675 -0.32162988 -0.04122755 0.15126029 -0.024960944 -0.02901294 -0.018776847 0.07741684 -0.2027878 -0.24624346 0.44178835 0.02636067 0.0030165608 -0.09632534 -0.32598245 -0.002126953 0.34369734 -0.30931497 -0.0009232471 0.023822226 0.13437839 -0.03236774 0.4178985 0.007977752 0.19416738 0.24768071 -0.22535847 0.17429686 0.19078101 -0.10194233 0.36250353 -0.106409535 0.09830662 -0.20904152 -0.12518312 0.0896157 -0.18318956 -0.028469468 -0.08687858 -0.20065369 0.17093594 0.062266506 -0.16723076
Saucepan 0.0832892 0.22694446 0.11598358 0.1995423 -0.07340716 0.10098848 0.26043043 0.09690014 -0.2835724 0.017192636 0.12728912 -0.0021407458 0.0057667373 0.0074212374 0.083997816 -0.19929138 -0.22377399 0.37308532 0.041018184 -0.015768271 -0.110237 -0.24505289 0.020569086 0.28744993 -0.25993937 0.01060197 0.017834738 0.10442831 -0.027835788 0.3935042 0.035387788 0.1846578 0.20900293 -0.17860998 0.1560059 0.17248002 -0.102994554 0.33469018 -0.0944565 0.09406757 -0.16427653 -0.112350896 0.12542443 -0.14799127 -0.047401685 -0.08608899 -0.20164593 0.16351873 0.048717994 -0.12367276
GarbageBin 0.028862989 0.13855894 0.09747295 0.124787696 -0.03967868 0.07240639 0.10059442 0.04201122 -0.13417661 -0.0011322924 0.03521384 -4.6894682e-05 -0.005913613 0.045269687 0.051593706 -0.07747234 -0.12382083 0.19872458 0.0070500295 0.007204165 -0.07444877 -0.13914259 0.011661691 0.1523581 -0.15248044 0.004119329 0.029755473 0.03601071 0.018611373 0.22262856 0.014566535 0.08914659 0.09127714 -0.112080604 0.05583331 0.06716901 -0.04093034 0.18212001 -0.029313195 0.047446303 -0.073789306 -0.07039519 0.06277872 -0.11808621 -0.024965812 -0.06937733 -0.09566741 0.10146826 0.024732012 -0.070602626
