21 50
BedRight 0.34387907 0.538849 0.72639745 0.37406424 0.09176721 -0.014724235 -0.31922007 -1.1568166 0.39512563 -0.15282452 -0.3552778 0.6235221 -0.5542223 -1.4274204 -0.7120898 1.121929 1.1588833 1.249539 0.0018721656 -0.24280535 1.1775761 1.0480453 -0.44420934 -0.8719359 0.23482361 0.20723364 0.8981131 -0.81978923 -0.75571144 0.5542154 -0.005018602 -0.78931075 0.69949114 1.2281281 0.1997938 0.88504857 0.57878566 0.25026295 -0.37210205 1.2606472 -0.10351033 1.4261843 -0.7635116 -1.2569387 1.0251963 0.48866487 -0.49827743 1.1756122 0.44696262 0.20617187
Bathtub -0.12934458 -0.37439623 0.13630906 -0.65096664 0.0041934974 0.07328038 0.20928377 0.27632138 0.6663277 0.0013768248 0.39110932 -0.45889482 0.37272298 -0.06651778 0.8414141 -0.2980385 -0.34458628 -0.32975295 0.70091414 0.12534176 0.013688685 0.4862184 0.35710105 0.14190432 -0.15224215 0.55254924 0.23481803 -0.6804991 -0.4866906 -0.26881918 0.029526122 -0.5907969 -0.6502758 -0.1949335 0.72639185 -0.23132502 -0.06804503 0.6033885 -0.5360298 -0.21497683 -0.4962697 -0.03346686 0.648084 0.40616786 0.059527975 0.15167467 0.47261125 0.050155785 0.8025604 -0.2075133
Couch -0.41002908 0.4375712 0.21724993 0.18804462 0.2886832 0.11660476 -0.011709729 -0.060713623 -0.2976032 -0.20641325 -0.23846385 0.29514045 0.20420235 0.37589276 0.22767033 -0.45017105 0.1023877 0.06492589 -0.115965754 -0.31888986 0.30898318 -0.34669077 0.10017077 -0.39983487 -0.49493554 -0.5115908 -0.048364643 0.1572468 0.64222175 0.2188426 0.26768938 0.13407755 0.3202497 0.06373973 0.3657958 -0.39050668 -0.13216889 0.2645816 0.44750243 -0.15539658 -0.35066321 -0.18002503 -0.21800502 -0.3170308 0.5484075 -0.2985912 0.050136365 0.123102814 -0.50900614 -0.17971888
BathroomDoor -0.25733578 0.00042834366 0.17085227 -0.16933064 0.15911596 0.119069785 0.10198459 0.16868475 0.21132334 -0.107317574 0.006866556 -0.092697635 0.22374332 0.06949524 0.5407613 -0.3454083 -0.1326635 -0.13455181 0.27285394 -0.13246465 0.2110295 0.09950413 0.24220271 -0.14102404 -0.38185203 0.111945644 0.07231896 -0.3098322 0.006363754 -0.035868615 0.11380492 -0.19208883 -0.1955848 -0.034509003 0.5519286 -0.37628266 -0.09306511 0.50553834 0.0030174742 -0.17927124 -0.39669928 -0.17307766 0.22832748 0.052461922 0.35353765 -0.004905111 0.3012802 0.15886359 0.22072303 -0.17186697
Fridge -0.24973902 0.26374778 0.23976658 0.11993274 0.27365294 0.068077154 -0.0042400714 -0.008760832 -0.087717496 -0.1141479 -0.16189545 0.092892125 0.16666374 0.120152265 0.40704972 -0.306976 0.044250764 -0.02916022 -0.11050936 -0.30505875 0.21089177 -0.056135636 0.07382018 -0.31197444 -0.43753338 -0.16552444 0.03860831 -0.06836889 0.2972401 0.14070554 0.21572804 -0.034570932 0.09990502 0.1690202 0.40981755 -0.49377093 -0.08463963 0.39738804 0.28486693 -0.025226416 -0.33534428 -0.22590618 -0.080921456 -0.25844333 0.49350917 -0.18622681 0.2513302 0.27535635 -0.058747903 -0.1579107
Cutlery -0.27132457 0.2278496 0.22117977 0.11026986 0.30062813 0.03745074 -0.006158583 0.038808905 -0.07074295 -0.13561004 -0.14388114 0.046724126 0.20445466 0.11745974 0.47227105 -0.30961046 0.02789296 -0.07947591 -0.1153017 -0.32323894 0.16799161 -0.070612684 0.06668113 -0.28226185 -0.45201665 -0.15844193 0.03252062 -0.061174497 0.27525166 0.123220526 0.20625782 -0.059824996 0.06335712 0.16191836 0.4242602 -0.557205 -0.10760016 0.40419328 0.28085202 -0.019323055 -0.35749 -0.2599994 -0.07805078 -0.22850785 0.47031826 -0.2131418 0.29858065 0.2840955 -0.007657073 -0.19562295
Keys -0.071718566 0.24606298 0.32662767 0.21453227 0.41906655 0.2036901 0.10832596 0.042949803 -0.15667711 0.010222363 -0.42179665 0.27876556 0.0016453634 -0.2876212 0.37130678 -0.25548407 -0.08038923 0.26126045 -0.10724644 -0.45299256 0.46352193 0.10024852 0.07356041 -0.61819553 -0.59759533 0.07650332 0.24614647 -0.3641404 0.034864318 0.07993624 0.32664207 -0.21820508 -0.008432332 0.4146256 0.70817727 -0.5654376 -0.20509973 0.6810517 0.30170766 -0.0664615 -0.575884 -0.16998217 0.011834036 -0.34248725 0.7779799 0.03327545 0.29637066 0.43818268 0.09970364 -0.08204945
SinkTop -0.28728646 -0.050098997 0.16081457 -0.25792155 0.18937086 0.13394754 0.11065856 0.25583914 0.2974 -0.06582459 0.061009783 -0.19705804 0.32420927 0.08664279 0.6840788 -0.40604788 -0.2223037 -0.20915614 0.36566746 -0.12850077 0.18615451 0.14613837 0.2684289 -0.11949649 -0.39292184 0.1796673 0.10881254 -0.38734323 -0.027650872 -0.08079617 0.13504334 -0.23533706 -0.3108448 -0.09796957 0.6765441 -0.43943533 -0.14766382 0.595897 -0.038025033 -0.24102402 -0.47467571 -0.21214767 0.36398283 0.1539534 0.33431527 -0.008106855 0.43170908 0.16239119 0.322356 -0.18515803
Frontdoor -0.27619064 0.2309198 0.27198052 0.03739978 0.24163772 0.08601792 0.032495067 0.004799266 -0.050792396 -0.12687042 -0.1676204 0.102146454 0.2124972 0.11540218 0.4588969 -0.37036756 -0.045141064 -0.048809934 0.05554838 -0.27384406 0.25499013 -0.009959184 0.15178019 -0.30850312 -0.4893456 -0.12864244 0.058791377 -0.14753887 0.2797422 0.11153365 0.21907559 -0.100522734 0.03791678 0.11195154 0.522696 -0.4472762 -0.122946545 0.46824875 0.22816312 -0.073261276 -0.4208212 -0.19366689 -0.050851777 -0.23464715 0.5344124 -0.17383467 0.24387068 0.26481858 -0.07554469 -0.16045554
ToiletDoorDownstairs -0.39003363 0.22742736 0.31744695 -0.03500276 0.29149398 0.096222855 0.08069501 0.06590025 0.015512569 -0.16184181 -0.16696309 0.062338293 0.2928685 0.08776709 0.67185915 -0.47802207 -0.09857083 -0.090540335 0.14309801 -0.36936665 0.35693774 0.055589166 0.19138397 -0.38636592 -0.6314439 -0.11570899 0.063137375 -0.27694544 0.3020022 0.119724825 0.25246018 -0.19702895 -0.005887532 0.1477772 0.7095102 -0.57440877 -0.12595335 0.6487021 0.2227647 -0.119003534 -0.5578569 -0.22080003 0.00047760896 -0.24014005 0.6711053 -0.19425236 0.33961266 0.33881682 0.03735256 -0.19992831
PlatesCupboard -0.24111944 0.20849839 0.25961116 0.048880808 0.25763234 0.054114405 0.020719688 -0.0028498687 0.0015209301 -0.10246516 -0.1469489 0.049039017 0.16671342 0.030901715 0.41313106 -0.2515182 0.03508026 -0.015161757 -0.0128515195 -0.2839275 0.26162735 0.04148061 0.07598137 -0.29253957 -0.40626034 -0.09846779 0.07136421 -0.17888446 0.17383967 0.0950935 0.17165683 -0.12700124 0.02793442 0.16902538 0.4502404 -0.41967663 -0.054065872 0.42043588 0.18199717 0.0075887414 -0.36045706 -0.14596418 -0.042174816 -0.20725764 0.4754808 -0.12468261 0.25764808 0.28054282 0.056370962 -0.15220353
BedroomDoor -0.14135239 0.06674896 0.16918959 -0.032663614 0.121860005 0.06696375 0.031149518 0.03986946 0.10503947 -0.07699927 -0.04247346 0.015250431 0.10827285 -0.017523967 0.29659235 -0.16349006 -0.01648329 -0.012580549 0.12413785 -0.11675365 0.20783399 0.0834407 0.123297654 -0.1613656 -0.25987256 0.02432859 0.087091304 -0.18875344 0.021516252 0.034468733 0.10198333 -0.14727105 -0.05939133 0.06914852 0.35839173 -0.19974652 -0.03308605 0.32369477 0.04027007 -0.0438212 -0.26811463 -0.042115714 0.053779803 -0.07257869 0.29698032 -0.015306273 0.1591877 0.1681374 0.085321814 -0.08416201
ToiletFlushDownstairs -0.27971777 0.16098797 0.2538454 -0.0041453284 0.22145951 0.06815204 0.054406844 0.046400726 0.015552048 -0.12715137 -0.1407173 0.03491846 0.20683864 0.053985834 0.50226426 -0.34546003 -0.07565325 -0.06681112 0.10749367 -0.27926177 0.2770959 0.037878342 0.15427893 -0.30108362 -0.46113327 -0.078747526 0.04277451 -0.21600181 0.2204579 0.06795743 0.20258622 -0.12363367 0.005866132 0.103321254 0.5161401 -0.4459009 -0.11166503 0.48286027 0.15968081 -0.09069478 -0.4056995 -0.17547621 0.0076660933 -0.18684895 0.4937185 -0.13406448 0.26221052 0.2536993 0.03377595 -0.13642405
Dresser -0.30825844 0.15391864 0.37680823 -0.08987604 0.29122487 0.15488267 0.07007286 0.12786238 0.21403636 -0.14599231 -0.110554256 -0.015541513 0.28037614 -0.039254006 0.70834273 -0.3930336 -0.056555495 -0.060213976 0.26976794 -0.27842137 0.3989307 0.21280017 0.25274712 -0.3538249 -0.5730182 0.08942291 0.20595327 -0.4745359 0.05213105 0.04215326 0.22912247 -0.320556 -0.164966 0.16642767 0.82388973 -0.5286675 -0.122521505 0.75271463 0.055729687 -0.07530634 -0.627719 -0.12548573 0.1943991 -0.12962715 0.6507494 -0.017570738 0.42910078 0.38251853 0.25675994 -0.2064048
BedLeft -0.1947396 0.185207 0.35928512 0.012862584 0.24818802 0.12905452 0.003431334 -0.020059977 0.17173168 -0.11965541 -0.13985732 0.08197147 0.10654271 -0.1772061 0.43795505 -0.18182875 0.08441474 0.117833845 0.17281151 -0.25995663 0.4483981 0.25692758 0.14477488 -0.37416738 -0.42644227 0.051338695 0.25014403 -0.4182087 -0.02696101 0.08566108 0.15898165 -0.31992415 -0.04450125 0.27034658 0.62490046 -0.29396844 -0.026410207 0.5681368 0.053537525 0.08985469 -0.47314027 0.05582331 0.04531076 -0.25657436 0.62083954 0.0507549 0.25669685 0.41527185 0.21733667 -0.12064601
ToiletFlushUpstairs -0.21007523 -0.001395282 0.15598081 -0.1603548 0.1552702 0.098491065 0.08677559 0.1549655 0.18796113 -0.063459314 0.026459483 -0.11095444 0.21213192 0.048081867 0.5091896 -0.30438673 -0.14270139 -0.13788588 0.23768948 -0.12041858 0.13745844 0.10268422 0.20172432 -0.11416044 -0.3239459 0.10807963 0.08695655 -0.27283952 0.00595222 -0.04268215 0.12529488 -0.19239746 -0.20512924 -0.018378982 0.49859804 -0.3469558 -0.09747743 0.4525945 -0.020561798 -0.15552731 -0.37272218 -0.16393788 0.21718167 0.057163082 0.28218585 -0.014841941 0.28667483 0.14836013 0.20655157 -0.15241556
CupboardCups -0.19870317 0.14416936 0.20189968 0.015406276 0.21505475 0.058229327 0.02811407 0.031312834 0.013620776 -0.09518916 -0.09820352 0.03697146 0.14772311 0.046366014 0.37037256 -0.2504286 -0.00975644 -0.03387362 0.014351516 -0.22196102 0.20033197 0.02718313 0.102446474 -0.2433681 -0.3622849 -0.05487595 0.06949004 -0.15503368 0.15280682 0.068944335 0.15244111 -0.10586294 -0.008809363 0.121611305 0.41217402 -0.37750617 -0.07922259 0.36534417 0.1374757 -0.028925035 -0.33128312 -0.12848206 0.0011536262 -0.15179561 0.39004904 -0.09430588 0.22793843 0.23332638 0.052673727 -0.12320546
Microwave -0.20646061 0.1474315 0.21284106 0.0016095146 0.20444383 0.06967294 0.017319767 0.016664574 0.035452694 -0.09262567 -0.10795497 0.044925466 0.13932495 0.0015785303 0.37520838 -0.22647962 -0.0052587725 0.0017258213 0.061401878 -0.22153306 0.24548079 0.068868175 0.10266987 -0.25328937 -0.35924044 -0.043234996 0.08519628 -0.201542 0.128608 0.072583355 0.17000547 -0.13953543 -0.013050489 0.13362736 0.4425278 -0.3545843 -0.07915788 0.40620688 0.123689234 -0.03041917 -0.35003117 -0.111572154 0.0068662637 -0.17428492 0.4178405 -0.073503174 0.2187305 0.23874281 0.06512733 -0.13799587
Freezer -0.14482686 0.11924527 0.19566126 0.006972531 0.17653722 0.07738178 0.041029572 0.010440774 0.05315469 -0.073117584 -0.092251584 0.0508876 0.11388012 -0.035949957 0.3152102 -0.17803702 -0.009187488 0.02595653 0.06454182 -0.19055855 0.21286154 0.08785622 0.08228981 -0.23051365 -0.30833435 0.014633167 0.09807975 -0.21298668 0.042977422 0.06023021 0.135108 -0.14050543 -0.019339668 0.14282833 0.38357985 -0.28732973 -0.06502108 0.36399594 0.084854946 -0.021426871 -0.30148354 -0.05916526 0.035018682 -0.14852287 0.38122028 -0.022551615 0.18283369 0.22506775 0.0919317 -0.1066009
Saucepan -0.14155741 0.12278889 0.18287396 0.0065049333 0.17299332 0.07460097 0.03508199 0.00037918123 0.04311264 -0.07004736 -0.08125426 0.03488394 0.111822896 -0.01620096 0.30253264 -0.16626352 -0.004418434 0.02451628 0.061763026 -0.18180399 0.201749 0.069053225 0.08424845 -0.22578704 -0.2900361 -0.0016099571 0.08619528 -0.17603056 0.07783572 0.04872378 0.1366262 -0.1353975 -0.013451974 0.1234589 0.37519756 -0.26851454 -0.04495039 0.3476335 0.07921156 -0.005886739 -0.28743407 -0.054149423 0.009868446 -0.1390553 0.35599628 -0.037149552 0.18330763 0.22010228 0.07698396 -0.093121715
GarbageBin -0.10406726 0.06655071 0.10386653 -0.016198464 0.10503381 0.043008663 0.014989945 0.012566705 0.030269383 -0.046710767 -0.046141487 0.00860689 0.07441558 0.008646269 0.19372956 -0.12633133 -0.003924035 -0.011189371 0.039997056 -0.09789706 0.12357119 0.047209408 0.06531348 -0.13131121 -0.17473802 -0.0040859124 0.045058638 -0.107428536 0.046254538 0.026292967 0.06859228 -0.072319955 -0.020225378 0.058637146 0.22680894 -0.1808173 -0.028606476 0.2102062 0.05065982 -0.01070042 -0.18230167 -0.052744046 0.013316772 -0.05902866 0.20591934 -0.039658207 0.118368305 0.11395263 0.058163006 -0.07280651
