21 50
BedRight 0.3655076 0.008716671 -0.6405405 0.5396743 0.3581954 -0.6674967 -0.05712365 1.1173366 -1.2981973 0.6628617 0.16584165 -0.46920136 -1.2131697 0.7412552 1.1191777 -1.3450222 1.270756 -1.1998618 -0.54682386 0.56880367 -1.2009333 0.821367 -0.46913487 -0.23450461 0.9430482 0.35599506 0.36345947 -0.23877078 1.351562 0.69090724 0.5044327 -0.17304651 -0.6999531 0.95525473 -0.376776 1.1225277 -0.14025536 -0.55051273 0.87813723 0.19290176 -0.12602659 -0.9795868 -0.06904975 0.92293304 -0.25398937 -1.2164373 -0.5473704 -1.2298781 0.049184933 -0.2463707
Bathtub -0.5572521 -0.40565243 -0.5644328 -0.28462395 -0.29283097 0.31813893 0.4099549 -0.3727486 -0.17434886 -0.20907629 0.48479697 0.5128612 -0.17150444 0.05573642 -0.62321025 -0.28835264 0.28585544 0.25297278 -0.5126113 -0.7539008 -0.47213334 -0.87041384 1.0600619 -0.12606457 0.38863236 -0.08724894 -0.05069002 -0.59588534 -0.116002426 0.99290776 -0.17950907 -0.56928223 -0.35977036 -0.57650405 -0.5600751 0.39394102 0.7689977 -0.17136373 0.14413007 -0.6917169 0.6438064 -0.2523349 0.5814548 -0.019871062 -0.41007 -0.21730432 -0.54844236 0.22336574 0.2787587 -0.092745624
Couch -0.14117399 -0.15734023 0.47909683 -0.14967553 0.22742689 0.042521976 -0.6060044 0.337746 -0.06148539 -0.091768675 -0.03483346 -0.06692202 0.28166345 -0.6077219 0.17974946 0.4230875 -0.090303995 -0.20170473 0.606677 0.20299718 0.13883837 0.38664836 -0.4093843 0.51083195 0.09006915 -0.20470762 0.13114868 0.092903614 -0.27208495 0.3433775 0.2780568 0.09045628 0.22439936 0.33979496 0.28018504 -0.19602117 0.036860146 0.5441359 0.07082953 0.52424806 -0.114044644 -0.35559857 -0.37793103 -0.24442326 -0.0472143 -0.2116568 -0.3746942 0.2651158 -0.21996407 0.28159538
BathroomDoor -0.3268197 -0.25775924 0.0048592016 -0.28477302 -0.014429589 0.26894394 -0.097962715 -0.08511819 -0.025615213 -0.18119554 0.16181815 0.24210358 0.1007485 -0.34572715 -0.20724764 0.17389943 0.06629282 0.08597895 0.09825123 -0.29295677 -0.09781488 -0.32368845 0.3633029 0.22101861 0.16964605 -0.23482583 -0.015986918 -0.27080885 -0.24835424 0.63348025 0.044260632 -0.17237513 -0.031043552 -0.20851782 -0.15055834 0.01548142 0.39856476 0.26272556 -0.0052666175 -0.10249264 0.22226495 -0.2578796 0.10534859 -0.1278931 -0.16296946 -0.12775841 -0.42619458 0.30961943 0.017474912 0.07489856
Fridge -0.18831022 -0.21192877 0.29892915 -0.37449998 0.3230401 0.2088259 -0.42430848 0.20634557 -0.08410672 -0.1430497 0.07133717 0.09174031 0.22108749 -0.55888224 0.1738646 0.37254268 0.14487016 -0.09124496 0.35262713 -0.025501199 -0.10544426 0.0701698 -0.0076638325 0.415549 0.14322327 -0.38704744 0.07485273 -0.14776145 -0.19900344 0.6791777 0.22576185 0.009378485 0.12334666 -0.016632486 -0.17188004 -0.20049801 0.3213783 0.49782372 -0.042113986 0.30261075 0.001561074 -0.5096686 -0.12272525 -0.27787545 -0.05044088 -0.2125558 -0.45011503 0.25161973 -0.118603595 0.16467193
Cutlery -0.13995099 -0.18978946 0.27392367 -0.36331266 0.38118595 0.2159322 -0.4225706 0.20658815 -0.115221165 -0.09889816 0.060977936 0.051943123 0.20265524 -0.5641076 0.25085217 0.3407019 0.13582927 -0.14873083 0.36397204 0.0011600775 -0.15969384 0.118463755 0.015943887 0.43853447 0.10500672 -0.39807096 0.04220807 -0.19658111 -0.14272805 0.68628854 0.22462657 0.020856729 0.11182675 -0.0051876325 -0.20635563 -0.20978217 0.30396652 0.5277637 -0.033393186 0.32816637 0.004156652 -0.52174026 -0.13696803 -0.23004639 -0.046730004 -0.1846004 -0.44136843 0.21316522 -0.10550569 0.16198875
Keys -0.21974343 -0.27844062 0.24903731 -0.4751024 0.38759166 0.06478451 -0.4890736 0.37142637 -0.05666354 -0.12257424 0.025541995 0.226693 0.15763299 -0.42288822 0.34302136 0.27957264 0.42495888 -0.04582037 0.22755648 -0.0049426616 -0.09827657 -0.015894558 -0.08074535 0.30445036 0.36838496 -0.45023933 0.1378665 -0.1123832 -0.04677955 0.82952297 0.2823298 -0.042107273 0.08123475 -0.05475741 -0.3487057 -0.10353408 0.47444287 0.44201195 0.028167037 0.25389516 -0.15400605 -0.6690928 -0.00810324 -0.3102409 -0.028819593 -0.4722283 -0.4595379 0.22428618 -0.090877146 0.13650714
SinkTop -0.4310141 -0.34983665 -0.06263712 -0.35835025 -0.02481056 0.34049484 -0.081867166 -0.13751881 -0.0035907223 -0.21427651 0.23425038 0.3240442 0.11927619 -0.40029636 -0.29456255 0.1983856 0.07401993 0.12897071 0.040933084 -0.3804628 -0.17935604 -0.43909198 0.52521116 0.19372244 0.19429943 -0.31220612 -0.030693742 -0.36864787 -0.28462812 0.8076242 0.036281135 -0.27770457 -0.0202321 -0.31163567 -0.28723773 -0.0031386204 0.5619655 0.28275827 -0.012499883 -0.19078821 0.29802275 -0.3248144 0.1695442 -0.17992303 -0.19535714 -0.14430343 -0.49111244 0.37737215 0.04297058 0.10675773
Frontdoor -0.20876253 -0.21549219 0.2912088 -0.28052458 0.23152432 0.122262344 -0.41453743 0.20205317 -0.04298253 -0.12589149 0.025113197 0.101242445 0.20385522 -0.4756558 0.08251446 0.32252997 0.072361186 -0.0915599 0.3726449 0.021629563 0.017501457 0.09980433 -0.08707683 0.3658504 0.12703033 -0.2934012 0.06771672 -0.07553208 -0.21637899 0.5179462 0.2130392 -0.0063167578 0.10379202 0.065178305 0.00534522 -0.1285227 0.23470807 0.43134594 0.022159347 0.26455787 -0.02205897 -0.41652095 -0.1566102 -0.25027302 -0.07506043 -0.24174055 -0.382555 0.24789485 -0.11168348 0.16021186
ToiletDoorDownstairs -0.36116043 -0.34625882 0.24505994 -0.39224318 0.24363315 0.23763007 -0.4198751 0.17359103 -0.14902803 -0.18686667 0.10771667 0.2236513 0.19726883 -0.58239514 0.0033060275 0.336787 0.20859827 -0.07976762 0.3386576 -0.14243123 -0.12436456 -0.059557192 0.09723767 0.44219935 0.25478926 -0.38006097 0.09053801 -0.25400427 -0.24875595 0.9266094 0.27089947 -0.079715654 0.028518887 -0.027331192 -0.14986658 -0.09193533 0.4794545 0.48463157 0.078758664 0.20793858 0.13293985 -0.6091636 -0.109686665 -0.29734728 -0.16968386 -0.3804491 -0.6399485 0.33439654 -0.10102364 0.17320772
PlatesCupboard -0.19813055 -0.22337896 0.2079947 -0.32882628 0.26591668 0.19122496 -0.34694585 0.17962952 -0.118114434 -0.1128319 0.10425375 0.108529694 0.1226243 -0.45587155 0.12647429 0.26087242 0.19600351 -0.09977525 0.24337251 -0.07131742 -0.15981178 0.0064563937 0.080036975 0.35905394 0.18066083 -0.33401927 0.07823045 -0.20129454 -0.13072006 0.6966982 0.21896504 -0.053341445 0.043678455 -0.014427064 -0.2005966 -0.102457196 0.3368271 0.41875675 0.011144749 0.223422 0.03064164 -0.499646 -0.06520789 -0.20633984 -0.090138294 -0.24396385 -0.47047132 0.18681674 -0.069887795 0.14470623
BedroomDoor -0.15967828 -0.1724612 0.07747613 -0.17612264 0.101891175 0.11201923 -0.17758794 0.103204 -0.09735628 -0.06591572 0.07808649 0.08480717 0.036890246 -0.25238097 0.029515972 0.10996788 0.14420572 -0.06262404 0.14379233 -0.058598805 -0.123105206 -0.055009387 0.08684245 0.20567515 0.1553987 -0.16833815 0.037126046 -0.14150324 -0.0771071 0.47114074 0.13048303 -0.07070426 -0.0011566657 0.005329469 -0.1026318 0.009805388 0.2089497 0.2186354 0.044891346 0.087954074 0.054262556 -0.3013907 -0.036992162 -0.055609062 -0.107696764 -0.20386438 -0.3249466 0.1338681 -0.0402723 0.06402592
Dresser -0.39367747 -0.36412412 0.05957507 -0.40292415 0.16985542 0.3057215 -0.22301495 0.078704506 -0.18974052 -0.19630027 0.22699806 0.25865588 0.07565846 -0.4683693 -0.06262496 0.19835079 0.3233606 -0.03259394 0.14385471 -0.2960033 -0.29312816 -0.28923288 0.41186795 0.3494226 0.32349464 -0.39631015 0.030818246 -0.3526966 -0.19604099 1.0296905 0.19708483 -0.24000165 -0.03892257 -0.16187741 -0.3670255 0.039635304 0.57946086 0.39953506 0.052597426 -0.0070024566 0.21136664 -0.5814932 0.07865092 -0.14896467 -0.24873415 -0.3807467 -0.6751733 0.29858074 -0.0026858903 0.084163114
ToiletFlushDownstairs -0.24666585 -0.24292238 0.19589545 -0.29660118 0.16174957 0.16955417 -0.29617292 0.09560185 -0.06903226 -0.15301065 0.06734907 0.15501568 0.17323771 -0.4326298 -0.003848532 0.2749468 0.10399837 -0.022259532 0.2747832 -0.09723132 -0.06730697 -0.05574327 0.076078124 0.3150623 0.15960546 -0.27189475 0.04917263 -0.145153 -0.21789582 0.61625564 0.17158887 -0.040643685 0.048601016 -0.021305008 -0.098837726 -0.09602043 0.32798183 0.36433843 0.030360993 0.15204006 0.069979325 -0.38918763 -0.083234444 -0.2294028 -0.09017113 -0.23514876 -0.42261177 0.25037178 -0.07228941 0.12360858
BedLeft -0.23463023 -0.26241225 0.010400859 -0.23957165 0.1942896 0.16072576 -0.19109558 0.18337032 -0.27660507 -0.06702786 0.16265766 0.12148523 -0.06315526 -0.285678 0.094665445 0.01980873 0.39250767 -0.17174217 0.07700348 -0.1231655 -0.3466728 -0.10792139 0.2236558 0.2520137 0.33472884 -0.2794165 0.07065399 -0.27800694 0.014158895 0.84790003 0.21290955 -0.16887516 -0.07697363 0.015762445 -0.30668455 0.12425636 0.4037479 0.27023706 0.11887527 0.065667406 0.12274591 -0.54124826 0.014087623 -0.0066163237 -0.19255134 -0.43075705 -0.56341314 0.068597555 -0.015003222 0.028443553
ToiletFlushUpstairs -0.3103063 -0.27424145 0.047789603 -0.31524673 0.045802347 0.25956377 -0.12931943 -0.055711806 -0.017516667 -0.18401591 0.16329063 0.25073493 0.13016954 -0.36748046 -0.16897948 0.22105497 0.074464925 0.08703052 0.11529715 -0.26688814 -0.10090318 -0.29426673 0.34349197 0.22119558 0.16059655 -0.26982233 -0.011084824 -0.26245487 -0.24769749 0.63751 0.049659256 -0.16850987 0.011322263 -0.21843874 -0.1959459 -0.033493944 0.41192108 0.28059724 -0.0064865802 -0.05694818 0.19743718 -0.291254 0.09144077 -0.17280959 -0.15045445 -0.14444195 -0.42255932 0.31549984 0.0015534132 0.09502294
CupboardCups -0.17373003 -0.20641024 0.1387583 -0.26919204 0.20330559 0.16249056 -0.26688853 0.13380785 -0.10129978 -0.09727803 0.08350707 0.11346137 0.10402296 -0.3815428 0.074906744 0.19847624 0.15645584 -0.07598778 0.19835748 -0.07107552 -0.12929343 -0.015452657 0.09990914 0.2919262 0.15875807 -0.27683237 0.04838733 -0.17980695 -0.114952266 0.5975012 0.17043832 -0.054083616 0.03080734 -0.037073746 -0.17721233 -0.06650105 0.28556222 0.32761186 0.009221509 0.14263563 0.05731025 -0.40105766 -0.044508625 -0.16078673 -0.09239905 -0.21707883 -0.4005695 0.16701701 -0.051113565 0.11291112
Microwave -0.19090587 -0.23413676 0.12543643 -0.27283806 0.21436471 0.1425298 -0.2743866 0.1794867 -0.1542479 -0.087135434 0.09546212 0.116583794 0.070858784 -0.37877786 0.1094191 0.1639837 0.22164744 -0.12452108 0.20056333 -0.05608028 -0.1816058 -0.0053988774 0.08349232 0.30375934 0.21810412 -0.28611785 0.078651175 -0.19132888 -0.087212436 0.68000126 0.20315695 -0.07170619 -0.0015840913 0.0047560567 -0.20888247 -0.0051761274 0.33891675 0.33700544 0.05363249 0.14832076 0.054910805 -0.46796018 -0.031737756 -0.13346767 -0.120750844 -0.30086 -0.46218982 0.15119052 -0.04904176 0.10635494
Freezer -0.18160765 -0.20180365 0.10849004 -0.24783494 0.16144022 0.12562923 -0.23596668 0.1357847 -0.09740265 -0.09282423 0.07695243 0.12782045 0.07849348 -0.31301856 0.067111686 0.15970665 0.18011674 -0.06131792 0.1651688 -0.08556421 -0.12988052 -0.044643205 0.08410128 0.23789422 0.18016918 -0.24287796 0.050809868 -0.15300602 -0.09222675 0.56169844 0.14847033 -0.07465319 0.007480819 -0.038222197 -0.17348716 -0.021274367 0.28978446 0.28757912 0.03445672 0.10448291 0.058197845 -0.38141608 -0.020029299 -0.14889248 -0.0812865 -0.2313753 -0.36987394 0.15257147 -0.035320397 0.09374085
Saucepan -0.12092062 -0.15087815 0.08699114 -0.17056908 0.13556531 0.08983947 -0.18715335 0.12658158 -0.09892391 -0.06399828 0.06354828 0.06867787 0.031340823 -0.2307208 0.07643943 0.11002676 0.15946558 -0.08231086 0.12583742 -0.03087466 -0.115165636 -0.0002268357 0.043256246 0.17972755 0.15222442 -0.18618609 0.040774483 -0.11743813 -0.042199004 0.4303188 0.12989277 -0.0468791 -0.0076830997 0.00030313246 -0.13729908 -0.0037542118 0.21348394 0.21936113 0.038385607 0.10391129 0.022094248 -0.32262433 -0.021772915 -0.092919454 -0.07073567 -0.20308648 -0.2981066 0.09226585 -0.045907833 0.06010188
GarbageBin -0.104549296 -0.10576302 0.038431574 -0.11639474 0.06238188 0.06728254 -0.08950214 0.04800579 -0.03922238 -0.061314106 0.050643783 0.0632508 0.029843314 -0.16070634 -0.008531855 0.08124707 0.06530918 -0.014317779 0.061035004 -0.06765148 -0.06936406 -0.04316091 0.074634865 0.10973635 0.08906755 -0.107429445 0.027557803 -0.09037019 -0.051854257 0.27246496 0.06904469 -0.038431756 -0.0019155294 -0.03179467 -0.091720626 -0.018555513 0.16046914 0.12870508 0.010393516 0.036227085 0.038485765 -0.17937161 0.008279694 -0.0628516 -0.048593603 -0.10078478 -0.18667124 0.089169376 -0.0042063766 0.050609373
