21 50
BedRight -0.6852821 0.19290295 -0.5646875 0.49222875 -1.7394601 0.38005933 -0.17063335 1.1502131 -0.8271571 -0.25361854 0.024485622 -0.6001746 0.07703837 -0.47987077 -0.30604112 -0.22298057 -1.2900704 0.2458078 1.1567903 -0.9321882 -0.66578126 0.46831727 1.2136801 1.1489844 1.3301135 0.908965 -0.19978516 -0.672773 -0.5091927 -0.6895361 0.64247704 -0.43376565 -1.0791904 0.35581392 0.7871338 -0.76313287 1.3099267 0.033842374 0.3615912 -0.058682527 -0.49292976 1.5895995 -0.52082586 0.55242366 -0.25401032 0.3953127 0.5256364 1.2142693 0.6658312 -0.9392774
Bathtub -0.2115383 -0.46335793 0.73921657 0.50661296 0.30241022 -0.43166736 0.26418865 0.8353224 -0.08969239 0.4490972 0.14770648 -0.31667665 -0.03789569 0.743083 0.38893884 -0.72112846 -0.35763782 -0.42871213 0.09693835 0.18249057 -0.6865232 -0.2219683 -0.121054225 0.1287086 -0.3647437 -1.0258029 -0.5007802 -0.4478451 -0.6629635 -0.26855844 -0.3916897 -0.47325167 -0.36147934 -0.33082232 -0.36334893 -0.621979 -0.7784736 -0.21920614 -0.18434012 0.4755784 -0.18226518 -0.085632615 -0.26092398 -0.08238768 -0.6336308 -0.3316841 -0.7582657 0.24889973 -0.60044616 -0.0835775
Couch -0.025658283 -0.12447854 -0.15931007 -0.24781935 -0.5701683 -0.328854 -0.60606384 -0.39059845 -0.34041134 -0.281688 -0.28570727 0.049323108 -0.40240556 -0.047430683 -0.088953696 -0.005708585 0.4778794 -0.24628447 0.3102566 0.22827974 0.12177317 -0.34347662 -0.093643986 0.17240621 0.1681125 0.17180213 0.3452499 0.88953096 0.24971767 0.21856786 0.020913186 0.027440429 -0.44614306 -0.20406589 0.2320145 0.17187421 -0.17356157 0.6170093 0.15933546 -0.059237238 0.63172454 -0.2624322 -0.20582041 -0.33037826 -0.28897882 0.62996745 0.5028789 0.13185185 0.4554053 -0.13800152
Fridge 0.15545851 -0.109778315 0.14230137 -0.11958368 -0.5647511 -0.24448352 -0.28688902 0.055762008 -0.31079203 -0.27215523 -0.03402999 0.07306214 -0.26239204 0.3211734 -0.05195469 -0.21920241 0.2895729 -0.33989277 0.13932005 0.16981392 0.0136376275 -0.4960574 -0.1705432 0.20611817 0.21626896 -0.32212955 -0.02293283 0.6538691 -0.049100682 0.14279777 0.038103033 0.032137807 -0.5355268 -0.18988208 0.08442717 0.11877137 -0.16745724 0.35465717 0.040572565 0.035708882 0.398638 -0.10727821 -0.12661026 -0.21684974 -0.30884513 0.33704895 0.19387336 0.19185708 0.05417422 -0.083121456
BathroomDoor 0.031275857 -0.22753188 0.33797148 0.08920426 -0.114890404 -0.34145525 -0.08875488 0.22120719 -0.18767959 0.07401688 -0.05068869 -0.07308606 -0.21443045 0.43354145 0.111282215 -0.41331565 0.11344332 -0.294164 0.15464757 0.16873409 -0.23175909 -0.41912037 -0.20102933 0.10374551 -0.13900283 -0.52997154 -0.07586804 0.2745853 -0.20536657 0.09045549 -0.17659892 -0.1684273 -0.38512132 -0.2527135 -0.08233067 -0.12159807 -0.47262383 0.15360929 -0.061411057 0.11591386 0.23171997 -0.17694104 -0.17842105 -0.18150453 -0.3984723 0.085882954 -0.18485807 0.11484372 -0.21609242 -0.036251556
Cutlery 0.20029208 -0.08014862 0.14765024 -0.14552478 -0.526922 -0.2265831 -0.27551395 0.0773408 -0.2982943 -0.27366376 -0.006823453 0.10358159 -0.25779447 0.34428984 -0.024087487 -0.20190223 0.3070508 -0.33484176 0.12782212 0.18698448 0.03486332 -0.54320157 -0.18282181 0.18480654 0.19066858 -0.33915773 -0.037899055 0.65885717 -0.027970295 0.14667773 0.06786825 0.05400394 -0.5380619 -0.17866446 0.0747267 0.14449516 -0.16660179 0.32716674 0.022671279 0.004994785 0.40600395 -0.09813532 -0.08907961 -0.24026775 -0.28313872 0.30916923 0.17316025 0.1797278 0.019375674 -0.08171808
Keys 0.14153138 -0.25692472 0.1410193 0.12697408 -0.9700595 -0.17988469 -0.19377348 0.43631473 -0.36283672 -0.34559816 0.11643957 -0.05409725 -0.49174264 0.4722047 0.004558685 -0.45451692 0.2956818 -0.49634397 0.35656524 0.15144746 -0.11153179 -0.60830957 -0.090485744 0.44672084 0.4106531 -0.4434833 -0.035568077 0.8072103 -0.16422918 0.001216967 0.041108806 0.00064964354 -0.9655104 -0.3815295 0.27348676 0.118832275 -0.05192502 0.3287199 0.20658877 0.13331497 0.390533 -0.0028257344 -0.42270687 -0.15115894 -0.5324973 0.33896205 0.12682897 0.36479247 -0.13823423 -0.2159337
SinkTop 0.017140085 -0.24891625 0.39282015 0.17170446 -0.05589439 -0.3820946 -0.038633104 0.3170565 -0.124369316 0.12507147 -0.007111505 -0.09140068 -0.20944743 0.48097774 0.17064677 -0.47769108 0.107747965 -0.3141696 0.14013064 0.18080793 -0.30628416 -0.38701558 -0.18305124 0.12116915 -0.17711088 -0.6263631 -0.14723772 0.21389599 -0.26320466 0.05896651 -0.23424283 -0.19942775 -0.38317394 -0.30252305 -0.108730055 -0.20088097 -0.54885626 0.14400914 -0.06901991 0.15558183 0.21794641 -0.1695451 -0.17184785 -0.16850716 -0.46018642 0.012992759 -0.27461365 0.12668465 -0.29064777 -0.06524624
Frontdoor 0.027915625 -0.14937052 0.1047361 -0.047503345 -0.43168995 -0.2763174 -0.32164094 -0.027676523 -0.25050378 -0.17607112 -0.081548624 -0.0037108292 -0.30913043 0.23233567 -0.005475284 -0.17624435 0.28113738 -0.29855183 0.2048107 0.181269 -0.042945247 -0.42062518 -0.14511427 0.14849085 0.096898906 -0.20352419 0.08240526 0.59220994 0.023942498 0.13238017 -0.025635898 -0.044152614 -0.44163036 -0.19691253 0.1126535 0.075930335 -0.24328043 0.36641797 0.067676544 0.005830763 0.4030119 -0.18097821 -0.19968125 -0.2213911 -0.32430345 0.3385298 0.17290139 0.13621044 0.09312162 -0.07206276
ToiletDoorDownstairs 0.049849134 -0.22573471 0.27933854 0.014773308 -0.5911734 -0.36769927 -0.37394634 0.15568453 -0.39030927 -0.17443568 -0.054455075 -0.016914735 -0.39431196 0.44641507 0.053360082 -0.42346013 0.24920787 -0.4584144 0.2681436 0.24134551 -0.18121497 -0.63788706 -0.2085085 0.26548225 0.11028025 -0.47991094 -0.041478198 0.6835189 -0.14600576 0.15121184 -0.07104477 -0.13684867 -0.71774054 -0.34397522 0.08345485 -0.02422833 -0.42783418 0.4273596 0.029443292 0.08214761 0.5037328 -0.17365289 -0.3026542 -0.26302004 -0.5323193 0.39789903 0.05502453 0.24644457 -0.01041282 -0.100322574
PlatesCupboard 0.11495055 -0.121468745 0.14894551 -0.056169365 -0.50766534 -0.23319255 -0.24619175 0.13004203 -0.2859945 -0.20160583 -0.0169799 0.0387586 -0.25438568 0.3238236 -0.026615437 -0.24945377 0.21238503 -0.3243762 0.16298908 0.14957878 -0.040826295 -0.46781826 -0.12666124 0.21224125 0.18003769 -0.3295845 -0.042832196 0.5595751 -0.08151027 0.10720803 0.033839248 0.0003706072 -0.52266556 -0.20819515 0.08327227 0.046515547 -0.18872717 0.30041 0.052312862 0.04729082 0.35577682 -0.060938857 -0.15389626 -0.20155956 -0.32102668 0.27070597 0.13742627 0.19703466 0.0054053417 -0.09650819
BedroomDoor -0.0059406892 -0.1254132 0.17049205 0.054312166 -0.2513407 -0.23375122 -0.12057357 0.18454091 -0.21604197 -0.0212001 -0.051599402 -0.07108114 -0.16453123 0.26042807 0.041518226 -0.27445573 0.07562436 -0.21179472 0.17480893 0.0835185 -0.14676382 -0.30125403 -0.07161915 0.14875583 0.03003745 -0.27867562 -0.026639687 0.266106 -0.12527815 0.0525875 -0.045365043 -0.11931602 -0.34894946 -0.1716566 0.018919207 -0.079335816 -0.24149062 0.15496558 0.003926796 0.07183067 0.18276708 -0.052612938 -0.16706955 -0.1250027 -0.294831 0.119223446 -0.035191674 0.15966621 -0.070452414 -0.07669537
ToiletFlushDownstairs 0.02414288 -0.13414659 0.15063263 0.015591127 -0.4270291 -0.19974203 -0.23854992 0.13916388 -0.25870386 -0.12748203 -0.025177652 -0.031716865 -0.24256887 0.24573225 0.02051368 -0.24735263 0.13267177 -0.25601637 0.20709744 0.123510644 -0.12482233 -0.3815839 -0.08953985 0.19170864 0.10505284 -0.23870692 -0.025008472 0.427477 -0.0954744 0.073293686 -0.0051184148 -0.092752025 -0.46108487 -0.19892244 0.07487159 -0.031839635 -0.20775975 0.2630599 0.04384988 0.022803988 0.29885438 -0.063728854 -0.204011 -0.1424254 -0.31976515 0.24708898 0.056236736 0.1977869 0.024590502 -0.08277596
Dresser 0.0028017138 -0.23170637 0.33942506 0.16036017 -0.46946228 -0.34374228 -0.16264151 0.47978133 -0.3832905 -0.02381818 -0.027993718 -0.12740722 -0.25210962 0.46908417 0.08302294 -0.4922529 0.048916996 -0.41550347 0.30060178 0.1477618 -0.30066553 -0.50058454 -0.07172458 0.28903532 0.08000061 -0.55213773 -0.13854514 0.38918456 -0.2820876 0.032633778 -0.045301564 -0.21310036 -0.66899353 -0.29361087 0.020298822 -0.20040926 -0.37868065 0.18839216 -0.022164565 0.16134717 0.25722316 -0.03129237 -0.30069247 -0.17606032 -0.5075254 0.13993455 -0.11882285 0.34304604 -0.1662228 -0.14113988
BedLeft -0.03192782 -0.14930823 0.20325874 0.15822634 -0.56666255 -0.2607108 -0.159202 0.45857382 -0.39808896 -0.07560363 -0.030583028 -0.14601447 -0.21354027 0.31652927 0.041722637 -0.40722328 -0.047557484 -0.31174144 0.3341056 0.03473772 -0.26916906 -0.398459 0.037312966 0.33760378 0.21466914 -0.33755645 -0.09124138 0.31463793 -0.24103077 0.003095442 0.047319688 -0.19508171 -0.6345905 -0.20811924 0.114363976 -0.19708212 -0.16994175 0.16332628 0.020663463 0.11364665 0.20626312 0.092477165 -0.28125313 -0.10858567 -0.41324082 0.16326201 0.005111168 0.3784212 -0.06709668 -0.19136396
ToiletFlushUpstairs 0.049991235 -0.230156 0.3625936 0.0757182 -0.09121094 -0.3571473 -0.09746264 0.21721038 -0.16468203 0.03551147 -0.016881239 -0.04667287 -0.2149631 0.46323654 0.14055412 -0.39555448 0.18485858 -0.33316284 0.09440483 0.23498063 -0.19719386 -0.42719746 -0.23639005 0.0855704 -0.14353661 -0.5732485 -0.10399963 0.3312089 -0.1972291 0.09007915 -0.174519 -0.13393034 -0.36303228 -0.2795017 -0.09761596 -0.081590466 -0.5113287 0.16542664 -0.054605063 0.14737634 0.2582161 -0.22087027 -0.16334656 -0.20621113 -0.40006053 0.071684405 -0.18272838 0.08947616 -0.23256251 -0.015352437
CupboardCups 0.0844584 -0.12949209 0.17687032 -0.015830189 -0.3745641 -0.22808251 -0.16760328 0.16807146 -0.24548332 -0.12702884 -0.0020069876 0.005795363 -0.21806973 0.3109955 0.024484014 -0.25522658 0.16736239 -0.29553506 0.13943587 0.14336966 -0.07538859 -0.40683255 -0.12536319 0.1627807 0.108320065 -0.3369127 -0.061328262 0.4251434 -0.09468254 0.08313386 -0.01482842 -0.037387654 -0.44040546 -0.19873129 0.045219004 0.012410902 -0.22075783 0.22241361 0.020013299 0.07087998 0.28529254 -0.073755965 -0.14298095 -0.16709653 -0.30591404 0.20555675 0.031631712 0.16867144 -0.053966656 -0.074754775
Microwave 0.03528195 -0.13510899 0.17519148 0.038627896 -0.43098795 -0.22329979 -0.16433607 0.2304242 -0.27795446 -0.12341724 -0.0005293542 -0.03984889 -0.22795278 0.30771384 0.015982255 -0.30072275 0.10662037 -0.2896472 0.20337446 0.12627937 -0.14550954 -0.38908553 -0.07918105 0.22394703 0.13395621 -0.34007028 -0.06991178 0.388469 -0.13468936 0.05250185 -0.010818253 -0.08007698 -0.5043587 -0.19416504 0.05087366 -0.046761427 -0.208417 0.21171625 0.021098986 0.09254039 0.24426116 -0.033254318 -0.18747953 -0.16124104 -0.34659767 0.20507933 0.035694744 0.2127481 -0.050344992 -0.11573366
Freezer 0.0419124 -0.12673871 0.14575537 0.038988106 -0.4358571 -0.19347198 -0.15838219 0.2247395 -0.2574484 -0.12658082 0.0031485797 -0.051247183 -0.22347865 0.27222303 0.008662669 -0.28068343 0.107831314 -0.26695332 0.19550124 0.08300574 -0.11756789 -0.33694544 -0.064626075 0.22142763 0.14642484 -0.28914213 -0.051065907 0.37478012 -0.13365814 0.027007371 0.002514073 -0.061016876 -0.4857495 -0.17446636 0.07303018 -0.031648256 -0.15674561 0.20391284 0.040726226 0.07773477 0.22353457 -0.014025852 -0.18097547 -0.12732571 -0.30986738 0.18826295 0.04007484 0.20658301 -0.04378995 -0.116877384
Saucepan 0.041054346 -0.11597098 0.1248301 0.024315152 -0.39075053 -0.17344804 -0.1491251 0.18321092 -0.22685719 -0.12018517 -0.016791584 -0.021408632 -0.18448572 0.2592187 0.008680906 -0.24230634 0.09429716 -0.24623895 0.1841853 0.0828798 -0.09529271 -0.31632268 -0.05068853 0.18825051 0.12925078 -0.26159093 -0.04458353 0.3468177 -0.119636506 0.044394385 0.011192607 -0.06108929 -0.4196068 -0.17223707 0.06768935 -0.02265919 -0.14205445 0.19133565 0.027935036 0.06657415 0.22484446 -0.018155308 -0.16039166 -0.11142107 -0.28118017 0.18066192 0.053518116 0.18172829 -0.028908443 -0.10664285
GarbageBin 0.023740398 -0.0577027 0.07397196 0.00932726 -0.17954127 -0.101312086 -0.06859241 0.078613356 -0.12111482 -0.043816335 -0.002029315 -0.016900929 -0.09305305 0.12178539 0.008368539 -0.115135975 0.046080254 -0.11570068 0.079713345 0.056386016 -0.049389504 -0.1674865 -0.040414963 0.0897304 0.04356022 -0.12983435 -0.01887818 0.17008384 -0.05858479 0.01477539 -0.0076089078 -0.03397558 -0.20887095 -0.079543814 0.01918573 -0.022477573 -0.08419748 0.10082165 0.005756834 0.023587326 0.11696388 -0.0109695 -0.08342387 -0.056509566 -0.1434918 0.09075633 0.019277686 0.09607119 -0.012859896 -0.040633645
