21 50
BedRight 0.84150505 -0.04290108 0.5347363 -1.0778054 -0.053489227 1.0285339 -0.58278817 0.9884598 -0.38560832 -1.5119251 1.149055 -0.98966926 -0.5146304 -0.83130145 0.04953067 -0.06178568 -1.1224855 0.76900816 -0.7331108 0.8704761 -0.12196975 -0.3132317 0.53389484 -0.5193816 0.33916926 -1.022895 0.26604867 -1.056704 1.2620301 0.07044227 -1.2406362 -0.8896998 -0.09620281 -0.73875886 -0.029689586 -1.0908374 0.65054804 -0.9635266 0.9039221 -0.7727843 0.12913358 -0.9385873 0.31646731 0.49928933 -0.0179882 -0.08404428 0.9916185 0.11439099 -1.2233698 0.34898996
Bathtub 0.013878631 -0.5762912 0.46988842 0.3654324 0.43603653 -0.2558356 -0.13219047 0.047937036 -0.5105938 0.15948433 -0.13758095 0.33966234 0.4565122 -0.4702818 -0.0058299955 0.026343232 -0.8441019 -0.3326948 0.3886568 -0.40436506 0.052641593 -0.6525448 0.40693194 -0.909188 -0.45979786 0.49534217 0.100837365 -0.41435248 -0.28549525 -0.51887137 0.09017751 0.41211894 0.414876 -0.10978923 0.11990013 0.37709224 0.88028646 -0.35840055 0.50118107 0.16790536 0.018847527 0.6762833 -0.1969694 0.005981635 -0.3027028 -0.696703 0.07465971 -0.26977965 0.23187998 0.64445347
Couch 0.18765676 -0.3317397 -0.09585984 -0.09359241 -0.11534141 0.10707037 -0.07644347 -0.046009492 0.2193414 0.16538805 -0.29986954 0.35104895 0.28016546 0.06228718 0.11717479 -0.023504969 0.3511812 -0.17663401 0.25849828 -0.2532654 0.063872874 -0.03921442 -0.32375887 0.04635987 0.080783054 -0.7335543 0.24943435 0.3387181 0.27034488 0.6719427 0.09905935 -0.05729477 -0.23144822 0.55639476 -0.14724588 -0.6261651 -0.124888495 0.0013194828 -0.33245093 0.10511578 -0.2189552 -0.44505778 0.3538336 -0.33799747 0.26861838 -0.23842084 0.3592533 0.82745725 -0.071541056 -0.10270663
Fridge 0.40981865 -0.46408615 0.08652682 -0.10758886 -0.011805536 -0.073374964 0.07621106 0.002583667 0.07970729 0.031899102 -0.12932403 0.20303851 0.364806 0.019404827 0.073380984 -0.08282239 -0.044166476 -0.41490313 0.30631325 -0.3500502 -0.0046689063 -0.22638042 -0.11327806 -0.30072 -0.080150485 -0.5276632 0.14046596 0.015853787 0.33809647 0.33128634 0.04309759 0.15621832 -0.12807143 0.43442917 -0.11767312 -0.34708607 0.20372614 -0.43303493 -0.085512415 0.018980052 -0.41723418 -0.16667236 0.26409885 -0.27456564 0.1782999 -0.54913217 0.2755373 0.7319513 -0.124448635 0.07458854
BathroomDoor 0.12191288 -0.4553446 0.18434696 0.09270353 0.09547507 -0.110577576 -0.03716093 -0.06013188 -0.092012465 0.11344787 -0.24525307 0.33121428 0.37125456 -0.10174671 0.114629574 -0.037498917 -0.24083428 -0.3586572 0.38850486 -0.40550116 0.027438004 -0.3238477 -0.008203343 -0.38997012 -0.21522778 -0.17612222 0.17030157 -0.024251146 0.04277198 0.14657965 0.08858856 0.2755718 0.028932108 0.2943362 -0.07148231 -0.16152583 0.2932403 -0.25635862 0.006465679 0.09516245 -0.19095026 0.06446726 0.06927013 -0.22778809 0.05140638 -0.5223843 0.18596096 0.39729074 -0.0007511398 0.1919937
Cutlery 0.45206282 -0.42349598 0.046712942 -0.14267264 -0.038176265 -0.13113543 0.12827864 -0.06204968 0.10717132 0.055545308 -0.16731662 0.18274209 0.34082004 0.09605779 0.01677244 -0.08278192 0.02719078 -0.43541265 0.33197612 -0.40024382 0.028972302 -0.19547704 -0.15752761 -0.29226843 -0.10467922 -0.54052335 0.13643865 0.070524305 0.38586715 0.40991545 0.09322723 0.17052464 -0.11573204 0.45532724 -0.090478376 -0.36537665 0.21707824 -0.42215455 -0.20016707 0.006015313 -0.46026504 -0.17286271 0.29679874 -0.3007072 0.18703218 -0.5487822 0.25274605 0.8443858 -0.14759292 0.05111829
Keys 0.54419255 -0.5713784 0.15473688 -0.30691838 0.10869455 0.0489289 0.19925664 0.117615946 0.025496991 0.071708195 -0.12692583 0.09615269 0.4903361 -0.24101038 0.16429731 -0.22953825 -0.020360539 -0.5292544 0.13523705 -0.12413386 -0.24942198 -0.19710876 -0.24950522 -0.24666524 0.075130664 -0.5301358 0.088425666 -0.23369433 0.4072509 0.087891005 -0.04598848 0.06613211 -0.2314334 0.40608862 -0.21956839 -0.195517 0.08578545 -0.54139686 0.060089562 -0.0069244932 -0.5688195 -0.092973486 0.42673174 -0.13129523 0.118606664 -0.69024557 0.4646707 0.4975651 -0.0998259 -0.14000113
SinkTop 0.07075863 -0.48236543 0.24322951 0.21083754 0.15995884 -0.19350615 -0.011939894 -0.06775463 -0.18125577 0.17275238 -0.24224725 0.38702902 0.44223782 -0.12055141 0.10437163 -0.053560037 -0.34410793 -0.39622957 0.4441621 -0.48034686 0.0070193256 -0.40984917 0.0631549 -0.4747239 -0.288683 0.035257928 0.10686066 -0.08494549 -0.06116721 0.0029411525 0.14916709 0.37282744 0.119816944 0.25767115 -0.05824712 0.007896106 0.3908529 -0.30217624 0.079972476 0.13951746 -0.21804355 0.26598147 0.016127488 -0.18482767 -0.042925224 -0.58170176 0.10377636 0.25436756 0.078293525 0.25755164
Frontdoor 0.16728222 -0.36495295 0.035618648 -0.04086475 -0.010454637 -0.031068679 0.037858218 -0.02613669 0.110460944 0.10758409 -0.23374386 0.28035715 0.26936686 0.0030024338 0.10636117 -0.049402487 0.058218714 -0.3051464 0.2644199 -0.25470245 -0.020099668 -0.11756328 -0.14430927 -0.15755036 -0.04986919 -0.43929717 0.16331138 0.105448335 0.17363729 0.3535482 0.041737318 0.14174856 -0.1172374 0.4135122 -0.11599822 -0.31071678 0.053916506 -0.19499229 -0.13800678 0.09926828 -0.28235367 -0.16850741 0.19157499 -0.27208954 0.16271499 -0.3715267 0.22518694 0.57175547 -0.033538602 -0.004044927
ToiletDoorDownstairs 0.3138858 -0.59479105 0.19030808 -0.06587601 0.07113241 -0.055782873 0.0038208663 0.027171351 0.005280039 0.090308964 -0.23761031 0.3661012 0.45971105 -0.096998535 0.13426419 -0.064965926 -0.18161727 -0.41401315 0.3668596 -0.42240012 -0.015773444 -0.34722903 -0.077889845 -0.448942 -0.13112912 -0.54032034 0.22448985 0.003457595 0.29914415 0.3504039 -0.0029282477 0.22813813 -0.08082322 0.49492064 -0.14056754 -0.37625864 0.27809134 -0.4038581 -0.021692807 0.091737986 -0.3812067 -0.1165339 0.2521316 -0.3194605 0.18176451 -0.6418183 0.38386652 0.74391174 -0.08194266 0.14681508
PlatesCupboard 0.3720019 -0.4243456 0.10018617 -0.106423564 -0.009810772 -0.05695255 0.058455337 0.014687826 0.052628957 0.01749195 -0.11528024 0.18160477 0.32983172 0.0020409536 0.051638022 -0.056099214 -0.094867095 -0.3515326 0.28255594 -0.33155987 0.0014110549 -0.22785972 -0.07545571 -0.31092125 -0.09834491 -0.49058554 0.1537226 0.012747105 0.3302644 0.32698178 0.018869651 0.14876923 -0.0960567 0.3850493 -0.106780335 -0.34084123 0.24237747 -0.40303323 -0.07663852 -0.002453965 -0.35415733 -0.16489291 0.24491787 -0.24035473 0.14249726 -0.50914466 0.28878152 0.6848108 -0.13782981 0.105131134
BedroomDoor 0.18858409 -0.35224956 0.11359835 -0.00888687 0.024111588 -0.033844408 -0.02826529 -0.0033866917 -0.020256229 0.02613674 -0.16014555 0.21058398 0.28016075 -0.075813934 0.084670305 -0.028543718 -0.11902406 -0.2551604 0.26643932 -0.25548306 0.0052457373 -0.1979261 -0.04437658 -0.25097823 -0.11664723 -0.3035269 0.15976927 -0.0054840455 0.15651529 0.20539081 0.005797797 0.13333483 -0.028971436 0.27735293 -0.08335961 -0.25114983 0.18492477 -0.24181092 -0.038021527 0.053724654 -0.18856351 -0.07929711 0.13674866 -0.20184936 0.09198986 -0.40025222 0.23979409 0.4379869 -0.06149674 0.10764472
ToiletFlushDownstairs 0.19895795 -0.42100808 0.11907109 -0.022146754 0.031773232 -0.054150563 0.019279152 0.010707347 0.03678353 0.091822304 -0.1975207 0.28079545 0.31934813 -0.029897543 0.09438195 -0.046445157 -0.08107028 -0.31383502 0.2875852 -0.30500972 -0.0005433396 -0.21601371 -0.07474911 -0.28258094 -0.083893955 -0.4035971 0.154087 0.024911057 0.19251326 0.27078813 0.022872018 0.17226632 -0.074990384 0.37827855 -0.10634245 -0.28264686 0.14960784 -0.25003442 -0.07134834 0.06413545 -0.28699273 -0.11766652 0.19683386 -0.2518497 0.14650758 -0.44169056 0.2461977 0.55816096 -0.055199493 0.07800169
Dresser 0.3372557 -0.63287115 0.26064956 -0.016298804 0.10574223 -0.11693439 -0.016244227 0.030101793 -0.13627349 0.05238953 -0.21057242 0.30130574 0.4983149 -0.20584014 0.11765461 -0.047789752 -0.33636743 -0.454566 0.4020531 -0.433801 0.022855274 -0.39643106 0.013220066 -0.51779413 -0.24371974 -0.36868805 0.20683762 -0.11324933 0.26689225 0.17861983 -0.01459465 0.28063574 0.028336674 0.3720493 -0.0771007 -0.25462568 0.44785503 -0.46812892 0.05375611 0.08091017 -0.30597994 -0.008345978 0.20369324 -0.27090874 0.068304054 -0.72917634 0.3850346 0.58736354 -0.05963572 0.23806216
BedLeft 0.3672075 -0.5135145 0.24783307 -0.1356395 0.06885825 -0.0006736329 -0.06903229 0.104723394 -0.11148112 -0.13113482 -0.063546665 0.15024973 0.36331406 -0.2321801 0.10772123 -0.057627402 -0.34667698 -0.31739756 0.26087946 -0.2555991 -0.009241415 -0.32952398 0.052997183 -0.44062078 -0.15932563 -0.42934236 0.21785057 -0.19985563 0.38456514 0.19273974 -0.15449606 0.1194035 0.0040470916 0.2391918 -0.07145145 -0.35294393 0.38093442 -0.5096242 0.09575959 -0.036539536 -0.25130615 -0.13662592 0.22435382 -0.19174047 0.073337734 -0.61303407 0.43387133 0.5374672 -0.19915007 0.19703135
ToiletFlushUpstairs 0.14894317 -0.49196616 0.18159734 0.13638876 0.13078612 -0.17587481 0.022854254 -0.06585467 -0.10498127 0.16947012 -0.25493526 0.34296685 0.41497198 -0.10630669 0.088950016 -0.035848673 -0.22929507 -0.414896 0.40718055 -0.41971126 0.0011491777 -0.33588943 -0.00440037 -0.4194408 -0.24098966 -0.11505097 0.13771372 -0.026319096 0.018673796 0.07610972 0.13212746 0.31679448 0.0421775 0.32004106 -0.05894778 -0.06146613 0.32620075 -0.28534147 0.013744699 0.13289885 -0.24781258 0.15327571 0.072429955 -0.22571002 0.02739917 -0.56558996 0.17378426 0.36934644 0.056583364 0.1933303
CupboardCups 0.2876749 -0.34278366 0.09689891 -0.07019334 0.016953066 -0.03155764 0.032293376 0.014416274 0.012835359 0.0015917234 -0.09720431 0.15510133 0.26204652 -0.043773312 0.05096549 -0.05877528 -0.103902325 -0.28571743 0.21914297 -0.25438428 -0.00072065566 -0.19094762 -0.04607558 -0.26254892 -0.080023505 -0.35608324 0.1344718 -0.027586946 0.24355452 0.22831653 0.01318707 0.11699166 -0.05603673 0.28522992 -0.07093033 -0.2580299 0.21281265 -0.32333216 -0.036075454 0.016176905 -0.2612364 -0.102472164 0.18806033 -0.18185642 0.10679711 -0.41374514 0.24572313 0.50713503 -0.1115267 0.08085601
Microwave 0.27633774 -0.360484 0.12770988 -0.076625824 0.033650283 -0.025880314 0.0048214193 0.036971547 -0.012367646 -0.026098264 -0.083522 0.14684187 0.25572568 -0.07620432 0.06774813 -0.06423117 -0.16729909 -0.26944473 0.21466391 -0.24472761 -0.016944401 -0.21456952 -0.027847024 -0.293946 -0.075622156 -0.354066 0.13424468 -0.07339531 0.2619997 0.1839557 -0.03903117 0.09347763 -0.045539226 0.25529224 -0.076498285 -0.26557082 0.23629583 -0.3395953 0.022972187 -0.008298405 -0.25951287 -0.10258218 0.1657894 -0.15919259 0.09292933 -0.4298393 0.2442146 0.4796532 -0.12454664 0.10834195
Freezer 0.27988288 -0.36873755 0.13685587 -0.09765858 0.057414234 -0.011162608 0.009931381 0.062190402 -0.037334714 -0.0064662495 -0.08242626 0.14612025 0.27099508 -0.113498084 0.07261204 -0.05379877 -0.15631263 -0.27225986 0.2038678 -0.19924176 -0.03131081 -0.21307531 -0.024118135 -0.29964504 -0.076336116 -0.31700245 0.13099974 -0.08615779 0.24371387 0.15048586 -0.03102549 0.09568022 -0.03896454 0.2477129 -0.07626576 -0.21890981 0.22612108 -0.33689559 0.029486112 0.0088496795 -0.25007012 -0.0699058 0.1796306 -0.15018526 0.08607869 -0.43905902 0.25378644 0.41911632 -0.10856484 0.10290388
Saucepan 0.23344769 -0.31178123 0.10511347 -0.05874491 0.03972305 -0.026223976 0.020415256 0.034129873 -0.012895073 0.021510992 -0.088740386 0.14413764 0.23613927 -0.06575508 0.05443804 -0.04271339 -0.09832457 -0.231336 0.19799232 -0.19694881 -0.008197748 -0.17878067 -0.03588743 -0.23257212 -0.08087192 -0.29679662 0.11117345 -0.036907192 0.19873285 0.16721731 -0.0036467742 0.10810748 -0.040271495 0.2380056 -0.07715237 -0.19602516 0.18586121 -0.27786773 -0.0012192857 0.008025211 -0.22499837 -0.059780087 0.15552446 -0.14618962 0.08619722 -0.37618876 0.20606136 0.38922173 -0.07967191 0.0737649
GarbageBin 0.118438765 -0.17149289 0.07165486 -0.021813406 0.028893199 -0.018897533 -0.00016951127 0.005275448 -0.014411578 0.007667289 -0.056888297 0.082162336 0.14660679 -0.043697067 0.0385614 -0.018295405 -0.06870326 -0.13648365 0.11403322 -0.12522651 -0.003004821 -0.10599253 -0.013787166 -0.14202349 -0.05366829 -0.13275231 0.0655021 -0.019191971 0.10036128 0.08923713 -0.006532659 0.057707075 -0.013617379 0.11903775 -0.035087246 -0.10471219 0.11133731 -0.14077288 0.00476305 0.016240686 -0.11093448 -0.026772065 0.07505884 -0.0762263 0.036376875 -0.20072553 0.110446036 0.2153559 -0.03868137 0.06213142
