21 50
BedRight -0.88802963 0.05295714 0.8348165 0.41455564 0.3699775 0.28300345 -0.951876 -0.64579946 -0.5195669 0.4559863 -1.1673679 0.879156 -0.7200318 -0.19305739 -0.54479396 -1.2575641 0.53100187 0.1644529 0.41883442 -0.974805 0.23503503 0.4527727 -0.51507705 0.46820825 0.48338604 -1.0143789 0.3904434 1.1418097 0.77868634 -0.78156847 0.19363454 0.7546188 -0.42037353 0.55126077 1.2321792 1.2694427 -0.062582485 -0.32821164 -0.51963824 -0.6299036 -1.1311153 0.6745068 -0.085540645 1.0152317 -0.6383739 0.6613414 1.062038 -1.096891 -1.0075063 -0.89636564
Bathtub 0.6802308 -0.20696409 -0.43786535 -0.4781173 -0.057690945 -0.49094307 0.5911417 -0.6210938 0.39325887 0.5865873 0.31448784 0.42130247 -0.1967777 0.6715681 0.45087367 -0.61676294 -0.2486788 -0.5826351 -0.6874182 0.11562013 0.45948127 -0.4481666 -0.061108366 0.123868495 0.51656365 -0.7755978 -0.6303221 -0.054958314 0.59544 -0.33048356 0.5659704 0.4126825 -0.692475 0.20051956 -0.35173744 -0.44054115 -0.40657398 -0.68097633 -0.44210327 -0.30874038 0.4583095 0.41868234 -0.04247158 0.04191139 0.35241365 -0.06311759 0.14040528 -0.56157565 -0.07833244 0.25679457
Couch 0.26699772 0.06522762 0.20478286 0.068299584 -0.055283472 0.001619167 -0.14874363 0.066672154 -0.06588955 -0.30101153 -0.0075842096 0.04687866 0.9797626 -0.14679918 -0.06991236 0.2593664 -0.3137653 -0.13887341 0.5685598 -0.52745765 -0.13091135 0.11660815 0.18186544 -0.42678723 0.13847727 0.6272518 0.18250999 0.8647182 -0.3800976 0.13498095 -0.03506007 -0.6835577 0.41575712 -0.4603468 -0.059828144 0.13186339 0.14994034 -0.05515727 -0.22788721 0.42152348 -0.3527209 -0.2801093 -0.21928845 -0.043861136 -0.24117313 0.0135178445 0.21468846 0.24455172 -0.120387346 0.12405518
BathroomDoor 0.52575165 -0.076033555 -0.14271079 -0.23268455 -0.020913528 -0.27850014 0.2948033 -0.28545606 0.2107944 0.10662608 0.22353709 0.22249456 0.43139607 0.2935587 0.25622496 -0.13856518 -0.28275162 -0.36778146 -0.071763545 -0.16349004 0.13341925 -0.14461781 0.05221855 -0.15479578 0.28485572 -0.07251839 -0.21084127 0.32030746 0.05447643 -0.0899316 0.28418586 -0.18328552 -0.13712811 -0.17764653 -0.2656227 -0.18994087 -0.11918721 -0.32179213 -0.25313246 0.06683884 0.14802645 -0.02315222 -0.12962191 -0.049276996 0.05044638 -0.03735324 0.14213014 -0.11271257 -0.045658678 0.24182655
Fridge 0.47618398 -0.059205703 -0.0038065412 -0.12757826 0.021321464 -0.22202078 0.031416364 -0.17265634 0.081413664 0.022996774 0.10989452 0.32182494 0.80296326 0.09334174 0.17052732 0.015740756 -0.31205207 -0.38294423 0.26547077 -0.46923146 0.059321363 -0.00901695 0.076288074 -0.32387695 0.27811196 0.12445008 0.014058861 0.7910982 -0.10618796 -0.12587205 0.11528921 -0.46034515 -0.041971177 -0.33557245 -0.1787473 0.037481185 -0.010339152 -0.26730677 -0.32258725 0.2427335 -0.09616418 -0.21217163 -0.2431931 -0.025502056 -0.20562325 0.050545543 0.19923626 0.037646662 -0.11825597 0.17153363
Cutlery 0.4611788 -0.09704396 -0.0019096128 -0.12531213 0.05810488 -0.24198106 0.0043216934 -0.18799965 0.08550655 0.040836148 0.07208257 0.3388397 0.7572405 0.080588795 0.17473382 -0.03987179 -0.29171333 -0.37912133 0.2309537 -0.453891 0.06575006 -0.0024276068 0.044616487 -0.3059314 0.28650653 0.05909887 -0.00216466 0.8073087 -0.06828043 -0.12760267 0.08275664 -0.42742366 -0.044850178 -0.30431074 -0.14182569 0.03024802 -0.028363578 -0.2847505 -0.30186215 0.2126439 -0.0778136 -0.19240306 -0.23042041 -0.0032633182 -0.21225776 0.066220954 0.20671624 0.014377679 -0.12607636 0.16056195
Keys 0.43153903 0.07137449 -0.005565179 0.050060555 0.15328412 -0.14286034 -0.01715646 -0.3561449 0.032098684 0.12067754 0.058465865 0.438869 1.0172685 0.25864312 0.1666746 0.03736223 -0.14180912 -0.5225246 0.3476908 -0.7527024 0.047835257 -0.0050714915 0.11077513 -0.36458313 0.27396795 -0.047967557 0.19644289 0.78328764 -0.043725904 -0.30551475 0.29823247 -0.59035885 -0.24253176 -0.44088268 -0.16500366 0.19663051 0.09946718 -0.2550197 -0.36812133 0.29968762 -0.12876417 -0.35456836 -0.10843714 0.2117622 -0.299157 0.21677865 0.26043916 0.024875281 -0.28249413 0.21530908
Frontdoor 0.4073798 -0.021279113 0.025064956 -0.0946245 -0.037719574 -0.16252331 0.06751206 -0.13417901 0.0712496 -0.049322225 0.12693061 0.211481 0.75588226 0.07717672 0.1093381 0.067457646 -0.30145115 -0.29468414 0.280351 -0.39905968 -0.0139558455 -0.031708155 0.14027129 -0.27357474 0.23733866 0.25244644 0.0056995302 0.61891913 -0.14608103 -0.044105098 0.12748541 -0.44218612 0.094214946 -0.3472272 -0.171039 -0.007297601 0.017524479 -0.17734124 -0.26539853 0.23845707 -0.098884 -0.19051634 -0.19308835 -0.035821155 -0.15091832 -0.0033386466 0.15914129 0.053366434 -0.0838796 0.15684514
SinkTop 0.7213741 -0.09409429 -0.237556 -0.3384733 -0.049774077 -0.39797673 0.4244328 -0.39153737 0.28626847 0.18011658 0.31542534 0.29446885 0.5236947 0.43092504 0.3736204 -0.18688713 -0.3658683 -0.5326105 -0.17347644 -0.17713037 0.20114265 -0.2471606 0.09101052 -0.2083312 0.40902814 -0.15401395 -0.3301033 0.36976838 0.12643455 -0.14362781 0.38269383 -0.215179 -0.2502677 -0.18491443 -0.38775823 -0.31482133 -0.17652823 -0.4686712 -0.33926308 0.097165816 0.24798526 -0.012344136 -0.15723507 -0.09510989 0.08173609 -0.05681302 0.14704618 -0.13879408 -0.05239483 0.34012938
ToiletDoorDownstairs 0.5796051 -0.07838754 -0.022928271 -0.1923624 -0.008050345 -0.2990634 0.1449041 -0.2850066 0.114446916 0.036947116 0.16401589 0.4091061 0.89375234 0.19350967 0.209484 -0.05975225 -0.36597636 -0.46757013 0.26460174 -0.49267304 0.08959342 -0.0655792 0.14127716 -0.30563256 0.415447 0.15159626 -0.08307729 0.8531321 -0.0728081 -0.13271412 0.24514307 -0.46123517 -0.057931606 -0.3801794 -0.19883153 0.007844801 -0.033651493 -0.35391617 -0.38006395 0.2482401 -0.07844949 -0.18722387 -0.27092546 -0.0045530363 -0.16657932 0.039621465 0.2827527 -0.068163194 -0.19113585 0.2293259
BedroomDoor 0.23980881 -0.03613826 0.0600874 -0.077320926 0.024967972 -0.11898967 0.014411674 -0.20426217 0.041039135 0.05683691 -0.007929039 0.2541674 0.37041718 0.09949792 0.06206711 -0.13267964 -0.14558144 -0.21476464 0.118086375 -0.29146066 0.07726699 -0.0034639356 0.016757824 -0.11084846 0.22338271 -0.019921668 -0.019269772 0.48249188 0.040351316 -0.13355054 0.15203829 -0.16822281 -0.046724256 -0.14131701 -0.023596395 0.07512349 -0.04672264 -0.19892074 -0.22169244 0.051940978 -0.09631274 -0.016216353 -0.11734906 0.08296207 -0.11705671 0.064183444 0.2201005 -0.11305316 -0.15693876 0.05563987
PlatesCupboard 0.42328662 -0.075402945 0.023082582 -0.12697123 0.046332072 -0.21547411 0.012825821 -0.22166312 0.06749462 0.06312966 0.061744552 0.34037298 0.6640835 0.11452484 0.13617197 -0.0852411 -0.27564234 -0.3468178 0.1907198 -0.4284624 0.08064464 -0.006161352 0.06468691 -0.26005167 0.30659127 0.019970538 -0.026775578 0.7462123 -0.00803585 -0.15750189 0.14504793 -0.35422093 -0.08208895 -0.24058472 -0.1230206 0.045246296 -0.035810813 -0.2955648 -0.33070025 0.1749462 -0.10337893 -0.13104802 -0.22600965 0.01660999 -0.17334674 0.06353472 0.24452019 -0.06493429 -0.16024728 0.1438989
ToiletFlushDownstairs 0.45732707 -0.06810993 -0.011345378 -0.14729987 -0.010925233 -0.2363726 0.10562307 -0.21591644 0.09752471 0.006332138 0.13458309 0.2974052 0.741804 0.13185921 0.17926496 -0.016590899 -0.31477603 -0.36108184 0.2109074 -0.38944602 0.045385923 -0.053118426 0.10986991 -0.25620237 0.30649534 0.14976098 -0.048828747 0.6732058 -0.08695823 -0.078846626 0.1732 -0.40486506 -0.0049847234 -0.29935548 -0.1730969 -0.007279137 -0.0149454065 -0.25599164 -0.27766305 0.21305235 -0.036739063 -0.17853153 -0.20402753 -0.03589477 -0.11929225 0.027634215 0.19812545 -0.0076086028 -0.12013556 0.18818456
Dresser 0.63877344 -0.12008819 -0.10767158 -0.26060587 0.013792564 -0.36699355 0.24068904 -0.4519118 0.20220052 0.21980762 0.17223495 0.45571095 0.66200376 0.36089867 0.30307454 -0.23404494 -0.32343525 -0.53183 0.016270868 -0.390184 0.20090137 -0.12722695 0.035279587 -0.19071335 0.45991737 -0.16426174 -0.18322034 0.7103765 0.14892103 -0.2569459 0.37756696 -0.27109405 -0.26470628 -0.2454088 -0.21540698 -0.081773 -0.14969335 -0.48306525 -0.44016764 0.09629426 0.050217997 -0.04711049 -0.19182767 0.046195693 -0.06645661 0.06202169 0.28729072 -0.21507528 -0.18937989 0.24922845
BedLeft 0.412599 -0.06686346 0.033700343 -0.15612052 0.042668488 -0.26299706 0.08290343 -0.39645243 0.0917863 0.19838394 0.017902086 0.46054813 0.528155 0.24711113 0.17194484 -0.26348087 -0.2174836 -0.3832306 0.10470602 -0.44073373 0.16772504 -0.020887211 -0.0029781826 -0.14128414 0.39493075 -0.17048137 -0.0946222 0.7182495 0.15265599 -0.2592968 0.29074633 -0.2175676 -0.19292179 -0.18180437 -0.049524095 0.088124074 -0.11412262 -0.37816802 -0.39358968 0.059988048 -0.085478276 -0.0035154135 -0.16799736 0.122578435 -0.14603557 0.12705515 0.35817763 -0.26378798 -0.25918874 0.12598276
ToiletFlushUpstairs 0.60409826 -0.09985161 -0.20297416 -0.2696516 -0.04553241 -0.31717062 0.31907338 -0.28970838 0.23605272 0.15002792 0.27283627 0.24634086 0.5067133 0.3335212 0.3043242 -0.108211555 -0.30859157 -0.43157613 -0.11168403 -0.15061602 0.14661033 -0.1830213 0.08753884 -0.1801386 0.32017973 -0.08245051 -0.23842764 0.3447032 0.055306762 -0.10082123 0.29109895 -0.23095843 -0.19027878 -0.1919773 -0.3221064 -0.23767278 -0.1390663 -0.3498384 -0.2818543 0.096298054 0.18752174 -0.052148413 -0.14707334 -0.071636334 0.06337144 -0.059402872 0.09875404 -0.09492169 -0.035435624 0.28246522
CupboardCups 0.34776947 -0.06626844 -0.008930779 -0.112469934 0.030559437 -0.18465778 0.07235868 -0.20837563 0.071801215 0.07021205 0.0790286 0.26546758 0.472422 0.14440955 0.14817236 -0.099280626 -0.20548733 -0.28333837 0.10343646 -0.29197636 0.077212356 -0.045193374 0.03627803 -0.1714393 0.25508997 -0.030793082 -0.067358345 0.5243737 0.02483885 -0.13003029 0.15516649 -0.23226911 -0.10255649 -0.16933891 -0.12261746 0.005584996 -0.04564296 -0.24868406 -0.24978308 0.09887591 -0.031869285 -0.06310267 -0.16129841 0.027979515 -0.09709574 0.04754499 0.18014011 -0.07724873 -0.123637065 0.118422955
Microwave 0.36196527 -0.051158376 -0.022408498 -0.11269115 0.01628758 -0.19291604 0.06920327 -0.23789228 0.08100708 0.08335891 0.061825655 0.29934263 0.49341556 0.16869292 0.14318182 -0.1289809 -0.22035815 -0.32746318 0.104427375 -0.33828086 0.083540894 -0.035571456 0.028896816 -0.17832658 0.28245482 -0.039920922 -0.06935444 0.55383253 0.023169158 -0.13714917 0.19170229 -0.2346855 -0.11112369 -0.19087063 -0.11592393 0.023805529 -0.043489046 -0.26936436 -0.28053856 0.10329584 -0.040499046 -0.080355175 -0.15630196 0.031144926 -0.110329956 0.05561483 0.19877018 -0.09707165 -0.1425298 0.114494
Freezer 0.3274197 -0.03277689 -0.018555462 -0.090467215 0.021363152 -0.15652893 0.06347185 -0.2291891 0.061078694 0.073372826 0.048948143 0.28073776 0.47868142 0.15002632 0.12146281 -0.10088482 -0.18119591 -0.29268888 0.12517612 -0.338575 0.080737926 -0.045246493 0.038965963 -0.16059168 0.24449848 -0.04019003 -0.028152859 0.5088127 0.029444445 -0.15280412 0.16940403 -0.2416937 -0.115348205 -0.19041303 -0.0942009 0.02569347 -0.026124494 -0.2364104 -0.2528566 0.10248393 -0.050768893 -0.08527441 -0.12838103 0.060033925 -0.11755736 0.06118233 0.18296099 -0.076130226 -0.13077897 0.10673636
Saucepan 0.33384594 -0.045194298 -0.024991335 -0.09500376 0.009616811 -0.1658181 0.07100015 -0.20725289 0.07499675 0.07050386 0.074972086 0.24918742 0.45979697 0.13538034 0.13933688 -0.07618262 -0.18447213 -0.28160766 0.108005434 -0.2993224 0.08571407 -0.05199067 0.03500393 -0.158002 0.23448896 -0.03172391 -0.047510937 0.48370427 0.019931197 -0.12225366 0.16051278 -0.23577106 -0.10707425 -0.18371114 -0.12379546 0.015514537 -0.04621137 -0.24000923 -0.25124532 0.102129206 -0.027885016 -0.082866 -0.13905327 0.036365066 -0.09145243 0.042995133 0.16422561 -0.06950474 -0.1091575 0.13179636
GarbageBin 0.08854423 -0.014349883 -0.0036903778 -0.026796577 0.0030501995 -0.046463806 0.012944486 -0.0657485 0.021982437 0.015243556 0.017454443 0.07542095 0.12717089 0.04460121 0.03413581 -0.04252188 -0.04693753 -0.07830392 0.016491167 -0.082841575 0.031877607 -0.009271489 0.019302225 -0.03253396 0.080331095 -0.020549893 -0.013451323 0.12659673 0.018148439 -0.0467971 0.055538658 -0.060640715 -0.024357285 -0.054103553 -0.036945008 -0.00872253 -0.007172742 -0.062158454 -0.06679487 0.020751404 -0.016727636 -0.0062599145 -0.04323405 0.01573257 -0.022885421 0.0073218415 0.06121528 -0.018552516 -0.04445481 0.024629643
