21 50
BedRight -1.292371 -1.2294366 -0.91523534 1.1385406 0.2880395 -1.038632 0.75407344 -0.08868211 1.4122622 -0.69032925 -0.5359813 0.9385696 1.1048834 -0.62958515 0.90033174 -0.43898255 0.37837842 0.64347994 0.3338362 -0.48849297 -0.3107923 1.0745063 0.19929862 -0.10853566 -1.1368761 0.5189559 0.73308426 -0.24774699 -1.0686445 -0.13649294 0.50940466 0.88330597 0.4842991 -0.104120195 -1.138112 -1.1850979 0.8793307 -0.44175252 0.59587526 1.42677 0.09756471 0.80455184 1.1005939 -1.1434094 -0.27950293 -0.053364977 -0.25388405 0.80501956 0.23121068 0.8420168
Bathtub 0.55914783 0.6034498 -0.28703034 -0.17345625 -0.5240186 -0.41579536 -0.512792 0.37985983 -0.13581626 0.67768216 -0.55543464 -0.32565933 0.6620108 0.049086504 -0.030044101 -0.4568718 -0.5210884 -0.08597053 0.12580942 -0.32926536 0.08717147 -0.1381678 -0.8517995 0.22445579 0.035201967 -0.13454403 0.30881828 0.09834767 0.729032 -0.6470396 0.7540148 0.35338375 0.18623468 -0.23541832 0.17769696 -0.24034564 0.18769662 0.38127044 -0.21085456 0.12737934 -0.68899286 -0.745377 0.5857385 -0.7114791 0.6573768 0.6095055 -0.445084 -0.33005637 0.22566381 -0.77425426
Couch -0.04928945 -0.36973894 0.09706786 0.22994804 -0.3787813 0.14991444 0.41166726 -0.13569222 0.1337349 0.027429786 -0.03553757 0.4493905 0.15313748 -0.019139038 -0.67579293 -0.06700166 -0.09204148 -0.14769317 0.07508812 0.36251125 0.6434061 0.10263831 0.121295 0.12874039 0.53026515 0.47772083 -0.018066524 0.023208821 0.02803836 0.26591522 -0.22233166 0.022626502 -0.1837227 0.04907333 -0.43068364 0.5760841 -0.4422622 -0.5295291 -0.40516305 -0.21269645 0.1873268 0.23467451 0.023779685 0.21687564 -0.28566474 0.23948286 0.16452433 -0.13003102 0.21796398 0.58341813
Fridge 0.056421444 -0.3002635 -0.0021425546 0.3280169 -0.43909425 -0.074062385 0.29648426 0.16211475 0.1592393 0.23108837 -0.06459732 0.29690838 0.3129409 0.09030397 -0.56506395 -0.19343004 -0.18998864 -0.14330699 0.15776427 0.25911462 0.5509432 0.069500074 -0.13945247 0.13201253 0.42853048 0.3885418 0.0585016 0.05463866 0.25007868 0.22149499 -0.0024994616 0.12041616 -0.05769836 0.09702786 -0.3893084 0.27830112 -0.18659197 -0.4864475 -0.31181264 0.06589701 0.02881444 0.10303002 0.25909904 -0.020720012 -0.11355752 0.34751007 -0.0028326195 -0.18596928 0.27929905 0.23450926
BathroomDoor 0.32241267 0.086155176 -0.08207825 0.0810971 -0.413872 -0.09575964 -0.059400007 0.20438395 -0.022986393 0.41081056 -0.27079716 -0.0039001817 0.28232 0.063932836 -0.4508389 -0.23576722 -0.2810935 -0.15531398 0.10905789 0.039843548 0.3958304 -0.04836425 -0.36915913 0.21507622 0.3154393 0.11610041 0.083732076 0.091681436 0.4786214 -0.114455245 0.25611946 0.11726997 -0.035288356 -0.05056565 -0.1340457 0.15709761 -0.15745269 -0.09838184 -0.28999493 -0.042360697 -0.27171448 -0.2802467 0.23899183 -0.21364053 0.13895002 0.47157532 -0.2064303 -0.29571992 0.18784335 -0.115217604
Cutlery 0.042138085 -0.25259873 0.057778705 0.28847054 -0.44054338 -0.0062303944 0.3009783 0.15029731 0.09887596 0.2687785 -0.06167116 0.27959162 0.25221986 0.10737352 -0.59337044 -0.1270055 -0.14790952 -0.14107129 0.13165948 0.34319696 0.52055717 0.01323792 -0.106361434 0.1508471 0.4331865 0.31030136 0.033980224 0.07408157 0.2789642 0.25865316 -0.011610151 0.06264439 -0.111748606 0.11852708 -0.29905197 0.3299601 -0.19550014 -0.48786807 -0.30611435 0.004258677 0.067262806 0.07918988 0.1800817 0.049784295 -0.11418991 0.2956071 0.0740269 -0.21785052 0.27626526 0.16993314
Keys 0.053553212 -0.49893928 -0.34856927 0.52904 -0.50241774 -0.36272416 0.4373653 0.38150054 0.40773645 0.049028967 0.05213593 0.20885253 0.38018945 0.16377816 -0.5776958 -0.33236754 -0.27084333 -0.1981356 0.4080458 -0.014875228 0.70497596 0.067994155 -0.20151281 0.18763308 0.45669445 0.6174002 0.07476683 0.009383171 0.3279815 0.32284096 -0.029449496 0.3036828 0.07460118 0.21111542 -0.7188631 0.102095634 -0.14116785 -0.5816667 -0.28449848 0.49173808 0.09125926 0.31044835 0.3755127 -0.24954954 -0.13969459 0.5662575 -0.28927755 -0.20617689 0.2000206 0.23581046
Frontdoor 0.1192399 -0.25620112 -0.014614181 0.22593512 -0.42499107 -0.09572219 0.21091364 0.10360124 0.12169394 0.21735586 -0.08475477 0.20155558 0.31540456 0.057052165 -0.586524 -0.21258369 -0.22732106 -0.19204396 0.13639304 0.18672228 0.57099843 0.07575045 -0.11205082 0.15217234 0.44087055 0.34206972 0.055683214 0.027372291 0.28943077 0.093045615 0.020635484 0.12757313 -0.071634576 0.035793025 -0.37233153 0.29953536 -0.2096406 -0.35534063 -0.34938726 0.027063988 -0.03426109 0.033154637 0.19385529 -0.061344605 -0.04459428 0.37338775 -0.07942899 -0.20938353 0.22683054 0.24048613
SinkTop 0.43388546 0.13544884 -0.1318113 0.08117787 -0.55806875 -0.18141307 -0.07725923 0.2639206 0.0007789177 0.53260225 -0.33771697 -0.013854608 0.41794503 0.12551884 -0.54054105 -0.30472523 -0.38815942 -0.16156085 0.18773802 0.030779777 0.50899434 -0.083790265 -0.5229082 0.27543214 0.39107898 0.14961734 0.14302458 0.14439246 0.5757209 -0.18187147 0.34701118 0.17642047 0.016362064 -0.023861535 -0.14625315 0.16880114 -0.18283649 -0.11113076 -0.36135814 -0.003230953 -0.35818893 -0.37574658 0.34081435 -0.2878089 0.23308904 0.6241854 -0.27361843 -0.37790474 0.24345367 -0.18658343
ToiletDoorDownstairs 0.21530153 -0.24928713 -0.0728573 0.279852 -0.6257191 -0.17845145 0.21581484 0.17774068 0.18156902 0.4052302 -0.25501812 0.24537443 0.5016981 0.09698275 -0.74122113 -0.3295292 -0.35179093 -0.23295215 0.21322393 0.21821031 0.74755836 0.06673011 -0.32069707 0.25874522 0.5600188 0.45093903 0.12077372 0.11227751 0.43878487 0.03438845 0.17789353 0.20208631 -0.05250682 0.025461359 -0.41967288 0.3321424 -0.24054128 -0.46688014 -0.42669037 0.084205784 -0.17861186 -0.0824142 0.4146658 -0.19234943 0.028972086 0.5859878 -0.1627681 -0.31859264 0.3435765 0.1709146
PlatesCupboard 0.10065726 -0.20519002 -0.02709595 0.26018175 -0.43134317 -0.08300665 0.22839518 0.16777475 0.117200345 0.2655524 -0.11133073 0.22897176 0.30597863 0.082053386 -0.5283925 -0.19259763 -0.21351227 -0.143223 0.15865125 0.21023494 0.50177544 0.037381105 -0.18369602 0.14783017 0.39088586 0.3259644 0.06127718 0.058941986 0.296237 0.14110467 0.05192764 0.110957466 -0.054506797 0.0563866 -0.31215703 0.24958548 -0.17433335 -0.39676523 -0.2935349 0.063122116 -0.034797322 0.010224801 0.26130554 -0.061825212 -0.035529178 0.36985838 -0.04858759 -0.19274868 0.26050562 0.12986246
BedroomDoor 0.036548615 -0.14021923 -0.08924714 0.19930235 -0.25451005 -0.11806433 0.1241681 0.08060337 0.15701863 0.14276373 -0.15992858 0.14056087 0.25467756 -0.0148938745 -0.2827322 -0.17347933 -0.11131695 -0.066861935 0.11543372 0.040801924 0.29940602 0.074783005 -0.14605862 0.10855463 0.16601156 0.19344825 0.09748893 0.015495537 0.17624505 0.004849516 0.11725261 0.14005345 0.00846239 0.0047704647 -0.23512079 0.07062675 -0.0626741 -0.18153542 -0.17238738 0.08499685 -0.085880086 -0.020993406 0.22383747 -0.15898822 -0.010679669 0.2706264 -0.1015576 -0.099425405 0.15454969 0.12255327
Dresser 0.30402267 -0.04389961 -0.19038515 0.2367968 -0.6199935 -0.2373468 0.05000156 0.27709076 0.15059265 0.45036474 -0.29847306 0.09460657 0.53564644 0.05607053 -0.52923715 -0.38170886 -0.34846327 -0.19007352 0.22347206 0.009674514 0.5427262 0.0076959 -0.44871914 0.22668937 0.4046144 0.310386 0.19223744 0.079086535 0.56910133 -0.08606144 0.3240448 0.26409602 0.070534475 -0.0060923067 -0.2825965 0.13647982 -0.07835575 -0.23006694 -0.3456023 0.17916255 -0.30824974 -0.21302655 0.4851446 -0.3493514 0.15257251 0.60404164 -0.2693088 -0.3071646 0.3152944 -0.06314528
BedLeft 0.091740154 -0.20855434 -0.23431772 0.31137845 -0.43955326 -0.26368907 0.16028164 0.19652574 0.28544086 0.2552251 -0.26046136 0.18705828 0.50218713 -0.0029003622 -0.33692652 -0.33549306 -0.21181814 -0.08208204 0.20958763 -0.0135958735 0.38031763 0.11209546 -0.28158364 0.1395557 0.21154374 0.3083121 0.21049951 0.017109996 0.31760523 -0.050055094 0.26156843 0.29368603 0.0961293 0.010779856 -0.34837127 0.00874599 0.00054361677 -0.25376108 -0.20894817 0.29087624 -0.19485632 -0.057616506 0.4714385 -0.35796073 0.06417483 0.45622054 -0.20465903 -0.14798412 0.26411104 0.08991414
ToiletFlushDownstairs 0.08031863 -0.22105873 -0.06256754 0.20793891 -0.36577713 -0.0985433 0.16814746 0.09503045 0.14491193 0.20319927 -0.12744804 0.19415143 0.3098817 0.035488676 -0.46673664 -0.19857031 -0.20243713 -0.1281794 0.13923274 0.12553108 0.46606928 0.08104863 -0.16237932 0.15507954 0.32761225 0.3132791 0.06379826 0.06372068 0.21516071 0.064986534 0.09149545 0.12837182 -0.026711412 0.016808115 -0.31493938 0.19287573 -0.14917865 -0.32292303 -0.24559575 0.08298421 -0.061300267 0.0019227709 0.24555217 -0.11537855 -0.036779735 0.36087355 -0.09074757 -0.18326391 0.20609346 0.18141918
ToiletFlushUpstairs 0.31909648 0.091815345 -0.08796552 0.067167856 -0.43193126 -0.12214814 -0.05402424 0.20666514 -0.015769027 0.40290648 -0.24241038 -0.013241067 0.3091198 0.08206802 -0.41463247 -0.23951633 -0.30465847 -0.1504786 0.1337886 0.028910538 0.36745244 -0.066466406 -0.39071766 0.18117875 0.32018802 0.12947862 0.091126084 0.0889796 0.46989158 -0.12678283 0.2610804 0.14631239 -0.0074316096 -0.03047929 -0.11766818 0.13218252 -0.12376437 -0.08293492 -0.28409103 0.016251426 -0.25346747 -0.26346636 0.27718186 -0.22943266 0.167666 0.44753188 -0.2018121 -0.2810864 0.19673306 -0.1621574
CupboardCups 0.09702713 -0.17162679 -0.06411951 0.21905138 -0.37273398 -0.11050415 0.16751726 0.14075407 0.11677311 0.24661173 -0.13203765 0.17255898 0.30253395 0.059839893 -0.42796272 -0.18540296 -0.1848511 -0.11016732 0.15142122 0.13650143 0.43165472 0.034199826 -0.19600396 0.14452569 0.31290048 0.27555835 0.07767235 0.041349445 0.268665 0.07718545 0.09518932 0.1267131 -0.022918105 0.04435829 -0.2650463 0.19136101 -0.13591789 -0.31311128 -0.25336158 0.07222852 -0.06870305 -0.013334599 0.24027593 -0.11021908 -0.019320117 0.35117805 -0.076734506 -0.18695183 0.21737124 0.091429785
Microwave 0.10061421 -0.16056487 -0.079575256 0.24557205 -0.37298 -0.13434091 0.15251516 0.16238014 0.13295366 0.21051784 -0.13841553 0.18642427 0.3132615 0.058399603 -0.3906533 -0.21612176 -0.19456841 -0.10913595 0.15179269 0.117540054 0.40296915 0.045410894 -0.20936832 0.13587849 0.27902037 0.26588145 0.10042831 0.033661015 0.2473399 0.0692117 0.106609054 0.15466759 -0.004166101 0.042767886 -0.29019916 0.13534659 -0.09596588 -0.3006955 -0.22505397 0.10919316 -0.06733887 -0.018810619 0.2877815 -0.13801599 0.003730316 0.35054109 -0.10613227 -0.15712482 0.21585742 0.09298463
Freezer 0.09120709 -0.16145632 -0.11834925 0.22425078 -0.32755217 -0.14856662 0.13977559 0.15849221 0.15366958 0.18902871 -0.128175 0.13354212 0.30270645 0.04272869 -0.3295242 -0.21294874 -0.18199378 -0.10247361 0.14992078 0.060875446 0.36546275 0.04424869 -0.21259972 0.13311915 0.2440366 0.24657035 0.10724488 0.045680486 0.24506515 0.037461035 0.12885493 0.15995643 0.020100491 0.035507 -0.2660228 0.07970789 -0.076450944 -0.25459513 -0.19530058 0.14706883 -0.086438164 -0.008081521 0.2846617 -0.17158888 0.021328596 0.32476583 -0.12197212 -0.14055578 0.18305132 0.061530825
Saucepan 0.108647905 -0.11462328 -0.06514374 0.16024649 -0.29547963 -0.09347619 0.11400225 0.118848234 0.09829028 0.1828165 -0.09819846 0.104377486 0.24290715 0.055091735 -0.31624913 -0.15257326 -0.16624026 -0.08490088 0.12631321 0.069580294 0.3232763 0.025239084 -0.17453785 0.10176358 0.24880877 0.20211998 0.05462492 0.038604207 0.22609153 0.045378838 0.09065674 0.1126438 -0.006149729 0.018593285 -0.21492298 0.11899753 -0.101047635 -0.22243142 -0.19067116 0.061643865 -0.06366893 -0.026326545 0.2042998 -0.11474791 0.010315997 0.26973596 -0.08260833 -0.14129826 0.16272041 0.057385202
GarbageBin 0.06407374 -0.016192764 -0.014386434 0.04490729 -0.120900355 -0.019489028 0.038361184 0.049987067 0.012853336 0.092701085 -0.04498483 0.04030812 0.08805998 0.03579584 -0.15985557 -0.07035815 -0.07659103 -0.04015238 0.050392292 0.04219228 0.14396408 -0.009905806 -0.072293654 0.040171936 0.11693758 0.07691065 0.017241187 0.027801232 0.10220258 0.015547228 0.022021921 0.030904176 -0.011337608 0.0023986888 -0.05777411 0.07380981 -0.05379043 -0.08996055 -0.09749923 0.0038654676 -0.03385031 -0.029720176 0.07678444 -0.022917222 0.002980409 0.11322087 -0.023377735 -0.07856766 0.0631955 0.004258793
