21 50
BedRight -0.7489491 0.35786256 0.85107464 0.32031032 0.85574734 0.6776615 0.87332225 -1.1941257 0.6800734 0.77661633 -1.453871 -0.5971875 -0.41729403 -1.0496315 0.3693808 -0.8343999 0.8713247 -1.0344977 -0.4702599 -1.1762522 -1.2098081 -0.92202884 -0.18245052 1.017834 1.1113786 1.0095795 -0.7702705 0.058013078 -1.0453246 -0.84563345 -0.09263709 -0.7176314 -0.05031353 0.57969975 0.26917866 0.35639277 -0.9249695 -0.37228113 -0.36453673 -1.1699046 0.5721297 0.3264724 0.44631517 -0.7078225 -0.60677624 -1.0300126 -0.3098459 0.44330704 0.41515046 -1.0002806
Bathtub 0.2628399 -0.018567357 0.4686453 -0.23472458 -0.22859563 0.10599613 -0.46178347 -0.44829053 0.437677 -1.0976841 0.6321616 0.21129316 0.1778204 -0.25656396 0.30202553 -0.87205726 0.48555285 -0.6538496 -0.04004426 -0.8320905 0.27446592 0.326126 -0.21659765 0.42583668 -0.128257 -0.4959075 0.33318168 -0.5627775 0.03857157 -1.2853651 0.46135226 -0.03311812 -0.13127984 -0.64211583 -0.3132059 -0.53847325 0.899594 0.13516444 0.13594708 0.2505785 -0.3895329 -0.24117991 0.2141391 0.74841505 0.30947864 -0.91122395 -0.04023248 0.11748661 0.5078151 -0.19606037
Couch -0.31706542 -0.33027497 0.18429458 0.2510808 0.47329333 -0.25939456 0.16389176 0.72906506 -0.07047565 0.66259897 0.47106898 0.11357788 -0.5367792 0.07622857 -0.43272963 0.14715886 -0.12092487 0.13361843 0.02730819 0.35149184 0.061796717 0.2122408 0.05951001 0.090096466 0.4603831 0.19562064 -0.5771872 0.4526689 0.2599082 0.13064851 -0.5819212 0.10799643 0.60438526 0.22288598 -0.29026946 -0.015397562 0.12907447 0.31836343 -0.10822411 0.028329954 0.24983756 0.13261731 0.05381994 -0.18705983 -0.11390913 0.0033295918 0.56207097 0.4943871 -0.2591481 -0.0789264
Fridge -0.09242003 -0.35153696 0.39401284 0.014921875 0.33666605 -0.11221753 0.07108942 0.5758362 0.058110014 0.12014548 0.6257426 0.18456678 -0.34561902 -0.0888861 -0.3100666 -0.03169456 0.01591385 -0.009590391 -0.00034214658 0.036313612 0.14899221 0.2637498 -0.008170803 0.3036621 0.44038948 -0.05440178 -0.52512664 0.119339064 0.25855988 -0.30680352 -0.3343542 0.02594474 0.37256694 -0.05575481 -0.40851903 -0.22533293 0.462207 0.22893137 -0.09857606 0.134601 0.17602961 -0.10704409 0.18627158 0.13565071 0.034499455 -0.25724095 0.46139318 0.50376487 -0.11699252 0.018311083
BathroomDoor 0.068021245 -0.2175953 0.33883998 -0.0226246 0.11916597 -0.10103313 -0.14635438 0.2514664 0.12898825 -0.2801362 0.5811889 0.17641558 -0.16336164 -0.059336875 -0.06552794 -0.25543162 0.12783921 -0.18746586 -0.03960769 -0.1591499 0.17460762 0.27234697 -0.055905513 0.20828967 0.14713535 -0.19436257 -0.15138745 -0.07890652 0.2255477 -0.49119344 -0.040270597 0.039268535 0.19145794 -0.20797473 -0.3318677 -0.3065497 0.5353201 0.23650609 0.011347223 0.19757062 -0.024055498 -0.099530235 0.13477801 0.31963217 0.17545578 -0.36132243 0.22783105 0.24536282 0.05700255 -0.018247264
Cutlery -0.10653664 -0.2689835 0.323157 0.028829234 0.32214186 -0.050516978 0.08900173 0.51357186 0.06544705 0.13655284 0.48474768 0.16874047 -0.29623646 -0.07572525 -0.3193028 0.055119265 -0.02480372 0.057970893 -0.006081796 0.06877356 0.049420312 0.2067032 -0.042430185 0.24709205 0.43680698 -0.039041538 -0.54510844 0.16476281 0.19916579 -0.20984076 -0.33616826 0.022896843 0.335671 0.025091201 -0.37455583 -0.13697688 0.35723054 0.15759191 -0.1153759 0.1062428 0.1936359 -0.10387632 0.15263835 0.09142387 -0.013443907 -0.13400288 0.44004574 0.49435118 -0.13284248 0.08202662
Keys 0.08471872 -0.49017563 0.6236055 -0.038520426 0.6616624 0.16549419 0.3743696 0.58745265 -0.0032885633 0.22058621 0.39936265 -0.056519683 -0.43773577 -0.3176305 -0.039664052 -0.27109474 0.3369816 -0.032755673 -0.12850858 -0.05156452 0.065186545 0.14218512 0.15676247 0.540751 0.5896331 0.2502853 -0.5770442 0.019287353 0.18479298 -0.27775115 -0.17891781 -0.015249735 0.10480397 -0.04899773 -0.36047807 -0.35715273 0.25545797 0.066199675 -0.20517084 0.06653253 0.22979507 -0.2225395 0.42863724 -0.09531632 0.06690276 -0.24664603 0.34228384 0.33536696 -0.1572723 0.032338295
Frontdoor -0.1329595 -0.30226895 0.27475384 0.08831173 0.3201859 -0.16589117 0.087110564 0.5226168 -0.0066218106 0.28730094 0.4581715 0.11469767 -0.33711195 -0.0329303 -0.27572435 0.0048123975 -0.01264628 0.02701285 0.010951979 0.10850742 0.10199307 0.20349371 0.034689937 0.16455385 0.35525703 0.04550007 -0.41453877 0.22638193 0.19922535 -0.12152208 -0.33664173 0.06333847 0.36927837 0.031488556 -0.28220847 -0.12885617 0.26038975 0.22558372 -0.102575846 0.09313319 0.16973294 0.00728431 0.12021404 -0.0018157909 0.0031201062 -0.13186795 0.40434107 0.36700967 -0.11883227 -0.011684102
SinkTop 0.11783688 -0.28034848 0.40465036 -0.043659803 0.1447936 -0.11831331 -0.1683575 0.2970052 0.13021287 -0.35741475 0.66572374 0.19312657 -0.19499366 -0.07580334 -0.04083859 -0.26144204 0.14933811 -0.18812136 -0.056247056 -0.2026691 0.2324899 0.34044832 -0.0564661 0.22714478 0.1847595 -0.23562391 -0.17088105 -0.07132254 0.2643024 -0.5858079 -0.021907708 0.04562262 0.22235247 -0.28757843 -0.36032856 -0.33362734 0.6286379 0.29609078 0.02282279 0.21204011 -0.009279475 -0.10391729 0.15795852 0.39538133 0.2145794 -0.38316998 0.25515816 0.3074142 0.035095233 0.0057302243
ToiletDoorDownstairs -0.13069193 -0.45955163 0.5405535 0.08280617 0.46508294 -0.20620511 0.075463995 0.69423115 0.11005923 0.16781965 0.79452366 0.21678807 -0.46237826 -0.119924314 -0.3527374 -0.13526383 0.075394824 -0.09519491 -0.022256732 0.0054036034 0.14138462 0.3090975 0.0018143861 0.37506646 0.53591526 0.027288016 -0.57797015 0.21836708 0.34040812 -0.4342657 -0.41495335 0.075258486 0.49918857 -0.036123943 -0.4871323 -0.29336798 0.56133467 0.3479194 -0.1325434 0.1649342 0.21990845 -0.08277945 0.21372402 0.10824952 0.08132826 -0.35741192 0.6011509 0.6068648 -0.10807324 -0.06221471
PlatesCupboard -0.1200679 -0.2639945 0.37278458 0.038198296 0.3107017 -0.07613821 0.06096463 0.4319919 0.09594565 0.111974485 0.4881651 0.12954816 -0.31367192 -0.10060922 -0.23405863 -0.0871999 0.059277147 -0.060744863 -0.031072754 -0.04139428 0.07851639 0.2030581 -0.039520632 0.28920424 0.40594578 -0.012784155 -0.4609488 0.11410189 0.16668318 -0.3225375 -0.27804267 0.010054001 0.33142608 -0.024974864 -0.34136957 -0.18244463 0.35674188 0.19500932 -0.094523065 0.08263431 0.14741772 -0.06282697 0.1619578 0.09483564 0.010692776 -0.27058342 0.3905136 0.44413787 -0.054617587 -0.027499732
BedroomDoor -0.09712462 -0.16536148 0.3066366 0.06002378 0.24388094 -0.052652918 0.040847827 0.22465025 0.11920254 0.06196536 0.2847505 0.079837605 -0.24386837 -0.12424481 -0.11381293 -0.1434143 0.10454109 -0.13759159 -0.06142767 -0.1080525 0.009988397 0.11282577 -0.031130426 0.23699568 0.29126936 0.026482439 -0.29292735 0.0657566 0.10173595 -0.28781113 -0.16949178 -0.023702575 0.21522573 -0.012163864 -0.22383304 -0.13909285 0.23124842 0.14940777 -0.05985478 0.019333854 0.11061919 -0.013855506 0.1253098 0.051024202 0.018390983 -0.2699596 0.22486793 0.28684986 0.001987215 -0.08929608
ToiletFlushDownstairs -0.065314375 -0.30123547 0.3603184 0.052455083 0.29577738 -0.14496899 0.01363919 0.45299053 0.06191222 0.08820528 0.5427315 0.14720885 -0.3137024 -0.071413435 -0.21651003 -0.08073583 0.049479198 -0.07046559 -0.012048187 -0.013967443 0.11438973 0.21167035 -0.021195268 0.24174988 0.32975563 -0.008085571 -0.36801255 0.12853216 0.23228945 -0.30988008 -0.2715151 0.03628793 0.3147184 -0.057372812 -0.34116307 -0.19778481 0.4007337 0.23454073 -0.08564487 0.1245867 0.126204 -0.04475665 0.1373909 0.09293392 0.07269696 -0.25829676 0.39274693 0.38335496 -0.05846656 -0.019679135
Dresser -0.0006812822 -0.26347983 0.5032903 -0.0074667395 0.2833738 -0.049225606 -0.056279644 0.27057815 0.21602508 -0.19333968 0.5436476 0.17495798 -0.24011031 -0.21011005 -0.105228186 -0.32992718 0.20187217 -0.25879115 -0.06698659 -0.28785712 0.09793807 0.22746798 -0.08773437 0.38231134 0.3052653 -0.07792467 -0.33490217 -0.049285263 0.18278748 -0.6379389 -0.13970031 -0.009905223 0.24394552 -0.15725662 -0.36220068 -0.32667637 0.53000176 0.2230327 -0.027823037 0.09846538 0.06488102 -0.12031173 0.19761835 0.25033605 0.1083638 -0.49456185 0.27549252 0.36444193 0.10264188 -0.11536898
BedLeft -0.079706244 -0.27085745 0.53547156 0.040931493 0.36766773 -0.022589924 0.044559594 0.27400059 0.22500183 -0.030300036 0.4483651 0.12863855 -0.3287205 -0.25599393 -0.12112959 -0.29879707 0.2229949 -0.26613367 -0.09854255 -0.28049242 0.026405562 0.17380254 -0.07109733 0.43979284 0.4048359 0.014254708 -0.4255153 -0.0031028579 0.14039618 -0.59945357 -0.20858607 -0.029880604 0.2700004 -0.08702893 -0.3653372 -0.28670862 0.41435584 0.19759391 -0.07168457 0.039439235 0.13006352 -0.0698038 0.23359226 0.16219157 0.05787407 -0.48271406 0.30796376 0.41362476 0.07735551 -0.15292633
ToiletFlushUpstairs 0.09328245 -0.27650017 0.34448808 -0.056850526 0.11239153 -0.12802392 -0.17330717 0.35301346 0.113845095 -0.2956612 0.700823 0.20808488 -0.16416425 -0.027285283 -0.11612958 -0.22141802 0.0893359 -0.12868921 0.00017953067 -0.11888008 0.25590447 0.33525696 -0.04548192 0.21897048 0.14096399 -0.22962268 -0.15768284 -0.069790654 0.2890144 -0.5001148 -0.077688046 0.07500888 0.21440968 -0.2584594 -0.38140237 -0.34358573 0.6084172 0.2639808 0.019702978 0.25280657 -0.04577875 -0.14115062 0.14929977 0.3469992 0.19210483 -0.3239627 0.30093354 0.27432418 0.035857216 0.0259532
CupboardCups -0.06457735 -0.24037161 0.3209483 0.021693923 0.26475906 -0.06239366 0.036469575 0.38062623 0.08079809 0.042945176 0.4448079 0.11832106 -0.267037 -0.09395367 -0.18870197 -0.08106301 0.06312959 -0.06923014 -0.01843109 -0.03909654 0.08399318 0.19100745 -0.03431525 0.25235102 0.32025105 -0.020435551 -0.3625553 0.08281342 0.1792546 -0.30725878 -0.22407667 0.021257915 0.2708464 -0.05553208 -0.3044418 -0.18507816 0.34494194 0.17418352 -0.08119023 0.08277715 0.12036294 -0.067257926 0.14299336 0.11239161 0.027004411 -0.23370098 0.32397 0.3572054 -0.04700184 -0.022492025
Microwave -0.06889844 -0.2534886 0.38822246 0.039218083 0.3021937 -0.03836662 0.0582986 0.32248715 0.12059302 0.039214388 0.418523 0.107002094 -0.28658068 -0.14153865 -0.16777417 -0.15520726 0.12260678 -0.13711779 -0.03730368 -0.119265415 0.059667744 0.15840055 -0.030120429 0.30026975 0.35406908 -0.011560625 -0.3951441 0.059629958 0.14425473 -0.37159422 -0.21427736 -0.014461961 0.25574243 -0.051211573 -0.30560386 -0.1839173 0.33909634 0.16437443 -0.08340099 0.047640413 0.13436511 -0.06682498 0.18264163 0.103499494 0.029141385 -0.30273277 0.3186356 0.3841281 -0.017360892 -0.05847884
Freezer -0.045375533 -0.22892223 0.3627509 0.014267648 0.2713169 -0.020533172 0.06811225 0.28360394 0.09920544 0.027215494 0.37458992 0.08375627 -0.24591957 -0.14213921 -0.11843214 -0.16602933 0.13155735 -0.12504028 -0.049105335 -0.11042128 0.045187842 0.13507712 -0.008771589 0.29858035 0.33111733 0.023143709 -0.32786873 0.032369148 0.12875791 -0.3503948 -0.17542079 -0.02084375 0.20591575 -0.065932065 -0.26766998 -0.18114497 0.3081087 0.13461459 -0.07173124 0.04564368 0.10834026 -0.06103481 0.18539563 0.09324251 0.031805404 -0.2893841 0.25843915 0.32628176 -0.011943748 -0.065254815
Saucepan -0.057025652 -0.21968333 0.32361144 0.027543908 0.25397435 -0.037889127 0.06487628 0.28094044 0.080442145 0.052979324 0.34875482 0.08805821 -0.23712091 -0.11964181 -0.13290285 -0.13126759 0.104847156 -0.10384572 -0.044767547 -0.07307926 0.04762214 0.14467593 -0.011921554 0.24937607 0.29344672 0.013800888 -0.3310669 0.048237283 0.13121653 -0.29337084 -0.17666589 -0.006696916 0.20365936 -0.04961739 -0.24497041 -0.17719111 0.27702913 0.13960706 -0.07804766 0.044693954 0.11342224 -0.057521116 0.16062987 0.07838839 0.03503737 -0.24526337 0.2673201 0.3017045 -0.019836288 -0.04370351
GarbageBin -0.026739616 -0.117713705 0.16996352 0.0145998 0.12595126 -0.018870747 0.0115374345 0.15663983 0.038266663 0.014879082 0.18964274 0.044740926 -0.11310607 -0.051706742 -0.05812961 -0.07540367 0.053685438 -0.044825263 -0.026355192 -0.053333443 0.031176269 0.07900419 -0.011175684 0.13076176 0.14939861 -0.00922039 -0.16060895 0.015988499 0.07616977 -0.16029274 -0.09610074 -0.001451889 0.12034491 -0.036269285 -0.13662553 -0.10090963 0.16026987 0.07557722 -0.03528529 0.034687083 0.048019018 -0.021768207 0.08132575 0.053152278 0.022313317 -0.13896623 0.130592 0.16490737 -0.007201259 -0.032162394
