21 50
BedRight 0.8523044 -0.07539278 -0.28339672 -0.5754781 0.5856786 0.34744748 0.24658395 0.25320712 0.48463115 -1.0962378 -0.25332862 0.39582127 0.9746186 0.72646636 0.22285032 -0.18497308 0.21141213 -1.5631603 0.46480253 0.18150313 -0.6366076 -0.79788274 1.0947284 0.6006864 -0.5092843 -0.53928936 1.2098827 -0.16364866 -0.7368148 -0.88554865 -0.014554402 1.2980534 -0.22733921 -0.73454654 0.36739975 0.5824019 -1.5141627 -0.037983734 -0.90305585 -0.4409557 -0.91168773 -0.8777553 1.4372598 1.3174999 -0.5310185 -1.0021921 -1.1509377 1.0064434 -0.3746095 0.73700166
Bathtub -0.049777355 -0.05706335 0.6130655 -0.7169395 0.45513293 -0.042329177 -0.31633982 0.24008855 -0.3098701 0.13960996 0.14588438 0.207138 -0.7427278 0.14512105 0.16185302 0.18601057 0.59689194 0.47685587 0.3683565 0.13345386 -0.18199417 -0.27678204 -0.09553884 0.012260428 -0.07791216 0.38045666 -0.13810095 -0.016927775 0.6910186 -0.44314376 0.27814466 -0.11512032 0.8331896 0.4407628 0.67948645 0.14567055 0.41602376 -0.9445107 -0.44922057 0.95065856 -0.3841541 -0.4553419 -0.68474984 0.36116037 0.2245204 -0.037938975 -0.3550025 0.09884729 0.30428433 1.2679439
Couch 0.13078184 -0.18145248 -0.24258026 0.49091506 0.2586245 0.30738765 0.24488354 -0.19665873 0.46213225 -0.393926 -0.4653572 0.43286386 -0.04897297 -0.3187389 -0.12625249 0.40175954 -0.45159683 0.14177096 -0.2634517 0.2904862 -0.25477841 -0.3248156 -0.16743313 0.28473112 0.56876826 -0.4365077 -0.12280866 0.3105974 -0.42451343 0.32898444 0.067312784 0.12779148 -0.16036893 -0.38246918 0.32550973 0.13191952 0.24423313 -0.16171329 0.12543772 -0.48912156 0.34092194 0.23332538 -0.08324266 -0.43641645 -0.54617447 -0.29438305 0.39625552 -0.21691668 -0.23078372 -0.15184152
BathroomDoor -0.011072966 -0.09432647 0.29366446 -0.080409124 0.27537262 0.082995616 -0.0293213 -0.028403046 -0.0043371795 -0.04506686 -0.10307583 0.30110812 -0.4268847 -0.11051077 0.041195907 0.30404013 0.10919929 0.42227194 -0.015849283 0.1370531 -0.11830251 -0.3050069 -0.1665534 0.14959764 0.29907843 -0.022752034 -0.12526739 0.1496843 0.2582463 -0.029350081 0.08879471 -0.053028658 0.36519337 0.05951188 0.46058843 0.17964295 0.35706794 -0.56419873 -0.113308504 0.28926006 0.015139086 -0.08676461 -0.45273355 -0.13741146 -0.14914677 -0.20236655 0.09787224 -0.04366479 0.009957945 0.55849034
Fridge 0.09594986 -0.09136077 0.18854672 0.28869087 0.26170528 0.24552177 0.26487008 -0.12299601 0.2774702 -0.29875407 -0.4410348 0.36883897 -0.23596092 -0.2539985 0.05503088 0.4655977 -0.2197056 0.20758763 -0.09489926 0.1644282 -0.09239294 -0.4891606 -0.028710524 0.38508052 0.5011799 -0.31708795 0.011434066 0.2244982 0.04531061 0.07186223 -0.024405995 -0.01249732 0.07455491 -0.16731833 0.4166733 0.3647831 0.3244621 -0.42795256 0.07555677 -0.08176005 0.0053424425 0.08431154 -0.29853833 -0.35451347 -0.40913594 -0.52060395 0.26350433 -0.13817547 -0.19635731 0.28316164
Cutlery 0.04112017 -0.105030365 0.21124701 0.24241984 0.254435 0.24022149 0.22347581 -0.093710735 0.2089429 -0.27665293 -0.4381329 0.3611175 -0.2524204 -0.21600465 0.07068457 0.46194506 -0.2112797 0.17214802 -0.058301795 0.15867598 -0.037124857 -0.46334642 0.023051264 0.36749968 0.49786055 -0.26345658 0.03815319 0.20258789 0.05897248 0.043039925 -0.071145356 -0.05295887 0.067514636 -0.14691705 0.40437502 0.38684258 0.3371766 -0.42157915 0.12595116 -0.029219924 -0.022206444 0.06504534 -0.32466662 -0.3633612 -0.3798922 -0.51229924 0.27502218 -0.15966606 -0.15517256 0.29939422
Keys 0.25806412 -0.12379332 0.3836917 0.23500662 0.28769395 0.26600373 0.43067163 -0.30690214 0.3984904 -0.3270124 -0.4256726 0.46724117 -0.26686382 -0.33218554 -0.0052041016 0.56917745 0.020851104 0.40940747 0.095746465 0.02734338 -0.035790667 -0.68413395 0.15686172 0.49248365 0.48378557 -0.30456397 0.2549588 0.25330123 0.325763 -0.12410982 -0.13420554 0.046505325 0.24897933 -0.24093455 0.43305576 0.34522533 0.11370799 -0.5227092 -0.19341485 -0.11564698 -0.036773786 -0.052554566 -0.17058052 -0.109882034 -0.34577382 -0.81351507 -0.0016334574 -0.0067584906 -0.20447543 0.5533178
SinkTop -0.059266835 -0.09857079 0.36649397 -0.11468198 0.33785978 0.06390791 -0.01443454 -0.034248658 -0.05866629 -0.025611393 -0.069534354 0.3389846 -0.5148013 -0.13961416 0.0088118175 0.28901675 0.17557424 0.49258757 -0.013607039 0.15104116 -0.1507443 -0.331905 -0.21423316 0.15650475 0.28836682 0.048646204 -0.1280074 0.16741408 0.33508492 -0.027929762 0.10930826 -0.10063607 0.43924588 0.088102676 0.49224624 0.20271243 0.38942716 -0.62804806 -0.16210406 0.35026014 0.016961148 -0.13442576 -0.4949126 -0.12246184 -0.12635407 -0.22679073 0.07309266 -0.04008422 0.06480044 0.6611447
Frontdoor 0.106373474 -0.14817083 0.06266824 0.23957632 0.25700104 0.21357574 0.19618611 -0.13271828 0.28527138 -0.2937057 -0.361652 0.38754928 -0.1892876 -0.22226214 -0.04365227 0.38350713 -0.17721617 0.17664063 -0.14660862 0.20145786 -0.18508568 -0.41024604 -0.09664592 0.31591347 0.4780038 -0.31784993 -0.0038432667 0.23620215 -0.10410103 0.13974173 0.0019212685 0.091350734 0.09467885 -0.1943919 0.38262764 0.224732 0.27386317 -0.35805222 0.019490818 -0.1674678 0.13436505 0.039413027 -0.23182167 -0.25375962 -0.37390506 -0.38898534 0.2526956 -0.08907444 -0.16435689 0.20948406
ToiletDoorDownstairs 0.16027896 -0.17311119 0.19588003 0.18479288 0.35706386 0.2568588 0.21232681 -0.102978654 0.29735518 -0.32068127 -0.40865943 0.4695059 -0.29175425 -0.23490302 -0.007904947 0.49137366 -0.12858644 0.28648457 -0.08670819 0.24563117 -0.20744427 -0.5325231 -0.100535534 0.39393222 0.5443298 -0.34117907 0.044958957 0.28318042 0.031823885 0.06340408 -0.008060984 0.11545036 0.24277535 -0.18608469 0.58934325 0.338031 0.36074308 -0.55615044 -0.051902425 -0.078807846 0.057688933 -0.020646214 -0.3491319 -0.22331141 -0.44996396 -0.50198203 0.246887 -0.112312086 -0.19811678 0.4638286
PlatesCupboard 0.080094844 -0.08378466 0.14835982 0.16928282 0.27041557 0.19180462 0.1829534 -0.07590537 0.22094783 -0.2497879 -0.33876586 0.33701682 -0.20717156 -0.15633744 0.06207316 0.36882862 -0.14093548 0.14808244 -0.052022476 0.16404942 -0.09805323 -0.42429805 0.0008613912 0.30151564 0.40377948 -0.2489017 0.016031472 0.18849835 0.031094318 0.037491154 0.0070465887 0.035821475 0.119774826 -0.13453393 0.40363947 0.30416444 0.2368257 -0.40043244 0.01593849 -0.03663579 -0.020914653 0.019964105 -0.24687396 -0.23642687 -0.3512587 -0.4262853 0.18715478 -0.07303416 -0.14550203 0.32465318
BedroomDoor 0.04896022 -0.093592264 0.14615148 0.008602854 0.21254191 0.11896604 0.041968204 -0.046663176 0.0798723 -0.14525677 -0.15524352 0.26110515 -0.22742368 -0.09413692 0.022161037 0.25328085 0.008590244 0.2170686 -0.016768442 0.13134854 -0.120301194 -0.27631098 -0.071133085 0.1748527 0.25254646 -0.103044055 -0.020698762 0.1223171 0.098671384 -0.021720469 0.058584254 0.039473556 0.19327122 -0.034290135 0.34301934 0.15662841 0.19166483 -0.38220838 -0.065702245 0.10211087 -0.0069456613 -0.07184073 -0.2505074 -0.09654741 -0.18569271 -0.21893409 0.062903635 -0.0058274963 -0.052802574 0.35844043
Dresser 0.122029275 -0.15036516 0.36590323 -0.08461414 0.4238061 0.21242657 0.08288063 -0.06742442 0.12905319 -0.27142817 -0.27266014 0.4790956 -0.43639666 -0.12243033 0.06938657 0.46407998 0.07614455 0.37108693 0.06333558 0.19775334 -0.20880522 -0.6009705 -0.04410977 0.3536242 0.41414952 -0.14823343 0.05730581 0.20153433 0.2800193 -0.12897421 0.079434216 0.07696645 0.44744977 -0.033852123 0.6622869 0.33297387 0.30336314 -0.7741564 -0.18954155 0.2356436 -0.14267652 -0.20932862 -0.43383563 -0.06632647 -0.3084486 -0.47632268 0.0065187193 0.041790627 -0.09062528 0.77738255
ToiletFlushDownstairs 0.11702571 -0.12425979 0.1407592 0.11729436 0.25452626 0.19258013 0.14160633 -0.061782103 0.21520138 -0.2538685 -0.28260142 0.3488406 -0.2180347 -0.15131953 0.009383019 0.35599267 -0.067011 0.2017231 -0.06917836 0.18229508 -0.14386989 -0.39706954 -0.06348042 0.30506295 0.3864516 -0.24242601 0.046347253 0.20946908 0.037588634 0.039738394 -0.013984799 0.086041346 0.18752386 -0.122121416 0.42991176 0.26196 0.24376974 -0.40162608 -0.049967486 -0.030449886 0.024229227 -0.036951035 -0.25454745 -0.14313465 -0.3246527 -0.38163733 0.15941522 -0.05620664 -0.1390522 0.35994992
BedLeft 0.15415591 -0.09895483 0.27474016 -0.09171887 0.33494753 0.17701356 0.067522034 -0.049099997 0.11100908 -0.28492305 -0.20377636 0.38383603 -0.27200988 -0.06263929 0.07970698 0.33687916 0.075834975 0.18599564 0.06959292 0.15599242 -0.21101186 -0.51040053 0.026912441 0.29080296 0.26885957 -0.14833483 0.12150932 0.13937226 0.17219122 -0.15820159 0.071674466 0.14200255 0.33196598 -0.07494501 0.49957082 0.28103936 0.14138575 -0.59169954 -0.19416434 0.1445634 -0.1669342 -0.22429386 -0.25130564 0.016197486 -0.28325045 -0.41958815 -0.064648524 0.10513581 -0.09346398 0.6161024
ToiletFlushUpstairs 0.00017338034 -0.09978799 0.29817945 -0.050772812 0.28487977 0.10868671 0.024419617 -0.03752884 0.025701413 -0.0845351 -0.15428412 0.29886422 -0.3982101 -0.123556696 0.04793017 0.31121463 0.09826673 0.37410688 0.0134956185 0.13638076 -0.12029821 -0.34584633 -0.11758404 0.18995763 0.2892559 -0.046472475 -0.062443182 0.15168765 0.25964436 -0.05140718 0.07618068 -0.051610056 0.34716335 0.05025194 0.43976134 0.2060583 0.34040248 -0.55381507 -0.104642965 0.25763905 -0.023718655 -0.09563484 -0.42233035 -0.11612292 -0.14909598 -0.26193163 0.05892472 -0.044220604 -0.007634972 0.5521421
CupboardCups 0.07825604 -0.0891777 0.17198418 0.0974494 0.24900019 0.16042522 0.14100349 -0.060145326 0.15876433 -0.20381911 -0.26307926 0.30300695 -0.21599443 -0.14050421 0.039191578 0.33117774 -0.05433298 0.17752165 -0.024634417 0.13632213 -0.11351645 -0.38303417 -0.01989309 0.2716731 0.33077976 -0.1881011 0.039923888 0.1517114 0.08742498 0.0005280718 0.0041809534 0.018593188 0.16775648 -0.09774588 0.3644473 0.26053593 0.20473842 -0.3874407 -0.03899939 0.020763056 -0.030141817 -0.037343938 -0.23884723 -0.14749745 -0.27102003 -0.3709811 0.10844452 -0.041735593 -0.09647956 0.3561204
Microwave 0.097567804 -0.09190592 0.20001733 0.0551564 0.2824179 0.16615607 0.14377695 -0.059850365 0.16550726 -0.22023708 -0.266458 0.3297241 -0.22907555 -0.108157024 0.048304565 0.32316026 -0.031037409 0.14895888 -0.007822316 0.15013993 -0.13559794 -0.40135196 0.0024790617 0.2852651 0.31975037 -0.18790263 0.065714434 0.14064318 0.07421674 -0.049441 0.016707808 0.055838056 0.17048231 -0.10209669 0.3857391 0.2774944 0.19042711 -0.41126958 -0.06400329 0.047081072 -0.052024607 -0.062173627 -0.23212665 -0.11553351 -0.27359182 -0.39588505 0.080388546 -0.0063065784 -0.113246724 0.40304247
Freezer 0.07123157 -0.08002424 0.17498706 0.063470654 0.22807923 0.136096 0.13477314 -0.06661196 0.14419772 -0.17847025 -0.22427422 0.26189172 -0.20608813 -0.1293299 0.018392416 0.2916634 -0.019413201 0.18473238 -0.013764082 0.11227687 -0.090667516 -0.3466746 -0.018949155 0.23295589 0.27914277 -0.14080858 0.039317552 0.13040164 0.10387034 -0.030995073 0.0140222255 0.021172155 0.1687553 -0.0803371 0.3338452 0.21455394 0.17784299 -0.3671233 -0.062149893 0.020063594 -0.027489176 -0.036089245 -0.20614357 -0.10901847 -0.21971737 -0.32319245 0.0654043 -0.035979725 -0.076639816 0.33566827
Saucepan 0.06836317 -0.07392946 0.16150093 0.077707626 0.19472004 0.1363303 0.10815794 -0.079137206 0.13887182 -0.16138715 -0.20651945 0.24369821 -0.19031127 -0.14177676 0.018280983 0.27610612 -0.050021786 0.1949395 -0.029690646 0.1099375 -0.08187823 -0.30600676 -0.02825979 0.20575985 0.2846054 -0.13908596 0.015659207 0.14357124 0.09446991 -0.0018766461 0.0072250664 0.0006118829 0.13700747 -0.06620578 0.3007762 0.1955535 0.19241324 -0.33595356 -0.033340577 0.016075915 -0.01201396 -0.02069574 -0.21310483 -0.13240635 -0.21340337 -0.29574394 0.10625711 -0.054252002 -0.07753008 0.27744418
GarbageBin 0.037726037 -0.039862603 0.105408885 0.03420768 0.13494486 0.07805406 0.05489475 -0.025377352 0.06713357 -0.098591186 -0.13029525 0.15213516 -0.12069888 -0.06643132 0.0147963725 0.17466465 -0.0091443155 0.11301496 -0.011704695 0.070432365 -0.059660498 -0.1845156 -0.021544209 0.12914138 0.16118573 -0.08809499 0.015057181 0.08034129 0.06199286 -0.011584421 0.012881471 0.009070863 0.1037773 -0.029515432 0.19846812 0.12149774 0.11370231 -0.22299257 -0.035128567 0.026429279 -0.015912656 -0.027596137 -0.12533131 -0.062174994 -0.13211235 -0.17847939 0.052732434 -0.019479666 -0.04778351 0.2080505
