21 50
BedRight 0.34878647 0.2740473 0.6907105 -0.2626881 -0.74312896 -0.5255314 1.3722351 -1.0480741 0.522062 -0.65301114 -0.1014055 -0.07478808 -0.086762875 0.5287939 0.33247045 0.40871954 -1.0197171 1.1609664 1.1548438 -1.2774171 0.6987649 0.02763068 -0.7616094 -0.3216297 0.49187854 0.089246735 0.008698234 0.13367687 1.4516629 -1.2633146 1.4761647 1.1381682 -0.18366128 0.00069429935 -0.047555156 0.90450203 -0.27975893 0.30372897 -1.4373418 -0.79743713 0.6466115 -0.34798932 -0.62158597 0.8190045 0.77390367 -0.94865227 -0.6826797 0.8773635 -0.53115046 -0.06452169
Bathtub 0.0977277 -0.13024577 -0.37024274 0.46581292 0.051102314 -0.47968656 -0.33648822 -0.27137247 -0.19861296 0.2882852 -0.50721925 -0.5403614 -0.365451 -0.35581404 -0.47234377 0.105006434 -0.85114086 -0.79759276 -0.22132185 0.23042357 0.47226405 -0.12094121 -0.28196055 0.374133 -0.61135584 -0.40331778 -0.6054068 0.14620908 -0.14383943 0.32282802 -0.03139122 0.05290331 -0.45836437 0.10160805 -0.5192887 1.0395509 0.42879555 0.14651644 -0.39346838 -0.01647923 -0.3705651 0.24907462 0.2248026 0.9543859 -0.4069906 0.49012148 -0.15462975 -0.042931907 -0.25425985 -0.97691834
Couch 0.20223679 -0.11610709 0.1982709 -0.33818728 0.20715415 0.20845956 -0.041459996 0.31458464 0.19573832 -0.3314606 0.64651144 -0.079585455 0.10329982 0.29642382 0.5088885 -0.19784044 0.46348557 0.35753462 0.29347688 0.23212151 -0.036710683 1.0781173 0.13647339 -0.13293557 0.04411962 -0.025818469 -0.1683037 -0.075940095 -0.26988226 -0.47677755 0.055446774 -0.083799206 0.017102286 -0.09184626 -0.30394083 -0.0111218 0.0014196542 0.043107413 0.18357258 0.2584677 -0.28082436 -0.13117789 0.37823483 -0.2637286 0.3899917 -0.23297691 0.2762368 -0.24055107 -0.37165388 0.16312584
Fridge 0.23014428 -0.22982544 0.14062907 -0.22989742 0.21444473 0.036636177 -0.083322614 0.24256968 0.05416986 -0.35918915 0.47098973 -0.26931244 0.14787567 0.3111954 0.20597419 -0.18406019 0.0987722 0.07247855 0.2886069 0.2475895 -0.042507928 0.933608 -0.032423325 -0.00012055457 -0.12669872 0.012207708 -0.38125858 -0.10518544 -0.20392476 -0.28956228 -0.019083219 -0.1226947 -0.15646201 -0.1344725 -0.46632883 0.39552614 0.1981288 -0.08498202 -0.04434332 0.32045394 -0.31149393 -0.21470599 0.28945738 0.12892102 0.36265552 -0.050638568 0.132359 -0.113986485 -0.606332 -0.1862818
BathroomDoor 0.18224686 -0.19550869 -0.06871495 -0.0020169527 0.15780462 -0.14292996 -0.19695602 0.11077319 -0.01865372 -0.11316238 0.16353571 -0.2805115 -0.031653192 0.058136556 0.02413331 -0.08681088 -0.095026664 -0.19859636 0.095574215 0.2789461 0.099293165 0.55287576 -0.04108171 0.08521454 -0.2708317 -0.1422408 -0.39529088 0.006820616 -0.22843154 -0.123098604 -0.019066928 -0.06804039 -0.23483391 -0.005916579 -0.40960044 0.5248283 0.25098327 0.042817697 -0.085169815 0.17960957 -0.33151454 -0.03888418 0.3241546 0.32060045 0.113966346 0.09065177 0.13057454 -0.1720427 -0.45679384 -0.39795983
Cutlery 0.21919285 -0.23794626 0.17251706 -0.27042982 0.15905684 0.047571126 -0.017731808 0.23578438 0.020761317 -0.40706733 0.45944023 -0.21983674 0.20449185 0.3325251 0.1778003 -0.20115955 0.10281366 0.13282035 0.32160926 0.20027116 -0.07832388 0.8274193 -0.036203086 -0.050783318 -0.08058385 0.106350064 -0.33760098 -0.12755287 -0.14831044 -0.2850722 -0.009420481 -0.15381542 -0.12699355 -0.18525635 -0.41797104 0.32986197 0.15978914 -0.1118742 -0.040926386 0.32012123 -0.23185012 -0.26864687 0.1697658 0.07722973 0.40666834 -0.09396112 0.09773962 -0.035952546 -0.5776534 -0.11534576
SinkTop 0.22716026 -0.19916174 -0.18239352 0.09123346 0.17985494 -0.23566844 -0.344337 0.07176916 -0.0659323 0.0018783866 0.06416733 -0.4316447 -0.11441 -0.045467477 -0.105269015 -0.08660199 -0.27395168 -0.43248025 0.027466249 0.36838195 0.1897033 0.5001484 -0.074182555 0.1770047 -0.40344316 -0.24610685 -0.5527186 0.04096664 -0.28016812 0.003458866 -0.07884372 -0.09987829 -0.29816884 0.026756546 -0.5347543 0.74451363 0.34998807 0.04291639 -0.15744169 0.21399193 -0.41638726 0.02599928 0.3589091 0.51213413 -0.036133144 0.243915 0.13205308 -0.21384534 -0.52668643 -0.63432896
Frontdoor 0.18329273 -0.1626883 0.113016784 -0.20778379 0.20026888 0.034749605 -0.124539495 0.22829567 0.070268475 -0.2779342 0.4151065 -0.18201825 0.05457783 0.21513718 0.23713815 -0.12496452 0.19509274 0.07859811 0.17411233 0.2885843 0.021886518 0.85594314 0.023600055 0.00052085344 -0.12778467 -0.053678513 -0.3174232 -0.06345615 -0.27841368 -0.2691215 0.019275615 -0.13085394 -0.078805186 -0.08540419 -0.35835874 0.291368 0.17117938 -0.0058430037 0.031599674 0.27113608 -0.3120363 -0.09495427 0.35674787 0.019779734 0.26456502 -0.03796324 0.19550693 -0.19392033 -0.45683253 -0.09503336
ToiletDoorDownstairs 0.3202352 -0.27078924 0.106354594 -0.1910577 0.2525657 -0.06222499 -0.13838619 0.2107942 0.07676327 -0.3556286 0.44828987 -0.34181902 0.011884441 0.24190637 0.24789749 -0.1564397 0.026904628 -0.023444721 0.25878403 0.33472922 0.08052723 1.0724406 -0.043144487 0.035146177 -0.23392566 -0.07699928 -0.5518798 -0.055824295 -0.29083452 -0.35856315 0.056452613 -0.12587215 -0.21037167 -0.08009027 -0.6004494 0.6200214 0.30138743 -0.0063823895 -0.07723054 0.3193101 -0.40999678 -0.15315501 0.45910648 0.2879949 0.31359845 -0.04670007 0.19806528 -0.22358944 -0.69135016 -0.31868348
PlatesCupboard 0.2284267 -0.22073121 0.1308621 -0.19842404 0.16883148 -0.03619348 -0.043534793 0.1709744 0.05379361 -0.3503919 0.38262853 -0.29265532 0.08402319 0.2684375 0.18235561 -0.13015375 -0.014196589 0.034203332 0.2978722 0.21660852 0.0160924 0.84679574 -0.065198734 0.008105618 -0.1359851 -0.007432077 -0.41790745 -0.059291963 -0.14854304 -0.31141108 0.042058483 -0.07389838 -0.18257987 -0.12349903 -0.47636816 0.49497572 0.232046 -0.047629997 -0.116246074 0.2481872 -0.28828695 -0.20005457 0.25507578 0.22913225 0.3429741 -0.050670143 0.099966586 -0.09586713 -0.6189499 -0.2626624
BedroomDoor 0.16317534 -0.13435742 0.032824762 -0.086734414 0.097164966 -0.09300747 -0.07769817 0.07198863 0.04515809 -0.16501121 0.19576408 -0.19067562 0.0031043305 0.13592947 0.09728597 -0.055860933 -0.04713704 -0.008486654 0.15715295 0.15598045 0.081286155 0.5319235 -0.038910907 0.0070554074 -0.13606338 -0.07650461 -0.304984 0.0021908549 -0.11683108 -0.1997864 0.063603245 -0.02793106 -0.16132635 -0.036765613 -0.30075055 0.38675097 0.17109205 0.0293466 -0.100007266 0.13641518 -0.22972739 -0.05927479 0.23662435 0.19824648 0.19147824 -0.013570476 0.091521434 -0.09178255 -0.39729008 -0.2355807
ToiletFlushDownstairs 0.24291469 -0.2157505 0.08585218 -0.17173673 0.19928585 -0.033449896 -0.13389122 0.20134757 0.06431346 -0.27006465 0.37476903 -0.26305813 0.026063528 0.20678447 0.20420197 -0.1272112 0.06025942 -0.018577402 0.20510481 0.27554545 0.049272444 0.8513005 -0.026995096 0.02848219 -0.17059176 -0.058000434 -0.4114806 -0.05590111 -0.25480664 -0.26126522 0.01568599 -0.099777795 -0.1545118 -0.06137327 -0.4411711 0.45201215 0.23632178 0.004265295 -0.033138346 0.2761473 -0.32077888 -0.1061242 0.36402035 0.17767079 0.2521112 -0.031445097 0.16589469 -0.18778506 -0.55155987 -0.23151037
BedLeft 0.24566904 -0.15423201 0.092074156 -0.07365043 0.057017673 -0.17783608 -0.013641934 0.010479155 0.04226384 -0.24406515 0.189133 -0.27515373 0.016216371 0.19568947 0.09721242 -0.028374007 -0.19564039 0.02026117 0.2537391 0.09233677 0.14376222 0.56984586 -0.11932335 0.016101416 -0.15797149 -0.09740532 -0.40954384 0.012298242 -0.010536214 -0.31740424 0.1942041 0.044260483 -0.23930922 -0.024904551 -0.38317424 0.59201735 0.24480996 0.03803952 -0.27548096 0.09523251 -0.23423886 -0.09601427 0.22997454 0.38703623 0.2642125 -0.04256977 0.0363283 -0.01190935 -0.55283684 -0.3342506
Dresser 0.29223695 -0.2212406 0.021440206 -0.058997042 0.1559636 -0.20182285 -0.16317594 0.08644052 0.00025541775 -0.25584707 0.23404734 -0.408132 -0.009812991 0.17499255 0.0765852 -0.08975058 -0.23402283 -0.14434731 0.2141756 0.25088686 0.16610505 0.79346645 -0.10856085 0.09243861 -0.31419367 -0.15126385 -0.5908934 0.01939687 -0.17178005 -0.2735179 0.09717395 -0.04328752 -0.3150694 -0.033809487 -0.56032676 0.79290724 0.35936445 0.04889709 -0.25154772 0.19708954 -0.3884586 -0.0797964 0.37960833 0.47669145 0.23179807 0.06594866 0.107335135 -0.12214806 -0.68765545 -0.5141943
ToiletFlushUpstairs 0.17615825 -0.19267243 -0.087440036 0.0096189 0.17900395 -0.12955888 -0.25290996 0.13714628 -0.041105445 -0.09124421 0.15838215 -0.32006386 -0.036717698 0.03986905 0.0017388617 -0.08727289 -0.12880418 -0.26023448 0.050197866 0.315525 0.10952222 0.5566471 -0.029711079 0.1205055 -0.2998718 -0.15730263 -0.45003906 0.010119719 -0.27626315 -0.04762176 -0.06426807 -0.11179826 -0.23662409 -0.020471092 -0.44292355 0.5419064 0.29349735 0.014511573 -0.07367647 0.2091793 -0.36939335 -0.013692685 0.3396649 0.32200795 0.06997655 0.15169805 0.11490338 -0.18852548 -0.4584523 -0.4198687
CupboardCups 0.18944938 -0.16682495 0.06885973 -0.12703294 0.12819542 -0.039832477 -0.07814453 0.12603629 0.034160845 -0.24602523 0.27566934 -0.22932056 0.050229248 0.18960725 0.11306172 -0.11607976 -0.029653737 -0.0016054942 0.18908203 0.19509642 0.04162477 0.6542667 -0.043536056 0.027912177 -0.14698686 -0.027307998 -0.3405779 -0.047210842 -0.13738357 -0.20111835 0.027415276 -0.07099243 -0.14761679 -0.08714243 -0.3857852 0.4151872 0.1997254 -0.02830754 -0.09543129 0.21320644 -0.25965574 -0.11590129 0.22255309 0.18754481 0.23658456 -0.0044700783 0.10005284 -0.092232645 -0.47892535 -0.23896909
Microwave 0.18189766 -0.1721215 0.068395324 -0.1253892 0.14435595 -0.050419524 -0.06832797 0.10171929 0.018245399 -0.2428715 0.25764057 -0.23758584 0.037790596 0.17704353 0.11612036 -0.09903113 -0.051573467 -0.0060489634 0.18904968 0.18925796 0.04756588 0.6400889 -0.049626928 0.032994542 -0.15027641 -0.039981343 -0.36552685 -0.04477312 -0.12711647 -0.21266508 0.02792388 -0.048318774 -0.16739854 -0.076643705 -0.38886306 0.42768362 0.18331826 -0.02380021 -0.120726675 0.19954045 -0.25499222 -0.11272916 0.24534865 0.22739123 0.22497293 -0.007890454 0.09122312 -0.081725605 -0.46849748 -0.2546938
Freezer 0.15860134 -0.1351881 0.062364817 -0.07873963 0.09166821 -0.075206704 -0.035151735 0.050648518 0.035210636 -0.18267308 0.19392878 -0.21027344 0.018234689 0.14688249 0.094758786 -0.050190136 -0.07517302 0.00032391053 0.18287994 0.10616529 0.070387036 0.49990818 -0.07224317 0.013353495 -0.12921326 -0.04433365 -0.288968 -0.019297853 -0.06878931 -0.20470762 0.08540045 -0.008274615 -0.14848572 -0.043823358 -0.30632332 0.3951602 0.15279059 -0.001563461 -0.14265722 0.119405635 -0.19101387 -0.08180875 0.18642062 0.22558129 0.17651595 -0.030915072 0.055905487 -0.055416193 -0.40360755 -0.23153855
Saucepan 0.15784465 -0.12619337 0.06818606 -0.09045415 0.09699336 -0.058854386 -0.03861497 0.0618701 0.028422395 -0.18437402 0.20281298 -0.203236 0.028813787 0.15268204 0.0861991 -0.070262775 -0.06019846 -0.0028378414 0.17208196 0.13639647 0.062558815 0.50740474 -0.05932353 0.008732119 -0.11683246 -0.0325938 -0.27994922 -0.03216543 -0.08806268 -0.189948 0.054504067 -0.021022357 -0.14065261 -0.04214781 -0.30783573 0.35821143 0.14779168 -0.002466266 -0.10830568 0.14359532 -0.18482493 -0.083905526 0.17900935 0.19579078 0.19414373 -0.020841623 0.050727423 -0.04975792 -0.3850774 -0.1955242
Keys 0.12192704 -0.09821969 0.025139894 -0.052369844 0.07669288 -0.05482231 -0.052113857 0.050129727 0.018600337 -0.1276816 0.13849352 -0.17013717 0.0053895437 0.10093657 0.061665867 -0.058860935 -0.05840903 -0.029057506 0.11125794 0.12182266 0.065475106 0.39240435 -0.042747 0.029687637 -0.11045392 -0.05274427 -0.24814789 -0.008242915 -0.0789289 -0.12619512 0.038133763 -0.029782766 -0.12570387 -0.030271927 -0.26202455 0.3206008 0.14302069 0.0059982534 -0.093401834 0.109098665 -0.17810602 -0.058164284 0.16264635 0.18411359 0.12372884 0.000418971 0.055840496 -0.05316019 -0.30210853 -0.19072002
GarbageBin 0.090578265 -0.07485673 0.013615755 -0.03203066 0.07149178 -0.031281214 -0.052471932 0.050289374 -0.0009486253 -0.08620136 0.09922848 -0.12185157 -0.005580381 0.06151542 0.04109594 -0.043715376 -0.02966897 -0.044306356 0.072938144 0.11002447 0.026004745 0.2798884 -0.023517458 0.029490123 -0.099248596 -0.042952422 -0.183135 -0.014456935 -0.09163044 -0.07507874 0.0053875423 -0.03207542 -0.08022543 -0.030264238 -0.19139954 0.20608409 0.097218804 -0.010217739 -0.049635552 0.09986212 -0.1274307 -0.03467384 0.12655976 0.12047908 0.07081998 0.0137789445 0.04621935 -0.050447233 -0.22085825 -0.1470802
