21 50
BedRight -0.9669998 1.1964142 1.4210043 1.0713109 -0.7455502 -0.8981539 -1.5143572 0.74916077 0.022278298 0.4611828 0.48351133 -1.2867166 -0.99164337 0.6804933 0.4359862 -0.65593684 -0.27382386 0.040831797 -0.85821223 -0.5121665 -0.9588748 0.007830602 -1.2669151 -0.9800888 -0.46487764 0.48989218 1.0894407 -0.47874925 1.1077846 0.18901128 -0.064741716 0.1364477 0.31716222 0.5763306 -1.5505432 -0.30113843 0.8361611 -0.54201216 -0.017814022 -0.04097688 0.54280806 0.21398807 0.12037981 1.0164529 0.111874975 -0.27503765 -0.37299165 1.0872731 0.17913587 0.35965925
Bathtub -0.28932253 0.018570427 0.09955996 0.0015398354 -0.6396051 -0.37272432 0.28197053 0.6637601 -0.37849963 0.07028939 -0.025490364 -0.28223464 0.5576904 -0.14116207 0.79417354 0.5334194 0.27317443 0.16982327 0.9091656 0.51617676 -0.31075484 -0.43708372 -0.7590317 -0.20892906 0.20027249 0.15758304 0.049081247 -0.19917943 0.58889997 -0.69349545 0.5220846 -0.08800831 0.8068283 -0.66268635 0.59592056 -0.36410502 -0.07425964 0.23727417 -0.8944328 0.25995877 -0.20843516 -0.50627226 0.32198855 0.15927571 0.25088653 0.37068483 0.1809204 -0.11414825 0.18354489 -0.77202976
Couch 0.12197787 -0.15150067 0.25206083 0.028417336 0.32692337 -0.021442637 0.13252652 -0.23445566 -0.42239118 0.5491817 0.20861991 0.5941795 -0.54109997 0.11475611 -0.26345104 -0.2092065 0.28539044 -0.2771937 -0.27485284 0.074114546 0.5638297 -0.42749748 0.37219635 0.5433188 -0.31330815 0.40700063 -0.19865993 0.0971752 0.03145905 0.036880832 -0.42906144 0.08023757 -0.3079522 0.33744347 0.23654369 0.5778444 0.03775669 0.08890882 0.26455203 0.1893116 0.17359048 0.2986682 0.27808875 0.1690147 -0.28991917 -0.4179727 0.12129718 0.5220335 -0.028008223 0.22806673
BathroomDoor -0.06504156 -0.16942623 0.16906352 -0.058660485 -0.14588287 -0.08283976 0.20431201 0.14627507 -0.41228783 0.28912842 0.05235477 0.22834441 0.09661768 -0.09229472 0.29620817 0.2683443 0.25847924 -0.07038434 0.45520753 0.29465103 0.13544987 -0.42388067 -0.18290073 0.22799045 -0.09245094 0.299439 -0.19385931 -0.118307464 0.36127305 -0.41119015 0.053626657 -0.06280819 0.3123911 -0.22792716 0.4758947 0.08396715 -0.059318732 0.24437746 -0.3910232 0.21786506 0.031866375 -0.13181965 0.31086087 0.17026764 -0.034204297 -0.01844697 0.06778491 0.17321819 0.10787404 -0.38790807
Fridge -0.11492382 -0.28387862 0.3322546 0.0717539 -0.0006320709 -0.062199447 -0.034812402 -0.17941089 -0.5412747 0.4947696 0.06644515 0.44559637 -0.33083433 -0.02672028 0.09373337 0.09754081 0.17050527 -0.33140934 0.02614832 0.18016277 0.40104067 -0.48366445 0.09342828 0.40607852 -0.281112 0.40888518 -0.26714063 -0.071282715 0.27775592 -0.2505693 -0.28456232 -0.08078216 0.100527324 0.13943185 0.21050003 0.37422448 0.053561065 0.2754997 -0.09227814 0.11716569 0.2245143 0.0823547 0.3499903 0.24178006 -0.36420232 -0.36261162 0.059972934 0.47829208 0.10948693 -0.14954618
Cutlery -0.1849211 -0.32795054 0.36080372 0.06176164 0.030965682 -0.019828422 -0.07802729 -0.19981208 -0.5498669 0.52538776 0.05099132 0.5485118 -0.33678484 -0.05291981 0.1850573 0.19200695 0.14033148 -0.34695008 0.08718706 0.17025587 0.40609974 -0.53685045 0.12088195 0.43957752 -0.3024159 0.37416068 -0.34277424 -0.087487 0.2698258 -0.2655756 -0.2513598 -0.11551247 0.14855844 0.14995109 0.26960716 0.43111813 0.0698266 0.31993484 -0.13112903 0.08654791 0.17197186 0.029385218 0.39925477 0.27301136 -0.42994666 -0.39827386 0.07746852 0.51951927 0.17001264 -0.21833928
Keys -0.24561223 -0.2833338 0.52237576 0.3734321 -0.29458898 -0.25718623 -0.094910435 -0.22361392 -0.8128282 0.48865303 -0.009113914 0.18615282 -0.41631705 -0.06085818 -0.020634402 0.095007114 0.13947877 -0.5214144 -0.029250419 0.22337396 0.42937988 -0.5821277 -0.23248984 0.20301853 -0.30073804 0.6287201 -0.33521983 -0.05908191 0.49053508 -0.4407001 -0.5117391 0.011702917 0.34792143 0.04773644 0.013116967 0.25269246 0.10525122 0.36673683 -0.2628249 0.14790805 0.5195814 -0.0010824131 0.47181588 0.46010944 -0.35843247 -0.5603161 -0.12692371 0.663104 0.024004864 -0.2057654
SinkTop -0.06338161 -0.22636561 0.08275813 -0.08885939 -0.20916213 -0.10833649 0.27440736 0.17975561 -0.4175867 0.27820697 0.016737139 0.22189657 0.1932311 -0.14880577 0.3609845 0.35160583 0.29042065 -0.0848158 0.56158006 0.37120423 0.178047 -0.4524129 -0.19409199 0.23181103 -0.02806521 0.27308926 -0.21538737 -0.11100324 0.3521291 -0.47358498 0.102070756 -0.081740275 0.34306586 -0.32460988 0.56286216 0.042908657 -0.07018411 0.26249564 -0.47070375 0.20613723 -0.02560725 -0.20305626 0.34357032 0.13392851 -0.014166725 0.006040265 0.10944952 0.12588915 0.08871592 -0.43145454
Frontdoor -0.013292446 -0.21443811 0.26880664 0.021466164 0.023666002 -0.079810925 0.08895197 -0.14310044 -0.4852315 0.47205192 0.098781765 0.4327932 -0.29239002 0.0066715945 0.006362923 0.019331304 0.25256962 -0.26683316 0.015790856 0.17556417 0.4277433 -0.47095606 0.117199995 0.38063586 -0.2640978 0.40112767 -0.23171405 -0.011742299 0.21067387 -0.18868403 -0.2711893 -0.009742272 0.026173627 0.06559259 0.26644766 0.3597582 0.021524679 0.20332499 -0.025237177 0.19192137 0.1887971 0.10391866 0.33852616 0.2117412 -0.24745081 -0.27385345 0.07223251 0.41418955 0.06146981 -0.1251642
ToiletDoorDownstairs -0.14221211 -0.2818352 0.42864892 0.07316944 -0.09483881 -0.16755421 0.0987276 -0.0705484 -0.69720215 0.61697537 0.105619185 0.52779686 -0.3116457 -0.033967298 0.20591548 0.14038263 0.32470825 -0.3118025 0.20245534 0.29266077 0.49153575 -0.6897381 -0.015695509 0.4880466 -0.3149159 0.59856117 -0.33134928 -0.10800459 0.45697302 -0.38641748 -0.28008544 -0.04593713 0.21267694 -0.007646547 0.41549504 0.43041065 -0.001622157 0.37206483 -0.1902593 0.27061102 0.27090105 0.030696753 0.5126217 0.34086594 -0.35547343 -0.3405801 0.07821839 0.5864027 0.16607097 -0.31766185
PlatesCupboard -0.15247816 -0.26908454 0.35278443 0.08998099 -0.055535715 -0.09697619 -0.03306878 -0.11772807 -0.5680482 0.50214237 0.07620946 0.41941106 -0.27413997 -0.044443905 0.16109793 0.13990727 0.20257254 -0.30360413 0.093584895 0.21650997 0.3514458 -0.53445745 -0.0127797555 0.38489848 -0.26142657 0.4250038 -0.2707021 -0.091842666 0.33143398 -0.31134734 -0.22115582 -0.083304755 0.17704478 0.059198506 0.25252074 0.33792064 0.03543156 0.290391 -0.1615792 0.14002514 0.20465145 0.019192215 0.39719558 0.26639336 -0.33766747 -0.33816698 0.06165657 0.480053 0.14111526 -0.21378362
BedroomDoor -0.103447445 -0.053370982 0.22031282 0.052870076 -0.09261474 -0.09279282 0.006003472 0.06818808 -0.314426 0.2680066 0.0684007 0.13343014 -0.093657255 0.0069159595 0.1388164 0.08422001 0.14712338 -0.10244037 0.13348813 0.12388461 0.10425777 -0.31070843 -0.13901293 0.14851534 -0.1412842 0.2589014 -0.07689292 -0.06830936 0.26892442 -0.20908192 -0.053396046 -0.03626791 0.15511464 -0.025133582 0.16659729 0.12716393 0.02663208 0.13450421 -0.16991277 0.12975492 0.09561799 -0.029784605 0.23334561 0.18605314 -0.07620773 -0.12270558 0.017146409 0.23265716 0.059941325 -0.16734983
Dresser -0.17934938 -0.15584262 0.37517932 0.08720461 -0.20991068 -0.1697396 0.05375827 0.11716265 -0.64145327 0.4548698 0.069584616 0.24593937 -0.10791766 -0.039380584 0.34727758 0.2908835 0.2501199 -0.20644373 0.37779802 0.309975 0.24212617 -0.62262726 -0.27948466 0.28320083 -0.19480957 0.49206543 -0.19433472 -0.12976867 0.52150404 -0.47553962 -0.051418792 -0.09217642 0.3730543 -0.15850294 0.3811027 0.19695298 0.0005524318 0.330493 -0.40232387 0.21480925 0.1438193 -0.114854075 0.46076584 0.30206653 -0.18212834 -0.20146391 0.08814521 0.37382266 0.13450922 -0.44135138
ToiletFlushDownstairs -0.09172741 -0.17437333 0.28552175 0.06651229 -0.059116427 -0.098777406 0.063929506 -0.054654088 -0.46472657 0.41387537 0.08815103 0.3472034 -0.22687438 -0.006556251 0.12334611 0.10486376 0.20046678 -0.2068868 0.12862207 0.19593161 0.32853022 -0.46440834 -0.0054671965 0.31150112 -0.20159893 0.39367178 -0.20826414 -0.082736276 0.2932927 -0.25340858 -0.18528473 -0.02672673 0.13878219 0.0034691764 0.26112193 0.26990893 -0.0061844504 0.23782602 -0.121508725 0.18474291 0.19242142 0.025767094 0.3295545 0.2176187 -0.23892073 -0.23862664 0.046348456 0.40246302 0.09905515 -0.19925593
BedLeft -0.20813231 -0.03278743 0.37807265 0.15649672 -0.16898023 -0.16391806 -0.07120836 0.10754478 -0.48490462 0.3870667 0.08163981 0.123839505 -0.19464259 0.016947228 0.26984558 0.15757005 0.15176892 -0.15377107 0.1809564 0.18511106 0.1412116 -0.47175908 -0.26514363 0.15697578 -0.21606426 0.41910172 -0.08282074 -0.12926015 0.46414632 -0.3126637 -0.061756272 -0.051424157 0.28974688 -0.031974882 0.16953355 0.15874816 0.057684958 0.20489672 -0.26753166 0.15450276 0.14573601 -0.06305129 0.36403716 0.3152862 -0.13393874 -0.19259246 0.017080866 0.37828314 0.11108378 -0.2822761
ToiletFlushUpstairs -0.048972413 -0.2312059 0.12407921 -0.06305678 -0.11688841 -0.06400411 0.23149821 0.060307216 -0.44057253 0.28313023 0.0140324775 0.2751041 0.08437436 -0.10287813 0.25335497 0.2647325 0.23876879 -0.123866215 0.41353822 0.3132133 0.2159203 -0.43813404 -0.113649376 0.25910503 -0.08679043 0.29085502 -0.24416639 -0.080201104 0.29108626 -0.3883878 0.00012425694 -0.071505465 0.26961455 -0.20228732 0.46846178 0.13259433 -0.069442526 0.27377498 -0.33309808 0.19578734 0.026315248 -0.12453012 0.31235522 0.13409771 -0.10473685 -0.062236216 0.085226156 0.16685359 0.09248473 -0.36568993
CupboardCups -0.13344382 -0.17544852 0.29788572 0.0722245 -0.0664158 -0.08790753 -0.032469492 -0.052255064 -0.43316507 0.3750353 0.059422377 0.28750739 -0.2100152 -0.017697731 0.14431463 0.11308646 0.1462332 -0.2150494 0.084338665 0.16606641 0.23961084 -0.4125101 -0.029660834 0.2578286 -0.2102914 0.3415585 -0.17890523 -0.07387531 0.2903926 -0.24657574 -0.15925539 -0.047421575 0.152575 0.046258844 0.19489461 0.2382978 0.053633112 0.20403151 -0.13671352 0.12919284 0.14812925 0.013960846 0.3070478 0.2298102 -0.22889596 -0.2373298 0.04955934 0.37120894 0.10691166 -0.17755929
Microwave -0.15303048 -0.14471358 0.31577876 0.10728796 -0.12364034 -0.13209674 -0.009655758 0.0010193898 -0.47443196 0.38512394 0.064677335 0.2432351 -0.19518375 -0.015740516 0.18345992 0.1438854 0.17128164 -0.20611669 0.1419396 0.19874476 0.22696057 -0.43240324 -0.12711494 0.22077394 -0.19547988 0.37336203 -0.16535778 -0.09739163 0.3618101 -0.30171227 -0.1299108 -0.05014322 0.22373964 -0.017475266 0.21718083 0.20398378 0.052543085 0.21213146 -0.20313582 0.15008233 0.16124658 -0.017759446 0.33695573 0.25657684 -0.18815318 -0.20577784 0.039923485 0.39143264 0.10324593 -0.22644785
Freezer -0.15664692 -0.12592955 0.29385078 0.101043314 -0.1390895 -0.13547312 -0.032051016 0.0043749684 -0.41603675 0.32627523 0.05259242 0.1814947 -0.16136123 -0.0076427767 0.15943415 0.11236372 0.14046007 -0.18683551 0.12339929 0.15987867 0.19000868 -0.38898346 -0.13236828 0.1864702 -0.1647841 0.32433215 -0.13745166 -0.08950618 0.3279239 -0.26579598 -0.12343994 -0.03563897 0.21123585 -0.008945966 0.15593845 0.16104019 0.04869082 0.19874929 -0.20332609 0.13299727 0.15732434 -0.015848309 0.30390942 0.22867991 -0.17811127 -0.19900241 0.011932711 0.3453837 0.09473523 -0.208898
Saucepan -0.097455494 -0.13907593 0.22867602 0.048812773 -0.08099876 -0.08446799 0.0099934405 -0.028478267 -0.38629875 0.29944882 0.04064773 0.22306417 -0.13786869 -0.03476796 0.11897947 0.12035376 0.14157271 -0.18317522 0.11178883 0.1705965 0.21219473 -0.35069275 -0.050619233 0.2198704 -0.1604264 0.2959359 -0.15244731 -0.054100603 0.25142506 -0.23009738 -0.112017065 -0.032292996 0.14816378 -0.004317996 0.19021714 0.17776212 0.012110586 0.17941576 -0.14992386 0.12068447 0.12301274 -0.006563402 0.2665756 0.17410396 -0.17620748 -0.17128618 0.048034046 0.28901488 0.08400249 -0.18024878
GarbageBin -0.051035296 -0.0748095 0.100973256 0.020930959 -0.043976292 -0.04512552 0.016369164 -0.011826315 -0.18319994 0.15092307 0.012227782 0.11446155 -0.051400043 -0.020554373 0.07166521 0.06622725 0.079882085 -0.091199465 0.08196144 0.09676961 0.10928898 -0.18812867 -0.038657486 0.113562815 -0.06812866 0.14623995 -0.08977111 -0.03094848 0.12091297 -0.12590574 -0.042873863 -0.017934036 0.09355102 -0.009815665 0.10930693 0.08220317 -0.0009967502 0.105720475 -0.09311563 0.061464548 0.049314465 -0.006931794 0.14075845 0.09548097 -0.08150097 -0.08440211 0.031795852 0.1461285 0.04054547 -0.10607405
