21 50
BedRight 0.05646306 -0.80601937 1.1704724 0.82389283 -0.68050385 0.95620495 0.24483211 -0.5460615 -0.2151385 -0.20211273 -0.64169586 0.6048473 0.7785613 -1.2776037 -0.9757299 -0.30815107 0.42054302 0.010385754 -0.5056984 -0.58417416 -1.0649834 0.38181987 -0.24750574 -1.2524234 -1.0407873 0.5731287 -1.1322812 -0.75902975 0.6107768 -0.29921544 -1.2258515 -0.86945456 0.39022467 0.26780853 0.16927856 -0.08409161 -1.3440142 0.73792243 0.13304466 0.9725961 -0.22368564 0.16990381 0.3713902 1.2846342 -0.012227156 0.17691413 0.8915281 1.4875052 0.81904095 -1.5020843
Bathtub 0.5472435 0.07365314 -0.51998335 0.45177066 -0.3503433 -0.01861961 -0.32040155 0.28640792 -0.24920055 -0.7404073 -0.66446054 0.0054652942 -0.35400587 0.35849681 -0.09259065 0.45322135 0.76963675 0.63938254 0.7738985 0.47401395 -0.02364719 -0.19851011 -0.44046688 -0.1879417 -0.5848991 0.43181098 0.32299975 -0.34274068 0.75374246 -0.07791046 -0.091909766 0.62332547 -0.43488845 0.4571658 -0.18321693 -0.44803682 -0.4122892 -0.37761673 -0.72109586 -0.5768213 -0.13357183 0.009043896 -0.6063773 -0.09850117 0.23284584 -0.1693258 0.19569814 0.10838126 0.2175434 0.19070734
Couch 0.26718628 0.14672478 0.0409579 -0.118465155 0.5765031 -0.36047798 0.38578162 -0.0023998416 0.22015893 0.7728566 0.37039635 0.15321058 0.37318113 -0.27463442 -0.91091436 -0.13744394 -0.10159238 -0.5347278 0.12722138 -0.3277226 -0.38672101 0.016808785 -0.023949318 -0.3951821 0.2159265 -0.2180999 0.03369813 -0.10792354 -0.2197192 0.036408197 -0.17833683 0.11300353 -0.15679018 -0.5595132 0.009661422 0.4363469 0.28229222 -0.025126845 0.38646436 0.45447752 0.14298616 0.54495555 0.030185822 -0.39125827 -0.31944346 0.5452551 0.35573047 -0.15863614 -0.37097812 0.0028052784
BathroomDoor 0.40857622 0.12353676 -0.33404806 0.15009627 0.18401729 -0.30548295 0.06814018 0.22475941 -0.008475312 -0.030175399 -0.15277599 0.021225117 -0.046088576 0.13712561 -0.4302025 0.21340905 0.31021827 0.051725592 0.5060717 0.109246336 -0.13829103 -0.08608141 -0.24102078 -0.2504917 -0.14596234 0.14169165 0.23031373 -0.19503786 0.24672894 0.04163356 -0.103880495 0.44587168 -0.24874885 -0.041239273 -0.05503919 0.038183186 0.004127687 -0.2568794 -0.18089962 -0.09940218 0.065069705 0.3151132 -0.26219553 -0.34508198 -0.05166257 0.1786394 0.2112491 -0.07634747 -0.10648642 0.14912766
Fridge 0.38011664 0.18231075 -0.2228625 0.0066622947 0.43107992 -0.48720527 0.22468618 0.08287449 0.063240215 0.2944649 0.05038657 0.05149363 0.08951263 -0.13978088 -0.7308806 0.10909805 0.13928281 -0.26471338 0.40652615 -0.082339436 -0.2882839 0.036719352 -0.21286096 -0.31185055 -0.083117515 0.0036632523 0.13422143 -0.13032368 0.024830827 0.09194 -0.15104695 0.42749035 -0.26837316 -0.28259787 -0.024670146 0.2487898 0.1266617 -0.15495212 -0.008801578 0.040128633 0.079581246 0.55380774 -0.1441692 -0.4346162 -0.24610728 0.3119302 0.23790273 -0.16756524 -0.22801441 0.0843582
Cutlery 0.37726656 0.17988169 -0.28682795 0.058724426 0.39973375 -0.5058589 0.21292242 0.08063474 0.05465719 0.23593569 0.019935928 0.011805424 0.050812986 -0.14558846 -0.6865598 0.14662644 0.18586463 -0.2527982 0.4298315 -0.06521012 -0.26551983 0.0146825835 -0.25980568 -0.3196869 -0.117201015 0.008681216 0.10833438 -0.14540923 0.083258495 0.10439366 -0.15702711 0.49977708 -0.26140028 -0.2914808 -0.0027748707 0.24678788 0.05932769 -0.17108758 -0.03442563 -0.037113935 0.08428727 0.57546544 -0.18877235 -0.45016363 -0.25074777 0.28781447 0.23116651 -0.16196759 -0.17734638 0.072097495
Keys 0.57936084 0.18676746 -0.13011514 -0.018705137 0.5275799 -0.6638387 0.23193373 0.04900654 -0.1556054 0.043095935 -0.272161 0.11208429 0.12900974 -0.31223032 -0.94879466 0.18846089 0.28262132 -0.30923814 0.5440251 -0.021300295 -0.43966597 0.1510568 -0.3808481 -0.5300859 -0.43333334 0.074034594 0.22617555 -0.19980271 0.057749268 0.09645808 -0.41095808 0.46713316 -0.31157455 -0.027945183 -0.019307207 0.07858027 0.112044856 -0.14258757 -0.1221449 0.22874327 0.09798822 0.6448342 -0.07911542 -0.44030333 -0.4715137 0.18458539 0.33125412 -0.1432774 -0.2510309 -0.002229385
Frontdoor 0.3407544 0.10960437 -0.07380309 0.013467393 0.3519736 -0.33972734 0.2006416 0.070953265 0.05588599 0.33902648 0.0430767 0.07377796 0.19485405 -0.14221007 -0.71686935 0.036722522 0.118168145 -0.26574543 0.27353552 -0.10680051 -0.28289756 0.0058685294 -0.16447543 -0.35269326 -0.06982502 0.0101289395 0.09185118 -0.16174346 0.025325194 0.07201232 -0.20239401 0.2583468 -0.18489444 -0.23825741 0.012148755 0.2351665 0.08174774 -0.06077374 0.044818163 0.18652348 0.083813906 0.4691958 -0.084097855 -0.2823387 -0.21296093 0.31757936 0.26733235 -0.08069816 -0.19427885 0.023225788
SinkTop 0.461059 0.1626478 -0.4748825 0.21729347 0.13674308 -0.3243028 0.03218918 0.30473736 -0.02773276 -0.16250326 -0.27793482 -0.025803687 -0.1740969 0.25341386 -0.38546395 0.30602857 0.3736156 0.1550218 0.6194525 0.18786724 -0.08744293 -0.10127791 -0.2811572 -0.24235164 -0.19847858 0.22455741 0.29068387 -0.23586956 0.32567143 0.0631297 -0.0477132 0.58251804 -0.31530425 0.022422127 -0.08186359 -0.00817314 0.013309268 -0.3543061 -0.3161227 -0.20589723 0.072349496 0.29876277 -0.33523905 -0.41472533 -0.03435334 0.14713338 0.2227954 -0.08018683 -0.07890926 0.19421099
ToiletDoorDownstairs 0.615545 0.17294322 -0.25814605 0.06563601 0.44806123 -0.5859233 0.24791259 0.19070724 0.06599757 0.32531857 -0.025447916 0.10624934 0.18553771 -0.11323348 -1.0305796 0.19210297 0.30329633 -0.22232868 0.5858089 -0.05866902 -0.36425254 0.0012896477 -0.28069443 -0.5216339 -0.1512335 0.05016257 0.23330598 -0.2557132 0.17064929 0.086471386 -0.2990529 0.5157871 -0.36441758 -0.27431256 -0.037141055 0.24228856 0.07908147 -0.19969471 -0.050400447 0.11797526 0.1373129 0.67115736 -0.23174895 -0.5121451 -0.29305637 0.39571548 0.42070946 -0.12712866 -0.23337725 0.090196244
PlatesCupboard 0.435624 0.14179187 -0.271699 0.09178766 0.33576122 -0.43921685 0.18041123 0.11456869 0.031596687 0.16944109 -0.061584167 0.053495422 0.045151595 -0.112022206 -0.70685726 0.17877875 0.24977906 -0.17565137 0.4740566 -0.03018684 -0.28867587 0.018369721 -0.2681462 -0.36078036 -0.1653499 0.06589623 0.13251488 -0.19259827 0.14323719 0.069790326 -0.19185339 0.47614884 -0.2797432 -0.21255043 -0.0354163 0.17788552 0.023400417 -0.1866027 -0.1033055 -0.024832694 0.07035678 0.52915686 -0.20476773 -0.40336737 -0.19950357 0.26002425 0.2735645 -0.11036406 -0.14874616 0.07320433
BedroomDoor 0.26949477 0.05248661 -0.100895286 0.10151676 0.19600773 -0.20443706 0.13308375 0.06581435 0.025694834 0.13404477 -0.06662817 0.07477116 0.094428964 -0.07348893 -0.4699062 0.06182652 0.16767699 -0.10800074 0.26041213 -0.039971482 -0.21518368 0.014043459 -0.15379594 -0.28521106 -0.11437673 0.07218799 0.047049932 -0.16609684 0.11357473 0.030476207 -0.1788386 0.22416814 -0.13088018 -0.10668339 -0.0003729217 0.11284054 -0.023705974 -0.07582955 -0.025735825 0.08479903 0.041401733 0.29197884 -0.105095014 -0.17185828 -0.12162071 0.18472138 0.22478727 0.017391922 -0.08137155 -0.011981284
ToiletFlushDownstairs 0.39677104 0.12881728 -0.17489819 0.036557976 0.30899936 -0.38641196 0.18035972 0.12542485 0.05587099 0.21943714 -0.002275522 0.06945868 0.12887055 -0.090340994 -0.68201786 0.11696367 0.17494716 -0.15752374 0.3664109 -0.04231348 -0.24423662 0.014742456 -0.17305614 -0.328084 -0.095400944 0.040488455 0.1567256 -0.1745222 0.09370978 0.056744754 -0.18216768 0.33255377 -0.24361019 -0.21082522 -0.026777916 0.1616272 0.07058631 -0.14555271 -0.034625277 0.09098474 0.085646525 0.43574113 -0.14736393 -0.3416581 -0.19272935 0.28297797 0.2621285 -0.10186775 -0.177354 0.06099316
Dresser 0.6166922 0.16977224 -0.3342269 0.23923337 0.2760667 -0.44022092 0.15607685 0.2158246 -0.044416208 0.020929446 -0.28262144 0.094573945 0.050325505 -0.0471654 -0.8186465 0.28997108 0.44538295 -0.03131046 0.6977442 0.0684596 -0.33626541 -0.010091259 -0.37059316 -0.51686 -0.34993157 0.2037057 0.22441913 -0.31901416 0.3401262 0.070583425 -0.29119274 0.6082322 -0.34985217 -0.059689056 -0.055773374 0.08140669 -0.065384 -0.26115546 -0.2247949 -0.07582191 0.054872878 0.55346555 -0.33839402 -0.40217796 -0.19534612 0.22432593 0.37275064 -0.02072235 -0.09547215 0.075546175
BedLeft 0.43678957 0.06357952 -0.15025489 0.22022875 0.15843819 -0.23389676 0.14112803 0.09986329 -0.038176797 -0.012730607 -0.24392779 0.10982562 0.1028086 -0.122628525 -0.64069 0.17223895 0.33233514 -0.03621399 0.43861216 -0.011204046 -0.3036786 0.018029751 -0.26376453 -0.44845107 -0.29775 0.18026797 0.07180883 -0.27199122 0.26783744 0.021814097 -0.28204265 0.35713795 -0.20257075 -0.036781497 -0.030583413 0.05972432 -0.1367505 -0.114018716 -0.14176504 0.019007917 0.010740075 0.38047445 -0.18231286 -0.18681145 -0.13819084 0.15626231 0.2986386 0.10555 -0.014178561 -0.06905272
ToiletFlushUpstairs 0.4588562 0.1648661 -0.4008539 0.1445892 0.20250392 -0.37479353 0.052697543 0.23185581 -0.030659808 -0.050188217 -0.18384722 -0.0016593456 -0.08711879 0.14452949 -0.45481876 0.2585171 0.35794523 0.06428162 0.58293504 0.14542615 -0.12735918 -0.081124075 -0.28353488 -0.25039706 -0.18534312 0.15155609 0.25925297 -0.18456902 0.27362797 0.054696187 -0.09136666 0.53696966 -0.30951473 -0.023817757 -0.084238015 0.021568496 0.010145804 -0.29097483 -0.25516424 -0.18609014 0.044882078 0.3390438 -0.32044074 -0.38934463 -0.07061813 0.15630585 0.20800892 -0.12953073 -0.10266388 0.19859143
CupboardCups 0.32147193 0.09794585 -0.17747699 0.073777385 0.24083702 -0.30612352 0.1307958 0.09403846 0.020850064 0.13492739 -0.058770534 0.04470021 0.05208325 -0.08648546 -0.5456797 0.12505734 0.18053238 -0.115244396 0.35048613 -0.018026412 -0.2207977 0.017454306 -0.19999579 -0.28455454 -0.12987329 0.05015865 0.099036135 -0.15388672 0.10754288 0.040712345 -0.14940964 0.3378858 -0.20630072 -0.13735949 -0.02589547 0.12231217 0.010671151 -0.1210528 -0.061054185 0.002771231 0.04161109 0.3907453 -0.14960203 -0.2857547 -0.15357356 0.210063 0.22660762 -0.065487675 -0.116352566 0.03353066
Microwave 0.37724656 0.09389084 -0.16433834 0.124137975 0.19343044 -0.28403953 0.12329404 0.08316737 -0.020891886 0.06782064 -0.1275959 0.06967642 0.06480402 -0.11819641 -0.58781016 0.13824676 0.24117137 -0.08282119 0.38290483 -0.007361925 -0.2726639 0.018434528 -0.24491963 -0.35408646 -0.22394148 0.120731436 0.08255891 -0.20466316 0.19143625 0.025596123 -0.22768025 0.34506974 -0.21983832 -0.08648806 -0.018577933 0.09643 -0.049402706 -0.12715045 -0.11802555 0.027118333 0.042056113 0.40198633 -0.16632724 -0.25020093 -0.14024058 0.19674848 0.26606438 -0.001096182 -0.07535087 -0.020609576
Freezer 0.3270111 0.0838981 -0.15055606 0.08663478 0.2117821 -0.27593598 0.13601582 0.07201677 -0.015753381 0.08397877 -0.10934029 0.071050465 0.059551023 -0.09757605 -0.54083365 0.11427478 0.19320276 -0.09342687 0.33349633 -0.026662586 -0.24027352 0.024715135 -0.21338762 -0.30373758 -0.18467046 0.087704115 0.097788736 -0.1786358 0.123676434 0.031698987 -0.19664806 0.30727303 -0.18944019 -0.08162536 -0.015972206 0.083800286 -0.0037233648 -0.101796895 -0.07715043 0.051851235 0.045340877 0.36271584 -0.122366115 -0.24849623 -0.16708092 0.1715819 0.23894067 -0.031580202 -0.09257686 0.013817707
Saucepan 0.3171821 0.11215164 -0.1826363 0.06380012 0.23174135 -0.3106302 0.1258403 0.08711287 -0.005677822 0.10358119 -0.0683868 0.048654247 0.041975264 -0.0605813 -0.5020177 0.10940464 0.17799093 -0.10622815 0.35045502 -0.007865399 -0.20096797 0.002286354 -0.1982174 -0.25810495 -0.13853294 0.06720005 0.10964188 -0.15357073 0.114628896 0.038781103 -0.14553927 0.3129881 -0.19329628 -0.10720328 -0.032568276 0.11265684 0.02189862 -0.1356913 -0.08124407 0.014676609 0.057955887 0.3627677 -0.14486593 -0.27741915 -0.15987402 0.1854777 0.21296458 -0.07415237 -0.12207236 0.04867847
GarbageBin 0.15817828 0.04169864 -0.09556215 0.043704737 0.09436247 -0.12877463 0.05398923 0.03926063 -0.0014884394 0.022108741 -0.055107627 0.022283942 0.009680194 -0.023800349 -0.21001121 0.06882472 0.10292284 -0.019290527 0.16218784 0.0054857805 -0.09273948 -0.0037769834 -0.08893823 -0.12446034 -0.08086182 0.03281059 0.048729748 -0.06695506 0.07636701 0.022201894 -0.07513415 0.14733468 -0.09289934 -0.033241786 -0.021993369 0.03554025 -0.014483061 -0.06970361 -0.05804332 -0.0065263207 0.01923082 0.16122752 -0.066154584 -0.11812618 -0.061660197 0.083381265 0.08874402 -0.016125275 -0.043654576 0.023383366
