21 50
BedRight 0.32475495 0.20169783 -0.0567605 -0.08037698 0.006731779 1.1717211 -1.0417149 1.3750896 0.77592134 -0.18731318 -0.68256414 -1.1942085 0.8931179 -0.035887297 0.08028085 1.1606238 -0.9522325 1.041537 -0.9434518 1.0069163 -0.36944467 -0.11700361 0.7950507 -0.85559565 0.20402084 0.515243 -0.7824261 -1.134843 -0.28000918 1.1592748 -1.1484274 0.11721187 -0.5868365 -0.94598794 0.45576265 -0.713876 0.050954744 0.021098481 0.74351084 -0.17981966 -0.84323066 1.377423 0.75558263 -1.31553 -0.22167484 -0.64741397 0.8983197 0.054905217 0.7234376 0.44971088
Bathtub -0.1104666 0.70944035 0.3836185 0.30424997 0.54146665 -0.5422414 -0.12985198 -0.2061937 -0.08446698 0.52411145 0.23364952 0.17604525 0.59850997 -0.5601657 -0.5703312 0.29721698 0.20704988 0.1506321 -0.3736809 0.33661643 -0.927466 -0.64990777 -0.24912634 0.2888744 0.08117613 -0.20324646 -0.27207464 1.2344304 -0.44609478 -0.51616096 -0.14030185 -0.111815415 -0.57980204 -0.38083783 0.24440567 0.08933819 0.3365316 -0.39265195 0.2276518 -0.16006906 0.39839485 0.29209563 -0.069485284 0.27857953 -0.017718347 0.487728 -0.61121947 -0.07013797 1.1225202 -0.41173416
Couch -0.46592036 -0.5757922 -0.12448732 -0.20862319 -0.08943218 0.36372873 0.472631 -0.23431161 -0.116589375 -0.49283007 -0.08365458 -0.12316046 0.012162635 0.27180645 0.53844726 -0.31098732 -0.40841678 0.25031263 0.2913106 -0.3869084 -0.06273636 -0.05959193 -0.436021 -0.091906026 0.5624048 0.33810052 -0.16327669 0.05742293 0.13218243 -0.19893846 0.19749118 -0.1243885 0.8100401 0.09249272 -0.237938 -0.34862676 -0.15733033 0.24449478 -0.21643454 0.12338678 -0.08713342 0.21031533 -0.3580114 0.20428115 -0.30679783 -0.29845563 0.51434 -0.17299508 -0.20006198 0.36265373
BathroomDoor -0.34232518 0.07390739 0.16798213 0.00609281 0.21518594 -0.11499864 0.26363036 -0.26722422 -0.16536148 0.023122042 0.093256205 0.010504198 0.2767508 -0.06502523 0.0111515075 -0.071642905 -0.06980884 0.18693842 0.053390156 -0.06921836 -0.526143 -0.31677133 -0.4280295 0.1318542 0.35363987 0.06367545 -0.20250173 0.7247554 -0.098481566 -0.39103648 0.043967 -0.12028417 0.17254488 -0.1254787 -0.023499265 -0.17786427 0.10643939 -0.0445333 0.01720813 -0.017224712 0.25116435 0.24303885 -0.25210714 0.33414984 -0.16457643 0.05459949 -0.04134506 -0.15282308 0.45460528 -0.032186773
Fridge -0.45310786 -0.19276635 -0.054196846 -0.17347412 0.05769788 0.14158432 0.38130945 -0.17682602 -0.04873743 -0.26450813 -0.06286586 -0.14378561 0.21248944 0.14708467 0.31315756 -0.09590692 -0.32833984 0.2688206 0.16130309 -0.20669195 -0.39665902 -0.20742764 -0.42529848 -0.0643 0.48804936 0.34128922 -0.21635148 0.45157698 -0.055528983 -0.19326107 0.08723168 -0.20201275 0.54050666 -0.0873176 -0.063447975 -0.35672873 -0.008796647 0.0851521 -0.027702317 0.049554154 0.074556515 0.36955276 -0.24812229 0.17969148 -0.19787452 -0.26006266 0.2886733 -0.17246582 0.17267068 0.17123364
Cutlery -0.53482807 -0.119548336 -0.054225817 -0.20429052 0.11228279 0.055007085 0.42677715 -0.251261 -0.0408206 -0.23752896 -0.027974522 -0.13797867 0.23022187 0.13095368 0.2908244 -0.10917047 -0.34048393 0.24559663 0.21860456 -0.24795488 -0.49146482 -0.23430948 -0.49177086 -0.033649404 0.5161447 0.4014804 -0.24559161 0.635248 -0.09624919 -0.21906629 0.1419266 -0.24742603 0.5899696 -0.13486311 -0.03180225 -0.36462557 0.028354133 0.07954593 0.0029966612 0.011856009 0.13653047 0.42203575 -0.29518613 0.20612332 -0.17269751 -0.2718803 0.25300154 -0.2133751 0.21122806 0.11330195
Keys -0.58261496 -0.11093548 0.19456685 -0.26617357 0.09379469 0.36408186 0.5600145 -0.082962714 -0.044619862 -0.28683683 -0.11409924 -0.40074557 0.31300166 0.18557768 0.20519109 0.010999759 -0.28127578 0.5895168 0.18042344 -0.13920595 -0.6705959 -0.19991837 -0.6059985 -0.066113956 0.6519224 0.29795265 -0.31007692 0.5742103 0.06863607 -0.16737382 -0.0171761 -0.3520658 0.62673295 -0.16533354 -0.08388414 -0.5464948 -0.06396749 0.10712967 0.20791972 0.08240423 0.2397242 0.5733588 -0.1473003 0.24888541 -0.2404789 -0.36229968 0.41962796 -0.20573373 0.39086768 0.09128459
SinkTop -0.34535956 0.11356574 0.22213392 0.001401555 0.2714691 -0.19208625 0.26244503 -0.23108658 -0.17224322 0.09889714 0.08456552 0.04190817 0.36935177 -0.11493972 -0.059866466 -0.015377416 -0.07326367 0.22819516 -0.0059156897 -0.047290865 -0.5942802 -0.40367517 -0.4583089 0.18008994 0.37939757 0.027542155 -0.26178032 0.8557308 -0.12098122 -0.4220073 -0.012906838 -0.10295883 0.06747065 -0.15892653 -0.02474639 -0.19694795 0.12983114 -0.06639935 0.095807485 -0.06522757 0.25125733 0.27649355 -0.2195767 0.33939353 -0.17166628 0.08083457 -0.11925055 -0.13223074 0.54716265 -0.09958946
Frontdoor -0.42445725 -0.23617351 0.023358999 -0.12943712 0.065642536 0.19743817 0.3479137 -0.17807151 -0.08373882 -0.23511553 -0.07215805 -0.13999115 0.20976362 0.13809744 0.26164976 -0.1350699 -0.28975448 0.30249044 0.140153 -0.16597408 -0.37800854 -0.19811316 -0.45131865 -0.027564125 0.50995505 0.23161693 -0.22641958 0.37394714 0.01646123 -0.24858293 0.043205492 -0.15420488 0.51015717 -0.064286016 -0.12803513 -0.3552089 -0.040050164 0.11112486 -0.0064639244 0.05790461 0.06764173 0.3204092 -0.24981105 0.23100072 -0.21750943 -0.20002954 0.2859898 -0.19205388 0.16515565 0.18552673
ToiletDoorDownstairs -0.56196034 -0.12609252 0.11661871 -0.108290754 0.2061586 0.19377789 0.3993332 -0.20205966 -0.09262227 -0.23401032 -0.10600425 -0.22620197 0.41787013 0.040943146 0.26822352 -0.066359706 -0.40926954 0.44421586 0.029147087 -0.09791786 -0.69811153 -0.3603962 -0.5975365 -0.01879239 0.6902234 0.31626415 -0.3713741 0.7053734 -0.08558287 -0.34051937 -0.03868944 -0.21644922 0.5345737 -0.23844698 -0.0652048 -0.49503124 0.040847648 0.04997381 0.07139603 0.045242205 0.15524791 0.5859345 -0.26005018 0.2584331 -0.3052253 -0.19533877 0.33092746 -0.2573328 0.47660816 0.17199776
PlatesCupboard -0.43260545 -0.11303386 -0.003313238 -0.15335631 0.10562153 0.08497687 0.33818766 -0.1836951 -0.050799128 -0.18077539 -0.038116246 -0.15085106 0.25004116 0.10219913 0.24257809 -0.072136566 -0.29839516 0.2872042 0.12446828 -0.15584476 -0.46176124 -0.24569978 -0.4309489 -0.027390309 0.4711947 0.3026261 -0.24323194 0.525231 -0.08025914 -0.2060402 0.06656473 -0.1867942 0.45542893 -0.13858525 -0.050543692 -0.3388068 0.016613886 0.042028956 0.026538508 0.01651131 0.10996274 0.390415 -0.21843173 0.17142497 -0.17892985 -0.20839563 0.23870115 -0.16581674 0.2663909 0.11103526
BedroomDoor -0.2273456 0.015539833 0.07711646 -0.032894503 0.11309808 0.08352772 0.116935104 -0.06803705 -0.03862543 -0.067494296 -0.025878182 -0.14149529 0.24014854 0.014550138 0.07378117 0.03615036 -0.188151 0.23724861 0.0027650036 0.011523475 -0.34468743 -0.19046922 -0.23747413 -0.033806656 0.28478226 0.15155438 -0.21491924 0.3342181 -0.065732844 -0.13117866 -0.05219208 -0.0859653 0.15043521 -0.14786313 0.007957989 -0.23673177 0.040800925 0.012729574 0.072191544 -0.006073337 0.06981501 0.31487396 -0.10416875 0.1046716 -0.14453222 -0.068725355 0.12061043 -0.09657889 0.30835918 0.06396203
Dresser -0.44129157 0.15789214 0.1941315 -0.016369088 0.2935023 -0.0013914303 0.23334086 -0.17763717 -0.08411756 -0.010620228 0.017266847 -0.18836088 0.4517519 -0.04696836 0.051400602 0.061544698 -0.24827187 0.36807624 -0.022713419 0.03690771 -0.7303599 -0.4252495 -0.46269554 0.0018102647 0.50927687 0.22625835 -0.3759177 0.84044063 -0.16496076 -0.30094716 -0.07386342 -0.20280188 0.2216614 -0.2562661 0.044481907 -0.34782377 0.118809514 -0.03844724 0.12810495 -0.013984848 0.24618264 0.52257437 -0.1869712 0.25536615 -0.21250346 -0.04055102 0.098104775 -0.18993123 0.6525185 0.009845054
ToiletFlushDownstairs -0.39180645 -0.12110956 0.061647996 -0.0947852 0.10071042 0.1449169 0.30575696 -0.15757011 -0.07584123 -0.18620428 -0.062154576 -0.13681935 0.25725585 0.056620527 0.20183699 -0.08833049 -0.28289652 0.2880697 0.06102901 -0.102365695 -0.42907342 -0.22616172 -0.4237135 -0.007725285 0.46468168 0.22430524 -0.24737401 0.438364 -0.02509332 -0.24019597 0.010088268 -0.1482865 0.42279607 -0.13480428 -0.074655846 -0.31307995 -0.002928423 0.072912216 0.019436529 0.03822258 0.105291136 0.34824887 -0.21451896 0.2038965 -0.19853485 -0.15368412 0.22798263 -0.16044872 0.25918612 0.13254243
BedLeft -0.29884973 0.110512815 0.12994952 -0.029880239 0.18246214 0.18368219 0.07420169 0.023984622 0.01699982 -0.055021975 -0.06598438 -0.30384403 0.42243108 0.0060462058 0.084588625 0.15761381 -0.32190162 0.37947303 -0.088657364 0.13519749 -0.5447902 -0.3160495 -0.2711405 -0.11488698 0.39328855 0.23457173 -0.3755662 0.4460127 -0.13591604 -0.07349575 -0.17066623 -0.14527126 0.12041538 -0.2773762 0.05214642 -0.37806264 0.09541909 -0.015003107 0.1875717 -0.03940077 0.07580728 0.5454404 -0.05694023 0.046468876 -0.19229795 -0.11832563 0.22430797 -0.13858038 0.5296095 0.06557528
ToiletFlushUpstairs -0.3268377 0.08281025 0.15603964 -0.004126736 0.2195978 -0.08926721 0.2496403 -0.22780833 -0.122854225 0.02103689 0.054164868 -0.02111739 0.30225238 -0.08123055 0.010213057 -0.033552047 -0.087822184 0.20628455 0.03133626 -0.03942685 -0.54643255 -0.3190432 -0.4128719 0.09406571 0.34899843 0.08989416 -0.22122942 0.7038334 -0.12178896 -0.34468216 0.018741146 -0.15023711 0.15637197 -0.14268178 0.0005939609 -0.19737189 0.10365494 -0.053732548 0.051259667 -0.008229143 0.23265041 0.2894974 -0.21157166 0.2725943 -0.13434398 0.015650013 -0.02202452 -0.15143085 0.46660444 -0.032682613
CupboardCups -0.33598915 -0.045824826 0.040179398 -0.10787762 0.11685195 0.10105189 0.23295887 -0.100262076 -0.016818723 -0.14373314 -0.050081395 -0.16880922 0.26650596 0.049860448 0.15154614 0.006011414 -0.26236355 0.27722207 0.043291323 -0.06968834 -0.42647037 -0.23144215 -0.32261267 -0.045405343 0.3957412 0.2487893 -0.2374404 0.44403514 -0.087154455 -0.16384071 -0.006629905 -0.14782137 0.3218765 -0.16378485 -0.013708905 -0.30524078 0.041193306 0.03118675 0.06266348 0.015100838 0.07792164 0.3863722 -0.15911292 0.12919234 -0.15570463 -0.16233231 0.20164187 -0.13054894 0.29503834 0.094500266
Freezer -0.31387743 -0.010199949 0.068341546 -0.07794478 0.11033335 0.10689961 0.20821421 -0.08146926 -0.02335863 -0.099733464 -0.055215508 -0.15955877 0.27017757 0.021112932 0.11702747 0.03748511 -0.21949032 0.295517 0.013803804 -0.032099277 -0.4280909 -0.22963412 -0.3085217 -0.031143093 0.37402487 0.20478871 -0.23026259 0.4115847 -0.08236061 -0.13567066 -0.033924166 -0.14753342 0.24780224 -0.17240782 -0.00095714454 -0.27922148 0.02347318 0.016713072 0.07702866 0.007681529 0.08800908 0.37138718 -0.12425106 0.10947308 -0.14677213 -0.12413979 0.17943214 -0.12045746 0.33234158 0.06239597
Microwave -0.28779948 0.004289849 0.06865311 -0.06360356 0.12149198 0.058637153 0.18108436 -0.08269842 -0.019014634 -0.08681982 -0.02524532 -0.13423811 0.26020706 0.017180461 0.1101795 0.015923312 -0.2070574 0.26004615 0.012280826 -0.04223256 -0.4251706 -0.23681088 -0.3036435 -0.025441797 0.33373287 0.17457299 -0.23006596 0.43188092 -0.08991676 -0.16434827 -0.033678498 -0.13381468 0.22972873 -0.15716049 0.0012522478 -0.2532149 0.041397493 0.008694232 0.07824951 -0.0038862345 0.083938114 0.34676343 -0.12707211 0.12077087 -0.15088727 -0.105649106 0.1266502 -0.1245549 0.31629 0.05116607
Saucepan -0.25795156 -0.017537767 0.05799733 -0.069464296 0.097219594 0.07293542 0.19356614 -0.08598945 -0.028877152 -0.08442322 -0.020610344 -0.11949249 0.22666194 0.029182758 0.08789481 -0.0007587634 -0.16613257 0.23117836 0.032606915 -0.03778664 -0.3669184 -0.18230921 -0.26573202 -0.019132553 0.3061253 0.15484622 -0.17905916 0.38104355 -0.061432615 -0.14420171 -0.0024341843 -0.12424494 0.22887196 -0.116123945 -0.015287614 -0.21632129 0.035643607 0.006954955 0.049411952 0.01100998 0.09885768 0.28597602 -0.11045819 0.123151176 -0.12606286 -0.09848971 0.12381034 -0.104336135 0.25902963 0.044436928
GarbageBin -0.14867939 0.004125916 0.0347966 -0.034075756 0.068701245 0.010074319 0.10203058 -0.064784884 -0.029447379 -0.026825283 -0.0014496748 -0.025745329 0.10525048 -0.001685816 0.04041511 -0.024697743 -0.076927766 0.09523307 0.021386022 -0.031822875 -0.19150808 -0.1138656 -0.15557386 0.021450115 0.14596125 0.070167236 -0.08337193 0.22991213 -0.02752622 -0.108367525 0.0040870993 -0.06025883 0.12527235 -0.05150472 -0.018300904 -0.104766905 0.014423674 0.0015560247 0.013429189 0.0042622667 0.072434135 0.12662661 -0.0730534 0.09033064 -0.05418739 -0.031865463 0.04644938 -0.068090424 0.13725103 0.015052737
