21 50
BedRight 1.0800668 0.3553003 1.2122905 0.3909217 -0.017714314 0.35706663 -0.4825053 -0.7538075 -0.015138108 0.646265 -1.1681284 -0.16520864 -0.42300212 -0.8900833 0.6923068 0.81580114 0.3459472 0.2030913 0.7082104 0.46601626 0.028484624 1.1432244 -0.11847774 -0.8815967 -0.160232 -0.7677341 -0.11477036 0.56427264 1.4636471 -0.82351065 0.048498727 0.6398708 -0.92535406 0.63476783 -0.73212373 -0.2357137 -0.35611227 -0.8890978 1.2857794 -0.20123746 -1.2326615 -0.8701661 -0.9396285 0.28649372 -0.16190417 -1.2232083 -0.33777744 -0.9520088 1.1224244 1.197008
Bathtub 0.23163849 0.62161046 0.15032572 0.16888717 0.23738259 -0.65720606 -0.65690535 0.34062967 0.66432494 0.43735507 -0.6931672 -0.79251105 0.22126426 -0.5923637 -0.6217565 -0.20567901 -0.55760753 0.47208855 -0.3571473 -0.78204095 -0.058810618 -0.30869567 -0.62352073 -0.251755 0.4407828 0.6275005 0.2230653 0.24548337 -0.046005357 -0.5515538 0.33949313 0.5695183 0.17641611 -0.37018222 -0.49649122 0.26307592 0.6067762 0.09198855 0.012866199 0.38782468 0.046503857 -0.17196997 0.65554154 0.49113986 -0.34170184 0.5579196 -0.46361184 -0.5562961 0.59544027 0.10616073
Couch 0.08597228 -0.16727297 -0.3539315 0.4194994 0.34934977 -0.06132062 -0.05189414 -0.037881296 -0.1093243 -0.39104325 0.51041543 0.31897375 0.04510933 0.26026434 -0.1387307 -0.103634514 0.44436654 0.17465208 -0.16169935 0.6130369 0.19937404 0.48138934 -0.3601504 0.22928058 -0.16104329 -0.16789068 0.077567704 -0.102463216 -0.06172343 -0.075024106 0.19644314 -0.6792214 0.2792224 0.14466219 0.006565188 -0.17739129 0.05766991 -0.7300156 -0.43899474 -0.39447674 -0.07143591 0.4028711 -0.53864527 -0.14245275 -0.23891062 -0.020754926 0.19348201 0.30347255 -0.40028682 0.5364049
BathroomDoor 0.15120041 0.19667281 -0.12367785 0.26620883 0.267872 -0.4049988 -0.358178 0.13159488 0.27339664 0.018578872 -0.080425404 -0.30230403 0.24107857 -0.17908794 -0.44086334 -0.24731855 -0.19551782 0.2788639 -0.2943112 -0.14376308 0.06935132 0.04208671 -0.47708592 0.028963806 0.23222114 0.27447176 0.15071777 0.1416593 -0.08230442 -0.28341174 0.23075274 -0.056422293 0.34721944 -0.1376433 -0.16920075 0.09106987 0.3623981 -0.23115255 -0.2616397 0.050125733 0.041841067 0.16550833 0.15544508 0.20867532 -0.31348786 0.3263802 -0.07685449 -0.16368484 0.06245991 0.27331656
Fridge 0.17014179 -0.036959004 -0.3138116 0.43727916 0.3703154 -0.22087517 -0.20648907 -0.044594523 -0.07329411 -0.16469511 0.25766367 0.023228832 0.21509877 0.055839114 -0.16114673 -0.30624318 0.23535532 0.15876217 -0.1950495 0.3156864 0.13155061 0.42576912 -0.3527294 -0.0055357423 0.010976467 -0.0800723 0.04989133 0.1573793 0.0031854126 -0.3013771 0.18625122 -0.5160926 0.3187805 0.107086495 -0.03278442 -0.004658038 0.28837854 -0.64820015 -0.33055344 -0.25507778 0.0113150785 0.33746222 -0.22344485 0.08453466 -0.3067403 0.123286195 0.06542333 0.10268632 -0.17804924 0.5264582
Cutlery 0.14382257 -0.00642796 -0.32770428 0.4164336 0.34873092 -0.268777 -0.22786938 -0.0030373086 -0.08679736 -0.14983708 0.2607189 -0.02669228 0.23912197 0.077273406 -0.15106323 -0.35155994 0.20848659 0.16284144 -0.18649328 0.2501038 0.1337295 0.36014116 -0.34176347 -0.0020638672 0.011503692 -0.035629336 0.03303938 0.18800187 -0.035608716 -0.31464702 0.15216757 -0.5168319 0.36739826 0.09236887 -0.025244491 0.027959978 0.34810457 -0.568999 -0.36238614 -0.24067765 0.03327365 0.31475908 -0.12259453 0.11498715 -0.31676847 0.1782549 0.05394832 0.12725769 -0.16565004 0.46864748
Keys 0.4388223 -0.10042254 -0.34480408 0.7372795 0.49228868 -0.19947554 -0.24133644 -0.20747228 -0.06057138 0.025014797 0.057087515 -0.124299794 0.438192 -0.17471851 -0.30595726 -0.32552588 0.13751978 0.092473954 -0.28727108 0.47167933 0.073624924 0.7567031 -0.5215642 -0.2431845 0.082244776 0.014568927 0.100530975 0.31781238 0.1045315 -0.5539082 0.38932577 -0.4669483 0.39876968 0.30464664 0.0118009085 0.10106396 0.26628602 -1.0179999 -0.22799154 -0.43080655 -0.0019255058 0.44638738 -0.25985238 0.28096858 -0.56061125 0.033759158 0.03439471 -0.05067363 -0.03213306 0.8013478
Frontdoor 0.1539765 -0.025691587 -0.33826682 0.4045999 0.39091247 -0.22015935 -0.21917105 0.008306211 0.05061798 -0.20582268 0.28092298 0.009230034 0.20103262 0.089739025 -0.30384758 -0.31111157 0.17079692 0.19016308 -0.2288947 0.27022514 0.11451307 0.37477627 -0.4450244 0.093361944 0.06725243 0.026999488 0.11622024 0.06421164 -0.09949342 -0.25932285 0.24635455 -0.4521717 0.36702827 0.052101668 -0.025511276 -0.01894188 0.27409238 -0.6141997 -0.36048502 -0.21264055 0.033955198 0.33191782 -0.18660054 0.09838865 -0.32276803 0.17790152 0.06911563 0.09625195 -0.1966962 0.47929516
SinkTop 0.14861315 0.22553183 -0.2129738 0.30942792 0.33365265 -0.5216999 -0.42006862 0.19775128 0.31989935 -0.021905052 -0.02533459 -0.36204594 0.33122244 -0.1812082 -0.5580279 -0.35302678 -0.22698739 0.30525282 -0.3644671 -0.19022252 0.073890924 0.049521256 -0.58174485 0.04867503 0.28266454 0.33411714 0.18749677 0.17105393 -0.15040475 -0.3318001 0.30566064 -0.13470633 0.46863148 -0.15523036 -0.15242104 0.15398504 0.4828856 -0.28262186 -0.35550627 0.056949694 0.103975356 0.25569794 0.21599369 0.2732968 -0.38847822 0.45197907 -0.08787077 -0.1591137 0.021276796 0.29557183
ToiletDoorDownstairs 0.30263412 0.03439738 -0.2812218 0.48191243 0.45900345 -0.29766712 -0.31694013 -0.01660662 0.098009065 -0.13827944 0.18285926 -0.082672276 0.24440436 -0.026774514 -0.39028713 -0.36570606 0.14953248 0.24376899 -0.2965325 0.23973061 0.1312338 0.48438677 -0.57143235 0.014773845 0.09317333 0.035439923 0.15814103 0.14817572 -0.062278975 -0.37688652 0.27662 -0.4827017 0.42934525 0.09090312 -0.12903626 -0.010222737 0.36471337 -0.7593581 -0.37760466 -0.23830895 -0.027508158 0.36185628 -0.2041377 0.2045334 -0.4364048 0.22531185 0.009444854 0.033070065 -0.14629169 0.5988196
PlatesCupboard 0.2118313 0.034909602 -0.23240499 0.41719294 0.3582593 -0.26231542 -0.27036285 -0.019572519 0.0035451613 -0.110629775 0.16181423 -0.054203592 0.21544622 -0.01729101 -0.20505522 -0.28826654 0.14216568 0.18593064 -0.19986948 0.22213425 0.12052979 0.3806426 -0.4103133 -0.03597633 0.05893341 -0.012817779 0.08952152 0.17392705 0.021190269 -0.3351021 0.19826429 -0.39795026 0.3138771 0.0635987 -0.079126 0.014312341 0.31401834 -0.5820153 -0.28752548 -0.20406626 -0.011403538 0.27698165 -0.13907008 0.12547554 -0.32300743 0.1416664 0.023868496 0.013123337 -0.098205246 0.51145595
BedroomDoor 0.19648194 0.070759684 -0.059395857 0.25352678 0.22087245 -0.18767196 -0.21308765 -0.015409255 0.09396855 -0.008779904 -0.015982326 -0.109217 0.11550001 -0.11402379 -0.18979499 -0.12423126 0.009302463 0.17745522 -0.13119143 0.09976315 0.061521553 0.24074252 -0.31637198 -0.041804206 0.06824224 0.019410666 0.087151445 0.10767582 0.0447279 -0.24426164 0.164315 -0.14606968 0.17838602 0.033757593 -0.12488403 0.016461797 0.19597444 -0.358848 -0.11596541 -0.069835305 -0.08614583 0.10010011 -0.10404526 0.12760876 -0.23019885 0.07419845 -0.0120951915 -0.07841578 0.042407297 0.34912914
ToiletFlushDownstairs 0.16762827 0.018262772 -0.22879599 0.31070462 0.30616826 -0.19750996 -0.20388138 0.0002999661 0.051821258 -0.121305 0.16813903 -0.030426698 0.17343056 0.03839996 -0.2735652 -0.26133198 0.106142305 0.16855443 -0.20608863 0.16663644 0.10649689 0.29174814 -0.36846593 0.06907275 0.06992974 0.027141409 0.093946844 0.08354174 -0.08350263 -0.22474147 0.18416865 -0.36728472 0.30838332 0.05057961 -0.06722699 0.0047075213 0.23210956 -0.4963003 -0.30464202 -0.15452474 -0.00093850447 0.27407664 -0.121589616 0.11163137 -0.29399213 0.1658219 0.04008302 0.06537498 -0.14057188 0.37880147
BedLeft 0.32951036 0.15065199 -0.03737863 0.36038437 0.32606182 -0.28543174 -0.32936692 -0.049225967 0.13893552 0.03789758 -0.111048326 -0.18048434 0.15731594 -0.25230742 -0.24448103 -0.21457401 -0.026932029 0.24285547 -0.19717833 0.1212643 0.07684628 0.36931938 -0.48238513 -0.13592756 0.110695906 0.030021567 0.10617626 0.22468905 0.103486046 -0.43621376 0.22879478 -0.1632352 0.20210819 0.05047784 -0.21429358 0.059918858 0.30375707 -0.5344129 -0.12010106 -0.092449665 -0.15323226 0.11629212 -0.1283776 0.24343883 -0.36374748 0.11028429 -0.04973749 -0.18864702 0.12930107 0.5359185
Dresser 0.31215987 0.19263393 -0.18380249 0.44008705 0.43949714 -0.4455736 -0.41039905 0.045696683 0.21015611 0.004411407 -0.031894635 -0.24705353 0.2729927 -0.23132052 -0.4345201 -0.3481576 -0.06991387 0.3153702 -0.33576941 0.05967907 0.09150721 0.34255418 -0.6243662 -0.07648616 0.18771912 0.17284971 0.17736058 0.23708616 -0.015475949 -0.47544724 0.32855624 -0.2457382 0.36619353 -0.024739718 -0.21626587 0.104399316 0.4418159 -0.58297503 -0.30005148 -0.07753886 -0.03177361 0.2572037 -0.02519366 0.29947242 -0.4418874 0.27682146 -0.059168104 -0.15963314 0.07115406 0.5478652
ToiletFlushUpstairs 0.13720739 0.15180302 -0.21295612 0.30906978 0.32825765 -0.38764217 -0.31869212 0.13882768 0.20874016 -0.025699548 0.00485487 -0.2449747 0.26134053 -0.12765951 -0.4093611 -0.31557092 -0.12222565 0.2479323 -0.31499344 -0.08222088 0.0737069 0.10838089 -0.485417 0.008664271 0.19426212 0.23488204 0.14641523 0.12798443 -0.11316949 -0.2965979 0.24388473 -0.16428146 0.37903905 -0.11223915 -0.13434619 0.10800286 0.4024874 -0.31605724 -0.3092149 -0.014739105 0.07945272 0.22980401 0.13515592 0.21600963 -0.33343357 0.35218513 -0.05082271 -0.08830178 -0.0015839412 0.31287417
CupboardCups 0.18126392 0.037847374 -0.21943651 0.35063615 0.31613383 -0.26059127 -0.23786873 0.00045975507 0.049756754 -0.067118905 0.114369415 -0.09478245 0.21123263 -0.038861718 -0.2373168 -0.26097894 0.07220107 0.16989535 -0.19614153 0.1491166 0.083874285 0.28369448 -0.37302938 -0.027743386 0.07274196 0.045313053 0.07875797 0.15095575 -0.010210245 -0.28889918 0.19422399 -0.30760688 0.3012277 0.038918763 -0.084014006 0.028952274 0.2963066 -0.48318788 -0.24826846 -0.15762648 0.00017614606 0.23181431 -0.07650471 0.14642183 -0.2916163 0.15529361 0.015047925 -0.0012197456 -0.056131165 0.4111854
Microwave 0.21018542 0.07554204 -0.16976024 0.34265333 0.30532593 -0.26239207 -0.27303216 -0.0020626457 0.067393295 -0.038321663 0.049080063 -0.10522281 0.17914645 -0.07890588 -0.2224101 -0.23108952 0.058557834 0.19849715 -0.19164608 0.12635282 0.09332887 0.29906452 -0.38056841 -0.058092155 0.08936964 0.035536036 0.09290675 0.16208653 0.031403143 -0.3127722 0.20783523 -0.25799724 0.24684952 0.044991896 -0.1065795 0.033445172 0.28238058 -0.475078 -0.1957888 -0.11875773 -0.032586377 0.19691287 -0.09698832 0.16244347 -0.30006853 0.13113722 -0.013664489 -0.044597883 -0.0043064617 0.4246634
Freezer 0.22116004 0.07274728 -0.13182022 0.3398059 0.28565636 -0.21388601 -0.24873202 -0.030976418 0.07416738 -0.0010734207 0.012414042 -0.11396312 0.18000178 -0.10835264 -0.21165857 -0.18928836 0.03603595 0.16270564 -0.16790652 0.12026421 0.07927289 0.3109858 -0.3552754 -0.07005785 0.082276165 0.032147627 0.08620753 0.16165428 0.052727457 -0.31198892 0.1840757 -0.21600991 0.2243514 0.05686406 -0.09251257 0.024498658 0.2376085 -0.4574712 -0.15069433 -0.120533906 -0.05016017 0.16894837 -0.09044205 0.16392946 -0.28780982 0.10880032 -0.012858497 -0.062894404 0.020463115 0.41014838
Saucepan 0.16947563 0.0361054 -0.16622202 0.30225152 0.26632887 -0.20473385 -0.20476055 -0.013128791 0.045422956 -0.050803762 0.061293803 -0.084802896 0.16479172 -0.050561767 -0.20226742 -0.20719382 0.06264483 0.14877374 -0.17422143 0.12188715 0.06553339 0.24438697 -0.31307358 -0.017887473 0.070296526 0.03937957 0.08177723 0.11770047 -0.010818336 -0.24122538 0.17706785 -0.24850869 0.23001385 0.032714084 -0.077631384 0.022181084 0.23185317 -0.40831274 -0.19572714 -0.13234448 -0.0056896824 0.18304166 -0.07310351 0.122492164 -0.24113071 0.12980269 -0.009059511 -0.024970558 -0.028542416 0.3599736
GarbageBin 0.08724151 0.03537549 -0.07287924 0.14426696 0.12935813 -0.1104007 -0.111126855 0.021030972 0.042310223 -0.023134965 0.029036803 -0.05306929 0.09718378 -0.04347548 -0.1272209 -0.11536113 0.0060682427 0.09137526 -0.08902664 0.033737496 0.035657547 0.114909306 -0.17905101 -0.013400307 0.03698229 0.04418208 0.040434334 0.065400936 -0.019532086 -0.124560334 0.08500884 -0.09864616 0.12856697 -0.0029294353 -0.050381843 0.022066986 0.13230534 -0.18325503 -0.10764602 -0.0426103 0.007762371 0.088080384 -0.017120712 0.08078273 -0.12682351 0.08322814 -0.0008583965 -0.021723825 0.00024395145 0.17271209
