21 50
BedRight -0.5570471 -1.0012702 -0.46873397 -0.024980163 0.57950675 1.1436156 -0.9852874 -0.7375774 0.52391195 -0.7373101 -0.23194359 -0.3140853 1.3025064 -0.21636723 -0.9247258 -0.094603494 -0.8228394 -0.4627877 -0.80499536 0.15790762 -0.32231662 -0.8103503 -0.50215304 0.561351 0.48182312 -0.6570316 -0.20337197 1.1234537 -0.506966 -0.24172902 0.70023215 -0.2636029 1.2979909 -0.46176687 -1.3809904 -0.3861946 0.9869664 1.1759353 -0.17360337 0.89397794 -1.2583894 0.87173414 -1.0656432 0.05542264 0.13371149 0.13884383 0.3074379 -0.6570822 -1.3902761 -1.4215634
Bathtub -0.014806563 -0.45639566 -0.49269032 -0.5951087 -0.0068793013 0.69500846 0.30420673 -0.65404546 0.29853177 -0.19073214 -0.69362956 -0.056896858 0.18586789 -0.28898495 -0.13121949 -0.1703238 -0.20969717 -0.33997685 0.53538287 0.5608796 0.5585161 0.3015664 -0.2182767 -0.9011292 -0.2463647 0.48569512 -0.46324515 0.36460045 0.60711586 0.49489915 0.061296996 -0.3078034 -0.29075176 -0.0046307067 0.26168966 -0.43535972 -0.2737178 -0.23567425 0.6965074 0.6373317 0.6585514 0.40950537 0.2050289 -0.37301606 0.16583343 -0.15150133 0.32318652 0.3227893 0.76714796 0.2526233
Couch -0.19970794 0.42634016 0.35491216 0.15279385 -0.32211646 -0.07575837 -0.13476999 -0.17453854 0.12305795 0.40869033 0.10304739 0.4267227 0.21815157 0.104875155 0.55347896 0.28540906 0.03326627 0.20965675 0.3533142 -0.23380975 0.3111506 0.14707007 -0.043181293 0.21186414 0.4106494 -0.49818945 0.13440284 -0.3797498 0.12650597 -0.43802738 -0.0030500095 0.69380385 0.18858534 -0.14337233 0.010801423 -0.38505653 0.009383701 0.2813122 -0.014735408 -0.32656404 0.03807471 -0.1470835 0.014885702 0.14833951 0.31633216 0.4309294 -0.55607843 0.30709207 -0.15330602 -0.3864677
Fridge -0.23957537 0.15786225 0.16489092 -0.09741397 -0.15199262 0.33571124 -0.0046922914 -0.36516324 0.29886314 0.1560735 -0.06293779 0.33782697 0.34870958 0.0745055 0.398034 0.1314146 -0.025394352 0.19786689 0.33607104 -0.06374858 0.40775445 0.09459911 -0.12419041 -0.20838113 0.300338 -0.3433096 -0.0331658 -0.15011945 0.28536546 -0.24064744 0.19001846 0.5350862 0.14810102 -0.08896033 -0.17362535 -0.5019533 0.06860398 0.29451144 0.2540539 -0.076278634 0.057724148 -0.039788157 -0.05533982 0.0002371901 0.30860993 0.4115362 -0.40414527 0.27863124 -0.064108595 -0.47470477
BathroomDoor -0.19711289 0.04920153 -0.003564516 -0.20117907 -0.21773116 0.34040236 0.032034818 -0.3944835 0.2181276 0.13962719 -0.25966853 0.20785396 0.23663256 -0.0125729395 0.29582658 0.12046292 0.016021082 0.039317522 0.4691375 0.09388768 0.4936475 0.17874117 -0.16091983 -0.31736663 0.11809605 -0.083064936 -0.13079663 -0.022047125 0.3774643 -0.047703397 0.11057559 0.2899988 -0.047733616 -0.06319415 0.10959565 -0.4996081 -0.09193841 0.10446722 0.32163593 0.094798334 0.3262563 0.049846407 0.05705176 -0.11559638 0.23351462 0.21005177 -0.25422245 0.35680598 0.25511327 -0.18461224
Cutlery -0.22598952 0.15519269 0.19957043 -0.07349001 -0.13193586 0.24583548 0.02488311 -0.31585273 0.24484101 0.1515742 0.009161731 0.32791376 0.30514574 0.078960754 0.37300658 0.10544389 -0.030029306 0.20812157 0.28949496 -0.084047005 0.37018338 0.065484226 -0.08935098 -0.15569673 0.3211667 -0.37178797 -0.021603433 -0.1839136 0.2156959 -0.27598044 0.17554982 0.53964114 0.13957877 -0.07336171 -0.21736781 -0.43517667 0.035945993 0.28494722 0.2113032 -0.13034807 -0.011717376 -0.11323462 -0.0574705 0.009650762 0.26219228 0.39405543 -0.38240638 0.24040905 -0.124557234 -0.465949
Keys -0.5724833 0.2523755 0.05815009 -0.123712674 -0.28748992 0.7064886 -0.184017 -0.3957726 0.5788904 0.08965626 -0.16572584 0.29644787 0.6127047 0.10888266 0.4824513 0.118766375 0.052869145 0.3439403 0.43901557 -0.13454516 0.7282439 0.061764587 -0.276829 -0.45221606 0.24356198 -0.2877238 -0.13346684 -0.048892926 0.5057853 -0.19400202 0.38664946 0.5478923 0.19193844 -0.105785854 -0.22546698 -0.8230181 0.25692827 0.3778811 0.41146827 -0.015222998 0.051273916 0.12574174 -0.17700532 0.040399604 0.48341265 0.5826867 -0.5849725 0.40515164 0.08585045 -0.571399
SinkTop -0.13691679 -0.02371715 -0.08195568 -0.25377318 -0.19477303 0.32383788 0.13387479 -0.42862466 0.18710873 0.11775475 -0.33088672 0.16666271 0.11635469 -0.033926044 0.28450638 0.08357521 0.027682416 0.006187711 0.49548316 0.16669655 0.5104145 0.23994887 -0.15739684 -0.43128762 0.011885974 0.037911765 -0.18600537 -0.016418038 0.44549277 0.08041825 0.058525905 0.21198694 -0.1722976 0.0009974305 0.20862983 -0.46823114 -0.15200166 -0.01923637 0.39476293 0.16450737 0.46286514 0.057205588 0.1325208 -0.14630818 0.19225127 0.11057588 -0.17065737 0.38674498 0.39509138 -0.002704001
Frontdoor -0.21184419 0.18700778 0.16017325 -0.09078286 -0.20280877 0.22027041 -0.0071701617 -0.27964047 0.21949793 0.23235904 -0.06667524 0.30037764 0.25783858 0.014365423 0.40695322 0.14265296 0.008054626 0.12470772 0.38850978 -0.037708633 0.42377067 0.14713442 -0.11147711 -0.15863758 0.21131313 -0.25721356 -0.004599015 -0.15547214 0.2979319 -0.18608163 0.10781472 0.45100626 0.08376995 -0.11325615 -0.022154944 -0.45336294 -0.036886033 0.20088102 0.23028602 -0.06382032 0.17373064 -0.033016022 0.0042714216 -0.010737233 0.27046362 0.356208 -0.3357087 0.29656795 0.06376343 -0.31670725
ToiletDoorDownstairs -0.31933197 0.09623522 0.09381177 -0.20717828 -0.23125927 0.53087 -0.068109296 -0.5195317 0.4025445 0.19757313 -0.19636169 0.3712405 0.4820867 -0.009036994 0.43638894 0.14633264 -0.07626935 0.10203545 0.5349267 0.021583185 0.606871 0.13019872 -0.21260141 -0.300509 0.28107676 -0.31954324 -0.07789686 -0.071571805 0.44353798 -0.22893895 0.2405602 0.5681665 0.16864789 -0.15542275 -0.13489482 -0.72321254 -0.00012658467 0.3409448 0.4028707 0.06135998 0.16915166 0.10876227 -0.0402679 -0.0880679 0.3721491 0.44809404 -0.37697187 0.38786536 0.0757978 -0.5133282
PlatesCupboard -0.20464467 0.112262495 0.1215085 -0.08199869 -0.12614614 0.28630668 -0.023564791 -0.32791376 0.23654231 0.13853785 -0.0555142 0.29035923 0.30874175 0.047200445 0.3367987 0.104203686 -0.03809988 0.15028644 0.29576156 -0.043204136 0.37140206 0.08391091 -0.10960187 -0.16497807 0.25545177 -0.30525103 -0.02072493 -0.10501606 0.24938205 -0.21204057 0.1686294 0.4454777 0.14064613 -0.09730932 -0.14162308 -0.42460123 0.047923636 0.261212 0.19951782 -0.030899493 0.064711146 -0.028586302 -0.05767051 -0.0018411736 0.25841242 0.3353192 -0.33547455 0.24559152 -0.05123758 -0.40639955
BedroomDoor -0.17288983 0.025693769 0.008395468 -0.11500321 -0.11768288 0.2686233 -0.028082252 -0.28245488 0.17923003 0.077552825 -0.13872449 0.1588779 0.21350779 0.0033098657 0.19525836 0.07939822 -0.023758585 0.037946984 0.2663148 0.04007692 0.31267124 0.07176881 -0.11897135 -0.1656901 0.14114402 -0.13192083 -0.06638392 -0.001157069 0.22406636 -0.08198866 0.09659765 0.22392277 0.06103845 -0.07817195 -0.01731315 -0.34137726 -0.0054934532 0.14341584 0.20204073 0.07717863 0.1329006 0.047653038 -0.023358736 -0.052946735 0.17227033 0.18651773 -0.19184956 0.20102921 0.06554326 -0.2145039
ToiletFlushDownstairs -0.233458 0.13825504 0.110203885 -0.12580861 -0.22551596 0.33911332 -0.014955118 -0.3490397 0.2722458 0.19938162 -0.121657714 0.2962982 0.30813548 0.019724568 0.3839023 0.14517781 -0.013719672 0.10651969 0.44593477 -0.0057508075 0.48784313 0.1395807 -0.12518762 -0.21911071 0.20983373 -0.23016986 -0.03739835 -0.11408163 0.36043856 -0.16647206 0.15338817 0.47105703 0.067622595 -0.08745521 -0.026010927 -0.53258735 -0.026593708 0.2134789 0.30051753 -0.0055445693 0.18672122 0.027732082 0.0020282394 -0.053424235 0.2879201 0.3522589 -0.3259711 0.32852313 0.10736692 -0.33751225
Dresser -0.3229434 0.018981105 -0.054612275 -0.28380468 -0.20655783 0.56614137 0.045876984 -0.5824184 0.37424573 0.1382912 -0.3429574 0.30885082 0.39216322 -0.026700748 0.3932574 0.08630876 -0.030821988 0.04199087 0.55575407 0.15263611 0.66193926 0.18660413 -0.2586373 -0.48188886 0.19989254 -0.18767679 -0.19627234 0.012570468 0.5143127 -0.08056554 0.18267217 0.37671036 0.028476072 -0.1273911 -0.01625685 -0.71383184 -0.022574956 0.20010056 0.5018255 0.18252589 0.32400104 0.13641998 0.019067809 -0.14909093 0.3513324 0.33456323 -0.3329652 0.4319951 0.23445262 -0.35341984
BedLeft -0.26524684 -0.050432097 -0.059088144 -0.19254181 -0.10434015 0.47506297 -0.06801399 -0.44278583 0.28698477 0.028719911 -0.22283857 0.19192214 0.3739127 -0.021757733 0.19790275 0.04342013 -0.060366504 -0.0049963593 0.2967154 0.105195746 0.4176313 0.032670375 -0.20583175 -0.27201906 0.19218627 -0.20293249 -0.13234359 0.08155363 0.31033415 -0.0855903 0.17903617 0.22814971 0.13337544 -0.12049187 -0.13033804 -0.49122554 0.080285855 0.22324403 0.2938847 0.18467207 0.104312606 0.1373767 -0.094336145 -0.08493504 0.2572777 0.24671865 -0.20224412 0.22916919 0.021287171 -0.35789657
ToiletFlushUpstairs -0.14955878 0.09605568 0.009689723 -0.21747296 -0.22601703 0.284581 0.1417643 -0.34688777 0.19819866 0.16339536 -0.23408148 0.23284434 0.14091952 0.0016394475 0.34759372 0.092258774 0.056215834 0.071320005 0.49748072 0.095387936 0.50468165 0.23326457 -0.12393325 -0.40720382 0.07078386 -0.020343652 -0.11904976 -0.10256428 0.4130548 -0.007814793 0.06845804 0.2953105 -0.1298396 -0.032469936 0.16336319 -0.4519897 -0.15053643 -0.0022738306 0.35890198 0.041783646 0.40055892 0.007406622 0.13397674 -0.11120468 0.22121602 0.19576076 -0.24671076 0.3795115 0.35406753 -0.07850752
CupboardCups -0.19168738 0.06405292 0.044925954 -0.13908747 -0.1258737 0.32630536 0.018294401 -0.33715993 0.24755518 0.103413254 -0.13394627 0.22524191 0.27520353 0.014912727 0.2722374 0.07356782 -0.034047477 0.098043576 0.32126853 0.01594071 0.39327377 0.09160144 -0.12402955 -0.24324717 0.17600667 -0.18352759 -0.08326989 -0.053448614 0.2883081 -0.12076551 0.15060836 0.3438781 0.06779526 -0.07617182 -0.08314873 -0.4338923 -0.001862086 0.19076078 0.26389015 0.032700263 0.12276558 0.035335127 -0.030005945 -0.054673642 0.23315202 0.27410775 -0.26435798 0.2449693 0.06596772 -0.29202187
Microwave -0.21623276 0.03326941 0.033733793 -0.12708017 -0.11491577 0.33033416 -0.027740194 -0.34766567 0.25964326 0.097561836 -0.13151458 0.21965154 0.3010878 0.021783922 0.24794407 0.08593646 -0.032370068 0.08864504 0.30531606 0.033444982 0.37072977 0.091468595 -0.15005068 -0.2074437 0.18223336 -0.20466451 -0.08293171 -0.040500376 0.25409204 -0.12435631 0.1538497 0.3275181 0.09645139 -0.08107794 -0.10035052 -0.43499523 0.037032034 0.19224195 0.25830755 0.04049421 0.09299635 0.044091873 -0.051063973 -0.042100456 0.24017958 0.26092175 -0.24823256 0.24706264 0.0493549 -0.31402454
Freezer -0.21543154 0.061123405 0.031723715 -0.11722215 -0.12928346 0.31979582 -0.034131005 -0.29594246 0.25177145 0.067346014 -0.13018808 0.18524545 0.2919743 0.023055233 0.24066894 0.065776974 -0.02599303 0.0919331 0.26630503 0.0035616786 0.3445065 0.056594867 -0.135122 -0.21054135 0.14967312 -0.18300149 -0.07015202 -0.025882557 0.23860413 -0.1163497 0.15537918 0.28701422 0.10268758 -0.077459194 -0.09994913 -0.40272528 0.04563081 0.20104791 0.23227127 0.039705236 0.08998851 0.064416185 -0.04142768 -0.02054461 0.22432156 0.26268584 -0.2292465 0.22190225 0.042212877 -0.3046611
Saucepan -0.18055686 0.044143368 0.02166214 -0.1055704 -0.1021369 0.29028085 -0.043804284 -0.2706745 0.21776773 0.062214274 -0.10002349 0.18377315 0.26829273 0.003834187 0.2072746 0.07337979 -0.043251418 0.07525463 0.24266958 -1.3670273e-05 0.30483326 0.056344856 -0.1288904 -0.17847528 0.15853705 -0.17078903 -0.055132695 -0.023938358 0.21406502 -0.10835659 0.14119868 0.27967498 0.0890304 -0.06675274 -0.08624156 -0.36863247 0.03943486 0.1867013 0.19476573 0.04164279 0.07356569 0.046790704 -0.046128735 -0.022097716 0.20978794 0.2410475 -0.21872671 0.19260408 0.0011007793 -0.28528714
GarbageBin -0.10384865 0.032330398 0.008224786 -0.07605239 -0.06239284 0.17482854 -0.0060247295 -0.15999456 0.12350402 0.046446178 -0.082933374 0.09716227 0.12633365 -0.0009044502 0.13568124 0.028426986 -0.015615817 0.039016634 0.1558801 0.010411842 0.1902028 0.058190104 -0.06395031 -0.12714785 0.07423046 -0.08419213 -0.052563276 -0.010229597 0.15265527 -0.042569462 0.06084364 0.14529221 0.024965528 -0.036026143 -0.030326864 -0.21315877 0.0032266271 0.08070612 0.13458414 0.03292583 0.07778155 0.022631882 -0.004669644 -0.033899017 0.11312711 0.13258652 -0.10991099 0.123969465 0.040806856 -0.13247268
