21 50
BedRight 0.92006433 -0.993582 -0.13570994 -0.80864185 -0.16915236 0.05797632 0.8620461 1.321176 -0.748528 -0.5283501 -0.15105042 0.34202737 -0.13059762 -0.5366322 1.4185776 0.63905674 0.44715074 1.0346123 -0.42365274 1.3120626 1.3209815 -0.99458915 -0.5126899 0.66429263 -0.54339516 -0.55674744 -1.0026011 0.012645177 0.1969739 0.6888767 0.7298048 0.13343167 -1.1111188 -0.824544 -0.6028235 -1.0635473 1.1652564 0.91462123 0.22627902 -0.47491723 0.36267218 1.0829988 -0.49700156 -1.0650266 0.48816165 1.0177859 0.48913044 -0.20966141 -0.7671298 -0.072715946
Bathtub 0.56605905 -0.45053145 0.5312287 -0.06827845 -0.47827846 -0.018307928 0.5003445 -0.2665119 0.07190271 -0.27301297 0.38244343 -0.43898994 -0.080179505 -0.3296783 -0.4751962 -0.16424087 -0.5008585 0.45152742 -0.68428105 -0.08859505 -0.009962829 0.78218246 -0.10454536 -0.6727902 0.32284683 0.1761599 -0.3856536 -0.120387934 -0.6868666 0.1176756 -0.3448059 0.17548367 -0.40997493 -0.24710457 0.10192723 0.16941565 -0.15939072 0.4266299 -0.39730662 0.75143534 0.6948063 -0.48674324 0.26335254 -0.40926477 -0.085740775 -0.33835512 0.18816033 -0.4390199 0.54608315 0.318917
Couch 0.20264135 0.60068834 -0.32304206 0.19799794 0.5029449 0.14939865 -0.40245852 0.1881181 0.07718236 -0.2571296 -0.41309774 0.5420539 0.55462676 -0.53312886 0.56565946 0.38280898 0.037325304 -0.028425673 0.44464418 0.13221993 -0.118839145 -0.172533 -0.22142813 0.21623963 0.04018197 0.17137916 0.58211875 0.1515529 -0.02133882 -0.4092183 0.043477323 -0.087832205 0.23177089 0.30898145 -0.12521091 -0.04273593 0.082255155 -0.62736446 0.24022926 0.23906785 0.20300204 0.6427114 -0.20720378 0.26610544 0.2934648 0.22101158 -0.39120498 -0.045117203 0.061603513 0.32288238
BathroomDoor 0.3537014 0.064497516 0.21315172 0.12808663 0.014683823 0.04220404 0.03918665 -0.09237573 0.14151621 -0.17302456 0.042541564 0.075620465 0.20491607 -0.4839283 0.031644017 -0.006303358 -0.30044556 0.24089299 -0.24171183 0.0031833565 -0.14972118 0.38870412 -0.11566756 -0.3847436 0.24952413 0.24996613 0.114430934 -0.0040737996 -0.35469043 -0.19404751 -0.21745974 -0.026405174 -0.06563157 0.039678846 0.0134898005 0.16459201 -0.12708484 -0.08128932 -0.09832709 0.63128656 0.5050201 0.034845278 0.14875856 -0.04506998 0.11926331 -0.036383517 -0.15730266 -0.24868655 0.46151552 0.42458096
Fridge 0.25500813 0.2005618 0.04927863 0.18077323 0.31446943 0.026638314 -0.16585086 0.034488533 0.15580094 -0.124923356 -0.15118748 0.37629083 0.35061872 -0.55025697 0.36182174 0.12396259 -0.1016828 0.24390592 -0.0023393852 0.15747604 -0.06587084 0.035010487 -0.09282876 -0.14876075 0.18041196 0.28053322 0.30060172 -0.0734336 -0.21136202 -0.27317643 -0.122523546 -0.12737384 0.018277122 0.10489546 -0.121171206 0.05648989 -0.039441764 -0.22556566 0.060367472 0.5398456 0.46758565 0.3976641 0.11839218 0.13728502 0.23815696 0.1603677 -0.2565484 -0.17346115 0.36809832 0.3790712
Cutlery 0.20345798 0.22113559 0.09270487 0.22598405 0.36306268 -0.02564999 -0.21370873 0.01689988 0.16916308 -0.07073114 -0.15324329 0.40604323 0.3315872 -0.5578199 0.30663833 0.11940644 -0.12833245 0.23952286 0.03077187 0.12398339 -0.084758595 0.037513133 -0.09666591 -0.1392698 0.22147371 0.3376748 0.32347658 -0.11251985 -0.21769735 -0.2865815 -0.1269775 -0.12977791 0.07791889 0.12263981 -0.114750825 0.052007746 -0.06476738 -0.25836346 0.100717835 0.5743005 0.45036757 0.40052512 0.16696371 0.20134807 0.24273364 0.15808934 -0.29016605 -0.18390353 0.40575817 0.3639403
Keys 0.49303803 -0.0032565407 0.25401586 0.16464245 0.43160394 0.20137854 0.08220078 0.15653807 0.13288341 -0.25032565 -0.1004549 0.64754695 0.4841469 -0.8551832 0.80632997 0.03384635 -0.048728902 0.5979745 -0.2322933 0.4562736 -0.06303172 -0.060691446 -0.14711174 -0.35587507 0.3040489 0.38002968 0.22695218 -0.1932751 -0.2757109 -0.3361859 -0.22231995 -0.118622944 -0.13310249 0.02946892 -0.05669486 -0.06940802 -0.042139135 -0.042354833 -0.03377312 0.88735706 0.91053885 0.48649868 0.24883297 -0.013710312 0.47239015 0.49824917 -0.39501935 -0.25672325 0.604876 0.7288461
SinkTop 0.41002667 0.070185825 0.29070398 0.1637235 -0.0322434 0.0554301 0.052813705 -0.16688558 0.21672599 -0.2189339 0.05944081 0.020944005 0.19866739 -0.55969703 -0.043685995 -0.0728754 -0.38461572 0.31449926 -0.32046545 -0.041278582 -0.18123463 0.51755816 -0.118779704 -0.5125403 0.2981768 0.30749598 0.13448077 -0.02559977 -0.45112857 -0.2072671 -0.3003794 -0.008409289 -0.06378891 0.043211658 0.0076784627 0.21678753 -0.2278291 -0.07775911 -0.13181701 0.7650904 0.60643697 -0.070927516 0.20685816 -0.012872206 0.086593956 -0.09138409 -0.19031294 -0.33235523 0.6060943 0.49990657
Frontdoor 0.30228978 0.29353246 0.014157779 0.18134741 0.2712754 0.060791995 -0.17935617 0.08136414 0.15459248 -0.18827976 -0.19232328 0.3635613 0.3946519 -0.5624673 0.38179225 0.15788092 -0.103659354 0.18428637 0.068122275 0.14669777 -0.13808542 0.06408975 -0.12334236 -0.089048885 0.17854601 0.21477903 0.34507176 -0.007166413 -0.23899497 -0.28078946 -0.110261485 -0.105746746 0.043896914 0.121917926 -0.07868428 0.062497806 -0.005269953 -0.28118035 0.07769854 0.5208023 0.44192716 0.38806424 0.04325602 0.1375171 0.20890026 0.15154502 -0.24954946 -0.157619 0.32682577 0.40573165
ToiletDoorDownstairs 0.48788592 0.3071161 0.121321075 0.24798946 0.3284594 0.089394756 -0.13865441 0.08243229 0.2134191 -0.3176152 -0.18798034 0.48816547 0.5241643 -0.82778454 0.46672487 0.1986162 -0.24823026 0.3235248 -0.02307805 0.19184156 -0.193033 0.18029231 -0.18871206 -0.2428843 0.3030998 0.32230172 0.42676416 -0.04732783 -0.42026672 -0.36247808 -0.1959948 -0.12310728 0.024430003 0.1206041 -0.0855453 0.10450322 -0.049401924 -0.33919454 0.02318796 0.84986174 0.6801835 0.4333507 0.11918654 0.12613836 0.30752146 0.17162475 -0.34694517 -0.2994832 0.57525855 0.60592645
PlatesCupboard 0.3292774 0.1080929 0.12316049 0.14773591 0.24999326 0.013653767 -0.08137409 0.056907807 0.14525789 -0.15451969 -0.124803044 0.32666406 0.3231095 -0.5850633 0.3439459 0.117923036 -0.14315844 0.31741157 -0.093266584 0.17600624 -0.041592173 0.100678675 -0.109908134 -0.19513352 0.20072949 0.27858818 0.20777209 -0.09256082 -0.27641088 -0.23100433 -0.12043692 -0.10962922 -0.06215437 0.056357007 -0.12891775 0.035338186 -0.013337221 -0.15879221 0.03211475 0.5819611 0.53212976 0.36464754 0.13965693 0.06186778 0.22412474 0.16839617 -0.21821865 -0.21759823 0.4082432 0.3896399
BedroomDoor 0.29525837 0.09243252 0.10318651 0.10360473 0.11040756 0.049333166 -0.014375779 0.021031527 0.09080759 -0.1483975 -0.045754112 0.1921673 0.23514594 -0.44124237 0.20687784 0.06644705 -0.15279286 0.20990859 -0.1137685 0.098370284 -0.05782393 0.14945644 -0.102735475 -0.18347634 0.15314592 0.17202833 0.13113332 -0.00798816 -0.22263764 -0.16341333 -0.10885545 -0.039264712 -0.054908343 0.034278315 -0.041488614 0.044153087 -0.026422087 -0.105850056 -0.0037421137 0.4549081 0.41023225 0.19359477 0.07195227 -0.02408197 0.15165293 0.077742845 -0.1392011 -0.18073998 0.29832566 0.33197436
ToiletFlushDownstairs 0.3032378 0.14469333 0.076260336 0.11431466 0.19214 0.057642672 -0.06337053 0.08832365 0.08692264 -0.19863932 -0.11915046 0.29141784 0.29751456 -0.4740539 0.313076 0.13205935 -0.13195056 0.21303207 -0.03729907 0.1483094 -0.07677946 0.083602324 -0.12911282 -0.12136363 0.14042258 0.15455364 0.21300031 -0.021164471 -0.22987595 -0.17558925 -0.0839772 -0.057643518 -0.03461163 0.04680936 -0.058678906 0.016304065 -0.0049247397 -0.15763752 0.02108269 0.46094584 0.40488774 0.27547437 0.05388496 0.024185851 0.1807623 0.13080572 -0.18146814 -0.18042988 0.31073081 0.34860778
Dresser 0.54646873 0.029435214 0.24822067 0.1429558 0.105286285 0.039158143 0.08669295 0.0252979 0.12936251 -0.28250378 -0.02818476 0.27884406 0.35751602 -0.74147254 0.3348817 0.091097645 -0.2849196 0.4489206 -0.2923849 0.22118248 -0.05221007 0.30588913 -0.19236279 -0.37229472 0.2820584 0.30028236 0.14252974 -0.06586464 -0.42722648 -0.1857459 -0.18548846 -0.061194245 -0.17210163 -0.0056280675 -0.07015321 0.08252086 -0.033732466 -0.032209173 -0.042650316 0.80580974 0.76717865 0.29597247 0.20093913 -0.10660741 0.23503835 0.15354823 -0.19276892 -0.3424155 0.56025255 0.56308985
BedLeft 0.44094503 -0.03922347 0.15578434 0.034176383 0.078313634 0.038135063 0.12650894 0.133842 0.03906012 -0.22313529 -0.028943114 0.24782296 0.2586918 -0.56606185 0.38048035 0.13735849 -0.15101266 0.39256725 -0.23797001 0.25299475 0.07186861 0.114389054 -0.1606746 -0.20591807 0.13767053 0.16872126 0.024572998 -0.03678465 -0.27473697 -0.081781134 -0.05388396 -0.051532064 -0.20988446 -0.06715583 -0.10863933 -0.025786811 0.09350915 0.0207715 -0.00037066228 0.53469217 0.5713484 0.31772208 0.09379004 -0.1634839 0.22514707 0.20339395 -0.113137014 -0.23621155 0.31835318 0.3934326
ToiletFlushUpstairs 0.3209459 0.085163556 0.22605897 0.16592978 0.061698176 0.04525978 0.012957579 -0.12484104 0.17082585 -0.15552728 0.024881585 0.10587363 0.22787988 -0.4797832 0.025020374 -0.014222019 -0.27824727 0.2363357 -0.21045871 -0.0055718054 -0.16710421 0.37331614 -0.09239271 -0.38944075 0.27073634 0.28463516 0.16235144 -0.043002065 -0.37739804 -0.20815706 -0.24228169 -0.03485092 -0.035688028 0.06400762 0.02621866 0.17172661 -0.16963823 -0.09397452 -0.10360887 0.6531957 0.52146673 0.020764034 0.18261527 0.014260804 0.10259237 -0.05161529 -0.17390175 -0.25046274 0.50651443 0.42080718
CupboardCups 0.25477496 0.100699894 0.09273822 0.13013783 0.16389687 0.016681807 -0.047570452 0.01473506 0.105298795 -0.11935968 -0.07036595 0.23426895 0.25438553 -0.4366337 0.22365297 0.06269446 -0.12920405 0.21931124 -0.0651776 0.11620484 -0.06443665 0.108135425 -0.081973724 -0.16451465 0.15937433 0.21373318 0.17287008 -0.064750925 -0.21850303 -0.1911739 -0.110237144 -0.062823735 -0.021405376 0.04346272 -0.06982387 0.054517344 -0.04677477 -0.12796335 0.013584231 0.47319955 0.40831512 0.23424137 0.11094503 0.056150205 0.1573622 0.09170838 -0.16426876 -0.16764757 0.31839168 0.31264055
Microwave 0.33757132 0.045039263 0.12247809 0.081318945 0.17639463 0.049296014 0.0086412085 0.07918372 0.08558613 -0.17490105 -0.07501427 0.25592166 0.26665306 -0.5181462 0.31481642 0.100089364 -0.11696468 0.31198937 -0.12512036 0.19143802 0.008708933 0.07608197 -0.1306047 -0.1718453 0.14394721 0.20829186 0.1404674 -0.06421483 -0.24236223 -0.15981863 -0.09545635 -0.04610758 -0.10239958 -0.006939173 -0.08291216 -0.014422186 0.0022121726 -0.07020447 0.022289723 0.4905789 0.4846965 0.28836992 0.08398969 -0.013479786 0.19955301 0.16409345 -0.16841705 -0.21018982 0.32617497 0.3609196
Freezer 0.30168915 0.03822444 0.12242736 0.077560365 0.14935757 0.05484401 0.021715151 0.07553213 0.0708368 -0.15684646 -0.057751898 0.23678452 0.2291653 -0.44608903 0.28551614 0.08517877 -0.11581612 0.26945335 -0.111751415 0.17572553 -0.0030785995 0.085334025 -0.102705285 -0.18044478 0.14198749 0.17912006 0.101629265 -0.052090246 -0.2225689 -0.15132493 -0.10082592 -0.045123708 -0.09363044 -0.0012678119 -0.071757555 -0.0066149593 0.0038544405 -0.054698132 -0.011414329 0.45991856 0.44128057 0.22788177 0.09387436 -0.020753045 0.17731045 0.13622056 -0.14719006 -0.18887712 0.31052208 0.32232222
Saucepan 0.28564608 0.047440123 0.10469033 0.083099246 0.14674456 0.03812975 -0.014238188 0.042754345 0.076184995 -0.13710482 -0.06445886 0.21632864 0.21954729 -0.44115785 0.26107493 0.0647879 -0.12250748 0.2490875 -0.10725732 0.13934375 -0.03615726 0.08109102 -0.089363895 -0.17693962 0.14009802 0.19074266 0.13085005 -0.049746234 -0.20719539 -0.1537337 -0.09820907 -0.05214423 -0.07050697 0.02003657 -0.06379454 0.021196442 -0.021598859 -0.08411333 0.0042992583 0.45253035 0.4238716 0.23061459 0.084209606 -0.011841567 0.17981653 0.12348017 -0.14956932 -0.17673215 0.29026583 0.3167653
GarbageBin 0.14266771 0.038345747 0.05452534 0.062252633 0.07897386 0.01096453 -0.005486723 0.013899864 0.058311675 -0.07876132 -0.02509638 0.11563254 0.12621486 -0.22913095 0.1180947 0.023488833 -0.07013615 0.12562935 -0.06708302 0.052084245 -0.02712881 0.06366655 -0.040612586 -0.11144851 0.08808636 0.10237633 0.0840869 -0.03324847 -0.11918057 -0.08850956 -0.06699026 -0.03128221 -0.021005223 0.0136129055 -0.02836641 0.01997701 -0.013885519 -0.047588643 -0.0022214376 0.24278207 0.21786137 0.10029401 0.06547367 0.010111454 0.07843014 0.047172245 -0.0776278 -0.102643095 0.16557592 0.18159625
