14 50
HallBathroomDoor 0.015077946 0.006913538 -0.017344905 0.0032422212 -0.01733515 -0.009783886 0.016158499 -0.004756913 0.0046305084 0.00817456 -0.0067227846 -0.015960945 0.008473119 0.011683947 -0.017212898 0.009085618 -0.010214916 -0.0052270307 0.024811111 -0.015516923 0.001362125 0.019106114 -0.0009895657 -0.017792067 -0.015585891 -0.006698086 0.015142798 0.0058995583 0.013133066 0.008171991 -0.00035646313 -0.00058459287 -0.017016206 -0.004535014 0.0014763933 -0.0035824447 -0.00025960623 0.013126808 -0.007768542 -0.005262645 -0.00546923 0.0046889177 0.0028058991 0.0013899026 -0.0032038344 -0.013716365 -0.0008827874 0.016553648 -0.021129921 -0.0006392543
HallToiletDoor 0.010919483 0.0026243844 -0.021231523 -0.011161449 -0.017663265 -0.01264524 0.016472436 0.010641019 -0.008568781 0.008431524 -0.0035120775 -0.021132708 0.003929654 0.0030543944 -0.018256214 -0.0018155989 -0.003257211 -0.012331575 0.012747562 -0.02049909 -0.0070868046 0.011432441 -0.011075562 -0.008433244 -0.014475391 0.00943374 0.014587422 -0.0048321215 0.0102443965 0.008136693 -0.00820688 -0.0006718633 -0.018954465 0.0061879554 -0.0022916903 0.004023574 0.00364276 0.015455112 0.002068533 -0.02004942 -0.0047027785 0.00026998078 0.021199511 0.008572094 -0.015880808 0.00047651134 -0.008443964 0.007465556 -0.023017759 -0.0026674431
ToiletFlush 0.017172925 0.011089743 -0.013028556 0.0053939554 -0.0058680424 -0.002962541 0.0107577285 0.0006092321 -0.003696638 0.015123435 -0.009444801 -0.010788501 0.0020148428 0.0067776134 0.0018600962 -0.006977936 -0.00794406 -0.004423207 0.009346022 -0.015125194 -0.0022107277 0.014001627 0.006015608 -0.021119574 0.003802303 0.0026627458 0.0006654846 0.0033333853 0.0006653125 0.0013927636 -0.0112698795 -0.0052587567 0.00025583387 -0.008084349 0.00041949417 0.005799917 0.0037067533 0.006387866 -0.0022882898 -0.017756049 -0.010023612 0.010021174 0.01324403 0.0012825496 -0.014495291 -0.011209978 -0.013131039 0.012427758 -0.0071095475 -0.00037775826
Fridge 0.015284913 0.0057078814 -0.019499376 -0.009549652 -0.017444884 -0.0035755336 -0.00171131 0.007484324 0.00017686888 0.014069749 0.00044810763 -0.014395254 0.0005535296 0.014390158 -0.01192303 -0.003426762 0.0023782204 0.0016219288 0.023693578 -0.017719397 -0.0032388025 0.012637481 -0.0024818098 -0.023370814 -0.012288965 0.0054318253 -0.0037053686 0.0047816057 -0.0007414861 -0.009939389 0.0015198448 -0.0081195 -0.0010715935 0.0060933195 -0.0012948795 0.0055813156 -0.00011971715 0.0029208458 -0.008653901 -0.0032773318 -0.0053516724 0.0042849914 0.014935781 0.0048868638 -0.0155843785 -0.0021853463 -0.007142892 0.015832804 -0.013915918 0.010617422
HallBedroomDoor 0.015742354 0.010747808 -0.004411648 -0.007503008 -0.01970437 0.005306654 0.0081740925 0.0076445066 0.005889582 0.008357773 0.0064217416 -0.0016567169 0.001382622 0.006962601 -0.014101615 0.0011466042 0.009326625 0.0017172823 0.011022818 -0.015397869 0.006264973 0.017165806 -0.0022774374 -0.01926331 -0.01229571 -0.0046414346 0.008177945 -0.0040836534 0.004987438 -0.009468247 -0.0014476756 0.00010628775 -0.0094703175 0.0012221518 -0.0018361586 0.006304941 -0.0019714974 0.017493755 -0.011470579 -0.01602311 -0.008718883 0.0022509075 0.01303727 0.010767905 -0.004511407 0.0018110289 -0.009981708 0.009813616 -0.015078838 0.0061168275
Frontdoor 0.012439218 -0.0048183864 -0.010052332 -0.0035131744 -0.015717769 -0.0015767519 -0.001228422 -0.0058807186 -0.0016940975 0.010495751 -0.00566739 -0.01783675 9.3516304e-05 0.0012074392 -0.013580675 -0.0013256661 0.0049777036 -0.009978169 0.009996322 -8.323468e-05 -0.007600262 0.013061684 0.0022557268 -0.020916428 0.00048652387 0.009081962 0.009280234 0.007146358 0.0036467598 -0.0025414012 -0.012566387 -0.004967711 -0.015424246 0.0030241408 0.00837761 0.0011199 -0.0052147675 0.004061311 -0.01010849 -0.012838384 0.0023529397 0.0020224473 0.0001485429 -0.0030275867 -0.015052728 -0.004749377 -0.0033124182 0.006822372 -0.0036294912 -0.0031826696
GroceriesCupboard 0.00021236377 -0.0036728482 -0.011339125 -0.0081368415 -0.01716703 -0.006533668 0.007703876 0.0087307505 0.009579569 0.00094004796 -0.0062531214 -0.014159914 0.01057972 0.012392468 -0.011073759 0.006458979 -0.008424856 -0.008814083 0.01496225 -0.012584622 -0.0076326337 0.011698826 -0.0050878394 -0.0021922986 -0.013648805 -0.0013353325 0.0011318837 0.010480486 0.011544208 -0.0032243833 0.0035950623 -0.0014112706 -0.007060124 0.009462187 0.0014325195 0.00456108 0.009625232 0.013336059 -0.0038240768 -0.014877907 -0.0112617435 -0.009085222 0.014046211 0.0096594365 0.0026626708 -0.007545197 -0.004463753 -0.00064697897 -0.011957716 0.004837932
PlatesCupboard 0.013962531 0.010341256 -0.01539415 -0.00959996 -0.010973955 0.0049162623 0.0126842605 -0.0014456011 -0.0016013265 0.015248704 0.0010798079 -0.0057966867 -0.009135437 0.00022485295 -0.01312596 -0.0069069667 0.0082070315 -0.0037452034 0.017253045 -0.0033388303 -0.0048105787 0.015510516 -0.007858182 -0.015646862 -0.008482432 -0.0029659197 0.0126348 0.006536059 -0.006991602 -0.00019172931 -0.003683709 0.008492466 -0.007253429 0.0019882622 -0.0012488717 -0.009592784 0.007440414 0.015219867 -0.0036535102 -0.0054726596 -0.0050456473 -0.0044512837 0.011234022 0.01044628 0.0016626292 -0.010504037 -0.009119726 0.0044493754 -0.017535822 0.0051592174
PansCupboard 0.011654116 0.011091417 -0.011169651 -0.0015936126 -0.01143735 -0.011241328 0.009988102 0.0061776293 -0.0070881676 0.0073531778 -0.00041165878 -0.005843688 0.0036868243 -0.00089001015 0.00083957444 0.0080091925 0.0024402086 0.0057039675 0.017759029 -0.0014626266 0.005045926 0.0101337265 -0.002077123 -0.018079247 0.0015619473 0.005937817 -0.00074956747 0.00635571 -0.005163752 -0.0070417677 -0.0043721995 0.009543471 -0.0040092957 -0.005567951 0.007508186 -0.010188209 0.0044539315 0.0030762483 -0.0005283073 0.0008016957 -0.00496222 0.00018119233 0.01577923 0.0068065044 -0.007861939 -0.0054958463 -0.00030832575 -0.00026980945 0.0001896845 0.007881394
CupsCupboard 0.013233688 -0.0066142543 -0.0055811903 0.0044869175 -0.003964824 0.002826933 -0.0011001892 -0.0024227193 -0.005212949 0.0063261404 -0.0066571096 -0.0030970927 -0.0065870197 0.010421158 -0.003619995 0.003420641 0.0048162392 -0.01370677 0.018230183 -0.01627699 -0.0035609344 0.008304063 -0.008188899 -0.015639475 -0.0063444 0.004191151 0.008728165 -0.0024051836 0.005137193 0.0046578036 -0.00936991 0.0022713356 -0.014967202 -0.008584715 -0.00783775 0.008860304 0.012290498 0.01679451 0.00439765 -0.015183893 -0.012737868 0.0044985367 0.015612803 0.0073832474 -0.007549264 -0.011572911 0.0032658454 -0.00012064396 -0.017210841 -0.0003629651
Freezer 0.0176035 0.010499715 -0.010870109 -0.005978487 -0.013305606 -0.008491219 0.0029020936 0.00985398 0.005363114 0.008337817 -0.0021620605 -0.0151059795 -0.0010735914 0.002777703 -0.01273456 0.005160328 -0.0021204078 0.005300534 0.01930776 -0.00122967 0.008139374 0.005660098 -0.004979674 -0.001786131 0.0047747446 0.003910923 -0.0060323435 -0.008178309 -0.0033066443 -0.0013083385 1.25329425e-05 0.0010847272 0.0038646243 0.0082811965 0.004584853 -0.008421275 0.0037590577 0.002123134 -0.0043124105 -0.0035994363 -0.0065370738 -0.0072217006 0.01626403 0.0041489205 -0.0065476205 -0.006281398 0.00038571036 -0.0042065512 -0.016903471 0.008150373
Microwave 0.013729873 0.0054382635 -0.006605883 0.0016514466 -0.009807253 -0.0117900735 -0.0031357065 0.007709649 0.0030493462 0.0076582786 -0.00038243528 0.0034776782 0.0008729322 0.009938246 0.0014718985 -0.002498354 -0.006974646 -0.009643852 0.016426882 -0.013883655 -0.005129933 -0.00044432667 -0.00048602882 -0.008668088 -0.013281731 0.00031898674 0.0061549735 -0.0005862882 0.0109211905 0.008270649 -0.0056522717 0.0040607653 0.00025091483 0.0072936923 -0.0066420967 -0.009434852 -0.0022209021 0.0037132024 -0.005545609 -0.010700211 -0.002034252 -0.0018939117 0.0060747396 -0.0062388326 -0.00965896 0.00082302815 0.00086256023 0.005840311 -0.0056621186 0.00021932837
Dishwasher -0.0060789674 0.0109013 -0.012802232 -0.0039185607 -0.0060134847 -0.008461072 -0.00035884796 0.009331232 -0.009647639 0.003840479 -0.005604278 -0.009243377 -0.0016118109 0.006243083 0.0020433103 -0.00895031 -0.00799391 0.0009467384 -0.000688721 0.0016312036 -0.0062823463 0.008146334 -0.0010895119 -0.010408969 0.0019766195 0.0018103628 0.005855944 -0.0017252222 0.010660853 -0.008115388 0.006982505 -0.00487052 -0.0039632735 0.005070912 -0.009145094 -0.0037995635 0.002826563 -0.005632736 -0.009586115 0.0052768397 -0.002368178 0.0071887528 0.00049419346 -0.006613172 -0.006041158 -0.0034719196 -0.003916996 0.008856102 -0.010471252 -0.00066470716
Washingmachine 0.009350172 -0.002442151 -0.012196076 0.0076855132 -0.011045609 -0.0034119387 -0.007615193 0.0031235903 -0.0024421222 0.0032280816 -0.0018504643 -0.0012585141 -0.0048407055 0.002826671 -0.009302784 0.007109022 0.0053994237 -0.010522682 0.0076647443 0.0017982837 0.007857701 0.006829418 0.0046063648 -0.012367075 -0.012605241 -0.0056064925 0.009912079 0.00071114453 0.008522471 -0.00024200424 0.007080613 -0.009086917 -0.010575445 -0.004510822 0.003955938 -0.0044021886 0.0052269213 0.009872406 -0.008179443 0.0053474074 -0.004816663 -0.0038473173 0.008440125 -0.0026791296 -0.012091842 -0.011758379 -0.0076905116 0.00017142843 -0.012048939 -0.00923873
