14 50
HallBathroomDoor -0.00037592166 -0.010969574 -0.011195749 -0.0016774457 0.003631256 0.01962397 0.0059449594 -0.004077313 0.007485757 0.010754424 0.013911587 -0.009929596 -0.0037605248 0.0072913594 0.024244366 0.016176546 0.002695904 0.030794023 -0.0046066614 0.00830894 -0.0042076227 -0.0053938446 0.005148392 -0.011899204 -0.013910552 0.019670568 -0.0039125783 -0.02006811 0.013747986 -0.0024184692 0.02113559 -0.02320689 0.017800804 0.014303289 0.01884356 0.015820518 0.02603829 -0.025927387 0.0039396877 0.011242518 -0.0034838119 -0.020065095 0.014336043 -0.031881645 -0.011732998 -0.025040355 0.010298105 -0.0057534357 0.011635409 0.0012320316
HallToiletDoor 0.003830515 -0.006819283 -0.016078897 0.00047414537 0.0010763293 0.010296527 -0.00042630604 -0.003550133 -0.0014290336 -0.0030146593 0.020612447 -0.002587531 -0.0071523045 0.011415078 0.024336424 0.018320756 0.01471978 0.015132142 0.005457358 -0.003089028 0.0035785064 0.003661069 0.0032738105 0.0076602977 -0.0015029579 0.010331635 -0.008230585 -0.007729991 0.010872992 0.0053166365 0.017093208 -0.006194015 0.014639434 0.016569383 0.004807612 0.013028548 0.014228152 -0.023612741 -0.008310888 0.016498065 -0.0039164796 -0.014677968 0.0019024995 -0.014058843 -0.014463191 -0.024791725 0.013221493 -0.014302822 -0.0020798943 0.0068153916
Fridge -0.010124923 0.0034757294 -0.01265904 0.0033655735 0.006171481 0.014530662 -0.0003883237 0.0076298206 0.0027810447 0.0069059 0.019844877 0.004387694 0.0058707567 -0.0024999932 0.020466955 0.013767441 0.0013049577 0.014376072 -0.0117007755 0.0026769007 0.0063032997 -0.0056294855 -0.00564408 0.0007378839 -0.00280531 0.01375117 0.0031587675 -0.0031711443 -0.0031596834 0.005404201 0.017189594 -0.016245153 0.014325017 0.008743839 0.013322862 0.013561322 0.008329573 -0.009362015 0.0028809074 -0.0013250648 -0.00022161806 -0.009662338 0.010750749 -0.018502355 -0.007864513 -0.01844325 0.0034826077 -0.010670832 0.010626377 0.009118417
ToiletFlush -0.0048364107 -0.013890214 -0.015285893 0.0012702314 0.00953145 0.01434811 0.009854954 0.0016034796 0.0063082906 0.0079678185 0.019412927 -0.009721195 0.0046487357 0.015055454 0.014921488 0.008490916 -0.0018857885 0.020210909 0.00057493756 -0.0013391117 0.0044407835 0.0056233252 -0.002143213 0.007110211 -0.008476534 0.021314954 0.008947344 -0.013251967 0.0023401717 -0.008602328 0.007762112 -0.023776177 0.007468992 0.013938557 0.009954669 -7.557408e-05 0.016551454 -0.018341342 0.0045802635 0.006004904 0.005088948 -0.019818678 -0.0012567757 -0.025558388 -0.007217818 -0.02238274 0.0021925555 -0.014300506 0.015979167 0.012182275
HallBedroomDoor 0.00096750265 -0.005542239 -0.017939048 -0.010343654 -0.0019710755 0.0056076143 0.009055795 0.0068951864 0.0009910542 -0.0073622703 0.011458303 -0.013805187 0.008074544 -0.00266114 0.017256549 0.017373374 0.012743993 0.02183861 -0.008656781 -0.0023836335 0.0013804322 -0.0041186153 -0.009437274 0.0015311168 -0.005470547 0.008800286 0.005004186 -0.010733678 0.016737817 -0.009289955 0.020412901 -0.020942684 0.0058331667 0.00699029 0.0021265321 0.00973061 0.020389117 -0.017361393 0.0035915866 -6.1443694e-05 0.0029412692 -0.008916989 -0.0023295346 -0.019799331 -0.009053351 -0.009226067 0.00556045 0.004559546 0.01164274 0.0091700535
Frontdoor -0.009388811 -0.0013988151 -0.008552945 -0.0019389156 -0.0004848027 -0.000390729 -0.007857445 -0.005937211 0.009778179 0.006095893 0.014012885 -0.006182285 0.0039110775 0.0097995065 0.0026256049 0.0082880845 0.012341316 0.021840962 -0.007901101 -0.0021583757 0.010125753 -0.0071650776 -0.006203512 -0.009897805 -0.004135207 0.01395689 0.007244139 -0.012400164 0.0020383953 0.002664962 0.0117613105 -0.01906953 0.0052877464 0.00501889 0.0072863884 0.0094524445 0.011983041 -0.009444794 -0.0070536747 0.009569753 0.008327054 -0.01649126 0.013286816 -0.023630181 -0.010837094 -0.020065611 0.009045345 -3.883267e-05 0.012578163 0.009157095
GroceriesCupboard -0.010848832 -0.0035063494 -0.013179489 -0.010663414 0.0074281422 0.010082683 0.0062030116 0.0015558074 0.0017178478 0.009745144 0.014595835 -0.0098702535 0.0021072677 0.009608256 0.0058625857 0.011093744 0.013557248 0.019646186 -0.012612243 0.007498299 0.00821448 0.0026830395 0.0039071282 -0.010594156 -0.0062135137 0.0042930865 -0.008284623 -0.0057132696 0.014898152 -0.00879112 0.019756008 -0.009874225 0.0032100612 0.012266185 0.01185261 0.008453865 0.012343878 -0.013928846 0.0042129853 0.013934726 0.0039207884 0.0009728452 0.014214319 -0.016545974 -0.0013017559 -0.024408663 0.0124166 -0.0017737102 0.0092894705 0.002321258
PlatesCupboard 0.004223218 -0.0039709755 -0.0066100517 0.0054168166 -0.0029237317 0.0064508216 -0.005584717 0.004935123 -0.002734986 -0.0036309205 0.00051802193 -0.004658479 0.008641447 0.011106769 0.011556219 0.011599029 0.004657019 0.01622804 -0.0021353143 0.006853435 0.0028815258 -0.0024789849 -0.010473184 -0.007252363 -0.004732416 0.010681509 0.00853017 -0.0064267716 -0.0015829342 0.004088701 0.015787099 -0.0138703445 0.011077775 0.008993392 0.0031567835 0.009501179 0.0139278965 -0.016420688 0.010453484 0.008528738 0.0097156195 -0.001418095 0.004051232 -0.014080819 -0.0034850885 -0.006448173 0.009095824 -0.011225603 0.009076837 0.010362903
PansCupboard 0.0008198709 0.007812169 -0.012716079 0.004293352 -0.0017868064 0.015708307 0.0070804893 0.009938619 -0.0040554204 -0.008010624 0.016187161 -0.010918502 0.009573831 0.011392283 0.016550459 0.007011768 -0.0042545507 0.020266913 -0.0028769122 -0.0026168122 0.0090150405 0.0028148112 -0.0062875305 -0.0024766685 -0.013449587 0.011138616 -0.006082562 -0.01043663 0.014618377 -0.0065526394 0.008728279 -0.0006878541 0.013803221 0.004511488 0.015393937 0.0072443997 0.01831188 -0.005553728 -0.001354444 0.008474248 0.007497043 -0.0021593135 0.000463844 -0.007999945 -0.010267778 -0.018642213 0.012307287 0.006191504 0.007234153 0.007079123
CupsCupboard -0.0034889975 -0.012423073 -0.018263014 -0.007224837 0.0027582597 0.012152352 0.0006187401 -0.008151684 -0.00063625065 0.002976305 0.0038673333 -0.010114335 0.0006619124 0.0074613197 0.01114384 0.003022344 0.0055280644 0.014652016 0.0038344164 0.008793505 -0.0022043812 -0.0015210988 -0.009354373 -0.007273491 -0.0020066036 0.010381529 -0.010474617 -0.014417187 0.013421297 -0.0041165585 0.018950699 -0.0051015983 0.005207224 0.0029412357 0.0015836669 0.016473347 0.006748198 -0.0078177545 0.0071692388 -0.0033731277 -0.0052339705 -0.011940146 0.0037641104 -0.016403299 -0.01063756 -0.01893668 -0.0024389955 -0.0025649767 -0.0029162425 -0.002939383
Freezer -0.0044849124 0.0074847387 -0.010625991 -0.006670775 0.0044352813 0.0006504885 -0.0003308359 -0.0016593504 -3.9150204e-05 -0.007768376 -0.003903591 -0.0027955712 0.0020373177 -0.0054978784 0.0030800342 -0.00042289172 0.011320527 0.011632433 -0.0066910298 0.0022273588 -0.0032409544 -0.0041320724 -8.548155e-05 -0.007074864 -0.008944074 0.005088057 -0.008031521 0.004178957 -0.0026328033 0.0016846539 -0.0015718506 -0.009362279 0.004713247 -0.0056283795 0.004291052 0.0025330856 0.0086332895 -0.007000402 -0.007319495 0.0008629078 0.0024607112 0.0026559294 -0.0051010074 -0.0132453535 -0.0063530747 -0.015206876 -0.0010362534 0.0018174453 0.007426213 0.00023390644
Microwave 0.0043877363 -0.0036605485 -0.0024233966 -0.00013618052 -0.0063849404 -0.0012686542 -0.008009729 -0.005050606 0.00479863 0.00959035 0.014372872 -0.014583968 0.00086380757 -0.0018151278 0.00232867 0.013317129 0.003024513 0.021919541 -0.003570625 -0.0078080045 -0.0031025396 -0.007249494 0.002712295 -0.0068630185 -0.001121503 -0.0012359101 0.002163925 -0.004796632 0.0014212312 -0.005776408 0.0020919845 -0.008742881 0.013548871 -0.003930326 0.010636504 0.0057278895 0.01760699 -0.016713884 -0.0007631418 -0.0034294538 -0.0054726363 -0.0077318195 -0.0033958463 -0.013613805 -0.008663472 -0.019178621 0.0031143718 0.003242148 0.00893185 0.007885225
Dishwasher 0.001113051 -0.0004974515 -0.0011462228 0.001785652 0.005730203 0.0057534208 0.0025205163 0.009810235 -0.005166432 0.008003885 0.013485004 -0.009992864 0.00919376 0.011676827 0.013562675 0.007623845 0.0073813787 0.009395041 0.0053354204 0.0073002647 0.0032109928 0.008732738 -0.0013880524 0.008103973 0.00063451915 0.015208819 -0.001342697 0.0054749404 0.011175085 0.0042190054 0.012747881 -0.015417214 0.00054853095 0.0005053875 -0.0024819137 -0.0011713962 0.016924217 -0.008264861 0.009301752 0.010317352 0.00033515776 0.0021026311 0.0031535467 -0.016001461 -0.00089163776 -0.016084995 -0.003934508 -0.008186834 0.010266093 -0.0048349006
Washingmachine -0.0016851876 0.0007134228 -0.011868069 0.0083179865 0.009221965 -0.005928587 0.0017436449 -0.001870152 0.0073364507 -0.005045977 0.0048538153 -0.002714079 -0.00527921 -0.004058184 0.0092334375 0.009230534 0.008333109 0.014113265 0.0017324907 0.007805032 0.0015406919 -0.005115102 0.0014248196 0.0028688286 -0.009146754 0.012445293 0.0024829134 -0.0004438871 0.0021916793 0.00579539 0.0019903774 -0.008868458 0.010350246 0.0023130635 0.012097168 0.003935473 0.008330421 -0.0011214272 -0.0006015801 0.012176809 -0.0061317557 -0.0038448793 0.0065308013 -0.01575881 0.0037074287 -0.004226101 0.008069691 -0.002244865 -0.0018151182 0.007821178
