14 50
HallBathroomDoor -0.0023944099 0.0040981467 -0.013886376 0.016156968 -0.015175979 -0.014240588 -0.009573741 0.0074187214 0.014135244 0.017701672 0.026968436 0.006870133 0.014585732 0.018908698 0.021874832 0.0014287806 0.008173757 -0.016162733 0.0034010417 -0.0071612643 -0.016061122 -0.009433719 0.009405932 0.020289538 0.011817036 0.006179839 0.024115501 0.0037445 0.0035942488 0.021179017 0.0031702027 0.010848531 0.013800928 -0.015240517 -0.0062474706 -0.012284026 -0.0053871213 -0.0019207662 0.0016817601 0.00616359 -0.0031403846 -0.0025231321 0.02231401 -0.0038832512 -0.018835325 0.0069921874 0.02490515 -0.0025967704 0.01988708 -0.022110742
HallToiletDoor -0.005319972 -0.0033447065 -0.012548222 0.013916834 -0.014857778 0.0027096001 0.002427364 0.00089698343 0.011198102 0.01307297 0.018806547 0.0067641404 0.0075398143 0.01308811 0.008101302 0.000866289 0.0077027376 -0.011766894 -0.006049698 0.0011689541 -0.0068501923 -0.007683504 0.013865674 0.0058521708 0.0043524676 0.010179431 0.013197288 0.0012791919 0.003237799 0.019464646 0.0039076433 0.012672857 -0.00020910215 -0.0015855571 0.0029076308 0.0045873225 0.005249176 -0.004040711 0.0076660994 -0.004473361 0.002743246 0.005943339 0.013115064 -0.0065252297 -0.0005396544 -0.0018615942 0.01502896 -0.003127473 0.009117589 -0.019100236
Fridge 0.009122118 0.0004524191 -0.0009632075 0.0109334625 -0.00838259 0.003096481 -0.0077800597 -0.0010018203 0.003279113 0.0026340503 0.0049690437 0.0049790605 0.0016947279 0.011195385 0.0009078536 -0.0028980677 0.013286191 0.002792359 0.0058894223 0.0048810956 -0.0126863485 -0.0027427608 0.007930939 0.007335063 -0.0022403123 -0.0016818317 0.011170131 -0.0037207922 0.00975817 0.012179106 0.0014266067 -0.0021593359 0.0028229195 -0.013174496 -0.010503362 -0.00361194 0.0043741316 0.0013994253 -0.000102699036 0.00013476527 0.0013070493 -0.0037336233 0.015541691 0.0020227036 -0.011419359 0.006970501 0.01435982 -0.010584627 0.013108527 -0.020840686
ToiletFlush 0.00064293423 0.006388619 -0.0083842445 0.0013220186 -0.016005302 -0.00311689 0.0035858767 0.0045863455 0.00306593 0.0179445 0.020475494 -0.007631483 -0.0014830342 0.001712874 0.020240642 -0.0009329348 0.00905667 0.00069125905 0.0040917546 0.007947917 -0.006639174 -0.0033368727 0.016462574 0.015071304 -0.007142226 0.012190319 0.01910796 -0.003991664 0.009133762 0.0099711 -0.00023776235 -0.003075925 0.0152971065 0.0041719317 -0.010294553 0.0030390278 0.011971184 0.011579375 -0.008884019 -0.0047272095 -0.004024658 0.0047950614 0.016639825 -0.0008101969 -0.017865436 -0.0059360047 0.01997526 -0.0131260855 0.015645754 -0.016860979
HallBedroomDoor -0.009237003 -0.003692952 -0.008728134 0.00038482636 -0.014681859 -0.005954322 -0.009055334 0.00034852076 0.0017186208 0.005415628 0.018779708 -0.0052524223 0.0017962669 0.018048067 0.021409137 -0.0038063773 0.009198377 -0.004220947 0.009416368 -0.004867565 -0.0024780391 -0.0043574413 0.0019102643 -8.883775e-05 0.009698436 0.00024705476 0.018392589 0.0011448101 -0.007987294 0.0136649 0.0034621235 0.012058703 0.005744044 -0.0084775705 -0.00768029 -0.0038201935 0.0057532704 0.0036397493 -0.005474129 -0.00073792035 0.00031126433 0.004577796 0.008939507 -0.0016072033 -0.0076505546 -0.0019097185 0.0103203915 0.0029191892 0.008388812 -0.013523534
Frontdoor -0.0067789275 -0.004452138 -0.00071595435 0.0048220786 -0.0037426443 -0.01251658 0.008681212 0.007832779 0.0061673746 0.012314327 0.019105092 -0.004798863 0.009523282 -0.002664302 0.014677199 0.003221143 0.016440682 -0.0069388784 0.0072236075 0.006703531 0.0016240029 0.00067272567 0.0031404684 0.005168455 0.010010071 0.0014587265 0.002982261 -0.010212999 0.0009417247 0.0188442 0.0068863938 0.004573414 0.013716512 -0.008702058 -0.012607 0.0033095246 -0.0067419284 -0.0030837548 -0.0072705406 -0.008887811 -0.0090873 -0.005049518 0.00399242 0.0049700406 -0.001976304 0.0063327746 0.00467316 -0.004472899 0.0027024483 -0.022406343
GroceriesCupboard -0.004050677 0.0024015855 0.0033336128 -0.0008423472 0.00318762 -0.0048100697 0.0064252415 -0.005040515 -0.0041198977 0.0033244633 0.009566268 0.0079959845 0.0136618335 0.007569753 0.012013889 -0.0067498824 0.011847329 -0.006053125 -0.0069614337 -0.004045314 -0.005287832 -0.0014808567 0.005681412 0.012763555 -0.006051993 -0.0031700288 0.015687333 -0.0056920666 0.0050679725 0.011780307 0.010119593 0.008143134 0.00857195 -0.0052893944 -0.005842947 -0.011741663 0.0016715887 0.0064401883 0.0020365678 0.004998136 0.0018967427 -0.0071997195 0.008074132 0.0001330795 -0.014751676 0.0033828027 0.005826581 -0.00969766 0.013546058 -0.018932922
PlatesCupboard 0.0064430996 0.00096551416 -0.011157467 0.009669422 -0.0024568303 -0.012512206 0.0061400235 0.007331871 0.007721905 0.009121208 0.01696283 -0.008672484 0.008754968 0.0067300354 0.007974188 0.0032066947 -0.002661407 -0.005256585 -0.007781462 0.0047899666 -0.013761362 -0.012146182 0.0050187367 -4.6391022e-05 0.0019288155 0.009378909 -0.00043191353 0.0036483556 -0.0040013962 0.0011201561 0.0068793437 0.00279022 -0.0049443743 -0.007962151 0.0056278203 -0.0073412308 0.009565996 0.007983377 0.00036760297 0.0019110097 0.002780159 -0.0027498766 0.0020538075 0.0031044376 -0.014116393 -0.00228646 0.018356536 -0.0041399742 0.015945243 -0.014395284
PansCupboard 0.0027847316 0.0032080607 -0.0032365175 0.01411804 -0.015210945 0.005214475 0.0017998986 -0.0035268818 0.012361367 0.016071273 0.013175802 0.0064499634 0.0045973044 -0.0031553495 0.010766045 0.0006151022 -0.0022381647 0.0046338453 -0.0024906439 -0.0006640168 -0.006774924 -0.010642697 0.0058488194 -0.0017827726 -0.008297425 0.012704161 0.0024730128 -0.0008674156 0.0062430142 0.019039046 0.005802807 0.0060760486 0.00062240905 -0.0040589315 0.007087474 0.00056792534 0.0003853317 0.00041455473 0.0076337364 0.006591988 -0.010590127 0.009305132 -0.00066213624 -0.010349539 -0.016151095 -0.00990593 0.010141614 -0.004721362 0.01138281 -0.0073642395
CupsCupboard 0.00060936634 -0.0011810954 0.0052072676 0.0031311146 -0.014178248 0.004317246 -0.00620248 0.004194212 -0.006365584 0.016329376 0.012446782 0.0034811823 -0.004016703 0.007759602 0.010453797 -0.0074690147 0.0071038385 0.0025919103 -0.0067012445 -0.00057447917 0.0032773996 -0.0016491472 -0.0030883674 0.0037199669 -0.0011349871 0.00052099326 0.007550007 0.008489175 -6.0078128e-05 0.018237002 0.0045403223 0.005027733 -0.0028604465 0.0042261863 -0.0014749693 -0.011486219 0.0032139157 -0.003685955 0.00026684572 -0.00738797 0.00322745 0.0009092311 0.009160125 0.008665926 -0.008139919 -0.008146753 0.015146342 0.006110117 0.009167417 -0.014520265
Freezer 0.0049198037 -0.004026402 -0.005507357 0.0036481838 -0.008680782 -0.0012048244 -0.0036405043 0.004895288 0.011192264 0.005435728 0.008260149 -0.0054151444 0.012925064 0.0132505875 0.0049545313 0.0061969487 0.0075799404 -0.009736261 -0.007890305 0.010018831 -0.0091447495 -0.009723784 0.005486725 0.0008549747 0.0059494665 0.003163257 0.005715238 -0.009832358 -0.001475735 0.015247004 0.0117096 0.000819089 0.0037073072 -0.004166361 0.0019708967 -0.00901592 -0.0053893016 0.007968713 0.002570319 0.0026774039 -0.0011707253 0.00590186 0.013176024 2.5529249e-05 -0.012408996 -0.0049060117 0.01645686 -0.0012739329 0.0006748971 -0.0038584478
Microwave -0.00090023363 0.0040195836 -0.010634491 -0.00437521 -0.007975644 -0.0073379227 0.008065427 0.006490058 0.0014236837 0.01826393 0.0052577425 -0.002675391 0.008269168 0.013884672 0.01478811 -0.0024598828 0.012463346 -0.005577553 -0.006495355 -0.0034694616 -0.0045073815 -0.005120267 0.0133049805 0.011007002 0.0011462101 0.011845057 0.004231921 -0.007984029 -0.0059323367 0.015155087 0.011741042 -0.0008984422 0.011969229 0.0035941836 -0.004144958 -0.0023161494 0.0043052766 -0.00045963464 0.0060831383 -0.001218044 -0.0011361433 -0.0071559255 0.0112931905 -0.0053591426 -0.0061169374 0.0009400029 0.020278974 0.0034467436 0.0075210836 -0.02050898
Dishwasher 0.00724762 0.004735729 0.004032881 0.0081233075 -0.008207132 -0.009759579 -0.0005498676 0.0016219807 -0.0062909964 0.014579926 0.01588091 0.007109398 0.0044937185 0.011309891 0.0057988903 0.006962356 0.011160722 -0.012466546 -0.010279251 -0.0056062485 -0.004505908 -0.0017703366 0.011391252 0.0044436557 -0.0075472128 0.002260068 0.0010429763 0.006733306 0.0028505053 0.010739784 0.008704791 0.009062577 0.004390939 0.0021073124 -0.009365872 -0.005388729 0.004984673 0.003050854 -0.0038315058 0.004519311 0.0066658584 0.006724267 0.0018273625 0.0035939142 -0.009636188 -0.0017104199 -0.0023599863 -0.009935142 0.0057762805 -0.013244962
Washingmachine 0.00274409 0.0012301662 0.0036834087 0.007214867 -0.010509393 -0.006551556 -0.0029756657 -0.00032555833 -0.0017980579 0.00142201 0.011995361 -0.0022821648 0.009336555 0.0071559506 0.008402201 -0.007822868 -0.0009792184 -0.0058760946 -0.00073433237 0.008112568 -0.0015055182 0.0049137934 -0.0030520463 0.011872035 0.0019547406 -0.0033314824 -0.00447288 0.0022003374 -0.0041705794 0.0105882455 -0.0026880864 -0.006681568 0.012051911 -0.0046424144 0.0049007228 -0.0077103884 -0.0047709155 0.008197538 0.0017459962 0.008827364 -0.008421642 -0.005803676 -0.0052495142 -0.007338037 -0.004684572 -0.0062897797 0.008217445 0.008435078 -0.0036197999 -0.013077967
