14 50
HallBathroomDoor -0.013443378 -0.013626236 -0.007676571 0.015899036 0.0058194986 0.02917 -0.016024489 0.0021150156 0.0026405768 0.005086486 -0.013299556 0.0022857522 -0.015957933 -0.02394421 -0.015582745 -0.003558397 0.016847786 0.003109095 -0.008533215 -0.0059263026 0.0018234961 -0.01668479 0.01888375 -0.004113631 0.0033851466 0.0056700306 0.015155316 -0.005873929 0.003269522 0.021298397 -0.017531103 0.010458612 -0.010427114 0.025066104 -0.02597262 -0.0071700905 0.013632053 -0.024648432 -0.014776226 -0.0068915826 -0.004340735 -0.012938915 0.014884576 0.010885537 -0.010145206 -0.006715545 0.0024161595 -0.022576742 0.015392593 -0.0017976202
HallToiletDoor -0.0040260837 -0.0013286435 -0.00829808 -0.0006479094 -0.0018671092 0.016311325 -0.006990725 -0.0081740115 -0.004598241 0.006739376 -0.014341415 -0.0037749365 -0.01463039 -0.020945953 -0.0017023032 -0.0005030997 0.018299546 0.0075981836 0.0011747443 -0.009490402 -0.0077990787 -0.01318314 0.015280219 -0.013471442 0.005468897 0.006134617 0.016477467 -0.010837048 0.008912346 0.010546103 -0.009884812 -0.0090216985 -0.0082466 0.022430878 -0.023492906 -0.011388464 0.012745717 -0.014465524 -0.0018089226 -0.006402068 -0.0061704274 -0.00930435 0.014355584 0.004524339 -0.0024309135 -0.013919457 0.0034374082 -0.022738451 0.011462973 0.0096544195
Fridge -0.011128535 -0.013893368 -0.0056812367 0.010532379 0.0013678374 0.023385974 -0.0070336433 -0.009241247 0.010879128 0.0014470851 -0.0017917975 0.003182261 -0.015219882 -0.015095519 -0.0028856657 -0.0066956286 0.015783606 -0.0036699735 -0.00994333 -0.009865654 -0.011652207 -0.022717752 0.010229519 -0.0066165756 -0.009686963 0.00785407 0.013129363 -0.0045868647 0.0061818217 0.024332754 -0.021395711 0.005275483 0.0012135279 0.0108154155 -0.020765752 -0.0056474158 0.017516674 -0.014997364 -0.013302652 -0.006302437 0.0056039253 -0.009350271 0.005834657 0.018913927 -0.011497354 -0.0098107355 -0.0026214416 -0.02022521 0.0083335135 0.00046343618
ToiletFlush -0.0038915675 8.7449924e-05 -0.0009823891 0.0015351345 0.009339523 0.02312625 -0.009278736 -0.008065867 0.011360796 -0.00082250783 0.0007171468 -0.005813661 0.00028452434 -0.01736074 -0.014842907 -0.0028082377 0.013111975 4.765499e-05 -0.0073846346 0.003434865 -0.016748648 -0.019356688 0.0010613078 -0.011997512 -0.000109339264 0.0027098309 0.017398102 -0.008921032 0.013591327 0.021160284 -0.020943228 0.008804986 0.0013384575 0.011322774 -0.026752684 -0.018271478 0.009274622 -0.016193317 0.003255758 0.0011886596 -0.0067828316 -0.017897218 0.0026266729 0.017963363 -0.015221252 -0.0072484287 -0.008500973 -0.0126496935 0.017493838 0.005913795
HallBedroomDoor -0.0022683232 -0.014752941 0.001013986 0.00070717314 0.014910477 0.024798509 0.0027816407 -0.007354994 0.0029946875 0.0013808811 -0.014754002 -0.00078781915 -0.002029888 -0.022974165 0.0011258832 0.0053779837 0.0044291024 0.0009985564 0.006820904 -0.00886141 -0.0035369857 -0.021877373 0.013017998 -0.015930882 0.008223246 0.011876987 0.018069351 -0.010388553 0.007898383 0.014953693 -0.018921174 0.005561481 -0.0023104267 0.01888605 -0.022311864 -0.009129069 0.005033375 -0.023990672 -0.006252997 0.008128554 -0.004444726 0.0018627044 0.003832259 0.010206728 -0.015764566 -0.015600103 -0.0061835404 -0.02206024 0.013380084 -0.0040018028
Frontdoor 0.000484051 -0.008419123 -0.0025234385 0.0032477183 0.011035548 0.019114817 -0.01379523 0.00083388365 -0.0032704952 -0.008554507 -0.015124216 -0.0010360226 0.0044965288 -0.008889832 0.0033241014 -0.0057749674 0.011247231 0.006835626 -0.010950094 -0.009522119 -0.0098201735 -0.012508522 -0.0034827031 -0.004702214 0.0007019429 -0.0012373963 0.0041264435 -0.012494081 0.0055636363 0.018820561 -0.0073768594 0.0011638398 0.00086228555 0.005480234 -0.016869675 -0.011295309 0.008731802 -0.01948803 -0.013317168 -0.0016831543 -0.0037885243 -0.0058839424 -0.00340176 0.0008882354 -0.009528254 -0.013647607 -0.00066476746 -0.0055245548 0.0064850734 0.0042965533
GroceriesCupboard -0.008083383 -0.0036426352 -0.0048199566 0.013432606 -0.0056810225 0.015152363 -0.0017467974 -0.0032602346 0.0055368813 -0.00022976659 -0.010494923 -0.001349599 -0.007983749 -0.012823897 -0.0072953715 0.0037039386 0.011565788 -0.0073304255 0.0026332461 0.0041644666 -0.009663258 -0.0037102366 0.007082443 -0.013947283 -0.00095991045 0.01542289 0.0004418316 -0.0087355515 0.0043317075 0.0020795322 -0.012895893 -0.0009548719 -0.010510776 0.01785598 -0.01593637 -0.015470492 0.009061138 -0.021075409 -0.014168895 0.009918681 0.0053364253 -0.013614433 0.0061912024 0.016624404 -0.003643259 -0.0053181895 -0.005708938 -0.0070220563 0.013833644 0.011042804
PlatesCupboard -0.0037025537 -0.013165403 0.00019610845 0.0101557225 0.012226334 0.01972571 -0.013532164 0.0003936034 0.0023979004 0.00925511 -0.012812554 -0.0055076 -0.0038934273 -0.006453006 -0.013075354 -0.0068434225 0.008476457 -0.002619618 -0.002407997 0.0024089504 0.0034047815 -0.002215546 0.011233143 -0.008327994 0.0012179647 0.0066288137 0.014124782 -0.010870795 0.008032888 0.014999932 0.0004942172 7.18736e-05 -0.0029595022 0.018750513 -0.01698055 -0.008451164 0.01423523 -0.005737926 -0.0021090747 -0.00016558258 -0.0109039685 -0.0009767344 -0.00014477987 0.016387437 0.0011456055 -0.0119733615 -0.010728098 -0.019014254 0.003537417 -0.004120785
PansCupboard -9.117036e-05 -0.009109641 -0.0077619585 -0.0021425658 0.012712758 0.009772726 -0.002749718 0.007214151 0.009237299 0.0033648417 -0.006460748 0.008706157 -0.00797869 -0.005743865 -0.0050733434 -0.00377977 0.011876745 0.00593242 0.0045361565 -0.0077822213 -0.0067227343 -0.014933936 0.009703104 0.0042983224 -0.007856187 0.006105654 0.013802512 0.00065286655 0.004941852 0.017787978 -0.0115003595 -0.0018731568 -0.012665141 0.017676147 -0.013095738 -0.0027111417 0.011430246 -0.009586498 -0.0035863393 -0.00046665073 -0.0047635413 -0.0073327357 0.009461798 -0.001049454 -0.005493955 -0.011114162 0.003643283 -0.0068733646 0.007619378 0.009047649
CupsCupboard -0.011843964 -0.004558924 -0.012127263 0.007626602 0.0016482926 0.018683825 0.0024271596 -0.0020041403 -0.007967409 -0.0023819252 0.0031536478 0.0043015876 -0.0018626254 -0.0052949544 -0.001741974 -0.010502011 0.0143960295 -0.0014823688 -0.010100569 0.0069372607 -0.008292734 -0.011699192 0.012144165 0.0040106974 -0.004040169 0.0077239545 -0.0048848013 0.0036927352 -0.0024816 0.009043366 -0.005018494 -0.0077126836 -0.000612629 0.016522093 1.1572367e-05 0.00019090927 0.0046282415 -0.009247091 0.0029625734 0.009824194 -0.011308079 -0.013629069 0.0008743871 0.01122118 0.005614776 -0.008754979 0.0040309415 -0.0009789725 -0.0043047974 9.466303e-05
Freezer -0.009945932 0.0005469641 0.004902311 0.012825811 0.011237941 0.018763369 0.0033501615 -0.004811829 0.00035539895 -0.008576757 -0.010149505 -0.008643789 -0.004277296 -0.015983382 0.00012821477 -0.011847021 -0.0034366185 -0.00905681 0.0065934625 0.0041793194 -0.011797879 -0.016264848 0.0028169588 -0.0033215596 -0.010956112 -0.002835298 0.012027297 -0.0020623456 0.0056986827 0.012959377 -0.005747601 -0.0052374415 -0.003106636 0.008118109 -0.0020757152 -0.007738303 0.005413977 -0.015485327 -0.00057955424 0.00848274 0.0037790502 -0.011980757 -0.0058557857 0.004058276 -0.0015795717 -0.015788956 0.0052395947 -0.014878843 -0.0009482029 0.009709862
Microwave -0.003704367 -0.011458171 -0.009638894 0.008804267 0.0002022695 0.0025962512 -0.0005935012 -0.0049822587 -0.0048936945 -4.5145567e-05 0.0045057824 0.007242955 0.0059439545 -0.003707164 -0.008168208 -0.0050773015 0.009308342 0.0055747475 0.0034523397 -0.00730789 -0.0042965733 -0.008081233 -0.0001098134 -0.00662792 0.0013176459 0.010151517 0.008739774 0.0020294657 -0.0037117447 0.01051437 -0.01461876 -0.0021003848 0.0024317142 0.0116703855 -0.014184308 -0.01281212 -0.0028783684 -0.012837833 -0.008157582 -0.0002892468 0.00059984013 0.004605866 0.009829284 0.0013996778 -0.004527123 -0.005793508 -0.0019739293 -0.014684905 0.0007973954 0.010192891
Dishwasher -0.009419752 -0.009571777 0.0071933563 0.011672054 0.0054331054 0.006973008 -0.0112582855 -0.007788218 0.0034320583 0.010664576 -0.0028917582 -0.0050568953 -0.011246951 -0.01235202 -0.0033965798 -0.0027222566 -0.0037830179 0.0057795243 0.009117149 -0.0006765437 -0.012656141 -0.0004704967 -0.0038658865 -0.0058215023 -0.009548148 0.011757536 -0.0011431787 -0.0052972804 0.003120327 0.015944228 -0.009292698 0.008620547 -0.005309899 0.01297251 -0.0011639368 0.0043972926 0.009475845 -0.014966154 0.0068316655 -0.0059505138 -0.0027771154 0.0061421846 0.00950909 0.008953325 -0.0037960645 0.0033747558 -0.006892275 -0.0030050254 0.0019967102 0.004826528
Washingmachine 0.00087439315 -0.008710611 -0.008977287 0.0045104027 -0.0033401002 0.014139373 -0.006292086 -0.0034968706 0.011181958 -0.00014514473 0.00030340886 0.0017626422 0.0021221451 -0.011199134 0.007407106 -0.011587938 -0.003493613 0.0014455547 0.00033427033 0.0066607553 0.0040865475 -0.007330841 0.004072235 -0.004577234 0.0067914943 0.00937356 0.0049973084 -0.012522668 0.006067671 0.010117465 -0.010512821 -0.0074784723 0.00051749265 0.0057576043 -0.007471145 -0.013302578 0.009481253 -0.015150725 0.003760488 0.006173141 0.0028440002 -0.013020603 0.0027135382 -0.004293403 -0.012522971 0.0003691127 -0.0066764266 -0.012289745 0.0009215172 0.0106790075
