14 50
HallBathroomDoor 0.008305915 0.0147680845 -0.010243888 -0.019029321 0.006274174 0.007710272 -0.014733414 -0.0050770147 0.002072174 -0.019384129 0.018347993 -0.0057628774 -0.0028897927 -0.019483961 0.009287726 -0.0026529385 0.026484681 -0.005582478 0.006906687 -0.0133362515 -0.008574683 0.0031908546 0.002970333 -0.015443791 -0.0011246448 -0.006033011 -0.0105583165 0.019957524 -0.014140472 -0.015949575 -0.012105914 -0.009390757 0.018479902 -0.009966296 0.0043476615 -0.00875584 -0.022188473 0.008379029 -0.0045856526 0.006508703 -0.006484461 0.016563077 -0.012344172 -0.012121233 0.031183071 -0.016265761 0.028892623 0.021309452 0.0034154232 0.020140253
HallToiletDoor 0.0044857645 -0.0016804296 -0.002580227 -0.0011287549 0.0037557713 0.009113922 -0.0029856737 0.007951908 0.003857249 -0.0067416425 0.0036990684 -0.00070703856 0.007688812 -0.017458444 0.0027144828 -0.0026447063 0.022073124 0.009256986 0.01520352 -0.014402207 -0.011324719 -0.0029412454 -0.011815068 -0.007221115 0.003630921 -0.012602399 -0.018708104 0.020107944 -0.00926556 0.000677569 -0.0031007826 0.0023848328 0.0029962612 -0.0032567915 0.0011985389 -0.0008073975 -0.018781886 0.01159111 0.006483612 0.0077217664 0.004793616 0.0125766825 -0.010901017 -0.014059303 0.024250753 -0.016627656 0.030849658 0.015155616 0.013489202 0.009932968
Fridge -0.0036578383 0.008717355 -0.01797869 -0.014384907 -0.0057251677 0.0111565525 -0.00780159 -0.008792995 -0.012947237 -0.022215951 0.024098683 -0.012066539 0.005382912 -0.01875248 -0.00070421986 0.0042954483 0.029864099 0.009079434 0.023269834 -0.0068680593 -0.013637672 0.001374289 -0.0067767496 -0.008516481 0.015905615 -0.007463431 -0.019685363 0.023239108 -0.008132897 -0.0152014475 -0.016456163 -0.0053617153 0.0117443595 -0.008441745 0.01664479 0.0030492677 -0.016090417 0.020532042 0.012561789 0.0019162882 -0.0034423678 0.008541211 0.0017080219 -0.0024402894 0.031141913 -0.018208742 0.04099255 0.022830028 0.018115561 0.030022107
ToiletFlush 0.003300851 0.013731743 -0.0060922587 -0.0063960934 -0.011148124 0.007686235 -0.012027201 0.0006703331 -0.0008202139 -0.0062286505 0.016787577 -0.0063622994 0.011135178 -0.019535966 -0.0029431495 0.00045715342 0.022060804 0.011620491 0.014286802 -0.008464724 0.0042604813 0.0013168602 -0.008068014 -0.009638124 0.011963693 -0.0029403449 -0.02118947 0.020738248 0.0031895153 -0.012605667 -0.010548523 -0.0022789524 0.008707068 0.0026083514 0.016727436 -0.0044492483 -0.004922842 0.007999969 0.010247376 0.005894829 0.009563917 0.008323454 0.0031474398 -0.011691887 0.014895527 -0.013278685 0.029371522 0.015892748 0.008726452 0.02556406
HallBedroomDoor -0.008467603 0.010096984 -0.014779371 -0.0040035937 -0.00095939386 -0.0030188183 -0.013881897 -0.005098359 -0.0047055488 -0.020782381 0.004295221 -0.012028103 0.012780767 -0.014504465 -0.008619457 0.008965649 0.021959 -0.0035563293 0.019368961 -0.0011220052 -0.01101467 -0.0034778889 -0.0019638643 -0.008130809 0.010685162 -0.013059993 -0.019225722 0.0046851607 -0.009469858 -0.0026646166 -0.015907504 -0.008524828 0.0062351995 -0.0035328486 0.011835447 0.0073556663 -0.01897566 0.020245275 -0.00027838847 -0.0073330053 -0.0076653627 0.0015390117 -0.008929244 -0.009796177 0.02531998 -0.014208542 0.03229838 0.01403314 0.007900225 0.016338574
Frontdoor 0.003971091 0.0027762335 -0.012584635 -0.016597606 -0.0022025553 0.003447742 -0.015543082 0.0036931448 0.0060032373 -0.02194424 0.017792845 -0.00573275 0.004282622 -0.017712388 0.007848083 0.0008356283 0.023426214 0.0064666164 0.01483695 -0.008279386 -0.013891828 -0.001732362 -0.0060526556 0.00031430312 0.0016352835 -0.004705127 -0.019967796 0.015866509 0.0033323467 -0.00037890967 -0.009130503 -0.0030170234 0.0028395765 2.260759e-05 0.0042323386 0.010709316 -0.022338197 0.009893417 0.0019648427 -0.0063260947 -0.006511994 0.0055614696 -0.002366997 -0.016048837 0.024345657 -0.021236872 0.024505252 0.015579585 0.0026379202 0.023461439
GroceriesCupboard 0.0029948202 0.0065672845 -0.005919843 -0.010484338 -0.0074632904 0.0042840894 -0.0017510208 0.0058835414 -0.007510054 -0.01513708 0.0117748575 -0.0007230116 -0.0034653791 -0.016372485 -0.00016363486 -0.005302645 0.016643677 0.0033563983 0.01019845 -0.0055856565 0.0007015937 0.009515914 -0.0012346791 -0.010383102 -0.0021989604 -0.0046902574 -0.0045870626 0.01502961 -0.006523923 -0.013018368 -0.00010092286 -0.0066562234 0.0026526921 0.0064440784 0.009318964 0.007356478 -0.014671168 0.0070615616 0.011968037 -0.009614763 -0.007353531 0.012218227 -0.006793619 -0.013132732 0.022946997 -0.016366953 0.023380013 0.018235229 0.010808448 0.017512754
PlatesCupboard -0.005720761 0.0093960585 -0.0062575326 -0.012181009 -0.0056591956 0.0032001354 0.002275975 -0.01079428 -0.011895345 -0.012160634 0.015729275 0.006865819 0.0087521095 -0.014228211 -0.0035686188 -0.0026185086 0.008419376 -0.0060164942 0.018206213 -0.014718543 0.00017640989 0.0020797458 0.005738405 -0.007153281 0.006795181 -0.009615086 -0.015390191 0.0016107264 -0.008858395 0.0042643994 -0.01171649 -0.0007216689 0.00913865 0.0060592797 0.0053374358 0.0056458707 -0.017338162 0.016092198 -0.0014061475 -0.0007293145 0.010589687 -0.0012270799 0.0038707831 -0.0022565152 0.022911832 -0.0021038824 0.031222606 0.0009568377 0.00058003736 0.023126982
PansCupboard -0.008730272 -0.002049038 -0.013429743 -0.0025753586 -0.00595346 -0.0030663938 -0.001958412 -0.009111059 -0.008730553 -0.012079194 -0.0003340122 -0.006767717 0.00781529 -0.015151072 -0.0027487692 -0.010168737 0.0050286413 -0.004499206 0.010455113 -0.011625748 -0.002940894 -0.009852073 -0.00622018 0.0041558673 0.00964335 0.003498362 -0.014254415 -0.0015047222 0.00043050968 -0.009439549 -0.0076931785 0.006800909 0.0090937335 -0.01150077 0.008128456 -0.00012523448 -0.016961517 0.0022575115 0.0037397651 -0.0037678713 0.006928221 0.013431622 -0.0066755833 0.0030167059 0.0155797 -0.007794947 0.019679582 0.016733682 0.0058881273 0.012749855
CupsCupboard 0.0058257882 0.013352829 -0.013722214 -0.010381708 -0.0028751318 0.0104597835 0.005527503 0.0029397884 0.006386071 -0.014287193 0.0061302898 -0.0026134863 0.0066702557 -0.013194203 -0.00793514 0.008409633 0.0052262945 -0.0048162662 0.014515571 0.0026231671 -0.0022646724 -0.0083329985 0.0049516577 0.0050320607 0.012531153 0.0040906304 -0.011624919 -0.00037192786 0.0025963064 -0.0017531967 0.0030900524 0.007644477 0.0069928346 -0.011159907 0.009687056 -0.009280648 0.00012696235 0.016277773 0.009900299 -0.003009568 0.0093238605 0.012124364 -0.0027794035 -0.0052317046 0.020384803 -0.012712519 0.01603476 0.0066614933 0.012326053 0.007394281
Freezer -0.00038147016 -0.00718914 0.0031422698 -0.014638945 0.0036351176 0.0070213033 -0.0047088102 -0.0013931468 -0.00014928704 -0.001723486 0.0032523752 0.005309679 0.012562829 -0.0020244988 -0.0058675897 -0.005031702 0.017340574 0.004948882 0.013306718 -0.0073590195 -0.010537726 -0.0072534876 -0.003785655 -0.011522653 -0.0008644779 -0.0024043494 -0.011895268 0.0127721885 -0.002078461 -0.0036248604 -0.0070681213 0.00711388 0.006034524 0.0074907783 -0.001135349 -0.0053285738 -0.015983397 -0.003742073 -0.0041157682 0.008553015 -0.0037395908 -0.0050558536 -0.0040557417 0.0020620523 0.012758412 -0.00906998 0.020349288 -0.0007759608 0.006695829 0.015657926
Microwave -0.0073498935 -0.0058956584 0.0025082515 -0.004585411 0.0030662592 0.011052341 -0.010582032 0.0048746457 -0.0045990767 -0.017911136 0.005194553 0.006422889 0.010664232 -0.0126936035 -0.006150788 -0.0066529624 0.007135423 -0.003729924 0.011140202 -0.0071834284 -0.004928987 -0.0034603928 0.007681276 -0.0008121142 0.004344136 0.006078587 0.0009869273 0.0025312742 -0.011042732 -8.323796e-05 -0.0030338115 -0.00046907173 0.005998531 -0.0033167389 0.008619291 0.006812007 -0.012369522 0.004026653 0.007012151 0.003578348 -0.0010231518 0.012505987 0.0021672528 0.0046475446 0.0055009355 -0.009924446 0.025651878 0.0050451485 0.014768865 0.013883201
Dishwasher -0.007696549 -0.0030646706 -0.0023088532 -0.0078020785 0.00013996373 -0.0016070623 -0.000662786 -0.008217246 -0.00785771 -0.0015517398 0.008442219 0.0060388683 -0.002458483 -0.0030205906 0.0036862725 -0.002907089 0.016315524 0.010068961 0.0074799554 0.0059520784 -0.004275971 0.008688757 0.0061306423 0.0012141262 0.0033289108 0.0016322766 -0.010746789 0.006956742 0.0031469734 -0.0041791713 -0.013961711 0.004891394 0.010127159 -0.00857705 0.011308957 -0.0075937994 -0.0027063529 0.014602232 -0.007200993 -0.0035313638 0.0026795282 -0.0042902534 0.00047380026 -0.011901454 0.006358154 0.00045873597 0.0134906825 0.005370233 0.0015575059 0.008885187
Washingmachine 0.0042344863 -0.0010862004 -0.010752286 0.0031493823 0.0035067552 -0.005074834 -0.0053426623 -0.0018376574 -0.000534887 -0.0076224306 0.013997961 -0.009313781 0.00826552 -0.011904844 -0.0065159476 -0.0011942436 0.0021455348 0.008190313 0.016338876 -0.0076559978 0.0031096404 -0.0043819523 -0.010571403 -0.0034258727 -0.006672696 -0.0023386036 -0.01430291 0.00954776 -0.004711099 0.0012449074 -0.0045278156 -0.00069556903 0.012006977 -0.001340361 -0.004166508 0.0015678438 -0.004645221 -0.00059918803 -0.0026012838 -0.0015280138 0.00656138 0.006618363 0.0007897788 -0.0044730906 0.0037704208 0.0026518407 0.01759934 0.002218501 0.0030849106 -0.00083536
