14 50
HallBathroomDoor 0.008803202 -0.007096764 -0.0121060675 -0.02129974 0.013726197 -0.007652552 -0.015858224 -0.009168635 0.00988245 -0.012149273 0.007974739 0.01268618 0.0032468599 0.014710117 0.010032098 -0.016734825 -0.015551343 -0.0022118513 -0.017617714 -0.0043968577 -0.01687109 0.010002587 0.015247217 -0.012852182 -0.026585083 0.016621789 -0.011436348 -0.0039627 0.014040322 -0.025496647 -0.016030995 -0.021077393 0.01075708 -0.027628833 0.010587414 0.0028191945 0.017672116 -0.021104917 -0.022750968 -0.010063109 -0.00011015418 0.001927341 0.017740432 -0.008680061 0.01720745 -0.009392458 -0.029006848 -0.011519003 -0.02021903 0.017573955
HallToiletDoor 0.005572892 -0.0015017808 -0.0019861585 -0.018953938 0.0056783366 -0.0047256034 -0.009958365 -0.010617619 0.008658199 -0.005961802 0.0059025553 0.018704424 -0.001047994 0.015353311 0.020677393 -0.012453061 -0.0033729584 -0.007672619 -0.011405274 0.00081796164 -0.0044744364 0.0030152209 0.008644259 -0.012005139 -0.026885383 0.015933963 -0.01476298 0.0020031019 0.00807361 -0.02719645 -0.019379476 -0.027401615 0.00021342572 -0.007643565 0.010432152 0.008182834 0.02027383 -0.012155326 -0.0137893725 0.008605258 0.0057846215 0.005740246 0.011250933 0.0035418123 0.014922697 -0.0031018178 -0.01620307 -0.009848173 -0.015676247 0.008048623
Fridge 0.005648037 0.0066196085 -0.0077306833 -0.009559687 0.012618097 -0.007015405 -0.0013459276 -0.0008942419 0.0057341103 -0.014592717 -0.004154803 0.0029914645 -0.006325032 0.006543936 0.010653007 -0.015794143 -0.012006447 0.0014129921 -0.0099479975 -0.006105933 -0.011452016 0.009312425 0.014704536 -0.014238883 -0.008670554 0.009433171 -0.0062898025 0.008853901 0.00966266 -0.019521477 -0.0071550515 -0.011048545 0.005447444 -0.01638298 0.0037127314 -0.0016753023 0.01189014 -0.00038090884 -0.012846859 0.0025762354 0.0042237015 -0.008076617 -0.00084822375 -0.0011472066 0.011871375 0.0073190755 -0.01764557 -0.006755885 -0.004713747 0.014302486
ToiletFlush 0.0033581203 -0.010215409 -0.00373748 0.0027106022 0.006114576 0.0021568802 0.002228007 0.0032731935 0.009535549 -0.010374959 0.008606179 0.0017519499 0.008489508 0.014759759 0.0065273587 -0.0023070166 -0.005269929 -0.01163499 -0.0067757135 -0.0055090147 -0.010811944 0.0004133774 0.010057238 0.0013918927 -0.020855522 0.001453615 -0.0060314904 -0.010562913 0.005061718 -0.007620743 -0.000396229 -0.0189534 -0.0049096034 -0.012040639 -0.0021999474 -0.005559483 0.00906461 -0.011805511 -0.0056440015 0.0026029225 0.009139703 0.0044697355 -0.0019360187 0.0012873422 0.014436236 -0.012076328 -0.014785088 -0.009080878 -0.011311064 0.007549503
HallBedroomDoor -0.0033233142 0.0050190557 -0.008485834 -0.013527517 0.0058885175 -0.0060318136 -0.004469763 0.0013529758 0.011460954 -0.004783442 -0.004009939 0.009078609 0.003435525 0.0101380255 0.011048252 -0.020315439 -0.011671433 -0.0030186865 -0.012269822 -0.0022505983 -0.009785916 -0.0076235062 0.007117565 -0.0057565733 -0.026626498 0.01002017 -0.016554713 -0.009139141 -0.0018996096 -0.019317782 -0.014476304 -0.0222284 0.008315452 -0.020083107 0.010803424 0.012567754 0.017696077 -0.019852817 -0.01794763 0.0011784028 0.006732897 -0.006401823 0.0021462499 -0.012465783 0.014979713 -0.012938057 -0.023543343 0.0016426404 -0.004806907 0.0011860933
Frontdoor 0.0022883264 -0.0033978827 -0.0018421605 -0.0012057425 -0.0014090716 -0.011035251 -0.013897313 -0.009441369 0.0091384 -0.013152271 0.0021094647 0.012105728 -0.007564939 0.0057112747 0.0047887694 -0.007052261 -0.0046091895 -0.011614771 -0.006996785 -0.0008905509 -0.0019020024 0.00045378276 0.0072786175 -0.01262308 -0.006054344 -0.0012641563 -0.007489822 -0.0031621142 0.0072654844 -0.0051979385 -0.014179506 -0.00055605837 0.0086930515 -0.012362569 0.011668351 0.0058527556 0.010154902 -0.011150009 -0.015581029 0.004618493 0.0068110446 0.0043635997 0.0014487747 -0.0069797696 -0.0028826029 -0.0066568335 -0.0062205438 -0.00033099446 -0.008326121 0.012110856
GroceriesCupboard -0.008459038 -0.009294769 -0.009750831 -0.0009929591 0.0017417629 -6.4917156e-05 -0.004766551 0.004720294 0.0015180224 -0.010464822 -0.0027514799 0.0014609746 0.008467995 0.0072701443 0.0145156495 -0.013415606 -0.012446105 0.0040076426 -0.00838022 -0.010957503 -0.0026459915 -0.0054101185 0.010660901 -0.0019417806 -0.020057572 0.0045466796 5.5157274e-05 -0.010736925 0.008548812 -0.015630176 0.003714361 -0.010983818 0.012355328 -0.015951768 0.003990398 -0.0011865649 0.0024733609 -0.013354044 -0.016321957 -0.0064481692 0.0071557662 0.0010358666 0.010766461 -0.0063844137 0.0030435412 0.005930607 -0.0064876513 -0.007131932 -0.011315057 -0.00084380474
PlatesCupboard 0.0021863363 8.8504705e-05 -0.009149294 -0.00021263256 0.010278477 -0.0105748875 -0.011441662 0.0037161245 0.0018860907 -0.007434049 -0.005035513 -0.0031632937 -0.00026997598 -0.0035207174 0.0042549367 -0.012330304 -0.00021015634 0.008207254 -0.006544803 0.0034972033 -0.011435336 0.005442467 0.00065348984 0.0036303545 -0.021325253 -0.004946574 -0.008880202 0.004043976 -0.0002584814 -0.01707872 -0.008311383 -0.010381837 -0.006091292 -0.006445014 -0.0012873829 0.010425466 0.0005795767 -0.0051486483 -0.009111757 -0.007322343 0.004443081 0.0035898203 0.0138258105 0.0042978446 0.010449063 0.0077191126 -0.012499525 -0.0024774985 0.002861681 0.0036473356
PansCupboard 0.00083119265 -0.00045527078 0.0018724995 -0.014149666 -0.0011738886 -0.007166185 -0.0076332106 0.003337514 0.010942114 -0.004298276 -0.0047742752 0.011208459 -0.009217292 0.008002703 0.015852578 -0.015772505 -0.011301625 0.002651202 -0.010420156 -0.007509246 -0.007248143 0.00088625646 0.0027197748 -0.013289966 -0.01193369 -0.00046797105 -0.013181846 -0.001149192 0.007008994 -0.018154567 -0.0152544435 -0.014903064 0.007530981 -0.016011717 0.0019896682 -0.006982921 -0.0021899159 -0.015054705 -0.0071832505 -0.0057051466 0.0037296556 0.008466292 0.0118551655 0.008375893 0.005569027 -0.0013676417 -0.015746232 -0.0030469138 -0.015017681 0.00057323655
CupsCupboard -0.0033384548 -0.00028049253 -0.010956894 -0.0032827214 0.008151395 0.0012216627 -0.003973009 0.0041246964 0.0022238812 -0.0073113455 0.0071713096 -0.0042825625 0.0044492055 0.0057472405 0.0020842783 0.0018361724 -0.009917645 -0.009044979 0.0011537496 -0.008597182 -0.00080661394 -0.001762598 0.0047446815 -0.01102008 -0.010338821 0.008536185 0.0014515308 0.0021146028 -0.0075063403 -0.003594345 -0.0031227602 -0.013375667 0.0042943647 -0.0050663785 0.010470523 0.0015992756 -0.0043786988 -0.013780782 -0.0058755837 -0.003474535 0.002341772 -0.0047342293 0.0056443308 -0.0023225849 0.015796077 -0.00947699 -0.015353421 -0.006792969 0.00090256985 0.0072584767
Freezer 0.00031314758 -0.002674669 8.9788795e-05 0.002787682 0.01154894 -0.0105520785 -0.010152186 0.0070358594 0.0136248 -0.001312366 -0.0024752389 0.009657417 0.005626922 -0.0015508106 0.012988586 -0.010898459 0.004204984 -0.009446667 -0.0013484147 0.001104996 -0.0013548722 -6.310038e-05 -0.0011965971 0.00442783 -0.017155206 0.000595219 -0.010792783 -0.005870465 -0.0023228787 -0.017849818 -0.0016165802 -0.014764599 -0.002136224 -0.009501145 -0.005400756 0.0035067273 0.004134747 -0.003335169 -0.017997775 -0.0100545185 0.00022702524 -0.0029827754 -0.002448557 -0.0025972957 0.0072109275 -0.00061343715 -0.008735887 -0.012852125 -0.009927575 0.0125420615
Microwave 0.0043537267 0.006461343 0.005856292 -0.010221857 0.013249558 -0.013224781 -0.0035075888 -0.0013128204 -0.003930793 -0.013579706 -0.003794233 0.013905151 -0.0022737477 0.008909031 0.002387428 -0.015556681 -0.013696986 0.00223598 -0.012837565 -0.0005085273 0.0058555724 -0.004326174 0.0010997884 0.0030032804 -0.013540799 -0.0025846714 -0.0038397748 0.0019123894 -0.006611648 -0.00094343687 0.0012477774 -0.018626153 0.007529538 -0.016000696 -7.446941e-05 -0.0015663465 0.014266734 -0.010454727 -0.014854329 0.00052768923 0.00793602 0.002920518 0.008478047 -0.009831781 0.003953631 -0.00012367812 -0.014734274 -0.0058243577 -0.01187594 0.01102216
Dishwasher -0.0031810452 0.002457861 -0.0064724605 -0.012094102 0.010541404 -0.012446894 -0.012515986 -0.0014725936 0.0033894037 -0.005127155 -0.009639502 0.014103729 -0.001335804 0.006112748 0.013545528 -0.011181471 0.0025988778 -0.0036092005 -0.0109348865 -0.00020362434 -0.0037076613 -0.007524094 -0.004394551 0.0059122117 -0.015264197 0.001087825 0.0045902883 0.008573839 0.0060725994 -0.0109001 -0.0063125575 -0.015923394 0.0038432942 -0.005590771 0.006496249 0.0031497115 0.004361446 -0.0049594925 -0.0031913451 0.003984431 0.008026361 -0.0024429304 -0.0049659796 0.003740018 0.015411148 -0.0059812577 -0.0071855364 -0.011269061 0.0035891093 0.012319853
Washingmachine 0.0012081591 0.0036066857 -0.010857679 -0.0068778447 0.006637553 -0.005392837 0.0058439644 0.0051899753 -0.003254141 -0.0045138113 -0.0020281526 0.009927739 0.0007526991 0.0056752535 0.0039541386 -0.0045283763 -0.010599827 -0.008661457 -0.011743293 -0.006650268 -0.00079647434 0.0035188028 0.008575257 -0.0013229469 -0.0067071677 0.00021654842 -0.0062299618 0.008804947 0.0052946825 -0.0050805067 -0.011028276 -0.0037460453 0.007491415 -0.010270369 0.0065687736 0.0070237364 -0.004288315 -0.009671441 -0.003500175 0.007840922 -0.00409101 -0.0038025894 -0.002995002 -0.0021955397 0.008593417 -0.0025045061 -0.002043734 -0.010122892 -0.010746236 0.0090477355
