14 50
HallBathroomDoor 0.011462356 0.010681409 0.014561281 0.01518566 0.0006327225 0.01128041 -0.009707382 -0.015994897 -0.0061124577 -0.010357057 -0.008891727 0.008750195 -0.0063623153 -0.015141095 0.005872826 -0.011838024 0.005320363 -0.009133979 -0.0070044985 -0.01209637 -0.009698692 -0.006882984 -0.0020393014 -0.004161085 -0.01060359 -0.009558367 -0.0034358555 -0.0040641166 -0.0031930332 -0.0008403335 0.007307364 0.010348895 0.002662592 0.0093035055 0.01604086 -0.018289043 -0.015911775 0.01942853 0.006288747 -0.016127435 0.009551409 -0.0083776275 -0.003101999 -0.023587985 0.00047792893 -0.007945974 0.012568906 -0.0047025112 0.011559815 0.0004811418
HallToiletDoor 0.007156407 0.0053677997 0.013213819 0.017730877 -0.01198301 0.009768573 -0.015230612 0.0005512882 -0.009722451 0.002050309 -0.019036524 0.014499947 -0.0027695152 -0.015787488 0.005489568 -0.010137364 -0.0062587676 -0.0061463555 -0.009646245 -0.019736405 -0.015483458 -0.013937095 -0.012839045 0.0027303337 -0.015381087 -0.008661994 -0.006215016 0.0039321654 -0.009201431 -0.005286719 0.009366539 -0.0023665882 0.0019419249 0.0023656052 0.016305733 -0.014366647 -0.013406788 0.021829173 0.012038771 -0.011805556 0.010570259 -0.010128139 -0.0033456683 -0.021317542 0.0072647464 0.005897258 -0.0056977347 -0.020172672 0.005325604 0.012174615
Fridge 0.005249695 0.017372113 0.0140253315 0.0168152 -0.0093000615 0.0037967642 0.00048958656 -0.0031427343 -0.01397901 -0.0073576733 -0.004557919 0.019770013 -0.0006194259 -0.009341582 0.008178393 0.0015863697 0.011657919 0.0035099967 -0.005406132 -0.019075429 -0.0071160085 -0.0016228805 -0.013337148 -0.009889372 -0.008814913 0.0039847963 -0.007972811 0.012458617 -0.0046823323 0.008795328 0.0033649048 0.009280026 0.0019955607 0.0015576194 0.021874193 -0.019354127 -0.0031174175 0.01584574 0.015267083 -0.0040265676 0.0018285724 -0.019869016 0.0062954323 -0.023372779 -0.0067125857 -0.00020176994 0.008319083 -0.021041086 0.0054460675 0.009031758
ToiletFlush 0.002416952 0.01502245 0.004820693 0.022194097 -0.0039545996 -0.0063157747 -0.011715717 -0.014929043 -0.011771925 0.0013714841 -0.013804836 0.012160807 0.005709702 -0.017512653 0.00451919 0.0039410884 0.0007355275 0.0050428123 -0.012042627 -0.011900144 -0.015566966 0.0006323245 -0.011357404 -0.004107561 -0.0033327923 -0.013709136 0.00453787 0.0052459952 0.0029990522 -0.010190764 0.016346384 0.015495414 -0.00499203 0.0018351645 0.014013812 -0.02078448 -0.0044779964 0.022040702 -0.004805793 -0.013453449 -0.005378125 -0.01847698 -0.00379776 -0.024878712 0.0035216329 0.0061963503 0.002361131 -0.005058507 0.0116803665 0.005570301
HallBedroomDoor 0.004392804 -0.003999904 0.0012680554 0.018530153 -0.012041206 0.0036119174 -0.009126034 -0.012824239 -0.0009045764 -0.0053054937 -0.017043414 0.0039581903 -0.0030807895 -0.0038590098 -0.0063356366 -0.0064647715 0.0042401752 0.007937237 -0.008904192 -0.0041751107 -0.008682576 -0.009388173 -0.009507787 0.0026751175 -0.003412126 -0.009654463 -0.008963588 -0.0033615544 -0.0039377846 0.0058847005 0.012857562 0.013863778 0.009577617 -0.0027028653 0.013072342 -0.017155038 -0.007623467 0.010405888 0.003096449 -0.00078798697 -0.00058825663 -0.013720591 0.008847373 -0.010137533 0.0069860676 0.0030564275 -0.006767511 -0.014457186 -0.0034683796 0.002832088
Frontdoor 0.007312748 -0.0034664825 -0.004081404 0.012540537 -0.011453081 0.011460817 0.00015410714 -0.009626829 0.002854539 -0.008288874 -0.013056426 0.015221316 0.007210229 -0.0031940648 -0.0002011196 -0.0049760626 0.008886985 -0.009395889 -0.0038606117 -0.015917504 -0.0050136573 -0.007464688 -0.014842339 -0.0026661388 -0.0104497615 0.00024711454 -0.0019849169 -0.0018907054 0.0043619396 -0.0068595298 0.011827353 0.001000468 0.011046129 0.010710605 0.0002834227 -0.006919109 -0.012450362 0.020401314 0.0091346465 -0.0071876757 3.4976903e-05 -0.0061176643 -0.0025991874 -0.0059650866 0.01095102 -0.0070880842 0.012250499 -0.016600719 0.008519787 0.007811254
GroceriesCupboard -0.0010741111 -0.003095683 0.0012798137 0.0072758943 0.002868761 -0.003769734 0.0049956907 -0.0018769354 -0.0035517018 0.0058907177 -0.010286377 0.006599104 -0.001966328 -0.009575317 0.0016926407 0.007561544 0.0042363745 -0.007884608 -0.009426046 -0.00022517948 -0.0040516653 -0.0013535023 0.0030298757 0.003432628 -0.0047683516 -0.0028838117 -0.008382269 -0.007291336 -0.007644157 -0.0039896755 0.008808121 0.00097532425 0.005651216 -0.0029641557 0.0061142556 -0.0072903894 -0.012997889 0.014639307 -0.0022428406 0.0031246082 0.010274966 -0.0038199814 -0.0078549115 -0.005203437 -0.009088844 0.0011825324 0.0027891477 -0.0024313522 0.006778858 -0.0020852839
PlatesCupboard 0.011300222 0.012160446 -0.0028098237 0.017467836 -0.004451453 0.009994697 -0.007749617 -0.004930912 -0.010860763 0.0022704941 -0.015155461 0.0068676574 2.6800833e-05 -0.0055801715 0.0059239417 0.0077473023 -0.001661895 -0.0026944755 0.0059887017 -0.0053080386 -0.014101398 -0.011665249 0.0013639156 0.0050406912 -0.007714911 0.0038518643 0.0024852194 0.009384538 0.00047821496 0.00037016894 0.0038982218 0.009948803 -0.006854199 0.010606023 0.010960905 -0.0030062108 -0.00811637 0.018221505 -0.0021201044 -0.0028753055 0.006444973 -0.0024054337 0.008169283 -0.0033635823 -0.0024420812 0.0062095537 -0.004982603 -0.012210207 -0.003329536 0.011052157
PansCupboard -0.0016516708 -0.00031074224 0.002664214 0.013074132 -0.011421921 -0.006846043 0.0019104853 -0.0060220263 0.0029612486 0.0053880895 -0.011594341 -0.0013123481 0.0010963605 -0.011907423 -0.0077004717 0.0040392694 -0.003122696 0.0034627095 0.006733028 -0.016135331 -0.0023205152 -0.0020026667 -0.008902794 -0.008493708 0.0020608304 -0.0014860475 -0.008935164 -0.0018767166 -0.009877453 -0.0018698146 0.0054315617 0.012211012 0.011185363 0.008452534 0.008100825 -0.007845909 -0.008169904 0.00022746863 0.007852701 -0.00784088 0.01079793 -0.0012286176 0.008162152 -0.005974329 -0.008467393 -0.0009305797 0.0030688145 -0.009458702 -0.0047611697 0.011096363
CupsCupboard 0.010438002 0.012430852 0.008805812 0.015967906 0.005688686 0.0038464677 -0.0015146715 -0.0039955843 -0.012171959 0.008370607 -0.010414456 -0.00039798493 0.003337895 -0.005129739 0.010651297 -0.008693418 -0.0018961378 0.004117765 -0.0101480745 -0.010608228 -0.010229543 -0.0042419154 -0.006844488 -0.0012451502 -0.0097527085 -0.009424013 -0.0016150547 -0.00029204713 -0.0042001107 -0.005095558 0.0113723185 0.013097124 -0.0033889725 0.008962823 -0.0006198733 -0.0080832895 -0.013854201 0.008409597 0.0040177414 -0.004792524 0.0059079006 0.0024453592 -0.007036665 -0.01616183 -0.0014832612 0.00052761566 0.007733326 -0.005754295 0.0062473943 -0.00066387013
Freezer 0.0065937964 0.006431414 0.010616241 0.0028718896 -0.00047907152 -0.0038036157 -0.0032641897 -0.012484341 -0.008657557 0.0038913 -0.0067965435 0.00426188 -0.005457687 0.0019135878 0.009807098 0.00072207244 -0.0030013428 -0.010707853 0.0043267813 -0.010132853 -0.0041971314 -0.009354924 -0.008414436 -0.005037237 -0.0083369445 0.0014659144 0.0071056993 0.0029492422 -0.0044948366 -0.0027631465 0.0070669036 0.012237699 -0.0059030913 0.0049746647 0.011898125 -0.017074984 -0.012178624 0.00982474 0.0012568301 -0.0022845166 0.0049692607 -0.0078083207 0.007218967 -0.011792764 0.0029543857 -0.0006246477 0.009744905 -0.016543666 0.009248075 0.012380296
Microwave 0.0059850584 -0.00034661757 0.0074007097 0.013166113 0.0042769997 0.0104849525 -0.0089149885 -0.007968179 -0.011335193 -0.0037194912 -0.013897752 0.0018159448 -0.0022189124 -0.0065609384 0.01154108 0.0063790497 0.010117048 0.005995534 -0.0042855595 0.0033139032 -0.003799354 0.00021839354 -0.0004758714 0.0053284783 -0.010016963 0.0061900234 -0.010894564 0.003950478 -0.0035667953 0.009477229 -0.004205351 -0.0044731637 -0.0053279134 -0.0077327103 0.008196764 -0.006035472 0.0043314877 0.0062111276 -0.003197416 -0.00043885093 0.003561798 -0.013472617 0.0024548722 0.0008210917 0.009008765 -0.0034949076 -0.00038636982 -0.01488625 0.008325909 0.0009809763
Dishwasher -0.005124357 -0.001654157 0.008178862 0.005068141 0.0052375253 -0.0076364493 -0.011490832 -0.012379605 -0.00023791404 -0.007442065 -0.0069893734 0.009111531 -0.010107071 0.0039087376 0.009507872 -0.0053138384 -0.005111904 -0.0026087703 0.0054828688 0.0034979442 -0.01179523 -0.009108429 -0.011272518 -0.005065814 0.0001703735 -0.0041117487 0.0036264325 0.0075379447 -0.007486699 0.0015030092 0.0049525807 0.0028827754 0.010675604 -0.0047917166 -0.0023608329 -0.0020999245 -0.010700822 0.005341558 0.005452139 0.00061544945 -0.0031079105 -0.0013259563 0.007496463 -0.01373091 -0.0023372523 -0.0018716689 0.009306633 -0.005953958 0.0061085196 0.003598458
Washingmachine 0.0027807453 0.010997644 -0.0026765522 0.0024722356 0.006982088 0.0070761535 -0.008073672 -0.007573036 0.0044541387 -0.0026771196 -0.0034349544 0.009124665 -0.008533252 -0.012241597 -0.0021685413 -0.0035682882 0.008730791 -0.005423588 0.002208086 -0.007115135 -0.008105378 -0.0011761428 -0.0022966405 0.005604104 0.0037936692 -0.0025570034 -0.0033979055 0.004945989 -0.006465552 -0.00037982312 0.0010550154 0.007514053 -0.0045618946 0.007673666 -0.0038836533 -0.007743728 0.004087747 0.013218723 -0.0059934827 -0.009892382 -0.0036882851 -0.009427422 0.007287179 -0.0005127135 0.008146577 -0.007990733 -0.003556245 -0.009005726 -0.006239927 0.0032113784
