14 50
HallBathroomDoor 0.020293081 0.0032931205 -0.006239606 0.020492645 0.0009043261 -0.008133472 -0.0077191447 -0.018148629 0.0057375594 0.021580363 -0.019049479 0.0015777719 -0.022462944 0.0014448728 -0.0009500808 -0.0028918525 0.02976192 0.011010281 0.0055223573 0.0001642707 -0.00613622 -0.014304537 -0.01146357 -0.017002149 0.015246722 0.0018967884 0.022038748 -0.015442291 -0.014413695 0.0049379235 -0.024180533 -0.017237918 0.001426388 0.0028093257 0.00692678 -0.02867128 -0.019972654 0.0015989724 0.009205875 -0.0021073348 -0.0056779003 0.0053818957 0.007852591 0.035378363 -0.007283651 -0.014033561 0.0066175726 -0.0024565759 -0.026487667 -0.0034796628
HallToiletDoor 0.01918492 0.011401606 -0.008914251 0.015814848 -0.0036755342 -0.0035589319 0.0034248717 -0.015552417 0.005054522 0.0053109583 -0.0027023123 -0.008384921 -0.01856895 0.0010940977 -0.006347766 0.0033041236 0.027735377 0.0013873765 0.011978936 -0.008430492 -0.013713152 -0.0015258217 0.007706212 -0.012333452 0.014256039 -0.005740026 0.009866796 0.0042338027 -0.014611992 0.0035621347 -0.017213585 -0.01793237 0.0012241995 0.008748098 -0.008491106 -0.023764007 -0.017478839 -0.013164116 0.017217113 -0.0003049008 -0.009328215 0.0074636666 0.0026534905 0.026411302 0.00022588471 -0.006997934 0.015168471 -0.0054043415 -0.028921008 -0.0051878574
Fridge 0.006568769 0.010387803 0.0046071433 0.015135114 0.00697244 0.005355506 -0.0028864485 -0.01893132 0.0039004285 0.013352499 -0.014042154 -0.0029684051 -0.016461883 0.009072706 -0.007102243 0.00782915 0.031780582 0.010718022 -0.001727528 0.00233981 -0.012990736 -0.008434432 -0.010863454 -0.019192815 0.01816052 0.0069243275 0.010299477 -0.011593998 -0.020059612 -0.009389092 -0.005444701 -0.008717484 -0.0020398367 0.015378753 0.009942364 -0.018106885 -0.014223824 0.0022891532 0.017607918 0.009385438 0.009627655 0.008804366 -0.004121156 0.011742381 0.0013300799 -0.008932845 0.0062065404 0.008764612 -0.021105839 0.006233749
ToiletFlush 0.017226253 0.0050805765 0.0034565693 -0.0014150769 -0.009980979 -0.0057680714 -0.011893623 -0.018013809 -0.0055268775 0.018540017 -0.0153004415 -0.005310449 -0.023211299 0.0031536764 -0.007423971 -0.0044281157 0.025589941 0.0079004755 0.010724401 0.0057344707 -0.0035664872 -0.012910625 -0.0029002386 -0.015134991 0.0031023955 0.0023519157 0.0018591508 -0.00076080003 -0.003961249 -0.007372901 -0.01991107 -0.0032176473 0.008586376 0.0126668615 0.0054164515 -0.019369038 -0.0124166645 -0.010617257 0.02009351 0.0017889838 -0.005139954 0.015327479 0.010618804 0.022029288 0.004104063 -0.010166646 -0.0010372795 -0.0068829046 -0.020515978 0.0030947796
HallBedroomDoor 0.017807944 0.0024062009 0.0054219128 0.012902434 -0.0013663362 0.001624322 -0.0059452183 -0.010499397 0.007148934 0.011365303 -0.0069579575 0.0020153045 -0.0062283115 -0.00013169272 -0.0009947693 -0.0047559394 0.030962668 -0.005132233 -0.006158233 -0.0051209126 -0.011517577 -0.008212306 -0.008634516 -0.014256597 0.011275363 -0.000321854 0.013426109 -0.0094123045 -0.020450182 -0.004688849 -0.0076343403 -0.0046410505 0.007558525 0.008182683 -0.0013085824 -0.010470223 -0.01854072 -0.01012572 0.01963064 0.010334601 -0.0069561545 0.009949916 0.006946583 0.027622929 0.007065128 -0.009988209 0.001468632 0.0043429653 -0.029135477 0.0042551053
Frontdoor -0.004120024 0.0031468386 -0.001359899 -0.0008709887 0.0080665825 -0.007965443 -0.004514215 -0.010822652 -0.001717652 0.0022812712 -0.0030348 0.0040283566 -0.0023351877 -0.0016671406 0.0051281117 0.0025368931 0.01640859 -2.0572808e-05 -0.0011118465 0.008380299 0.0026308002 0.0029316775 0.0033937746 -0.0117780175 0.012213609 -0.0056903786 4.9934966e-05 0.00024974428 -0.0023102006 0.009062513 -0.006826484 -0.005172271 0.00060760084 0.005637854 0.00093684584 0.0016695643 -0.00045308255 0.0056883637 0.012985514 -0.002568152 0.003953222 0.0038491823 0.01087309 0.019108424 0.009158516 0.0051944703 0.010933755 0.010030703 -0.009155797 0.0031681762
GroceriesCupboard -0.0024280385 -0.0031174037 0.0019006891 0.0063858987 0.005042579 -0.007839024 -0.0022256393 -0.007324506 -0.008174981 0.002701169 -0.01447244 0.0045551676 -0.01940858 -0.0050115366 0.0036861196 -0.0063801897 0.021311713 0.007490693 0.009304064 0.004667854 -0.006756865 -0.004695455 0.006998576 -0.005918631 0.006267933 0.008477873 0.014837131 -0.013991756 -0.01873823 -0.0019060805 -0.01770715 -0.008841771 -0.009095379 -0.0031407145 -0.007694347 -0.0032984975 -0.017944383 -0.0099767065 0.00033886443 -0.008067325 0.0039678137 0.004475341 0.0070191054 0.021542724 -0.0008276698 -0.0025872448 0.01080036 -0.0002830745 -0.01712696 -0.0034367347
PlatesCupboard 0.012011189 0.009854275 -0.004196799 0.0036500434 -0.006644348 0.0076637887 -0.012766028 -0.0065425257 0.0036011965 0.015191349 -0.0009906741 0.0038004096 -0.017531328 0.00986874 -0.011420992 0.0017602248 0.021368364 0.010003172 -0.0060641803 0.0048505333 -0.01108391 0.0032373061 0.005601125 -0.01700999 -0.0029440245 -0.0008261427 0.013502969 -0.007087046 -0.017267074 0.00835919 -0.017558865 -0.01414028 0.007305704 0.01463097 -0.0017894943 -0.018204842 -0.011298023 0.007979398 0.014672898 -0.0053212787 -0.0041628126 0.0077987276 0.0030533597 0.019102179 -0.0036252558 0.00630062 -0.0023992024 0.007979078 -0.020565124 0.008395362
PansCupboard 0.0022390457 0.0080423765 0.007955766 0.009893615 -0.007336945 0.0065536723 -0.011453804 -0.006963444 0.0069483593 0.0151929725 -0.0016405414 -0.0048125265 -0.011136041 -0.0040405616 0.003318879 -0.0047416254 0.016994856 0.012383072 -0.0082012955 0.008283305 -0.014100825 0.008252342 -0.0015011298 -0.0041095293 0.008559632 0.011253472 0.015233334 0.0025289822 -0.007866392 -0.000992901 -0.010933098 -0.01313029 -0.0008537068 0.0083711855 -0.003724786 -0.01072195 -0.004107313 0.0077610714 0.001963764 0.009835535 0.00899507 0.01292552 -0.00812496 0.0092628235 0.006370416 0.00044909085 0.013483095 0.0041583674 -0.020187693 -0.008369784
CupsCupboard 0.0117630195 0.01115294 0.005496569 0.012613698 -0.005785598 0.0066682487 -0.011225937 -0.004291734 -0.0020684863 0.008703333 0.004413087 0.0014282957 -0.011282276 -0.0052818963 0.0010294883 -0.003559235 0.013897269 0.011205223 -0.00018781016 0.0021493218 0.00036066523 0.005568462 -0.009205427 -0.003942829 0.0002539517 0.00796452 0.014298609 -0.005009043 -0.0073834737 -0.00375534 -0.012281591 -0.010549886 -0.0060276794 0.0074477997 0.0037656203 -0.012764854 0.001777054 -0.007868786 0.007932483 -0.0040992093 -0.0025841794 0.009388755 -0.0038340264 0.009139925 0.009235002 0.0067413994 0.008664903 0.0012348914 -0.015646728 0.0067070015
Freezer -0.0005137466 0.0021659993 0.0028114242 -0.00026406194 0.0028454873 0.0060298597 -0.0026741622 -0.010414321 0.005229154 0.0067467014 -0.013756155 0.006834012 -0.01893267 0.006097478 0.004392689 0.0038497886 0.025994582 0.002118533 -0.0033281036 -0.0062629287 0.00013551058 0.0008068517 0.007211755 -0.0029521075 0.016461464 -0.0021644717 0.0077014277 -0.012725251 -0.018711466 -0.004394139 -4.4411696e-05 -0.009338989 -0.008647393 0.00924412 -0.0030767028 -0.015213958 -0.013359359 0.0045537357 0.014477123 -0.0026896244 0.009837438 0.008581342 0.00028684264 0.022813153 -0.0044946694 0.0026438544 -0.00026749918 -0.0020556464 -0.024993472 0.009900876
Microwave 0.0032450624 -0.0030176938 0.004787206 -0.0012298886 -0.0058227703 -0.005002625 -0.0076078987 -0.011491736 -0.0027519383 0.00023381494 -0.007754304 -0.007139782 -0.0079385005 -0.008666424 -0.011125785 0.0013790033 0.001918745 -0.0015930595 0.010298057 -0.0065955655 -0.009994433 0.0043317266 0.0002591349 0.0012867614 -0.0023772654 0.0028393818 0.0098373275 -0.0116600515 -0.0073742988 -0.0007835318 -0.0137600545 -0.0035088565 -0.0031717604 0.003274738 0.0033912552 -0.016776742 -0.00780837 -0.008359151 -0.0008933885 -0.00074258883 0.002689597 0.0011125767 0.0020928096 0.011600436 -0.000614653 -0.009853616 0.0119140195 0.010255995 -0.012564939 0.0073956666
Dishwasher 0.0050102943 0.004339815 0.006574434 0.0021154364 -0.009221281 0.002425917 -0.005113424 0.0045108297 0.008344499 0.012668047 0.002671747 -0.0042278254 -0.0024986924 -0.0048855864 -0.0048079835 -0.009957071 0.009045429 -0.00521583 0.008769427 0.0036326966 0.0025109542 0.0055604656 0.0078257425 -0.0015560023 0.00914802 0.006788874 -0.0012531978 0.0032772128 -0.015652781 0.003745228 -0.011588083 0.004678806 0.009149086 0.002309057 -0.0013005725 0.0025128517 -0.014039262 -0.007682377 -0.00046312262 0.0046614986 0.0007618356 0.011548136 0.0014797939 0.015551377 0.005940836 0.0070099304 0.009589123 0.009797071 -0.0029098168 -0.008559587
Washingmachine 0.013894603 0.00016275188 -0.0069721425 0.0029649716 0.0017028138 0.000740021 -0.0070032612 -0.01149232 -0.0011312764 0.0025861657 -0.009320492 0.007181125 -0.012402603 -0.008648389 0.0009333847 0.003153943 0.005509432 -0.0022147503 -0.0034433475 -0.00088739564 -0.011247434 -0.0038224186 -0.008957087 -0.014353421 -0.0027911873 -0.003733927 0.008137098 -0.0062409583 0.0009724791 0.004327198 0.0017475908 -0.0016153872 -0.0060498184 -0.0036636759 -0.003611601 -0.015838463 -0.0037717915 -0.00037261978 0.014685649 -0.008656455 0.004002409 0.006168344 0.0050994554 0.009106361 -0.0008298548 -0.008125845 -0.0053977887 0.010812081 -0.014396351 -0.006683468
