14 50
HallBathroomDoor 0.0063360445 -0.023161197 -0.012938459 -0.017617848 0.00022523172 -0.0028900546 -0.004634854 0.003274565 -0.015143388 -0.010149138 0.006086293 -0.0095212 -0.015274154 0.012913042 -0.006316656 0.008721413 -0.0026311774 -0.002492921 0.0011379451 -0.014010859 -0.02473412 0.0025046393 0.0055116685 -0.00800677 0.012721032 0.013611639 0.016611755 0.003609951 0.004739736 0.019206386 0.017487282 -0.008222013 0.0074301376 0.035423186 -0.012613712 -0.002612142 -0.021524077 -0.019953122 0.018399911 -0.0022112897 0.008894975 -0.016011154 -0.0034436448 0.012898353 0.00013008676 -0.006443886 0.0076655303 -0.011742239 0.016192261 0.0034188647
HallToiletDoor 0.004058428 -0.019611103 -0.015824141 -0.0010543123 -0.0062262975 0.003804218 0.013015403 0.021054702 -0.01634881 0.0024776838 -0.0072669033 -0.002313767 -0.011326387 0.011368716 0.0013713883 0.016476471 -0.0064585195 0.00025673414 0.014668545 0.0013236562 -0.014876444 -0.00022808617 -0.0023174416 0.0059044682 0.018854717 0.016268177 0.023875883 0.0087292595 0.015979879 0.027798781 0.023602242 -0.018634217 0.0034836428 0.03390559 -0.012718356 -0.007003339 -0.013815015 -0.009440294 0.0017388206 0.010512922 0.005234242 -0.012179531 -0.008286485 0.015738009 0.01517587 0.0033395127 0.007856175 -0.014755784 0.020448439 0.0011818681
ToiletFlush -0.005245614 -0.025796795 -0.008998077 -0.0025970172 -0.00023806577 0.0019453426 -0.0046961727 0.02046054 -0.019143641 -0.0007472586 -0.005638565 -0.011603159 -0.013109067 0.011568756 0.002068252 -0.0016248649 1.8166384e-05 0.0014118954 0.014123893 -0.009846384 -0.020356528 0.0055293622 -0.0080609685 -0.005281693 0.019385343 0.012320955 0.022888308 0.00926684 0.006193778 0.02453148 0.01628789 -0.014230609 0.011786466 0.03219298 -0.011885422 0.007555265 -0.00945372 -0.012719207 0.0104836095 -0.0009176175 0.01482412 -0.0154904155 0.0055461978 0.01765668 0.018773578 -0.0024286022 0.017719297 -0.0070891604 0.017562998 -0.007189856
Fridge -0.006773065 -0.012867163 -0.018625462 -0.014344612 0.011406078 -0.009707902 0.008976854 0.009817025 -0.01099733 0.0018122434 0.00204798 -0.0013999728 -0.008487196 0.009670517 0.0063783037 0.0050151404 -0.00030462543 -0.009342975 -0.0024010036 -0.0020997215 -0.015928058 -0.0031946693 0.009375719 -0.006579363 0.010807953 0.009635465 0.012390341 0.0122814765 0.016340975 0.019080328 0.011102226 -0.016701082 0.0116483 0.021715296 0.0061614113 0.0078887455 -0.0015903485 0.0023078662 0.011049575 0.009879986 0.0051793344 -0.008768494 0.0045561814 0.011739619 0.00985145 0.0067986697 0.0046617663 -0.0059353486 0.0066293543 0.0026811212
HallBedroomDoor 0.009295259 -0.015881423 -0.016120141 -0.011752636 0.008885297 0.0065767374 0.0092561515 0.0152835 -0.0166711 -0.00293706 0.0007140186 0.005212667 -0.004100943 0.005927501 0.009420156 0.011802399 0.0034829453 -0.011007164 0.0051988834 -0.011849649 -0.014983884 0.0056433324 -0.0011433699 -0.006409832 0.017755777 0.016226817 0.015697235 0.008745011 0.01617395 0.019888043 0.018113356 -0.0091392435 0.015869291 0.017630875 0.0015232362 -0.008631574 -0.0128361825 -0.008950589 0.014633298 0.004101669 0.0038250894 -0.012392646 0.00028168483 0.011531072 0.015544441 -0.002491565 -0.0016017662 -0.004883284 0.01191995 0.007542441
Frontdoor -0.00019288223 -0.02483452 -0.020995064 -0.0014134737 0.009865959 -0.007505664 0.00969881 0.019412482 -0.0040339017 7.0542905e-05 0.0030244177 -0.0020045608 -0.000119625336 0.006990793 0.00081961334 0.009214539 0.004127699 0.0060481573 0.0017295528 -0.017096825 -0.021765312 0.011535664 -0.0069793956 0.00465792 0.009114641 0.0014649655 0.024507321 0.008366834 0.012969375 0.023439627 0.004094723 -0.019368099 0.015673347 0.031512856 -0.009514654 0.0016953645 -0.018896101 -0.018943472 0.006735107 0.0068153897 -0.00065715954 -0.009567688 0.0088588735 0.013001307 0.011995544 0.005759802 0.012342626 0.0015818854 0.02008851 -0.008378995
PlatesCupboard -0.0022354554 -0.015594152 -0.008773876 -0.007717642 0.00013120705 -0.009012016 0.0011169056 0.011777181 -0.011320757 -0.011672151 0.01110856 -0.012243992 -0.0056125014 8.125784e-05 -0.0049115713 0.0061631533 0.0024158845 0.0016654374 0.012817639 -0.006925903 -0.017967898 0.0010204935 -0.007342601 0.00573391 0.0023089624 0.014358919 0.0050771507 0.0025500066 0.016057339 0.0058361487 0.009860882 -0.0043099476 0.002522816 0.02460889 -0.0038871558 0.0011556507 -0.010200406 -0.0016081952 -0.0028695494 0.011519811 -0.005533425 -0.008092671 0.0045644073 -0.0028469411 0.006904151 -3.0035199e-05 0.007396688 -0.00203245 0.0102170985 -0.007874642
GroceriesCupboard 0.0011966239 -0.020932898 -0.00975829 -0.00047584332 0.007891246 0.0010903713 -0.0005739771 0.01040194 -0.01780646 -0.0027260531 -0.009068043 -0.0057728346 -0.007806392 0.011728384 0.00729407 0.011802744 0.0062161633 -8.290982e-05 0.009642479 -0.009854841 -0.017800037 0.010950324 0.009767202 0.006945784 0.012477393 0.010508755 0.018190937 0.007005135 0.0075280145 0.020433899 0.010875842 -0.019185575 0.015530509 0.02930983 -0.0035682495 0.0023387377 -0.00872038 -0.010362703 0.011228791 0.011790044 0.00870214 -0.012213701 -0.007871343 0.005209031 0.015871104 -0.0015971605 0.011834154 -0.00069009914 0.012190459 0.006176299
CupsCupboard 0.00937944 -0.0005567256 -0.007159558 0.0051613236 -0.0041635325 -0.0066239703 0.0022988874 0.0062954416 -0.012980507 -0.0035999233 0.0055534136 -0.00395848 -0.006708417 0.006600678 0.008993947 0.01247937 0.0073698135 -0.002669623 0.0059210956 -0.007057782 -0.011669884 -0.0077564865 -0.009301674 -0.0027189795 0.0058630034 0.0027848308 0.009170031 0.0024622881 -0.0013893456 0.0062203193 0.0047479686 -0.013025236 -0.00062774174 0.017737897 -0.0031793765 0.008846344 -0.012835354 -0.011765279 -0.0026575376 0.008275194 -0.007976762 -0.010389925 0.00017155263 0.0116404435 -0.0047683753 -0.009551713 0.0045912056 0.0026029907 0.0018692849 -0.0043379846
PansCupboard -0.0036783775 -0.013446621 -0.0127687855 -0.008785311 0.0017391058 -0.00090401823 0.0077299923 0.0013434229 -0.012931123 -0.00830262 0.009235911 -0.010148599 -0.0002634196 -0.002361328 -0.006990902 0.010197688 0.0026376792 -0.010015289 0.004405646 -0.0065072835 0.0016659675 -0.0023475832 0.002049889 -0.0022849105 0.011249314 0.0011353389 0.010903975 0.008424661 0.006739781 0.013182916 0.012213525 -0.012904102 0.0055491757 0.013760253 0.004162141 0.0030792842 -0.0139703555 -0.00967157 0.012788517 -0.008069536 0.01185596 0.0008623169 0.0064012147 0.0025622298 0.0065701916 0.0018748292 0.012117931 -0.0065702177 0.008435964 0.00017972432
Freezer 0.005345809 -0.0013440137 0.0029157724 -0.0071429624 0.010139059 0.0065369965 -0.0027394968 0.01099839 -0.0010795608 -0.009292102 0.0038254308 -0.011097268 0.0041793007 0.009961397 -0.0032967068 -0.005750338 -0.009634099 -0.006115845 -0.0020677105 -0.009202659 -0.008884947 0.010166781 0.009252251 0.007633454 0.003881028 0.0011579582 0.016991569 -0.0026517792 0.0024548236 0.013596505 0.015990468 0.00059581245 0.0046851924 0.014280226 -0.009045745 -0.009541412 -0.008922073 -0.008108695 0.013612255 0.0036851673 0.012201368 -0.008892417 -0.009117624 -0.00039732028 0.001441594 0.010143115 0.0072801528 0.005947466 0.014110837 -0.0063378233
Microwave 0.010541781 -0.016375797 -0.008579304 -0.0031532994 -0.007444866 -0.009501852 -0.0025870684 0.008507337 -0.013243877 0.008259133 -0.00054566003 -0.0067182775 0.0049314676 0.011726443 0.010213536 -0.0023666744 -0.0062525985 0.00603578 0.006822192 -0.003323915 -0.016631106 -0.0045321533 -0.008720598 -0.008344808 0.005012474 0.009745763 0.0155382175 -0.0036458403 0.010758485 0.012771886 0.014489321 -0.009033028 0.011726722 0.013431143 -0.0073689725 -0.009460014 -0.0142635405 -0.009580479 0.0048468504 -0.0038187937 -0.0013061586 0.0046247724 -0.0059330477 0.003040926 -0.0001325213 -0.0037444127 0.00807938 0.000104174345 -0.0033528055 0.0022514889
Dishwasher -0.0059973286 -0.0012495359 0.0045108995 -0.0024456584 0.008776647 -0.0020925784 0.009534705 0.0036818702 -0.013113309 -0.0045227245 0.0009685003 0.0043549333 0.007812529 -0.0016336637 -0.0012191469 -0.0038009482 0.0065652966 -0.0072894967 0.007926568 0.0032168657 0.0036865026 0.0025599229 0.004437517 -0.009233227 0.011657828 -0.0056332457 0.0075289514 0.0023415256 0.011606345 0.0014015542 0.0099794995 0.0051716296 -0.0031104735 0.0031462826 -0.0043734293 -0.009620053 -0.008237927 0.0027212142 0.01069457 -0.0035220894 0.006998307 -0.002402582 0.003997466 0.011086586 0.007139588 -0.0012429962 -0.005403382 -0.005487606 0.008190001 0.0072484943
Washingmachine -0.0038851972 -0.014576811 -0.008316284 -0.0008171195 0.005311519 -0.004779269 0.010925549 0.012375669 -0.005415981 0.008573484 0.0020003302 -0.009394393 -0.0048337854 0.0005766516 0.009235186 0.0031392076 0.002910641 -0.008177632 0.012437402 0.005166245 -0.001921953 0.010310548 0.0032478005 -0.0052493704 0.008400417 -0.00053464895 0.016416794 0.012197197 0.0001797647 -0.0012526417 0.014929862 -0.0074359667 0.00575354 0.018529871 0.0074900296 -0.006521041 0.0013468921 -0.011802222 0.0042542014 -0.0028284965 0.004624079 0.0036471144 0.005811244 0.0008690826 0.009691308 0.0049744174 0.010930753 -0.00075561076 0.011253671 -0.0017149319
