14 50
HallBathroomDoor 0.015444942 0.00073998224 -0.0045602545 0.0036083777 0.023258472 -0.025470719 -0.021832684 -0.009591245 0.00168795 -0.00043132718 -0.018955868 -0.019660087 0.015027628 0.008487729 -0.008292651 -0.009792659 -0.0042293514 0.011866781 0.010561329 -0.0031759045 -0.008829502 -0.0048765717 -0.018998722 0.016307354 -0.002362804 0.010896339 0.018240016 0.016761817 -0.027366424 0.0038433506 -0.025138572 0.012250726 -0.005346333 0.006282691 0.023739565 0.0052619497 0.0077157915 -0.012287894 0.0034176747 -0.0145660145 -0.008001112 -0.00751841 0.014626559 0.000779898 -5.8110338e-05 0.0027155757 0.0070149996 0.00990101 0.0044380724 -0.007084006
HallToiletDoor 0.013059723 0.011162091 0.010286216 -0.0050530448 0.014688174 -0.019630592 -0.011549008 0.004518325 0.0058883303 -0.008774951 -0.01705922 -0.014397006 0.008923635 -0.0015548088 -0.015314116 8.579775e-06 -0.0038819038 -0.0020419834 0.0125003485 -0.012092259 -0.019157106 0.0123938285 -0.015927015 0.0027154048 -0.010146577 -0.0061968006 0.0062548826 0.012824817 -0.012742787 0.012590354 -0.019885907 -0.004232618 -0.00017351995 -0.0027666627 0.010971959 0.011239048 0.013041523 -0.0017103539 0.007978835 -0.010772657 -0.005412147 -0.0062140026 0.013599261 0.009762662 0.00546737 -0.011381365 0.0069678794 0.004604688 0.0018249159 -0.0011411825
Fridge 0.0033019276 -0.0041028606 -0.0021717204 0.0061564907 0.02018824 -0.019736327 -0.017393032 0.00094108935 -0.003440296 0.009368584 -0.020039301 -0.016518297 0.013667858 -0.0060729147 -0.00221076 -0.001316543 0.0063538686 0.00887002 -0.002344909 -0.014857526 -0.012527979 0.009713877 -0.01421838 -0.0019924354 -0.003798258 0.0002664492 0.006480621 0.003192785 -0.020028053 0.012096053 -0.023730662 0.0019977696 -0.0016640938 0.00400667 0.0070653255 0.004363642 0.009242839 0.0012901224 6.920305e-05 -0.01072772 -0.017425483 -0.0017445525 0.010573369 -0.004290222 0.011778984 0.0040731467 0.011709351 0.014664478 -0.012893224 0.0037917816
ToiletFlush 0.0075887367 0.0041039414 0.011020323 0.0028871035 0.01503853 -0.012888865 -0.008280271 -0.010598434 -0.00033995564 0.0047291615 -0.02152692 -0.024149485 0.007794866 0.00808442 -0.016055148 -0.011590472 9.463133e-05 -0.0047276206 0.007584248 -0.013882581 -0.018971857 0.006975848 -0.012480016 0.008061716 0.0067097275 0.011315074 0.002129109 0.011610467 -0.027071252 0.013418512 -0.022527492 0.009274712 -0.012181209 0.007874903 0.022413004 0.008729835 0.00838132 -0.0027648567 -0.004390598 -0.020534463 -0.0072417906 -0.0052117696 0.0061951736 0.002263146 0.0033067996 -0.010507368 0.014790269 0.009144237 -0.010200113 0.0048010736
HallBedroomDoor -0.0009958147 0.0025481447 0.006440225 0.0027943868 0.017770017 -0.005406912 -0.016855935 0.0014116056 -0.009245959 0.0052292105 -0.015898492 -0.019928295 0.01131434 -0.0051235836 -0.0011470242 -0.0005170169 -0.0007303198 0.010268329 -0.0037288778 -0.005828942 -0.012127402 0.008850303 -0.016987467 0.005076249 -0.004410605 0.008905185 -0.001614525 0.0062795384 -0.01580752 0.010802395 -0.018196711 -0.004127706 -0.002289687 0.0010840949 0.013975196 0.006059074 0.0021870772 -0.009710532 -0.0049167583 -0.014267307 -0.013713354 -0.0032150324 -0.0012885409 -0.004823613 0.011015449 -0.0010420363 0.007668285 0.007962664 0.003581217 0.0005432749
Frontdoor 0.011333954 0.00066179043 0.008673107 0.0031374418 0.0026648024 -0.018301018 -0.003858208 0.006521975 -0.0080397725 -0.006115296 -0.01565987 -0.0069653313 -0.0007692817 -0.0061540743 -0.0011127845 0.0066941166 0.0018603998 0.0021896686 0.006536513 -0.0004841731 -0.012500563 0.01070788 -0.009131318 -0.00055072986 -0.007024309 0.0037660608 0.007466008 -0.0028363608 -0.008381131 0.008814978 -0.007974035 0.0104934145 -0.0046886825 0.008465836 0.02069241 0.0008574842 0.006101725 -0.0077510574 -0.0075806747 -0.012997874 -0.009271973 -0.008102887 0.0007755612 -0.0028968225 0.010212656 0.0043365695 0.005443698 0.005024723 -0.0073593864 -0.006031283
GroceriesCupboard -0.0010587894 0.010906963 0.006766091 -0.002712414 0.011582498 -0.010060823 -0.015380848 0.003308615 0.004668712 -0.008301372 -0.01768609 -0.019287689 0.006472198 0.0072559663 -0.00591366 0.005306921 0.00569402 0.0029559352 0.0005864867 -0.0069554322 -0.01623829 0.006064387 -0.0075075678 -0.00010581178 -0.0033042834 0.011871278 0.012865195 0.009148548 -0.020577407 -0.0030516014 -0.013248891 0.0019177089 0.004069827 -0.008379286 0.01572298 0.013144973 0.01259191 -0.010538439 0.0074539427 -0.011799335 -0.007364577 0.004668276 0.0074296333 -0.0048957644 -0.0033240304 -0.010350019 -0.0021219468 -0.0011735319 -0.0014966156 -5.4091495e-05
PlatesCupboard 0.01250161 0.009435602 0.0075731385 0.0021623415 0.009026134 -0.0055982284 -0.014427886 -0.0030766597 -0.004586123 0.001777775 -0.0128952265 -0.012626578 0.012543503 -0.0029246043 -0.012313277 -0.0024401417 6.8849095e-06 0.008356576 -0.0039056665 -0.011536748 -0.008532919 -0.0051825177 -0.00040297225 0.01261533 0.0058783027 -0.0061830077 -0.0012385957 0.014132246 -0.020343838 -0.00031817736 -0.01713714 -0.000611595 -0.009885977 -0.0072136093 0.017880682 0.0065744827 -0.0024231821 -0.0056496984 -0.0013699713 -0.008745649 -0.011183621 -0.0056050518 -0.002262498 -0.008563674 0.001553567 -0.00166354 0.0018163908 0.0066810604 -0.011520437 0.008945707
PansCupboard 0.0031716342 0.0016356689 0.0033685274 0.005202297 0.003299751 -0.014448877 -0.008618763 0.0025210404 -0.008115621 -0.0060874373 -0.009157024 -0.00828506 0.010822781 0.0088909995 -0.01058853 -0.0030045751 0.0031131622 0.011658799 0.0129714515 -0.0072295885 -0.014372757 0.008895304 -0.0150788175 0.008130126 -0.0014753685 0.007162641 0.0113975 0.01223984 -0.008889704 0.0056368713 -0.0017096736 0.004142675 -0.009744466 -0.005904222 0.016070692 0.003552812 0.00089386967 0.0005446854 0.0052707666 -0.0022807517 0.00091638434 -0.0038424646 0.002810396 -0.0073568025 -0.0023270876 -0.0041437745 0.011066029 0.0074325553 -0.011198697 -0.006045432
CupsCupboard 0.006209137 -0.004005762 -0.0063900338 -0.0076273135 0.010989656 -0.009643413 -0.0037395065 -0.010999164 0.00630217 -0.002175111 -0.004073366 -0.014618556 0.0025138203 -0.0037733954 -0.0036212138 -0.004768131 -0.005202382 -0.0018413457 0.00934516 -0.013934737 0.003646819 -0.0058345096 0.0017500755 0.011485809 -0.009671931 -0.0041684625 0.012665636 -0.0047877636 -0.015327332 -0.0051135137 -0.007033377 -0.0055825394 0.0033522302 0.0015535826 0.016446022 0.0015592237 -0.0067478134 0.007816836 -0.0011670624 0.00016717658 -0.014364042 -0.011594886 0.002321749 0.0043933424 -0.0038948972 -0.0090296315 0.013853437 0.0018946967 0.0015746648 -0.0032525288
Freezer 0.0027405296 0.006438591 -0.005420885 0.010558672 0.015664449 -0.011202223 -0.0028806229 -0.0027595696 -0.0074643493 0.0069086244 -0.00015749173 -0.016629724 0.008088333 -0.002809692 -0.007561634 0.00012942069 0.00037588686 0.004202514 0.0004276464 -0.0029103006 -0.006891551 0.0044817743 -0.0131891295 0.0017983415 -0.0045631216 0.00049916573 0.010642119 0.012995745 -0.019546257 0.002643471 -0.00014794528 0.0062247054 0.0010862591 0.003337347 0.0015722857 0.005250838 -0.002409596 -0.010650796 -0.0046276087 -0.0039144238 -0.0016083037 0.0065641655 0.0018803517 0.006792099 0.0066024694 0.0015383739 0.0116074 5.406342e-05 -0.0093499655 -0.006026828
Microwave 0.010603223 0.0020754212 -0.0025409076 0.0018148763 0.00053480035 -0.00908625 -0.01293471 -0.00085337396 0.0033705712 0.004424738 -0.0008695004 -0.0073033595 0.007323763 0.003435233 -0.011180777 -0.00980832 0.0098274825 0.0013946274 0.011389239 -0.001004359 -0.0021275096 -0.007319422 0.0025225878 -0.00034186963 0.006043339 -0.004145747 -0.0036588337 0.011338086 -0.015152364 -0.0017334699 -0.0004023325 -0.0025965923 0.0045632715 0.00023834062 0.004709356 0.011026761 0.00848496 0.0061063804 -0.0069890167 -0.009588707 -0.014763826 -0.005642878 -0.0048744464 0.006301628 0.010797723 -0.009137691 0.012124147 0.0074382345 -0.010644857 -0.006692286
Dishwasher 0.0026702746 -0.0072943824 0.00020896678 0.001145058 0.0090848785 -0.0052569415 0.0011780129 0.00491431 0.0023909817 -0.007085872 -0.004292952 -0.01182328 -0.001702825 -0.0007414094 0.0053424267 0.0068572992 -0.00878147 0.0080351895 0.010847696 -0.0052233348 -0.009053087 0.005344109 -0.009094938 0.007141633 -0.0061447574 0.011522646 0.00718357 0.007549205 -0.014809674 -0.005723761 -0.0024982435 -0.004206299 -0.0072992644 0.003920355 0.00690651 -0.00018776895 0.004299921 -0.0018281124 -0.009139609 -0.0017000387 -0.008048485 0.0016181039 0.011465444 0.0019575194 0.01104076 -0.009332591 -0.004052374 0.0015177416 -0.009759526 -0.0032797689
Washingmachine -0.0069349864 -0.0047631375 0.0098953955 0.0024712998 -0.0049238643 -0.0035254376 -0.0035791511 -0.004512418 0.0018231675 -0.0066630403 -0.0010415259 -0.00669771 -0.0009852049 -0.006932741 -0.005976596 -0.00198903 0.0040321103 0.0068403184 -0.0026323341 -0.007322854 0.0060193813 0.0025992133 -0.013571668 -0.00630357 -0.0077875 0.00112044 0.011814215 -0.0057486934 -0.004508438 0.011129635 0.003099862 0.0017980064 0.00061198085 -0.0059488495 -0.0024306683 7.855415e-05 0.010761657 0.007981169 0.0042440025 -0.009298062 -0.00019868976 -0.003550647 0.0013414988 0.0060287802 0.0011830946 -0.0045241513 -0.0025674454 0.0009009001 -0.006064693 -0.0010179252
