14 50
HallBathroomDoor -0.015546024 -0.012415338 0.006212523 0.018067027 -0.0030446067 -0.017026456 0.003245784 0.013389268 -0.023354994 -0.01085129 0.0034115617 -0.014489361 0.021367671 -0.017211016 0.0063974173 -0.008534052 0.008526937 0.021636827 -0.016230753 -0.014143002 0.014070227 0.0018669151 0.018189678 -0.010354027 0.007856834 0.0011039585 -0.019027429 0.012760673 -0.017100824 -0.013799807 0.0076394514 0.021764118 0.0059174164 -0.0005850726 0.0024639347 -0.0031952232 0.0018648447 0.0015990573 0.010899957 -0.024228226 -0.015258658 0.0018323138 -0.008704106 0.011353156 -0.00022309116 -0.00039547097 0.0055610063 -0.0029994491 -0.009285472 0.017524967
HallToiletDoor -0.012923467 -0.007680315 0.0017542068 0.01742403 -0.0044167736 -0.0008194031 -0.0014296523 0.01748185 -0.024232613 -0.0077517056 0.00953528 0.0017277447 0.024601761 -0.017293267 0.0031741746 -0.006377664 -0.00607011 0.013706812 -0.007901521 -0.01062784 0.014190664 -0.013092874 0.014512219 -0.00884321 0.00030270687 0.0010758655 -0.01580752 0.02174966 -0.0020260399 -0.016900329 -0.0027870033 0.013655575 0.006028274 0.010190088 0.012163539 -0.013335928 -0.005771473 -0.0032951578 0.005947372 -0.0014389294 -0.01500482 0.011988745 0.0050924798 0.01177447 0.0013383763 0.0038919358 -0.006130307 -0.014400409 -0.015182202 0.0180719
Fridge -0.021775378 -0.016947955 -0.0063823056 0.015702872 0.0077630216 -0.013653479 -0.001833257 0.015449793 -0.026028333 -0.010259786 0.001641642 -0.011663897 0.02372926 -0.00906562 -0.00617555 -0.020082971 -0.0015387938 0.018758727 -0.013980233 0.003584691 0.018231802 0.0037098685 -0.0022494558 -0.0133609455 -0.008095238 0.006734421 -0.017898353 0.019265098 -0.011682168 -0.011686717 0.01206923 0.015581557 -0.009801203 0.008484007 0.007347551 0.0051069176 0.013428836 0.0031938893 -0.004210018 -0.013166432 -0.005176646 0.005461895 0.0029433994 0.006493742 0.010642878 -0.00041290105 -0.0016654581 -0.014157156 -0.021664167 0.00067217194
ToiletFlush -0.012463376 -0.014163589 0.0026829243 0.020946365 0.0049574133 -0.0014469903 0.00030481248 0.017630171 -0.018185051 -0.0019610713 -0.00097274134 -0.013334483 0.019501192 -0.01745736 -0.002527447 -0.015110073 0.005223662 0.0019018989 -0.010910677 -0.0004898093 0.017113518 -0.008526443 -0.0021776438 -0.0072649023 -0.008359229 -0.0037333672 -0.018688539 0.019516053 -0.0037950198 -0.014444383 -0.005125746 0.009759946 -0.005828089 0.010875749 0.012500879 -0.010414019 0.008484804 -0.008012382 0.0131037235 -0.01793253 -0.006808117 0.009239912 -0.012703621 0.015390196 0.01057337 -0.0055597457 0.0065494464 0.0003022265 -0.014664581 0.0065921247
HallBedroomDoor -0.0016598692 0.0025543314 -0.0026412706 0.016901117 0.0034675335 -0.0071008345 0.005141938 0.017213665 -0.01127523 -0.011382882 0.009954047 -0.0029844213 0.015355454 -0.017169999 0.008125018 -0.0034053146 -0.010013385 0.0050546555 0.0017615637 -0.00697855 0.010861599 -0.010880601 0.013452427 -0.013336871 0.006857799 0.006665635 -0.002844112 0.016055264 -0.0058115376 -0.014834726 0.010870695 0.010840564 0.00517506 0.01130689 0.009616173 -0.0033095593 0.0074902955 -0.0027187087 0.003151098 -0.016967729 -0.006861047 0.008128213 -0.0037928098 0.0067543583 0.009433012 0.007889959 0.006090265 -0.007290656 -0.018152608 0.007347818
Frontdoor -0.015521486 -0.010272926 0.00512386 0.022222305 -0.00497043 -0.008960478 0.0036223459 0.013749557 -0.013359595 0.0045123673 -0.0009750389 -0.0028772876 0.02433208 -0.014320951 0.007014671 -0.01872606 -0.00810208 0.016817141 -0.0074298205 -0.012274206 0.015821174 -0.003270001 0.0077536074 0.00378732 -0.0020534352 -0.0021088053 -0.010377447 0.0038679412 0.00031091302 -0.019966673 -0.0060400795 0.0033889767 -0.0028488077 -0.0064021247 0.0018877056 -0.0045085936 0.009934626 -0.006897269 0.006551015 -0.005008583 -0.012945638 0.0012769022 -0.0059162634 0.013754376 -0.001557053 -0.0069036665 -0.0015480273 -0.005043434 -0.011465882 0.01016135
GroceriesCupboard -0.005573188 -0.013485777 -0.009815238 0.0024689813 -0.0027715035 -0.013948914 -0.011147191 0.0028475095 -0.016716506 -0.0029939434 -0.009525705 -0.0062331036 0.02152444 -0.008253692 -0.006542371 -0.012429975 0.00045325072 0.009469687 -0.012858141 -0.0136972945 0.007116663 -0.012267371 0.005118307 -0.0075044166 0.0006811069 0.004959448 0.0021635818 0.020546546 -0.010287085 -0.014857268 0.010838545 0.011052682 -9.9032186e-05 0.00672303 0.004419949 0.0053001535 0.008570513 0.0017081796 -0.0038658387 -0.009848901 -0.0071134525 -0.0029355332 -0.0063852533 -0.001695048 0.007703137 0.0047109495 0.008663196 -0.006340965 -0.013260434 0.016434677
PlatesCupboard -0.0096864635 -0.005417759 -0.009460017 0.016526565 0.005676802 -0.012792336 0.0077033523 0.01170874 -0.014639402 0.0013445271 -0.009287509 0.0019777904 0.0045877253 -0.013105572 -0.009380792 -0.014713821 0.008661259 0.016210016 -0.001495715 -0.009447527 -0.0025689963 -0.006602141 0.007893003 -0.0034142225 0.0009333011 -0.0049287095 -0.0015360258 0.004754166 -0.010894104 -0.009179526 0.0060530617 -0.0018984412 -7.8692385e-05 0.0051988447 0.011850035 -0.006540241 -0.0038450283 -0.00896095 0.006927672 -0.0053536533 -0.014132307 0.0026268905 -0.0107563045 -0.003059123 0.0069307666 0.0015563506 -0.007916879 -0.003215447 -0.012940128 0.005946246
PansCupboard -0.00827957 -0.0090071745 -0.00056531344 0.0060441163 0.010749587 -0.0002767838 -0.0089984285 0.0055967886 -0.015779158 0.0070362566 -0.008340712 -0.0064911903 0.017759942 0.0017185333 0.0028145807 -0.008857159 -0.0030029637 0.013898481 -0.0010119391 0.0027167508 -0.00093946146 0.005485602 0.0015912547 -0.006609543 -0.0039377767 0.009634866 -0.0051097544 0.015353593 -0.010772293 -0.016266596 0.0074047814 0.014450421 -0.008230965 -0.0017911836 0.0109539665 -0.0039048872 0.003168153 0.001775814 0.0021684049 -0.011126893 -0.007995923 0.003088477 -0.00037464636 0.0118994005 -1.7212162e-05 -0.0037071833 0.009861152 -0.003931477 -0.006654634 0.014685929
CupsCupboard -0.010427135 -0.011875311 -0.0051395902 0.01131679 0.009394676 -0.011820569 -0.006000624 0.012636361 -0.012396459 -0.010074733 0.0027521309 -0.0050416132 0.020300388 -0.010722893 0.0029382876 -0.0096344855 0.0065756245 0.0052787485 -0.008873983 -0.0051481174 0.013890034 -0.00013253841 0.0072204913 -0.0020892497 0.005094593 0.005700354 -0.005979795 0.018199036 0.0043258998 -0.01474611 0.0090055475 0.01011477 -0.011269536 -0.004665665 0.015759874 0.0012658634 -0.004627847 0.005201997 0.011591931 -0.009863339 -0.007107723 -0.003024445 -0.012289528 0.0069295745 0.010712886 -0.006767978 0.010330309 -0.0031736207 -0.013627206 0.014329243
Freezer -0.016566584 0.002930854 -0.008896993 0.011877613 -0.005784763 -0.008415757 -0.0029936705 0.011167589 -0.020081539 -0.007072332 -0.00026470138 -0.0030193278 0.015114078 -0.0013029724 -0.008032151 -0.01127043 0.008266354 0.013118922 -0.012423266 -0.00088676385 0.005334323 -0.0099581005 0.009944984 0.0048302948 -0.006620479 0.011541586 -0.0125311455 0.019793171 -0.012915523 -0.005778735 -0.006180982 0.014293009 0.0075362707 -0.0011008293 0.012189249 -0.011787168 0.010930869 5.1165458e-05 0.0062656645 -0.008277649 -0.012055778 0.012227614 0.0021389683 0.012821797 -0.002168056 -9.1477996e-05 0.007912626 0.004790014 -0.006880267 0.004952103
Microwave -0.013654431 -0.01445092 -0.007102798 0.008167438 -0.001327669 0.002959661 -0.0054874322 0.009107962 -0.011401646 0.0045762016 0.0036994547 -0.012746758 0.011132354 -0.013049741 0.0065143434 -0.0012195054 0.0043327706 0.004778479 8.1355734e-05 -0.009679613 0.00128539 -0.007380759 0.011942179 -0.00027357184 -0.008578298 -0.0018850635 -0.008899564 0.009111109 0.0014152904 -0.0073688873 -0.006447128 0.006005028 -0.005699056 -0.0008807046 0.00770674 -0.010988376 0.004121589 0.004072911 0.0127069345 -0.003981807 -0.01233868 0.011842828 -0.005115307 0.012008447 -0.0017845045 -0.010118715 0.010378991 -0.0042337207 -0.0057161357 0.0043906434
Dishwasher 0.005264437 0.0019869348 -0.0046784915 0.0029364456 0.010277815 -0.005409572 -0.0028978738 -0.0024494485 -0.009510373 0.0014838823 -0.0071262172 0.0021342116 0.005797986 -0.0061959177 -0.007927939 -0.003943688 -0.008095872 0.00046822013 -0.0022769205 -0.009901137 0.0034721366 0.008027568 0.0059894556 0.0042493585 -0.0015261424 -0.0053234417 0.00496678 0.008317948 0.0041702567 -0.009248743 0.0070795543 0.00047148508 -0.006790447 -0.000400775 0.0025052766 -0.009826366 -0.0017737756 -0.009509716 0.0008892954 -0.013394463 0.0036999278 0.0045195464 0.008231701 -0.00562543 -0.0036447349 -0.003149116 -0.0063703274 0.003336423 -0.011343478 0.008651337
Washingmachine -0.0086160805 -0.0005809091 -0.00047687851 0.015271307 -0.008310799 -0.009959536 -0.008943736 0.0024247183 -0.012591216 0.00024224358 -0.0016573009 -0.010083782 0.0010213872 -0.014169002 0.0077892696 -0.0014793428 -0.009930721 0.011302006 0.0022265387 0.0006816506 0.003748858 0.0009084263 0.0077458504 -0.00035080497 0.002125315 0.008194446 -0.00676699 0.010894379 0.0054010353 -0.0064649493 -0.005764045 0.008827539 -0.002873787 -0.0039384603 0.009084244 -0.0049641156 -0.0044776537 -0.0097343605 0.0047168946 -0.013046997 -0.012345561 0.0023680981 0.004952943 0.012346644 -0.0049987244 -0.008309545 -0.0009721196 -0.00358346 0.0050572893 -0.00061359606
