14 50
HallBathroomDoor -0.0147072645 0.02059204 -0.007852024 -0.0037155822 -3.3122764e-05 0.022244347 -0.0068333168 -0.0021172515 0.008681342 -0.0027695638 -0.0009150922 -0.011737979 0.005021596 0.004555671 0.002010944 0.007425124 -0.015946267 -0.00046490552 0.020807192 0.001604692 0.0014388561 0.0012246779 0.016521387 -0.009737278 -0.014926781 0.007419229 -0.010722446 -0.007946123 -0.002550516 0.018023783 0.00091774185 -0.004383856 0.0040570013 0.008249287 -0.008322765 0.0005357148 0.0039681243 -0.011158822 0.013696472 0.010091198 -0.014799668 -0.008624544 0.0046657505 -0.0069021033 0.01462203 -0.011659809 -0.009255692 -0.014337761 0.010593703 0.0050023412
HallToiletDoor -0.0133199 0.0037663127 0.0070838956 -0.005797553 -0.013598201 0.015680553 -0.005817589 -0.009270661 0.0043332046 -0.006784584 -0.009651989 -0.0017071835 -0.008352434 -0.012019508 -0.007712382 -0.00936619 -0.011292017 -0.013115948 0.017387653 -0.009863533 0.012641239 0.00022882599 0.013219605 -0.010776364 0.0010995624 0.008161184 -0.004732459 0.004313581 -0.0039613415 0.013297121 -0.004827323 -0.008803304 -0.0032012488 0.0057866536 0.0041684546 0.0032314383 -0.0044488236 -0.016031854 0.019005757 0.012396683 -0.007590122 0.0060974024 -0.008500996 -0.011188467 0.013449307 -0.016851699 -0.0068409117 -0.017794617 -0.002912706 -0.008401433
ToiletFlush -0.014342395 0.011693424 -0.006463788 -0.011337848 -0.007492829 0.011633766 -0.0010954642 -0.013599064 0.007767169 -0.003867895 0.0064834883 -0.015429478 -3.0662824e-05 -0.0057570576 0.007844357 0.00836147 -0.012422694 -0.015474898 0.017461808 -0.0073533244 0.012371986 -0.007764507 0.014957957 0.0012690194 -0.008507444 0.0019498569 -0.0030248968 0.00021310421 -0.007977434 0.011552349 -3.835546e-05 0.0011161491 -0.007765606 -0.0023896587 0.0062728506 -0.0055182045 0.005525755 -0.008892308 0.00869327 -0.0043324376 -0.006495949 0.004985694 0.008057883 -0.0048158183 0.0062352205 -0.015434557 0.0009877125 -0.01962851 0.006154136 -0.00055977784
Fridge -0.01622038 0.017543027 -0.010707306 0.0021900127 0.0063135247 0.016847095 0.006857274 -0.01488483 -0.0040988205 -0.0025548902 0.006712874 -0.012094826 -0.0028410535 -0.010390515 -0.0058715115 -0.0012761276 -0.014905137 -0.013751551 0.014919263 0.005919531 0.010086058 0.0069483756 0.011315869 -0.014256809 -0.009870281 0.009538061 -0.003673932 -0.004233591 0.0060450668 0.015186542 0.01035489 -0.009104523 0.010634205 0.008042513 -0.008937223 -0.010596057 -0.007509383 -0.011970218 0.018020445 0.009345866 -0.010915708 -0.011779873 -0.009891888 -0.0035120673 0.006205685 -0.016385645 0.0014809378 -0.01449873 -0.0020807409 0.008695019
HallBedroomDoor -0.015508487 0.009947181 0.0054560504 -0.005997272 -0.0073176697 0.010306905 0.009240427 -0.007297048 0.008638247 -0.009316786 -0.004323811 -0.0040421444 -0.0018691369 0.0007932221 -0.0065494864 0.007456654 -0.007034783 0.0010499236 0.012828591 0.0016924179 0.00034885135 0.0030698394 0.014353225 0.0049323617 0.00541541 -0.007108272 0.008072735 -0.0012597535 -0.010636374 -0.0001966356 -0.00025571475 0.009574131 0.006381504 0.008920724 -0.0085293865 -0.010637803 0.004494146 0.0002721907 0.009038331 0.0132669555 0.0013571663 -0.0031533414 0.0017725651 -0.0037939816 -0.0028726398 -0.0036576611 -0.0042248 -0.019381735 0.011962307 -0.0007474923
Frontdoor 0.0031844212 0.013675281 -0.005950544 -0.0035814417 -0.012975889 0.007827192 -0.0022472362 -0.0056488207 0.003889006 -0.008240001 -0.0052769124 -0.01131393 -4.991204e-05 -0.011596461 0.0014978267 -0.0027247833 -0.013005849 -0.012707651 0.0047550686 -0.0033515738 0.0061843484 0.00451538 0.00156915 -0.010913957 -0.0051259347 0.00095863076 0.005108875 -0.0053104106 -0.004412209 0.0112213595 0.005517212 0.004899558 0.005467968 0.001877845 -0.008920526 -0.010881456 -0.01018893 -0.011623543 0.009410839 0.01089804 -0.008503189 -0.005824149 0.009478513 -0.012053842 -0.0062273517 -0.0143679185 -0.010190923 -0.016306465 -0.005782377 -0.005934915
GroceriesCupboard -0.013878352 0.0117445635 0.004441921 -0.0013207069 -0.0036220753 0.0047640232 -0.0073894556 -0.010679229 0.008758964 -0.0031893966 0.00688574 -0.0116949035 -0.0065412093 0.0017985429 -0.0020803353 -0.0010433987 -0.0008028907 -0.015277814 0.012821871 -0.008368025 0.008505873 0.0035597798 -0.0036686345 -0.0036379297 0.0022781955 0.0005620651 -0.0060278676 0.004906371 -0.009115861 0.0018576712 0.0051916493 -0.0020543323 0.0030309418 -0.008170045 -0.0012426511 -0.00068895984 -0.007961368 -0.005748113 0.014645152 -0.0021193959 0.0033937043 -0.008276627 -0.0038143443 -0.009983732 0.008452153 -0.01480502 0.0019488011 -0.0099342195 0.0036890386 0.0022489072
PlatesCupboard -0.0021269538 0.014659793 0.0024212587 0.0047369306 0.0045992653 0.01645932 0.0076544858 -0.005297643 -0.003158892 -0.013154306 0.0006997804 -0.0010106121 0.008954716 -0.006300992 -0.0011689225 -0.0060608205 -0.013273941 0.0036359478 0.012341581 0.00583429 0.005493336 0.006008742 0.00030251825 -0.010249875 -0.0050739683 0.00944135 -0.006933143 0.0029078121 0.0016628316 -0.0026128027 -0.0014648179 -0.0008310362 0.009885524 0.0059966585 0.0006328928 0.0018390609 0.0030251737 -0.0066886167 0.001961275 0.0023534102 0.0018300575 -0.00058755046 -0.0023460598 -0.0044049863 0.00037717258 -0.011634865 0.0003431415 -0.016251203 -0.0036434827 -0.0024785658
PansCupboard -0.0031437417 0.009759036 0.0024710817 -0.0013303361 -0.006104538 0.009668058 0.005123692 -0.004630696 0.010315803 0.0041697253 -0.005564919 -0.008472076 0.0051304903 -0.0003159442 -0.0019288281 0.0009510284 0.00604577 -0.0038647414 0.0130342 -0.00011463284 0.012706674 0.0021931084 0.0126137305 -0.007224863 -0.004517174 -0.0056339004 -0.009780665 -0.008611535 0.006901457 -0.003934378 0.0039475323 0.00438976 0.0057685366 -0.0088359155 -0.00057818316 0.005022777 0.0027595614 0.0042409496 0.010807753 -0.0018197626 -0.0057213497 0.005143461 -0.0001406521 -0.0026303614 -0.00298964 0.0017134062 -0.010082858 -0.0030763592 0.0029239291 0.0049095904
CupsCupboard -0.009021632 0.015375992 -1.8378549e-05 0.00052256236 -0.0059117316 0.0077091786 -0.0063504674 0.005564075 -0.0043717506 -0.009193594 0.0041540465 -0.013380517 -0.0064973054 0.00072124926 -0.00829728 0.00947365 0.004691576 -0.0071630664 0.0075720684 -0.0014696133 -0.005482055 -0.008398801 -0.004183842 0.0012415872 -0.005481996 0.0074502495 -7.8479294e-05 -0.0032072747 0.002384531 -0.0030906505 -0.0042751045 0.0077992417 0.0064475155 0.0024746524 -0.006261331 0.007095527 -0.0018416434 -0.011494501 0.015297957 0.003480233 -0.0072100847 -0.00096948387 -0.00028446183 0.00612911 0.006759237 -0.0018836021 -0.002989855 -0.010054423 0.009546942 -0.006912283
Freezer 0.0010835514 0.004475404 -0.004548866 0.0074129035 0.0061363904 0.017019972 0.00861384 -0.003637152 -0.0039852606 -0.0037179827 0.008792121 -0.006491515 0.009530281 0.0074669877 -0.001202354 0.00051126577 -0.0049048765 -0.0110454885 0.012910875 0.001478827 0.012267551 0.010211875 0.008342833 -0.010455601 -0.009270729 -0.0056324014 0.0019333143 0.007065819 -0.008020052 0.008603477 0.011120466 -0.0015592776 -0.0031609938 0.005279982 0.0026167857 0.0062089795 0.007367487 -0.010045674 0.012908017 -0.00158676 -0.013152053 -0.0044312254 -0.0068353624 -0.011052551 0.0019803122 -0.0078625595 -0.00650545 -0.0063567674 -0.004829381 0.0015505959
Microwave -0.008172477 0.006260595 -0.005461353 0.0011107918 -0.0019040048 -0.001393995 -0.0068543595 -0.002365229 -0.004972317 -0.0061759013 -0.005855973 -0.012107824 -0.009508074 0.001072113 -0.00691829 -0.0057166 0.0029559503 -0.012883729 0.01327011 0.0054817805 -0.0028455337 0.0001610374 0.010164286 -0.0050527235 -0.001420849 0.0001484038 0.0076450934 0.005313454 -0.006124083 0.0023115152 0.010493021 -0.001134418 -0.008519878 -0.006520247 0.0021455726 -0.0014446906 -0.0046826596 -0.0033033416 -0.0029930973 0.011793856 -0.009601213 -0.010041436 -0.0036588719 0.006797006 0.0075522754 -0.0018923859 0.004576323 0.00026032157 0.008288462 0.0015240116
Dishwasher 0.0036979986 0.008057364 -0.008847937 -0.0022942428 -0.004430828 0.0051663374 0.01007677 -0.012001232 -0.006648535 0.002289227 0.005927582 0.004370529 -0.006881798 -0.000803917 0.001663304 -0.008063691 0.0064566964 0.0014727378 0.005136566 0.0024005708 0.007944447 0.002022168 0.011915241 0.0019378508 -0.009680486 0.0031934166 -0.0015509905 -0.0017604262 -0.0043661254 -0.0043463064 0.0016592005 0.0038387408 -0.0008074607 -0.0008209246 0.007441194 0.0048818723 0.00027806658 0.0034143627 -0.00032486577 0.003071759 -0.0016401224 -0.008509845 -0.00086163235 0.006226448 -0.004611104 -0.0048070746 -0.007161288 -0.008079644 0.010968288 -0.0052777315
Washingmachine -0.010836081 0.0045820405 0.003863054 0.007961466 -0.007873117 0.007339726 0.0007211771 -0.009975437 -0.0020999785 0.00288522 0.0019375216 -0.00724916 -0.0051595215 -0.0051670237 0.0052284827 -0.004081137 -0.0011761939 -0.01263733 -0.0020456724 0.0030935898 0.011712776 -0.0065396414 0.008825385 0.0047969148 -0.0020778757 -0.0067907018 -0.0041027083 0.008319207 0.003676328 0.009860477 -0.00017958511 0.0034272713 -0.005097695 -0.0015163625 -0.007421159 0.0057371478 0.005024758 0.0028761225 -0.00057520485 0.0026680117 0.0026260288 0.008274455 7.539493e-05 -0.0005835587 0.007902049 -0.000662325 0.0011966717 -0.015094089 0.009393808 -0.0026636065
