14 50
HallBathroomDoor 0.02156579 0.00078695006 -0.02607722 0.020949334 0.010745839 0.006017864 -0.0075341132 -0.009459016 -0.027483933 0.02051785 0.00048152643 0.00081380835 0.013357549 0.0037958703 -0.002667085 -0.019122751 0.015017483 -0.0067868344 0.030315645 -0.019227304 0.00051821396 -0.004578193 -0.01757271 0.01620356 0.0029038072 -0.0021008537 0.02287433 -0.003172278 -0.022284614 0.01725024 -0.020339416 0.009384771 -0.0069346023 -0.007906774 -0.019960308 0.0122770695 0.017124362 0.004246517 -0.006142734 -0.019460116 -0.023666035 -0.022221947 -0.013477471 0.00019773032 -0.014980003 -0.0035718405 0.0148648955 -0.01234317 -0.002169453 -0.0023708595
HallToiletDoor 0.017535843 0.0049095643 -0.021717962 0.008479188 0.008530464 0.0091550965 0.0068079 -0.009449609 -0.020287594 0.01457081 0.0011372701 -0.010223686 0.008620917 0.014474937 -0.0068703545 -0.0142870145 0.009854812 0.0025871184 0.019416887 -0.0152731715 0.0050998842 0.005692353 -0.0010106171 0.015661042 0.0043829316 0.009547391 0.0045635435 -0.0016876162 -0.014147928 -0.0035670944 -0.009930854 -0.007962051 -0.007938832 -0.009069701 -0.009224165 0.016364798 8.561334e-05 0.0074145994 0.00296232 0.0024328728 -0.00883915 -0.013969378 -0.011280297 0.010152122 0.0049005584 -0.014527187 0.0076502166 0.002329836 -0.008934136 -0.011535979
Fridge 0.0066841873 0.010957208 -0.019364357 0.006228845 0.011513093 0.0059167715 -0.0033613993 0.0027765292 -0.009832974 0.013259837 -0.0050071226 -0.016211333 0.013326942 0.009890628 0.00015814988 -0.0036805493 -0.0005075785 -0.004142395 0.025170894 -0.011878459 0.004754782 0.000681498 -0.004812126 0.0041288845 -0.010123094 0.008909023 0.009425537 -0.00051563745 -0.0070182025 -0.0030241022 -0.018655853 0.006842102 -0.008279724 -0.006991878 -0.00012583341 0.013348207 0.011226431 -0.0030724662 -0.008542409 -0.016026532 -0.014858029 -0.014394258 -0.014302905 0.010264814 0.0019652613 -0.007076905 0.01403214 -0.008525701 -0.0020428726 -0.0072969906
ToiletFlush 0.009498024 0.014333023 -0.018013947 0.014324842 0.016434506 0.008659983 -0.008090581 0.0044700177 -0.01898256 0.018431768 0.0074797506 -0.01332581 0.004981597 -0.001902541 0.010983445 -0.009262929 0.007411248 0.0017526831 0.012075454 -0.0002551101 0.0018747301 0.011783206 -0.0073494236 -0.0010979234 -0.0111476565 -0.0063555683 0.005900505 -0.004951805 -0.014916412 0.0031373282 -0.014539493 -0.00628959 -0.011116765 0.00019450608 -0.015559944 0.013070324 0.0088882735 -0.0022376943 -0.013304788 -0.01627512 -0.009371608 -0.012716649 0.0023320024 -0.0052097305 -0.004254591 -0.011781399 0.004090936 0.0011556472 -0.0044511645 -0.0052125924
HallBedroomDoor 0.018212302 0.018935608 -0.019888353 0.009933466 0.015354278 0.0033171384 0.0071136653 0.008251826 -0.01778381 0.018755287 -8.002044e-05 -0.015956562 0.017514097 0.006440114 0.008583508 -0.013024507 0.0034812393 -0.0024308793 0.021522244 -0.0031492624 0.0058870823 0.009224273 -0.0057059443 0.016270403 -0.006128247 0.0025722398 0.016476424 0.0041420893 -0.024143824 0.013759136 -0.018974306 0.005851381 -0.007485307 -0.015974661 -0.019593867 0.015016025 0.016287493 -0.0035305615 -0.002253555 -0.014570185 -0.022593277 -0.009454962 0.0014206372 -0.0027577693 -0.004962054 0.00096239016 0.017504077 0.0054507684 0.00055293756 -0.012018571
Frontdoor 0.0033752492 0.013307621 -0.021970404 0.007587621 0.009740278 0.0062840157 0.0091842385 -0.0050850585 -0.010625806 0.009500525 0.0029816385 -0.0042233234 0.011497401 0.007888288 -0.007472727 -0.006181263 0.0022108671 -0.0022414308 0.0124211805 -0.0032515177 -0.007541842 0.0073187836 -0.0154065415 0.011455532 -0.006588095 0.005758724 0.008548337 -0.0022108355 -0.0061444207 0.012150784 -0.016857764 -0.007091369 -0.0045377812 -0.012658408 -0.018679013 0.014142685 0.0075940904 -0.0033054657 -0.0007025341 -0.0077073714 -0.018123787 -0.00985312 -0.0014580196 0.0047911988 -0.004768817 -0.005281649 0.0016656145 -0.0025710722 0.0035052127 0.002809093
GroceriesCupboard 0.020127824 0.015216772 -0.0033333562 0.008165856 0.011624473 0.011759473 -0.010044004 -0.0076871132 -0.01746245 0.013387577 0.0022327467 -0.0045180605 0.015370803 0.0034438483 0.0011892436 -0.0099669285 0.006269678 -0.0026619667 0.02042126 -0.014366879 0.0095544 0.0024156494 0.0013626757 0.011443696 -0.013250674 0.007961913 0.008157284 0.011468343 -0.0085722655 0.01459534 -0.00375158 -0.002689999 -0.0036849407 -0.012959193 -0.0120928595 0.0047841184 0.0158704 -0.009304382 0.0049906047 -0.002720634 -0.011512632 -0.018436285 -0.00535989 -0.0019707505 -0.0038389598 -0.0064556496 0.014888297 -0.008926828 0.0023580433 0.00120654
PlatesCupboard 0.017312646 0.008083265 -0.0006055858 -0.003116139 0.009361714 -0.0059073074 -0.0050960365 0.006716787 -0.012952247 -0.00056847435 0.00034414 0.0032795933 0.008796536 0.012639001 0.008991074 -0.013700863 0.00070755155 0.0069159945 0.016734632 0.0029114068 -0.0028551617 0.0108321365 -0.0038219546 0.0067547797 -0.0054367846 -0.006438681 0.00972491 0.0050130696 -0.018861488 0.00284427 -0.006859842 -0.00020677353 -0.00069890963 -0.010783686 0.0022104667 0.014460606 0.0029546348 -0.0059175603 -0.003159558 -0.0042190584 -0.011770079 -0.008021932 -0.0032168254 0.0033993712 -0.009436556 -0.015195777 0.014885962 -0.004648084 0.0033157733 0.005278721
PansCupboard 0.010600248 0.0045162705 -0.012092752 0.0035308565 0.012372316 0.0032965208 0.005775038 -0.006044732 -0.017195214 0.0022402431 0.009219828 -0.008615467 0.013692885 0.013677412 0.0020529747 -0.004108027 -0.0008054281 -0.0010746269 0.01854461 -0.003974744 0.010820737 0.0028156615 -0.010685482 0.0020858166 -0.00784832 -0.0017675591 0.012907063 0.010717485 -0.009642165 0.010971749 -0.0038961074 0.008974549 -0.013141188 -0.0044487948 -0.0026927127 -0.0038111273 0.013809344 -0.0011702015 -0.008878019 -0.0017926714 -0.006368028 -0.01329987 -0.010842662 -0.008023141 0.004492096 -0.011998775 0.009138977 0.0009346184 0.0024995802 -0.011216192
CupsCupboard 0.015513708 0.009927366 -0.014162006 0.011672183 -0.0037234093 0.012516999 0.005150448 0.0005256978 -0.010199986 0.006668291 0.0026641039 -0.0122703845 0.0029249466 0.0076826513 0.0013996663 0.0028967087 0.00637761 0.0040738774 0.008991694 -0.010049436 -0.007946015 0.00948001 -0.0073885005 -0.0010690213 -0.001107153 -0.009359458 0.008422037 0.010785819 -0.014638715 -0.003307529 -0.016597116 -0.008628907 -0.00785453 -0.015102676 -0.014618755 -0.00087897584 -0.0024055222 0.008874294 -0.009423882 -0.00609156 -0.0030435214 -0.0067077656 -0.009898645 0.005170083 -0.011810265 -0.011312713 0.003793467 0.005035446 0.0030272014 -0.010695285
Freezer 0.013730568 0.0038633246 -0.016276846 0.013126296 -0.0019050781 -0.0064350674 -0.0005351074 0.0034691107 -0.019430107 0.01763648 -0.0048992787 -0.010422356 0.00610897 0.0066221147 0.0090110265 -0.016746279 0.009246044 -0.0081099225 0.021654347 -0.0013803936 -0.004046973 0.004409294 -0.009447952 0.011627346 0.0040244423 -0.0028235046 0.016881421 0.008304927 -0.01660126 0.010188138 -0.0071620937 0.007328785 -0.00087334105 -0.015113941 -0.0029679097 0.005666095 0.009019639 -0.005246464 -0.0068586334 -0.011800916 -0.017814048 -0.015568431 -0.005097819 -0.0012703076 -0.008601735 -0.012702354 -0.0011659465 -0.0016042049 -0.006715697 -0.0119254235
Microwave -0.004162897 0.013005356 0.0027959128 0.010024214 0.0018975234 -0.0070288093 -0.0022637239 0.008291013 -0.013238776 -0.0025101858 0.0034464875 0.006774425 0.009843006 0.0038399682 -0.009073001 -0.013435233 -0.004933917 0.0013874781 0.0052959127 -0.011179327 0.0019334883 0.01128737 -0.008339222 -0.00424898 -0.006385446 -0.008895252 -0.0014980519 -0.0043752952 -0.0020663992 0.00925404 -0.010904134 0.0058069057 -0.008749079 0.004153841 0.0030408117 0.012374464 0.013504219 -4.5251043e-05 -0.010415577 0.0054521943 0.0011023431 -0.0088229 -0.005087934 -0.004771275 -0.0026824507 -0.011784715 -0.0033386939 -0.006915479 0.0033581404 -0.007846909
Dishwasher 0.015011162 0.0042371936 -0.0026591949 0.0037632578 0.005894028 -0.0031747045 -0.007276745 -0.0055080424 -0.00392012 -0.0030572822 0.0027787262 -0.0034039775 0.00039224888 0.012081941 0.010100664 -0.0016056949 -0.0032315564 -0.008386011 0.001979294 -0.005440766 0.000829298 0.0019068508 -0.012108224 0.0063911276 -0.008804745 -0.002508477 0.009304707 0.0077790595 -0.0057669505 0.012994097 -0.014807955 -0.004226414 -0.00823382 -0.0022475573 -0.007409515 0.004770295 0.0075609414 0.0019713626 0.0043380545 -0.0027219767 -0.006857818 0.0025543359 -0.010712012 -0.008049703 -0.0028994058 0.0008214933 0.010956702 0.001278455 0.004036763 -0.0022499769
Washingmachine 0.00975521 0.0019015571 -0.012126553 0.0078779245 0.0076656104 0.00013613996 0.002178951 -0.003243692 -0.009136006 0.0109415045 0.00045769164 0.0020038655 0.0033970594 0.0011412894 -0.0038945312 -0.010063834 -0.0039702505 -0.0035940618 0.0077638202 -0.006707863 -0.0077838665 0.0048650075 -0.0070480616 -0.005962452 -0.011427248 0.006229714 0.0074176732 -0.0060378206 -0.008204165 -0.003603149 -0.012255111 0.0045179455 -0.01222276 -0.011111852 -0.004633042 0.009170805 0.006107412 -0.005134302 -0.0073394217 0.0063115377 -0.005806572 -0.008644317 -0.0067849876 -0.0048163678 0.0014403192 -0.0055582286 0.012846679 0.0048841923 0.00910067 -0.005390719
