14 50
HallBathroomDoor 0.0018462462 -0.015523623 0.004951527 -0.01586352 0.008363148 0.02202184 -0.009042216 -0.010145929 -0.01284588 0.0016949116 -0.014246732 -0.021661134 -0.017339239 -0.004534334 0.0013180287 0.005297813 -0.009614967 0.01976136 -0.0034879562 -0.016664 0.017775431 0.0025263089 0.0032051974 0.0046865223 -0.021458613 0.022311518 -0.0009404388 0.0037813524 -0.0061298017 0.024036054 0.012222695 0.019589474 0.012989093 -0.019648448 -0.003255055 0.013297206 0.0038598601 0.010448937 0.0012085016 -0.024314655 0.019330183 -0.009963127 0.0055211773 0.011370934 -0.024265293 -0.0058329436 -0.0039817924 0.022172716 -0.01394576 -0.008133609
HallToiletDoor 0.017593665 -0.015002489 0.0064500202 -0.011662154 -0.0016433706 0.02082986 -0.017945142 0.004595716 0.005661198 0.006279538 -0.008431758 -0.01949156 -0.002750903 -0.0028401408 -0.0056953444 0.0066292146 0.0037009008 0.013248951 -0.0020151937 -0.01329911 0.007408201 0.009945868 -0.0021748142 -0.008984228 -0.021121364 0.017393073 0.007952561 0.007105285 -0.017773429 0.020510968 0.016788764 0.017704532 0.010081135 -0.020477254 -0.0055187275 -0.00069939555 -0.0069655883 0.0077245343 -0.014886872 -0.030648863 0.01963097 -0.0058288164 0.010414842 0.003948148 -0.020628676 -0.00033467967 0.009664772 0.013441449 -0.018485116 -0.006393493
Fridge 0.015832055 -0.021491978 0.0062838243 -0.012816131 0.0040130275 0.014266238 -0.017861396 0.0061788694 -0.0018031581 0.012706794 -0.01585451 -0.010508283 -0.005704696 -0.013531691 0.003195509 0.009609366 -0.00014537232 0.016486255 0.0025308442 0.0007282705 0.00514496 0.0112380395 -0.0033220083 -0.0020807981 -0.010655213 0.0057797446 -0.005847704 0.0048808074 -0.015380926 0.01883535 0.014208229 0.017043592 -0.0035261903 -0.01701699 -0.0005765117 0.00549509 0.0010087867 -0.0071354345 -0.0017968382 -0.015339947 0.010225027 0.009123924 -0.008197973 0.004360409 -0.020335853 0.007608804 0.011455056 0.020065116 -0.0010476733 -0.012139638
ToiletFlush 0.0011238176 -0.015498836 0.0018386067 -0.017127395 0.0029807645 0.0040980056 -0.0065191807 -0.00566278 0.0067511736 0.005657026 -0.016183972 -0.007591111 -0.008207973 -0.0116313575 -0.0054477365 0.005502313 0.0014460329 0.0035583805 -0.0036143563 -0.0043230434 0.015768357 0.012440674 -0.0061971 -0.0030668108 -0.015746368 0.0067132725 0.00012833028 -0.0025053967 -0.008655722 0.021665648 0.013556161 0.0137769375 0.008580547 -0.009152986 0.00892283 0.007954154 0.0066114725 -0.00026361883 -0.00062539143 -0.024631577 0.014872079 -0.005578413 0.0075030285 0.01242648 -0.021037137 -0.0036453172 0.0029363516 0.004096252 -0.016907893 -0.0057713185
HallBedroomDoor 0.0017320885 -0.019140061 0.0051734284 -0.00848188 -0.007102032 0.010625663 0.0038435063 -0.0026583117 -0.008955286 -0.002118159 -0.0065180603 -0.007581828 0.0052805375 -0.0072549134 -0.0043837084 0.00713181 0.0012217313 0.009924996 0.0004929861 -0.0072621517 0.013438176 0.0033126953 0.0022013607 0.0033475093 -0.01866077 0.011811796 0.006382039 -0.009061754 -0.012511742 0.014587889 0.0013170969 0.008464875 0.0051018316 -0.015813727 0.009241172 -0.003988711 -0.00011939785 -0.0039724973 -0.0045437957 -0.012722678 0.0038260417 -0.006645315 -0.0021503405 0.0071245655 -0.018017093 -0.0048205163 -4.866993e-05 0.013854303 -0.017818086 0.00021312358
Frontdoor 0.01016408 -0.015824335 0.007387095 -0.01373969 -0.0045908666 0.014424353 -0.003891168 0.0004337124 0.006643157 -0.004736619 -0.012479032 -0.012423934 -0.012638149 -0.0068335133 -0.0048529455 0.0031694085 0.0058991574 0.0052299458 -0.004917139 -0.0009108134 0.016176483 -0.0033643662 -0.0030475918 -9.364207e-06 -0.0053325165 0.014990613 0.00040622786 -0.0072663827 -0.0022665097 0.016414987 0.012178899 0.00056062214 0.006909357 -0.0022093453 -0.004013055 0.004334985 -0.0048343055 0.0034383244 -4.0106475e-05 -0.022303455 0.011397853 0.0046758046 0.0017779083 0.005933076 -0.009558139 0.008190838 0.003070344 0.017288804 -0.013907055 -0.010526382
PlatesCupboard 0.011812814 3.713218e-05 0.011604283 -0.0009571753 0.010758462 0.008682301 0.004237101 -0.010289849 -0.00971196 -0.00029708826 -0.009280313 -0.013193169 -0.0016370642 0.0004081038 -0.011237932 -0.0064309384 -0.009582992 0.013398174 -0.00988177 -0.0119678555 0.012208332 0.0021158243 -0.007751193 -0.009874232 -0.004545449 0.014203276 0.00089871744 -0.0059546274 -0.010122877 0.0071867383 0.0038507301 -0.0018198732 0.00082644465 -0.012046873 0.006179655 0.0019461298 0.002181649 0.008295235 -0.009116617 -0.018899968 0.00729129 0.003317291 -0.00771629 -0.00022945667 -0.015585193 -0.0009117866 0.0043757376 0.012511996 -0.0048778546 -0.0019368503
GroceriesCupboard -0.0064828056 -0.0072751665 0.005832883 0.0026934876 0.0007548681 -0.0016403205 -0.007690797 -0.005592196 -0.00849811 -0.004526845 -0.011028398 -0.002874699 -0.0047202054 -0.0036666626 -0.005686192 0.01053436 -0.0012456612 0.005106948 0.0041311453 0.003121615 0.0052232873 -0.005033023 0.0071160058 0.0010260877 -0.005378972 0.0025919497 -0.007767108 0.00920033 -0.007369157 0.008228293 0.009995574 0.010648633 -0.0006383465 0.00050462084 0.0017541242 0.0032876073 -0.0028808746 -0.009373916 -0.00019015338 -0.010896988 0.0033954468 0.004158565 -0.0030459603 -0.006460728 -0.0006402705 0.0047366675 -0.005569411 0.011143538 0.003424822 -0.0021582567
PansCupboard 0.0093560945 -0.016261254 -0.00041801255 -0.010398101 0.010150045 0.006330949 -0.007134372 0.00078963937 -0.009928861 0.012475707 -0.0143811805 -0.00897415 0.0012696926 -0.008685385 -0.009065074 -0.0043912893 -0.007899245 0.015091689 0.0025034128 0.0063997125 -0.00045665604 -3.547837e-05 -0.0016216933 -0.007331304 -0.01894048 0.0023266044 -0.009685488 -0.007405242 -0.010110478 0.013242867 0.0065900204 -0.0021663068 0.010403139 -0.014074705 0.0058709327 0.008642075 -0.00035965772 -0.0010296969 -0.00914406 -0.014325569 0.0025044691 0.0035954213 -0.00042772747 0.00065909483 -0.011322119 -0.0101508945 -0.0032825638 0.0132805165 -0.00621586 0.005604561
CupsCupboard 0.011889182 -0.016357196 0.0069609955 -0.010519562 0.004604044 0.0017291561 -0.011207088 -0.007337742 0.0066597885 0.003579959 0.00048178164 -0.003240574 -0.0031106893 0.005369544 0.00050155824 0.0114766015 -0.010352401 0.008150021 0.0063438155 -0.008763959 0.011575776 -0.0027123638 0.0050909785 0.0074618775 -0.017478278 0.007397858 -0.005231184 -0.0003181478 -0.00056966656 0.013382292 -0.00081834255 -0.004549334 0.011730698 -0.0009572613 0.0020602748 0.00990708 -0.00788983 0.0034050243 -0.011471086 -0.017398236 -0.0030149957 0.0102064675 0.009707935 -0.006000148 0.0026297902 -0.00850629 0.0047618705 -0.0029393819 -0.011641742 0.00198069
Freezer 0.009782027 -0.013780835 0.0045764493 -0.01452199 0.0012118778 -4.2054147e-05 -0.008273605 -0.003735128 -0.005267646 0.0009979457 -0.00029076898 -0.0033845776 -0.0106215 -0.006566073 0.004779845 -0.0010620134 -0.011141021 0.0077861007 -0.0098574795 -0.008174529 0.005402676 0.011521252 -0.009617237 -0.00056605815 -0.013552807 0.009821285 0.0076212594 0.0066916477 -0.0033865252 0.018677855 0.011474102 0.00069103343 0.01191022 -0.012340406 -0.003832869 0.008658003 0.006051334 0.009714436 -0.01259329 -0.018834658 -0.0015962786 0.008206619 0.005480459 -3.395869e-05 -0.0067130825 0.0058102496 0.002350246 0.0023092001 -0.016519092 -0.007995162
Microwave 0.0017393583 -0.018856578 0.0043055504 -0.0060687205 -0.001338929 0.01612229 -0.013112388 -0.0035431616 -0.0025153642 -0.0020276948 0.0031748135 -0.010968576 -0.0099101905 0.00016134226 0.005939508 0.0041763857 -0.0027766312 0.013570969 0.0010350723 -0.011452027 0.010232977 0.0041337763 -0.0027378162 -0.0053329216 -0.008757824 0.009512802 0.001929676 0.0011163829 -0.010623684 0.019381687 0.01382573 0.013937665 0.011809828 -0.018223312 0.00262437 -0.0022875639 -0.008792379 -0.0047030183 -0.0024178666 -0.011816385 0.0017955117 -0.008836254 -0.006855518 0.009308967 -0.0047398345 -0.010302047 0.0074166073 -0.0009990252 -0.015351702 -0.0114377495
Dishwasher 0.0034934222 -0.010845015 0.0023216475 -0.014450652 0.011173711 0.002986172 -0.008694433 0.006250581 -0.0033173887 0.011418379 0.0043575526 -0.014857422 -0.008398 0.0034849355 0.0051216446 -0.007340784 -0.0020103564 0.004749471 0.004455929 -0.0010222226 -0.0014051859 0.0070238784 -0.011145177 -0.004890182 -0.016458135 0.014081168 -0.0011918118 -0.0033484418 -0.010287379 -0.00051716244 -0.0006097535 0.006484945 -0.00069367007 -0.012420968 -0.0061135143 0.0068164766 0.0048529957 -0.0080280695 -0.012151255 -0.0110527845 0.0061684395 -0.00058109657 -0.008664335 -0.0017205684 -0.0074078883 -0.0044112676 -0.005614615 0.015155554 -0.004994552 -0.0102560185
Washingmachine -0.0004700617 -0.012219333 0.0074681477 -0.006655717 -0.006500626 0.0008968572 -0.005348872 0.0072183376 0.0038076118 0.0015586521 -0.0050431574 0.00029422587 -0.00956048 0.005315827 -0.00021381938 0.005757305 0.0020236212 -0.00395439 0.004611795 0.005164807 -0.003880567 0.004601041 -0.010420942 0.008668965 -0.0042684497 -0.0014502311 0.009810788 -0.004728782 0.0056979107 0.014750467 0.0028396551 0.008140555 0.008939083 -0.0031908578 -0.0059177782 0.0061050565 0.006876215 0.0012189432 -0.004750271 -0.0007577725 0.0059492094 -0.0062566516 -0.005541923 0.0005068612 -0.009162874 0.006082819 0.00950386 -0.0030563113 -0.004780488 0.0029725444
