14 50
HallBathroomDoor 0.0025003895 0.005645661 -0.0024896874 0.0085839955 0.014820801 -0.01586429 0.0165466 -0.01978398 0.015798792 0.0039044798 0.015933828 -0.014551028 0.018524887 0.01206052 -0.013938722 -0.022362486 0.009491298 0.0052734073 -0.0061114402 -0.009811814 0.0022847934 0.011434087 -0.02452079 -0.026552381 -0.013889126 0.026994321 -0.0016072858 0.0038377466 -0.00093347154 0.008448324 -0.023911193 -0.00396526 -0.0059606773 0.0165498 -0.017014349 -0.032391854 0.007835834 -0.01378588 -0.014923497 -0.03201847 -0.01573141 -0.01232175 0.009624579 0.007856603 0.00052951253 -0.020763464 0.0076701846 -0.013962392 -0.0057431445 0.0071756416
HallToiletDoor 0.013095919 0.014118241 0.012861617 -6.826566e-05 0.02057522 -0.01029954 0.021338817 -0.015287648 0.019398903 0.010120181 0.008724506 0.0010889303 0.009499193 0.009400908 -0.0045995647 -0.006406587 0.003960703 0.0026926398 -0.013448438 -0.012896978 0.010999911 0.008418415 -0.016029969 -0.023443878 -0.007850463 0.019896869 0.013114461 0.0041567576 0.00445717 0.007968413 -0.01422337 -0.0080514485 -0.0064796545 0.013027775 -0.017349752 -0.013072498 -0.0020307072 0.003142452 -0.013638825 -0.00986512 -0.017338216 0.0018871867 -0.0062734378 -0.0033411903 -0.0012269936 -0.0041373456 -0.0036324055 -0.010294127 0.011322116 0.015729237
Fridge -0.0013327823 0.0035656262 0.009286229 -0.0047005606 0.00622396 -0.01652562 0.008266005 -0.01860903 0.015138511 -0.005882661 0.014275523 -0.014603806 0.004016245 0.015382547 -0.01314799 -0.014781859 -0.0025492227 0.009653663 -0.0028528038 -0.014979631 0.014799075 0.0017768256 -0.015168434 -0.01803788 -0.002152869 0.01182316 0.0062348708 0.0060382863 -0.009677982 0.008594595 -0.01778717 0.0048841983 0.0062958198 0.008124381 -0.011773979 -0.024041776 0.006285354 -0.0012606253 -0.009796908 -0.015099641 -0.010827449 -0.006857555 0.00300885 -0.0013778139 0.0038022797 -0.016440427 0.0025395644 -0.015347594 -0.0042166263 -0.0004371537
ToiletFlush -0.00028257567 -0.003474652 0.0052899644 0.006300708 0.010970245 -0.014871698 0.01610422 -0.022545889 0.0015910977 0.004444221 -0.0016085652 -0.015035 0.0010870167 0.005970997 -0.00813725 -0.015100851 0.011248199 -0.0050546336 -0.0034262966 -0.009013519 0.0029700524 0.0065692007 -0.004288334 -0.002184729 -0.012539385 0.0062282123 0.011596433 -0.0026631819 -0.0030022056 0.0093204165 -0.011757583 -0.012887878 -0.0035207998 0.018398708 -0.012361706 -0.019539613 0.0028811225 -0.0036282954 -0.020432195 -0.022573054 0.001402769 0.004998554 0.0072631105 0.006978383 0.010431478 -0.004562669 0.00645778 -0.012828501 0.0094007235 0.009675954
HallBedroomDoor 0.01270736 0.012970806 -0.0070288163 -0.0042857 0.018955363 -0.0037341728 0.018747056 -0.022441424 0.0034641826 0.0015212424 0.00353266 -0.010050603 -0.0036620535 0.0009360102 0.0051226774 -0.018028798 0.0031425317 -0.0044180416 -0.007832393 -0.0041691544 0.00080732134 0.005217481 -0.017613517 -0.010954078 -0.016877832 0.016200555 0.0036490748 0.00556657 -0.005899826 0.005163604 -0.019609485 -0.004112856 0.005225785 0.0037417426 -0.010187292 -0.0225537 0.010182328 -0.0037008293 -0.020447837 -0.017363954 -0.0101922145 -0.012288357 -0.0016929746 0.0075662653 0.008807911 -0.015145365 0.010400946 -0.009000098 0.005941443 0.009041318
Frontdoor 0.0051264297 0.011218795 0.007445126 -0.0044594617 0.012499237 -0.0045896997 -0.0027317768 -0.00833274 0.008914484 -0.0051781326 0.01069994 -0.0014098771 0.005437672 0.01260673 0.0029257317 -0.0150169525 0.005492831 0.008994761 -0.007722723 -0.012481461 0.014868652 0.006513885 -0.0060897903 -0.017061032 -0.008120834 0.017094577 -0.00018093639 0.0015577399 -0.0012503318 0.0015562215 -0.011740684 -0.0072269626 0.003935681 0.015541472 -0.009751288 -0.019938992 0.0007459021 0.0057856794 -0.01630853 -0.018308697 0.0029214164 -0.0015669583 0.0015416003 0.009965015 0.0039810627 -0.0072444533 0.007916803 0.005107777 -0.0070070704 0.0122171305
GroceriesCupboard -0.0040904908 0.0015538856 0.011418194 -0.0032238632 -0.0026255366 -0.0023771867 0.011820535 -0.0019654518 0.015364508 -0.0020803746 0.006099008 -0.0059095435 0.007983882 0.0071122167 -0.0062383967 -0.006557376 -0.005881537 0.008344779 -0.005119755 -0.014451223 0.013888363 -0.0066726613 -0.00039308914 0.0023636387 -0.014491015 0.005490991 0.008667926 -0.0006374401 -0.007021779 0.010864331 -0.013805759 0.0046968814 0.0014418866 0.0077910167 -0.0060711643 -0.009577018 0.0056126304 0.0063071176 -0.009898734 -0.005382128 0.005404864 -0.011890054 -0.0024219675 0.0059382464 0.001198626 -0.0022611616 -0.005235723 -0.009508855 0.0013412402 0.0014324004
PlatesCupboard 0.0009726526 0.0038337917 0.011558485 0.004485097 0.013960283 0.0024854657 0.016728722 -0.016718231 0.012560234 0.0008467695 0.0018063294 -0.007911477 0.0055640847 -0.00021082936 -0.0048106066 -0.0051090107 0.0061594374 0.0064458274 0.004036876 -0.009610212 0.0046299957 0.0014579901 -0.014648228 -0.0116656395 0.00045463286 0.016839055 0.0017595582 -0.0068996707 -0.010061407 0.008665811 -0.0039709317 -0.00650148 0.002658416 0.010286219 -0.014023719 -0.008858545 -0.004791505 -0.0053576324 -0.011156579 -0.013936948 0.004643803 -0.01055968 0.007628639 -0.0023846712 -0.002898102 -0.012935815 0.0075636213 0.0010777146 0.0033112124 0.0031733855
PansCupboard 0.0044398853 -0.0026213308 0.001488233 0.0007162569 0.015427566 -0.009031361 0.011404965 -0.014496811 0.008509959 0.008998055 0.00496562 -0.011838428 0.009235936 0.011313611 -0.01070733 -0.018347535 0.009863705 0.010248964 -0.010691286 -0.013509551 0.013463787 -0.00017395828 -0.0120041035 -0.014151634 -0.008738015 0.020768449 0.0034727326 -0.007965294 -0.010225005 -0.006285394 -0.00018892816 0.00095630746 -0.0010898594 0.015632711 8.200915e-05 -0.017998597 -0.0068462812 -0.00900937 -0.010364358 -0.01808818 -0.0149275325 0.0065605487 -0.00091025664 0.00824826 0.0011021944 -0.010681983 -0.0001190126 -0.011977317 0.0034007821 0.0024940784
CupsCupboard -0.0033240141 0.0015681136 0.007933659 0.005783169 0.011221453 -0.014659991 0.01440113 -0.009223063 0.015110736 0.0050175516 0.012696049 0.003998842 0.0077775703 0.014584059 0.00036734564 -0.014750521 0.009833469 0.011933943 -0.0041433214 -0.011610253 0.012615761 0.011652842 -0.00939902 -0.00037977204 -0.0042343587 0.011762007 -4.9769824e-05 0.0007826187 -0.00929813 0.0068749688 -0.0008110879 -0.0013211729 0.0056931246 0.013356397 -0.013390749 -0.006266207 0.010756869 -0.010204338 -0.007475179 -0.0042860545 -0.0076639587 -0.005265618 0.009208535 0.0068136887 -0.0051120208 -0.0078617465 0.0016733472 -0.010827901 0.006398756 -0.0031142863
Freezer 0.01072842 0.005418339 -0.0021770515 0.009333839 0.013900495 -0.012055678 0.001510206 -0.013350745 0.011734095 0.0024590683 0.010738724 -0.006432734 0.010150589 0.0023633596 0.0013463201 -0.004185641 -0.0038683433 0.0006945854 0.0068833027 -0.0063050627 0.013097622 0.0065397043 0.0036467446 -0.0021910113 -0.011738361 0.004821716 0.0029007415 0.009298633 -0.0075400295 -0.004507441 -0.0050973934 0.0018837743 -0.0060050646 0.006689308 0.0032188524 -0.017978096 -0.0012693156 -0.0039038255 -0.00885592 -0.0070367428 -0.0070406185 0.0030371905 -0.0025473684 0.0022591313 0.00051367114 0.0024975708 -0.006220662 0.004202167 0.0056573134 -0.0007593297
Microwave 0.0126590105 -0.002804558 -0.005562055 -0.0072203707 0.0040752785 -0.005027795 -0.0017781211 -0.010469898 0.0079076 -0.007457523 0.007203056 -0.0004122977 0.009229909 0.0089765815 -0.0030263613 -0.009121029 -0.0020398474 -0.00080828724 -0.0131113585 0.0030791906 -0.0015356 9.13291e-05 -0.0019066456 -0.010660642 -0.006171903 0.01892108 0.0008110952 -0.00807754 -0.00020653276 -0.00066221226 -0.0054468773 -0.0045676664 0.0041519804 -0.0023001437 -0.014321557 -0.019161845 0.0050407993 -0.010486102 -0.015563885 -0.008749569 0.002209875 -0.012421641 -0.004116901 -0.0010324669 0.007042768 -0.011002395 0.007327622 -0.00020277286 -0.00305979 0.003481429
Dishwasher 0.005416748 -0.0033059246 -0.008115602 0.0063751047 0.0077122916 -0.008355443 0.012158836 -0.0108819 -0.00011171503 0.008377791 0.0046753963 0.0047130603 0.007953268 0.011398808 0.006340228 -0.008895705 0.0113428505 0.0017080032 0.0024744074 -0.0029187275 0.004441664 0.009874776 -0.0018067526 -0.01315632 -0.0013307064 0.006725021 0.0028978724 -0.0019357878 0.007136418 -0.004906139 -0.0085055 0.0006812054 0.007153325 -0.0044524926 0.0044616885 -0.0031765325 -0.0039138636 -0.003002572 -0.0134214545 -0.012286966 -0.011198528 -0.0023693882 0.007147312 -0.0040797284 0.005275896 0.0005984385 -0.0014008771 0.001748169 0.0033167251 -0.0019006599
Washingmachine 0.0051835147 0.010253052 0.009542645 0.0015648952 0.009385197 -0.010162694 0.004379879 -0.0020103264 -0.004350682 0.0008634313 0.0047294563 -0.011178752 0.0051304894 0.0056262882 -0.0041515366 -0.0043258104 0.0021792846 0.00791476 -0.0034647442 0.0055837277 0.008559742 0.0045058625 -0.0068134046 -0.010125487 -0.0058172215 -0.0009807536 0.002810645 0.0069605145 0.0030914228 -0.00028770062 0.0045906682 -0.010707446 -0.007244475 0.0013584861 -0.0050960593 -0.008658577 -0.0020129387 0.003314399 -0.009086929 -0.006962178 -0.002284956 0.0026716855 0.004113019 0.009591127 -0.007487221 -0.0029086962 -0.006679883 -0.004572378 0.0065904055 -0.004050346
