14 50
HallBathroomDoor 0.0050516916 -0.018040517 -0.009805704 0.01642263 -0.013549308 -0.015213766 -0.0036539205 -0.011824304 0.007918395 -0.006990739 0.011763415 0.002634696 0.017820528 0.019558713 0.0044856556 0.016246421 0.013357253 0.0037308417 0.009164223 0.006323024 -0.0020217185 0.01525154 0.01389307 0.014833935 0.0066645327 -0.012770327 -0.01262049 0.017322224 -0.0048068636 -0.011909409 -0.00892202 0.02195848 0.0165392 -0.006891925 -0.01796606 0.0067658895 -0.013835247 0.0003752113 -0.014931401 0.008035679 0.0049552317 0.01564815 0.010209248 -0.006252753 0.010055153 0.0074925837 0.015829345 -0.030114437 -0.005939074 -0.010736351
HallToiletDoor -0.0010243208 -0.011790295 0.005162367 0.00393851 -0.0076695965 -0.014996611 0.0021364246 -0.006386696 -0.00456852 0.0026375847 0.013693475 -0.0145793725 0.0043756412 0.015297582 0.004463051 0.016975574 0.00974572 -0.006168948 0.010374402 0.0117718065 -0.0069801454 -0.0007311643 0.020399055 0.0056789545 -0.0051785074 -0.0021337825 -0.008044362 0.026967373 -0.009969872 -0.016418453 -0.0004262405 0.018654263 0.008387398 -0.013098229 -0.02022107 0.0062425015 -0.0062472783 -0.002088716 -0.015567778 0.00954911 -0.0045642396 0.010580804 0.020696105 0.0026671884 0.008207882 4.2876094e-05 0.011848859 -0.024998862 0.0038704756 -0.015158198
Fridge 0.013038141 -0.022493996 0.0030098925 0.012774942 -0.015752112 0.0018383506 -0.008456486 -0.004565259 0.009190008 -0.013439107 0.015810817 -0.008342666 0.018991787 0.010048764 0.009357656 0.007710043 0.018976348 -0.0013337436 0.018624343 0.01382049 -0.014956167 0.008653855 0.019270081 0.0010166685 0.00022905935 -0.0047889324 -0.00210066 0.027628843 -0.012956532 -0.016931541 -0.0064288485 0.013997848 0.019624988 -0.01155707 -0.003741646 -0.010134701 -0.017966762 -0.0046253186 -0.0007321135 0.007874362 -0.0077227727 0.01519555 0.021731524 -0.005908337 -0.003280683 0.011282321 0.006151239 -0.025135858 -0.0014086514 -0.01678672
ToiletFlush 0.002787183 -0.0069924598 0.0005532271 0.0124 -0.0064289696 -0.004551921 -0.014216266 -0.00419753 -0.009385259 -0.003075121 0.017896347 -0.004976202 0.012139497 0.01610029 0.000581984 0.003092918 0.012391124 0.002534937 0.009724903 0.007524842 -0.004186728 0.011592963 0.020939063 0.017529307 -0.0022240018 -0.013271377 -0.01710225 0.027100846 -0.017800627 -0.01724975 -0.0042070053 0.010702145 0.020831095 -0.009302076 -0.014001348 0.00188775 -0.0037039234 -0.008445988 -0.0070912223 -0.003116837 -0.005223923 0.002128651 0.008302218 0.006498281 -0.003040532 -3.668201e-05 0.019482695 -0.012287314 0.010944028 -0.00891333
HallBedroomDoor -0.0042140516 -0.016233973 -0.0003135332 0.010507383 -0.0118318405 -0.010737689 -0.0021922644 0.0033387784 -0.005281298 0.002696305 0.014841864 -0.0143492315 0.0014773031 -0.0017672756 -0.00054244365 0.015201452 0.012625755 -0.00890154 0.004778334 -0.0017504892 -0.0047271457 0.0017604844 0.00647907 0.016991314 0.00741687 -0.002412284 -0.017805152 0.009758371 -0.011669563 -0.00043404294 -0.012571278 0.016832866 0.0014093844 -0.009919876 -0.008488919 -0.009903942 -0.0035325503 -0.013096288 -0.0131996125 0.0019292617 -0.010304761 0.0075599346 0.01753941 0.007786658 -0.0041374895 -0.0066878297 0.0073248916 -0.024320407 -0.0010981879 -0.0063547133
Frontdoor -0.0019433476 -0.013048223 -0.009543349 0.012887959 -0.005687407 -0.012636589 -0.0021405104 -0.003958747 -0.0002605957 -0.009142859 0.0030173198 -0.001964648 -0.0015792068 0.010603779 0.012354312 -0.00054258946 0.0056617074 0.001486197 0.013476901 -0.003187963 -0.0025369276 0.0020161206 0.010751641 0.007875908 0.008050124 0.007014111 -0.015056941 0.0103909215 -0.014255875 -0.011155297 -0.012480363 0.01119502 0.007515804 -0.01689271 -0.008059874 0.007152035 -0.015883142 0.0010994538 -0.0012961134 0.009829593 -0.007762585 0.015733086 -0.0008369436 -0.008859987 0.0030506137 -0.0016387247 0.005863354 -0.022846181 -0.0006067444 -0.0017937764
GroceriesCupboard 0.0057178508 -0.010216948 -0.0054523894 0.0003173485 -0.0021112366 -0.006844171 -0.011786627 -0.012706961 -0.0023299956 0.0033334128 0.016052848 0.001666749 0.0009114158 0.01646867 0.00634934 0.009493256 -5.650083e-06 -0.0069270316 0.007470904 -0.0022502046 0.0028968398 0.0011440148 0.019918768 0.011168107 0.0088753775 0.005682983 -0.016555302 0.02311334 -0.01677311 -0.003578163 -0.0054061175 0.005604405 0.0015952905 -0.009674457 -0.016685028 -0.009190901 -0.015255208 -0.0005026034 -0.0130244605 0.011700861 4.7767455e-05 0.013848619 0.016657526 0.0035756053 -0.00074041146 -0.0067235366 0.005712417 -0.02026826 -0.0064975824 -0.0007166952
PlatesCupboard 0.0067367055 -0.014824655 -0.006368426 9.560057e-05 -0.014050328 -0.0072444146 -0.004510208 -0.0028253815 -0.00035664448 -0.007828954 0.0066152792 -0.0010007712 0.003664813 0.014253929 0.0063862065 -0.000539615 0.008312646 0.0075494032 0.014004253 0.0057873055 -0.0041842894 0.0025489258 0.009221739 0.012972996 -0.0068004415 0.0040094284 -0.01182396 0.015358656 -0.0090318415 -0.010333049 -0.0021803759 0.0033808395 0.0070790593 -0.009951497 -3.2970376e-05 -0.010088505 -0.010251443 -0.009681402 -0.0031016355 0.008547911 0.0012872993 0.0011076886 0.005363705 0.00393522 -0.004694365 0.0027479527 -0.0011933377 -0.01719189 0.010337235 -0.008606294
PansCupboard 0.006450795 -0.016630044 -0.0031415282 -0.0041877353 -0.010658238 -0.012802642 -0.0005129915 -0.003988927 -0.0022270824 -0.008167744 0.0020368658 -0.014648658 -1.2768032e-05 -0.0021041043 0.0011869846 0.006802274 0.0134793185 -0.010758123 0.0027997454 -0.0022405304 -0.013738619 0.0010118168 0.017383939 0.014409604 -0.0026175727 -0.0033916803 -0.007626321 0.014352743 -0.0024856802 -0.000353529 -0.011407252 0.018255759 0.016274083 -0.005894985 -0.007202136 -0.008681542 -0.007966451 -0.0013271864 -0.0029919092 0.012379724 0.0065722014 0.0049461205 0.01888218 -2.007428e-05 -0.007515468 -0.0060983887 0.0047365134 -0.022922138 0.000515785 -0.0036379332
CupsCupboard -0.0034532736 -0.015919842 0.0072584967 -0.0017556228 -0.013746387 0.0021046305 0.006049669 0.0028991643 0.0040077767 -0.003457494 0.012860021 -0.0027503225 0.0037396252 -0.0024608248 -0.0012851496 -0.00082924124 0.009508145 0.006602701 -0.004120325 -0.007159826 -0.010612131 -0.003364544 0.017070517 0.00023290116 0.00025794437 -0.005632954 -0.010613713 0.015525385 -0.0029672876 -0.008177561 0.004757333 0.007826908 0.0021282437 -0.0065059415 -0.008162787 0.003193639 -0.0040738503 0.0055472585 0.0027532487 -0.0055067856 -0.0006479321 0.013112635 0.009517729 0.0054654456 -0.008851169 0.0048637833 0.012239965 -0.0104193725 -0.00018293742 0.0006970012
Freezer -0.0011760937 0.0007854921 -0.005713769 -0.002189049 -0.009665725 -0.00510571 -0.0023091226 -0.006568204 0.0073027653 -0.007973083 0.010752191 -0.0056985402 0.010337701 -0.0009934785 -0.0002678604 0.004362272 -0.00097023253 -0.0012534715 0.011871425 -0.0036908526 0.0016358139 0.005519671 0.017239945 -0.0029581746 0.0041231196 -0.007762467 0.0027615142 0.019498406 0.0016600895 -0.004924042 -0.0042344388 0.005642721 0.011236534 -0.005232156 -0.015539156 0.0026628051 -0.0017419646 -0.011879271 -0.01386103 -0.00461571 0.005515448 0.0039180093 0.0046654674 0.00828961 0.000810638 0.010421692 0.011751152 -0.0186396 0.002071113 -0.014720983
Microwave -0.0052451175 -0.014586113 -0.0023751967 0.0031943861 -0.004593319 -0.008361794 -0.0109907705 0.003625896 0.0022600682 0.006431253 0.0054803346 -0.0032057576 0.012668332 0.011715848 0.000935262 0.0006575254 0.0021095038 -0.000977598 0.005690638 -0.003804834 -0.0020482158 0.004357094 0.006479396 0.005306294 -0.008358972 -0.010651718 0.004226967 0.009129115 0.0022997973 -0.0033760173 0.00082434464 0.0028428917 0.010537906 -0.004140419 -0.010256336 0.004804139 -0.009056555 0.005596281 -0.0107206 -0.006681891 -0.00046353755 -0.0034370804 0.0136052985 -0.006496177 0.0029140948 0.0028522438 0.007795971 -0.014060595 0.0043767677 -0.004005579
Dishwasher -0.0014640061 -0.0013284136 -0.0053174268 0.0035759162 0.00095999445 0.00464374 -0.010781728 0.0023191802 0.002917735 -0.0036449744 -0.00055713113 -0.009712544 0.0103420215 -0.002782936 0.0036791624 0.0008626464 -0.0053937915 -0.0013950679 -0.0063351593 0.007232928 -0.011839175 0.0030498004 -0.0040733595 0.0129429465 0.0091103595 0.0065213623 -0.00084816816 0.008199092 0.0044504716 -0.0066219456 -0.0022835375 0.013968367 -0.0016732982 -0.003178571 -0.010501451 0.0014232938 -0.0120391855 -0.0027840536 -0.010644688 0.001803855 0.0034406898 0.013185752 -0.0049951384 -0.007704559 0.0008923791 -0.0026874403 0.00012557351 -0.0005340681 0.005209553 0.0052120853
Washingmachine 0.00010197232 -0.00877365 0.004848785 -0.003574767 -0.004229 -0.0025497514 0.0007446479 0.0023475671 -0.0019840722 0.0052350806 -0.0040005916 -0.011360496 0.0006988995 0.011990862 0.010135667 0.0072846706 -0.0020396952 -0.0035614362 0.0067026773 -0.00051471125 0.00041355795 -0.00055019767 0.011510369 0.0033602621 -0.00938534 0.004061031 -0.011699714 0.0071554696 -0.008458523 0.0009978616 -0.0075117764 0.014356706 0.00522949 -0.014544899 -0.006432115 0.00578578 -0.00553536 -0.0014029765 -0.0066376054 0.011819418 -0.009710923 0.01102875 0.015785646 -0.0033050482 0.009399421 -0.008278232 0.011310336 -0.014098242 0.0016440458 -0.010164321
