14 50
HallBathroomDoor -0.014989849 -0.04496525 -0.0023762193 0.016665623 0.024337731 0.0029497207 0.0129082315 0.010757263 0.013243225 0.010216075 -0.027452648 -0.0017977497 0.018488336 -0.0057828543 0.0076843943 0.009804313 0.0014650784 -0.012428563 0.012463936 -0.007895188 -0.0075086723 0.009134919 0.0037655253 0.0016483043 0.019303313 -0.026127534 -0.01049878 0.0021214634 -0.028120192 -0.006617204 -0.009389338 0.015278795 -0.0035127995 0.00558505 0.004716731 0.02429707 0.0064930664 0.0047343457 0.013058131 0.009411028 0.006145057 -0.0076415134 0.022917232 0.02230051 0.0030011788 0.02317841 -0.0012852816 0.00929073 0.010572106 0.004422669
HallToiletDoor -0.012734706 -0.04337548 0.0020559584 0.019857777 0.014365537 -0.004641091 0.0123514645 -0.0034681533 0.0071733952 0.010295259 -0.024720183 -0.003234898 0.008751205 0.0047882413 0.006958112 -0.0013522345 -0.0002651089 -0.014460523 0.018415064 -0.0066782655 0.0009871766 0.0010441658 -0.0026982923 -0.013519912 0.013471915 -0.02447814 -0.005888396 -0.0020569435 -0.017042158 0.003834561 -0.02195222 0.018159073 0.010218302 0.0009107875 0.02270945 0.0170224 -0.00137253 0.0074669067 0.022234676 0.009199476 -0.009507792 -0.011190023 0.020665586 0.0088786855 0.020135272 0.021535762 -0.0075315684 -0.0026450045 0.011834542 0.013694416
Fridge 0.001517818 -0.03724641 -0.0045292904 0.009429033 0.017739816 0.0013322264 0.018793736 0.006523911 0.0067150914 -0.0014906389 -0.024999347 -0.010155193 0.012178056 -0.011000771 0.0094017945 0.0010983701 0.009926289 -0.008204698 0.0048620813 -0.0074652093 -0.009884436 0.013243082 0.0019839017 -0.012161242 0.016487032 -0.023709774 0.00424638 0.011016958 -0.023192171 -0.0013120801 -0.015344097 0.007638797 -0.0005157591 0.010283951 0.021187915 0.014649258 0.0056221583 0.016037699 0.0030956084 0.006051143 -0.005991597 -0.0059082336 0.023212807 0.014230941 0.016084135 0.011513238 0.010400233 -0.0066710175 -0.001094536 0.0118216
ToiletFlush -0.0006813594 -0.03719028 -0.007929918 0.008173617 0.01739439 -0.003895304 0.009917641 0.00541871 0.0030131377 -0.0007137793 -0.018160775 0.0017260426 0.0074510654 -0.007221906 0.012322083 0.0124826245 0.006342329 -0.0050205505 0.006845194 -0.0116981175 -0.0077838833 -0.00011817423 0.0030434502 0.0035353592 0.011114307 -0.01149612 -0.0039728377 -0.0017076374 -0.021876056 -0.0053532817 -0.017859703 0.004676256 -0.003950573 -0.006239022 0.0079148915 0.007035596 0.0023375405 0.010935191 0.013036939 -0.0014859509 -0.0044507156 -0.0134824645 0.008932886 0.0023632038 -0.002158864 0.019642387 0.004461933 -0.00051101396 0.0064746365 0.011614501
HallBedroomDoor -0.011109004 -0.029233564 0.00067117444 0.008080506 0.019281674 0.001815024 0.01605615 0.00085039786 -0.0022080617 -0.004258743 -0.024082992 -0.009621374 0.0124335475 -0.0034906892 0.004829752 0.009403317 0.012269869 0.0032659285 0.012554988 0.002300266 -0.0077344854 0.002025742 0.00104104 -0.0015183529 0.016732385 -0.014923304 -0.002117126 0.004064605 -0.01077992 0.008235868 -0.019385902 0.0048509506 0.011784801 0.006293166 0.004951573 0.010562563 -0.0036024498 0.01234537 0.008714472 0.0076995087 -0.0048099225 -0.009597966 0.015284398 0.006396711 0.0039085946 0.01782395 -0.0021604192 0.0026454534 0.010296196 0.009921194
Frontdoor -0.0014048564 -0.030912934 -0.004833702 0.0045388346 0.014909705 0.01025055 0.012025453 0.012905783 0.009192066 -0.008523763 -0.015111376 0.0017123492 0.014291617 -0.006977438 -0.0065981364 0.005735762 -0.006024517 -0.0123941405 -0.0009229628 -0.0124631785 -0.0028256157 0.00917379 0.0009774868 -0.013517559 0.0057817735 -0.0025388624 0.000107898035 0.008518711 -0.0060344394 0.0042060446 -0.02053139 0.008431853 0.011588861 0.0074938205 0.012469586 0.019909807 0.003572352 0.013911941 0.018715242 -0.004526638 -0.004443118 -0.011811539 0.006351518 0.011966479 0.013076163 0.008133504 -0.00011820004 0.007346466 0.009487534 0.013226069
GroceriesCupboard 0.00014997972 -0.023556802 -0.0013991476 0.0038693403 0.0010925598 0.0011469814 0.0053011994 0.011716721 -0.002113885 0.0039190934 -0.015659565 -0.006461087 0.00877831 -0.0010463687 0.003369453 0.0062076543 0.009867853 -0.009883847 0.014767914 -0.010679584 -0.010376436 0.0019858675 -0.008417754 0.00087957055 0.016272886 -0.017319469 -0.008470844 0.008036539 -0.0080530085 0.00978571 -0.010306054 0.0063407416 0.004767509 0.006936758 0.010709209 0.009656913 0.01025473 -0.0017951286 0.011564354 0.004723268 0.0064553097 -0.0056353956 0.018358184 0.009282142 0.0063480507 0.0016148915 -0.0021436226 -0.0007672142 0.012345404 0.0055661635
PlatesCupboard -0.008974946 -0.02782099 0.0065370626 0.011568872 0.017963288 0.010383761 0.008437836 -0.0060447394 0.0061197905 -0.008641646 -0.022086846 -0.0062793936 0.005534849 0.008054432 5.063612e-05 0.009750869 0.010702082 0.0032542532 0.0039474154 -0.013848423 0.0016565921 0.011957666 0.0065578027 0.0012864626 0.00597282 -0.008565564 -0.01270149 0.007695222 -0.021989424 -0.009039566 -0.02020772 0.0100764735 0.0074751973 -0.00022292676 0.016949764 0.0151563035 0.0039671157 0.0044901674 0.01612974 0.00488542 -0.003175797 -0.0016789731 0.011487405 0.012323972 0.009614842 0.012201098 0.007038133 0.00895098 -0.0012220198 0.014676149
PansCupboard 0.0042683072 -0.023989897 0.005879717 0.0072750347 0.0061710407 -0.008731211 0.010162181 -0.006878441 0.004245064 0.004646347 -0.006747896 0.0058604255 0.010925026 -0.003784125 -0.004833604 0.011430608 0.0073755905 0.00011599988 0.011555598 -0.0067258105 -0.009524429 0.011161868 0.004071229 -0.010895179 0.010003782 -0.01285916 -0.0058392105 -0.001469753 -0.017689494 0.00023726452 -0.017129391 0.010775344 -0.00059609377 0.003597392 0.009389298 0.006091743 0.00036326444 0.01243921 0.015794814 0.011801422 0.0070689693 0.004679614 0.0071358876 0.009292044 0.015007593 -0.001344211 0.001459897 -0.0074888635 -0.0053330357 0.01491244
CupsCupboard -0.0076769395 -0.015081881 -0.0049109855 0.0022979318 0.013328988 0.00065057183 -0.00075951073 0.006181994 -0.005769899 -0.0017741909 -0.015876817 -0.0064008744 0.011907627 0.00036978524 0.012068341 0.007716657 0.003049133 0.00088842126 -0.0038940555 -0.0071433457 -0.0033128515 -0.0029708096 0.008764247 -0.009530071 0.01566129 -0.0002987165 -0.00017704397 0.00921312 -0.01030838 0.0012630109 -0.00017526196 -0.003010905 -0.0029589601 -0.0066852104 6.0193444e-05 0.014766401 -0.003806511 -0.0012328086 0.011429446 -0.0036777272 -0.0100295255 0.0059926887 0.0058935 0.011415262 -0.0013756643 0.0074548256 0.005253246 0.0072512305 0.0078093368 0.0067101195
Freezer 0.0041203895 -0.026166806 0.0014886447 0.0077507994 0.00028267328 -0.007176016 -0.002632766 0.0083742775 -0.0042240187 0.009948825 -0.01877441 -0.011028676 0.00046897895 -0.0105402805 -0.0044367183 0.0032824483 -0.0045221476 0.0027878752 0.004155774 -0.01138331 -0.013069654 0.010511756 -0.0047328784 -0.00020029375 0.0007193436 -0.0059110615 -0.0014608365 -0.0032361783 -0.017893339 -0.0044224816 -0.01121075 0.0047840048 0.011195932 0.007050319 0.017353315 0.016976349 -0.007723014 0.0015511186 0.00085273874 0.009718547 -0.0018913135 -0.0022248607 0.0006533027 0.015137087 0.0039627543 0.0010765323 -0.006334407 -0.005890409 0.011974834 0.015955012
Microwave -0.00095735904 -0.015155 -0.002430168 0.008486159 0.012970795 -0.005629084 0.0034880298 0.005852837 -0.005133095 0.0040353113 -0.015351764 -0.0034295795 0.009871835 -0.004733784 0.0016817447 0.010756917 -0.0053748786 -0.0034872713 -0.0031807406 -0.013502779 -0.007095058 0.0009194067 -0.0088394005 -0.012275721 0.011675804 -0.0046596057 -0.011724671 -0.0036885466 -0.016983878 0.0047842874 -0.019547535 0.0025398682 -0.0026185715 0.007883985 0.0076706265 0.015706694 0.008541011 0.012897398 0.011392338 0.01068289 -0.0068659335 0.0050673313 0.011807003 0.0013381975 0.0061855796 0.012567491 0.0060965847 0.0011396557 0.012211438 0.012574513
Dishwasher 0.004298367 -0.014121354 -0.00942193 -0.0014303043 -0.0027933556 0.0075013973 0.00057347474 0.00068460085 -0.0052535483 0.00818718 -0.012779072 0.00074744225 0.00097491854 0.0037836393 0.0019996807 0.0072323116 -0.0012771578 0.0027308653 -0.0025854504 -0.011170792 -0.0024818624 0.0048616817 0.006230793 0.0035405266 0.0024981257 -0.012272533 0.0065448084 -0.0042977775 -0.0062559377 0.0076802424 -0.009767342 0.0069652186 0.006110836 -0.0035004693 0.01223977 0.012770608 0.007003152 -0.0038333992 0.0047764657 0.0065214327 -0.007633736 -0.003344466 0.0010194923 0.013906379 0.01209873 0.00849627 0.006414548 -0.003159526 0.0058304416 0.008169896
Washingmachine 0.005875761 -0.008267019 0.0075931875 -0.0012927181 -0.0028082295 0.0057105636 0.00012939532 0.004426832 0.0045153224 0.009347153 -0.015896184 0.007421051 0.012879217 0.006471448 -0.0015789099 0.009836989 -0.007057409 0.0039330134 0.0076661147 -0.002600911 -0.009326683 0.009328704 0.004234487 -0.004598866 -0.0010027299 -0.0063359896 0.0056781815 0.004769715 -0.006553798 0.005494633 -0.0043637655 0.00061570347 -0.003450824 0.0069748666 0.006492978 0.0045238594 -0.0023466237 0.005185445 -0.0002985525 0.011791906 -0.0037547 0.0074955383 0.009864027 0.013093393 -0.002396977 0.00043890154 0.0068836664 -0.00935309 0.0046510096 0.008871244
