14 50
HallBathroomDoor -0.017427698 -0.022922741 0.022694439 0.037683405 0.022960862 -0.008152696 0.00094371376 -0.022918811 0.0050242166 0.013313979 0.00548302 -0.0083596315 -0.0083350325 -0.014458713 0.01018564 -0.0076352064 -0.0003251611 0.01254003 0.00018778142 -0.0020944013 -0.0005800503 -0.0035259225 0.0072201765 -0.0039327973 -0.0015575489 0.005121428 0.012436756 0.0128892055 -0.020264657 -0.0040774546 -0.0009999173 -0.014693336 -0.0013711766 -0.0027913672 0.0016240199 0.007064958 0.023053393 0.03526428 -0.0014915045 0.0036780045 0.007752827 0.023124188 0.025110204 0.017758977 0.012513203 -0.00014030376 -0.010837225 -0.031558055 -0.0029931897 0.00061956036
HallToiletDoor -0.015030245 -0.009434624 0.015932506 0.026731046 -0.0008489505 -0.01218626 0.009317424 -0.020557977 0.0036849573 0.009649125 -0.0024492964 0.0016031519 -0.009078163 -0.010853192 -0.00627568 -0.0014824092 -0.008439255 0.014106038 -0.0109997755 0.0044869105 -0.003452403 -0.011955247 0.014262737 0.005571199 0.007598236 -0.005239581 0.016561352 -0.0033047127 -0.0070852456 0.000601397 -0.007210627 -0.008897632 0.0035505597 -0.0011462992 0.014250366 0.0068030227 0.01275777 0.023218852 -0.014654138 0.008999517 0.0084774885 0.0023576512 0.020087313 -2.091474e-05 -0.00062885904 0.013445232 -0.015590655 -0.024214955 -0.0017655698 0.0045306683
Fridge 0.00025222122 -0.010417671 0.012474667 0.028288828 0.018024022 -0.014605235 0.007973509 -0.017693473 -0.0051132143 0.010591484 0.010125223 -0.00043185626 0.0060318196 -0.0024820806 -0.0058751856 0.003958535 0.0073205857 0.005292195 -0.0067409063 0.012652719 0.006180491 -0.00656896 0.014966592 -0.007701993 0.013916079 0.014174601 0.01469742 0.0033679127 -0.016802236 0.005493193 0.002882575 -0.00069631566 0.000110525434 0.00027153204 0.015372211 0.014400992 0.016251981 0.020265905 -0.0005870644 0.016944103 -0.009135712 0.017537285 0.0031699578 -0.0029830283 0.012257998 0.012883063 -0.017457312 -0.022314204 -0.0023888021 0.001366305
ToiletFlush -0.01095597 -0.023189263 0.020197263 0.0322171 0.01584453 -0.007310028 0.0061628344 -0.025920553 -0.0033729041 0.008869096 0.0056328317 -0.00047767052 -0.009496046 -0.015702939 0.0047357827 -0.0037198835 -0.0025867128 0.0060298895 -0.0012515498 0.01335547 -0.00704653 -0.005508419 0.010197977 0.011106977 -0.0029404417 0.014535959 0.019936463 0.0153818345 -3.3324537e-05 0.0009852886 -0.00022796466 -0.01326156 0.008659852 0.004262591 0.011626816 0.0043780683 0.014163444 0.021142758 -0.005840291 0.008027668 -0.0005202176 0.017053965 0.014147767 0.0060119606 0.0095487535 -0.0006807685 -0.014157919 -0.028683528 0.0021809512 0.013777802
HallBedroomDoor -0.0023032418 -0.01646624 0.01850053 0.023538975 0.01164282 0.0036957301 -0.0066819713 -0.021975385 -0.004993966 0.0010013392 -0.0005742655 -0.00534929 0.006416491 -0.01579755 0.0037686299 0.005023185 0.0030179075 0.011756924 0.0066345283 -0.005396964 -0.002716367 -0.0061798487 -0.0033793114 -0.0019112314 0.0075625787 -0.0010744053 0.014229678 -0.005124064 -0.015660826 -0.004714218 0.0068733064 -0.012074291 0.0058507104 0.0036903012 0.01064926 0.0011702953 0.01458984 0.024395669 -0.012896014 0.0079473555 -0.007920579 0.016945304 0.002985555 0.0103939045 0.0008365543 -0.005096379 -0.008091655 -0.020154241 -0.012927514 0.0069583273
Frontdoor -0.0118439365 -0.010808498 0.0056326753 0.014483043 0.004446226 -0.012948945 0.002743226 -0.0035628702 -0.0028775164 0.0022529955 0.007405735 -0.0005780088 -0.010508899 0.0025708373 0.010323734 0.002205362 0.0062420713 0.0014491511 -0.009510246 0.0097163655 0.004614516 -0.006196195 0.004324705 0.0013352677 0.0009476757 -0.0037169543 0.011981675 0.011753081 -0.0046624644 -0.0037866943 0.0044613 0.0058335867 0.010347859 -0.0043590176 0.006009328 0.0039869347 0.0062089628 0.015906408 -0.0063869855 0.0025488692 0.0040122145 0.0100173 0.016020568 -0.0029233273 -0.0065021385 0.0070536546 -0.010959176 -0.018738128 -0.011764625 0.009450392
PlatesCupboard -0.01328216 -0.014452293 0.0034274503 0.017781457 0.01483002 -0.0068935417 -0.0068763974 -0.015201569 -0.003727742 0.0045476467 0.0046685785 0.0069638486 0.0019963325 -0.01156486 -0.009323353 0.005416596 -0.010450174 0.009786772 0.004628721 0.009921453 0.0022224272 -0.011586315 0.012006316 -0.0004657431 0.0032825063 0.0035258755 0.0024636183 0.0053978413 0.004336299 -0.007570413 0.0057180487 -0.006857009 0.0064390446 0.0024802522 -0.0029795156 0.008361474 0.0057895496 0.018692747 -0.00046260218 0.009391343 -0.008579734 -0.003938947 0.009472773 0.012837905 -0.00089193205 0.0009628038 0.004535392 -0.010007251 -0.006982784 -0.0050122607
GroceriesCupboard -0.004550638 -0.012151209 -5.653368e-05 0.01861505 -4.0600484e-05 0.0018911352 0.004351422 -0.0061979108 -0.0035725103 0.00236227 0.006828142 0.006737757 0.0058851913 0.00045927346 -0.00065249176 0.0013496415 -0.002081063 -0.0054940884 0.002633611 -0.0029701255 -0.00080168864 -0.009696802 0.0034421908 0.005294559 0.0077221333 0.012403564 0.0073422124 0.00035471527 -0.013707417 -0.00737568 -0.0054678423 -0.012461774 -0.0017759282 0.0034851998 0.0073935883 0.0038101382 -0.0015957722 0.016158398 -0.0025410976 0.012941807 -0.00916264 0.013243946 0.01719367 0.009411189 -0.0039656744 0.008545308 0.0033855685 -0.0053103096 -0.007028649 -0.005592476
PansCupboard -0.010587175 -0.0115933195 0.013835947 0.01876108 0.0003270538 -0.009672013 -0.0006153994 -0.014674643 0.007086461 0.005219049 0.009663185 -0.0063733533 -0.0037475333 -0.012676273 0.008087502 -0.00018340471 -0.0014043619 0.0073049995 -0.004838861 0.008310256 -0.0008058941 -0.014249728 0.0025065192 0.007869765 0.006005402 -0.0011856912 0.004450076 0.011097214 -0.013061764 0.009368941 -0.002728328 -0.0002509231 0.0031292718 -0.005669757 -0.0019119151 0.010120635 0.006869101 0.012973594 -0.010952293 0.0120494235 -0.0010914782 0.010844317 0.015931182 0.0044252635 0.010070725 0.0059107244 -0.007988723 -0.02030981 -0.010570237 0.006768428
CupsCupboard -0.008320628 -0.013247763 0.013939379 0.013748154 0.012804893 -0.011137865 -0.007904953 -0.009294291 0.006048231 0.0055864663 0.006098776 0.0058985446 -0.0075140144 0.0036143162 -0.00082475075 -0.0032226783 0.0005489746 0.00073291245 -0.003333327 0.009615438 0.0055939164 -0.013002686 0.011945163 0.0041701114 0.011801885 0.011101441 0.010721693 0.0076070856 -0.0012378915 -0.005477516 0.0021476687 -0.0015711455 -0.005266174 -0.010112001 0.008815089 0.012661968 0.0017114392 0.0021908681 -0.0077978186 0.01492597 -0.005162414 0.005174166 0.009983616 -0.0025084717 0.0014043021 -0.0039686533 -0.005048288 -0.008826178 -0.013391098 0.0014822134
Freezer -0.009787738 -0.0131849265 0.013425045 0.01225312 -0.0031360714 0.0030127014 0.002920484 -0.0040911664 -0.009573148 0.013516553 0.009692184 0.009486371 0.00809077 -0.011602263 -0.007296798 -0.0007382756 0.0033712168 0.005191812 -0.0060884915 -0.0074100993 0.0076976204 -0.013371373 -0.0021422864 0.0007181205 0.0011220447 -0.005313673 0.012257848 0.008205774 -0.010221494 -0.0014889141 0.009774984 -0.0067497077 -0.00056237285 0.006810155 0.012201131 0.0130830975 0.013878414 0.01831248 -0.0017539775 0.004369877 -0.0029633471 0.0042805606 0.0056833616 0.011493408 0.005545543 0.009341274 -0.0037999237 -0.0041852547 -0.011515078 0.008778601
Microwave 0.0012630803 -0.009548757 -0.000780021 0.004046433 0.0115369335 -0.0055613047 0.0020745455 -0.0042118346 0.0090456 0.009723193 0.0021691788 0.009554432 0.006750852 -0.0009751294 0.0018016719 0.008045197 -0.005700559 0.0015704853 -0.0034400302 0.008764914 0.0066494187 0.0015442332 -0.0038794677 -0.008380709 -0.0032630607 0.0019800742 0.0046780882 0.004031585 -0.0033110897 0.008132798 -0.0018325449 0.0036769016 0.009161358 0.0019298882 -0.001394362 0.0053452454 0.015344398 0.009206205 -0.010177647 0.012630134 0.007875469 0.0022805778 0.015593155 0.011671382 0.0074755982 0.0071409 -0.014939522 -0.012303377 -0.012144998 0.0048862584
Dishwasher 0.0043686973 -0.0045469557 -0.0016320234 0.0035978674 0.01186555 0.0004620775 -0.0071911467 -0.009155006 -0.004338465 -0.00020864696 -0.006157715 -0.0018726044 -0.001310022 -0.006005007 0.0043523693 0.0063244216 0.0015488195 -0.0045857183 0.0029044887 0.0013265231 -0.00068286166 -0.008552675 -0.0073247137 0.00762593 0.010779897 0.011093321 -0.0018040694 0.0016842533 -0.0043444997 -0.0059734797 0.0018788107 -0.012220627 -0.007952262 -0.0019363296 0.0069811554 -0.003149187 0.00026018522 0.011981519 -0.003341428 -0.00077899575 -0.008523548 0.0062896186 -0.00031754197 0.012952948 0.0063629877 0.00066978874 -0.0076774997 -0.005080375 0.00026439206 0.009921808
Washingmachine -0.012006679 -0.010460828 0.015531076 0.017106755 -0.0014025228 0.0067761424 0.00042449989 -0.015058487 0.0042432663 0.013571833 -0.0063306238 0.006737785 0.0055538723 -0.0045949584 -0.004094322 -0.007234072 0.0005872657 0.010999339 0.0075633405 -0.003247412 0.010369469 -0.0015003256 0.008873083 0.003665439 0.008691421 0.00995897 -0.0041317805 -0.006502406 -0.004650211 -0.0049819457 0.00042685407 -0.0037540623 -0.00664753 0.00849796 0.011409021 0.0018036448 -0.0016076807 0.011326742 -0.0016652753 -0.0035291822 0.0077466182 0.004096422 0.011769585 -0.006691193 0.0011004726 -0.005528745 -0.009555564 -0.0073187114 -0.012247752 0.009812097
