14 50
HallBathroomDoor -0.017668165 0.029940022 -0.02818276 0.007945345 -0.0056698807 0.0053336606 0.0052827345 -0.006755242 0.0007161835 -0.015051213 -0.032829713 0.00468503 0.0054051457 0.010172078 -0.0022271513 0.0005214135 0.0022436925 -0.008456645 -0.0014263531 0.0092497235 0.0052999514 0.011980942 0.0024508517 0.005723275 -0.020613965 0.014478477 0.009496646 -0.020815006 -0.020330315 -0.019933311 0.010968848 -0.0069083152 -0.013684629 -0.018641379 0.01778193 -0.0174489 0.0022514868 -0.0024653224 0.0027480982 0.011972989 -0.011234747 0.00482427 0.007385215 -0.024361053 0.01814206 -0.0054925457 0.0053038 0.017236112 0.001963961 0.009646748
HallToiletDoor -0.01761819 0.021430984 -0.018035142 0.0070699616 -0.0061620204 -0.008649169 0.005434802 0.0043197013 0.0035250974 -0.008179036 -0.021260716 -0.0013288545 -0.0014465589 0.0046601514 0.0015873553 -0.0029871818 0.0075950325 -0.0008684492 0.009827806 0.016216356 0.009742998 -0.0017811329 -0.005053039 0.008280369 -0.0044019907 0.006916067 -0.0008452455 -0.006937916 -0.0042483015 -0.01455368 0.0020739697 -0.008134141 0.004048432 -8.3961735e-05 0.0063702795 -0.017568847 0.012143108 -0.013607644 0.0023707717 0.01065248 -0.00600616 -0.00093283894 -0.0012382091 -0.0031872024 0.003281944 -0.006817975 -0.0029737575 0.009863013 -0.0066418685 0.008977495
Fridge -0.013619877 0.013259987 -0.023953643 -0.004981244 -0.012432359 -0.00012830389 0.012191121 -0.013169804 -0.0033552686 0.0039628656 -0.020679789 0.00647435 -0.009221894 0.016964493 -0.009779498 0.009171344 -0.0026863138 -0.008415807 0.0073418613 0.017173776 -0.0067329803 0.017824322 -0.006685457 0.014786511 -0.018038273 0.010651106 0.0054057967 -0.014423659 -0.0105969235 -0.0106195705 -0.0018758918 0.006475011 -0.008231798 -0.010577289 0.014752127 -0.020105764 -0.0041656983 -0.013341577 0.006192178 0.013544309 0.004348623 -0.0058254804 0.0005169293 -0.004330631 0.00749274 -0.0023522289 -0.0026595837 0.011184544 0.0044343676 0.008368075
ToiletFlush -0.012325251 0.023835516 -0.026020434 0.008097486 -0.0066852937 -0.004410272 0.013076847 0.0036060347 0.005204306 -0.012784289 -0.018259399 -0.0020438216 -0.005982104 0.012233882 -0.0050225863 0.0015951624 0.0018444073 0.00276761 0.0047856164 0.011546724 0.009634444 0.013243123 0.0030113412 0.009975446 0.0011589971 0.0011625383 0.0057738284 -0.009156741 -0.00013724717 -0.01595876 0.0063975756 0.0006388267 -0.0068955543 -0.004229341 0.0075047025 -0.018856248 -0.006107816 -0.0044930633 -0.0032167402 0.01354166 0.0017942266 -0.006340232 -0.0033068685 -0.017933877 0.01121228 -0.008705766 0.0047153383 0.018096428 -0.011922446 0.013040952
HallBedroomDoor -0.015324254 0.012096999 -0.021359663 -0.0048864675 -0.009717576 0.010629732 0.0072998204 -0.0037241091 -0.0036573901 -0.0023541802 -0.016532248 -0.0021349427 -0.008432522 -0.0006261114 0.0041820128 0.005458992 -0.008175138 0.0004237118 -0.007853141 0.0040181275 0.0009871913 0.005867275 0.0027621938 0.002166603 -0.015739702 0.0103337 0.0045899535 -0.0143057145 -0.0036204474 0.0020010446 0.004376299 0.0018478755 -0.00043866897 -0.0077660917 0.015948158 -0.016001124 0.005163148 0.0022762453 -0.009505443 0.014965906 -0.012084454 -0.0057691317 -0.008357946 -0.012721059 0.005193862 0.008226586 0.009760259 0.0045420406 -0.0013121326 -0.005352581
Frontdoor -0.00016299098 0.007530329 -0.019782199 0.008462097 -0.013030936 3.6400004e-05 0.0030096688 -0.005800976 0.009211328 -0.0033986217 -0.018644849 -0.008539332 0.002511033 0.014198809 -0.0070873275 -0.00738394 -0.0106781 0.0015669345 0.003347852 0.013607193 0.005998312 0.00097191933 0.007904709 0.011953854 -0.015981806 -0.0048491894 0.0017973596 -0.009578805 -0.0009561112 -0.0037772853 -0.005806513 0.010029267 0.001995147 -0.011161153 0.011795775 -0.009442558 -0.00029577632 -0.001929596 -0.0015609947 0.0009950934 -0.0069117495 -0.006126867 -0.008636592 -0.0018140771 0.015232909 0.003046291 0.0038613372 -0.0012194487 -0.009884499 -0.0038174998
GroceriesCupboard 0.0037054361 0.01944221 -0.008778337 0.0051602605 -0.0011371588 0.0035561442 -0.0024582732 0.0027988267 -0.0018885205 -0.004853827 -0.020385163 -0.006015281 -0.005230954 0.0073819375 -0.0066601457 -0.009203175 0.003367913 -0.008059656 0.011639203 0.003447365 0.009165792 0.015348006 0.009512724 0.0014847899 0.0011042975 -0.0014691643 -2.1331929e-05 -0.015619931 -0.0057080775 -0.0009770638 0.004084143 0.00528483 0.0025977164 -0.0083329 -0.0029097465 0.0015006408 0.010392447 0.0014174682 -0.010180204 0.0044705467 -0.008033615 0.0012162451 0.00573467 -0.007561896 0.001567701 -0.0029267482 0.0035466473 0.012536101 -0.00065322634 0.008609024
PlatesCupboard -0.00071491196 0.012158221 -0.014183346 -0.0008993553 -0.0024802035 0.0013909179 -0.003461603 -0.004825978 -0.0010290414 -0.0029342887 -0.015108366 0.0032591606 0.0050834636 0.001655892 -0.008990475 -0.0073018437 -0.0069125663 -0.0032521905 0.008466463 0.0047216853 0.010326601 0.003816571 -0.0044570975 0.0139699485 -0.009186507 -0.00074677926 0.0005172243 -0.014779083 -0.012272248 -0.015265889 -0.0049254396 0.0021743882 -0.0025218527 -0.013651896 -0.0027668257 -0.0013395988 0.0026237043 -0.0038782768 -0.0018968955 -0.0042079315 -0.011103082 0.0032320793 0.0106036905 -0.016269224 0.006966682 0.0071074395 0.00531209 0.015777756 -0.0007238067 0.01349225
PansCupboard -0.014227841 0.015351176 -0.017998427 0.00067158055 -0.0052079875 -0.008552648 0.007480998 -0.007903016 -0.0026011087 -0.0034975945 -0.0073225014 0.00953737 -0.004651088 0.0135116605 0.005063218 -0.001842424 -0.0052282694 -0.0029074517 0.010784567 0.0020353813 -0.005198913 0.011759548 0.0019593185 0.0074433316 -0.0114320405 -0.0040912903 0.0055694385 -0.008235542 -0.006248935 -0.0133483 -0.0031460589 0.004225272 -0.0037193967 -0.0051865596 0.013701905 -0.0027666388 0.0075235115 -0.0036574272 0.0061436067 -0.0033227953 -0.007071541 -0.0022984785 0.009841092 -0.008543809 0.0032148538 0.0014816602 0.008338595 0.0071994346 -0.0033291713 0.008255769
CupsCupboard -0.0036631448 0.018659703 -0.01187033 0.011458643 0.0041551734 0.0009833641 -0.00668449 -0.0060854494 0.003924225 0.0009770643 -0.007711768 0.007054771 0.000968689 0.015335663 -0.002167216 0.004435127 -0.00838643 0.0016234983 -0.007029234 0.0036101933 -0.007213507 0.010091241 0.0048181233 0.009068911 -0.007320635 -0.0022915474 0.00757168 0.0017697574 -0.010302082 7.5283606e-06 -0.004284839 0.0072910273 -0.0052065565 0.005305944 0.010518277 -0.01638811 0.0019520429 0.0020256822 -0.0034455168 -0.0059121395 0.006032488 0.00032704664 0.0057439115 0.00040619104 0.012922529 0.00031461695 -0.0019524661 0.009806115 -0.004536973 0.012712511
Freezer -0.007709538 0.007887497 -0.010684655 0.008034593 0.0007507218 -0.0040221387 -0.0017901545 -0.009836637 0.0062294244 -0.010532392 -0.013690467 -0.005654995 0.0021712407 0.0041458937 0.00078834087 0.00075518125 0.00071866566 -0.00799652 0.007997288 0.0048917467 0.00943688 -0.0046217716 0.0031343868 0.014057136 0.004724686 -0.0017214617 0.005915764 -0.013631623 -0.008847548 -0.013586485 -0.0087150475 0.0042961612 0.0010886504 -0.0052439305 0.006247751 -0.009609723 0.0047043404 -0.010641499 -0.008233246 0.0066774986 0.0033163808 -0.0013415619 0.009880855 -0.015369677 0.0057090158 -0.007570767 0.007844333 -0.0015482514 0.0064779096 0.010848902
Microwave 0.005227175 0.005608741 -0.016547667 0.012101609 0.0010138631 0.006369734 0.0015088111 0.006367938 -0.0020969547 -0.0028820736 -0.013266265 0.005628916 -0.00686121 0.007828052 0.007577811 0.008178504 -0.0026119142 -0.009257387 -0.0063303784 0.008229984 -4.3206786e-05 0.011946846 -0.0017968047 0.009289432 0.001613218 0.00970721 0.0072365133 -0.0055427714 -0.003578987 -0.0054568285 0.007368349 0.0012518679 0.007446958 -0.011119955 0.0015528991 0.0013562058 0.0067709577 -0.0025665604 -0.005338036 0.009455685 -0.011632293 -0.003342545 0.0070861657 -0.014072787 0.014622191 -0.005538417 -0.0049294545 0.006343565 0.0072951172 -0.000641466
Dishwasher 0.0019605618 0.014737346 -0.016893007 0.0046409154 0.0013406777 0.006973388 0.0047281277 -0.0051412047 -0.00025471373 0.005403637 -0.015968656 0.0096527105 0.008652708 0.012312295 0.009103043 0.009688915 -0.0006963737 -0.0025972405 -0.001871552 0.007132562 -0.0018086047 0.0031460752 0.00907465 -0.004881397 -0.0072555896 0.009099025 0.0045121983 -0.0041636447 -0.010536376 0.005424164 0.0094491225 0.0083725955 -0.0059770434 -0.0015977856 0.011490525 -0.004675504 0.007821224 -0.0118792895 -0.0020225456 0.0049912976 0.0035389042 0.002509427 -0.006952258 -0.008843641 0.011904878 -0.0065658474 0.00066976814 0.008325325 -0.00881104 -0.005790476
Washingmachine -0.007726623 0.0059836186 -0.01864891 0.0007235703 -0.0044305 0.006840367 0.006467662 -0.0106150275 -0.002073126 0.006580018 -0.016643517 0.009918926 -0.005202111 0.014563038 0.0020607861 -0.0037748679 -0.0035702507 0.0054080314 -0.0004936958 0.0010365626 -0.00058969215 0.013981007 -0.003663056 0.011277723 -0.012011333 -0.004655148 0.012285181 0.00032206747 -0.0069526825 -0.006443832 -0.00595367 0.0023426707 -0.010926297 -0.0020341126 -0.0045243604 -0.010135338 -0.0013627267 0.001896521 0.0015107399 0.003158595 -0.0075741694 -0.00051594153 0.0019977822 -0.010319713 0.0019215327 0.008575527 0.005858973 0.0065566944 0.00035537314 -0.0061699986
