14 50
HallBathroomDoor -0.0039375955 0.0061603654 0.012856068 0.014222227 0.0017113015 -0.017272724 0.017461825 -0.022866603 -0.013158037 -0.02679014 0.01819108 0.004566737 -0.0040855254 0.008621421 0.028242286 -0.009750684 -0.008141943 0.0026180102 -0.006572521 -0.0045685726 0.016133018 0.0056329696 0.0065542064 0.0034969063 -0.010368951 0.02194439 -0.014290505 0.023264121 -0.0024769795 -0.0031145622 -0.006231535 0.007401015 7.606941e-05 -0.007796046 0.003198522 0.0036762797 0.020183302 -0.025781324 -0.00014396677 0.0026826512 0.0010806955 0.0014126124 0.034313925 -0.019916417 0.018175827 0.011378036 -0.0027318178 0.016981972 0.013568586 0.0076725413
HallToiletDoor 0.010811149 -0.0043789106 -0.0014719656 0.008495625 -0.0060929093 -0.012412094 0.014832428 -0.013800844 0.0032448377 -0.020054922 0.008013771 -0.0071142227 0.010338494 0.0029726909 0.013457897 0.0020392046 -5.4053184e-05 0.013213285 -0.014786927 -0.006948757 -0.001306672 0.016972413 -0.0066349786 0.01365091 -0.0020187676 0.0029677763 -0.017669667 0.014742244 -0.009602678 -0.008181356 0.003607323 -0.0084567135 -0.0034640152 -0.0094191125 -0.0066326777 -0.001290549 0.01404314 -0.01631526 1.786341e-05 0.004827185 -0.0057921424 0.0028937676 0.027476205 -0.018555293 0.014026089 -0.0020555458 0.0032909391 0.018339198 0.0055052517 0.0005221838
Fridge -2.5864232e-05 -0.007765838 0.013843889 0.010874439 -0.0028816157 -0.013780644 0.015361084 -0.013565243 0.002002315 -0.020787096 0.014666218 -0.006456333 0.0071133776 -0.0010544483 0.014591387 0.007891028 -0.00044408627 0.0063994285 0.004148781 -0.0047404096 0.014074562 0.012936083 -0.003919396 -0.00031158782 0.0068493765 0.009662115 -0.01556831 0.013827552 -0.0034931125 -0.0042980155 -0.00396784 -0.0041036992 0.0020158456 0.008102366 0.0034566454 -0.008019227 0.00959141 -0.021809822 0.0069679753 0.009080475 0.008644508 0.0014621125 0.031537466 -0.014843238 0.00412224 0.011471875 -0.0017435686 0.0076590735 0.0019744432 -0.004068338
ToiletFlush 0.0018376829 -0.0069334507 -0.0013598407 0.009741062 -0.0101622185 0.0011280869 0.008147319 -0.0139983 -0.0043061976 -0.011180765 0.009497096 -0.0102407355 0.0008964003 0.0058363522 0.019092929 -0.007414838 0.0017644159 0.012699758 -0.009421276 -0.0016758242 0.011817722 0.0069218283 -0.0057813018 -0.0031711892 -0.010112813 0.015733711 -0.017015679 0.009727505 0.0052516013 0.006422672 -0.010267587 0.007982935 0.007489127 -0.0020983757 -0.0025486662 -0.0033196555 0.011825582 -0.019414905 0.004473123 -0.0006884304 -0.003357229 -0.00894007 0.027922034 -0.011795298 -0.0009785846 0.004216837 0.005777071 0.002821688 -0.00098911 -0.002137919
HallBedroomDoor 0.005523319 -0.0052107438 0.006898216 -0.003673149 -0.0032862502 -0.006951629 0.005364539 -0.00446131 0.0002384632 -0.020455495 0.011764928 0.008628075 0.0018987805 -0.003942156 0.021034272 0.0036718778 -0.00058886997 0.0038340495 -0.011769328 -0.007388958 0.0033514572 0.014925615 0.005444951 0.0054657813 -0.006197401 -7.682474e-05 -0.010503592 0.013632382 -0.0073729283 -0.0022530141 -0.010617947 -0.0072819986 0.00864749 0.0046401233 0.0071640676 -9.44569e-06 0.0056869304 -0.015856408 0.009744537 -0.0029569103 -0.0037691721 -0.009395105 0.025713244 -0.005101074 0.008108687 -0.0046927696 -0.008582908 0.0069474783 0.0012874826 0.00856704
Frontdoor -0.004865535 0.0030948669 0.009834841 -0.0045500956 0.0034074069 -0.015048941 0.01150929 -0.017188104 0.0030649232 2.9350296e-05 0.014193433 -0.0065969573 -0.00596514 -0.0061024185 0.014176328 0.0027855358 -0.007623413 0.0029683777 -0.012888041 0.0074728867 0.006986366 0.002622564 -0.0014264936 -0.0014438427 -0.0023957149 0.012100717 -0.012325029 0.015820755 0.0035946788 -0.0019019094 -0.000525508 0.0044958233 -0.0021404272 0.007878687 0.0071861874 -0.00681537 0.015244024 -0.0020267612 0.00031918386 -0.00088969094 0.0060775643 0.0025737986 0.023776086 -0.0036671313 -0.0018743201 -0.004630362 0.0076187705 0.01584147 0.0014175172 0.012468149
GroceriesCupboard -0.000397014 -0.011246363 0.009174662 0.0072444864 0.0035814191 -0.004722661 0.00636225 -0.010581469 -0.009007699 -0.0066628763 0.008453818 0.005186787 0.0015373058 0.011228442 0.017508788 -0.004311454 0.00025627078 0.0118133025 -0.013420259 0.0010578065 -0.0031744023 0.0044674124 0.008451857 -8.77244e-06 2.8247287e-05 0.012422284 -0.0129497275 0.0038415485 -0.0047675683 0.008194032 -0.004380681 -0.0018979547 0.010838886 0.0036396752 0.0020495192 -0.0091084195 0.008136463 -0.014699266 0.009232691 0.006009953 0.0042556045 -0.0010509181 0.01794473 -0.0052476185 0.011560761 0.011095736 -0.004242578 0.0062633767 0.010520061 0.0089885695
PlatesCupboard -0.0023718702 0.00063650066 0.010311365 -0.002959434 0.0038946434 -0.005077244 -0.0032179712 -0.006747424 -0.012004112 -0.011524551 0.016338943 -0.008127267 0.0018474371 0.0064490526 0.023206249 -0.0026637665 -0.0062560616 0.008964105 -0.01390885 0.006837666 0.007651619 0.006093324 0.0073849657 0.010201629 -0.0019751212 0.014217229 -0.0046973517 0.017930144 0.009446741 -0.0041548656 -0.013899918 0.008458078 0.0016796995 0.003276366 -0.006647628 0.0055082086 0.011487883 -0.01774754 -0.003633899 0.007046419 -0.004325437 0.008276659 0.03008485 -0.010616957 0.017227361 -0.0029744962 0.008174852 0.012766479 0.010548571 0.0062388494
PansCupboard 0.008414556 -0.003525134 -0.0035613715 0.0147251105 0.0064165094 -0.0035396453 0.005686417 -0.018270677 0.004996178 -0.020997988 0.013536081 0.0022553438 0.011312752 -0.0071690064 0.01979736 -0.0050631817 -0.009785216 0.008534333 -0.0023738972 -0.0035234296 0.0038002094 0.015901236 -0.0027557248 -0.0029544346 -0.00860575 0.014720286 -0.018206283 0.012112332 0.0077378615 -0.0016877279 -0.011961117 -0.007457487 0.0038671223 0.007166574 0.007672954 0.009101377 -2.4234745e-05 -0.007650048 0.0015062474 0.010397924 0.00011437964 -0.004437332 0.026927385 0.0025042607 0.017306773 0.010499202 -0.005407922 -0.00030236557 0.010063996 0.013462765
CupsCupboard 0.0044791657 0.005939396 0.0053968434 0.010712935 0.0038860457 -0.014703361 -0.0048090992 0.002991549 -0.0018935546 -0.0018153519 0.01022725 0.0035696449 0.0010679658 0.008176336 0.01637783 -0.0072795087 -0.00886936 -0.0027210515 -0.0018195023 -0.008390162 -0.0030414758 0.008473354 0.003620744 0.0065349108 -0.009242533 0.0034157124 -0.0051925764 0.0010777317 -0.008764818 -0.0008646512 0.0049116705 -0.009831729 4.28072e-05 0.0032051587 0.008698931 -0.008586972 3.1526062e-05 -0.008611189 -0.0068853945 -0.0079299705 -0.0007045636 -0.006547564 0.023289997 -0.0007571656 0.010350953 0.0031609808 0.005995115 0.0073338198 0.008555694 0.007372635
Freezer -0.008316203 -0.008326295 0.010148807 -0.0025376806 -0.00447425 -0.0050233775 0.0056676297 -0.006397965 -0.0010076554 -0.017483244 0.009180762 -0.00078070594 0.0032217272 0.010663888 0.019654827 -0.0018891373 -0.004178435 0.0032965238 0.0020110358 0.0037797326 -0.0040400396 0.004505575 0.0026817073 0.009700251 -0.0069011925 0.007409131 -0.000660353 0.0009705332 -0.0063342904 0.008995306 -0.006800353 -0.010357757 0.002061869 -0.0024601088 -0.0015412004 0.004873864 0.0036790676 -0.02048667 -0.0035017752 0.0065255696 0.0027617696 -0.008486034 0.02630214 -0.011144828 0.0072304546 0.00694874 0.00024907698 0.016258696 -0.0033923753 0.0032595433
Microwave -0.0017352904 0.0089509245 0.012328109 0.012604624 -0.008485844 -0.0140610235 0.0052099223 -0.005054913 -0.0028151574 -0.0074403277 -0.0024933142 0.007548682 0.0064101643 -0.0037731086 -0.00040440715 0.0064826375 0.0025938335 0.00220787 0.0029141156 -0.0011466728 -0.0069303587 0.0021161786 -0.009744096 0.0039018437 0.0043295417 0.0117510045 -0.010224921 0.00031050452 0.009105002 0.008754697 0.004462454 -0.0053616124 0.0011979693 -0.0065465244 -0.008783508 -0.00575324 0.0053456714 -0.01614268 -0.0030846212 -0.00040095777 -0.008689435 0.008665078 0.018347612 -0.012454644 -0.002842535 -0.0054954775 -0.0060201944 0.0062114163 0.010046379 0.01071046
Dishwasher 0.0061875563 -0.002019405 0.009508328 0.007216685 0.0059152227 -0.008520076 0.00791998 -0.012921034 9.1405884e-05 -0.008567774 0.0051383176 -0.0059617967 -0.009006847 -0.001264441 0.00033971167 0.009824025 -0.010853847 0.0075619943 -0.0029098564 0.0033339951 -0.005802814 0.0023338373 -0.0022920612 0.008526265 -0.004975454 -0.0043260837 -0.007350659 0.010960815 0.008067921 -0.004638875 0.0036744315 0.0035234056 0.0010407284 -0.0069570043 -0.004074319 -0.0070616445 -0.002841939 0.0039338893 -0.004343252 -0.00859992 0.006460497 -0.009587465 0.0060489853 0.001842908 0.012130231 -0.0086906105 -0.0074216076 0.0118122855 0.005910447 0.0009155614
Washingmachine 0.0077460296 -0.0018369375 -0.0023899337 0.0040662526 0.0052399933 -0.006802362 0.0028184822 -0.013598609 -0.0105038155 -0.0061164405 0.0097264545 0.0057963035 0.004138702 -0.0010297624 0.011856794 0.008423218 -0.0073261424 0.012700629 0.0026640682 -0.005417606 0.0070683355 0.007514842 0.00018218285 0.00952611 0.0068287547 0.0030703102 0.002645673 -0.0017842891 0.009418636 0.0043288358 -0.003735977 -0.008519319 -0.005056244 0.00048706963 -0.0014135832 0.0069318833 -0.0025928766 -0.003316167 -0.0039340127 -0.005059031 -0.0061200936 0.0025682629 0.016303571 0.002182689 0.0038574836 -0.007922421 -0.0070748096 0.014655242 0.010169403 0.006752713
