14 50
HallBathroomDoor -0.012042969 -0.008562688 0.005183948 0.0057981117 -0.0025722596 0.0057584946 0.001428166 0.0008009441 0.008622958 -0.013402535 -0.015127205 0.0017422758 0.009322637 -0.019901216 0.0006470728 -0.009394365 -0.0020169583 -0.011243632 -0.006393817 -0.008352955 -0.011651578 -0.0139816655 -0.008502381 -0.0048750276 -0.015491647 -0.008214017 0.00012925007 0.004215485 -0.016571702 -0.004066546 -0.013581903 0.006287206 0.0028696272 0.0069110654 -0.0020207688 0.003194068 0.0020584713 -0.0053671305 0.013371434 -0.008407236 0.006891971 -0.013083819 0.0024484093 -0.0028644968 -0.0076862527 -0.005995935 0.0012282291 0.002431359 -0.0048179673 -0.003976667
HallToiletDoor -0.014510941 0.004550725 0.009037457 0.00398739 -0.0057178037 0.0060743853 0.009757923 0.0013119717 0.0153791495 -0.006882051 -0.0110801915 -0.008744769 -0.0058976337 -0.009273906 0.002292652 0.0046883514 -0.009021321 -0.00982047 -0.0048207548 0.0067634033 -0.004116859 -0.012989402 -0.012510909 -0.0034170884 -0.00957894 -0.0023508905 0.007127178 0.006544908 -0.008029521 -0.008510031 -0.01785574 0.014671699 -0.007715006 0.005319908 0.00061074103 -0.0016695472 -0.0052483445 -0.00021568258 0.008284707 -0.018638516 -0.0029845585 -0.014248579 -0.007081696 0.012513484 0.0056354655 -0.0135186985 -0.010688365 0.0056159473 0.01356333 0.0033197526
Fridge -0.015385868 -0.0059126783 0.005275653 -0.0097606005 0.009106843 -0.003360179 0.017677253 0.010965455 0.0014020447 -0.015091713 -0.017610531 -0.0048237196 0.005133797 -0.013336577 0.0038087051 -0.0060976143 -0.009360628 0.0046218485 0.0039088945 0.006209464 -0.0037685162 -0.0027108185 -0.012224472 0.001517606 -0.009450864 -0.01259821 -0.0055715065 0.0070403796 -0.008386227 -0.002676568 -0.01802655 0.012070527 -0.012178357 -0.0077184127 -0.0042649903 -0.008330685 -0.0068046297 -0.0021263924 0.0023608657 -0.0096067535 0.005639852 -0.015122528 0.009878159 0.0019996543 -0.00916201 -0.0033549706 0.00717222 0.010771373 0.014075068 0.0014955087
ToiletFlush -0.01604138 0.0025549221 0.0059916805 0.0075699473 -0.009948809 -0.0041927197 0.00024369368 0.0033952391 -0.0018521324 -0.012665125 -0.017271329 -0.0038193418 -0.00025712416 -0.01087765 0.002419786 0.008101293 0.004922164 -0.0041417577 0.001737196 -0.00010157281 -0.00014142034 -0.0052076727 -0.011158033 -0.004899018 -0.012442504 -0.00026086872 -0.006229244 -0.004352739 -0.0030090918 -0.0137581015 -0.014894738 0.007758444 0.00052794325 -0.0033478257 -0.0012427474 0.0020257041 -0.0066702785 -0.002809974 -0.001730732 -0.008990975 0.0043613664 -0.0064190794 -0.008935771 0.0012287514 0.0016433261 0.004146637 0.007162653 -0.0065526613 -0.0015337841 -0.0039773057
HallBedroomDoor -0.014297788 0.0019935558 -0.0029350505 -0.006118406 0.0030526784 0.0051578074 0.011502591 0.0105974935 0.009263834 -0.016396917 -0.015919266 -0.0115100825 0.0040734666 -0.00015328347 -0.0035924057 0.0031883006 0.0028856134 0.004602299 -0.010498606 0.00058633555 0.0051953266 -0.0062647327 -0.0025098622 0.009407464 -0.016298858 -0.011824881 -0.00096797646 -0.0031711587 -0.001055256 -0.0017833549 -0.014731579 -8.2254235e-05 -0.013114858 -0.002299643 0.006031181 -0.0071174293 -0.013399573 0.004673594 0.002745834 -0.013444186 -0.00092421565 -0.006930505 0.010381364 0.004810463 -0.0074956478 -0.0003220944 -0.00586168 -0.0030096292 0.009621279 -0.0040615527
Frontdoor -0.01596866 -0.010128327 0.004209661 -0.0013228387 -0.0022451289 -0.00708102 0.014173261 -0.008608196 0.006418239 -0.013115131 -0.004766875 -0.008684346 -0.0026434683 -0.0054344977 0.011488281 0.00969373 -0.010111617 -0.00047349895 -0.0074797566 -0.0024358667 0.002283829 -0.0045307335 0.005267478 0.0036344046 -0.011896311 -0.0015653608 0.0016747033 -0.000855774 0.00048812668 -0.0077018966 -0.010416833 0.009506028 -0.012155586 -0.0069471165 -0.009518082 -0.006743506 -0.0018149456 -0.007433846 0.002332367 -0.0034763666 -0.0033625145 0.003041169 0.003463789 0.009175958 -0.0004898892 -0.011801317 -0.009516171 0.011523751 0.0016581239 -0.0013787096
GroceriesCupboard -0.009607339 -0.00583386 -0.0008959241 -0.011371288 -0.009772002 -0.001523707 0.006925203 0.010762731 0.011152062 -0.0103742685 -0.0043834425 0.0015313266 -0.005085119 -0.0017411754 0.0076005263 -0.004386887 0.0018649542 -0.001557486 0.006912129 0.002576271 -0.00017628072 -0.0039889533 0.0027587386 0.005323717 -0.010766643 -0.0046779006 -0.007259243 -0.0008090833 0.0051968205 -0.011197697 -0.013696115 -0.0017087953 0.0052587134 -0.00068337715 -0.009612122 -0.009429541 -0.002684515 -0.009111516 0.0013228899 -0.0026514851 0.008232701 -0.0031183264 0.0018407174 0.00081167824 0.0020810536 -0.00484429 -0.004109449 0.0044494425 -0.006219087 0.0042803134
PlatesCupboard -0.014658146 0.004337073 -0.0045392066 -0.0039276206 -0.0102638155 7.128678e-05 0.013891764 0.007341059 0.014030401 -0.0018280655 0.002824365 -0.0016515355 0.008253403 -0.008028076 0.010051351 -0.00018332263 0.005626409 -0.008910021 0.0058712186 0.010148663 -0.007328491 -0.008763633 -0.0018580003 -0.0011208953 -0.013633709 0.0037385107 -0.0025512492 0.005981233 -0.011278936 -0.0135752885 0.0025557354 0.008677307 -0.003869538 -0.006172688 -0.0052311486 0.00718411 -0.00048306532 -0.011802763 -0.004890087 -0.013319132 0.0054422044 5.405691e-05 -0.005692545 0.0021091646 0.00018659054 -0.00062781334 -0.0010334823 0.0074407463 0.008648076 -0.0083604185
PansCupboard -0.015403623 -0.012998533 -0.009126157 -0.0095275035 -0.0006852084 0.0051170206 0.013915313 -0.007381701 0.010425785 -0.0035529337 -0.0116101615 -0.010777334 -0.0023778167 -0.0120364595 0.0053711585 0.0067032967 0.0031037387 -8.791639e-05 0.004218998 -0.0048147566 0.007746983 -0.013429084 0.0009723046 0.0019194726 0.0026636983 -0.003143375 0.0075526484 -0.0016907762 -0.006396809 0.00062910514 -0.0021019974 -0.004178056 0.0019412155 -0.007249498 -0.0057607726 -0.00014565693 -0.001452006 -0.011653359 -0.00021537734 -0.0014463741 -7.705281e-05 0.005199201 0.0050524357 0.0105112875 -0.011203439 -0.009849008 -0.0077393493 0.0005359365 0.0068808636 -0.0024538513
CupsCupboard -0.019730365 -0.0039990507 -0.00054698304 0.0035486808 0.008846805 0.003914168 0.011872028 0.0036481232 0.0060145757 -0.007989623 -0.0043850625 -0.007055498 -0.0037723966 -0.01211353 0.0058439523 -0.00014082948 -0.008324712 0.0022999912 0.008441371 0.0039010146 0.0012196912 -0.0012335674 -0.00973856 0.0033556232 -0.007401822 -0.00847438 -0.0047053057 0.003566547 -0.0084285885 -0.012099268 -0.00478115 0.01133056 -0.006933585 0.0059927823 0.0063125286 0.0031330325 -0.013460505 -0.0028490822 0.007428729 -0.007128335 0.011329058 -0.008247261 -0.005384558 -0.005882243 -0.0005863239 -0.013413527 0.00041915997 -0.0034300182 0.01007395 0.008514843
Freezer -0.0067986506 -0.0021498885 -0.00015685969 -0.007965787 -0.0025019865 0.004919919 0.006632958 -0.0003078066 0.008299033 -0.0060948483 -0.0087928055 0.0007087297 -0.0018798771 -0.010137242 0.0061979117 0.003315463 -0.012112142 0.0059799915 -0.00789069 0.0015763972 -0.009779687 -0.004637151 -0.006647484 0.0012135502 -0.0004713572 -0.00516862 0.0012989352 -0.009111281 -0.004599196 -0.006807015 -0.012162179 0.008512561 0.0068096346 -0.010362715 -0.003760698 -0.0082208365 -0.009232954 -0.00208184 -0.001943716 -0.007517359 0.006153637 0.0010171651 0.00061520597 0.0033767929 -0.0059194937 0.005917478 -0.0041894726 0.011297552 -0.0010215007 0.007066347
Microwave -0.012999277 -0.008342318 -0.00761275 -0.0010607461 -0.0018806529 -0.0017869131 0.00022637573 -0.005375726 0.009866672 -0.013095684 -0.005003499 0.0036552034 -0.0053335833 -0.012026222 0.008382653 -0.0017845595 0.0008824073 -0.004444318 -0.004184524 -0.0040294654 -0.0041855983 0.005275467 -0.0076960926 -0.0014272737 -0.012457388 0.008117975 -0.00014475461 -0.0015223448 -0.0059866924 -0.01077953 -0.006010407 -0.0028073185 -0.0072051636 0.0061966646 0.0052733864 -0.008725128 0.0018606195 -0.0003427746 -0.0030695836 -0.005270089 0.009790677 -0.0052064136 -0.005984408 -0.00059537025 -0.00048566214 0.0071561057 -0.010954422 -0.00671664 9.989291e-06 0.009185422
Dishwasher -0.002157151 -0.010925619 -0.00848664 -0.010838483 0.008825183 0.0057578976 0.012094428 -0.0057192175 0.0057013026 -0.00707693 -0.0052965805 -0.010372052 0.009722373 -0.00017628068 -0.0023705126 0.00038956388 -0.0020916434 0.000108362554 -0.0017883896 0.005195775 -0.0033286104 -0.0052061556 -0.0104302885 0.010305883 -0.0062327455 -0.0010641561 0.0028302548 -0.0017171251 -0.0065330965 -0.0035618322 -0.00018706892 -0.0071732416 -0.0109812105 -0.000522908 0.0044443016 -0.008990524 -0.008453735 -0.01183975 -0.004622341 -0.00078929425 -0.0015167915 0.0023019752 0.007619874 0.008275007 -0.008739248 -0.0024620143 -0.0043216255 0.0035295824 0.00059055793 0.009911237
Washingmachine -0.006384711 0.0011291201 -0.0066604097 -0.0060330657 -0.006100284 -0.006715485 0.00809723 -0.006739484 0.0045719044 -0.0068823476 -0.007083409 -0.010345144 0.006826718 -0.007930841 -0.0053052525 0.009703972 0.0065243617 -0.006615084 -0.0057328106 -0.00087616476 -0.00714129 -0.0046692477 -0.012067544 -0.005187265 -0.010885461 0.0061455914 0.007864576 -0.0073036994 0.004491715 -0.011003167 -0.0009324148 0.011546567 -0.002553132 0.006605301 0.00094432384 0.00067821925 -0.00093220716 -0.0024068295 0.008194347 1.91039e-05 -0.0008659235 -0.00643554 -0.003240382 0.008189119 -0.0022064166 -0.008074593 -0.006049774 0.008463174 0.0026668315 0.004731215
