14 50
HallBathroomDoor -0.011840763 0.019956363 0.009840817 0.0047253254 0.0026330098 -0.0069321063 0.004925477 -0.028790716 0.0035521965 -0.015781352 -0.009162884 -0.008360242 0.006485083 -0.00433626 0.0034229006 0.023268925 0.007444631 -0.015860578 -0.0038326622 0.008217217 0.0010081149 -0.0041817143 0.006384278 0.0024852173 -0.004563091 0.009620039 0.008070767 -0.010592412 0.009835954 0.02623506 -0.0076515684 -0.015933584 -0.010275133 0.009232868 -0.0050437287 -0.010786836 0.005559329 0.011358178 0.0004488326 0.01162654 0.007030471 0.0066072806 0.022442408 0.009038705 -0.01207336 -0.01969794 -0.015249414 -0.0053848242 -0.026921816 0.012170384
HallToiletDoor -0.018816795 0.0018593813 0.004193286 0.0013885248 0.0073431088 0.009886174 0.008074646 -0.018573646 0.009442586 -0.008823314 0.0036468692 0.000945093 0.008744303 -0.007758548 -0.004931657 0.004980258 -0.00062607526 -0.02177932 -0.014817069 0.019553928 -0.0031890857 0.008276759 0.010702222 -0.005761927 -0.008899064 -0.0028756547 -0.00849814 -0.008915865 -0.0059917658 0.010605784 -0.010917499 -0.018360324 -0.001163215 0.011289478 -0.002059718 0.0050883805 -0.00013771062 -0.0010038745 -0.010907397 0.014623212 0.0016420404 -0.0036626998 0.017748471 -0.0007632393 -0.0038638155 -0.0060055186 -0.00875372 0.0052833934 -0.022403542 0.0080583505
ToiletFlush -0.017570056 0.016950969 0.0031349568 -0.0018165538 -0.008688472 -0.0008632843 -0.0077206027 -0.026313 -0.005848756 -0.013555883 0.0029784217 -0.004424521 0.0036313788 -0.008719804 0.0010681251 0.018488506 -0.00061212486 -0.016090056 -0.00577081 0.015040521 -0.00654202 0.010768353 0.0036737856 -0.0077977497 -0.0053157005 0.0028761858 -0.0013619501 0.0036820767 0.009716261 0.018648557 -0.011115006 -0.023499805 -0.010521878 0.010780247 -0.0051870043 0.0059136744 -0.007906985 0.013859257 -0.0077492218 0.0034352066 -0.0032217545 -0.005494454 0.018194424 -0.0022328307 -0.010999932 -0.004585752 -0.012188902 0.00125428 -0.016578186 0.015402474
Fridge 0.00013157031 0.0001466826 -0.0052043158 -0.010305979 -0.003507708 0.0040921224 0.0035187358 -0.017476046 0.0048999814 -0.008431585 0.0056234733 -0.0055741514 0.003600849 0.0009433743 0.0013203474 0.0045252666 -0.0084353145 -0.014910585 -0.009960304 0.01067645 0.0007575794 0.012341956 0.012829649 -0.009863115 -0.0072018253 0.0049408274 0.00409148 5.687533e-05 -0.008844673 0.014290861 0.0053409557 -0.018808799 -0.012392064 -0.002720281 0.004880409 -0.010207135 -0.00014070712 0.008209125 -0.008274483 0.0066941143 0.010329227 0.0013512219 0.014508482 -0.0001780086 -0.010365499 -0.012518866 -0.008985535 0.0010935183 -0.015748948 0.0055260193
HallBedroomDoor -0.01666951 0.018036578 0.005515882 0.004361961 -0.01171726 -0.0011268721 0.0019418685 -0.017125644 -0.005283478 -0.0005713202 -0.010845113 -0.008387488 0.0003798571 -0.00859839 0.00041593402 0.016388102 0.01036751 -0.020115368 0.0022480856 0.021017263 -0.009783761 0.0011623367 0.006533889 -0.001871523 -0.0037413952 0.010705297 -0.007786079 0.0068693375 -0.002328687 0.0032144268 -0.0078118364 -0.02057813 -0.009837422 0.0014104388 0.0071415785 0.0055507813 0.0022151591 0.0025469474 -0.010209393 0.014930269 -0.002728154 0.00076941604 0.009472154 -0.008130603 -0.0002484651 -0.012374302 -0.013481695 0.008495003 -0.017385816 0.012445174
Frontdoor 0.0006467264 0.007989313 -0.004431365 -0.00020257977 -0.0049075093 -0.0028427963 -0.004811473 -0.022798123 0.0057461984 -0.00914687 -0.010610002 -0.004373051 -0.0003774257 -0.0139864655 -0.0062507545 0.018281985 0.0038616324 -0.008766433 -0.004982203 0.017577756 -0.0035697264 0.0017143233 0.010090161 0.00030235172 -0.0007856814 0.012565861 0.0045086066 -0.0059080767 -0.00020162704 0.018115092 -0.0030088776 -0.02032567 0.001168465 -0.0070866244 0.006549479 0.0004090805 0.006234599 0.009405555 -0.0002686478 0.0023392853 -0.0066972054 0.0059271907 -0.0010402211 -0.00062663347 0.002784536 -0.0010432111 -0.010947981 -0.0026169603 -0.008251936 0.01196495
GroceriesCupboard -0.0143948 0.015501294 0.005956567 -0.0051017883 -0.008386515 0.0033865413 -0.006744202 -0.016632376 -0.005776758 -0.006453521 -0.0119679775 -0.0013124846 0.0103431735 -0.009165146 0.007985276 0.013911023 0.002611135 -0.01643378 -0.009445367 0.009640645 0.0048350436 0.0043955855 0.0016557572 0.0041636643 0.0021272071 0.0075471937 0.0025537135 -0.0059021777 -0.0057117827 0.005703919 0.001440396 -0.0058624386 -0.0041883183 0.0022043607 2.3320525e-05 -0.009025191 0.0020393152 -0.005521391 -0.013570667 0.0012228414 0.0047463584 -0.007985326 0.009526577 0.0047892295 -0.008915754 -0.0031130125 -0.011876855 -0.0015334474 -0.00024396428 -0.004038993
PlatesCupboard -0.011492715 0.0061877132 0.0035206398 0.007547073 -0.011426228 0.00095401425 0.0073601687 -0.008520389 0.01012553 -0.005564468 -0.0042799865 -0.009527261 -0.004969501 0.00021209015 -0.0061861286 0.01574718 -0.0010795775 -0.008168481 -0.007987029 -0.003565414 0.00582782 0.008045392 0.013779048 -0.0062296456 0.0002305003 0.0018877795 -0.010079617 -0.0061164265 0.0068928436 0.016448965 -0.0028967208 -0.0010274063 -0.0036552874 0.0010041377 -0.004147619 -0.006616379 0.0069855363 -0.0064170063 -0.013179991 -0.0056921714 -0.0030204288 -0.0060040117 0.00092679745 0.003498181 0.0044691516 -0.0060040215 -0.0024132668 -0.0018397687 -0.01561392 -0.0007191378
CupsCupboard -0.004982006 0.014684639 0.007301806 -0.006697095 -0.0099314125 0.010219615 -2.765844e-05 -0.017459111 -0.005214098 -0.0047065606 -0.005629309 0.001406139 0.0091849975 -0.0009886057 0.0095420685 0.013343039 0.00022779092 -0.00025923765 0.0029205475 0.015224258 -0.0013880922 -0.002925276 0.007383171 -0.008588165 -0.0074784695 -0.0007711411 0.008699695 0.0062916954 0.0069377148 0.0077840104 0.004508774 -0.012287915 0.006163814 -0.0038124635 -0.0002764249 -0.003882574 0.003911237 0.000553941 -0.0012710973 -0.0018792556 0.006361614 -0.00629513 0.007814569 0.0007372202 -0.00018512804 -0.014376337 -0.0153021505 -0.009714359 -0.015284478 0.007495814
PansCupboard 0.0025889936 0.000725415 0.0065659718 -0.0022095905 0.006833818 0.0040632654 -0.0076635815 -0.011173846 0.007885649 0.003259142 -0.010294931 -0.010827109 -0.0061482904 -0.00886268 0.0066136015 0.0073803305 -0.0022133687 -0.0031055019 -0.0045584138 0.008235979 -0.008534002 -0.0044630165 -0.0052120555 -0.0038597677 0.0016940063 0.001520229 -0.004325416 -0.0039817463 0.0020014602 0.01095656 -0.008328233 -0.018145943 -0.007896196 -0.005345408 -0.005520332 -0.00036413153 0.0029140203 0.007445247 -0.01411109 0.004982106 0.003017352 0.0059700157 0.012748886 -0.0015455505 -0.001197902 -0.011257693 -0.0067777536 -0.008174356 -0.011517982 -0.0047907312
Freezer -0.0065136617 -0.00023442783 -0.0041658008 -0.0068667266 0.006126621 0.0030972334 7.125733e-05 -0.015160521 -0.0014289101 4.2945496e-05 0.006414064 -0.0112599945 -0.0057452554 -0.011093211 0.00793126 0.004810931 0.0054575033 -0.010943996 -0.00784783 0.014554776 0.008633802 0.0042589135 0.012364246 0.0055981562 -0.005505185 0.00021565132 -0.0050256685 -0.003919723 -0.0046330723 0.008663095 0.0023816193 -0.012744256 0.0054378584 -0.0064818813 -0.0040866192 0.00040496548 0.0016075973 0.005227974 -0.013378701 -0.000151632 0.007973837 0.005760238 0.001355889 -0.0060012992 0.004254882 0.0012834955 -0.0034774332 0.008682636 -0.0012202242 0.0051648235
Microwave -0.0079451585 0.013461544 0.00044599106 -0.005364944 -0.010586985 0.005993039 -0.008912058 -0.015036083 -0.0057862806 -0.0025934058 0.002530215 0.003489047 -0.0075867665 -0.003905287 0.0032744305 0.007842225 -0.0012422742 -0.01389982 -0.0114856325 0.0046062106 -0.009017788 -0.00256329 0.008974333 -0.004576741 0.0028535936 -0.0031599721 0.002745285 -0.0056369803 -0.0052915537 0.017004013 -0.0014087175 -0.014220134 -0.008747985 -0.0027723946 -0.006256365 -0.008486463 -0.008489382 0.0027894601 -0.0005552598 0.0013855484 -0.008702079 0.005743073 0.0007982939 -0.003521779 0.0063869236 -0.013056503 -0.011460416 -0.0068642693 -0.011620274 0.0039111245
Dishwasher -0.0062576397 -0.003971821 0.0054926462 -0.0005435526 0.006399645 -0.006606218 0.0038678844 -0.007319994 0.009856626 -0.010911802 0.006102924 -0.0068879016 0.010118809 -0.012174923 0.007946555 0.0078579625 0.0058122827 -0.014196347 -0.0071113193 0.013525563 -0.005803421 0.010812583 0.0013653546 0.008168514 -0.0075649456 0.004106508 -0.0031990733 -0.008179986 -0.0066768304 0.012233104 -0.009397287 -0.009158601 0.00036140875 0.010092659 -0.004496962 -0.004732474 -0.0048620435 -0.0015432825 0.005550005 0.0019183825 -0.003718857 0.007092311 0.013528299 -0.005438509 0.0060572973 -0.013002854 -0.011988421 -0.005556664 -0.010730268 0.008498121
Washingmachine -0.008213044 0.0010343918 -0.0038624129 0.004132981 0.006230124 0.0014358243 0.005746528 -0.0068922285 0.0072935694 -0.0035013964 -0.0023681812 -0.0051064375 0.0063826307 -0.004367381 0.004965758 0.0071630613 -0.0039549973 -0.0036850467 0.0025423532 0.011289047 -0.008281044 -0.0015285286 0.0034264189 -0.010495445 -0.0010203845 0.00012474754 -0.0011883889 0.0055690957 0.0022501764 0.013199049 -0.0033092066 -0.013222927 -0.0028512478 0.0063487263 -0.009986462 0.00089187064 0.00059347204 0.009567004 -0.0042804237 0.010721116 0.009050075 -0.006657181 0.009648582 0.004710523 0.0019394475 -0.01181435 0.005206782 0.007942433 -0.012445473 -0.005940515
