14 50
HallBathroomDoor -0.0098361 0.0012885514 0.029998174 0.0017728241 -0.0022350457 -0.008468 0.0021572197 0.013470498 0.021499371 -0.011376517 0.014882458 -0.021933757 0.0011259285 -0.016170558 0.011069054 0.04111635 -0.023390338 -0.010166086 -0.0067191166 -0.007057053 0.0002887806 0.0024204713 0.00051686977 -0.0057496326 -0.009083185 -0.003130233 -0.0057652234 -0.005035719 -0.009812119 -0.013294676 0.0068409527 -0.01880825 -0.016807465 0.0070210914 0.014689152 0.018624762 -0.015087437 -0.019365324 -0.008819803 -0.015080794 -0.015655402 -0.008011285 0.0063882098 -0.020467218 0.006668148 -0.0012238004 0.019600326 0.0047635236 -0.0081029115 0.0050607016
HallToiletDoor 0.0038728667 0.00961317 0.025400743 -0.007939108 -0.012175129 0.0013843525 -0.0086602215 0.001401711 0.011556781 0.0026803194 0.014515765 -0.013906425 0.015152916 -0.010342383 0.015762368 0.029233342 -0.014327159 -0.0042032506 0.006015512 0.002039364 0.0036494518 0.00849185 -0.0068779644 -0.00708684 -0.011265298 0.008506347 -0.011154237 -0.013646357 -0.017540054 -6.345342e-05 0.0037955 0.00014875417 0.0031649352 0.004400714 -0.0029859394 0.017634355 -0.009528683 -0.01906836 -0.0039621834 -0.004698495 -0.014647623 0.007376629 -0.010069832 -0.019084034 0.0128362365 -0.00089162594 0.016796324 0.0004009177 -0.0070516905 -0.0077352654
Fridge -0.0040163468 0.005240278 0.014255717 0.0074418965 -0.013468023 -0.005756494 -0.004079061 0.009834977 0.021464955 -0.0007601164 -0.000492395 -0.008398968 0.005830207 -0.016758667 0.015245832 0.02680357 -0.01942035 -0.0039529204 -0.0069477893 0.00740741 0.0030203382 0.0067469133 0.000850651 -0.0067729517 -0.00087001105 -0.001385893 -0.0118227815 -0.012633275 -0.004086419 -0.009464357 -0.0009983913 -0.00333879 -0.0004761883 0.00046434416 -0.0045448556 0.00078545755 -0.007114739 -0.017150782 -0.010242879 -0.011581479 -0.0066431584 -0.0015685208 0.005040267 -0.00247825 -0.006970404 0.0016371513 0.015524922 0.00717983 0.0055150883 -0.0078343935
ToiletFlush -0.010475734 -0.0028536487 0.020747716 0.005727849 -0.015907837 -0.010319518 0.010228236 -0.0011318556 0.01926473 -0.006103504 0.013556281 -0.01986651 0.0103391465 0.0003157328 0.011899358 0.029364316 -0.022407874 -0.007983015 0.0061070453 -0.010215429 0.007830168 0.010137457 -0.011440838 -0.010134323 -0.0040180366 -0.00039623224 -0.0061019496 -0.008857342 -0.015721742 0.0025585038 0.0059007625 -0.014567188 0.0010857843 -0.00093635515 -0.0020656618 0.012578806 -0.012910846 -0.001748849 0.00077014405 -0.006043563 -0.010100068 -0.00848434 -0.00453852 -0.012034141 0.0034219224 -0.005782595 0.011187052 0.01439926 -0.005629731 0.0009298774
HallBedroomDoor -0.0005645952 -0.0013294314 0.022355527 -0.0010963941 -0.0035453027 -0.0030783585 -0.0072887847 0.004737601 0.018193873 -0.014014106 -0.004486584 -0.0072884434 0.0005364734 -0.011601186 0.0019428397 0.029240437 -0.013965544 -0.013242355 -0.0051694177 -0.009568966 0.0063780975 -0.0057279696 -0.008344186 -0.0052474258 -0.0025618111 -2.2679651e-05 -0.0011236165 -0.006452738 -0.015524242 -0.010204229 0.0015191517 -0.014233181 -0.01076574 -0.004447668 0.009430065 0.0107259 -0.010216621 -0.015078766 -0.0070873415 -0.006757975 0.0018567011 0.0011825189 -0.007401521 -0.015694752 0.0060744076 -0.004886343 0.009640839 -0.0025673534 0.00483928 -0.006571951
Frontdoor -0.01024206 0.0076768207 0.022175986 -0.0023048338 -0.01587532 -0.009500756 0.0058578583 -0.003804968 0.020659834 -0.005763706 0.0015708496 -0.0168637 0.0125821 -0.010472991 0.013664317 0.032661628 -0.014594007 -0.010182422 -0.000591018 0.0027696292 0.012871039 -0.00094410835 -0.0007628245 -0.013359653 0.00299116 -0.00057360285 0.0055777114 -0.0118356375 -0.0010280593 0.0030244377 -0.005275151 -0.012928932 -0.008623499 0.0078120204 0.011862068 -0.003224388 8.356839e-05 -0.0007631967 -0.012555523 0.0043712873 -0.00043935684 -0.0017722485 -0.0006959255 -0.015295051 0.00632161 0.000672716 0.014756207 -0.0022805952 0.0025893087 0.00842093
GroceriesCupboard -0.002767179 0.01158472 0.025979657 0.0012366574 -0.014990479 0.0023161995 0.008463801 0.001568284 0.011424674 0.00064866483 0.00205828 -0.0019159188 -0.0031036362 -0.014735434 0.0005095062 0.03180424 -0.008161919 0.0042291214 0.0012236391 -0.011877415 0.0065542716 0.0022414173 0.006827423 -0.007425741 -0.003738942 -0.00085266435 -0.002369336 0.0030902666 -0.009004898 -0.0060996413 0.010949842 -0.0039507644 -0.012975574 -0.0044833575 0.004014263 0.009324414 0.0009174751 -0.016386108 -0.0060790773 0.0026247434 0.0012316545 -0.0076771765 0.0036684098 -0.003930488 0.0075043426 0.0057858657 0.0084193675 0.014564432 0.0009820487 -0.008259905
PlatesCupboard 0.0033963283 -0.0059634293 0.014170468 0.0020222191 -0.01586569 0.0014426258 -0.00799261 0.008569466 0.02170077 -0.010783705 -0.0048556835 -0.016812857 0.009717291 -0.009830773 0.0051812143 0.025245449 -0.013988631 -0.009686633 0.0025925362 -0.00078899885 0.0021987655 -0.0029117882 -0.0066616544 0.006429491 0.008616666 -0.008029174 -0.0012805088 -0.01127402 -0.011898315 -2.585422e-05 0.0075166775 -0.013857918 -0.0013574902 -0.0026631344 -0.0030157354 0.005263376 -0.011474068 0.0010942362 -0.011842786 -0.0048431256 0.004536054 0.009341552 0.00823155 -0.009049447 -0.0051658056 0.0006209722 0.016102578 -0.00075004634 0.0021964242 -0.0014443884
PansCupboard -0.0072428705 -0.0014593066 0.0040498367 -0.0071950424 -0.0010262695 -0.0007190564 0.00068062474 -0.0003241599 0.020083727 -0.010649492 0.012976714 -0.002557161 0.00021784479 0.003523903 -0.00087594683 0.03102141 -0.0072309365 0.0038354842 0.0062552863 0.0025102051 0.013519153 0.0031913833 0.00046178192 0.0059978855 0.0033117512 0.0062984936 -0.006165131 -0.0073074414 -0.011394824 0.0025391222 0.008784076 -0.01595622 0.0032024279 0.007108067 0.0073213438 0.007908546 0.002877905 -0.0042387657 -0.009583686 -0.0095582465 -0.003001587 0.0070470246 -0.010262036 -0.011261869 0.0049222657 0.007227917 0.010507432 0.0060068057 -0.0065616346 0.007256608
CupsCupboard 0.0033919932 0.0061726156 0.008245623 -0.00096227456 -0.0133902235 0.0038956965 0.007823995 0.010349039 0.01829809 0.00023115342 0.00661959 -0.005749609 0.011212899 0.0031088283 0.011530706 0.024897786 -0.0012264806 -0.0093885865 -0.0061640143 -0.0019851618 0.0025464126 -0.008419302 -0.0050266944 -0.0025585545 -0.006418258 0.0052544987 0.002363569 0.0062022745 0.0036773998 -0.00089840725 -0.0046919007 -0.0066587883 -0.0095704375 -0.0032197724 0.0028338064 0.0013500577 -0.00053255825 -0.0044097328 -0.005254915 -0.01151961 0.004772552 -0.00044397794 -0.010378528 0.002067916 0.0043337266 -0.002065121 0.00062313094 0.012915094 -0.0035576578 0.0040042344
Freezer -0.0018650308 -0.0015087912 0.014006431 0.0028113208 -0.015482852 -0.009496351 -0.0009938701 0.008473138 0.013912522 -0.0042811832 0.009567858 -0.009786175 -4.1715397e-05 -0.011721362 0.0078173075 0.027875435 -0.016845725 0.0067869825 0.0017264322 -0.009635032 -0.002850775 -0.0014015621 -0.009233451 -0.006996176 0.0020740926 -0.002389918 -0.011507626 -0.010490475 -0.008263289 0.0050144442 -0.0037073754 0.001203366 -0.0074355593 0.007862764 0.006358638 0.0068812217 0.0027907633 -0.012354927 -0.014899169 0.0049885423 -0.010260219 0.0037524672 0.005648193 -0.013588623 -0.00539262 -0.005315098 0.012253715 0.008291254 -0.007639511 -0.007729037
Microwave -0.009171354 0.004637033 0.00949127 0.004843682 -0.006791274 0.00071085285 0.009894865 -0.00674842 0.018362023 -0.013167592 -0.006632404 -0.012139549 0.011861485 -0.011787137 -0.0016007952 0.015331394 -0.018153988 0.005118275 -0.006909109 -0.010886942 -0.0016193528 0.0045254044 0.0049702246 -0.011588388 0.0003354082 -0.0037369013 -0.0030952054 0.0049594734 -0.010072684 -0.0074244565 0.0041263155 0.003132638 -0.012226134 0.010442564 0.0025417565 0.0059900866 0.004944858 -0.014857592 -0.011802584 -0.01005487 -0.011321907 0.001222126 -0.0100762695 -0.0036743819 0.0070479186 -0.0061827702 0.0057668802 0.0029905788 -0.0077461447 -0.0025166383
Dishwasher -0.0073501165 -0.0061289673 0.0014278077 -0.004545216 -0.00784221 0.0069864937 0.008322054 0.0042584306 0.019246604 -0.0046450063 -0.0025530765 -0.0022326577 0.0026913346 -0.010643089 0.0088488525 0.012677958 -0.015208915 0.0058865696 -0.00019738746 -0.0041830996 0.006684007 -0.0024415243 -0.008635578 -0.0085316645 0.0015694229 0.005709412 -0.005881655 0.0011968652 -0.007885071 -0.010601771 0.0013602858 -0.010504913 -0.0074524013 0.010037319 -0.0067542796 0.0074316836 0.0017322145 -0.009976057 -0.004172422 -0.0059854956 -0.00150711 0.008589589 -0.0016789617 0.00027863478 -0.00815158 0.0093129445 0.01615502 0.0044607744 -0.010240938 -0.00062481797
Washingmachine 0.008360176 0.0013368734 0.0035675094 -0.00047339863 -0.006322539 -0.0066528907 -0.0011264676 0.0019051409 0.016273502 0.0051195174 -0.0034937225 -0.0061078807 0.00972757 -0.0013771658 0.010007776 0.013511729 -0.0038573083 -0.00050058105 -0.00073062227 0.008362953 0.00045041772 -7.2298404e-05 -0.0026621863 -0.011402168 -0.0025074333 -0.0003675033 -0.0041182586 -0.0050844187 -0.013216109 0.0043216697 -0.0010361755 0.0064852755 0.00033559656 0.0027271223 0.0018903966 0.001358235 0.0005014003 -0.00537425 -0.0026638343 -0.001333152 0.00035447945 -0.0067629023 0.0063706255 -0.011303385 0.0011299426 0.008138577 0.0068605053 0.0093407435 -0.010645444 -0.0080508115
